svm_type c_svc
kernel_type rbf
gamma 2.7778e-05
nr_class 14
total_sv 657
rho 0.128035 0.0117828 -0.30519 -0.0696287 -0.199951 -0.403711 0.212392 0.025671 0.167298 -0.440949 0.491823 0.432871 0.290673 -0.272449 -0.506078 -0.209115 -0.689497 -0.513232 -0.171134 -0.0424004 0.0118697 -1.10068 0.185979 0.045064 0.287677 -0.417509 -0.158943 -0.299469 -0.487499 -0.0774636 0.0269916 0.10478 -0.519432 0.284293 0.205019 0.294367 0.600373 0.202669 -0.409686 0.43497 0.667536 0.811894 0.309964 0.822837 0.802471 0.715617 -0.087983 -0.488426 0.19537 0.290498 0.445682 -0.495367 0.738234 0.594455 0.425777 -0.181547 0.217276 0.291367 0.40412 -0.585269 0.497095 0.48922 0.788663 0.545761 0.630376 0.561046 0.257238 0.749214 0.7574 0.682556 -0.440849 0.0865622 -0.583623 0.418149 0.452958 0.295101 -0.0364618 -0.610588 0.286262 0.580906 0.214314 -1.06539 0.290555 0.313099 0.588993 0.891379 0.905008 0.934546 -0.0327129 -0.0275835 0.171185
label 1 2 3 4 5 6 7 8 9 10 11 12 13 14
probA -4.08285 -4.10792 -4.09267 -4.22634 -4.1328 -4.00928 -4.27057 -4.16845 -4.16383 -4.08822 -4.10201 -4.28359 -4.26217 -4.151 -3.97303 -4.16051 -4.20067 -3.97014 -4.16124 -4.04154 -4.2056 -4.24728 -4.31087 -4.20572 -4.14324 -4.10318 -4.03025 -4.02206 -3.95096 -4.00005 -4.14157 -4.18107 -4.05646 -4.34209 -4.32055 -4.27106 -4.50043 -4.04774 -4.25837 -4.1953 -4.12125 -3.90774 -3.78846 -4.29283 -4.1874 -3.95115 -3.95589 -3.8968 -4.25626 -4.32728 -3.7267 -3.95833 -4.12977 -4.20431 -4.08093 -3.94057 -4.17407 -4.11911 -4.43037 -3.94625 -4.29584 -4.17452 -4.18614 -4.05738 -4.04198 -3.734 -3.87895 -4.1276 -4.03473 -3.96071 -4.31577 -4.24286 -4.15809 -4.31728 -4.51395 -4.24318 -4.21653 -4.05014 -4.37191 -4.66921 -4.29823 -4.26744 -4.21815 -4.22839 -4.50477 -4.2557 -4.1322 -3.98447 -4.23923 -4.2893 -4.27395
probB 0.0798375 0.0773637 -0.0511405 0.040282 -0.0772559 -0.218749 -0.766502 -0.292321 -0.147942 -0.146743 0.571152 -0.0372319 0.0956615 -0.300632 0.178521 0.0892345 -0.415246 -0.124752 0.0534215 -0.00700955 -0.0474734 -0.412442 -0.262314 0.200141 0.12006 -0.0241452 -0.104959 -0.189413 -0.423394 0.198558 -0.114147 -0.175923 -0.458309 0.183806 0.0423713 0.118205 -0.584695 0.0523205 0.388385 0.169655 0.0679195 -0.0229194 -0.514358 0.120189 0.0239996 0.0970266 -0.0743893 -0.156971 0.170387 0.159761 0.101648 -0.189935 0.395047 0.249395 0.155574 -0.130207 0.10492 0.169515 0.105606 -0.0480896 0.267158 0.412586 0.0709989 0.311037 0.0751572 0.48003 -0.112713 0.240293 0.259941 0.137888 -0.175381 -0.466232 -0.358349 0.430305 -0.0923999 0.149378 -0.136489 -0.107657 0.723398 -0.104053 0.145264 -0.628878 0.957501 -1.09193 -0.252236 0.297405 0.260747 0.104299 -1.02344 0.165133 -0.0918326
nr_sv 38 45 40 48 49 46 25 57 57 53 58 43 56 42
SV
0 0 0 0 0 0 0.04708705758230933 0 0 0 0.416474506359293 0 0 1:65 2:63.303 3:60.4887 4:57.6598 5:54.922 6:52.1984 7:49.4529 8:46.2766 9:43.643 10:41.0561 11:38.5064 12:36.042 13:33.6341 14:31.3066 15:28.5741 16:26.4437 17:24.7208 18:24.8283 19:27.6192 20:29.9717 21:32.2044 22:34.93 23:37.2329 24:39.2183 25:41.2828 26:43.6812 27:45.8396 28:48.1265 29:50.9904 30:53.2659 31:55.8441 32:57.6615 33:56.5966 34:54.601 35:52.6046 36:50.0993 37:48.003 38:46.0989 39:44.2753 40:42.3878 41:40.1467 42:38.4231 43:36.817 44:35.0907 45:33.4846 46:32.224 47:31.1492 48:31.112 49:30.6423 50:30.7183 51:31.1846 52:31.9147 53:32.1947 54:33.0252 55:34.4006 56:35.7867 57:37.336 58:39.1725 59:40.8119 60:42.0784 61:43.7737 62:45.9213 63:47.6492 64:48.8824 65:48.959 66:48.9483 67:48.8774 68:49.2702 69:47.4275 70:45.0155 71:43.4213 72:42.7249 73:41.9161 74:41.8264 75:41.9438 76:41.4438 77:41.1447 78:41.0077 79:41.0223 80:41.2027 81:41.6869 82:42.0297 83:42.8608 84:43.4913 85:44.9181 86:45.4806 87:46.1801 88:46.2447 89:47.2171 90:48.3066 91:50.3631 92:51.9105 93:53.8092 94:55.2218 95:57.0124 96:59.3498 97:60.9621 98:62.996 99:64.8349 100:64.7254 101:62.2897 102:58.5025 103:55.8793 104:53.2718 105:50.5606 106:48.1077 107:46.0489 108:44.0499 109:41.4056 110:39.9427 111:38.3061 112:36.0352 113:33.543 114:30.2086 115:27.7331 116:25.063 117:22.898 118:21.0192 119:19.4772 120:17.9604 121:16.9493 122:16.3542 123:17.1633 124:18.5685 125:20.04 126:22.6992 127:25.3751 128:28.709 129:31.6642 130:34.581 131:37.6377 132:40.856 133:43.733 134:46.7457 135:50.5684 136:53.8939 137:56.3571 138:58.4247 139:60.5433 140:62.7011 141:61.296 142:58.0617 143:55.0575 144:52.0528 145:48.9542 146:46.0439 147:43.1337 148:40.0354 149:36.6202 150:33.7122 151:30.422 152:27.3225 153:24.0381 154:21.8023 155:21.4684 156:24.7589 157:28.2931 158:31.8277 159:35.0195 160:37.7607 161:41.7732 162:44.9707 163:48.1664 164:51.0343 165:53.6922 166:56.4655 167:59.244 168:62.0101 169:64.0026 170:66.032 171:65.5936 172:62.1293 173:58.9434 174:55.759 175:51.6243 176:48.1926 177:44.7783 178:41.8633 179:39.3589 180:36.0077 181:32.6983 182:29.1582 183:26.1013 184:23.414 185:24.0263 186:26.5434 187:29.2343 188:31.9354 189:35.0885 190:37.7177 191:40.4334 192:43.2003 193:45.9766 194:48.7094 195:51.3438 196:54.5055 197:57.2416 198:59.8764 199:62.4602 200:64.8464 
0 0 0 0 0 0 0 0.1687403966093861 0 0 0.4804632677177904 0 0 1:70.859 2:69.5432 3:67.2683 4:64.3275 5:61.612 6:58.6944 7:56.2696 8:54.1207 9:51.2451 10:48.3845 11:45.8812 12:43.5463 13:41.2323 14:38.4853 15:35.7789 16:33.1233 17:30.9567 18:28.848 19:27.927 20:29.9371 21:33.9411 22:36.7764 23:39.8524 24:42.9635 25:46.1008 26:49.253 27:51.9279 28:54.4075 29:57.4007 30:60.4111 31:63.8203 32:67.3091 33:68.4201 34:66.7104 35:64.2225 36:61.5574 37:59.4012 38:57.0429 39:54.4918 40:51.7434 41:49.3012 42:46.405 43:44.1182 44:41.8863 45:39.1625 46:36.5341 47:34.6284 48:34.0069 49:33.2508 50:33.5506 51:33.8108 52:34.0098 53:34.5936 54:35.3646 55:36.5598 56:37.6512 57:38.6339 58:39.6037 59:40.7127 60:42.1958 61:43.8343 62:45.6116 63:47.1847 64:48.8402 65:50.4501 66:51.1011 67:52.4069 68:54.234 69:55.7698 70:56.8351 71:56.9762 72:56.0854 73:54.2538 74:51.5488 75:49.0908 76:48.0587 77:46.8651 78:46.2223 79:46.0507 80:46.0181 81:46.1807 82:45.5483 83:45.4558 84:45.7436 85:45.2358 86:45.0919 87:45.4821 88:45.7983 89:45.9237 90:46.2419 91:46.7047 92:47.4376 93:48.4285 94:49.5276 95:50.9585 96:52.6819 97:54.5728 98:56.4725 99:56.9466 100:58.5324 101:60.885 102:60.8657 103:57.7101 104:55.1618 105:52.8343 106:50.1513 107:47.6291 108:45.2334 109:43.3695 110:41.7732 111:39.5184 112:37.3954 113:35.4278 114:33.2015 115:30.6107 116:26.9376 117:24.1388 118:22.3726 119:21.3651 120:20.6307 121:20.7809 122:22.3698 123:23.6851 124:25.9677 125:28.6264 126:31.3878 127:34.4404 128:37.5913 129:41.106 130:43.4111 131:46.3213 132:49.4068 133:52.5385 134:55.7041 135:58.1937 136:60.709 137:63.7053 138:66.2487 139:66.5382 140:65.2419 141:61.7172 142:58.1378 143:54.7832 144:50.9902 145:48.13 146:44.8242 147:41.0366 148:37.0254 149:33.2416 150:29.7069 151:26.9073 152:24.2159 153:24.3668 154:26.8353 155:29.5178 156:32.2044 157:35.4846 158:38.4853 159:41.6307 160:44.3203 161:46.7457 162:49.8982 163:52.9254 164:56.0811 165:58.9929 166:61.5653 167:63.9068 168:66.6252 169:68.6879 170:67.1034 171:64.3944 172:61.7673 173:58.6163 174:55.4666 175:52.245 176:49.6251 177:46.9385 178:43.7381 179:40.6081 180:37.4836 181:34.8605 182:32.2942 183:29.1935 184:26.0311 185:25.4241 186:27.8688 187:30.4141 188:33.5413 189:36.4968 190:39.5125 191:42.0863 192:44.5535 193:47.5186 194:50.4877 195:53.4604 196:55.9397 197:58.421 198:61.3656 199:64.2807 200:67.3686 
0.02583073332495034 0.1955197115631871 0.1367365605656502 0.1580801634765874 0.03590357616702276 0.1217129778037834 0 0.026313189573 0 0 0 0.07836491713420962 0 1:76.2365 2:75.0989 3:72.6482 4:69.721 5:66.7534 6:63.7888 7:60.8278 8:57.8707 9:54.9183 10:51.9714 11:49.0309 12:46.0981 13:42.6886 14:39.2943 15:36.4012 16:33.527 17:30.6769 18:27.8583 19:25.2255 20:24.1512 21:26.8173 22:29.8635 23:33.1083 24:36.5353 25:40.261 26:43.9109 27:47.1751 28:50.2808 29:53.3931 30:56.3573 31:59.4822 32:62.4619 33:65.5959 34:69.3191 35:73.3561 36:75.6671 37:75.9054 38:73.4997 39:70.4572 40:67.8123 41:65.0018 42:62.0101 43:59.244 44:56.5113 45:53.8173 46:51.162 47:48.3207 48:45.7665 49:42.5775 50:39.471 51:36.3499 52:33.5711 53:31.1832 54:29.8655 55:31.6238 56:34.4827 57:37.647 58:41.4396 59:45.3123 60:49.9081 61:53.9669 62:57.4143 63:60.9023 64:65.0006 65:69.1164 66:72.5453 67:74.8013 68:74.2464 69:72.0177 70:69.5543 71:66.5443 72:62.8007 73:59.1428 74:56.0475 75:53.0466 76:49.824 77:46.395 78:43.1112 79:41.0081 80:39.4566 81:39.1391 82:39.0593 83:39.8573 84:40.1287 85:41.5996 86:42.1958 87:43.2929 88:44.5712 89:46.0148 90:47.158 91:48.2838 92:49.6099 93:51.3147 94:53.1764 95:55.0201 96:56.5164 97:56.9263 98:58.1538 99:60.4231 100:62.4783 101:62.3992 102:61.1364 103:60.0333 104:57.0262 105:56.0149 106:55.8166 107:55.2734 108:54.7895 109:54.8236 110:55.3498 111:55.0994 112:54.7414 113:54.3043 114:53.8233 115:53.6125 116:53.1632 117:53.0503 118:53.2759 119:53.3497 120:53.6341 121:54.5728 122:56.2106 123:57.5668 124:58.8891 125:59.7709 126:60.5052 127:62.4004 128:64.463 129:65.0128 130:63.0374 131:59.7382 132:56.359 133:53.3036 134:50.1653 135:47.0211 136:45.0188 137:42.5304 138:40.6189 139:38.3406 140:36.4158 141:34.3026 142:31.6094 143:28.1879 144:25.3279 145:23.7829 146:23.209 147:23.0145 148:23.209 149:23.7829 150:25.6434 151:27.4365 152:30.025 153:32.7313 154:35.5079 155:38.2934 156:41.0409 157:43.8444 158:46.6938 159:49.3578 160:51.8582 161:54.6124 162:57.2035 163:60.2182 164:62.1305 165:64.6621 166:66.459 167:67.732 168:67.4721 169:64.9603 170:61.6853 171:58.5242 172:55.4782 173:52.5556 174:49.5193 175:46.3627 176:43.2068 177:40.052 178:36.3088 179:32.4371 180:29.283 181:26.0019 182:22.4772 183:21.6762 184:24.7394 185:27.6592 186:30.5945 187:33.5413 188:36.4968 189:39.459 190:42.9217 191:46.271 192:49.2545 193:52.2399 194:55.2002 195:58.1378 196:61.131 197:64.107 198:67.0671 199:70.0215 200:73.0113 
0 0 0 0 0 0 0.6991309424028264 0 0 0 0.2496987058074558 0 0 1:60.6712 2:59.0445 3:56.5236 4:53.956 5:51.4783 6:48.8698 7:46.3898 8:43.9119 9:41.3915 10:38.8234 11:36.3457 12:33.8712 13:31.3036 14:28.7794 15:26.3062 16:23.8381 17:21.2245 18:19.0131 19:21.0702 20:23.585 21:26.0769 22:28.5701 23:31.1449 24:33.6853 25:36.2217 26:38.7073 27:41.3039 28:43.7865 29:46.3098 30:48.8698 31:51.4783 32:54.0949 33:56.7226 34:59.4362 35:60.4205 36:58.6944 37:56.2696 38:53.8521 39:51.4419 40:49.0414 41:46.6505 42:44.1684 43:41.5845 44:39.2183 45:36.7003 46:34.5412 47:32.238 48:29.5484 49:27.0658 50:24.4504 51:21.9158 52:20.2799 53:20.9379 54:23.6473 55:26.0066 56:28.8012 57:31.5042 58:34.2174 59:36.7494 60:39.4778 61:42.3004 62:44.7678 63:47.5954 64:50.2512 65:52.9086 66:55.7389 67:58.4853 68:61.0613 69:59.91 70:57.8388 71:55.6073 72:53.2009 73:50.8119 74:48.6554 75:46.1008 76:43.5587 77:41.2659 78:38.8909 79:36.5546 80:34.3859 81:32.2793 82:30.1084 83:27.7431 84:25.7398 85:23.5678 86:22.7795 87:24.5934 88:26.9677 89:29.7581 90:32.6286 91:35.739 92:38.4509 93:41.2334 94:44.0733 95:46.9589 96:49.4423 97:52.8403 98:55.5095 99:55.6065 100:53.9208 101:51.696 102:49.3576 103:46.8039 104:44.3273 105:41.6009 106:39.302 107:36.7789 108:35.0655 109:32.5078 110:30.4932 111:29.0318 112:28.4942 113:28.044 114:28.4889 115:28.5732 116:29.4833 117:30.073 118:30.9332 119:32.1091 120:33.478 121:34.9186 122:36.8287 123:38.5394 124:40.3889 125:42.3898 126:44.3958 127:45.9944 128:46.5366 129:46.2223 130:46.3839 131:47.5052 132:47.1036 133:44.7801 134:42.5897 135:41.5641 136:40.957 137:41.4843 138:41.8385 139:41.7767 140:41.6104 141:41.4163 142:41.0731 143:40.3278 144:40.8455 145:41.6329 146:42.3671 147:42.7935 148:42.8127 149:42.3862 150:42.585 151:43.2885 152:44.9758 153:46.1821 154:48.026 155:49.6833 156:51.1224 157:52.6817 158:54.1726 159:56.0949 160:56.1504 161:53.8521 162:51.1788 163:48.4273 164:45.5044 165:42.9145 166:40.7516 167:38.7265 168:36.3565 169:34.6814 170:33.2248 171:31.532 172:29.4119 173:27.0421 174:24.0478 175:21.2279 176:19.2474 177:17.5139 178:16.4776 179:16.1519 180:15.9775 181:16.5223 182:17.702 183:19.4772 184:21.2166 185:22.898 186:25.3868 187:27.7363 188:29.9687 189:32.238 190:34.5412 191:36.8684 192:39.2183 193:41.908 194:44.2726 195:46.6505 196:49.0414 197:51.4419 198:53.6007 199:56.0291 200:58.2497 
0 0 0 0 0 0 1 0 0 0 0 0 0 1:57.8705 2:56.682 3:54.8294 4:52.3931 5:49.9626 6:47.4574 7:44.8694 8:42.4505 9:39.9077 10:37.3637 11:34.961 12:33.0496 13:30.6769 14:28.3246 15:25.8747 16:23.3085 17:21.0267 18:18.7965 19:16.6492 20:15.9497 21:18.6601 22:21.0082 23:22.9022 24:25.4263 25:27.8805 26:30.7055 27:33.1861 28:35.8492 29:38.5138 30:40.8635 31:43.3855 32:45.3933 33:47.8553 34:50.7597 35:53.5326 36:54.4558 37:53.9052 38:52.0224 39:49.4088 40:47.4062 41:45.0317 42:42.5735 43:40.7352 44:38.4388 45:36.0624 46:33.9759 47:31.5657 48:29.7371 49:27.7385 50:25.5635 51:23.483 52:22.194 53:21.2191 54:22.853 55:25.3751 56:27.288 57:29.7357 58:32.132 59:34.931 60:37.7949 61:39.591 62:41.9688 63:44.6814 64:47.708 65:50.8952 66:52.8307 67:52.597 68:51.1347 69:49.4516 70:47.235 71:45.2392 72:43.168 73:41.1693 74:39.429 75:36.8328 76:34.68 77:33.0246 78:31.54 79:30.608 80:30.2135 81:30.0599 82:30.2732 83:30.1902 84:30.5366 85:31.9126 86:32.6556 87:33.5913 88:34.5039 89:36.0048 90:37.2663 91:39.0169 92:40.0369 93:41.2449 94:41.7481 95:41.4924 96:41.3842 97:40.1249 98:39.1599 99:39.0214 100:38.5327 101:38.2186 102:39.541 103:39.9185 104:40.5292 105:40.8033 106:41.5485 107:42.2664 108:43.135 109:42.5791 110:43.0767 111:43.605 112:43.852 113:43.9469 114:43.5085 115:43.554 116:44.1017 117:45.7714 118:47.4688 119:49.2809 120:51.2338 121:52.8289 122:54.58 123:55.9955 124:55.254 125:53.7838 126:51.1567 127:48.6647 128:46.1736 129:43.7356 130:41.3493 131:39.0491 132:37.2673 133:35.4546 134:33.8957 135:32.2209 136:31.2246 137:28.8453 138:25.8153 139:23.418 140:21.7362 141:19.6183 142:18.3437 143:18.0693 144:19.0438 145:19.3259 146:19.9401 147:20.8197 148:22.8366 149:24.1334 150:25.877 151:27.9891 152:29.7069 153:31.8327 154:34.0074 155:36.239 156:38.2013 157:40.4166 158:42.8524 159:44.9465 160:47.0778 161:49.0889 162:50.9833 163:52.3478 164:53.2411 165:52.5033 166:50.4927 167:47.7557 168:45.2224 169:42.6919 170:40.163 171:37.8058 172:35.9344 173:33.2428 174:30.9239 175:28.233 176:25.7403 177:23.1191 178:20.5742 179:18.0413 180:15.4447 181:12.7162 182:13.8297 183:15.7108 184:18.111 185:20.5974 186:23.0869 187:25.5783 188:28.0714 189:30.5655 190:33.0152 191:35.5141 192:37.5 193:40 194:42.5118 195:45.0111 196:47.5105 197:50.04 198:52.5616 199:55.1504 200:57.3716 
0 0 0 0.1602307936950969 0 0 0 0 0 0 0.1975360395634743 0 0 1:69.0652 2:67.6184 3:65.123 4:62.2013 5:59.2115 6:56.2228 7:53.7332 8:51.281 9:48.3737 10:45.3984 11:42.4266 12:40.1156 13:37.6566 14:34.7135 15:31.781 16:28.8624 17:26.5873 18:26.315 19:29.4136 20:32.5653 21:35.9791 22:39.0013 23:41.5039 24:44.0124 25:47.2916 26:50.3298 27:53.3714 28:55.8326 29:58.2996 30:61.352 31:64.8478 32:68.7111 33:71.5015 34:71.5973 35:69.3191 36:66.3412 37:63.5307 38:61.3377 39:58.8344 40:56.0819 41:53.5369 42:50.4797 43:48.0128 44:46.0037 45:43.6255 46:41.1131 47:38.214 48:35.3601 49:32.8996 50:30.7343 51:30.2537 52:32.4164 53:35.8481 54:39.275 55:42.1625 56:45.771 57:49.139 58:52.5385 59:55.1308 60:57.746 61:61.7172 62:65.947 63:69.529 64:71.6368 65:71.1014 66:69.0916 67:66.5658 68:63.5323 69:60.5399 70:57.9874 71:55.4717 72:52.6286 73:49.5526 74:46.5527 75:43.9613 76:41.7648 77:39.056 78:36.8328 79:35.8011 80:35.0071 81:35.7315 82:36.3546 83:35.9115 84:36.6961 85:37.7038 86:38.697 87:39.5427 88:40.5027 89:41.4056 90:42.525 91:43.49 92:45.2804 93:47.2989 94:49.2062 95:51.0518 96:51.7974 97:52.9311 98:55.3233 99:57.3946 100:59.1445 101:59.8519 102:60.0405 103:59.6935 104:57.8937 105:55.8962 106:53.3768 107:52.5048 108:51.4277 109:50.0352 110:49.8261 111:50.1323 112:50.1446 113:49.675 114:49.5575 115:49.3622 116:49.1218 117:48.7133 118:48.2838 119:48.8091 120:48.9319 121:49.4196 122:50.2619 123:51.2148 124:52.8126 125:54.6652 126:56.3021 127:57.4071 128:58.1506 129:59.0299 130:60.9686 131:62.0779 132:60.0056 133:57.5567 134:55.1453 135:52.1308 136:49.0304 137:46.0072 138:43.575 139:41.3138 140:38.845 141:36.4145 142:34.3019 143:31.927 144:29.7413 145:27.1372 146:24.3958 147:22.8171 148:21.2286 149:21.5119 150:22.1057 151:22.8971 152:24.3638 153:26.7105 154:28.4156 155:30.8171 156:33.2915 157:36.138 158:38.7977 159:41.067 160:43.3809 161:46.2012 162:48.8396 163:51.7425 164:54.4596 165:56.6158 166:59.2051 167:61.6135 168:63.3359 169:64.5077 170:65.0726 171:63.6771 172:60.2785 173:57.1328 174:53.9891 175:51.4422 176:48.7558 177:45.4733 178:42.3378 179:39.0575 180:36.0077 181:33.2489 182:29.8243 183:26.2645 184:24.0497 185:25.9624 186:28.3772 187:30.8064 188:33.7347 189:36.6746 190:39.6235 191:42.0863 192:44.5535 193:47.5186 194:50.4877 195:53.4205 196:55.8234 197:58.3096 198:61.235 199:64.1307 200:67.0126 
0 0 0 0 0 0 1 0 0 0 0 0 0 1:54.7083 2:53.2849 3:51.3934 4:49.5104 5:47.2893 6:45.2392 7:43.0185 8:40.9668 9:38.9177 10:36.8684 11:35.0041 12:32.7763 13:30.9239 14:28.693 15:26.6565 16:24.4248 17:22.3895 18:20.1566 19:18.3384 20:17.3488 21:18.1218 22:19.452 23:21.9203 24:24.7487 25:27.5772 26:30.4056 27:32.5346 28:35.0195 29:37.5033 30:39.9921 31:42.4794 32:44.9707 33:47.1313 34:49.6236 35:53.1508 36:54.1236 37:51.9843 38:49.8535 39:47.7323 40:45.6222 41:43.1567 42:41.067 43:38.9936 44:36.9392 45:34.5167 46:32.5025 47:30.9276 48:28.5732 49:26.2398 50:23.5061 51:21.6922 52:19.5055 53:18.8276 54:19.8201 55:21.652 56:23.585 57:25.6262 58:27.7252 59:29.8442 60:31.8945 61:34.1271 62:36.3904 63:38.6863 64:40.8733 65:43.343 66:45.5479 67:47.909 68:50.5971 69:50.6223 70:48.1521 71:45.7235 72:43.3434 73:41.0204 74:38.8234 75:36.6702 76:34.5936 77:32.5154 78:30.5083 79:28.5701 80:26.6693 81:24.9166 82:23.9057 83:23.5896 84:23.9363 85:24.0202 86:24.7066 87:24.7992 88:25.4755 89:26.3248 90:27.331 91:27.9814 92:29.3077 93:30.3795 94:31.6683 95:33.1488 96:34.7968 97:35.0927 98:35.0071 99:34.5365 100:34.1833 101:33.8803 102:34.0806 103:34.6335 104:34.3579 105:33.7779 106:33.8077 107:33.5622 108:33.5111 109:33.2716 110:33.9558 111:33.7402 112:33.7192 113:33.451 114:33.331 115:33.3607 116:33.5397 117:33.8657 118:34.3345 119:34.4455 120:34.6814 121:35.0357 122:36.0069 123:36.0901 124:36.7789 125:37.5698 126:38.9421 127:39.4269 128:38.5863 129:37.429 130:36.1189 131:34.9496 132:33.3838 133:32.8708 134:31.9791 135:30.4911 136:29.0086 137:28.5443 138:26.736 139:25.0052 140:23.0491 141:20.8007 142:18.5664 143:16.5156 144:15.7108 145:15.1951 146:15.442 147:16.3839 148:16.7153 149:18.0383 150:19.4772 151:21.0082 152:22.6127 153:24.2759 154:25.9868 155:28.219 156:29.7481 157:31.3256 158:33.1555 159:35.0041 160:36.8684 161:38.7463 162:40.6359 163:42.5356 164:44.444 165:46.2264 166:47.6745 167:49.2426 168:47.6762 169:45.2135 170:43.2465 171:41.2827 172:39.3225 173:37.3666 174:35.4156 175:33.4703 176:31.4107 177:29.3473 178:27.4092 179:25.4808 180:23.4226 181:21.3605 182:19.043 183:17.19 184:17.0147 185:18.5664 186:20.6565 187:22.6992 188:24.7524 189:26.8003 190:28.9354 191:30.9946 192:33.146 193:35.3079 194:37.3666 195:39.5381 196:41.7165 197:43.7794 198:45.9633 199:48.0236 200:50.345 
0 0 0 0 0 0 1 1 0 0 0 0 0 1:58.5235 2:58.0299 3:57.1164 4:55.2475 5:52.9254 6:50.4239 7:48.3869 8:45.6958 9:43.2038 10:41.1739 11:38.7663 12:36.2257 13:34.4428 14:31.7671 15:29.3349 16:27.3554 17:25.0565 18:22.6127 19:20.7005 20:18.4468 21:16.2788 22:16.8029 23:19.4753 24:22.3471 25:24.7891 26:27.3477 27:30.0561 28:32.1926 29:34.7173 30:37.2606 31:39.1217 32:41.6034 33:44.3002 34:46.5028 35:49.4701 36:51.1566 37:51.701 38:50.6842 39:48.8109 40:47.0891 41:44.9436 42:42.325 43:40.7002 44:38.7106 45:36.3365 46:34.3006 47:32.8853 48:31.1788 49:28.9736 50:27.3583 51:25.0718 52:23.27 53:22.0567 54:22.3698 55:24.5516 56:26.5093 57:29.1639 58:31.488 59:32.8708 60:35.1268 61:37.6377 62:40.2067 63:43.0824 64:45.2428 65:46.0269 66:45.0362 67:43.8348 68:42.008 69:40.5385 70:38.5322 71:36.5069 72:34.8066 73:32.9671 74:31.8981 75:30.6933 76:30.2149 77:30.2152 78:30.7997 79:31.3208 80:31.8591 81:32.7954 82:34.4435 83:35.4025 84:36.2074 85:37.7587 86:39.1528 87:40.3892 88:42.0721 89:42.3259 90:41.8747 91:42.1054 92:43.1451 93:42.5292 94:41.6869 95:41.1521 96:41.3702 97:41.1285 98:39.9109 99:40.0059 100:39.9321 101:40.0306 102:40.068 103:40.0402 104:39.7041 105:39.7617 106:39.6148 107:39.7617 108:40.7061 109:41.3554 110:41.8264 111:41.8385 112:42.1063 113:43.3461 114:44.7534 115:46.7 116:48.814 117:50.624 118:53.016 119:54.5228 120:56.1115 121:55.6642 122:54.0949 123:52.2806 124:50.3116 125:47.6225 126:45.0473 127:42.9215 128:40.2062 129:37.5331 130:36.0069 131:34.1436 132:32.9671 133:31.4144 134:29.6296 135:27.2137 136:24.6699 137:21.7531 138:19.8157 139:18.5664 140:18.0462 141:18.3437 142:18.8276 143:19.4154 144:19.9858 145:21.1048 146:22.6798 147:24.4002 148:25.872 149:27.8074 150:29.8217 151:31.4853 152:33.618 153:35.7953 154:37.5673 155:39.8136 156:42.0867 157:43.9237 158:46.2395 159:48.2315 160:50.1226 161:52.2021 162:54.2113 163:55.2131 164:54.3384 165:52.5634 166:49.9925 167:48.0131 168:45.5414 169:43.0727 170:41.1006 171:38.6396 172:36.1837 173:34.2237 174:31.5757 175:29.1249 176:27.171 177:24.7394 178:22.074 179:20.1312 180:17.7215 181:15.1858 182:13.2473 183:15.0119 184:17.5286 185:19.5256 186:22.0908 187:24.6313 188:26.7336 189:29.2748 190:31.8945 191:33.951 192:36.4968 193:39.047 194:41.1006 195:43.7381 196:46.2889 197:48.3452 198:51.0577 199:53.7461 200:56.1483 
0 0 0 0 0 0 0.1837037400586946 0 0 0 0 0 0 1:56.8595 2:55.9133 3:54.1138 4:51.8777 5:49.6417 6:47.6293 7:44.8719 8:42.0393 9:39.8033 10:37.7961 11:35.5604 12:33.3248 13:30.7271 14:28.219 15:25.9868 16:24.011 17:21.5248 18:18.6946 19:16.2274 20:14.933 21:15.2433 22:16.8029 23:18.7221 24:22.2044 25:25.11 26:27.9018 27:30.7003 28:33.5039 29:36.7552 30:39.7556 31:42.5735 32:45.3928 33:47.4605 34:50.2842 35:53.5929 36:55.6988 37:55.9143 38:53.9018 39:51.5025 40:48.8266 41:45.7649 42:43.4111 43:40.6513 44:38.7625 45:36.4752 46:33.543 47:30.2086 48:28.5058 49:25.9344 50:23.4226 51:20.6241 52:18.6731 53:18.5139 54:19.563 55:21.6493 56:23.7629 57:26.2189 58:28.6575 59:30.607 60:32.5615 61:34.5365 62:36.5137 63:39 64:41.512 65:43.546 66:45.5988 67:47.6681 68:50.219 69:52.7376 70:54.1895 71:52.5616 72:50.5049 73:48.5052 74:46.0328 75:43.6033 76:41.6924 77:39.8152 78:37.9054 79:35.6343 80:33.3596 81:31.6683 82:29.8877 83:28.3246 84:26.8569 85:25.8576 86:25.7097 87:26.2107 88:26.5399 89:27.1107 90:28.3243 91:29.7481 92:30.7396 93:31.9514 94:32.8708 95:33.9534 96:35.4706 97:36.5069 98:37.0338 99:36.1732 100:36.4211 101:35.9115 102:35.5876 103:35.2912 104:35.1348 105:35.1204 106:34.8278 107:34.4809 108:35.0484 109:35.3695 110:35.5386 111:35.9303 112:36.1031 113:35.7845 114:36.1237 115:36.3717 116:37.2355 117:37.2673 118:37.3451 119:38.0854 120:38.0066 121:39.032 122:39.6574 123:40.3794 124:41.7809 125:42.8092 126:43.8233 127:43.0222 128:41.8919 129:39.9321 130:38.1113 131:36.5442 132:35.5336 133:34.6192 134:33.3091 135:32.0728 136:30.5083 137:29.6107 138:27.7275 139:25.8119 140:23.2933 141:20.56 142:18.5131 143:17.0733 144:15.9015 145:15.9834 146:17.0153 147:17.5046 148:18.772 149:20.1586 150:21.6415 151:23.8015 152:26.217 153:27.8805 154:29.5857 155:31.3258 156:33.0953 157:35.3429 158:37.6203 159:39.4625 160:41.3193 161:43.0222 162:44.7468 163:47.0343 164:48.876 165:49.9148 166:48.169 167:46.198 168:43.7381 169:41.2827 170:39.5381 171:37.5934 172:35.6548 173:33.7234 174:31.0491 175:28.6403 176:26.7259 177:24.8249 178:22.7727 179:20.2504 180:17.5579 181:15.1858 182:14.23 183:14.0178 184:15.5789 185:18.2003 186:20.8868 187:22.9489 188:25.0052 189:27.171 190:29.9143 191:32.6286 192:34.8227 193:37.0218 194:39.2251 195:41.4319 196:44.1684 197:46.9604 198:49.176 199:51.5615 200:54.1348 
0 0 0 0 0 0 0.1558111491929585 0 0 0 0 0 0 1:61.4003 2:60.1067 3:58.2001 4:55.7317 5:53.2659 6:50.8037 7:48.3452 8:45.8915 9:43.4426 10:41.0004 11:38.5651 12:36.1392 13:33.7234 14:31.3218 15:28.9357 16:26.5721 17:24.234 18:21.9343 19:19.9238 20:22.297 21:25.126 22:27.6192 23:29.9717 24:32.4985 25:34.8898 26:37.4365 27:39.8534 28:42.1556 29:44.4779 30:47.1708 31:49.5104 32:52.318 33:55.4308 34:56.8644 35:56.577 36:55.2717 37:53.3401 38:51.1988 39:48.9097 40:46.4578 41:44.4098 42:41.8012 43:39.8279 44:37.9125 45:36.0738 46:34.313 47:32.1444 48:30.3052 49:28.0259 50:26.6728 51:28.1802 52:30.7007 53:33.0102 54:35.1072 55:37.2776 56:39.3751 57:41.7776 58:44.2084 59:47.3814 60:49.8835 61:51.1011 62:50.7049 63:49.376 64:47.4387 65:45.5673 66:43.6181 67:41.7505 68:40.1181 69:38.4509 70:37.0119 71:35.0498 72:33.8769 73:32.1947 74:31.3595 75:30.5414 76:30.2763 77:30.7 78:31.3307 79:31.2004 80:32.2109 81:33.3682 82:34.6766 83:35.3045 84:36.8834 85:38.5536 86:39.8607 87:41.4892 88:42.8047 89:44.2417 90:45.9756 91:47.2119 92:48.3443 93:48.2853 94:48.3901 95:47.6706 96:47.4084 97:47.1028 98:45.946 99:44.5727 100:44.0076 101:44.0738 102:44.2323 103:44.2328 104:43.5529 105:43.3696 106:43.0222 107:42.8596 108:42.7136 109:42.205 110:41.5089 111:41.1257 112:41.7253 113:42.5362 114:42.9067 115:42.7349 116:43.6229 117:43.8767 118:45.2428 119:46.8511 120:48.876 121:50.8672 122:53.036 123:54.9015 124:56.058 125:54.6728 126:52.5381 127:50.04 128:47.5421 129:45.0111 130:42.5058 131:40.0043 132:37.587 133:35.3674 134:33.3596 135:31.9514 136:30.482 137:28.6234 138:26.244 139:23.9679 140:21.5141 141:19.5317 142:19.1222 143:19.0131 144:19.2523 145:19.7859 146:20.0236 147:21.7127 148:23.0316 149:24.91 150:26.9141 151:29.3492 152:31.1497 153:33.6802 154:35.8169 155:38.2013 156:40.2271 157:42.8524 158:44.9465 159:47.3342 160:49.741 161:51.9164 162:53.8209 163:55.9133 164:57.0843 165:56.4754 166:54.8134 167:52.1785 168:50.1226 169:47.5413 170:45.0697 171:42.4912 172:40.0285 173:37.3374 174:34.6451 175:32.0703 176:29.619 177:26.9275 178:24.234 179:21.6678 180:19.243 181:16.477 182:16.8775 183:19.2358 184:21.7084 185:24.187 186:26.6693 187:29.1549 188:31.6426 189:34.0588 190:36.5548 191:39.0513 192:41.5482 193:44.0343 194:46.5107 195:49.0102 196:51.5097 197:54.0062 198:56.5 199:59.0168 200:60.603 
0 0 0 0 0 0 0.9202547671002431 0 0 0 0.696088917876463 0 0 1:66.0681 2:65.1575 3:63.2566 4:60.3358 5:57.4725 6:55.0841 7:52.7205 8:49.948 9:47.1505 10:44.3851 11:42.2406 12:39.8505 13:37.3374 14:34.93 15:32.2044 16:30.4518 17:28.3053 18:26.4054 19:24.7857 20:25.6176 21:28.5045 22:30.9881 23:33.7279 24:36.0738 25:38.5793 26:40.4633 27:42.8047 28:45.2241 29:47.7095 30:49.8229 31:52.4803 32:55.2373 33:58.3137 34:58.0671 35:56.208 36:54.6183 37:52.5003 38:50.2524 39:48.0867 40:46.3507 41:44.1844 42:42.0168 43:40.2299 44:38.4256 45:36.722 46:35.3489 47:33.2503 48:32.2895 49:31.6779 50:31.5967 51:31.0269 52:31.407 53:32.3983 54:32.8708 55:33.5352 56:34.5481 57:35.7845 58:38.0854 59:39.3881 60:40.8098 61:42.6427 62:44.3611 63:45.6111 64:47.4268 65:49.6818 66:51.812 67:52.4273 68:52.2249 69:51.8962 70:52.3981 71:50.3311 72:47.7549 73:46.7063 74:46.1046 75:44.8887 76:44.8535 77:44.6852 78:44.0284 79:43.8578 80:43.2459 81:42.8592 82:42.3898 83:42.1063 84:41.7567 85:42.55 86:42.9994 87:43.5085 88:43.6911 89:43.8786 90:44.2189 91:44.9585 92:46.3353 93:47.7145 94:49.7809 95:51.6551 96:53.8609 97:55.8056 98:56.8915 99:56.1102 100:53.3386 101:50.3588 102:47.946 103:45.5974 104:42.8892 105:40.4376 106:38.5863 107:36.785 108:34.9029 109:33.3058 110:31.6147 111:30.1058 112:27.3594 113:23.8379 114:20.8794 115:18.8807 116:17.6764 117:16.7812 118:17.1364 119:17.0489 120:17.4823 121:18.6705 122:20.7308 123:23.6158 124:26.9072 125:29.3004 126:32.2793 127:35.2173 128:38.4566 129:41.9671 130:44.9041 131:47.6153 132:50.7038 133:54.0389 134:56.9461 135:59.282 136:61.6375 137:64.0064 138:64.6409 139:62.1293 140:59.2159 141:56.3032 142:52.6978 143:49.0923 144:46.1792 145:42.901 146:39.2958 147:35.6907 148:32.0857 149:29.263 150:26.2582 151:22.4736 152:21.0519 153:23.899 154:26.6565 155:29.283 156:32.5653 157:35.5926 158:38.6276 159:41.3193 160:44.0124 161:47.1708 162:50.3298 163:52.6714 164:55.2495 165:58.19 166:61.0333 167:63.891 168:66.1429 169:67.1909 170:64.6855 171:61.4644 172:58.3199 173:55.7014 174:53.0178 175:49.7618 176:46.6359 177:43.4654 178:40.874 179:38.2169 180:35.0802 181:32.0308 182:29.5169 183:27 184:24.0208 185:22.2183 186:24.5159 187:26.8855 188:29.2748 189:32.2492 190:35.228 191:38.1183 192:40.611 193:43.0465 194:46.0435 195:49.0408 196:52.0096 197:54.5092 198:57.0088 199:60.0028 200:63 
0 0.7837482209153571 0.01027885421443292 0.3567247105899198 0 0 1 1 0.591673183230775 0 1 0 0 1:50.01 2:48.5052 3:46.543 4:44.5449 5:42.5292 6:40.5123 7:38.5 8:36.5137 9:34.5145 10:32.5615 11:30.5655 12:28.5701 13:26.0769 14:23.585 15:21.652 16:19.7296 17:17.7555 18:15.7058 19:14.0178 20:15.5323 21:17.614 22:19.7296 23:21.8691 24:24.4519 25:27.171 26:29.3473 27:31.532 28:33.7234 29:36.064 30:38.2702 31:40.4797 32:42.6919 33:45.0697 34:47.2893 35:50.3311 36:52.6552 37:53.9208 38:54.7855 39:54.1508 40:52.9086 41:50.9365 42:48.7086 43:46.4815 44:43.9923 45:41.765 46:38.762 47:35.9349 48:33.7094 49:31.4853 50:29.5384 51:27.6104 52:25.4035 53:23.5055 54:21.3191 55:19.4772 56:17.3312 57:17.6117 58:20.1126 59:22.1022 60:24.91 61:26.9537 62:29.7742 63:32.27 64:34.7635 65:37.2074 66:39.6548 67:41.7433 68:45.2769 69:48.4703 70:49.9536 71:50.5272 72:49.7032 73:48.543 74:46.1792 75:44.2552 76:41.5034 77:38.7625 78:36.4752 79:33.543 80:31.1218 81:28.9736 82:26.8812 83:24.8693 84:22.9489 85:21.6493 86:21.0119 87:22.5548 88:24.5815 89:26.5189 90:29.0056 91:31.5634 92:33.6341 93:35.6266 94:37.7128 95:39.8834 96:42.008 97:44.1437 98:46.3817 99:48.3452 100:50.2278 101:50.3652 102:48.6283 103:46.5695 104:44.5112 105:42.5 106:40.5311 107:38.6167 108:36.7186 109:34.9403 110:33.2455 111:31.6683 112:30.0483 113:28.6561 114:28.4775 115:27.9104 116:28.3725 117:29 118:29.7825 119:30.7081 120:31.2246 121:32.4493 122:33.3607 123:34.4805 124:36.3162 125:38.2472 126:38.3992 127:39.1599 128:39.032 129:39.0064 130:38.5847 131:37.7731 132:35.9281 133:35.3108 134:33.7234 135:32.9028 136:35.1934 137:36.9129 138:38.242 139:38.3332 140:38.9741 141:38.9026 142:39.3751 143:39.6106 144:39.661 145:39.9123 146:40.5126 147:40.5088 148:40.0306 149:39.1977 150:39.3887 151:38.7489 152:38.2032 153:38.2472 154:39.8851 155:40.6546 156:41.5303 157:43.3524 158:44.6398 159:45.3376 160:45.6234 161:44.5293 162:42.9333 163:41.0033 164:38.9438 165:36.6233 166:34.3314 167:31.9791 168:30.4911 169:30.0083 170:29.0431 171:28.7195 172:28.0508 173:26.3224 174:24.1379 175:22.2821 176:20.56 177:19.5131 178:18.6766 179:18.3828 180:18.5865 181:19.4792 182:19.7082 183:20.5669 184:21.5725 185:22.4131 186:24.007 187:25.6578 188:27.3554 189:28.6234 190:30.8726 191:32.7763 192:34.6451 193:36.2115 194:37.9853 195:39.7777 196:41.6036 197:43.4426 198:45.2135 199:46.9555 200:48.7114 
0 0 0.03695307910357584 0 0.01059406344770453 0 0 0.1675399678315674 0.1613949977664661 0 0.3117982567284434 0 0.07635728664130605 1:69.7209 2:68.0345 3:65.4517 4:62.394 5:59.2729 6:56.1956 7:53.1284 8:50.0899 9:47.0599 10:44.0225 11:41.004 12:38.0132 13:35.5355 14:33.0606 15:30.1229 16:27.1663 17:24.3492 18:25.0062 19:28.1612 20:31.0491 21:34.2059 22:37.1914 23:40.2622 24:42.688 25:45.1224 26:48.0524 27:50.9904 28:54.0638 29:57.0703 30:60.0168 31:63.0891 32:66.0986 33:68.9691 34:69.5383 35:67.6703 36:65.2537 37:62.6423 38:59.7751 39:56.9216 40:54.084 41:51.3869 42:48.8477 43:46.0989 44:43.3835 45:40.708 46:39.0169 47:36.8944 48:34.0269 49:31.4045 50:29.0738 51:27.1212 52:27.4131 53:30.8064 54:33.9453 55:36.6277 56:39.3815 57:41.7193 58:43.867 59:46.5352 60:49.4657 61:52.216 62:55.2012 63:58.2051 64:60.6087 65:59.668 66:57.3872 67:55.1753 68:53.3889 69:51.6659 70:49.6829 71:47.015 72:44.6801 73:42.7256 74:40.3175 75:38.6147 76:36.4666 77:34.7937 78:32.9944 79:32.473 80:32.1506 81:32.0104 82:32.1506 83:32.5675 84:33.2508 85:34.1846 86:35.3489 87:36.1472 88:37.4494 89:39.2099 90:40.7847 91:42.4542 92:43.867 93:46.1008 94:48.012 95:50.2217 96:51.6358 97:51.3026 98:52.5324 99:54.6632 100:56.4674 101:56.7727 102:55.538 103:53.1306 104:50.3246 105:47.3008 106:45.7126 107:44.621 108:44.3862 109:45.0185 110:44.5215 111:44.2328 112:44.1546 113:44.3045 114:44.2938 115:44.1771 116:44.3003 117:44.9497 118:46.0826 119:46.6146 120:47.3955 121:47.9534 122:48.8073 123:50.1176 124:51.5394 125:53.3983 126:55.6119 127:57.5179 128:59.6959 129:61.8862 130:64.3807 131:65.7391 132:64.136 133:61.0002 134:58.0519 135:55.5991 136:53.2963 137:50.5324 138:47.898 139:45.4377 140:42.9645 141:40.8657 142:38.795 143:36.5435 144:34.0269 145:31.0028 146:27.9018 147:25.248 148:22.8366 149:20.6293 150:18.6981 151:18.1289 152:18.0462 153:18.4563 154:19.3282 155:21.1833 156:23.5797 157:26.1039 158:28.687 159:32.1444 160:35.1412 161:38.1881 162:41.2659 163:44.3757 164:47.727 165:50.8742 166:53.8286 167:56.8053 168:59.3002 169:61.6135 170:64.0719 171:66.3985 172:65.0006 173:61.0668 174:57.4702 175:54.0385 176:50.6073 177:47.0117 178:43.5793 179:40.5036 180:37.7512 181:34.3194 182:30.8894 183:27.6192 184:24.0086 185:22.8021 186:25.001 187:28.258 188:31.4195 189:34.4827 190:36.8818 191:39.381 192:42.4505 193:45.4371 194:48.5082 195:51.6628 196:54.5714 197:57.4894 198:60.4155 199:63.3485 200:66.1625 
0.4680506487636769 0.6081080613217015 0 0.4258618384027814 0.8423883855066602 0 0.9386932938190709 1 0.7188854996017993 0.1604316917971785 0.3901216195900821 0.8719835842546956 0.2510235451970891 1:61.6847 2:60.8188 3:59.1548 4:56.9235 5:54.2319 6:51.7356 7:49.702 8:47.0118 9:44.3203 10:42.0867 11:39.5326 12:37.1254 13:34.8898 14:32.6542 15:29.9687 16:27.2818 17:26.2482 18:26.6702 19:29.9083 20:32.409 21:35.4049 22:38.5034 23:41.3099 24:43.3417 25:46.4383 26:49.7444 27:52.5595 28:55.187 29:58.1937 30:60.2537 31:62.2926 32:61.8819 33:60.1041 34:58.3471 35:55.6588 36:52.7389 37:50.2842 38:46.7547 39:43.983 40:41.9345 41:39.2049 42:36.1028 43:33.7122 44:30.9276 45:28.0295 46:27.5128 47:29.0911 48:31.7832 49:35.1077 50:37.3437 51:40.2509 52:43.1572 53:45.8535 54:48.325 55:51.3175 56:54.3924 57:56.3853 58:59.3786 59:62.2118 60:63.9711 61:62.3144 62:59.7198 63:57.9358 64:56.2011 65:52.9264 66:49.8626 67:47.4614 68:44.2749 69:41.1414 70:39.6564 71:36.8834 72:34.0332 73:31.8226 74:29.6522 75:27.6964 76:27.0462 77:28.7174 78:31.3545 79:33.6868 80:35.5919 81:38.0398 82:40.5062 83:42.5058 84:44.5279 85:47.0776 86:49.6257 87:51.6551 88:52.758 89:50.5049 90:48.5259 91:46.08 92:43.6835 93:41.8666 94:40.1156 95:37.932 96:35.7894 97:34.004 98:32.0772 99:30.6423 100:30.2727 101:30.0218 102:29.0344 103:29.0344 104:29.3085 105:29.1763 106:29.3077 107:29.9077 108:30.7395 109:31.9818 110:33.6868 111:36.0237 112:37.5331 113:39.6574 114:40.874 115:43.4163 116:45.2381 117:46.2236 118:49.3384 119:51.7057 120:51.9126 121:52.0932 122:52.1052 123:51.0422 124:50.0897 125:48.6428 126:47.4062 127:45.8405 128:42.6382 129:40.4104 130:39.9546 131:39.4578 132:38.9026 133:38.5541 134:37.9074 135:37.7265 136:36.9657 137:37.1682 138:36.7321 139:36.7762 140:37.4098 141:38.1269 142:38.5066 143:39.032 144:39.1599 145:38.4792 146:38.9421 147:39.4269 148:40.1696 149:41.0422 150:42.7488 151:44.1296 152:45.896 153:46.9088 154:47.9836 155:50.2239 156:52.101 157:53.7253 158:56.0838 159:57.3498 160:56.9243 161:54.2146 162:50.9166 163:48.4394 164:45.9619 165:43.6222 166:41.4414 167:40.1422 168:37.8077 169:35.5164 170:34.401 171:32.5431 172:31.0878 173:29.3507 174:28.153 175:25.1962 176:22.6114 177:20.719 178:18.7915 179:17.0681 180:16.34 181:16.1638 182:16.3387 183:17.404 184:18.8372 185:21.0488 186:23.5104 187:25.5484 188:28.2003 189:30.7612 190:32.8825 191:35.5701 192:38.2447 193:40.5125 194:42.688 195:45.4371 196:48.0236 197:50.345 198:53.163 199:55.9876 200:58.1946 
0 0 0 0.1641330153973333 0.05750666848075615 0.03831545162841302 1 1 0 0 0.6790086562186476 1 0 1:72.3395 2:70.5367 3:67.7423 4:64.7767 5:61.711 6:58.6943 7:55.7317 8:52.7185 9:49.6489 10:46.6907 11:43.7381 12:40.7925 13:37.8554 14:34.929 15:32.0163 16:29.0321 17:25.9624 18:23.0881 19:19.9264 20:17.0904 21:14.6578 22:15.5671 23:19.105 24:23.1062 25:26.4049 26:29.7322 27:33.0836 28:36.6632 29:40.0356 30:43.2109 31:46.8064 32:50.2014 33:53.2056 34:56.4196 35:59.6424 36:62.8689 37:66.8509 38:70.4885 39:71.7491 40:71.3759 41:68.8194 42:65.5328 43:62.4625 44:59.6565 45:56.3936 46:53.4034 47:50.4519 48:47.539 49:44.6801 50:41.6053 51:39.1625 52:36.2369 53:33.1082 54:30.0868 55:26.8927 56:24.5283 57:24.43 58:27.0121 59:30.0167 60:33.0049 61:36.5605 62:40.1698 63:43.3735 64:46.5822 65:49.824 66:53.1545 67:56.5939 68:60.0794 69:63.6027 70:66.9541 71:70.2144 72:72.7132 73:73.0112 74:72.0437 75:68.8873 76:65.4943 77:62.2303 78:59.0956 79:56.0177 80:53.0063 81:49.5843 82:46.2797 83:43.5175 84:40.9327 85:38.6139 86:37.3981 87:37.4293 88:38.03 89:38.8794 90:40.2151 91:41.4957 92:42.7496 93:44.0093 94:45.3112 95:46.6946 96:48.3443 97:49.9909 98:50.6484 99:50.2258 100:49.6553 101:48.2233 102:48.0174 103:47.0496 104:47.2722 105:47.6828 106:47.6295 107:48.0896 108:48.1101 109:48.6445 110:49.3622 111:49.6885 112:50.2324 113:50.4611 114:51.1817 115:52.1236 116:53.2759 117:53.8358 118:55.0583 119:56.5158 120:58.4637 121:61.0113 122:63.4632 123:65.7106 124:67.9189 125:70.4125 126:72.1817 127:72.1159 128:69.1851 129:66.0855 130:63.1087 131:60.239 132:57.3912 133:54.6941 134:52.1818 135:49.7394 136:47.6542 137:45.5701 138:43.2436 139:40.5523 140:37.432 141:33.5603 142:29.3728 143:26.315 144:25.0123 145:24.3444 146:25.0333 147:25.0931 148:26.4885 149:29.1258 150:31.6466 151:34.3238 152:36.5341 153:39.1625 154:41.8863 155:44.6801 156:47.539 157:50.1923 158:52.9017 159:55.6588 160:57.9856 161:61.0215 162:63.7831 163:64.8253 164:65.1916 165:62.6898 166:59.1847 167:56.1203 168:53.0675 169:50.2217 170:47.2042 171:44.2069 172:41.0225 173:37.8575 174:34.2762 175:30.9225 176:27.8188 177:24.52 178:21.2604 179:17.2491 180:14.8784 181:15.1435 182:18.0298 183:20.8819 184:23.7706 185:26.684 186:29.6146 187:32.558 188:35.5108 189:38.471 190:41.3936 191:44.2833 192:47.2653 193:50.2201 194:53.1508 195:56.1427 196:59.0963 197:62.0726 198:65.0438 199:68.0124 200:71.0326 
0 0 0 0 0 0 0.5255062509056969 0 0 0 0 0 0 1:58.2151 2:56.6808 3:54.6466 4:52.0865 5:49.5654 6:47.5421 7:45.0331 8:42.5118 9:40.0041 10:37.5 11:35.5071 12:33.0308 13:30.5655 14:28.1604 15:25.7452 16:23.8381 17:21.3781 18:19.049 19:18.6705 20:21.0928 21:23.2866 22:25.9624 23:28.3772 24:30.3194 25:32.7571 26:35.2031 27:37.6566 28:40.1156 29:42.0863 30:44.5535 31:47.024 32:49.0026 33:51.4783 34:54.0248 35:53.9436 36:51.6842 37:49.8484 38:47.5399 39:45.125 40:42.9173 41:40.6359 42:38.7463 43:36.5279 44:34.4716 45:32.6542 46:30.4161 47:28.7284 48:26.631 49:24.6037 50:23.0512 51:21.2211 52:19.9247 53:19.7547 54:21.6922 55:23.9467 56:25.8007 57:27.5029 58:29.1291 59:31.1507 60:32.8842 61:34.7173 62:36.6244 63:38.2013 64:40.4166 65:42.8524 66:44.6594 67:45.402 68:44.1247 69:42.524 70:40.6739 71:39.2476 72:37.5416 73:35.9222 74:34.4157 75:33.0217 76:32.0069 77:30.2727 78:28.9736 79:27.8489 80:26.5799 81:26.2392 82:26.032 83:26.048 84:26.2392 85:26.6952 86:27.3583 87:28.2412 88:28.4156 89:29.4182 90:30.0071 91:31.5657 92:33.0136 93:34.3418 94:35.5386 95:37.2053 96:39.247 97:40.3896 98:42.3878 99:43.6227 100:43.088 101:42.2194 102:41.6231 103:40.0329 104:38.5551 105:37.2244 106:37.0338 107:37.0068 108:37.1303 109:36.4211 110:36.2884 111:36.409 112:36.228 113:35.9577 114:36.0411 115:36.6255 116:36.9451 117:37.5899 118:37.7255 119:38.3536 120:38.3068 121:38.6039 122:39.5847 123:40.5823 124:42.0721 125:43.782 126:45.7154 127:47.8206 128:48.13 129:47.6876 130:45.511 131:43.0235 132:40.611 133:38.7661 134:36.6867 135:34.6881 136:33.2099 137:31.5221 138:30.2152 139:28.848 140:26.8018 141:24.91 142:21.4015 143:18.7221 144:16.7151 145:15.0488 146:14.439 147:13.7259 148:13.0957 149:13.4716 150:14.337 151:16.3839 152:18.3384 153:20.9379 154:22.6385 155:24.991 156:27.2829 157:29.8374 158:32.409 159:34.3003 160:37.0068 161:39.5287 162:41.4648 163:44.1044 164:46.4815 165:48.8792 166:51.0422 167:52.7949 168:54.8637 169:54.3743 170:51.4792 171:48.7882 172:46.5542 173:44.0018 174:41.1739 175:38.9396 176:36.1131 177:33.3551 178:30.7326 179:28.1832 180:25.9479 181:23.2621 182:20.5742 183:17.7802 184:17.1137 185:18.9278 186:21.5147 187:24.0263 188:26.1966 189:28.6362 190:31.0847 191:33.6039 192:36.1837 193:38.344 194:40.7925 195:43.2465 196:45.7058 197:48.169 198:50.1424 199:52.5652 200:54.9477 
0 0 0 0 0 0 0.2906388341791503 0 0 0 0 0 0 1:75.0267 2:73.0023 3:70.0071 4:67.0075 5:64.0078 6:61.0082 7:58.0086 8:55.0184 9:52.0385 10:49.0408 11:46.0435 12:43.1046 13:40.1124 14:37.1215 15:34.2346 16:30.7615 17:27.2076 18:24.187 19:21.3781 20:19.3113 21:20.4311 22:24.024 23:27.4558 24:30.5694 25:33.8451 26:37.1233 27:40.2509 28:43.3835 29:46.5201 30:50.3244 31:53.85 32:56.8604 33:59.8762 34:62.7702 35:65.9249 36:69.4636 37:73.108 38:74.3928 39:72.9462 40:70.329 41:67.5709 42:64.6621 43:61.767 44:58.3832 45:55.2198 46:52.2038 47:49.4083 48:46.6496 49:43.9351 50:41.2659 51:38.6595 52:35.8782 53:32.908 54:30.2705 55:27.4676 56:25.0702 57:24.7208 58:27.0224 59:30.5683 60:34.581 61:38.2785 62:42.0297 63:45.6967 64:49.3603 65:52.7743 66:56.8253 67:60.0341 68:64.1411 69:67.9153 70:70.832 71:72.1824 72:71.1164 73:68.2878 74:64.9345 75:61.6866 76:57.8729 77:55.0846 78:51.4234 79:48.8408 80:45.4037 81:42.1138 82:39.0085 83:36.4668 84:35.5197 85:35.5046 86:36.0637 87:36.4729 88:38.0854 89:39.1188 90:40.613 91:42.2798 92:43.6145 93:45.1315 94:46.6099 95:48.0809 96:50.084 97:51.8962 98:53.0121 99:53.7768 100:55.1774 101:57.8816 102:58.6997 103:57.0212 104:54.236 105:52.0448 106:52.016 107:51.1631 108:50.8251 109:50.9965 110:51.3477 111:51.2374 112:51.0125 113:51.2993 114:51.1953 115:51.042 116:50.7365 117:51.4254 118:51.6752 119:52.0222 120:52.7094 121:54.2148 122:55.6119 123:57.3946 124:59.357 125:61.4086 126:62.5936 127:64.9453 128:66.488 129:65.8614 130:62.5296 131:59.0256 132:56.1015 133:53.2428 134:50.496 135:48.0618 136:45.8915 137:43.897 138:42.0617 139:39.8265 140:37.0471 141:33.4488 142:29.5315 143:26.7105 144:24.2072 145:22.7055 146:23.0362 147:24.0969 148:24.8521 149:26.5747 150:28.8527 151:31.6084 152:34.1962 153:37.1755 154:39.9539 155:42.5396 156:45.7122 157:48.4175 158:51.1752 159:54.4495 160:57.7715 161:60.6537 162:63.1291 163:65.439 164:67.6053 165:68.5148 166:67.1741 167:63.97 168:60.711 169:57.4559 170:54.5573 171:51.4959 172:48.4476 173:44.5265 174:40.6099 175:37.4011 176:34.0026 177:30.8196 178:27.4443 179:23.8647 180:20.6253 181:18.6089 182:19.7005 183:22.4741 184:25.2995 185:28.3581 186:31.3218 187:34.6891 188:38.0794 189:41.2315 190:44.1479 191:47.0747 192:50.0103 193:52.953 194:55.9019 195:58.8559 196:61.8144 197:64.7767 198:67.6494 199:70.5763 200:73.3403 
0 0 0 9.920692122197469e-05 0 0.02119825625899983 0 0 0 0 0.7842903137998125 0 0 1:75.0267 2:73.0938 3:70.1784 4:67.1863 5:64.195 6:61.2046 7:58.2152 8:55.2606 9:52.3451 10:48.8699 11:45.4471 12:42.5795 13:39.6235 14:36.7444 15:33.9564 16:31.0491 17:27.9796 18:24.6031 19:21.6789 20:21.1065 21:24.0381 22:27.1015 23:30.356 24:33.618 25:36.7173 26:40.3848 27:43.9828 28:47.2598 29:50.2377 30:53.2271 31:56.2242 32:59.0941 33:62.2423 34:65.5247 35:70.02 36:74.3892 37:76.0626 38:75.6356 39:73.2475 40:70.7262 41:67.6773 42:65.0218 43:61.6524 44:58.4145 45:55.6554 46:52.9326 47:50.2524 48:47.3848 49:45.0359 50:42.525 51:39.3228 52:36.0783 53:33.5711 54:30.8951 55:28.6452 56:28.4792 57:30.8899 58:33.8803 59:37.2764 60:41.4371 61:45.7658 62:48.78 63:52.3944 64:56.0664 65:59.4822 66:63.5304 67:67.6025 68:71.8788 69:75.0247 70:75.588 71:74.0211 72:71.6204 73:68.6671 74:65.4619 75:61.6871 76:58.3365 77:54.4606 78:51.6281 79:48.2652 80:45.0512 81:42.0202 82:39.877 83:39.6314 84:39.3017 85:39.8742 86:40.7253 87:42.0656 88:42.7256 89:44.4121 90:45.7193 91:46.9422 92:48.3413 93:49.7558 94:51.6161 95:53.3613 96:55.0839 97:56.3754 98:56.7064 99:58.2996 100:60.7375 101:62.9558 102:62.9734 103:62.188 104:60.2993 105:57.1452 106:56.0149 107:55.7088 108:55.2328 109:54.5953 110:55.2218 111:55.0874 112:54.7199 113:54.8539 114:54.8691 115:54.5003 116:54.0951 117:53.9469 118:54.5435 119:54.5007 120:54.8299 121:55.8521 122:56.9496 123:58.6022 124:60.1469 125:62.0412 126:63.2608 127:65.3783 128:67.0868 129:66.6157 130:65.2805 131:62.0774 132:59.0168 133:56.018 134:53.0694 135:49.7361 136:46.5389 137:44.1584 138:42.0721 139:40.1867 140:38.4866 141:36.3618 142:33.6526 143:29.2082 144:26.244 145:23.7817 146:23.7829 147:23.8717 148:24.0139 149:25.1924 150:27.0175 151:29.5798 152:32.3954 153:35.1864 154:37.7938 155:40.2203 156:43.2857 157:45.8725 158:48.5277 159:51.2405 160:54.4681 161:57.7485 162:60.1441 163:62.3722 164:64.4554 165:65.8126 166:66.5828 167:66.4477 168:63.6345 169:59.787 170:56.511 171:53.552 172:50.4429 173:47.3408 174:44.0775 175:40.6467 176:36.787 177:32.9316 178:29.5041 179:26.2582 180:22.6531 181:19.158 182:19.7005 183:22.4741 184:25.6336 185:28.9374 186:32.2808 187:35.2589 188:38.3281 189:41.2315 190:44.1479 191:47.0747 192:50.0103 193:53.4443 194:56.886 195:59.8416 196:62.7517 197:65.6202 198:68.511 199:71.2585 200:73.7324 
1 1 1 1 1 1 1 1 1 1 1 1 1 1:53 2:52 3:50.5 4:48.5 5:46.5 6:45 7:43.5 8:41.5 9:39.5 10:37.5 11:36 12:34.5 13:32.5 14:30.5 15:28.5089 16:27.0185 17:25.5196 18:23.5213 19:21.5233 20:19.565 21:18.2483 22:17.5921 23:19.6111 24:22.194 25:23.7697 26:25.5399 27:27.7721 28:30.0048 29:32.238 30:33.6155 31:35.3877 32:37.2329 33:39.4625 34:41.5039 35:43.0813 36:44.8474 37:46.7042 38:49.118 39:51.7356 40:51.4781 41:49.9055 42:47.8779 43:45.8537 44:44.2832 45:42.9337 46:41.1498 47:38.9141 48:37.1525 49:35.8469 50:34.3006 51:32.3314 52:30.373 53:28.4311 54:26.6271 55:25.4035 56:23.2022 57:21.3191 58:19.4772 59:18.3848 60:17.7481 61:18.4479 62:19.9133 63:21.4709 64:23.0336 65:25.7398 66:28.4698 67:30.373 68:32.45 69:34.1236 70:36.5036 71:38.9026 72:41.3099 73:42.638 74:44.7494 75:47.5658 76:48.1083 77:46.1022 78:44.4072 79:43.1337 80:41.1889 81:38.8514 82:37.2156 83:36.0352 84:33.7705 85:31.5366 86:29.8089 87:27.8568 88:25.9344 89:23.9057 90:22.4609 91:22.1472 92:22.0227 93:21.0119 94:21.1541 95:21.4823 96:21.9881 97:21.5407 98:22.1462 99:23.0746 100:24.1334 101:24.5235 102:25.4951 103:25.8142 104:26.9629 105:27.9104 106:28.8444 107:29.5857 108:30.6423 109:31.6689 110:32.4265 111:32.0156 112:31.6779 113:31.3288 114:31.1046 115:31.0081 116:31.0161 117:31.1046 118:31.3288 119:31.6779 120:31.6683 121:31.6228 122:31.2004 123:31.5427 124:31.1358 125:31.0644 126:31.5117 127:31.953 128:32.5423 129:32.6036 130:32.8024 131:33.1509 132:33.8077 133:34.2265 134:34.827 135:34.7851 136:35.3055 137:35.3079 138:32.9646 139:30.8354 140:30.5941 141:29.4767 142:28.1586 143:26.6633 144:25.4951 145:23.9281 146:21.2736 147:19.1434 148:17.5921 149:17.2627 150:16.0779 151:16.0156 152:16.6936 153:17.5921 154:18.0278 155:18.5865 156:19.9133 157:21.3642 158:22.5036 159:24.2074 160:25.1673 161:27.2467 162:29.3492 163:30.4138 164:31.8512 165:33.6802 166:35.5317 167:37.4078 168:38.0132 169:38.4314 170:38.5138 171:36.5312 172:34.5589 173:32.7567 174:31.2174 175:28.9918 176:26.7679 177:24.826 178:23.0217 179:20.9409 180:18.6128 181:18.1367 182:18.9737 183:20.1312 184:22.074 185:24.0263 186:25.9858 187:27.4591 188:28.9354 189:30.9072 190:32.8825 191:34.8605 192:36.3456 193:37.8319 194:39.8152 195:41.8002 196:43.6835 197:45.1774 198:46.6717 199:48.6647 200:50.5646 
0 0 0 0 0 0 1 0 0 0 0 0 0 1:55.0091 2:54.3963 3:53.4258 4:51.7332 5:49.5108 6:47.2898 7:45.0702 8:42.5737 9:40.3549 10:38.1381 11:35.4189 12:32.9015 13:30.7003 14:28.8158 15:26.6337 16:24.7891 17:22.9863 18:20.8657 19:18.772 20:17.5046 21:18.0566 22:20.7978 23:23.5061 24:26.2398 25:28.9918 26:31.4853 27:33.9783 28:36.7494 29:38.7106 30:41.5032 31:44.6039 32:47.0248 33:48.1282 34:48.6255 35:47.6492 36:46.7381 37:44.526 38:41.8876 39:39.2757 40:36.8684 41:34.4751 42:31.6642 43:29.7235 44:27.8688 45:25.6262 46:24.51 47:24.052 48:25.7426 49:27.951 50:29.77 51:32.1152 52:34.5579 53:36.5137 54:38.513 55:40.5062 56:42.5058 57:44.5279 58:46.543 59:48.5927 60:50.589 61:52.3781 62:53.0047 63:51.5633 64:49.6614 65:47.7625 66:45.8939 67:43.9866 68:42.0863 69:40.3021 70:38.5651 71:36.4996 72:34.6451 73:33.1555 74:31.9836 75:32.0776 76:31.5117 77:31.953 78:32.5423 79:32.6036 80:32.9088 81:33.9669 82:35.1134 83:36.1237 84:37.3215 85:37.2355 86:36.7762 87:36.9164 88:37.1685 89:36.0347 90:35.0071 91:35.1378 92:35.433 93:34.8208 94:34.8264 95:34.9496 96:35.6576 97:36.4617 98:36.4752 99:37.4758 100:37.7282 101:37.9112 102:38.1969 103:38.5793 104:39.1279 105:40.1122 106:40.6568 107:40.5088 108:40.4839 109:40.5823 110:40.3295 111:41.4971 112:43.4426 113:45.2135 114:46.9555 115:48.213 116:49.5659 117:51.0049 118:52.024 119:53.1178 120:52.7902 121:51.6321 122:49.4251 123:47.5632 124:45.5044 125:43.4426 126:41.2827 127:39.047 128:36.9144 129:34.68 130:33.537 131:31.6934 132:30.2076 133:29.0318 134:27.5478 135:25.6244 136:23.4226 137:21.4823 138:19.6644 139:18.0139 140:17.5725 141:17.4823 142:17.746 143:18.1231 144:18.7345 145:19.5294 146:20.8657 147:22.3016 148:23.8191 149:25.4035 150:27.0431 151:29.1578 152:31.3258 153:32.6542 154:34.4716 155:36.3082 156:38.1613 157:40.0285 158:41.7481 159:43.4888 160:45.125 161:47.2246 162:48.7493 163:49.4317 164:48.7104 165:46.5695 166:44.5449 167:42.547 168:40.5494 169:38.5519 170:36.5894 171:34.1322 172:31.6426 173:29.6522 174:27.6632 175:25.6759 176:23.6908 177:21.7084 178:19.7296 179:17.7555 180:15.7879 181:13.0602 182:13.5903 183:15.7879 184:17.9517 185:20.016 186:22.074 187:24.2542 188:26.3179 189:28.5065 190:30.5658 191:33.4293 192:36.2115 193:38.4223 194:40.6359 195:42.6919 196:44.9065 197:47.2893 198:49.6849 199:51.8118 200:53.5113 
0 0 0 0.091569264653654 0 0 1 0.1618472803160743 0.3257497358937945 0 0 0.5727195834007777 0.1067923296234206 1:51.2445 2:50.4232 3:49.2426 4:47.3631 5:45.4011 6:43.4426 7:41.4881 8:39.5381 9:37.5934 10:35.6548 11:33.7234 12:31.8005 13:29.8877 14:28.1586 15:26.4629 16:24.623 17:22.81 18:21.0311 19:19.2955 20:17.6162 21:17 22:19.0919 23:21.225 24:23.0512 25:25.226 26:26.8018 27:29.0058 28:30.3806 29:31.8169 30:33.5605 31:35.3313 32:37.3437 33:40.0318 34:41.4299 35:42.455 36:42.32 37:41.0042 38:39.4379 39:37.9125 40:36.0902 41:34.2983 42:32.1773 43:30.8122 44:29.5195 45:28.3093 46:27.1924 47:25.7398 48:24.3814 49:23.121 50:21.9881 51:22.4609 52:23.639 53:25.5783 54:27.7252 55:29.0286 56:31.2932 57:33.1132 58:34.6335 59:36.228 60:38.3481 61:40.9703 62:43.0034 63:44.3048 64:44.1189 65:43.5486 66:42.089 67:40.2077 68:37.9035 69:36.1732 70:34.5359 71:33.0076 72:31.6036 73:30.3397 74:29.7235 75:30.2238 76:30.3795 77:30.6669 78:31.5349 79:32.5029 80:32.7326 81:33.5111 82:34.3859 83:35.3695 84:36.4331 85:36.9458 86:37.3227 87:37.4758 88:37.3557 89:36.4617 90:35.6576 91:35.8953 92:35.3055 93:34.8208 94:34.4455 95:34.1833 96:33.0378 97:32.5078 98:32.1014 99:33.3091 100:33.6376 101:33.8957 102:34.0069 103:33.3607 104:32.8853 105:33.0217 106:33.3079 107:33.7402 108:34.6843 109:34.6843 110:34.9141 111:35.3692 112:35.1705 113:36.0131 114:37.2329 115:38.9219 116:40.4833 117:42.1056 118:43.5529 119:45.3083 120:46.9555 121:48.213 122:48.0677 123:47.5052 124:45.5276 125:43.6033 126:41.6083 127:39.5818 128:37.5533 129:35.5141 130:33.5074 131:31.54 132:29.7121 133:28.0508 134:26.5873 135:25.3559 136:23.9363 137:22.39 138:20.3579 139:18.1263 140:16.4497 141:15.4106 142:14.0889 143:15.0166 144:15.2149 145:16.1436 146:17.2761 147:18.1231 148:19.1422 149:21.1048 150:22.7267 151:24.421 152:26.163 153:27.9529 154:29.7742 155:31.9453 156:33.8134 157:36.0048 158:37.9013 159:39.8162 160:41.7435 161:43.6844 162:45.3687 163:46.8291 164:47.6335 165:47.2171 166:45.9627 167:43.5463 168:41.3193 169:39.2757 170:37.2329 171:35.0041 172:32.9632 173:30.734 174:28.5058 175:26.4629 176:24.234 177:22.0064 178:19.7808 179:17.7364 180:15.5108 181:12.9854 182:13.5943 183:15.5323 184:17.5286 185:19.5256 186:21.5233 187:23.5213 188:25.5196 189:27.5182 190:29.5169 191:31.5159 192:33.5149 193:35.5141 194:37.5133 195:39.5127 196:41.512 197:43.5115 198:45.5056 199:47.5 200:49.5251 
0.9053213096212255 1 0.6561366315332637 1 0.8894609646611057 0.4052698367199984 1 1 1 0.9209775721497137 0.5049412105154142 1 1 1:49.7695 2:49.2443 3:48.3042 4:46.5113 5:44.2753 6:42.0393 7:39.5797 8:38.0132 9:36.2257 10:33.9897 11:31.9773 12:29.7413 13:27.7363 14:26.4197 15:24.6234 16:22.898 17:20.6717 18:18.7221 19:16.8029 20:16.2788 21:17.0294 22:18.5069 23:21.3191 24:23.757 25:26.2012 26:29.0259 27:30.4795 28:32.596 29:35.4189 30:38.2427 31:41.067 32:42.8994 33:44.1247 34:43.6005 35:42.7249 36:41.1889 37:38.4256 38:35.9349 39:33.4444 40:31.3847 41:30.2083 42:27.5054 43:26.2004 44:24.0538 45:21.9881 46:20.5058 47:20.2237 48:21.5589 49:23.5 50:25.5196 51:27.6171 52:29.7101 53:31.257 54:32.7453 55:34.7949 56:36.9144 57:39.1313 58:41.1905 59:43.2465 60:44.7214 61:44.9758 62:44.2323 63:42.6058 64:40.5494 65:38.513 66:37.0135 67:35.5141 68:33.5 69:31.54 70:29.7121 71:27.951 72:26.6833 73:26.5873 74:26.2853 75:25.7187 76:25.8153 77:26.1039 78:26.9629 79:26.8701 80:27.2829 81:28.2018 82:28.9996 83:29.9717 84:31.1277 85:31.9531 86:32.4265 87:33.3596 88:33.4588 89:33.1888 90:32.039 91:31.5081 92:31.0644 93:30.7052 94:29.521 95:29.958 96:30.9936 97:32.132 98:32.6956 99:33.3235 100:33.8077 101:33.985 102:34.3073 103:34.7706 104:35.3695 105:36.0694 106:36.1801 107:37.1078 108:36.7557 109:36.1031 110:36.0062 111:35.3412 112:35.1984 113:36.3717 114:37.9853 115:38.9421 116:40.0354 117:41.7469 118:42.107 119:43.0291 120:43.0058 121:41.5786 122:39.702 123:37.7128 124:36.2215 125:34.6302 126:32.5615 127:30.5081 128:29.0431 129:28.2223 130:28.0508 131:26.9258 132:25.9404 133:24.234 134:21.8309 135:20.2637 136:18.8324 137:18.1108 138:17.0147 139:16.0779 140:16.3856 141:16.9255 142:17.6764 143:17.4929 144:18.3144 145:19.5294 146:20.8657 147:22.3016 148:23.8191 149:25.4035 150:26.6271 151:27.8805 152:29.5857 153:30.8594 154:32.6542 155:34.4716 156:35.8469 157:36.8684 158:38.7463 159:40.6359 160:42.2406 161:43.782 162:45.3083 163:45.5412 164:44.8407 165:42.6878 166:40.6971 167:38.7073 168:36.7186 169:35.2278 170:33.8712 171:31.8945 172:29.9208 173:28.0508 174:26.1966 175:24.0263 176:22.561 177:21.1013 178:19.1642 179:17.2416 180:15.0422 181:13.2473 182:13.0384 183:14.5 184:16.5303 185:18.5664 186:20.5974 187:22.6992 188:24.6831 189:26.3059 190:27.8688 191:29.9208 192:32.0665 193:34.3314 194:36.5053 195:38.0789 196:39.7777 197:41.8405 198:44.3014 199:46.8039 200:48.872 
0.5465741532837298 0.5554686121230102 0.8069327667193995 1 0.4900168754941631 0.6200892881242568 1 1 1 0.869242024836451 1 0.6544097934708449 0.3268929679342195 1:60.8769 2:59.0647 3:56.8915 4:54.0638 5:51.2958 6:48.5583 7:45.8939 8:43.7865 9:41.1373 10:38.5519 11:36.0045 12:33.5376 13:31.1835 14:28.8587 15:26.9677 16:24.8301 17:23.1284 18:22.8366 19:25.3875 20:27.7879 21:29.9717 22:31.7537 23:34.0164 24:36.3082 25:38.3963 26:40.6359 27:42.8201 28:45.125 29:46.8109 30:49.2446 31:51.6842 32:53.3726 33:52.5441 34:50.4966 35:48.5724 36:46.8927 37:44.9183 38:42.9337 39:41.029 40:39.0169 41:37.2663 42:35.4025 43:34.4435 44:32.5623 45:30.7633 46:29.5904 47:28.7226 48:28.4775 49:28.3483 50:28.1586 51:28.2295 52:28.8587 53:29.4134 54:30.0083 55:31.1046 56:32.0676 57:33.8451 58:35.4487 59:37.1682 60:38.6972 61:40.4791 62:41.8264 63:43.6239 64:45.2153 65:46.6202 66:46.6192 67:46.0253 68:45.9891 69:45.0155 70:44.2088 71:43.5479 72:41.9089 73:40.068 74:39.5216 75:39.28 76:39.0573 77:38.3356 78:38.7362 79:38.3361 80:38.0854 81:38.6753 82:39.0832 83:39.2619 84:39.302 85:40.1433 86:40.8119 87:41.6109 88:41.8919 89:42.1975 90:42.7953 91:43.8325 92:44.7036 93:46.2321 94:47.8371 95:49.1771 96:50.915 97:52.7102 98:53.9099 99:55.8332 100:57.4063 101:57.9691 102:56.4493 103:53.7168 104:50.8952 105:48.4476 106:46.2097 107:44.2069 108:42.2534 109:40.4042 110:38.6766 111:37.14 112:35.4737 113:33.9029 114:31.6299 115:29.4182 116:27.3554 117:24.5253 118:22.0528 119:20.006 120:18.0654 121:16.8004 122:15.968 123:15.442 124:15.8715 125:16.577 126:18.0442 127:19.8157 128:21.9693 129:24.9104 130:27.8317 131:30.787 132:33.8907 133:37.1642 134:40.4791 135:42.9337 136:46.0665 137:49.4423 138:52.8403 139:54.9676 140:57.4225 141:59.7705 142:59.8108 143:57.0044 144:54.3002 145:51.2006 146:47.9011 147:45.2015 148:42.1012 149:39.6023 150:36.6039 151:33.5039 152:30.2023 153:27.1018 154:23.8015 155:21.0082 156:20.5183 157:22.6717 158:26.2012 159:29.5104 160:32.596 161:35.2541 162:38.3472 163:41.1644 164:44.259 165:47.5658 166:50.2379 167:52.7115 168:54.9045 169:57.4007 170:59.8108 171:61.3939 172:60.0543 173:56.6045 174:53.1651 175:50.6786 176:47.5088 177:44.0969 178:41.0222 179:38.242 180:35.3434 181:32.0401 182:29.8089 183:26.6865 184:23.7192 185:21.9293 186:23.8381 187:26.5434 188:29.1249 189:31.2932 190:33.8803 191:36.6233 192:39.2114 193:41.9675 194:44.7347 195:47.3209 196:49.5204 197:52.2021 198:54.8842 199:57.4705 200:59.9606 
0 0 0 0 0 0 1 1 0 0 0 0.7424960292208461 0 1:53.3385 2:52.345 3:50.8552 4:48.8698 5:46.8855 6:44.8407 7:42.7931 8:40.8075 9:38.8234 10:36.7789 11:34.7312 12:32.7453 13:30.7612 14:29.2746 15:27.7895 16:25.8119 17:23.8381 18:21.7084 19:19.7296 20:17.9517 21:16.9255 22:17.6764 23:19.0403 24:21.7836 25:24.011 26:26.5013 27:28.3019 28:29.8417 29:32.0707 30:34.0487 31:36.281 32:38.5138 33:40.7469 34:42.9803 35:44.9727 36:46.9713 37:49.4423 38:52.1588 39:51.9711 40:50.6786 41:48.9726 42:46.7474 43:44.7942 44:42.8524 45:40.6366 46:38.7106 47:36.8014 48:34.6026 49:32.7186 50:30.8603 51:28.6942 52:27.5862 53:25.8142 54:23.6934 55:21.596 56:19.5294 57:18.3144 58:17.6907 59:18.849 60:20.719 61:22.6114 62:24.9918 63:27.5785 64:29.1548 65:31.1218 66:33.7721 67:36.4493 68:39.1477 69:41.8633 70:44.593 71:47.0778 72:46.7701 73:44.9494 74:43.1677 75:40.9703 76:38.8132 77:37.3363 78:35.4203 79:32.9031 80:30.4406 81:28.0474 82:25.7426 83:23.5525 84:23.0109 85:22.1472 86:22.4609 87:21.9881 88:22.6598 89:23.2594 90:23.0746 91:24.1334 92:24.5235 93:25.8338 94:26.5399 95:27.4107 96:28.1599 97:29.3422 98:30.6423 99:32.0457 100:33.2099 101:34.0806 102:33.7343 103:33.4588 104:33.1888 105:33.0378 106:33.0076 107:33.0983 108:33.3091 109:33.6376 110:33.1132 111:33.2099 112:32.9686 113:33.3235 114:33.121 115:32.6033 116:32.9088 117:32.9757 118:33.2415 119:33.6361 120:33.5111 121:33.985 122:34.2409 123:34.6834 124:34.827 125:35.1126 126:35.5368 127:35.6931 128:36.4211 129:34.68 130:32.5381 131:31.6036 132:30.3397 133:29.238 134:27.8369 135:26.4629 136:24.4248 137:21.8309 138:19.3032 139:17.4642 140:17.19 141:16.0156 142:16.0779 143:16.3856 144:16.9255 145:17.6764 146:18.6128 147:19.7082 148:20.9379 149:23.0084 150:24.7487 151:26.5399 152:27.6586 153:29.4509 154:31.0055 155:32.6088 156:34.5328 157:36.4736 158:38.1617 159:39.8787 160:41.8633 161:43.8555 162:45.6213 163:47.1905 164:47.927 165:48.7536 166:47.637 167:45.7743 168:43.5463 169:41.6928 170:39.8534 171:37.8228 172:35.7952 173:33.9897 174:31.7537 175:29.7413 176:27.7363 177:25.9422 178:24.6234 179:22.39 180:19.9133 181:17.6764 182:16.9255 183:17.8563 184:19.7296 185:21.652 186:23.585 187:25.5783 188:27.5727 189:29.0689 190:30.5164 191:32.5154 192:34.5074 193:36.5 194:38.5 195:40.5 196:42.5118 197:44.5112 198:46.5107 199:48.5412 200:50.6233 
0 0 0 0 0 0 1 0.2987642773093341 0 0 0 0 0 1:54.231 2:52.7376 3:50.8552 4:48.8698 5:46.8855 6:44.9758 7:43.0727 8:40.6081 9:38.1479 10:36.1837 11:34.2237 12:32.5002 13:30.5658 14:28.6403 15:26.1506 16:23.5642 17:21.6628 18:20.3701 19:19.9858 20:22.3275 21:25.2429 22:27.8805 23:29.8417 24:31.8169 25:34.0487 26:36.0352 27:38.0303 28:40.708 29:43.3855 30:45.3933 31:47.4057 32:49.6417 33:51.6581 34:53.2194 35:51.4797 36:48.8089 37:47.0778 38:45.3687 39:43.4111 40:41.4648 41:39.0235 42:36.8014 43:35.2186 44:33.0356 45:31.5176 46:30.0561 47:27.9352 48:25.7473 49:23.5055 50:21.9185 51:22.1576 52:23.1284 53:24.8249 54:27.2137 55:30.4661 56:33.7721 57:36.4493 58:38.2693 59:40.1314 60:42.878 61:45.4869 62:48.6757 63:47.8594 64:46.3943 65:44.9727 66:43.1572 67:41.3831 68:38.3902 69:36.228 70:34.6335 71:32.6286 72:30.21 73:28.8561 74:26.6215 75:25.6797 76:25.1296 77:24.9166 78:24.8693 79:24.5249 80:25.2875 81:25.8576 82:26.5139 83:27.3386 84:27.9352 85:29.0344 86:30.2217 87:31.2143 88:33.1174 89:34.9186 90:36.2257 91:37.429 92:38.5863 93:39.4269 94:39.4317 95:38.5258 96:35.7867 97:34.0954 98:33.0076 99:32.039 100:31.6987 101:31.5855 102:31.6642 103:31.7879 104:32.5033 105:33.3235 106:33.8077 107:34.401 108:34.7458 109:35.426 110:36.0694 111:36.1801 112:36.1028 113:35.783 114:35.6011 115:35.6551 116:36.7003 117:37.9853 118:39.4317 119:41.0223 120:42.7411 121:45.0525 122:47.0053 123:46.5701 124:44.601 125:42.6058 126:40.5494 127:38.513 128:36.0048 129:33.5974 130:32.8149 131:31.1906 132:29.7471 133:28.5118 134:27.2818 135:25.5572 136:22.898 137:20.4091 138:18.562 139:16.3542 140:14.7131 141:13.5031 142:13.0192 143:12.2674 144:12.8246 145:13.6544 146:14.7111 147:15.9497 148:17.7005 149:19.6047 150:21.8023 151:23.4377 152:25.3875 153:27.3554 154:29.0914 155:31.7671 156:33.9897 157:36.0077 158:38.0302 159:39.8534 160:42.0867 161:44.3858 162:46.7042 163:48.5724 164:50.7965 165:52.6714 166:54.2335 167:55.5111 168:54.0296 169:51.3091 170:49.247 171:47.056 172:44.9958 173:42.9333 174:40.7463 175:38.2431 176:35.6548 177:33.7234 178:31.532 179:29.4725 180:27.4092 181:24.7394 182:22.074 183:19.8157 184:19.0656 185:20.5 186:22.5 187:24.5 188:27 189:29.5 190:31.5 191:33.5074 192:35.5141 193:37.5133 194:39.5127 195:42.0119 196:44.5112 197:46.5107 198:48.5256 199:50.5396 200:52.5616 
1 1 0.583500993843208 0.8715293689669967 1 0.4031217323553073 1 1 1 1 0.4318873550715125 1 0.7377130077395648 1:50.0899 2:49.0408 3:47.5105 4:45.511 5:43.5115 6:41.512 7:39.5127 8:37.5133 9:35.5141 10:33.5149 11:32.0156 12:30.5081 13:28.5 14:26.5 15:24.5 16:22.5 17:20.5125 18:18.6766 19:18.5603 20:19.9249 21:21.6628 22:23.5642 23:25.6244 24:27.6816 25:29.8877 26:31.947 27:34.1556 28:36.2115 29:37.6431 30:39.3735 31:41.4319 32:43.4888 33:45.8541 34:48.0687 35:50.1545 36:48.9314 37:47.0775 38:45.6946 39:44.3203 40:42.5005 41:40.2653 42:38.2434 43:36.2257 44:34.4428 45:32.2072 46:30.4518 47:29.1548 48:27.6139 49:25.3875 50:23.4377 51:21.221 52:19.9247 53:20.1586 54:21.9659 55:24.7891 56:26.9072 57:28.2931 58:30.4056 59:33.234 60:35.7124 61:37.8466 62:39.9921 63:42.4794 64:45.3045 65:47.4236 66:49.2073 67:50.6198 68:48.8109 69:47.0252 70:44.9041 71:42.7946 72:41.067 73:38.9936 74:37.6431 75:35.5317 76:33.9029 77:32.319 78:30.373 79:28.4698 80:26.181 81:23.9281 82:22.194 83:21.1896 84:21.2338 85:21.7906 86:23.639 87:25.6759 88:27.8688 89:30.21 90:32.3827 91:34.5634 92:35.4401 93:36.8439 94:38.7463 95:40.9668 96:40.0059 97:38.464 98:36.6233 99:34.3314 100:32.473 101:31.6969 102:30.0666 103:28.5086 104:26.5189 105:25.1296 106:24.9166 107:24.8693 108:24.5249 109:23.9363 110:24.0202 111:23.6008 112:24.1453 113:24.4002 114:24.9197 115:25.9419 116:27.1103 117:28.1832 118:29.619 119:30.9983 120:32.0156 121:33.1488 122:34.7968 123:35.0927 124:36.0069 125:35.0357 126:33.5974 127:31.6987 128:30.014 129:29.8329 130:29.2657 131:30.3741 132:31.1277 133:31.0959 134:30.3806 135:30.7081 136:30.4467 137:31.1288 138:31.241 139:31.5117 140:32.0776 141:33.331 142:33.3607 143:34.0069 144:34.3436 145:33.8451 146:34.4455 147:34.2345 148:34.5946 149:36.5069 150:38.5322 151:39.6574 152:40.874 153:43.1586 154:44.5269 155:45.9633 156:46.8402 157:46.807 158:44.7468 159:42.6919 160:40.1822 161:37.7177 162:35.7979 163:33.951 164:32.6909 165:31.0644 166:30.0083 167:28.5443 168:26.736 169:24.8245 170:23.0491 171:20.9916 172:18.8324 173:16.6936 174:15.0333 175:13.5192 176:12.7611 177:11.8939 178:11.9342 179:12.3848 180:13.5275 181:14.8433 182:16.1027 183:17.4642 184:18.849 185:20.719 186:22.6114 187:24.5208 188:26.4437 189:28.3772 190:30.3194 191:32.0665 192:33.541 193:35.018 194:36.99 195:38.9648 196:40.9421 197:42.7931 198:44.7801 199:46.7681 200:48.7114 
0 0 0 0 0.01049257237439781 0 0 0 0 0 1 0 0.2565559939699384 1:57.0351 2:55.581 3:53.5841 4:51.5873 5:49.116 6:46.6717 7:44.6794 8:42.6878 9:40.1996 10:37.7128 11:35.8504 12:33.8712 13:31.5757 14:29.1249 15:27.171 16:25.2243 17:22.9031 18:23.121 19:25.7403 20:27.7721 21:30.3342 22:32.9632 23:35.0041 24:36.8684 25:39.4441 26:41.908 27:43.9613 28:46.4873 29:49.176 30:51.0713 31:53.1282 32:55.763 33:58.3564 34:57.4742 35:55.6173 36:53.3114 37:50.6191 38:48.7882 39:46.9712 40:44.7229 41:42.5007 42:40.7469 43:38.5138 44:36.3618 45:34.2539 46:32.6088 47:31.0055 48:29.0738 49:26.5399 50:25.1073 51:23.4391 52:22.3379 53:23.266 54:25.5011 55:28.3675 56:31.2174 57:33.5622 58:35.5164 59:38.0696 60:40.1422 61:42.1947 62:44.265 63:46.9351 64:49.5025 65:51.9843 66:51.3263 67:49.6829 68:47.7128 69:46.1022 70:44.5254 71:42.4422 72:40.564 73:38.7097 74:36.8978 75:35.2392 76:33.0677 77:31.4718 78:29.1935 79:27.3769 80:26.6215 81:26.0096 82:25.4262 83:24.9166 84:24.8693 85:25.4651 86:25.8124 87:26.6728 88:26.915 89:27.7308 90:28.7732 91:30.1058 92:31.6283 93:32.9088 94:34.4978 95:36.0411 96:37.5673 97:38.9396 98:41.2323 99:43.1889 100:43.6451 101:43.0997 102:41.8747 103:41.515 104:41.2492 105:40.7236 106:39.0064 107:37.587 108:36.7806 109:36.0308 110:35.3055 111:35.4246 112:35.1984 113:34.9029 114:34.8278 115:34.7047 116:34.7706 117:34.6747 118:35.5386 119:36.5101 120:37.3138 121:38.4866 122:38.7419 123:39.3887 124:40.1857 125:41.9875 126:43.9866 127:45.7253 128:48.0492 129:50.5049 130:51.5628 131:53.193 132:51.3518 133:48.8698 134:46.7681 135:44.6794 136:42.0868 137:39.5062 138:37.5133 139:35.5919 140:33.3896 141:31.4144 142:29.7471 143:27.9871 144:25.6336 145:22.9408 146:20.5572 147:18.5603 148:16.4728 149:15.0166 150:14.23 151:14.2688 152:15.0146 153:15.7159 154:16.6247 155:18.6601 156:21.0082 157:22.9022 158:24.826 159:27.2793 160:29.8417 161:31.8169 162:33.5605 163:36.0808 164:38.4617 165:40.6977 166:42.7148 167:45.1898 168:47.4688 169:49.3081 170:51.1594 171:52.1862 172:49.966 173:47.909 174:45.6976 175:42.9129 176:40.3271 177:38.1218 178:35.635 179:33.0496 180:30.8427 181:28.6403 182:26.1506 183:23.4226 184:20.9916 185:20.6594 186:23.0869 187:25.5783 188:27.5727 189:29.6522 190:32.0625 191:34.5579 192:36.5548 193:38.5519 194:41.0488 195:43.546 196:45.5439 197:47.5421 198:50.0202 199:52.5095 200:54.5046 
0.1445487334020324 0 0.191621684572902 0.3259982201085472 0 0.1141806591280706 0 0.422665252136146 0.1141611541652789 0.2479070848279524 0.4542770740469069 0.2877173770103311 0.2920237845608312 1:75.4321 2:74.6855 3:72.8417 4:70.2288 5:67.4172 6:64.1594 7:60.927 8:58.1817 9:55.4628 10:52.7744 11:50.0558 12:46.8205 13:44.1044 14:42.006 15:39.2078 16:36.3398 17:33.2463 18:30.9015 19:28.6983 20:29.3386 21:32.347 22:36.0789 23:39.1109 24:42.2023 25:45.3463 26:48.978 27:52.6522 28:55.4157 29:58.2199 30:61.5224 31:65.7761 32:70.4857 33:73.3091 34:73.8438 35:72.3491 36:69.7343 37:66.935 38:64.366 39:61.5738 40:58.5493 41:55.7591 42:52.4793 43:49.9644 44:47.235 45:44.4405 46:41.4924 47:39.8201 48:39.3275 49:39.393 50:40.0437 51:40.6492 52:41.7809 53:42.4573 54:43.3312 55:45.5117 56:46.0709 57:47.2295 58:48.2645 59:49.4766 60:51.4195 61:52.8068 62:53.1632 63:53.8066 64:56.9353 65:59.6717 66:61.0677 67:61.8893 68:62.0507 69:60.2341 70:57.736 71:54.3093 72:52.5034 73:52.3155 74:51.9773 75:52.6653 76:53.4242 77:54.0062 78:54.0894 79:54.3384 80:54.3497 81:54.5768 82:55.0508 83:55.3678 84:56.2135 85:56.9558 86:57.233 87:57.4191 88:58.0741 89:59.4221 90:61.0756 91:62.9391 92:64.6725 93:66.7104 94:68.5098 95:70.8411 96:72.7675 97:73.065 98:71.5927 99:67.755 100:63.0726 101:59.6475 102:56.799 103:54.1216 104:51.2975 105:48.735 106:47.0121 107:45.2494 108:43.6448 109:41.7586 110:39.8297 111:37.2026 112:34.0026 113:31.2454 114:28.306 115:26.2562 116:25.5332 117:25.5183 118:25.9474 119:27.8954 120:31.0276 121:33.4026 122:36.3522 123:39.6821 124:43.6843 125:46.8067 126:49.3985 127:52.3944 128:56.1353 129:59.6496 130:61.9788 131:64.3792 132:65.1916 133:64.7531 134:64.1603 135:61.991 136:58.6941 137:54.9201 138:50.7386 139:46.6905 140:43.1857 141:38.9487 142:34.7132 143:30.5372 144:25.8235 145:22.023 146:18.0144 147:15.8186 148:18.9889 149:22.6018 150:25.6157 151:29.0316 152:32.0857 153:35.5451 154:38.9507 155:42.0613 156:45.0239 157:47.8553 158:51.4439 159:55.0374 160:58.0445 161:60.927 162:64.5402 163:67.7797 164:70.236 165:72.1321 166:73.898 167:73.2078 168:69.9803 169:66.8574 170:63.7384 171:60.6238 172:57.0638 173:53.4604 174:50.3588 175:47.2653 176:44.1815 177:40.5795 178:37.0135 179:34 180:31.0109 181:28.0179 182:24.5817 183:21.271 184:19.9401 185:22.4741 186:25.2995 187:28.8597 188:32.2808 189:35.1716 190:38.0794 191:41.1526 192:44.6353 193:48.0524 194:51.0577 195:54.0013 196:56.886 197:60.3348 198:63.7888 199:66.9669 200:70.4089 
0.5707280882358383 0.3759605310354053 0.3518289509776297 0.3654365480164784 0.4651458137417726 0.2020841847001183 0 0 0.7633860616645353 0.3153496267555703 0 0.04734334842490297 0.8166406219598666 1:72.8354 2:71.1393 3:68.4473 4:65.5136 5:62.441 6:59.4393 7:56.5158 8:53.5214 9:49.9632 10:46.573 11:43.6812 12:40.8051 13:37.9482 14:35.1152 15:32.3124 16:28.7905 17:25.4975 18:22.5127 19:19.7274 20:17.4206 21:17.2681 22:19.6087 23:23.1187 24:26.9073 25:30.1755 26:33.7078 27:37.0254 28:40.1397 29:43.7134 30:47.5675 31:51.0181 32:54.4075 33:57.4007 34:60.6067 35:64.0143 36:68.0076 37:71.9049 38:73.881 39:74.3393 40:72.8377 41:70.2464 42:67.453 43:64.4466 44:61.0151 45:57.3696 46:54.4698 47:51.8875 48:48.816 49:46.0799 50:43.4225 51:40.2588 52:36.7722 53:33.8416 54:30.734 55:28.4543 56:28.4163 57:31.0106 58:34.0147 59:37.5065 60:41.0686 61:44.1545 62:47.342 63:50.5362 64:53.7629 65:57.0738 66:61.0708 67:65.0835 68:68.5895 69:71.9341 70:74.9102 71:77.0514 72:76.6918 73:74.561 74:70.5797 75:67.2722 76:64.075 77:61.0054 78:58.0174 79:55.1033 80:51.7964 81:48.6119 82:46.0307 83:43.5071 84:41.4499 85:41.0319 86:41.4844 87:42.3802 88:43.6875 89:44.8543 90:45.7444 91:46.8756 92:48.0239 93:49.2282 94:50.9952 95:52.9352 96:53.7686 97:54.827 98:57.0782 99:57.8783 100:55.3927 101:53.8559 102:52.6817 103:52.0928 104:51.6731 105:51.0947 106:51.3581 107:51.7943 108:51.426 109:51.884 110:52.2521 111:52.8067 112:52.9493 113:53.5751 114:53.5594 115:53.7859 116:54.8443 117:55.9136 118:56.2345 119:57.2433 120:58.4872 121:60.2609 122:62.3192 123:64.5476 124:66.9572 125:68.9713 126:71.3161 127:72.8987 128:72.6681 129:70.5797 130:66.7349 131:63.1081 132:60.0947 133:57.1931 134:54.373 135:51.6321 136:49.0401 137:46.3035 138:43.897 139:41.9126 140:39.6742 141:37.0471 142:33.9582 143:30.5298 144:27.0783 145:25.6434 146:25.4017 147:25.1924 148:25.6797 149:27.1757 150:29.9493 151:32.4348 152:34.8542 153:37.2796 154:39.8311 155:42.4778 156:45.2106 157:47.7421 158:50.345 159:53.3971 160:55.9049 161:58.697 162:60.8302 163:62.1572 164:62.8117 165:63.2425 166:62.0891 167:58.3423 168:55.0741 169:51.9728 170:48.8792 171:45.9691 172:42.901 173:39.2465 174:35.4189 175:31.8146 176:28.4048 177:25.2027 178:21.8139 179:18.4393 180:14.1183 181:14.3219 182:17.0904 183:19.9264 184:22.8045 185:25.7106 186:28.6362 187:32.067 188:35.5108 189:38.3767 190:41.3039 191:44.2833 192:47.2024 193:50.1598 194:53.6335 195:57.0789 196:60.0613 197:63.0239 198:66.0051 199:69.0696 200:71.9216 
0.7270067122964216 0.6704906825116038 0.4196351873489649 0.7084055964514738 0.6617961036873184 0.3349104781672736 0.4799333938804271 0.5619080978312596 0.7326848406441741 0.2870698644323013 1 0.8966927973366463 0.8254662612757868 1:76.3217 2:74.4784 3:71.1705 4:67.3593 5:63.7928 6:60.1691 7:56.5939 8:53.1545 9:49.7618 10:46.395 11:43.131 12:40.0204 13:37.023 14:34.1436 15:31.4146 16:29.4547 17:30.0868 18:33.617 19:36.1746 20:38.8981 21:41.9683 22:45.2015 23:47.7961 24:50.5876 25:53.4205 26:56.2886 27:59.1866 28:62.1289 29:65.123 30:66.9415 31:64.6363 32:61.9911 33:59.5161 34:56.9256 35:54.3129 36:51.9801 37:49.6484 38:47.2898 39:45.3399 40:43.2252 41:40.7885 42:38.8481 43:37.5011 44:36.8961 45:36.6373 46:36.732 47:36.8685 48:37.6422 49:38.7373 50:39.7978 51:41.4506 52:43.341 53:45.4393 54:47.0569 55:48.5144 56:50.7766 57:53.163 58:55.6614 59:57.9446 60:59.0979 61:59.0607 62:59.1209 63:60.7426 64:63.3359 65:66.0152 66:66.2279 67:64.4113 68:62.0579 69:58.6872 70:56.6419 71:54.4548 72:52.8385 73:51.8594 74:51.081 75:50.7865 76:50.4211 77:49.9695 78:49.7153 79:49.3417 80:49.4836 81:49.4991 82:49.2611 83:50.0466 84:51.0163 85:51.1631 86:52.4753 87:52.9589 88:53.6062 89:53.4566 90:54.4296 91:56.1587 92:57.7022 93:59.946 94:61.6904 95:63.816 96:65.4634 97:67.4708 98:69.817 99:71.7035 100:73.4183 101:72.1335 102:68.593 103:64.8194 104:61.5251 105:58.4856 106:55.476 107:53.0088 108:50.345 109:48.015 110:46.0472 111:43.9147 112:41.8937 113:39.7047 114:36.4036 115:32.8949 116:30.0847 117:27.315 118:24.5995 119:22.4764 120:20.8449 121:19.9742 122:20.7435 123:21.8637 124:23.2474 125:26.0392 126:29.0056 127:32.0464 128:35.1607 129:38.2874 130:41.4878 131:44.7835 132:48.1236 133:51.344 134:54.7345 135:58.1509 136:61.5889 137:65.1481 138:68.6381 139:71.56 140:73.9295 141:73.6952 142:70.2149 143:67.2321 144:63.803 145:60.2259 146:56.9458 147:53.8159 148:50.3867 149:47.1079 150:43.9828 151:40.5523 152:37.1231 153:33.6921 154:30.2626 155:26.9844 156:24.7237 157:26.4012 158:30.4058 159:34.2056 160:37.8024 161:42.7146 162:47.6342 163:51.8557 164:56.0804 165:60.3076 166:63.7809 167:67.5173 168:70.7698 169:73.5551 170:76.1329 171:77.5945 172:75.3232 173:71.5891 174:68.1176 175:63.8906 176:60.4402 177:56.4855 178:52.8017 179:48.8703 180:45.4971 181:41.4017 182:37.2167 183:33.1225 184:29.0712 185:26.0109 186:27.204 187:30.466 188:33.9486 189:37.4544 190:40.6141 191:44.0138 192:47.5416 193:51.0802 194:54.4931 195:58.0445 196:61.464 197:64.7469 198:68.1676 199:71.4504 200:74.7336 
0 0 0 0 0 0 0.7260214987711626 0.5223549910425944 0 0 0 0 0 1:73.9797 2:73.0266 3:70.9872 4:68.1545 5:65.3442 6:62.6423 7:59.7751 8:56.9216 9:54.3133 10:51.1608 11:47.9281 12:45.1898 13:42.9435 14:40.3133 15:37.7384 16:35.2309 17:32.4012 18:29.458 19:26.8763 20:24.8473 21:24.0509 22:25.945 23:29.2202 24:32.5431 25:35.796 26:39.7375 27:43.6008 28:46.7506 29:49.936 30:52.6522 31:55.6588 32:58.9341 33:61.991 34:65.7647 35:70.183 36:72.1896 37:70.9393 38:69.0319 39:66.4035 40:63.8235 41:61.0191 42:58.2668 43:55.3233 44:52.1831 45:49.3603 46:46.927 47:43.9755 48:41.4474 49:39.382 50:37.492 51:36.1039 52:36.0231 53:37.2244 54:37.6649 55:39.3017 56:40.4829 57:42.1612 58:43.3882 59:44.7829 60:46.6061 61:48.0757 62:49.6829 63:51.1817 64:52.5821 65:53.2759 66:53.5594 67:53.8633 68:56.0432 69:57.4771 70:55.412 71:52.5602 72:51.8709 73:51.6684 74:50.9965 75:50.4941 76:50.6341 77:51.0065 78:51.0947 79:50.6969 80:50.4832 81:50.4542 82:50.6155 83:50.6485 84:50.5722 85:51.6908 86:52.4431 87:52.7473 88:53.015 89:54.0083 90:55.1753 91:56.9519 92:58.8317 93:60.9226 94:62.9698 95:64.8362 96:66.4984 97:67.732 98:65.9257 99:62.0341 100:58.8735 101:55.6186 102:52.6687 103:50.6955 104:48.7142 105:46.8744 106:45.2086 107:43.5031 108:41.7292 109:39.6277 110:35.419 111:31.3721 112:28.7616 113:25.9985 114:23.61 115:22.8523 116:23.4328 117:24.8573 118:26.5687 119:30.027 120:33.2492 121:36.6799 122:39.6222 123:42.4055 124:45.544 125:49.3985 126:52.7016 127:56.8091 128:60.5344 129:63.4276 130:65.8004 131:67.9593 132:68.0169 133:66.8451 134:63.2536 135:58.7238 136:54.2035 137:50.8039 138:46.6158 139:42.4387 140:38.4599 141:34.6707 142:30.5298 143:25.7428 144:21.4743 145:18.7104 146:17.3086 147:18.6601 148:21.6067 149:25.0005 150:28.4048 151:32.3204 152:36.0584 153:39.2958 154:42.3654 155:45.6197 156:48.8792 157:52.1391 158:55.0741 159:58.1821 160:61.7357 161:65.3004 162:68.4261 163:71.1135 164:73.4177 165:74.7213 166:73.3725 167:70.4167 168:66.7274 169:62.937 170:59.7751 171:56.6133 172:53.3528 173:50.0951 174:46.7496 175:43.5032 176:39.6557 177:35.8313 178:32.6224 179:29.5504 180:26.4178 181:23.2933 182:20.1131 183:17.715 184:18.7781 185:22.3915 186:25.9624 187:28.8624 188:31.781 189:34.8551 190:37.8554 191:40.7925 192:43.7381 193:47.1835 194:50.6361 195:53.6005 196:56.4809 197:59.4139 198:62.394 199:65.3759 200:68.3954 
0 0 0 0 0 0 1 1 0 0 0 0.005691493569847959 0 1:57.5587 2:55.8811 3:53.8354 4:51.7948 5:49.7519 6:47.7625 7:45.7739 8:43.1857 9:40.6971 10:38.7073 11:36.7186 12:34.6302 13:32.6382 14:30.1211 15:27.5727 16:25.5783 17:23.585 18:21.5929 19:19.563 20:17.019 21:15.582 22:16.3856 23:18.3469 24:20.5572 25:22.6114 26:25.2995 27:27.8317 28:29.8877 29:32.0979 30:34.004 31:36.2115 32:38.1218 33:40.7086 34:43.2003 35:45.2617 36:47.3209 37:49.247 38:51.3091 39:54.4086 40:56.4471 41:54.8933 42:52.8449 43:50.7965 44:48.9314 45:46.6165 46:44.1199 47:42.0867 48:40.2653 49:38.4617 50:36.2257 51:34.0022 52:31.568 53:29.5857 54:27.6139 55:25.6578 56:23.4377 57:21.5061 58:19.2162 59:18.4119 60:19.3129 61:21.221 62:23.163 63:25.933 64:29.1429 65:32.1015 66:34.5167 67:36.9392 68:39.7556 69:41.8151 70:44.3536 71:47.3973 72:50.2245 73:52.7102 74:52.45 75:50.7681 76:48.9417 77:46.5028 78:44.5254 79:42.1595 80:40.2297 81:37.9016 82:36.0352 83:33.2478 84:30.2086 85:28.5058 86:26.4097 87:24.8693 88:24.4232 89:24.0969 90:23.5109 91:23.1408 92:24.4232 93:24.8693 94:25.4651 95:25.8124 96:26.6728 97:27.7385 98:28.1141 99:29.4005 100:30.0561 101:31.4671 102:33.2015 103:34.2539 104:35.4163 105:36.4548 106:37.6203 107:40.057 108:42.1679 109:43.6451 110:43.0653 111:41.1155 112:39.5381 113:37.5934 114:35.2601 115:34.4455 116:34.1833 117:33.0378 118:32.0078 119:32.5993 120:34.0442 121:35.7979 122:36.2696 123:35.8953 124:36.5851 125:37.3692 126:38.1876 127:38.4314 128:39.1205 129:40.3039 130:41.1703 131:41.7492 132:42.0876 133:42.6535 134:42.7249 135:42.03 136:39.275 137:36.7875 138:35.3692 139:33.6041 140:31.0055 141:28.5045 142:25.7004 143:23.7174 144:21.7836 145:19.8347 146:18.2063 147:18.0796 148:18.1795 149:19.0131 150:19.0656 151:20.0823 152:22.4636 153:24.5249 154:26.6565 155:28.3999 156:30.2083 157:32.0707 158:34.9525 159:37.3164 160:39.3003 161:40.9195 162:42.9581 163:44.6375 164:46.4568 165:46.7226 166:46.1574 167:43.6618 168:41.4892 169:39.3238 170:37.0254 171:34.2983 172:32.1773 173:30.073 174:27.6134 175:25.5441 176:22.2848 177:19.3005 178:16.8029 179:15.2433 180:14.1774 181:14.8433 182:16.5623 183:18.7915 184:21.2736 185:23.3085 186:25.3491 187:27.3913 188:29.2622 189:31.7308 190:34.3115 191:36.2115 192:38.1218 193:40.0408 194:41.9675 195:44.3851 196:47.056 197:48.9925 198:50.9339 199:52.8797 200:54.7252 
0.1777156827754716 0.22662455035447 0 0.001107295344895922 0.122949920692935 0 0 0.3409672769892879 0.1158332816044117 0 0.1165917429873281 0.2598031548919503 0 1:74.7329 2:73.898 3:72.0316 4:69.2608 5:66.5175 6:63.9068 7:61.099 8:57.8483 9:55.0374 10:52.3271 11:49.6502 12:47.0123 13:44.9465 14:42.0316 15:39.2078 16:36.882 17:33.9751 18:31.8331 19:29.8395 20:27.7509 21:28.0361 22:30.5967 23:33.8441 24:37.0098 25:40.2496 26:43.9656 27:47.4725 28:50.0828 29:53.0088 30:56.225 31:59.2192 32:63.1302 33:67.897 34:71.9088 35:74.3324 36:75.035 37:73.4126 38:70.915 39:67.9534 40:65.4753 41:62.4849 42:60.1254 43:57.5449 44:54.3802 45:51.3175 46:48.7058 47:46.2049 48:43.8285 49:41.9284 50:40.4164 51:40.0083 52:40.7847 53:41.4446 54:42.6336 55:43.6877 56:45.7204 57:47.0166 58:48.3066 59:49.7443 60:51.042 61:52.2057 62:53.9799 63:55.4217 64:56.598 65:56.8623 66:56.8912 67:57.9844 68:60.7358 69:62.1787 70:62.4645 71:60.1672 72:56.9635 73:55.6651 74:55.6725 75:54.924 76:54.4578 77:54.4869 78:55.0151 79:55.0424 80:54.789 81:54.4231 82:54.3473 83:54.448 84:54.4053 85:54.2362 86:55.2445 87:55.8655 88:56.0323 89:56.1421 90:56.9876 91:58.003 92:59.9573 93:61.9396 94:63.6225 95:65.2168 96:66.9411 97:68.4354 98:69.33 99:67.1205 100:63.16 101:59.3619 102:56.0811 103:53.3114 104:50.5679 105:48.0976 106:45.9756 107:44.2206 108:42.4362 109:41.0404 110:39.6277 111:37.1385 112:33.4255 113:30.7007 114:27.8188 115:25.5024 116:24.979 117:25.5468 118:26.2979 119:28.3393 120:31.0766 121:34.0239 122:37.2226 123:40.1188 124:43.1783 125:46.8435 126:50.2845 127:53.4904 128:56.7727 129:60.1763 130:63.0676 131:65.3721 132:66.6105 133:66.0401 134:65.4471 135:63.2423 136:58.7963 137:55.0659 138:51.0882 139:47.6342 140:43.4168 141:38.5038 142:34.0026 143:30.0004 144:25.8077 145:21.6345 146:18.0335 147:18.2262 148:21.9317 149:25.2757 150:28.6389 151:31.8095 152:34.8019 153:38.5682 154:42.2512 155:45.4885 156:48.7288 157:51.6254 158:54.7099 159:58.2348 160:61.7751 161:64.8857 162:67.5362 163:69.9262 164:71.7018 165:73.4681 166:72.766 167:70.4286 168:67.1866 169:63.9495 170:60.7964 171:57.119 172:53.4435 173:50.1486 174:46.9385 175:43.6795 176:40.4999 177:36.7783 178:33.1102 179:30.0666 180:27.0185 181:24 182:21.0488 183:18.8324 184:21.1913 185:24.0428 186:26.9267 187:29.9143 188:32.9854 189:36.3911 190:39.8124 191:42.7554 192:45.7058 193:48.6623 194:51.5762 195:54.9479 196:58.421 197:61.4004 198:64.3817 199:67.4797 200:70.8623 
0.4110757694321542 1 0.1672686231434269 0.3662274313052691 0.3263996651863469 0.01915477504773273 1 1 1 0.4773935036329842 0.7821953830456785 1 0.4338223695835117 1:56 2:54.5092 3:52.5381 4:50.5396 5:48.5412 6:46.543 7:44.5449 8:42.547 9:40.5494 10:38.5519 11:36.0555 12:33.5597 13:31.5634 14:29.5677 15:27.5727 16:25.5783 17:23.585 18:21.5929 19:19.6024 20:17.614 21:15.1331 22:13.4716 23:13.2082 24:15.4447 25:18.1804 26:20.4091 27:22.6392 28:24.8703 29:26.8572 30:29.5322 31:32.2072 32:34.4428 33:36.6784 34:38.9141 35:40.9212 36:43.1572 37:45.1697 38:47.1864 39:49.2067 40:51.8956 41:55.2318 42:56.1512 43:54.8905 44:52.9086 45:51.1988 46:49.2394 47:47.2898 48:45.0702 49:42.6282 50:40.1063 51:38.2013 52:36.0048 53:33.8134 54:32.27 55:30.1058 56:27.9529 57:26.163 58:24.052 59:21.0138 60:18.9052 61:17.7603 62:18.3384 63:19.7808 64:21.6628 65:23.8805 66:26.2789 67:28.693 68:31.7832 69:34.8898 70:37.3437 71:40.0318 72:42.738 73:45.0271 74:47.3342 75:50.0852 76:52.3118 77:54.0275 78:52.944 79:50.7597 80:48.9955 81:46.3526 82:44.6607 83:42.0784 84:39.5297 85:37.0218 86:34.8227 87:31.7865 88:28.8561 89:26.6215 90:25.5096 91:25.0499 92:24.2589 93:24.627 94:24.6758 95:24.889 96:25.7187 97:26.6575 98:27.5029 99:27.9891 100:29 101:29.7825 102:30.7081 103:31.4853 104:32.9388 105:33.7779 106:35.1297 107:35.3055 108:34.8208 109:34.4455 110:34.1833 111:34.0367 112:34.0074 113:33.0983 114:32.3186 115:33.146 116:34.8557 117:35.8953 118:36.5851 119:36.4617 120:37.3557 121:38.3332 122:38.9741 123:39.3064 124:39.7617 125:40.8032 126:41.7492 127:42.5793 128:42.9067 129:42.5791 130:42.7953 131:43.1619 132:41.3831 133:38.7371 134:36.918 135:35.2048 136:33.1861 137:31.4853 138:28.9918 139:26.7679 140:24.4425 141:22.5931 142:20.8197 143:19.1434 144:18.4563 145:18.5685 146:19.0131 147:19.1702 148:20.5058 149:21.9881 150:23.5896 151:25.2875 152:27.0638 153:29.3349 154:31.6283 155:34.1236 156:36.1028 157:37.7161 158:39.3751 159:41.4414 160:42.7946 161:44.9041 162:45.31 163:45.3534 164:43.2012 165:41.0042 166:38.8117 167:36.9392 168:35.0907 169:32.9296 170:31.1207 171:28.9914 172:26.8794 173:24.0833 174:21.3191 175:18.5069 176:16.508 177:14.3007 178:12.4239 179:12.1241 180:12.9732 181:14.7747 182:16.9757 183:19.4493 184:21.3605 185:23.2866 186:25.2243 187:27.171 188:29.1249 189:31.0847 190:33.0493 191:35.018 192:37.4836 193:39.9532 194:41.9316 195:43.9119 196:45.7739 197:47.7625 198:49.7519 199:51.7422 200:53.617 
0 0 0 0 0 0 1 0.4080807923801464 0 0 0 0.0737839958170825 0 1:74.2159 2:72.7132 3:69.9218 4:67.0527 5:63.891 6:60.8291 7:57.6673 8:54.5055 9:51.5467 10:48.3845 11:45.4332 12:42.3801 13:39.5611 14:36.4017 15:33.4888 16:30.4648 17:27.315 18:24.1685 19:21.0267 20:18.3619 21:16.6913 22:17.9224 23:21.2604 24:25.4952 25:29.2445 26:33.2415 27:36.7696 28:40.3113 29:44.0932 30:47.877 31:51.438 32:54.7832 33:58.1378 34:61.5022 35:65.2994 36:69.527 37:72.2521 38:72.8446 39:71.4518 40:68.9293 41:65.6957 42:62.7397 43:59.5563 44:56.4006 45:53.0098 46:49.9266 47:46.6085 48:43.6239 49:40.4154 50:37.5786 51:34.5428 52:30.6799 53:27.5787 54:24.671 55:23.3695 56:25.0592 57:28.1604 58:31.1449 59:34.0445 60:37.0091 61:40.0082 62:43.0346 63:46.1225 64:49.2234 65:52.3857 66:55.6289 67:58.9143 68:62.1066 69:65.3749 70:68.4473 71:71.2033 72:71.7053 73:70.0217 74:67.1237 75:64.0361 76:61.0028 77:58.026 78:55.1033 79:52.2474 80:49.4546 81:46.7525 82:44.0775 83:41.5798 84:39.1141 85:37.1774 86:36.1472 87:36.3586 88:37.1428 89:38.1881 90:39.4907 91:41.0099 92:42.5491 93:44.1441 94:45.7072 95:47.4454 96:49.7394 97:51.6516 98:52.1459 99:52.16 100:51.3494 101:50.713 102:49.925 103:49.3276 104:49.2507 105:49.047 106:49.0468 107:48.9485 108:49.3622 109:49.4091 110:49.1455 111:49.4327 112:49.5109 113:49.6923 114:50.2324 115:51.4563 116:52.7845 117:53.0121 118:53.4628 119:54.448 120:56.3023 121:58.7015 122:61.3009 123:63.4098 124:66.0051 125:67.7378 126:67.9375 127:65.6266 128:62.8014 129:59.7347 130:56.4403 131:53.2404 132:50.3794 133:48.3507 134:46.182 135:44.5631 136:42.1288 137:39.6597 138:36.7901 139:33.527 140:30.0886 141:26.4843 142:23.7639 143:23.0362 144:23.3591 145:24.0543 146:25.091 147:26.4293 148:29.1263 149:31.6696 150:34.3162 151:36.8016 152:39.3643 153:41.7768 154:44.6909 155:47.2177 156:50.0024 157:52.433 158:55.1014 159:57.9844 160:60.5407 161:62.651 162:65.1513 163:66.717 164:66.4874 165:63.6802 166:60.5186 167:57.5854 168:54.7822 169:51.7478 170:48.8477 171:45.9619 172:42.9548 173:39.8136 174:36.676 175:33.6921 176:30.5694 177:27.6192 178:24.7019 179:21.4513 180:18.3714 181:17.1051 182:18.316 183:21.1365 184:24.0833 185:27.0562 186:30.0167 187:33.0103 188:36 189:39.0128 190:42.0354 191:45.081 192:48.1174 193:51.1567 194:54.231 195:57.315 196:60.407 197:63.506 198:66.6577 199:69.8746 200:73.0249 
0 0 0 0 0 0 1 0 0 0 0 0 0 1:57.7235 2:57.1444 3:56.1362 4:54.5553 5:51.976 6:49.5104 7:47.4614 8:44.9454 9:42.2526 10:40.3892 11:37.6974 12:35.1934 13:33.1555 14:30.8726 15:28.3999 16:26.3875 17:24.1902 18:21.5248 19:19.8325 20:17.4023 21:16.2788 22:18.3984 23:20.9813 24:23.3774 25:25.5441 26:28.2167 27:31.0055 28:33.2015 29:35.8082 30:38.4231 31:40.079 32:42.7223 33:45.3687 34:47.5954 35:50.7747 36:52.9757 37:53.7121 38:52.6333 39:50.7085 40:48.8723 41:46.6938 42:44.197 43:42.0759 44:39.6277 45:37.2074 46:35.5317 47:33.3361 48:31.3436 49:29.4182 50:27.5935 51:25.2875 52:24.0538 53:22.1714 54:21.2954 55:22.5562 56:25.0392 57:27.2304 58:29.0286 59:32.021 60:35.1085 61:37.6377 62:39.6209 63:42.2914 64:44.9506 65:48.1507 66:50.5401 67:51.7391 68:50.6442 69:49.0163 70:47.4617 71:45.0362 72:42.3633 73:41.0204 74:38.2169 75:36.534 76:34.5074 77:33.148 78:30.9974 79:30.4445 80:30.3745 81:30.2149 82:30.2152 83:30.5223 84:31.7081 85:32.224 86:33.2463 87:34.4435 88:35.1139 89:36.5435 90:37.8015 91:39.1528 92:40.5105 93:41.6231 94:42.089 95:41.6011 96:41.2492 97:40.0812 98:39.0085 99:39.0832 100:38.2687 101:37.0119 102:38.2032 103:38.7489 104:40.3295 105:40.6277 106:40.9262 107:40.9996 108:40.7834 109:40.5339 110:40.3361 111:41.274 112:41.9404 113:41.5089 114:41.6327 115:41.3879 116:41.3877 117:41.7985 118:43.3461 119:44.9986 120:46.882 121:48.9369 122:50.703 123:52.7112 124:54.0046 125:52.5621 126:50.2201 127:47.8775 128:45.7739 129:43.2196 130:40.611 131:38.5519 132:36.0093 133:34.0954 134:32.8149 135:31.1432 136:30.0483 137:28.8952 138:26.4038 139:23.121 140:21.5083 141:19.1039 142:18.0693 143:18.0139 144:18.2661 145:18.8276 146:19.5055 147:20.6036 148:21.9185 149:23.1171 150:24.766 151:26.5399 152:28.042 153:30.004 154:32.6088 155:34.2539 156:36.3618 157:38.5138 158:40.2654 159:42.4869 160:44.7358 161:46.155 162:48.3489 163:50.2882 164:51.5838 165:51.426 166:49.4232 167:47.3631 168:44.7216 169:42.2642 170:40.3021 171:37.8554 172:35.4156 173:33.4703 174:31.0491 175:28.6403 176:26.5822 177:24.0428 178:21.6628 179:19.4493 180:17.0904 181:14.2338 182:12.7611 183:15.0334 184:17.5 185:19.5 186:22.0148 187:24.5204 188:26.5189 189:29.0689 190:31.5634 191:33.6341 192:36.1885 193:38.7073 194:40.8075 195:43.3735 196:45.8939 197:47.9446 198:50.5857 199:53.2659 200:55.5037 
0 0 0 0 0 0 1 0 0 0 0 0 0 1:53.1601 2:52.0219 3:50.1226 4:48.2315 5:46.18 6:44.128 7:41.908 8:39.3299 9:36.8684 10:34.6451 11:32.5973 12:30.5497 13:28.5058 14:26.0019 15:23.7127 16:21.4778 17:19.68 18:17.4443 19:15.6944 20:14.0118 21:14.384 22:17.3312 23:19.4772 24:21.3191 25:23.5055 26:25.7004 27:28.8012 28:31.5042 29:33.7122 30:35.9237 31:38.1381 32:40.3549 33:42.3004 34:45.4869 35:48.543 36:49.7032 37:49.4302 38:48.5423 39:46.3828 40:44.0932 41:41.3687 42:39.2476 43:37.14 44:35.0484 45:32.9757 46:30.9257 47:28.8729 48:26.3519 49:24.8703 50:23.0336 51:21.2736 52:19.6111 53:18.4563 54:19.565 55:21.5233 56:23.5525 57:25.7426 58:28.0474 59:30.4406 60:33.2463 61:36.3676 62:38.9177 63:41.5039 64:44.1199 65:46.5542 66:49.1153 67:50.1545 68:48.5435 69:46.9838 70:44.9958 71:43.0638 72:40.6133 73:37.7716 74:35.5909 75:33.5074 76:31.54 77:29.7121 78:28.0508 79:26.8998 80:26.6633 81:26.6263 82:26.7764 83:26.7096 84:27.6224 85:28.7844 86:29.9164 87:30.9351 88:32.0776 89:33.331 90:34.4716 91:35.7619 92:37.6569 93:38.4559 94:38.5551 95:39.2619 96:39.0832 97:38.0066 98:36.7308 99:36.2836 100:34.9403 101:34.3345 102:33.8617 103:35.8953 104:37.5162 105:39.7047 106:41.3697 107:41.4299 108:41.1944 109:40.7061 110:40.7847 111:41.7294 112:42.4853 113:42.325 114:41.9096 115:40.7728 116:40.564 117:39.591 118:40.0161 119:40.8033 120:41.6231 121:42.5777 122:43.6519 123:44.8421 124:45.1072 125:44.0057 126:42.5118 127:40.5494 128:38.5519 129:36.5068 130:34.5074 131:32.1526 132:30.9974 133:30.9271 134:30.5201 135:29.8149 136:28.6234 137:26.244 138:23.9679 139:22.3041 140:20.7481 141:19.8157 142:19.0656 143:19.0438 144:19.3259 145:19.7859 146:19.5055 147:20.3579 148:21.3642 149:22.5036 150:24.0909 151:25.8142 152:27.2829 153:28.8158 154:30.4029 155:32.0364 156:34.1348 157:36.0411 158:37.5673 159:39.3611 160:40.9748 161:42.6179 162:44.128 163:45.8915 164:46.2113 165:45.3063 166:43.0727 167:41.1006 168:39.1313 169:36.6746 170:34.4422 171:32.5002 172:30.5658 173:28.6403 174:26.7259 175:24.8249 176:22.4741 177:20.1566 178:18.1263 179:16.1027 180:14.0906 181:11.8939 182:13.2844 183:15.6286 184:17.614 185:19.5256 186:21.5233 187:23.5109 188:25.5 189:28.0057 190:30.5164 191:32.5615 192:34.5936 193:36.6702 194:38.7073 195:41.3039 196:43.9119 197:45.9639 198:48.0903 199:50.4049 200:52.2828 
0 0.2789265665149192 1 1 0 0.9524716206231046 1 1 0.9893132629701864 0.5198710734576856 1 1 0.4135272579360377 1:58.0086 2:56.5577 3:54.5825 4:52.6522 5:50.1598 6:47.6681 7:45.7739 8:43.7865 9:41.3936 10:38.9648 11:37.0788 12:35.2031 13:32.7571 14:30.3194 15:28.6403 16:26.7259 17:26.8049 18:29.2622 19:31.1493 20:33.527 21:35.9203 22:37.5934 23:39.5381 24:41.9765 25:44.4214 26:46.3817 27:48.6482 28:50.7013 29:50.9205 30:49.5104 31:48.003 32:45.6958 33:43.4084 34:42.0393 35:39.8265 36:37.6472 37:36.2074 38:34.8186 39:32.8062 40:30.8603 41:29.3661 42:27.9352 43:26.2562 44:23.9041 45:22.747 46:22.1576 47:24.3069 48:26.181 49:28.0434 50:29.957 51:31.9369 52:33.7402 53:35.0484 54:37.2455 55:39.6043 56:42.4323 57:44.197 58:45.5436 59:45.1376 60:44.7036 61:42.7249 62:41.0611 63:39.1974 64:37.7961 65:36.4617 66:35.1637 67:33.682 68:32.6286 69:31.2565 70:29.7101 71:29.0431 72:29.0086 73:29.1661 74:29.0318 75:28.9911 76:29.5715 77:30.4723 78:31.5349 79:32.5029 80:33.5622 81:34.7458 82:35.7965 83:37.14 84:38.5405 85:40.148 86:41.6215 87:42.6068 88:43.9291 89:44.9773 90:45.8578 91:45.9666 92:45.5477 93:44.7826 94:44.2661 95:43.8348 96:43.4241 97:42.1485 98:41.0305 99:41.0061 100:40.1206 101:40.3794 102:40.7 103:40.5944 104:40.0059 105:39.28 106:39.1528 107:38.9645 108:38.9741 109:38.5096 110:38.2492 111:39.1393 112:39.7617 113:40.1122 114:39.8118 115:40.7212 116:41.8919 117:43.0222 118:44.6544 119:46.6997 120:48.258 121:49.9281 122:51.1631 123:52.024 124:51.0049 125:49.5404 126:47.0957 127:44.5727 128:42.547 129:40.5123 130:38.0043 131:35.5355 132:33.6868 133:31.9818 134:30.1 135:29.4434 136:27.981 137:26.4227 138:23.9467 139:22.1462 140:19.9644 141:18.3732 142:17.19 143:17.0147 144:17.0733 145:17.4823 146:18.2063 147:19.0118 148:20.4091 149:22.2135 150:24.5235 151:26.2012 152:28.2902 153:30.7793 154:32.27 155:34.4435 156:36.6039 157:39.0043 158:40.9208 159:42.8524 160:45.4885 161:48.1282 162:49.8229 163:51.5394 164:53.2468 165:53.9208 166:52.6552 167:50.0458 168:47.2916 169:44.6607 170:42.6179 171:39.9261 172:37.2329 173:35.0041 174:32.7763 175:30.2076 176:27.3913 177:25.3491 178:23.3085 179:20.7483 180:18.1263 181:15.5108 182:16.0083 183:18.4399 184:20.8868 185:22.853 186:25.3183 187:27.7895 188:29.77 189:31.753 190:34.2346 191:36.7186 192:38.7073 193:40.6971 194:43.2543 195:45.7739 196:47.7625 197:49.7519 198:52.2399 199:54.6881 200:56.5577 
-0 0 0.3628665110095878 0 0.2722022855671569 0 0 0 0.2942478286290456 1 0 0 1 1:47.5184 2:46.6905 3:45.7056 4:44.911 5:43.4426 6:41.9762 7:41 8:40.025 9:38.5651 10:36.8782 11:35.9026 12:34.9285 13:33.4703 14:32.0156 15:31.3209 16:30.3645 17:28.9357 18:27.5136 19:26.5707 20:25.632 21:24.234 22:22.8473 23:21.9317 24:21.0238 25:19.68 26:18.3576 27:17.4929 28:16.6433 29:15.4057 30:14.2127 31:13.4536 32:12.7279 33:12.1241 34:12.53 35:13.4164 36:14.3178 37:15.6935 38:17.088 39:17.72 40:18.4391 41:18.1795 42:18.0278 43:18 44:18.0278 45:18.1795 46:18.4391 47:18.6815 48:19.9249 49:20.8946 50:22.8473 51:24.1661 52:25.4951 53:27.0638 54:27.7849 55:28.3019 56:28.8444 57:29.7054 58:29.8329 59:30.4795 60:31.1448 61:31.4702 62:32.5576 63:32.6497 64:33.4216 65:33.7192 66:34.6699 67:34.9857 68:35.3553 69:36.0131 70:35.8469 71:35.4683 72:34.176 73:32.7334 74:32.28 75:32.0156 76:31.7805 77:32.9671 78:34.2345 79:34.1321 80:35.0571 81:35.0071 82:35.0143 83:35.0571 84:35.1283 85:33.738 86:32.249 87:31.257 88:30.2655 89:28.7174 90:27.1662 91:26.0768 92:25.0799 93:23.766 94:22.561 95:21.8403 96:20.8806 97:19.7808 98:18.7883 99:17.8885 100:17.4929 101:16.5223 102:15.6205 103:15.5563 104:15.6205 105:15.1322 106:15.6525 107:15.2315 108:14.8661 109:15.4106 110:16.1245 111:17.0294 112:18 113:19.563 114:21.2132 115:22.3607 116:22.561 117:23.9057 118:25.2982 119:26.5707 120:26.9258 121:28.8889 122:29.9666 123:31.305 124:31.7648 125:33.3682 126:34.9857 127:36.3593 128:36.8917 129:38.5541 130:39.4081 131:40.8044 132:41.4005 133:42.325 134:43.2782 135:43.9318 136:44.5982 137:44.5533 138:43.8634 139:43.1856 140:42.5206 141:40.7352 142:38.9487 143:37.5366 144:36.7967 145:34.6771 146:33.2415 147:31.8277 148:31.1127 149:28.9914 150:26.8701 151:26.1725 152:24.7588 153:22.6385 154:20.5183 155:19.105 156:17.6918 157:16.3249 158:14.2127 159:12.8062 160:11.4018 161:9.30116 162:7.2111 163:6.40312 164:5.65685 165:5.19258 166:6.32456 167:7.07107 168:8.06226 169:9.55263 170:11.0454 171:12.0416 172:13.0384 173:14.5345 174:16.0312 175:17.0294 176:18.0278 177:19.5256 178:21.0238 179:22.0227 180:23.0217 181:24.5204 182:26.0192 183:27 184:28 185:29.5 186:31 187:32 188:33 189:34.5 190:36 191:37 192:38 193:39.5 194:41 195:42 196:43.0116 197:44.5279 198:46.0977 199:47.1699 200:47.2652 
-0 1 0 0 0 0 1 0.6145045499617011 1 1 0 0.4090860547701781 0 1:57.0701 2:56.0892 3:55.109 4:53.6401 5:52.1728 6:50.6029 7:49.0306 8:48.0521 9:46.5861 10:45.1221 11:43.5505 12:41.9762 13:40.5125 14:39.0512 15:38.0789 16:36.6233 17:35.171 18:33.7234 19:32.0156 20:31.0483 21:29.6018 22:27.8927 23:26.1966 24:25 25:26.8812 26:27.8568 27:28.2312 28:28.1832 29:27.2947 30:25.9868 31:24.1868 32:22.898 33:21.6333 34:21.4009 35:22.3471 36:22.6274 37:23.0084 38:22.0227 39:22.2036 40:21.3642 41:21.4709 42:22.202 43:22.1359 44:22.6823 45:22.3607 46:23.1948 47:23.0543 48:23 49:23.0543 50:24.1868 51:24.4232 52:24.7386 53:25 54:25.4651 55:26 56:25.7187 57:26.4197 58:26.9258 59:27.7385 60:28.6007 61:28.7471 62:29.7321 63:30.0561 64:30.4795 65:31.241 66:31.8016 67:33.0151 68:33.7094 69:34.9857 70:35.8469 71:36.6784 72:37.5766 73:38.3526 74:39.2173 75:40.4797 76:42.0595 77:42.72 78:43.782 79:44.911 80:46.1176 81:46.3897 82:46.2223 83:45.0999 84:44.1022 85:42.6058 86:41.1096 87:39.6138 88:38.0526 89:37.0135 90:37.0068 91:36.0555 92:35.6763 93:34.3657 94:32.9671 95:31.7805 96:32.0156 97:31.4718 98:31.0161 99:31.5826 100:31.305 101:31.5747 102:30.5287 103:30.2324 104:29.0058 105:28.4253 106:27.9529 107:27.5862 108:26.9072 109:25.9307 110:25 111:24.1334 112:22.4722 113:21.2729 114:20.1246 115:18.7883 116:17.7364 117:16.7631 118:16.3856 119:15.1327 120:15.0333 121:14.5178 122:14.1421 123:15.4106 124:16.7631 125:17.2761 126:18.7883 127:19.2354 128:20.8431 129:22.4722 130:23.7174 131:25 132:26.7096 133:28.4253 134:29.0689 135:30.073 136:31.8277 137:32.8842 138:34.6554 139:35.3836 140:37.1667 141:38.2884 142:40.0794 143:41.2311 144:42.4069 145:44.2041 146:45 147:46.2097 148:47.4342 149:48.6757 150:49.93 151:50.4278 152:51 153:51.4296 154:51.2305 155:49.2443 156:47.8779 157:46.0977 158:45.1885 159:43.6183 160:42.0476 161:40.2653 162:38.4838 163:36.9129 164:35.3412 165:34.0147 166:32.4432 167:30.8707 168:29.0911 169:27.313 170:26 171:24.4248 172:22.4722 173:21.0351 174:19.6469 175:19.8201 176:21.2132 177:22.0907 178:23.585 179:25.02 180:26.5189 181:28.0179 182:29.5086 183:31 184:32 185:33.5 186:35.0143 187:36.5137 188:38.0132 189:39.0128 190:40.5494 191:42.0476 192:43.5743 193:45.0999 194:46.6338 195:48.1664 196:49.163 197:50.7469 198:52.345 199:54.0248 200:55.7315 
-0 0 0 0 0 0 0 0 0 0.7020132554067613 0 0 0 1:46.0435 2:45.0999 3:44.1022 4:43.1045 5:42.107 6:40.6971 7:39.2046 8:38.2099 9:37.2156 10:35.7247 11:34.2345 12:33.2415 13:32.3883 14:30.9072 15:29.4279 16:28.6356 17:27.6586 18:26.1966 19:24.7386 20:23.7697 21:22.8035 22:21.3605 23:19.9249 24:18.9737 25:18.0278 26:16.8205 27:16.1245 28:15.8114 29:16.4012 30:17.0294 31:17.3312 32:17.0294 33:17.2047 34:16.6433 35:15.8885 36:15.2315 37:14.8661 38:14.5602 39:13.2473 40:13.0384 41:14 42:15.0333 43:16.0779 44:17.2627 45:18.4391 46:18.6815 47:19.1434 48:19.6977 49:20.1246 50:19.7231 51:20.5286 52:21.4009 53:22.8035 54:23.6008 55:24.4131 56:26.1039 57:27.8029 58:28.4253 59:29.0689 60:30.073 61:30.4138 62:31.1448 63:31.8904 64:33.0356 65:33.6006 66:34.4093 67:34.6699 68:34.7338 69:34.8855 70:35.3412 71:35.8469 72:35.2912 73:34.7851 74:34.4819 75:34.2053 76:32.6286 77:30.8058 78:29.6142 79:28.6356 80:27.4591 81:26.736 82:28.1603 83:29.0689 84:30.0167 85:30.5081 86:31.0644 87:31.1448 88:31.257 89:30.504 90:29.6142 91:28.6356 92:27.6586 93:25.9858 94:24.7386 95:24.0416 96:24.3516 97:24.889 98:25.4951 99:25.9422 100:25.5539 101:24.826 102:23.6008 103:22.8035 104:22.0227 105:21.2603 106:19.1443 107:17.6918 108:16.2788 109:15.5563 110:15.3102 111:15.2643 112:14.7648 113:14.3178 114:13.7649 115:13.3417 116:13.1529 117:14.0357 118:14.0178 119:14.1421 120:15.2971 121:15.5242 122:15.9834 123:16.5529 124:17.8885 125:18.3576 126:19.9858 127:20.8087 128:22.2036 129:22.8035 130:23.4307 131:24.7891 132:26.1725 133:26.8701 134:28.2843 135:30.0561 136:31.1448 137:32.5576 138:33.3017 139:35.0907 140:36.8782 141:37.6431 142:38.4187 143:40.2162 144:41.4005 145:42.2019 146:42.4382 147:43.4163 148:43.0465 149:42.5441 150:42.0595 151:40.0318 152:38.4708 153:37.1214 154:36.2353 155:35.3553 156:33.5605 157:32.249 158:30.8869 159:30.0167 160:27.9739 161:26.4197 162:25.0599 163:24.1868 164:22.1482 165:20.5913 166:19.2354 167:18.3576 168:16.3262 169:14.3178 170:13 171:12.6491 172:13.7419 173:15.1327 174:16.1245 175:17.1172 176:18.6079 177:20.0998 178:21.095 179:22.0907 180:23.0868 181:24.5815 182:26.0768 183:27.074 184:28.0713 185:29.5677 186:31.0644 187:32.0624 188:33.1361 189:34.6302 190:36.1248 191:37.2156 192:38.2099 193:39.702 194:41.1947 195:42.19 196:43.1856 197:44.601 198:46.0435 199:46.0109 200:46 
