svm_type c_svc
kernel_type rbf
gamma 3.05176e-05
nr_class 6
total_sv 171
rho 0.682617 0.627565 0.712737 0.700521 0.567241 0.0168909 0.248205 0.0543515 -0.133414 0.250282 -0.0460559 -0.0324437 0.00805191 -0.352231 -0.181013
label 0 1 2 3 4 5
probA -1.76675 -1.95893 -1.52417 -2.07996 -1.63258 -1.03844 -0.174827 -1.48353 -1.45797 -0.524884 -0.543547 -1.0113 0.0716251 -0.0313871 -0.549368
probB -0.380331 -0.675088 -0.142211 -0.730337 -0.25864 -0.29618 -0.0249089 0.177294 0.339984 0.18584 0.198973 0.297544 -0.00243334 0.00614513 0.123504
nr_sv 22 29 30 30 30 30
SV
0 0 0.05682284799989393 0.07728501428207163 0.07222435149366632 1:36.769553 2:36.878178 3:37.64306 4:38.948684 5:38.013156 6:38.483763 7:36.400549 8:35.171011 9:34.928498 10:33.734256 11:33.54102 12:32.388269 13:32.062439 14:31.016125 15:31.016125 16:30.066593 17:32.310989 18:31.780497 19:33.12099 20:32.756679 21:34.409301 22:34.205263 23:33.42155 24:33.24154 25:29.832868 26:28.425341 27:27.202941 28:27.45906 29:30.88689 30:32.249031 31:35.777088 32:34.928498 33:35.468296 34:33.734256 35:32.557641 36:30.594117 37:28.284271 38:28.160256 39:30.016662 40:31.016125 41:32 42:32.984845 43:32.280025 44:38.600518 45:38.288379 46:37.536649 47:37.48333 48:36.069378 49:36.235342 50:35.608988 51:35.805028 52:35.22783 53:35.846897 54:34.014703 55:31.38471 56:30.675723 57:32.015621 58:32.572995 59:31.953091 60:32.695565 61:34.014703 62:35.355339 63:34.985711 64:36.055513 65:35.805028 66:36.400549 67:36.235342 68:36.878178 69:36.796739 70:38.183766 71:38.209946 72:36.235342 73:36.400549 74:30.675723 75:31.32092 76:32.280025 77:35.355339 78:35.014283 79:29.427878 80:31.780497 81:31.304952 82:32.756679 83:32.202484 84:0 85:0 86:0 87:0 88:0 89:0 90:0 91:0 92:0 93:0 94:0 95:0 96:0 97:0 98:0 99:0 100:0 101:0 102:0 103:0 104:0 105:0 106:0 107:0 108:0 109:0 110:0 111:0 112:0 113:0 114:0 115:0 116:0 117:0 118:0 119:0 120:0 
0.2659232559517677 0 0.3925752314873831 0 0 1:28 2:29.017236 3:29.614186 4:28.861739 5:29.12044 6:28.460499 7:29.154759 8:28.635642 9:30.016662 10:29.410882 11:31.240999 12:31.144823 13:32.526912 14:32.557641 15:33.301652 16:33.42155 17:34.205263 18:34.985711 19:34.481879 20:34.885527 21:34.438351 22:34.928498 23:33.526109 24:32.280025 25:31.780497 26:30.594117 27:30.413813 28:29.274562 29:29 30:30.016662 31:30.413813 32:29.614186 33:29.832868 34:29.12044 35:30.083218 36:29.546573 37:29.966648 38:29.154759 39:30.232433 40:30 41:30.610456 42:30.479501 43:31.144823 44:30.413813 45:30.479501 46:29.206164 47:29.410882 48:28.84441 49:29.529646 50:31.304952 51:30.463092 52:31.016125 53:30.675723 54:31.32092 55:30.805844 56:31.575307 57:31.256999 58:32.140317 59:32.015621 60:31.064449 61:31.400637 62:30.594117 63:31.048349 64:30.364453 65:30.675723 66:30.083218 67:30.463092 68:31.780497 69:31.304952 70:32.249031 71:31.906112 72:32.449961 73:32.202484 74:32.802439 75:32.557641 76:31.827661 77:31.827661 78:31.144823 79:31.240999 80:28.84441 81:29.154759 82:27.730849 83:28.231188 84:27.513633 85:28.160256 86:27.294688 87:28.160256 88:28.017851 89:29 90:31.38471 91:32.695565 92:33.54102 93:34.885527 94:36.359318 95:35.608988 96:36.235342 97:36.124784 98:30.413813 99:29.068884 100:29.546573 101:28.79236 102:29.410882 103:0 104:0 105:0 106:0 107:0 108:0 109:0 110:0 111:0 112:0 113:0 114:0 115:0 116:0 117:0 118:0 119:0 120:0 
0.3321024938910929 0 0 0 0 1:29.274562 2:30.413813 3:32.310989 4:31.780497 5:32.202484 6:31.76476 7:33.837849 8:35.22783 9:37.64306 10:37.48333 11:38.183766 12:38.209946 13:38.948684 14:39.051248 15:40.607881 16:41.048752 17:40.496913 18:40.816663 19:38.910153 20:39.395431 21:37.64306 22:36.400549 23:35.355339 24:36.221541 25:36.055513 26:37.013511 27:37.854986 28:37.107951 29:37.363083 30:35.468296 31:35.846897 32:34.885527 33:35.355339 34:34.669872 35:35.22783 36:34.71311 37:35.383612 38:32.557641 39:32.649655 40:32.015621 41:34.014703 42:31.780497 43:32.557641 44:32.140317 45:33.060551 46:35.1141 47:34.539832 48:35.846897 49:39.115214 50:38.600518 51:39.204592 52:38.948684 53:38.209946 54:38.183766 55:36.796739 56:36.878178 57:36.235342 58:36.619667 59:36.055513 60:36.359318 61:35.355339 62:35.777088 63:35.341194 64:35.846897 65:35.468296 66:36.055513 67:35.44009 68:36.138622 69:35.014283 70:33.136083 71:33.376639 72:32.557641 73:32.984845 74:34.205263 75:35.1141 76:36.400549 77:37.576588 78:37.121422 79:38.078866 80:37.735925 81:39.408121 82:38.600518 83:38.209946 84:35.383612 85:35.468296 86:33.015148 87:34 88:33.105891 89:33.615473 90:31.256999 91:30.149627 92:30.066593 93:29.017236 94:0 95:0 96:0 97:0 98:0 99:0 100:0 101:0 102:0 103:0 104:0 105:0 106:0 107:0 108:0 109:0 110:0 111:0 112:0 113:0 114:0 115:0 116:0 117:0 118:0 119:0 120:0 
0.7132149088629856 0.733261344053698 1 0.7069873748417753 0.7201909409827537 1:41.10961 2:40.360872 3:38.948684 4:37.48333 5:37.48333 6:36.069378 7:27.856777 8:26.570661 9:26.248809 10:23.769729 11:23.537205 12:20.099751 13:19.104973 14:18.027756 15:13.038405 16:12 17:11 18:9.2195445 19:9.8488578 20:9.4339811 21:8.6023253 22:8.4852814 23:7.2111026 24:7.6157731 25:7.2801099 26:9 27:9.0553851 28:11.401754 29:14.866069 30:14.866069 31:15.620499 32:15.811388 33:24.698178 34:25.298221 35:28.160256 36:29.614186 37:29.274562 38:30.149627 39:30.066593 40:33.015148 41:35.014283 42:36.055513 43:40.049969 44:41.10961 45:42.107007 46:40.112342 47:39.051248 48:36.055513 49:35.014283 50:32.015621 51:30.016662 52:30.149627 53:29.274562 54:29.427878 55:27.202941 56:25.298221 57:24.698178 58:15.811388 59:15.620499 60:14.142136 61:14.21267 62:11.7047 63:10.440307 64:10.198039 65:7.0710678 66:7.6157731 67:7.2111026 68:7.8102497 69:7.8102497 70:8.6023253 71:9.486833 72:9.2195445 73:10.049876 74:10 75:12 76:13.038405 77:17.029386 78:18.11077 79:19.104973 80:23.769729 81:24.041631 82:26.570661 83:26.925824 84:28.231188 85:36.069378 86:37.48333 87:37.48333 88:38.948684 89:40.360872 90:41.868843 91:43.863424 92:42.520583 93:0 94:0 95:0 96:0 97:0 98:0 99:0 100:0 101:0 102:0 103:0 104:0 105:0 106:0 107:0 108:0 109:0 110:0 111:0 112:0 113:0 114:0 115:0 116:0 117:0 118:0 119:0 120:0 
0.691912618282162 1 1 1 1 1:3.0370001e+09 2:0 3:0 4:0 5:0 6:0 7:0 8:0 9:0 10:0 11:0 12:0 13:0 14:0 15:0 16:0 17:0 18:0 19:0 20:0 21:0 22:0 23:0 24:0 25:0 26:0 27:0 28:0 29:0 30:0 31:0 32:0 33:0 34:0 35:0 36:0 37:0 38:0 39:0 40:0 41:0 42:0 43:0 44:0 45:0 46:0 47:0 48:0 49:0 50:0 51:0 52:0 53:0 54:0 55:0 56:0 57:0 58:0 59:0 60:0 61:0 62:0 63:0 64:0 65:0 66:0 67:0 68:0 69:0 70:0 71:0 72:0 73:0 74:0 75:0 76:0 77:0 78:0 79:0 80:0 81:0 82:0 83:0 84:0 85:0 86:0 87:0 88:0 89:0 90:0 91:0 92:0 93:0 94:0 95:0 96:0 97:0 98:0 99:0 100:0 101:0 102:0 103:0 104:0 105:0 106:0 107:0 108:0 109:0 110:0 111:0 112:0 113:0 114:0 115:0 116:0 117:0 118:0 119:0 120:0 
1 1 1 1 1 1:3.0370001e+09 2:0 3:0 4:0 5:0 6:0 7:0 8:0 9:0 10:0 11:0 12:0 13:0 14:0 15:0 16:0 17:0 18:0 19:0 20:0 21:0 22:0 23:0 24:0 25:0 26:0 27:0 28:0 29:0 30:0 31:0 32:0 33:0 34:0 35:0 36:0 37:0 38:0 39:0 40:0 41:0 42:0 43:0 44:0 45:0 46:0 47:0 48:0 49:0 50:0 51:0 52:0 53:0 54:0 55:0 56:0 57:0 58:0 59:0 60:0 61:0 62:0 63:0 64:0 65:0 66:0 67:0 68:0 69:0 70:0 71:0 72:0 73:0 74:0 75:0 76:0 77:0 78:0 79:0 80:0 81:0 82:0 83:0 84:0 85:0 86:0 87:0 88:0 89:0 90:0 91:0 92:0 93:0 94:0 95:0 96:0 97:0 98:0 99:0 100:0 101:0 102:0 103:0 104:0 105:0 106:0 107:0 108:0 109:0 110:0 111:0 112:0 113:0 114:0 115:0 116:0 117:0 118:0 119:0 120:0 
1 1 1 1 1 1:7.6157731 2:8.0622577 3:7.8102497 4:6.4031242 5:5.0990195 6:4 7:4.1231056 8:3.6055513 9:4.2426407 10:7.0710678 11:7.2801099 12:8.2462113 13:9.486833 14:9.2195445 15:8.2462113 16:6 17:6.0827625 18:5 19:4.2426407 20:4.472136 21:4.1231056 22:5 23:6.4031242 24:7.8102497 25:7.8102497 26:9.2195445 27:7.6157731 28:8.2462113 29:10 30:7.8102497 31:5 32:4.2426407 33:2.8284271 34:2.8284271 35:4.2426407 36:5 37:7.8102497 38:10.29563 39:7.8102497 40:5 41:5.3851648 42:5 43:4.2426407 44:2.8284271 45:3.6055513 46:4.2426407 47:8.4852814 48:9.2195445 49:9.4339811 50:8.2462113 51:0 52:0 53:0 54:0 55:0 56:0 57:0 58:0 59:0 60:0 61:0 62:0 63:0 64:0 65:0 66:0 67:0 68:0 69:0 70:0 71:0 72:0 73:0 74:0 75:0 76:0 77:0 78:0 79:0 80:0 81:0 82:0 83:0 84:0 85:0 86:0 87:0 88:0 89:0 90:0 91:0 92:0 93:0 94:0 95:0 96:0 97:0 98:0 99:0 100:0 101:0 102:0 103:0 104:0 105:0 106:0 107:0 108:0 109:0 110:0 111:0 112:0 113:0 114:0 115:0 116:0 117:0 118:0 119:0 120:0 
1 1 1 1 1 1:1 2:2.236068 3:2.236068 4:2.8284271 5:2.8284271 6:1.4142136 7:0 8:0 9:0 10:0 11:0 12:0 13:0 14:0 15:0 16:0 17:0 18:0 19:0 20:0 21:0 22:0 23:0 24:0 25:0 26:0 27:0 28:0 29:0 30:0 31:0 32:0 33:0 34:0 35:0 36:0 37:0 38:0 39:0 40:0 41:0 42:0 43:0 44:0 45:0 46:0 47:0 48:0 49:0 50:0 51:0 52:0 53:0 54:0 55:0 56:0 57:0 58:0 59:0 60:0 61:0 62:0 63:0 64:0 65:0 66:0 67:0 68:0 69:0 70:0 71:0 72:0 73:0 74:0 75:0 76:0 77:0 78:0 79:0 80:0 81:0 82:0 83:0 84:0 85:0 86:0 87:0 88:0 89:0 90:0 91:0 92:0 93:0 94:0 95:0 96:0 97:0 98:0 99:0 100:0 101:0 102:0 103:0 104:0 105:0 106:0 107:0 108:0 109:0 110:0 111:0 112:0 113:0 114:0 115:0 116:0 117:0 118:0 119:0 120:0 
1 1 1 0.9409324453960728 0.7073215283855767 1:21.470911 2:22.472205 3:22.203603 4:21.400935 5:21.260292 6:20.518285 7:20.518285 8:21.260292 9:21.400935 10:25.553865 11:27.513633 12:26.305893 13:25.495098 14:26.570661 15:26 16:26.832816 17:26.41969 18:26.925824 19:24.413111 20:24.207437 21:23.430749 22:23.853721 23:22.36068 24:22.847319 25:21.587033 26:22.36068 27:22.36068 28:21.587033 29:21.84033 30:21.18962 31:22.825424 32:22.472205 33:24.839485 34:24.758837 35:26.172505 36:26.248809 37:27.802878 38:27.202941 39:27.45906 40:26.925824 41:27.294688 42:25.632011 43:26.248809 44:25.019992 45:24.083189 46:25.632011 47:25.079872 48:25.942244 49:25.553865 50:26.07681 51:25.495098 52:24.758837 53:24.758837 54:24.083189 55:24.207437 56:23.021729 57:23.323808 58:22.36068 59:22.847319 60:22.135944 61:22.803509 62:22.090722 63:23.021729 64:23.086793 65:22.203603 66:23.086793 67:0 68:0 69:0 70:0 71:0 72:0 73:0 74:0 75:0 76:0 77:0 78:0 79:0 80:0 81:0 82:0 83:0 84:0 85:0 86:0 87:0 88:0 89:0 90:0 91:0 92:0 93:0 94:0 95:0 96:0 97:0 98:0 99:0 100:0 101:0 102:0 103:0 104:0 105:0 106:0 107:0 108:0 109:0 110:0 111:0 112:0 113:0 114:0 115:0 116:0 117:0 118:0 119:0 120:0 
0 0.6325829547163404 0.5860089831158595 0 0 1:23.600847 2:24.596748 3:24.166092 4:25.96151 5:25.70992 6:26.476405 7:26.07681 8:25.179357 9:26.925824 10:26.400758 11:27.294688 12:26.925824 13:27.45906 14:27.018512 15:27.658633 16:24.758837 17:24.839485 18:23.600847 19:23.853721 20:20.880613 21:19.646883 22:20.396078 23:20.223748 24:22.022716 25:25.059928 26:24.698178 27:26.400758 28:26.248809 29:29 30:28.319605 31:28.425341 32:25.553865 33:25.942244 34:24.041631 35:24.738634 36:24.33105 37:25.179357 38:25.495098 39:24.738634 40:26.400758 41:25.553865 42:26.07681 43:25.806976 44:26.400758 45:26.172505 46:26.870058 47:26.907248 48:24.413111 49:24.698178 50:22.847319 51:23.4094 52:22.561028 53:23.345235 54:23.194827 55:22.36068 56:22.803509 57:22.135944 58:23.706539 59:25.059928 60:24.698178 61:23.853721 62:23.600847 63:22.803509 64:22.671568 65:21.931712 66:21.931712 67:22.671568 68:22.803509 69:0 70:0 71:0 72:0 73:0 74:0 75:0 76:0 77:0 78:0 79:0 80:0 81:0 82:0 83:0 84:0 85:0 86:0 87:0 88:0 89:0 90:0 91:0 92:0 93:0 94:0 95:0 96:0 97:0 98:0 99:0 100:0 101:0 102:0 103:0 104:0 105:0 106:0 107:0 108:0 109:0 110:0 111:0 112:0 113:0 114:0 115:0 116:0 117:0 118:0 119:0 120:0 
0 0 0.6156563246171866 0 0 1:23.345235 2:23.853721 3:23.323808 4:25.298221 5:25 6:25.70992 7:25.317978 8:26.172505 9:26.172505 10:25.317978 11:25.70992 12:25 13:25.632011 14:25.079872 15:25.495098 16:25.059928 17:25.553865 18:25.238859 19:25.806976 20:22.671568 21:22.671568 22:23.430749 23:23.600847 24:23.021729 25:23.706539 26:23.259407 27:23.769729 28:22.090722 29:23.021729 30:23.086793 31:22.203603 32:22.561028 33:21.84033 34:22.135944 35:21.540659 36:25.612497 37:25.495098 38:26.172505 39:26.248809 40:27.018512 41:26.400758 42:26.627054 43:25.059928 44:25.495098 45:24.041631 46:24.738634 47:26.832816 48:26.41969 49:27.45906 50:27.202941 51:27.802878 52:27.658633 53:26.172505 54:26.172505 55:23.021729 56:23.323808 57:22.36068 58:22.847319 59:22.472205 60:23.769729 61:23.086793 62:21 63:21.023796 64:20.099751 65:21.931712 66:21.470911 67:21.954498 68:21.633308 69:22.203603 70:21.931712 71:0 72:0 73:0 74:0 75:0 76:0 77:0 78:0 79:0 80:0 81:0 82:0 83:0 84:0 85:0 86:0 87:0 88:0 89:0 90:0 91:0 92:0 93:0 94:0 95:0 96:0 97:0 98:0 99:0 100:0 101:0 102:0 103:0 104:0 105:0 106:0 107:0 108:0 109:0 110:0 111:0 112:0 113:0 114:0 115:0 116:0 117:0 118:0 119:0 120:0 
0.1679442631311599 0 0 0 0.1441362408598432 1:24.083189 2:25 3:24.351591 4:26.925824 5:26.627054 6:28.425341 7:26.172505 8:26.172505 9:23.600847 10:23.853721 11:22.825424 12:23.259407 13:22.847319 14:23.4094 15:22.803509 16:23.537205 17:23.021729 18:20.099751 19:21.540659 20:21.023796 21:21.954498 22:21.633308 23:22.203603 24:22.022716 25:23.345235 26:23.430749 27:22.803509 28:23.706539 29:26.400758 30:26.925824 31:26.570661 32:27.202941 33:26.925824 34:27.658633 35:27 36:26.019224 37:26.172505 38:25.317978 39:25.70992 40:25 41:26 42:25.495098 43:26.925824 44:26.627054 45:27.202941 46:26.907248 47:25.455844 48:24.041631 49:24.083189 50:23.430749 51:23.600847 52:24.413111 53:22.36068 54:22.847319 55:21.377558 56:22.203603 57:22.090722 58:21.213203 59:21.84033 60:21.18962 61:24.413111 62:24.207437 63:26.172505 64:26.248809 65:25.612497 66:26.07681 67:23.769729 68:24.351591 69:23.194827 70:0 71:0 72:0 73:0 74:0 75:0 76:0 77:0 78:0 79:0 80:0 81:0 82:0 83:0 84:0 85:0 86:0 87:0 88:0 89:0 90:0 91:0 92:0 93:0 94:0 95:0 96:0 97:0 98:0 99:0 100:0 101:0 102:0 103:0 104:0 105:0 106:0 107:0 108:0 109:0 110:0 111:0 112:0 113:0 114:0 115:0 116:0 117:0 118:0 119:0 120:0 
0.1974449130595517 0.5452839340356866 1 0.1975817871537821 0.8393184078930387 1:21.377558 2:22.203603 3:24.166092 4:22.803509 5:22.022716 6:21.931712 7:22.671568 8:22.803509 9:23.600847 10:23.853721 11:26.41969 12:26.832816 13:26.400758 14:26.925824 15:26.248809 16:26.925824 17:26.683328 18:29.154759 19:29 20:28.017851 21:28.071338 22:26.305893 23:26.476405 24:25 25:25.298221 26:24.698178 27:25.079872 28:24.596748 29:22.825424 30:22.472205 31:21.633308 32:21.400935 33:22.022716 34:21.931712 35:22.627417 36:22.803509 37:21.095023 38:21.470911 39:20.248457 40:20.880613 41:20.615528 42:21.377558 43:21.213203 44:22.090722 45:22.561028 46:21.84033 47:22.847319 48:22.36068 49:24.413111 50:24.207437 51:25.495098 52:25.455844 53:26.172505 54:26.248809 55:25.612497 56:26.07681 57:22.561028 58:23.345235 59:23.194827 60:24.083189 61:24.020824 62:25 63:25.495098 64:24.738634 65:25.298221 66:24.698178 67:25.942244 68:25.553865 69:26.627054 70:26.172505 71:24.207437 72:24.413111 73:22.825424 74:23.259407 75:0 76:0 77:0 78:0 79:0 80:0 81:0 82:0 83:0 84:0 85:0 86:0 87:0 88:0 89:0 90:0 91:0 92:0 93:0 94:0 95:0 96:0 97:0 98:0 99:0 100:0 101:0 102:0 103:0 104:0 105:0 106:0 107:0 108:0 109:0 110:0 111:0 112:0 113:0 114:0 115:0 116:0 117:0 118:0 119:0 120:0 
1 0.8790236968636206 1 1 0.6981263195192134 1:39.824616 2:39.59798 3:38.897301 4:38.948684 5:38.288379 6:38.418745 7:36.055513 8:36.359318 9:34.438351 10:35.468296 11:35.1141 12:36.400549 13:36.138622 14:36.878178 15:36.055513 16:35.014283 17:35 18:34.014703 19:34.058773 20:33.136083 21:33.376639 22:32.557641 23:32.756679 24:32.015621 25:32.893768 26:34.176015 27:35.341194 28:34.481879 29:34.985711 30:34.409301 31:35 32:34.71311 33:35.383612 34:35.383612 35:40.804412 36:41.048752 37:40.496913 38:40.816663 39:40.311289 40:41.629317 41:40.496913 42:41.10961 43:40.024992 44:38.832976 45:38.327536 46:37.215588 47:37.121422 48:38.052595 49:37.013511 50:37.121422 51:36.221541 52:36.674242 53:35.902646 54:37 55:36.400549 56:37.161808 57:36.674242 58:37.589892 59:36.619667 60:35.805028 61:35.608988 62:34.82815 63:34.71311 64:31.144823 65:31.240999 66:30 67:30.88689 68:32.649655 69:33.105891 70:31.32092 71:32.756679 72:33.734256 73:34.525353 74:34.365681 75:35.22783 76:35.014283 77:36 78:36.013886 79:35.057096 80:35.22783 81:34.365681 82:35.44009 83:36.687873 84:40.816663 85:40.496913 86:41.617304 87:41.231056 88:40.459857 89:40.360872 90:39.698866 91:40.224371 92:38.587563 93:35.846897 94:34.885527 95:37 96:37.947332 97:36.674242 98:35.510562 99:35.22783 100:34.132096 101:34.058773 102:33.136083 103:33.54102 104:32.756679 105:35.777088 106:35.355339 107:0 108:0 109:0 110:0 111:0 112:0 113:0 114:0 115:0 116:0 117:0 118:0 119:0 120:0 
1 1 1 1 1 1:2.8284271 2:3.6055513 3:5 4:4.1231056 5:4.1231056 6:3 7:3.1622777 8:4.472136 9:4.2426407 10:3.1622777 11:0 12:0 13:0 14:0 15:0 16:0 17:0 18:0 19:0 20:0 21:0 22:0 23:0 24:0 25:0 26:0 27:0 28:0 29:0 30:0 31:0 32:0 33:0 34:0 35:0 36:0 37:0 38:0 39:0 40:0 41:0 42:0 43:0 44:0 45:0 46:0 47:0 48:0 49:0 50:0 51:0 52:0 53:0 54:0 55:0 56:0 57:0 58:0 59:0 60:0 61:0 62:0 63:0 64:0 65:0 66:0 67:0 68:0 69:0 70:0 71:0 72:0 73:0 74:0 75:0 76:0 77:0 78:0 79:0 80:0 81:0 82:0 83:0 84:0 85:0 86:0 87:0 88:0 89:0 90:0 91:0 92:0 93:0 94:0 95:0 96:0 97:0 98:0 99:0 100:0 101:0 102:0 103:0 104:0 105:0 106:0 107:0 108:0 109:0 110:0 111:0 112:0 113:0 114:0 115:0 116:0 117:0 118:0 119:0 120:0 
1 1 1 1 1 1:1.4142136 2:2 3:0 4:1.4142136 5:1.4142136 6:0 7:2.8284271 8:0 9:0 10:0 11:0 12:0 13:0 14:0 15:0 16:0 17:0 18:0 19:0 20:0 21:0 22:0 23:0 24:0 25:0 26:0 27:0 28:0 29:0 30:0 31:0 32:0 33:0 34:0 35:0 36:0 37:0 38:0 39:0 40:0 41:0 42:0 43:0 44:0 45:0 46:0 47:0 48:0 49:0 50:0 51:0 52:0 53:0 54:0 55:0 56:0 57:0 58:0 59:0 60:0 61:0 62:0 63:0 64:0 65:0 66:0 67:0 68:0 69:0 70:0 71:0 72:0 73:0 74:0 75:0 76:0 77:0 78:0 79:0 80:0 81:0 82:0 83:0 84:0 85:0 86:0 87:0 88:0 89:0 90:0 91:0 92:0 93:0 94:0 95:0 96:0 97:0 98:0 99:0 100:0 101:0 102:0 103:0 104:0 105:0 106:0 107:0 108:0 109:0 110:0 111:0 112:0 113:0 114:0 115:0 116:0 117:0 118:0 119:0 120:0 
1 1 1 1 1 1:4.1231056 2:4.1231056 3:3.6055513 4:2.236068 5:2.236068 6:3.1622777 7:3.6055513 8:3.6055513 9:3.1622777 10:2.8284271 11:3.6055513 12:0 13:0 14:0 15:0 16:0 17:0 18:0 19:0 20:0 21:0 22:0 23:0 24:0 25:0 26:0 27:0 28:0 29:0 30:0 31:0 32:0 33:0 34:0 35:0 36:0 37:0 38:0 39:0 40:0 41:0 42:0 43:0 44:0 45:0 46:0 47:0 48:0 49:0 50:0 51:0 52:0 53:0 54:0 55:0 56:0 57:0 58:0 59:0 60:0 61:0 62:0 63:0 64:0 65:0 66:0 67:0 68:0 69:0 70:0 71:0 72:0 73:0 74:0 75:0 76:0 77:0 78:0 79:0 80:0 81:0 82:0 83:0 84:0 85:0 86:0 87:0 88:0 89:0 90:0 91:0 92:0 93:0 94:0 95:0 96:0 97:0 98:0 99:0 100:0 101:0 102:0 103:0 104:0 105:0 106:0 107:0 108:0 109:0 110:0 111:0 112:0 113:0 114:0 115:0 116:0 117:0 118:0 119:0 120:0 
0.9907885464620305 1 1 1 1 1:3.0370001e+09 2:0 3:0 4:0 5:0 6:0 7:0 8:0 9:0 10:0 11:0 12:0 13:0 14:0 15:0 16:0 17:0 18:0 19:0 20:0 21:0 22:0 23:0 24:0 25:0 26:0 27:0 28:0 29:0 30:0 31:0 32:0 33:0 34:0 35:0 36:0 37:0 38:0 39:0 40:0 41:0 42:0 43:0 44:0 45:0 46:0 47:0 48:0 49:0 50:0 51:0 52:0 53:0 54:0 55:0 56:0 57:0 58:0 59:0 60:0 61:0 62:0 63:0 64:0 65:0 66:0 67:0 68:0 69:0 70:0 71:0 72:0 73:0 74:0 75:0 76:0 77:0 78:0 79:0 80:0 81:0 82:0 83:0 84:0 85:0 86:0 87:0 88:0 89:0 90:0 91:0 92:0 93:0 94:0 95:0 96:0 97:0 98:0 99:0 100:0 101:0 102:0 103:0 104:0 105:0 106:0 107:0 108:0 109:0 110:0 111:0 112:0 113:0 114:0 115:0 116:0 117:0 118:0 119:0 120:0 
1 1 1 1 1 1:37 2:35.341194 3:33.54102 4:33.12099 5:31.38471 6:30.016662 7:29.681644 8:26.925824 9:26.627054 10:27.202941 11:27.018512 12:30.413813 13:30.479501 14:32.015621 15:32.202484 16:33.015148 17:33.286634 18:30.463092 19:32.280025 20:33.24154 21:34.71311 22:34.058773 23:33.136083 24:37.589892 25:37.215588 26:38.275318 27:38.013156 28:37.20215 29:36.796739 30:34.655447 31:34.71311 32:33.42155 33:33.600595 34:33.015148 35:33.286634 36:32.756679 37:34.014703 38:33.615473 39:34.176015 40:32.984845 41:31.780497 42:31.400637 43:30.265492 44:30 45:31.016125 46:36.891733 47:36.619667 48:40.360872 49:40.311289 50:41.012193 51:41.10961 52:41.868843 53:40.607881 54:40.804412 55:38.587563 56:36.891733 57:35.510562 58:34.669872 59:31.906112 60:30.413813 61:31.38471 62:34.176015 63:35.44009 64:36.400549 65:37.854986 66:37.336309 67:38.209946 68:37.121422 69:37.054015 70:36.124784 71:36.345564 72:35.22783 73:33.24154 74:32.140317 75:31.144823 76:30.265492 77:29.274562 78:28.442925 79:28.635642 80:27.892651 81:28.79236 82:31.38471 83:32.202484 84:33.54102 85:33.12099 86:34.481879 87:34.132096 88:31.622777 89:31.400637 90:29.832868 91:29.732137 92:29 93:29 94:28.319605 95:28.425341 96:27.802878 97:28.017851 98:27.45906 99:27.784888 100:28.653098 101:32.756679 102:33.286634 103:33.615473 104:34.481879 105:35.846897 106:35.355339 107:37.336309 108:36.687873 109:37.363083 110:36.878178 111:38.470768 112:38.118237 113:39.051248 114:39.204592 115:38.327536 116:38.639358 117:37.854986 118:38.078866 119:36.687873 120:0 
1 0.2863697235781314 0.6086316921374915 0.3508923717402673 0.4378667960528275 1:36.619667 2:38.418745 3:38.288379 4:39.623226 5:38.897301 6:38.948684 7:39.698866 8:39.824616 9:40.607881 10:40.804412 11:41.617304 12:41.048752 13:41.340053 14:40.311289 15:40.706265 16:40.249224 17:41.231056 18:38.832976 19:37.656341 20:37.215588 21:36.124784 22:36.013886 23:35.057096 24:37 25:36.400549 26:38.013156 27:37.589892 28:38.078866 29:36.878178 30:31.240999 31:31.622777 32:32.449961 33:33.12099 34:34 35:34.928498 36:33.24154 37:33.955854 38:33.734256 39:36.221541 40:36.124784 41:37.054015 42:37.054015 43:36.124784 44:36.674242 45:37.854986 46:38.327536 47:39.560081 48:42.047592 49:41.593269 50:43.046487 51:42.011903 52:42.638011 53:41.10961 54:41.036569 55:39.59798 56:39.623226 57:36.400549 58:36.619667 59:34.985711 60:35.355339 61:33.24154 62:34.481879 63:34.205263 64:34.928498 65:34.058773 66:33.136083 67:33.54102 68:34.71311 69:37.161808 70:36.674242 71:39.115214 72:38.832976 73:42.520583 74:42.426407 75:35.510562 76:35.846897 77:34.885527 78:35.341194 79:34.928498 80:36.055513 81:35.735137 82:36.400549 83:35.902646 84:36.674242 85:36.221541 86:37.121422 87:37.013511 88:36 89:36.055513 90:35.128336 91:35.355339 92:33.734256 93:35.468296 94:34.928498 95:36.235342 96:35.846897 97:36.891733 98:0 99:0 100:0 101:0 102:0 103:0 104:0 105:0 106:0 107:0 108:0 109:0 110:0 111:0 112:0 113:0 114:0 115:0 116:0 117:0 118:0 119:0 120:0 
0.1958410720894125 0.06660422007662326 0.3664198640145071 0.2719476673311255 0.128201546741861 1:33.615473 2:34.014703 3:35.341194 4:37.735925 5:37.44329 6:39.824616 7:39.623226 8:37.48333 9:37.536649 10:34.409301 11:34.669872 12:33.12099 13:33.54102 14:32.695565 15:33.24154 16:31.064449 17:32.140317 18:34.928498 19:36.249138 20:37.121422 21:36.71512 22:37.735925 23:37.44329 24:38.600518 25:38.288379 26:38.948684 27:38.897301 28:39.623226 29:34.132096 30:32.756679 31:31.76476 32:32.695565 33:32.310989 34:32.893768 35:32.280025 36:32.984845 37:32.015621 38:31.064449 39:31.256999 40:30.413813 41:30.594117 42:29.832868 43:30.675723 44:30.083218 45:32.756679 46:32.449961 47:34.82815 48:34.71311 49:36.769553 50:36.069378 51:36.235342 52:35.608988 53:36.359318 54:37.215588 55:38.013156 56:34.71311 57:33.54102 58:33.060551 59:32.015621 60:33.526109 61:32.893768 62:33.615473 63:33.105891 64:34 65:33.615473 66:35.22783 67:35 68:35.608988 69:35.383612 70:34.655447 71:34.655447 72:33.970576 73:34.058773 74:31.622777 75:32.649655 76:32.202484 77:33.837849 78:33.24154 79:33.955854 80:33.54102 81:34.365681 82:34.058773 83:30.594117 84:32.310989 85:0 86:0 87:0 88:0 89:0 90:0 91:0 92:0 93:0 94:0 95:0 96:0 97:0 98:0 99:0 100:0 101:0 102:0 103:0 104:0 105:0 106:0 107:0 108:0 109:0 110:0 111:0 112:0 113:0 114:0 115:0 116:0 117:0 118:0 119:0 120:0 
0.2999587967988724 0 0 0 0 1:38.183766 2:37.48333 3:37.536649 4:36.878178 5:37.013511 6:35.805028 7:36.055513 8:34.985711 9:35.355339 10:34.885527 11:33.54102 12:33.105891 13:33.615473 14:32.280025 15:32.984845 16:32.140317 17:31.064449 18:31.064449 19:32.140317 20:32.557641 21:33.734256 22:34.205263 23:35.44009 24:35.735137 25:37 26:38.483763 27:38.013156 28:38.948684 29:38.013156 30:38.600518 31:38.418745 32:39.051248 33:38.948684 34:40.311289 35:40.311289 36:33.615473 37:34 38:33.54102 39:34.014703 40:33.24154 41:33.837849 42:33.24154 43:33.955854 44:33.015148 45:32 46:32.756679 47:32.015621 48:32.893768 49:31.304952 50:31.76476 51:31.38471 52:33.015148 53:32.802439 54:36.069378 55:36.069378 56:37.536649 57:37.64306 58:38.418745 59:38.600518 60:39.408121 61:41.146081 62:39.217343 63:36.687873 64:36.138622 65:34.928498 66:34.525353 67:33.376639 68:33.54102 69:32.756679 70:32.984845 71:32.280025 72:33.24154 73:32.695565 74:35.510562 75:35.22783 76:36.400549 77:36.235342 78:35.468296 79:35.355339 80:30.805844 81:31.76476 82:32.649655 83:33.105891 84:34.014703 85:34.539832 86:33.837849 87:34.481879 88:33.955854 89:34.71311 90:35.171011 91:34.481879 92:38.078866 93:37.735925 94:38.275318 95:38.013156 96:38.600518 97:0 98:0 99:0 100:0 101:0 102:0 103:0 104:0 105:0 106:0 107:0 108:0 109:0 110:0 111:0 112:0 113:0 114:0 115:0 116:0 117:0 118:0 119:0 120:0 
-0 0.5325993751958158 0.6785919343584498 0.6419707696762292 0.7012083299103558 1:34.655447 2:27.313001 3:27.856777 4:26.476405 5:25.317978 6:25.019992 7:24.083189 8:24.515301 9:22.472205 10:22.847319 11:22.36068 12:26.907248 13:26.870058 14:28.319605 15:28.425341 16:29.206164 17:29.410882 18:30.232433 19:31.622777 20:47.539457 21:48.846699 22:58.189346 23:59.464275 24:69.921384 25:70.604532 26:71.568149 27:73.006849 28:73.979727 29:74.732858 30:76.687678 31:77.466122 32:76.941536 33:77.781746 34:76.655072 35:76.321688 36:74.330344 37:73.24616 38:65.276336 39:64.381674 40:57.428216 41:56.320511 42:53.338541 43:52.239832 44:50.249378 45:49.162994 46:47.169906 47:46.097722 48:41.048752 49:38.052595 50:37.121422 51:31.144823 52:30.066593 53:30.016662 54:27.073973 55:26.07681 56:25.179357 57:25.317978 58:24.515301 59:25 60:24.351591 61:25.495098 62:25.059928 63:25.553865 64:25.238859 65:22.022716 66:21.931712 67:22.671568 68:22.803509 69:23.600847 70:24.186773 71:25.942244 72:26.400758 73:27.313001 74:27.856777 75:29.732137 76:30.364453 77:29.274562 78:30.413813 79:31.32092 80:32.572995 81:33.24154 82:34.539832 83:37.735925 84:37.44329 85:38.013156 86:37.802116 87:38.418745 88:38.183766 89:38.897301 90:39.051248 91:39.824616 92:40 93:41.617304 94:41.880783 95:50.537115 96:50.990195 97:51.894123 98:52.392748 99:50.596443 100:49.335586 101:49.040799 102:47.801674 103:48.507731 104:47 105:44.102154 106:44.28318 107:43.416587 108:43.737855 109:42.201896 110:41.231056 111:40.521599 112:39.560081 113:38.897301 114:37.947332 115:36.249138 116:35.341194 117:33.600595 118:34.205263 119:33.970576 120:34.655447 
-0.8830620866694155 0.4640814350842997 1 0.8303299849720477 1 1:29.614186 2:33.12099 3:32.756679 4:33.286634 5:32.802439 6:36.069378 7:40.311289 8:41.012193 9:42.426407 10:48.414874 11:50.119856 12:49.193496 13:49.658836 14:48.466483 15:50.960769 16:49.162994 17:46.010868 18:46 19:45 20:42.107007 21:42.190046 22:40.447497 23:40.607881 24:38.327536 25:37.363083 26:36.055513 27:36.400549 28:35.846897 29:36.249138 30:35.777088 31:36.235342 32:34.82815 33:34.058773 34:33.970576 35:33.24154 36:33.42155 37:28.635642 38:27.313001 39:26.925824 40:27.513633 41:26.683328 42:29.154759 43:29.017236 44:28.071338 45:28.160256 46:27.294688 47:27.658633 48:26.925824 49:27.513633 50:26.925824 51:27.313001 52:26.400758 53:25.553865 54:26.07681 55:25.612497 56:27.586228 57:27.586228 58:31.400637 59:31.622777 60:42.953463 61:44.28318 62:58.189346 63:59.464275 64:65.14599 65:65.802736 66:68.680419 67:69.375788 68:71.309186 69:72.780492 70:73.756356 71:74.525164 72:76.485293 73:77.278716 74:76.419893 75:75.325958 76:73.334848 77:72.249567 78:61.294372 79:60.207973 80:47.265209 81:46.173586 82:41.19466 83:40.112342 84:37.121422 85:36.221541 86:35.22783 87:34.365681 88:32.388269 89:26.019224 90:26.172505 91:25.317978 92:25.96151 93:23.021729 94:23.600847 95:23.430749 96:24.758837 97:24.758837 98:24.083189 99:24.413111 100:23.853721 101:25.079872 102:26 103:26.570661 104:27.513633 105:0 106:0 107:0 108:0 109:0 110:0 111:0 112:0 113:0 114:0 115:0 116:0 117:0 118:0 119:0 120:0 
-1 1 1 1 1 1:2.8284271 2:2.236068 3:2.236068 4:3.6055513 5:3.1622777 6:2.8284271 7:3.6055513 8:2.236068 9:3 10:3.1622777 11:0 12:0 13:0 14:0 15:0 16:0 17:0 18:0 19:0 20:0 21:0 22:0 23:0 24:0 25:0 26:0 27:0 28:0 29:0 30:0 31:0 32:0 33:0 34:0 35:0 36:0 37:0 38:0 39:0 40:0 41:0 42:0 43:0 44:0 45:0 46:0 47:0 48:0 49:0 50:0 51:0 52:0 53:0 54:0 55:0 56:0 57:0 58:0 59:0 60:0 61:0 62:0 63:0 64:0 65:0 66:0 67:0 68:0 69:0 70:0 71:0 72:0 73:0 74:0 75:0 76:0 77:0 78:0 79:0 80:0 81:0 82:0 83:0 84:0 85:0 86:0 87:0 88:0 89:0 90:0 91:0 92:0 93:0 94:0 95:0 96:0 97:0 98:0 99:0 100:0 101:0 102:0 103:0 104:0 105:0 106:0 107:0 108:0 109:0 110:0 111:0 112:0 113:0 114:0 115:0 116:0 117:0 118:0 119:0 120:0 
-0.1693144734384784 0 0.1345942741371275 0.2699273969378689 0.01287633125326549 1:32.202484 2:26.683328 3:26.305893 4:27.166155 5:27.073973 6:25 7:25.019992 8:24.083189 9:24.186773 10:23.345235 11:23.769729 12:22.472205 13:24.186773 14:23.853721 15:24.413111 16:24.207437 17:25.495098 18:25.455844 19:26.907248 20:28.319605 21:29.068884 22:33.837849 23:38.078866 24:39.446166 25:44.294469 26:71.168813 27:71.8401 28:75.690158 29:76.400262 30:77.369245 31:78.102497 32:76.791927 33:75.66373 34:74.672619 35:73.552702 36:70.45566 37:61.522354 38:60.406953 39:56.435804 40:40.447497 41:39.623226 42:35.693137 43:34.525353 44:33.54102 45:32.388269 46:31.400637 47:29.154759 48:27.073973 49:26.07681 50:22.090722 51:22.203603 52:23.537205 53:24.738634 54:25.632011 55:25.079872 56:25.495098 57:24.413111 58:20.518285 59:19.104973 60:18.384776 61:16.970563 62:15.620499 63:8.6023253 64:7.6157731 65:8.2462113 66:13 67:13.928388 68:16.552945 69:18.788294 70:28.160256 71:28.861739 72:28.442925 73:29.274562 74:29.068884 75:30.016662 76:30.016662 77:31.064449 78:31.256999 79:32.388269 80:33.837849 81:33.24154 82:37.44329 83:40.360872 84:43.185646 85:45.254834 86:45.276926 87:43.27817 88:42.801869 89:43.266615 90:44.102154 91:46.141088 92:47.413078 93:48.332184 94:49.244289 95:49.769469 96:50.695167 97:51.264022 98:50.921508 99:51.546096 100:49.497475 101:48.373546 102:46.389654 103:43.104524 104:43.046487 105:42.011903 106:42.107007 107:41.19466 108:41.593269 109:38.600518 110:38.897301 111:38.275318 112:38.626416 113:37.696154 114:36.235342 115:35.608988 116:34.82815 117:34.71311 118:32.526912 119:32.557641 120:31.890437 
-1 0.3775166312416395 0.7595608465496828 0.3543183671108366 0.2222682622024049 1:25.079872 2:24.596748 3:25.059928 4:24.698178 5:25.238859 6:24.839485 7:23.345235 8:23.345235 9:22.671568 10:23.706539 11:24.596748 12:25.079872 13:26 14:26.570661 15:26.248809 16:27.658633 17:27.45906 18:29.154759 19:29.017236 20:30.066593 21:30.149627 22:29.274562 23:34.132096 24:33.837849 25:35 26:34.82815 27:36.796739 28:36.769553 29:39.698866 30:39.824616 31:40.607881 32:40.804412 33:44.102154 34:44.418465 35:47.010637 36:49.396356 37:49.040799 38:49.648766 39:48.270074 40:49.030603 41:48.373546 42:47.265209 43:47.042534 44:46.097722 45:46.270941 46:45.398238 47:44.407207 48:43.566042 49:42.579338 50:41.773197 51:40.792156 52:39.293765 53:38.327536 54:37 55:37.336309 56:36.769553 57:37.576588 58:35.608988 59:34.82815 60:34.71311 61:33.24154 62:33.24154 63:30 64:30.232433 65:25.019992 66:24 67:24.083189 68:20.880613 69:18.973666 70:18.384776 71:17.464249 72:17 73:19.723083 74:20.59126 75:21.954498 76:23.021729 77:24.413111 78:26.248809 79:27.658633 80:31.890437 81:32.015621 82:46.518813 83:47.010637 84:68.680419 85:69.375788 86:74.215901 87:76.485293 88:75.66373 89:73.437048 90:64.498062 91:63.387696 92:60.406953 93:59.3043 94:38.470768 95:37.336309 96:33.376639 97:32.249031 98:31.256999 99:30.149627 100:30.066593 101:28 102:28.017851 103:24.515301 104:25 105:24.351591 106:0 107:0 108:0 109:0 110:0 111:0 112:0 113:0 114:0 115:0 116:0 117:0 118:0 119:0 120:0 
-0.2418775510933776 0 0.6354342056704353 0.3580292303237707 0 1:25.942244 2:24.698178 3:25.298221 4:24.738634 5:25.495098 6:25.019992 7:23.021729 8:23.086793 9:21.377558 10:22.847319 11:21.954498 12:22.472205 13:21.931712 14:23.345235 15:27.586228 16:33.015148 17:33.286634 18:41.146081 19:41.629317 20:43.462628 21:44.777226 22:45.694639 23:47.010637 24:47.927028 25:49.244289 26:51.078371 27:52.392748 28:55.154329 29:55.713553 30:56.648036 31:57.245087 32:61.032778 33:62.297673 34:68.007353 35:68.680419 36:71.568149 37:72.277244 38:75.186435 39:76.687678 40:75.802375 41:73.552702 42:60.530984 43:59.413803 44:53.460266 45:52.345009 46:47.265209 47:45.276926 48:44.181444 49:34.234486 50:33.376639 51:28.442925 52:27.294688 53:27.166155 54:26.07681 55:26.019224 56:25 57:25.019992 58:24.083189 59:24.515301 60:25.70992 61:26.925824 62:25.942244 63:25.059928 64:24.698178 65:23.021729 66:22.803509 67:22.022716 68:22.022716 69:24.698178 70:27.294688 71:28.231188 72:27.513633 73:27.892651 74:28.635642 75:28.442925 76:29.274562 77:29.154759 78:30.066593 79:30.066593 80:31.144823 81:37.20215 82:37.013511 83:38.288379 84:39.59798 85:39.623226 86:41.10961 87:41.617304 88:42.43819 89:43.046487 90:43.908997 91:44.294469 92:45.177428 93:46.615448 94:45.880279 95:46.486557 96:45.880279 97:46.572524 98:45.276926 99:47.095647 100:47.095647 101:46.173586 102:44.181444 103:43.289722 104:40.311289 105:38.639358 106:38.832976 107:38.078866 108:38.600518 109:37.64306 110:35.846897 111:34.928498 112:33.615473 113:34.669872 114:33.837849 115:33.301652 116:32.557641 117:32.526912 118:29.206164 119:27.802878 120:25.553865 
-0.1060679627187682 0.1632153506676621 0.8261630477284383 0.4419495670992131 0.04323074540594753 1:29 2:28.017851 3:26.019224 4:23.345235 5:23.769729 6:19.313208 7:18.35756 8:19.723083 9:21.400935 10:22.803509 11:24.207437 12:25.806976 13:26.925824 14:26.41969 15:29.732137 16:29.410882 17:30.083218 18:29.614186 19:30.413813 20:31.144823 21:32.572995 22:31.953091 23:32.695565 24:38.013156 25:39.446166 26:39.115214 27:40 28:40.607881 29:40.360872 30:41.036569 31:41.012193 32:42.449971 33:46.52956 34:47.413078 35:47.853944 36:47.423623 37:48.466483 38:48.104054 39:48.703183 40:48.383882 41:49.040799 42:48.764741 43:50.990195 44:49.819675 45:50.635956 46:49.497475 47:49.254441 48:47.095647 49:46.043458 50:42.426407 51:41.436699 52:39.812058 53:40.261644 54:39.560081 55:40.496913 56:38.910153 57:38.013156 58:37.589892 59:36.71512 60:36.055513 61:35.22783 62:34.71311 63:32.526912 64:32.557641 65:30 66:30.232433 67:29.681644 68:30.016662 69:29.068884 70:29.546573 71:26.925824 72:25.079872 73:25.019992 74:24.083189 75:24.186773 76:21.84033 77:20.880613 78:19.235384 79:19.723083 80:21.095023 81:21.633308 82:23.021729 83:28.319605 84:29.732137 85:40.311289 86:40.706265 87:44.28318 88:44.777226 89:47.539457 90:49.769469 91:51.078371 92:67.052218 93:67.720012 94:78.339007 95:79.075913 96:80.049984 97:80.808415 98:79.630396 99:78.517514 100:77.52419 101:76.419893 102:74.431176 103:65.490457 104:61.522354 105:60.406953 106:57.31492 107:54.230987 108:48.259714 109:47.169906 110:40.199502 111:39.319207 112:37.336309 113:36.496575 114:34.525353 115:33.734256 116:32.557641 117:31.575307 118:30.413813 119:30.149627 120:29.068884 
-0.432782744154694 1 1 1 1 1:25.079872 2:20.099751 3:19.235384 4:19.646883 5:22.135944 6:23.259407 7:22.022716 8:20.518285 9:20.518285 10:19.849433 11:20.248457 12:21.633308 13:25.942244 14:26.925824 15:27.856777 16:28.460499 17:29.410882 18:30.083218 19:29.274562 20:30.149627 21:31.953091 22:33.24154 23:33.615473 24:34.928498 25:37.735925 26:37.44329 27:38.013156 28:37.802116 29:38.418745 30:38.288379 31:38.948684 32:38.897301 33:39.59798 34:39.698866 35:40.459857 36:40.607881 37:41.400483 38:41.880783 39:45.276926 40:45.650849 41:48.301139 42:47.853944 43:48.332184 44:47.927028 45:49.040799 46:48.703183 47:49.335586 48:49.040799 49:49.729267 50:49.477268 51:52.611786 52:52.469038 53:53.338541 54:52.239832 55:52.153619 56:48.166378 57:45.01111 58:45 59:43.046487 60:43.104524 61:42.190046 62:42.426407 63:43.566042 64:43.737855 65:44.911023 66:44.14748 67:45.354162 68:43.965896 69:42.720019 70:42.059482 71:40.804412 72:39.849718 73:39.217343 74:38.275318 75:36.674242 76:37.121422 77:36.235342 78:34.655447 79:31.400637 80:31.622777 81:26.07681 82:24.33105 83:24.738634 84:23.4094 85:22.472205 86:21.931712 87:22.36068 88:21.633308 89:23.430749 90:23.345235 91:24.041631 92:25.455844 93:28.425341 94:31.240999 95:44.72136 96:45.188494 97:49.769469 98:50.328918 99:56.920998 100:57.567352 101:72.034714 102:72.780492 103:77.665951 104:79.246451 105:78.638413 106:76.419893 107:76.321688 108:75.325958 109:74.242845 110:73.24616 111:72.173402 112:64.195015 113:63.285069 114:59.3043 115:58.215118 116:54.230987 117:53.150729 118:33.24154 119:28.017851 120:26.019224 
-0.6060108455847446 0.6117216761939102 1 1 0.7568887629653105 1:25.96151 2:23.086793 3:26.925824 4:27.658633 5:28.635642 6:32.062439 7:34.058773 8:35.22783 9:40.447497 10:56.435804 11:62.39391 12:63.505905 13:64.498062 14:66.490601 15:62.936476 16:32.202484 17:24.041631 18:23.345235 19:18.027756 20:18.681542 21:18.027756 22:23.769729 23:24.041631 24:26 25:28.635642 26:30.88689 27:37.48333 28:38.209946 29:40.804412 30:44.777226 31:45.177428 32:47.010637 33:47.169906 34:46.840154 35:47.801674 36:49.477268 37:50.990195 38:51.971146 39:53.600373 40:54.332311 41:54.083269 42:55.036352 43:56.462377 44:55.542776 45:54.120237 46:52.839379 47:51.623638 48:49.091751 49:46.861498 50:34 51:31.780497 52:27.073973 53:22.090722 54:16.03122 55:14.317821 56:13 57:11.401754 58:10.77033 59:19.646883 60:19.924859 61:21.18962 62:20.880613 63:19.646883 64:19.416488 65:11.661904 66:12.041595 67:13 68:13.928388 69:14.56022 70:16.278821 71:15.132746 72:16.03122 73:17.029386 74:28.071338 75:29.274562 76:34.481879 77:47.634021 78:47.801674 79:48.600412 80:48.826222 81:51.971146 82:56.462377 83:58.5235 84:56.089215 85:56.008928 86:54.332311 87:53.75872 88:51.971146 89:50.447993 90:48.507731 91:46.486557 92:46.615448 93:47.927028 94:44.777226 95:42.720019 96:39.824616 97:38.288379 98:38.183766 99:30.88689 100:25.632011 101:24.041631 102:23.769729 103:22.561028 104:22.203603 105:20.024984 106:20 107:18.11077 108:18.973666 109:18.788294 110:21.260292 111:32.015621 112:32.202484 113:48.846699 114:63.890531 115:66.70832 116:63.387696 117:56.435804 118:40.447497 119:39.319207 120:34.014703 
-1 1 1 1 0 1:1 2:2.236068 3:4.1231056 4:4 5:3.1622777 6:3.6055513 7:2.236068 8:1.4142136 9:2 10:3.1622777 11:2 12:3.6055513 13:4.1231056 14:3 15:4.1231056 16:3.6055513 17:5 18:3.6055513 19:4.1231056 20:3 21:3.1622777 22:2.8284271 23:2.236068 24:0 25:0 26:0 27:0 28:0 29:0 30:0 31:0 32:0 33:0 34:0 35:0 36:0 37:0 38:0 39:0 40:0 41:0 42:0 43:0 44:0 45:0 46:0 47:0 48:0 49:0 50:0 51:0 52:0 53:0 54:0 55:0 56:0 57:0 58:0 59:0 60:0 61:0 62:0 63:0 64:0 65:0 66:0 67:0 68:0 69:0 70:0 71:0 72:0 73:0 74:0 75:0 76:0 77:0 78:0 79:0 80:0 81:0 82:0 83:0 84:0 85:0 86:0 87:0 88:0 89:0 90:0 91:0 92:0 93:0 94:0 95:0 96:0 97:0 98:0 99:0 100:0 101:0 102:0 103:0 104:0 105:0 106:0 107:0 108:0 109:0 110:0 111:0 112:0 113:0 114:0 115:0 116:0 117:0 118:0 119:0 120:0 
-0.1129295040430666 0.6887142086207497 0.8630225903063059 0.6626020470437446 0.7751458142457989 1:34.71311 2:31.064449 3:32.202484 4:33.105891 5:33.615473 6:31.144823 7:29.154759 8:29.614186 9:28.861739 10:29.732137 11:29.681644 12:29.410882 13:31.240999 14:31.827661 15:31.827661 16:38.418745 17:41.868843 18:42.520583 19:46.754679 20:49.819675 21:50 22:53.823787 23:58.600341 24:62.681736 25:62.968246 26:68.600292 27:68.963759 28:69.835521 29:70.235319 30:72.006944 31:74.323617 32:75.239617 33:75.769387 34:75.392307 35:76.550637 36:75.894664 37:73.756356 38:73.348483 39:72.18033 40:71.84706 41:70.710678 42:70.5762 43:69.46222 44:69.260378 45:66.121101 46:65.069194 47:65.030762 48:63 49:63.007936 50:62.03225 51:58.077534 52:57.140179 53:55.145263 54:53.338541 55:48.373546 56:47.518417 57:46.52956 58:44.911023 59:38.483763 60:35.777088 61:32.756679 62:32.449961 63:31.400637 64:31.890437 65:33.24154 66:33.970576 67:32.802439 68:33.015148 69:31.38471 70:31.76476 71:30.463092 72:31.016125 73:30.675723 74:34.234486 75:33.136083 76:31.144823 77:29.546573 78:31.400637 79:32.802439 80:35.383612 81:35.355339 82:37.536649 83:40.804412 84:42.201896 85:49.396356 86:54.708317 87:64.845971 88:68.88396 89:76.059187 90:76.557168 91:86.729464 92:97.416631 93:97.800818 94:96.881371 95:95.707889 96:93.744333 97:92.574294 98:91.591484 99:90.426766 100:88.283634 101:79.429214 102:74.732858 103:73.545904 104:71.386273 105:67.26812 106:62.369865 107:61.188234 108:53.366656 109:49.040799 110:36.055513 111:36.138622 112:36.687873 113:36.055513 114:36.400549 115:34.885527 116:34 117:33.615473 118:34.409301 119:34.205263 120:36.124784 
-0 1 1 1 1 1:1 2:2.236068 3:3.1622777 4:2 5:3.1622777 6:2.236068 7:0 8:0 9:0 10:0 11:0 12:0 13:0 14:0 15:0 16:0 17:0 18:0 19:0 20:0 21:0 22:0 23:0 24:0 25:0 26:0 27:0 28:0 29:0 30:0 31:0 32:0 33:0 34:0 35:0 36:0 37:0 38:0 39:0 40:0 41:0 42:0 43:0 44:0 45:0 46:0 47:0 48:0 49:0 50:0 51:0 52:0 53:0 54:0 55:0 56:0 57:0 58:0 59:0 60:0 61:0 62:0 63:0 64:0 65:0 66:0 67:0 68:0 69:0 70:0 71:0 72:0 73:0 74:0 75:0 76:0 77:0 78:0 79:0 80:0 81:0 82:0 83:0 84:0 85:0 86:0 87:0 88:0 89:0 90:0 91:0 92:0 93:0 94:0 95:0 96:0 97:0 98:0 99:0 100:0 101:0 102:0 103:0 104:0 105:0 106:0 107:0 108:0 109:0 110:0 111:0 112:0 113:0 114:0 115:0 116:0 117:0 118:0 119:0 120:0 
-1 1 1 1 1 1:2 2:3.1622777 3:2 4:2.236068 5:3 6:2.236068 7:1.4142136 8:3.1622777 9:3 10:2.236068 11:3.1622777 12:3.1622777 13:2.8284271 14:0 15:0 16:0 17:0 18:0 19:0 20:0 21:0 22:0 23:0 24:0 25:0 26:0 27:0 28:0 29:0 30:0 31:0 32:0 33:0 34:0 35:0 36:0 37:0 38:0 39:0 40:0 41:0 42:0 43:0 44:0 45:0 46:0 47:0 48:0 49:0 50:0 51:0 52:0 53:0 54:0 55:0 56:0 57:0 58:0 59:0 60:0 61:0 62:0 63:0 64:0 65:0 66:0 67:0 68:0 69:0 70:0 71:0 72:0 73:0 74:0 75:0 76:0 77:0 78:0 79:0 80:0 81:0 82:0 83:0 84:0 85:0 86:0 87:0 88:0 89:0 90:0 91:0 92:0 93:0 94:0 95:0 96:0 97:0 98:0 99:0 100:0 101:0 102:0 103:0 104:0 105:0 106:0 107:0 108:0 109:0 110:0 111:0 112:0 113:0 114:0 115:0 116:0 117:0 118:0 119:0 120:0 
-0.1801307023609231 1 1 1 0.7891782868359722 1:2.8284271 2:2.8284271 3:2.8284271 4:3.6055513 5:3.1622777 6:0 7:0 8:0 9:0 10:0 11:0 12:0 13:0 14:0 15:0 16:0 17:0 18:0 19:0 20:0 21:0 22:0 23:0 24:0 25:0 26:0 27:0 28:0 29:0 30:0 31:0 32:0 33:0 34:0 35:0 36:0 37:0 38:0 39:0 40:0 41:0 42:0 43:0 44:0 45:0 46:0 47:0 48:0 49:0 50:0 51:0 52:0 53:0 54:0 55:0 56:0 57:0 58:0 59:0 60:0 61:0 62:0 63:0 64:0 65:0 66:0 67:0 68:0 69:0 70:0 71:0 72:0 73:0 74:0 75:0 76:0 77:0 78:0 79:0 80:0 81:0 82:0 83:0 84:0 85:0 86:0 87:0 88:0 89:0 90:0 91:0 92:0 93:0 94:0 95:0 96:0 97:0 98:0 99:0 100:0 101:0 102:0 103:0 104:0 105:0 106:0 107:0 108:0 109:0 110:0 111:0 112:0 113:0 114:0 115:0 116:0 117:0 118:0 119:0 120:0 
-0.7331098629063406 0.4806026406636325 0.8951105350551415 1 0.5215668616702449 1:67.475922 2:68.468971 3:70.256672 4:70.007142 5:69 6:69.007246 7:68.029405 8:62.03225 9:61.073726 10:47.095647 11:46.043458 12:42.047592 13:41.10961 14:30.149627 15:26.925824 16:27.513633 17:26.925824 18:27.730849 19:26.925824 20:26.07681 21:25.806976 22:22.671568 23:23.021729 24:23.853721 25:24.186773 26:23.259407 27:23.769729 28:22.090722 29:21.023796 30:29 31:28.284271 32:28.425341 33:27.802878 34:28.301943 35:27.784888 36:28.178006 37:27.730849 38:30.083218 39:31.048349 40:33.526109 41:31.780497 42:33.615473 43:34.481879 44:35.846897 45:36.71512 46:38.078866 47:46.097722 48:46.615448 49:47.539457 50:48.703183 51:49.648766 52:52.392748 53:53.366656 54:54.918121 55:54.451814 56:55.326305 57:55.145263 58:54.083269 59:54.009258 60:53 61:53.009433 62:50.159745 63:50.249378 64:47.67599 65:45.70558 66:44.911023 67:41 68:40.261644 69:38.327536 70:37.64306 71:30.083218 72:28.653098 73:27.784888 74:27.45906 75:28.017851 76:27.802878 77:28.425341 78:28.319605 79:29 80:28.284271 81:28.600699 82:28.017851 83:28.653098 84:25.96151 85:26.683328 86:26.07681 87:24.33105 88:24.515301 89:22.472205 90:21.540659 91:20 92:20.808652 93:21.095023 94:21.954498 95:23.323808 96:24.186773 97:26.925824 98:32.202484 99:32.695565 100:38.275318 101:38.897301 102:43.680659 103:44.384682 104:61.983869 105:62.801274 106:64.776539 107:65.620119 108:66.61081 109:0 110:0 111:0 112:0 113:0 114:0 115:0 116:0 117:0 118:0 119:0 120:0 
-0.03189494240779647 0.2865998595971494 0.1646558474222168 0.06899663665425441 0 1:21.095023 2:21.84033 3:21.18962 4:21.931712 5:21.470911 6:22.472205 7:22.203603 8:22.803509 9:22.671568 10:31.906112 11:34.669872 12:35.22783 13:38.013156 14:38.832976 15:40.224371 16:43.566042 17:43.908997 18:45.650849 19:46.065171 20:46.957428 21:47.927028 22:48.846699 23:49.396356 24:50.328918 25:50.921508 26:52.810984 27:53.450912 28:54.405882 29:55.081757 30:54.571055 31:55.317267 32:54.744863 33:53.600373 34:53.338541 35:52.239832 36:52.086467 37:51.039201 38:51.009803 39:50 40:50.009999 41:49.040799 42:49.091751 43:46.389654 44:45.398238 45:43.737855 46:42.755117 47:41.231056 48:26.925824 49:25.942244 50:26.41969 51:26.07681 52:26.627054 53:26.400758 54:27.018512 55:26.907248 56:27.586228 57:27.658633 58:28.425341 59:28.600699 60:29.410882 61:29.681644 62:28.653098 63:29.068884 64:26.476405 65:27.294688 66:27.018512 67:26.07681 68:26.305893 69:25.495098 70:25.70992 71:24.738634 72:24.041631 73:23.086793 74:22.472205 75:21.540659 76:20 77:20.615528 78:20.518285 79:22.671568 80:22.803509 81:34.014703 82:34.539832 83:35.468296 84:36.055513 85:41.761226 86:44.384682 87:45.122057 88:48.052055 89:48.836462 90:63.63961 91:66.483081 92:69.180922 93:70.178344 94:70.114193 95:71.063352 96:71.007042 97:69.065187 98:60.074953 99:59.135438 100:56.142675 101:55.226805 102:48.259714 103:47.169906 104:43.185646 105:42.107007 106:39.115214 107:38.052595 108:37.054015 109:36.013886 110:34.014703 111:32.140317 112:32.249031 113:31.400637 114:30.413813 115:25 116:24.083189 117:23.345235 118:23.430749 119:22.803509 120:23.323808 
-1 1 1 1 0.8436527602669062 1:28.017851 2:26.019224 3:25.019992 4:23.194827 5:19.235384 6:18.439089 7:10.77033 8:10.29563 9:7.8102497 10:6.4031242 11:4.472136 12:3.1622777 13:7.6157731 14:8.2462113 15:11.18034 16:12.041595 17:16.03122 18:21.377558 19:21.587033 20:22.803509 21:23.769729 22:22.803509 23:21.587033 24:21.213203 25:17.029386 26:12.041595 27:11.18034 28:8.2462113 29:7.6157731 30:3 31:4.1231056 32:6.4031242 33:7.8102497 34:10.29563 35:10.77033 36:18.439089 37:19.235384 38:23.194827 39:24.083189 40:25.079872 41:26.019224 42:27.018512 43:29.017236 44:0 45:0 46:0 47:0 48:0 49:0 50:0 51:0 52:0 53:0 54:0 55:0 56:0 57:0 58:0 59:0 60:0 61:0 62:0 63:0 64:0 65:0 66:0 67:0 68:0 69:0 70:0 71:0 72:0 73:0 74:0 75:0 76:0 77:0 78:0 79:0 80:0 81:0 82:0 83:0 84:0 85:0 86:0 87:0 88:0 89:0 90:0 91:0 92:0 93:0 94:0 95:0 96:0 97:0 98:0 99:0 100:0 101:0 102:0 103:0 104:0 105:0 106:0 107:0 108:0 109:0 110:0 111:0 112:0 113:0 114:0 115:0 116:0 117:0 118:0 119:0 120:0 
-0.3293626661896421 1 1 1 1 1:57.706152 2:65.620119 3:68.593003 4:69.46222 5:72.443081 6:74.242845 7:74.006756 8:71.028163 9:70.028566 10:69.065187 11:61.073726 12:60.033324 13:58.034473 14:57.078893 15:54.083269 16:53.150729 17:51.156622 18:50.249378 19:38.327536 20:37.215588 21:34.234486 22:33.376639 23:32.388269 24:31.575307 25:32.572995 26:31.953091 27:32.310989 28:30.88689 29:28.301943 30:27.202941 31:27.018512 32:26.248809 33:26.172505 34:23.600847 35:22.203603 36:21.095023 37:21.470911 38:19.026298 39:20.59126 40:20.248457 41:22.627417 42:25.455844 43:26.907248 44:29.732137 45:30.479501 46:33.301652 47:34.82815 48:36.235342 49:54.129474 50:54.626001 51:55.542776 52:56.0803 53:57.008771 54:57.58472 55:59.135438 56:60.083276 57:60.728906 58:61.684682 59:62.361847 60:63.324561 61:64.031242 62:63.150614 63:61.983869 64:61.814238 65:59.539903 66:59.413803 67:56.142675 68:56.0803 69:55.036352 70:54.037024 71:53.009433 72:53 73:52.009614 74:52.038447 75:51.088159 76:45.099889 77:44.181444 78:41.19466 79:40.311289 80:39.319207 81:38.470768 82:37.48333 83:35.902646 84:31.048349 85:30.364453 86:29.410882 87:28.79236 88:27.856777 89:26.832816 90:25.942244 91:25.553865 92:24.698178 93:24.413111 94:23.600847 95:23.853721 96:23.323808 97:23.706539 98:23.259407 99:23.769729 100:23.4094 101:23.769729 102:25.317978 103:25.079872 104:26.019224 105:28.160256 106:32.249031 107:32.449961 108:32.202484 109:32.802439 110:32.557641 111:31.827661 112:31.827661 113:30.479501 114:31.38471 115:33.12099 116:33.54102 117:34.438351 118:34.928498 119:35.846897 120:39.051248 
-0 1 1 1 1 1:2.8284271 2:2.8284271 3:2.236068 4:2.236068 5:0 6:0 7:0 8:0 9:0 10:0 11:0 12:0 13:0 14:0 15:0 16:0 17:0 18:0 19:0 20:0 21:0 22:0 23:0 24:0 25:0 26:0 27:0 28:0 29:0 30:0 31:0 32:0 33:0 34:0 35:0 36:0 37:0 38:0 39:0 40:0 41:0 42:0 43:0 44:0 45:0 46:0 47:0 48:0 49:0 50:0 51:0 52:0 53:0 54:0 55:0 56:0 57:0 58:0 59:0 60:0 61:0 62:0 63:0 64:0 65:0 66:0 67:0 68:0 69:0 70:0 71:0 72:0 73:0 74:0 75:0 76:0 77:0 78:0 79:0 80:0 81:0 82:0 83:0 84:0 85:0 86:0 87:0 88:0 89:0 90:0 91:0 92:0 93:0 94:0 95:0 96:0 97:0 98:0 99:0 100:0 101:0 102:0 103:0 104:0 105:0 106:0 107:0 108:0 109:0 110:0 111:0 112:0 113:0 114:0 115:0 116:0 117:0 118:0 119:0 120:0 
-1 1 1 1 1 1:1.4142136 2:2 3:1.4142136 4:3.1622777 5:2 6:2.8284271 7:2.8284271 8:0 9:0 10:0 11:0 12:0 13:0 14:0 15:0 16:0 17:0 18:0 19:0 20:0 21:0 22:0 23:0 24:0 25:0 26:0 27:0 28:0 29:0 30:0 31:0 32:0 33:0 34:0 35:0 36:0 37:0 38:0 39:0 40:0 41:0 42:0 43:0 44:0 45:0 46:0 47:0 48:0 49:0 50:0 51:0 52:0 53:0 54:0 55:0 56:0 57:0 58:0 59:0 60:0 61:0 62:0 63:0 64:0 65:0 66:0 67:0 68:0 69:0 70:0 71:0 72:0 73:0 74:0 75:0 76:0 77:0 78:0 79:0 80:0 81:0 82:0 83:0 84:0 85:0 86:0 87:0 88:0 89:0 90:0 91:0 92:0 93:0 94:0 95:0 96:0 97:0 98:0 99:0 100:0 101:0 102:0 103:0 104:0 105:0 106:0 107:0 108:0 109:0 110:0 111:0 112:0 113:0 114:0 115:0 116:0 117:0 118:0 119:0 120:0 
-1 1 1 1 1 1:3.0370001e+09 2:0 3:0 4:0 5:0 6:0 7:0 8:0 9:0 10:0 11:0 12:0 13:0 14:0 15:0 16:0 17:0 18:0 19:0 20:0 21:0 22:0 23:0 24:0 25:0 26:0 27:0 28:0 29:0 30:0 31:0 32:0 33:0 34:0 35:0 36:0 37:0 38:0 39:0 40:0 41:0 42:0 43:0 44:0 45:0 46:0 47:0 48:0 49:0 50:0 51:0 52:0 53:0 54:0 55:0 56:0 57:0 58:0 59:0 60:0 61:0 62:0 63:0 64:0 65:0 66:0 67:0 68:0 69:0 70:0 71:0 72:0 73:0 74:0 75:0 76:0 77:0 78:0 79:0 80:0 81:0 82:0 83:0 84:0 85:0 86:0 87:0 88:0 89:0 90:0 91:0 92:0 93:0 94:0 95:0 96:0 97:0 98:0 99:0 100:0 101:0 102:0 103:0 104:0 105:0 106:0 107:0 108:0 109:0 110:0 111:0 112:0 113:0 114:0 115:0 116:0 117:0 118:0 119:0 120:0 
-0 0.4387488613404488 0.04473420398270755 0.3481458030218481 0.3753244311405146 1:19.646883 2:18.973666 3:18.027756 4:17 5:18.027756 6:17.804494 7:19.79899 8:20 9:20.808652 10:21.095023 11:24.596748 12:25.632011 13:26.570661 14:27.892651 15:27.45906 16:28.284271 17:30.870698 18:32.202484 19:32.649655 20:34 21:34.481879 22:35.846897 23:38.600518 24:38.418745 25:39.698866 26:39.623226 27:41.012193 28:41.036569 29:41.773197 30:42.011903 31:42.801869 32:43.011626 33:48.020829 34:47.507894 35:48.301139 36:47.853944 37:48.332184 38:47.539457 39:48.104054 40:46.572524 41:45.354162 42:45.122057 43:47.518417 44:47.169906 45:46.097722 46:46.043458 47:44 48:44.011362 49:43.046487 50:43.104524 51:42.190046 52:42.426407 53:41.593269 54:42.449971 55:39.560081 56:37.696154 57:38.078866 58:36.359318 59:35.510562 60:34.82815 61:34.058773 62:33.941125 63:32.557641 64:32.649655 65:30.232433 66:29.529646 67:30.463092 68:28.442925 69:27.294688 70:27.166155 71:25.019992 72:25.019992 73:23.194827 74:23.345235 75:21.84033 76:22.135944 77:21.023796 78:23.021729 79:22.803509 80:24.758837 81:24.758837 82:62.361847 83:63.06346 84:64.031242 85:65.253352 86:72.034714 87:72.780492 88:75.709973 89:75.504967 90:77.103826 91:76.655072 92:74.431176 93:74.330344 94:73.24616 95:72.249567 96:70.114193 97:56.142675 98:55.081757 99:52.086467 100:51.156622 101:46.173586 102:45.099889 103:44.102154 104:42.011903 105:41.012193 106:40 107:39 108:38.013156 109:37.013511 110:36.055513 111:33.060551 112:32.015621 113:32 114:30.066593 115:26.07681 116:24 117:24.020824 118:22.203603 119:22.36068 120:21.587033 
-0.2357181968694095 1 1 1 1 1:21.84033 2:22.472205 3:21.931712 4:22.825424 5:22.203603 6:26.907248 7:27.018512 8:31.906112 9:32.249031 10:65.96969 11:66.70832 12:75.504967 13:76.295478 14:80.230917 15:80.062476 16:80.894994 17:80.504658 18:79.40403 19:79.30952 20:78.230429 21:77.233412 22:76.164296 23:70.178344 24:69.115845 25:59.135438 26:57.035077 27:52.038447 28:51.088159 29:50.089919 30:49.040799 31:48.041649 32:47.010637 33:43.011626 34:42.047592 35:37.054015 36:36.013886 37:36 38:35.014283 39:35.22783 40:33.54102 41:33.734256 42:31.780497 43:31.048349 44:30.083218 45:29.410882 46:27.513633 47:25.942244 48:24.186773 49:23.853721 50:23.021729 51:22.627417 52:24.083189 53:24.698178 54:25.553865 55:26.925824 56:27.856777 57:29.12044 58:28.861739 59:29.614186 60:29.274562 61:30.149627 62:30.016662 63:29.068884 64:35.805028 65:35.608988 66:38.209946 67:38.183766 68:41.10961 69:41.231056 70:43.600459 71:45.177428 72:44.72136 73:47.434165 74:47.127487 75:47.801674 76:47.296934 77:52.239832 78:52.009614 79:50.089919 80:50.159745 81:49.254441 82:49.648766 83:48.836462 84:49.244289 85:48.507731 86:49.040799 87:47.169906 88:47.539457 89:44.777226 90:42.154478 91:41.785165 92:40.496913 93:38.626416 94:38.078866 95:37.161808 96:35.846897 97:36.359318 98:35.805028 99:35 100:34.82815 101:33.301652 102:33.24154 103:32.526912 104:32.557641 105:28.301943 106:26.925824 107:27.294688 108:25.298221 109:25.96151 110:25.495098 111:26.305893 112:26.07681 113:25.019992 114:26 115:24.083189 116:24.186773 117:0 118:0 119:0 120:0 
-1 1 1 1 1 1:2.236068 2:1.4142136 3:2 4:2.236068 5:2.236068 6:1 7:2.236068 8:2.8284271 9:0 10:0 11:0 12:0 13:0 14:0 15:0 16:0 17:0 18:0 19:0 20:0 21:0 22:0 23:0 24:0 25:0 26:0 27:0 28:0 29:0 30:0 31:0 32:0 33:0 34:0 35:0 36:0 37:0 38:0 39:0 40:0 41:0 42:0 43:0 44:0 45:0 46:0 47:0 48:0 49:0 50:0 51:0 52:0 53:0 54:0 55:0 56:0 57:0 58:0 59:0 60:0 61:0 62:0 63:0 64:0 65:0 66:0 67:0 68:0 69:0 70:0 71:0 72:0 73:0 74:0 75:0 76:0 77:0 78:0 79:0 80:0 81:0 82:0 83:0 84:0 85:0 86:0 87:0 88:0 89:0 90:0 91:0 92:0 93:0 94:0 95:0 96:0 97:0 98:0 99:0 100:0 101:0 102:0 103:0 104:0 105:0 106:0 107:0 108:0 109:0 110:0 111:0 112:0 113:0 114:0 115:0 116:0 117:0 118:0 119:0 120:0 
-0.7503141090390416 0.5568962497302995 0.7528178984720779 0.3981076243214108 0.2227725599661474 1:40.311289 2:41.036569 3:41.231056 4:42.011903 5:42.201896 6:43.829214 7:44.102154 8:45.793013 9:46.52956 10:47.413078 11:47.853944 12:45.221676 13:45.880279 14:44.181444 15:43.104524 16:43 17:42.011903 18:42.190046 19:41.303753 20:41.593269 21:37.947332 22:37 23:35.846897 24:36.674242 25:36.235342 26:36.71512 27:35.608988 28:34.82815 29:34.71311 30:33.24154 31:33.24154 32:28.84441 33:29.154759 34:28.178006 35:28.635642 36:26.683328 37:25.495098 38:25 39:24.020824 40:24.186773 41:23.345235 42:23.537205 43:22.135944 44:22.847319 45:22.36068 46:22.825424 47:22.472205 48:24.839485 49:24.758837 50:26.907248 51:28.319605 52:36.359318 53:37.735925 54:43.829214 55:44.28318 56:66.760767 57:68.007353 58:76.655072 59:78.854296 60:78.089692 61:75.802375 62:71.84706 63:70.710678 64:65.764732 65:64.629715 66:62.64982 67:61.522354 68:52.611786 69:51.478151 70:50.487622 71:49.36598 72:45.398238 73:44.28318 74:28.442925 75:27.294688 76:27.073973 77:26.019224 78:26.019224 79:25.079872 80:21.095023 81:18.027756 82:17.029386 83:16 84:16.492423 85:20.248457 86:22.472205 87:21.633308 88:21.213203 89:21.931712 90:22.022716 91:24.413111 92:24.698178 93:24.186773 94:25.079872 95:24.698178 96:26.683328 97:27.658633 98:27.45906 99:29.154759 100:29.017236 101:30.066593 102:31.622777 103:32.893768 104:37.44329 105:37.20215 106:38.418745 107:38.288379 108:40.311289 109:0 110:0 111:0 112:0 113:0 114:0 115:0 116:0 117:0 118:0 119:0 120:0 
-0.3172561340340976 1 1 1 0.866668823639928 1:3.0370001e+09 2:3.0370001e+09 3:0 4:0 5:0 6:0 7:0 8:0 9:0 10:0 11:0 12:0 13:0 14:0 15:0 16:0 17:0 18:0 19:0 20:0 21:0 22:0 23:0 24:0 25:0 26:0 27:0 28:0 29:0 30:0 31:0 32:0 33:0 34:0 35:0 36:0 37:0 38:0 39:0 40:0 41:0 42:0 43:0 44:0 45:0 46:0 47:0 48:0 49:0 50:0 51:0 52:0 53:0 54:0 55:0 56:0 57:0 58:0 59:0 60:0 61:0 62:0 63:0 64:0 65:0 66:0 67:0 68:0 69:0 70:0 71:0 72:0 73:0 74:0 75:0 76:0 77:0 78:0 79:0 80:0 81:0 82:0 83:0 84:0 85:0 86:0 87:0 88:0 89:0 90:0 91:0 92:0 93:0 94:0 95:0 96:0 97:0 98:0 99:0 100:0 101:0 102:0 103:0 104:0 105:0 106:0 107:0 108:0 109:0 110:0 111:0 112:0 113:0 114:0 115:0 116:0 117:0 118:0 119:0 120:0 
-0 0.4850642533685654 0.3367084686342105 0.2795702217901229 0.4483403787573472 1:21.931712 2:21.954498 3:23.021729 4:19.723083 5:17.888544 6:18.973666 7:21.540659 8:22.36068 9:23.706539 10:28.178006 11:29.154759 12:30.083218 13:30.675723 14:32.280025 15:33.24154 16:32.557641 17:33.015148 18:36.221541 19:34.71311 20:33.955854 21:35.468296 22:37.576588 23:38.910153 24:43.416587 25:46.010868 26:45.96738 27:47.381431 28:47.507894 29:48.270074 30:48.826222 31:49.648766 32:49.929951 33:55.946403 34:55.542776 35:56.648036 36:56.302753 37:56.920998 38:58.5235 39:60.440053 40:59.665736 41:58.694122 42:56.515485 43:53.75872 44:52.611786 45:52.345009 46:51.244512 47:51.039201 48:50.089919 49:49.254441 50:49.36598 51:50.487622 52:51.419841 53:50.447993 54:49.729267 55:47.801674 56:47.127487 57:46.173586 58:44.384682 59:44.777226 60:43.908997 61:43.266615 62:42.201896 63:41.400483 64:41.10961 65:40.360872 66:40.311289 67:39.59798 68:39.623226 69:30.675723 70:30.149627 71:29.017236 72:28.017851 73:26.172505 74:26.305893 75:25.495098 76:24.698178 77:23.769729 78:23.706539 79:23.323808 80:24.207437 81:30.610456 82:32.015621 83:42.941821 84:44.294469 85:53.310412 86:54.626001 87:65.787537 88:66.407831 89:79.81228 90:80.523289 91:81.492331 92:82.710338 93:88.526832 94:89.269256 95:90.244113 96:91.005494 97:90.801982 98:91.591484 99:90.796476 100:88.566359 101:85.586214 102:84.480767 103:81.498466 104:76.419893 105:74.242845 106:58.309519 107:57.218878 108:49.254441 109:44.28318 110:44.181444 111:43.104524 112:43.046487 113:40.012498 114:35 115:34 116:33.015148 117:30.149627 118:29.154759 119:24.738634 120:23.086793 
-0 1 1 1 1 1:2.236068 2:3.1622777 3:1.4142136 4:1.4142136 5:2.236068 6:0 7:0 8:0 9:0 10:0 11:0 12:0 13:0 14:0 15:0 16:0 17:0 18:0 19:0 20:0 21:0 22:0 23:0 24:0 25:0 26:0 27:0 28:0 29:0 30:0 31:0 32:0 33:0 34:0 35:0 36:0 37:0 38:0 39:0 40:0 41:0 42:0 43:0 44:0 45:0 46:0 47:0 48:0 49:0 50:0 51:0 52:0 53:0 54:0 55:0 56:0 57:0 58:0 59:0 60:0 61:0 62:0 63:0 64:0 65:0 66:0 67:0 68:0 69:0 70:0 71:0 72:0 73:0 74:0 75:0 76:0 77:0 78:0 79:0 80:0 81:0 82:0 83:0 84:0 85:0 86:0 87:0 88:0 89:0 90:0 91:0 92:0 93:0 94:0 95:0 96:0 97:0 98:0 99:0 100:0 101:0 102:0 103:0 104:0 105:0 106:0 107:0 108:0 109:0 110:0 111:0 112:0 113:0 114:0 115:0 116:0 117:0 118:0 119:0 120:0 
-0.725299087019239 0.4938898814364073 0.7203056822749206 0.3708359663890559 0.3646217628768063 1:31.400637 2:29.154759 3:29.529646 4:26.305893 5:22.847319 6:21.931712 7:21.470911 8:24.839485 9:24.758837 10:34.132096 11:34.481879 12:44.384682 13:45.694639 14:50.328918 15:51.623638 16:53.488316 17:54.781384 18:57.58472 19:58.189346 20:59.135438 21:59.774577 22:75.186435 23:75.927597 24:76.902536 25:77.665951 26:78.644771 27:77.781746 28:76.791927 29:74.545288 30:72.56032 31:71.449283 32:70.45566 33:69.354164 34:68.359345 35:67.26812 36:53.338541 37:52.239832 38:42.296572 39:41.19466 40:37.215588 41:36.124784 42:30.149627 43:23.345235 44:22.36068 45:20.880613 46:22.825424 47:22.203603 48:23.430749 49:24.839485 50:27.586228 51:26.907248 52:27.018512 53:26.400758 54:26.627054 55:26.07681 56:27.313001 57:26.925824 58:28.861739 59:28.635642 60:29.427878 61:29.154759 62:30.066593 63:30.149627 64:29.274562 65:32.649655 66:34 67:37.20215 68:36.878178 69:37.536649 70:37.48333 71:38.948684 72:41.773197 73:42.449971 74:43.863424 75:46.861498 76:47.201695 77:46.615448 78:47.507894 79:47.010637 80:48.332184 81:47.927028 82:48.466483 83:46.840154 84:45.607017 85:45.354162 86:46.097722 87:45.099889 88:43.289722 89:41.303753 90:38.832976 91:39.051248 92:37.107951 93:36.400549 94:35.44009 95:32.649655 96:33.615473 97:33.015148 98:33.600595 99:33.24154 100:31.240999 101:0 102:0 103:0 104:0 105:0 106:0 107:0 108:0 109:0 110:0 111:0 112:0 113:0 114:0 115:0 116:0 117:0 118:0 119:0 120:0 
-0.7756755852396071 -1 1 1 1 1:23.769729 2:18.681542 3:18.248288 4:17.117243 5:17.117243 6:16.278821 7:17.464249 8:17 9:18.601075 10:20 11:21.260292 12:24.083189 13:27.586228 14:31.240999 15:32.649655 16:39.661064 17:43.046487 18:44.418465 19:46.647615 20:53.665631 21:55.00909 22:58.600341 23:59.933296 24:63.560994 25:64.078077 26:65.924199 27:63.600314 28:62.361847 29:62.096699 30:59.665736 31:57.723479 32:56.515485 33:54.571055 34:53.366656 35:49.477268 36:48.270074 37:44.384682 38:39.623226 39:37.656341 40:35.355339 41:30.413813 42:29.274562 43:22.561028 44:19.646883 45:18.439089 46:18 47:20.099751 48:22.090722 49:23.194827 50:35.22783 51:36.345564 52:37.336309 53:38.470768 54:41.436699 55:42.579338 56:54.589376 57:55.731499 58:59.682493 59:61.983869 60:62.169124 61:63.348244 62:63.560994 63:64.761099 64:64.513564 65:56.0803 66:54.781384 67:46.097722 68:41.593269 69:40.249224 70:39.357337 71:38.013156 72:34.481879 73:33.12099 74:25.612497 75:24.207437 76:22.671568 77:21.260292 78:19.723083 79:20.59126 80:22.135944 81:21 82:20.024984 83:25.317978 84:27.658633 85:28.79236 86:30.083218 87:29.546573 88:31.38471 89:33.42155 90:33.301652 91:36.796739 92:36.878178 93:38.418745 94:38.600518 95:41.340053 96:43.462628 97:44.384682 98:44.94441 99:45.880279 100:46.486557 101:47.434165 102:49.244289 103:51.478151 104:52.345009 105:52 106:50.039984 107:50.159745 108:48.507731 109:49.729267 110:44.384682 111:45.188494 112:43.908997 113:41.340053 114:35.468296 115:34.058773 116:30.413813 117:27.658633 118:25.612497 119:25.806976 120:25.238859 
-0 -0.5379122833001128 1 1 0.752885701335972 1:3.0370001e+09 2:0 3:0 4:0 5:0 6:0 7:0 8:0 9:0 10:0 11:0 12:0 13:0 14:0 15:0 16:0 17:0 18:0 19:0 20:0 21:0 22:0 23:0 24:0 25:0 26:0 27:0 28:0 29:0 30:0 31:0 32:0 33:0 34:0 35:0 36:0 37:0 38:0 39:0 40:0 41:0 42:0 43:0 44:0 45:0 46:0 47:0 48:0 49:0 50:0 51:0 52:0 53:0 54:0 55:0 56:0 57:0 58:0 59:0 60:0 61:0 62:0 63:0 64:0 65:0 66:0 67:0 68:0 69:0 70:0 71:0 72:0 73:0 74:0 75:0 76:0 77:0 78:0 79:0 80:0 81:0 82:0 83:0 84:0 85:0 86:0 87:0 88:0 89:0 90:0 91:0 92:0 93:0 94:0 95:0 96:0 97:0 98:0 99:0 100:0 101:0 102:0 103:0 104:0 105:0 106:0 107:0 108:0 109:0 110:0 111:0 112:0 113:0 114:0 115:0 116:0 117:0 118:0 119:0 120:0 
-1 -1 1 1 1 1:3.0370001e+09 2:0 3:0 4:0 5:0 6:0 7:0 8:0 9:0 10:0 11:0 12:0 13:0 14:0 15:0 16:0 17:0 18:0 19:0 20:0 21:0 22:0 23:0 24:0 25:0 26:0 27:0 28:0 29:0 30:0 31:0 32:0 33:0 34:0 35:0 36:0 37:0 38:0 39:0 40:0 41:0 42:0 43:0 44:0 45:0 46:0 47:0 48:0 49:0 50:0 51:0 52:0 53:0 54:0 55:0 56:0 57:0 58:0 59:0 60:0 61:0 62:0 63:0 64:0 65:0 66:0 67:0 68:0 69:0 70:0 71:0 72:0 73:0 74:0 75:0 76:0 77:0 78:0 79:0 80:0 81:0 82:0 83:0 84:0 85:0 86:0 87:0 88:0 89:0 90:0 91:0 92:0 93:0 94:0 95:0 96:0 97:0 98:0 99:0 100:0 101:0 102:0 103:0 104:0 105:0 106:0 107:0 108:0 109:0 110:0 111:0 112:0 113:0 114:0 115:0 116:0 117:0 118:0 119:0 120:0 
-0.1077859616049602 -0 1 0.5006649962468059 0 1:4 2:3.1622777 3:1.4142136 4:1.4142136 5:6.0827625 6:7.2801099 7:8.2462113 8:9.0553851 9:13.038405 10:14 11:13.038405 12:9.0553851 13:8.2462113 14:7.2801099 15:6.0827625 16:2.236068 17:1 18:4.1231056 19:7.2111026 20:0 21:0 22:0 23:0 24:0 25:0 26:0 27:0 28:0 29:0 30:0 31:0 32:0 33:0 34:0 35:0 36:0 37:0 38:0 39:0 40:0 41:0 42:0 43:0 44:0 45:0 46:0 47:0 48:0 49:0 50:0 51:0 52:0 53:0 54:0 55:0 56:0 57:0 58:0 59:0 60:0 61:0 62:0 63:0 64:0 65:0 66:0 67:0 68:0 69:0 70:0 71:0 72:0 73:0 74:0 75:0 76:0 77:0 78:0 79:0 80:0 81:0 82:0 83:0 84:0 85:0 86:0 87:0 88:0 89:0 90:0 91:0 92:0 93:0 94:0 95:0 96:0 97:0 98:0 99:0 100:0 101:0 102:0 103:0 104:0 105:0 106:0 107:0 108:0 109:0 110:0 111:0 112:0 113:0 114:0 115:0 116:0 117:0 118:0 119:0 120:0 
-0 -1 0.2452323327227484 1 1 1:2.8284271 2:2.236068 3:3 4:4.2426407 5:3 6:2.236068 7:3.6055513 8:3 9:4.1231056 10:3.1622777 11:0 12:0 13:0 14:0 15:0 16:0 17:0 18:0 19:0 20:0 21:0 22:0 23:0 24:0 25:0 26:0 27:0 28:0 29:0 30:0 31:0 32:0 33:0 34:0 35:0 36:0 37:0 38:0 39:0 40:0 41:0 42:0 43:0 44:0 45:0 46:0 47:0 48:0 49:0 50:0 51:0 52:0 53:0 54:0 55:0 56:0 57:0 58:0 59:0 60:0 61:0 62:0 63:0 64:0 65:0 66:0 67:0 68:0 69:0 70:0 71:0 72:0 73:0 74:0 75:0 76:0 77:0 78:0 79:0 80:0 81:0 82:0 83:0 84:0 85:0 86:0 87:0 88:0 89:0 90:0 91:0 92:0 93:0 94:0 95:0 96:0 97:0 98:0 99:0 100:0 101:0 102:0 103:0 104:0 105:0 106:0 107:0 108:0 109:0 110:0 111:0 112:0 113:0 114:0 115:0 116:0 117:0 118:0 119:0 120:0 
-1 -0 0.1895966943137928 0.6913972304987415 0 1:3.0370001e+09 2:0 3:0 4:0 5:0 6:0 7:0 8:0 9:0 10:0 11:0 12:0 13:0 14:0 15:0 16:0 17:0 18:0 19:0 20:0 21:0 22:0 23:0 24:0 25:0 26:0 27:0 28:0 29:0 30:0 31:0 32:0 33:0 34:0 35:0 36:0 37:0 38:0 39:0 40:0 41:0 42:0 43:0 44:0 45:0 46:0 47:0 48:0 49:0 50:0 51:0 52:0 53:0 54:0 55:0 56:0 57:0 58:0 59:0 60:0 61:0 62:0 63:0 64:0 65:0 66:0 67:0 68:0 69:0 70:0 71:0 72:0 73:0 74:0 75:0 76:0 77:0 78:0 79:0 80:0 81:0 82:0 83:0 84:0 85:0 86:0 87:0 88:0 89:0 90:0 91:0 92:0 93:0 94:0 95:0 96:0 97:0 98:0 99:0 100:0 101:0 102:0 103:0 104:0 105:0 106:0 107:0 108:0 109:0 110:0 111:0 112:0 113:0 114:0 115:0 116:0 117:0 118:0 119:0 120:0 
-1 -0 1 0 0 1:7.0710678 2:5.6568542 3:4 4:4 5:6 6:7.0710678 7:8.0622577 8:8.9442719 9:5.6568542 10:4.2426407 11:3.6055513 12:1 13:2 14:3.1622777 15:7.0710678 16:8.2462113 17:7.6157731 18:8.9442719 19:7.2111026 20:0 21:0 22:0 23:0 24:0 25:0 26:0 27:0 28:0 29:0 30:0 31:0 32:0 33:0 34:0 35:0 36:0 37:0 38:0 39:0 40:0 41:0 42:0 43:0 44:0 45:0 46:0 47:0 48:0 49:0 50:0 51:0 52:0 53:0 54:0 55:0 56:0 57:0 58:0 59:0 60:0 61:0 62:0 63:0 64:0 65:0 66:0 67:0 68:0 69:0 70:0 71:0 72:0 73:0 74:0 75:0 76:0 77:0 78:0 79:0 80:0 81:0 82:0 83:0 84:0 85:0 86:0 87:0 88:0 89:0 90:0 91:0 92:0 93:0 94:0 95:0 96:0 97:0 98:0 99:0 100:0 101:0 102:0 103:0 104:0 105:0 106:0 107:0 108:0 109:0 110:0 111:0 112:0 113:0 114:0 115:0 116:0 117:0 118:0 119:0 120:0 
-0.6656507560076612 -1 1 1 1 1:20.248457 2:23.021729 3:24.839485 4:26.248809 5:32.649655 6:35 7:36.400549 8:37.20215 9:38.600518 10:45.793013 11:50.606324 12:51.971146 13:53.712196 14:55.072679 15:56.824291 16:66.70832 17:66.309879 18:65.253352 19:64.288413 20:59.908263 21:56.753854 22:55.542776 23:50.695167 24:48.507731 25:47.296934 26:46.324939 27:43.174066 28:40.792156 29:38.639358 30:36.496575 31:34.525353 32:30.413813 33:29.274562 34:24.186773 35:20.223748 36:14.035669 37:13 38:18.681542 39:19.924859 40:28.635642 41:34.71311 42:35.902646 43:43.174066 44:44.14748 45:47.539457 46:50 47:57.280014 48:64.845971 49:65.14599 50:68.154237 51:67.230945 52:66.70832 53:55.072679 54:51.107729 55:49.73932 56:47.507894 57:46.647615 58:45.276926 59:43.566042 60:43.266615 61:38.418745 62:37.013511 63:32.526912 64:29.732137 65:26.907248 66:19.697716 67:21.587033 68:22.803509 69:30.413813 70:31.064449 71:31.064449 72:29.274562 73:29.832868 74:28.231188 75:27.730849 76:29.681644 77:32.449961 78:33.286634 79:36.235342 80:38.275318 81:37.802116 82:38.418745 83:38.209946 84:39.661064 85:40.706265 86:41.146081 87:40.853396 88:42.720019 89:44 90:45 91:51.156622 92:54.332311 93:54.451814 94:56.718604 95:59.135438 96:58.5235 97:59.236813 98:56.797887 99:55.901699 100:55.470713 101:55.946403 102:55.569776 103:56.0803 104:54.083269 105:53.823787 106:51.613952 107:51.400389 108:47.201695 109:47.010637 110:45.607017 111:43.011626 112:38.600518 113:38.418745 114:36.124784 115:31.890437 116:31.144823 117:29.732137 118:29.832868 119:17.492856 120:16.03122 
-0 -0.7990065604231467 1 1 1 1:23.706539 2:31.827661 3:38.418745 4:40.607881 5:42.201896 6:43.600459 7:46.043458 8:49.091751 9:51.312766 10:52.697249 11:59.169249 12:63.529521 13:64.884513 14:74.249579 15:80.622577 16:81.154174 17:73.498299 18:71.568149 19:70.342022 20:68.410526 21:65 22:63.788714 23:61.611687 24:56.753854 25:53.600373 26:52.392748 27:45.880279 28:42.720019 29:41.484937 30:39.560081 31:38.327536 32:34.928498 33:33.955854 34:32.756679 35:25.70992 36:22.203603 37:23.021729 38:28.284271 39:31.256999 40:38.327536 41:44.407207 42:50.009999 43:51 44:51.009803 45:52.038447 46:52.153619 47:53.235327 48:53.338541 49:55.443665 50:56.568542 51:57.558666 52:58.694122 53:61.66036 54:62.801274 55:71.021124 56:72.99315 57:78.854296 58:80.280757 59:73.054774 60:68.35203 61:66.128662 62:58.694122 63:55.946403 64:54.626001 65:50.990195 66:39.115214 67:35.510562 68:31.906112 69:23.345235 70:23.345235 71:31.38471 72:32.202484 73:33.615473 74:31.575307 75:30.149627 76:29.068884 77:27.073973 78:26.248809 79:25.632011 80:27.784888 81:29.681644 82:36.878178 83:38.418745 84:39.824616 85:43.139309 86:45.343136 87:45.453273 88:47.201695 89:48.373546 90:50.119856 91:51.478151 92:52.392748 93:55.027266 94:59.228372 95:63.007936 96:62 97:63.788714 98:64.776539 99:65.513357 100:65 101:59.774577 102:57.008771 103:55.154329 104:55.542776 105:54.120237 106:53.235327 107:50.803543 108:51.224994 109:45.96738 110:35.383612 111:32.802439 112:33.015148 113:30.232433 114:27.730849 115:26.400758 116:25.298221 117:22.36068 118:21.213203 119:21.095023 120:22.36068 
-1 -1 1 1 1 1:5.0990195 2:5.3851648 3:4.472136 4:5.0990195 5:5.3851648 6:4.472136 7:0 8:0 9:0 10:0 11:0 12:0 13:0 14:0 15:0 16:0 17:0 18:0 19:0 20:0 21:0 22:0 23:0 24:0 25:0 26:0 27:0 28:0 29:0 30:0 31:0 32:0 33:0 34:0 35:0 36:0 37:0 38:0 39:0 40:0 41:0 42:0 43:0 44:0 45:0 46:0 47:0 48:0 49:0 50:0 51:0 52:0 53:0 54:0 55:0 56:0 57:0 58:0 59:0 60:0 61:0 62:0 63:0 64:0 65:0 66:0 67:0 68:0 69:0 70:0 71:0 72:0 73:0 74:0 75:0 76:0 77:0 78:0 79:0 80:0 81:0 82:0 83:0 84:0 85:0 86:0 87:0 88:0 89:0 90:0 91:0 92:0 93:0 94:0 95:0 96:0 97:0 98:0 99:0 100:0 101:0 102:0 103:0 104:0 105:0 106:0 107:0 108:0 109:0 110:0 111:0 112:0 113:0 114:0 115:0 116:0 117:0 118:0 119:0 120:0 
-0.4664946867630539 -0.536906920630154 1 1 1 1:3.037e+09 2:0 3:0 4:0 5:0 6:0 7:0 8:0 9:0 10:0 11:0 12:0 13:0 14:0 15:0 16:0 17:0 18:0 19:0 20:0 21:0 22:0 23:0 24:0 25:0 26:0 27:0 28:0 29:0 30:0 31:0 32:0 33:0 34:0 35:0 36:0 37:0 38:0 39:0 40:0 41:0 42:0 43:0 44:0 45:0 46:0 47:0 48:0 49:0 50:0 51:0 52:0 53:0 54:0 55:0 56:0 57:0 58:0 59:0 60:0 61:0 62:0 63:0 64:0 65:0 66:0 67:0 68:0 69:0 70:0 71:0 72:0 73:0 74:0 75:0 76:0 77:0 78:0 79:0 80:0 81:0 82:0 83:0 84:0 85:0 86:0 87:0 88:0 89:0 90:0 91:0 92:0 93:0 94:0 95:0 96:0 97:0 98:0 99:0 100:0 101:0 102:0 103:0 104:0 105:0 106:0 107:0 108:0 109:0 110:0 111:0 112:0 113:0 114:0 115:0 116:0 117:0 118:0 119:0 120:0 
-0.3523264221827115 -0.4930505742388651 0.5975840995051831 0 0 1:4 2:3.1622777 3:5 4:3.1622777 5:4 6:5 7:5 8:4.472136 9:5.0990195 10:5 11:3.6055513 12:1 13:2 14:3.1622777 15:3 16:2 17:2 18:2.236068 19:3.6055513 20:3.6055513 21:4.472136 22:4.1231056 23:5 24:5.0990195 25:4.472136 26:5.6568542 27:0 28:0 29:0 30:0 31:0 32:0 33:0 34:0 35:0 36:0 37:0 38:0 39:0 40:0 41:0 42:0 43:0 44:0 45:0 46:0 47:0 48:0 49:0 50:0 51:0 52:0 53:0 54:0 55:0 56:0 57:0 58:0 59:0 60:0 61:0 62:0 63:0 64:0 65:0 66:0 67:0 68:0 69:0 70:0 71:0 72:0 73:0 74:0 75:0 76:0 77:0 78:0 79:0 80:0 81:0 82:0 83:0 84:0 85:0 86:0 87:0 88:0 89:0 90:0 91:0 92:0 93:0 94:0 95:0 96:0 97:0 98:0 99:0 100:0 101:0 102:0 103:0 104:0 105:0 106:0 107:0 108:0 109:0 110:0 111:0 112:0 113:0 114:0 115:0 116:0 117:0 118:0 119:0 120:0 
-0.3474167706431956 -1 1 1 1 1:37.44329 2:37.20215 3:39.698866 4:39.623226 5:42.449971 6:45.221676 7:45.793013 8:46.647615 9:47.010637 10:49.648766 11:50.566788 12:53.310412 13:55.946403 14:56.364883 15:57.271284 16:58.180753 17:61.032778 18:61.983869 19:62.817195 20:63.560994 21:63.348244 22:64.132675 23:62.128898 24:62 25:61.008196 26:61.131007 27:60.207973 28:57.558666 29:54.129474 30:51.195703 31:49.477268 32:48.764741 33:47.801674 34:46.486557 35:47.927028 36:46.957428 37:47.413078 38:45.650849 39:45.276926 40:42.720019 41:42.43819 42:40.607881 43:39.051248 44:31.064449 45:29.681644 46:28.653098 47:21.540659 48:18.788294 49:15.811388 50:16.492423 51:23.194827 52:23.086793 53:21.84033 54:26.400758 55:26.907248 56:30.413813 57:31.112698 58:33.970576 59:35.383612 60:38.418745 61:42.201896 62:49.396356 63:50.774009 64:55.569776 65:64.845971 66:70.213959 67:70.682388 68:73.164199 69:73.763134 70:68.88396 71:65.96969 72:64.761099 73:57.008771 74:55.785303 75:53.851648 76:47.801674 77:46.572524 78:41 79:39.812058 80:37.656341 81:28.861739 82:31 83:44.011362 84:48.041649 85:55.081757 86:57.140179 87:58.215118 88:60.299254 89:69.354164 90:70.45566 91:72.443081 92:76.941536 93:77.87811 94:77.129761 95:76.922038 96:67.052218 97:63.890531 98:62.641839 99:59.774577 100:58.5235 101:53.160135 102:46.8188 103:39 104:34.014703 105:32.695565 106:28.178006 107:26.832816 108:19.104973 109:20.518285 110:20.615528 111:22.472205 112:23.086793 113:23.021729 114:25.019992 115:28.071338 116:29.068884 117:31.256999 118:33.955854 119:34.539832 120:36.235342 
-0.03368743868712598 -1 1 1 0.70665298729596 1:5 2:3.1622777 3:1.4142136 4:3.1622777 5:3.1622777 6:4.472136 7:4.472136 8:3.1622777 9:3 10:4.1231056 11:3.6055513 12:2.8284271 13:4 14:0 15:0 16:0 17:0 18:0 19:0 20:0 21:0 22:0 23:0 24:0 25:0 26:0 27:0 28:0 29:0 30:0 31:0 32:0 33:0 34:0 35:0 36:0 37:0 38:0 39:0 40:0 41:0 42:0 43:0 44:0 45:0 46:0 47:0 48:0 49:0 50:0 51:0 52:0 53:0 54:0 55:0 56:0 57:0 58:0 59:0 60:0 61:0 62:0 63:0 64:0 65:0 66:0 67:0 68:0 69:0 70:0 71:0 72:0 73:0 74:0 75:0 76:0 77:0 78:0 79:0 80:0 81:0 82:0 83:0 84:0 85:0 86:0 87:0 88:0 89:0 90:0 91:0 92:0 93:0 94:0 95:0 96:0 97:0 98:0 99:0 100:0 101:0 102:0 103:0 104:0 105:0 106:0 107:0 108:0 109:0 110:0 111:0 112:0 113:0 114:0 115:0 116:0 117:0 118:0 119:0 120:0 
-0.1665302826054268 -0.8282147451825479 1 1 1 1:57.706152 2:53.75872 3:50.358713 4:48.259714 5:43.289722 6:38 7:36 8:35.014283 9:28.017851 10:27.166155 11:27.658633 12:28.861739 13:29.154759 14:37.536649 15:37.64306 16:42.201896 17:45.486262 18:46.872167 19:47.169906 20:52.35456 21:87.641314 22:88.32327 23:90.249654 24:89.988888 25:90.094395 26:88.955045 27:85.84288 28:83.862983 29:83.024093 30:77.103826 31:74.966659 32:65.764732 33:41 34:40.261644 35:36.878178 36:37.656341 37:38.639358 38:40.311289 39:36.345564 40:26 41:29.966648 42:32.249031 43:32.756679 44:38.013156 45:37.013511 46:35.355339 47:40.360872 48:40.459857 49:43.266615 50:41.677332 51:41.629317 52:40.024992 53:39.812058 54:40.607881 55:40.112342 56:39.623226 57:38.832976 58:40.261644 59:42.953463 60:52.478567 61:53.535035 62:55.470713 63:58.249464 64:59.908263 65:64.070274 66:67.007462 67:67.475922 68:67.357256 69:67.941151 70:68.622154 71:69.310894 72:69.42622 73:70.178344 74:69.656299 75:68.600292 76:66.85058 77:64.007812 78:62.64982 79:62.169124 80:53.310412 81:50.695167 82:49.335586 83:46.840154 84:41.976184 85:38.832976 86:36.124784 87:37.054015 88:37.107951 89:37 90:37.576588 91:38.948684 92:38.275318 93:38.418745 94:38.897301 95:39.59798 96:39.623226 97:40.459857 98:42.011903 99:45.188494 100:46.238512 101:47.169906 102:50 103:52.392748 104:53.150729 105:54.129474 106:55.901699 107:59.539903 108:60.530984 109:61.400326 110:63.285069 111:64.280635 112:66.121101 113:71.007042 114:72.062473 115:70.178344 116:66.189123 117:65.276336 118:61.400326 119:60.406953 120:58.549125 
-1 -1 1 0.6779247422646756 1 1:12.083046 2:13.416408 3:20.808652 4:21.470911 5:22.36068 6:24.041631 7:23.769729 8:24.515301 9:24.33105 10:26.07681 11:26.019224 12:27 13:27.45906 14:26.683328 15:25.70992 16:27.658633 17:27 18:26.019224 19:26.172505 20:24.515301 21:24.738634 22:24.041631 23:24.351591 24:23.259407 25:22.36068 26:21.633308 27:13.416408 28:12.083046 29:11.045361 30:10 31:10.198039 32:9.486833 33:9.8488578 34:10.440307 35:11.18034 36:12.529964 37:13.416408 38:16.124515 39:16.643317 40:18.027756 41:18.601075 42:22.803509 43:23.600847 44:24.207437 45:27.018512 46:31.890437 47:27.658633 48:24.839485 49:24.207437 50:22.803509 51:22.022716 52:19.209373 53:18.601075 54:17.204651 55:16.643317 56:12.529964 57:11.661904 58:10.198039 59:10.198039 60:10.049876 61:11.18034 62:0 63:0 64:0 65:0 66:0 67:0 68:0 69:0 70:0 71:0 72:0 73:0 74:0 75:0 76:0 77:0 78:0 79:0 80:0 81:0 82:0 83:0 84:0 85:0 86:0 87:0 88:0 89:0 90:0 91:0 92:0 93:0 94:0 95:0 96:0 97:0 98:0 99:0 100:0 101:0 102:0 103:0 104:0 105:0 106:0 107:0 108:0 109:0 110:0 111:0 112:0 113:0 114:0 115:0 116:0 117:0 118:0 119:0 120:0 
-1 -0 1 0.7474797740533169 1 1:3.037e+09 2:0 3:0 4:0 5:0 6:0 7:0 8:0 9:0 10:0 11:0 12:0 13:0 14:0 15:0 16:0 17:0 18:0 19:0 20:0 21:0 22:0 23:0 24:0 25:0 26:0 27:0 28:0 29:0 30:0 31:0 32:0 33:0 34:0 35:0 36:0 37:0 38:0 39:0 40:0 41:0 42:0 43:0 44:0 45:0 46:0 47:0 48:0 49:0 50:0 51:0 52:0 53:0 54:0 55:0 56:0 57:0 58:0 59:0 60:0 61:0 62:0 63:0 64:0 65:0 66:0 67:0 68:0 69:0 70:0 71:0 72:0 73:0 74:0 75:0 76:0 77:0 78:0 79:0 80:0 81:0 82:0 83:0 84:0 85:0 86:0 87:0 88:0 89:0 90:0 91:0 92:0 93:0 94:0 95:0 96:0 97:0 98:0 99:0 100:0 101:0 102:0 103:0 104:0 105:0 106:0 107:0 108:0 109:0 110:0 111:0 112:0 113:0 114:0 115:0 116:0 117:0 118:0 119:0 120:0 
-0.4329794254914633 -1 0 1 0 1:5 2:5 3:4.472136 4:3.1622777 5:4.1231056 6:4.1231056 7:5.6568542 8:4.1231056 9:4.1231056 10:3.1622777 11:4.472136 12:0 13:0 14:0 15:0 16:0 17:0 18:0 19:0 20:0 21:0 22:0 23:0 24:0 25:0 26:0 27:0 28:0 29:0 30:0 31:0 32:0 33:0 34:0 35:0 36:0 37:0 38:0 39:0 40:0 41:0 42:0 43:0 44:0 45:0 46:0 47:0 48:0 49:0 50:0 51:0 52:0 53:0 54:0 55:0 56:0 57:0 58:0 59:0 60:0 61:0 62:0 63:0 64:0 65:0 66:0 67:0 68:0 69:0 70:0 71:0 72:0 73:0 74:0 75:0 76:0 77:0 78:0 79:0 80:0 81:0 82:0 83:0 84:0 85:0 86:0 87:0 88:0 89:0 90:0 91:0 92:0 93:0 94:0 95:0 96:0 97:0 98:0 99:0 100:0 101:0 102:0 103:0 104:0 105:0 106:0 107:0 108:0 109:0 110:0 111:0 112:0 113:0 114:0 115:0 116:0 117:0 118:0 119:0 120:0 
-1 -0.3277715227244121 1 0.1477209246642263 0.3527147945507629 1:1 2:1 3:2 4:3.1622777 5:13.038405 6:14 7:16 8:18.11077 9:18.027756 10:17 11:14 12:13.038405 13:3.1622777 14:2 15:0 16:1.4142136 17:3.1622777 18:6.3245553 19:6.7082039 20:8.5440037 21:9.8488578 22:10.440307 23:15.297059 24:16.124515 25:17.262677 26:19.235384 27:20.396078 28:20.615528 29:20.223748 30:17.262677 31:16.124515 32:15.297059 33:10.440307 34:9.8488578 35:8.5440037 36:7.6157731 37:6.3245553 38:6.0827625 39:4.1231056 40:0 41:0 42:0 43:0 44:0 45:0 46:0 47:0 48:0 49:0 50:0 51:0 52:0 53:0 54:0 55:0 56:0 57:0 58:0 59:0 60:0 61:0 62:0 63:0 64:0 65:0 66:0 67:0 68:0 69:0 70:0 71:0 72:0 73:0 74:0 75:0 76:0 77:0 78:0 79:0 80:0 81:0 82:0 83:0 84:0 85:0 86:0 87:0 88:0 89:0 90:0 91:0 92:0 93:0 94:0 95:0 96:0 97:0 98:0 99:0 100:0 101:0 102:0 103:0 104:0 105:0 106:0 107:0 108:0 109:0 110:0 111:0 112:0 113:0 114:0 115:0 116:0 117:0 118:0 119:0 120:0 
-1 -1 1 1 1 1:2.236068 2:2.236068 3:2.8284271 4:2.236068 5:2.236068 6:2.236068 7:2.236068 8:0 9:0 10:0 11:0 12:0 13:0 14:0 15:0 16:0 17:0 18:0 19:0 20:0 21:0 22:0 23:0 24:0 25:0 26:0 27:0 28:0 29:0 30:0 31:0 32:0 33:0 34:0 35:0 36:0 37:0 38:0 39:0 40:0 41:0 42:0 43:0 44:0 45:0 46:0 47:0 48:0 49:0 50:0 51:0 52:0 53:0 54:0 55:0 56:0 57:0 58:0 59:0 60:0 61:0 62:0 63:0 64:0 65:0 66:0 67:0 68:0 69:0 70:0 71:0 72:0 73:0 74:0 75:0 76:0 77:0 78:0 79:0 80:0 81:0 82:0 83:0 84:0 85:0 86:0 87:0 88:0 89:0 90:0 91:0 92:0 93:0 94:0 95:0 96:0 97:0 98:0 99:0 100:0 101:0 102:0 103:0 104:0 105:0 106:0 107:0 108:0 109:0 110:0 111:0 112:0 113:0 114:0 115:0 116:0 117:0 118:0 119:0 120:0 
-0.2953327161996294 -0.9198531511099444 1 1 1 1:42.43819 2:41.400483 3:41.10961 4:40.607881 5:37 6:37.64306 7:37.215588 8:38.209946 9:37.336309 10:37.656341 11:36.878178 12:33.615473 13:26.248809 14:25.806976 15:29.529646 16:42.953463 17:74.330344 18:67.052218 19:51.264022 20:42.953463 21:37.121422 22:33.286634 23:29.529646 24:26.832816 25:25 26:28.425341 27:29.206164 28:29.154759 29:29.529646 30:37.363083 31:37.215588 32:38.118237 33:37.215588 34:37.107951 35:36.769553 36:35.777088 37:40 38:40.360872 39:46.238512 40:48.703183 41:52.392748 42:52.17279 43:59.211485 44:67.119297 45:68.117545 46:74.330344 47:71.168813 48:70.5762 49:69.641941 50:61.400326 51:60.033324 52:59.169249 53:53.535035 54:43.863424 55:38.897301 56:37.536649 57:34 58:26.683328 59:30.066593 60:29.154759 61:28.284271 62:26.476405 63:36.769553 64:38.209946 65:38.288379 66:45.486262 67:54.230987 68:61.684682 69:70.519501 70:76.400262 71:85.702975 72:88.45903 73:93.770998 74:90.199778 75:87.14356 76:74.108029 77:39.319207 78:37.215588 79:42.047592 80:52.086467 81:53.150729 82:56.142675 83:65.192024 84:73.334848 85:82.734515 86:85.708809 87:92.227978 88:93.171884 89:93.145048 90:86.833173 91:81.498466 92:57.218878 93:62.289646 94:73.109507 95:82.097503 96:91.268834 97:93.263069 98:56.648036 99:45.793013 100:35.355339 101:31.400637 102:26.248809 103:26.925824 104:29.068884 105:31.304952 106:33.54102 107:36.359318 108:37.48333 109:40.311289 110:54.378304 111:60.033324 112:64.007812 113:69.079664 114:71.512237 115:72.249567 116:71.175839 117:64.007812 118:53.935146 119:52.392748 120:43.382024 
-0.3484988409887528 -1 1 1 1 1:59.033889 2:56.089215 3:53.366656 4:48.104054 5:48.466483 6:46.957428 7:45 8:44.82187 9:43.27817 10:43.185646 11:41.231056 12:41.400483 13:39.661064 14:39.824616 15:40.249224 16:39.92493 17:40.024992 18:39.623226 19:40.447497 20:40.012498 21:39 22:39.115214 23:35.510562 24:32.557641 25:27.784888 26:23.600847 27:27.802878 28:30.610456 29:31.400637 30:35.22783 31:35.510562 32:39.824616 33:42.941821 34:44.294469 35:45.177428 36:46.52956 37:56.859476 38:57.384667 39:62.03225 40:63.324561 41:74 42:88.769364 43:89.269256 44:88.283634 45:84.011904 46:80.894994 47:77.781746 48:76.655072 49:74.672619 50:72.443081 51:68.468971 52:67.601775 53:65.620119 54:64.498062 55:63.505905 56:62.39391 57:55.326305 58:48.507731 59:43.566042 60:42.426407 61:34.234486 62:33.136083 63:30.016662 64:81.098705 65:82.097503 66:83.150466 67:88.204308 68:89.106678 69:82.565126 70:77.87811 71:72.277244 72:57.939624 73:53.712196 74:52.392748 75:49.658836 76:48.332184 77:43.382024 78:42.047592 79:40.249224 80:39.824616 81:38.948684 82:38.587563 83:35.608988 84:29.832868 85:25.612497 86:24.413111 87:24.698178 88:24.186773 89:24.596748 90:24.166092 91:26.683328 92:27.658633 93:28.442925 94:28.284271 95:30.083218 96:29.154759 97:31.906112 98:31.622777 99:33.600595 100:33.42155 101:36.069378 102:37.48333 103:39.623226 104:66.241981 105:69.771054 106:71.309186 107:76.655072 108:77.369245 109:76.941536 110:76.791927 111:78.517514 112:78.160092 113:77.103826 114:74.060786 115:73.061618 116:72.027772 117:63.285069 118:63.387696 119:62.513998 120:59.841457 
-0.5311265214543528 -1 1 1 1 1:1 2:1.4142136 3:0 4:1.4142136 5:1 6:0 7:0 8:0 9:0 10:0 11:0 12:0 13:0 14:0 15:0 16:0 17:0 18:0 19:0 20:0 21:0 22:0 23:0 24:0 25:0 26:0 27:0 28:0 29:0 30:0 31:0 32:0 33:0 34:0 35:0 36:0 37:0 38:0 39:0 40:0 41:0 42:0 43:0 44:0 45:0 46:0 47:0 48:0 49:0 50:0 51:0 52:0 53:0 54:0 55:0 56:0 57:0 58:0 59:0 60:0 61:0 62:0 63:0 64:0 65:0 66:0 67:0 68:0 69:0 70:0 71:0 72:0 73:0 74:0 75:0 76:0 77:0 78:0 79:0 80:0 81:0 82:0 83:0 84:0 85:0 86:0 87:0 88:0 89:0 90:0 91:0 92:0 93:0 94:0 95:0 96:0 97:0 98:0 99:0 100:0 101:0 102:0 103:0 104:0 105:0 106:0 107:0 108:0 109:0 110:0 111:0 112:0 113:0 114:0 115:0 116:0 117:0 118:0 119:0 120:0 
-0 -1 1 1 1 1:2.236068 2:2.236068 3:2.8284271 4:3.1622777 5:3 6:2.236068 7:2.8284271 8:2.236068 9:3 10:2.236068 11:2.8284271 12:0 13:0 14:0 15:0 16:0 17:0 18:0 19:0 20:0 21:0 22:0 23:0 24:0 25:0 26:0 27:0 28:0 29:0 30:0 31:0 32:0 33:0 34:0 35:0 36:0 37:0 38:0 39:0 40:0 41:0 42:0 43:0 44:0 45:0 46:0 47:0 48:0 49:0 50:0 51:0 52:0 53:0 54:0 55:0 56:0 57:0 58:0 59:0 60:0 61:0 62:0 63:0 64:0 65:0 66:0 67:0 68:0 69:0 70:0 71:0 72:0 73:0 74:0 75:0 76:0 77:0 78:0 79:0 80:0 81:0 82:0 83:0 84:0 85:0 86:0 87:0 88:0 89:0 90:0 91:0 92:0 93:0 94:0 95:0 96:0 97:0 98:0 99:0 100:0 101:0 102:0 103:0 104:0 105:0 106:0 107:0 108:0 109:0 110:0 111:0 112:0 113:0 114:0 115:0 116:0 117:0 118:0 119:0 120:0 
-0.3751938348582751 -0.4235565439397643 1 0 0 1:2.8284271 2:2.236068 3:3 4:3.1622777 5:2.8284271 6:2 7:3.1622777 8:4.1231056 9:5 10:6 11:5 12:4.1231056 13:2.236068 14:2.236068 15:3 16:4.1231056 17:7.2111026 18:4.1231056 19:3 20:3.1622777 21:0 22:0 23:0 24:0 25:0 26:0 27:0 28:0 29:0 30:0 31:0 32:0 33:0 34:0 35:0 36:0 37:0 38:0 39:0 40:0 41:0 42:0 43:0 44:0 45:0 46:0 47:0 48:0 49:0 50:0 51:0 52:0 53:0 54:0 55:0 56:0 57:0 58:0 59:0 60:0 61:0 62:0 63:0 64:0 65:0 66:0 67:0 68:0 69:0 70:0 71:0 72:0 73:0 74:0 75:0 76:0 77:0 78:0 79:0 80:0 81:0 82:0 83:0 84:0 85:0 86:0 87:0 88:0 89:0 90:0 91:0 92:0 93:0 94:0 95:0 96:0 97:0 98:0 99:0 100:0 101:0 102:0 103:0 104:0 105:0 106:0 107:0 108:0 109:0 110:0 111:0 112:0 113:0 114:0 115:0 116:0 117:0 118:0 119:0 120:0 
-0.2444266305978849 -0.7133781215916331 1 0.8217969036546001 1 1:58.668561 2:61.294372 3:63.071388 4:65.192024 5:64.513564 6:62.641839 7:60.207973 8:59.841457 9:58.694122 10:57.31492 11:57.008771 12:64.381674 13:64.498062 14:65.620119 15:68.731361 16:70.035705 17:73.545904 18:75.186435 19:74.215901 20:72.532751 21:69.641941 22:68.942005 23:69.354164 24:68 25:61.05735 26:58.830264 27:54.378304 28:41.868843 29:43.185646 30:39.698866 31:31.906112 32:29.529646 33:25.495098 34:23.194827 35:28.071338 36:28.442925 37:26.925824 38:25.298221 39:25.942244 40:30.479501 41:34.655447 42:35.355339 43:41.10961 44:45 45:50.219518 46:52.430907 47:54.644304 48:60.539243 49:65.368188 50:65.764732 51:72.470684 52:85.615419 53:87.091905 54:88.255311 55:86.400231 56:85.164547 57:83.432608 58:77.620873 59:71.309186 60:67.186308 61:65.253352 62:64.031242 63:63.06346 64:58.694122 65:55.785303 66:52.630789 67:51.419841 68:50.447993 69:46.097722 70:35.902646 71:30.805844 72:26.925824 73:21.84033 74:24.041631 75:37.854986 76:41 77:47.296934 78:50.219518 79:51.419841 80:53.366656 81:54.571055 82:60.638272 83:71.309186 84:76.400262 85:77.620873 86:79.555012 87:82.969874 88:84.480767 89:85.726309 90:87.664132 91:78.262379 92:76.922038 93:73.3553 94:59.682493 95:45.607017 96:44.82187 97:43.416587 98:41.868843 99:40.459857 100:35.355339 101:29.068884 102:28.425341 103:21.213203 104:30 105:35.735137 106:35.1141 107:35.468296 108:31.064449 109:30.805844 110:29.832868 111:31.827661 112:33.24154 113:33.970576 114:36.878178 115:38.288379 116:40.607881 117:43.84062 118:45.276926 119:46.861498 120:54.644304 
-0 -1 0 1 1 1:3.1622777 2:2 3:2.8284271 4:3.1622777 5:4.1231056 6:3 7:3.6055513 8:3.6055513 9:3.6055513 10:2.8284271 11:0 12:0 13:0 14:0 15:0 16:0 17:0 18:0 19:0 20:0 21:0 22:0 23:0 24:0 25:0 26:0 27:0 28:0 29:0 30:0 31:0 32:0 33:0 34:0 35:0 36:0 37:0 38:0 39:0 40:0 41:0 42:0 43:0 44:0 45:0 46:0 47:0 48:0 49:0 50:0 51:0 52:0 53:0 54:0 55:0 56:0 57:0 58:0 59:0 60:0 61:0 62:0 63:0 64:0 65:0 66:0 67:0 68:0 69:0 70:0 71:0 72:0 73:0 74:0 75:0 76:0 77:0 78:0 79:0 80:0 81:0 82:0 83:0 84:0 85:0 86:0 87:0 88:0 89:0 90:0 91:0 92:0 93:0 94:0 95:0 96:0 97:0 98:0 99:0 100:0 101:0 102:0 103:0 104:0 105:0 106:0 107:0 108:0 109:0 110:0 111:0 112:0 113:0 114:0 115:0 116:0 117:0 118:0 119:0 120:0 
-0 -1 1 1 1 1:2.236068 2:1.4142136 3:2 4:2.8284271 5:2.236068 6:1 7:1.4142136 8:2 9:2.236068 10:2.236068 11:3.1622777 12:2.8284271 13:0 14:0 15:0 16:0 17:0 18:0 19:0 20:0 21:0 22:0 23:0 24:0 25:0 26:0 27:0 28:0 29:0 30:0 31:0 32:0 33:0 34:0 35:0 36:0 37:0 38:0 39:0 40:0 41:0 42:0 43:0 44:0 45:0 46:0 47:0 48:0 49:0 50:0 51:0 52:0 53:0 54:0 55:0 56:0 57:0 58:0 59:0 60:0 61:0 62:0 63:0 64:0 65:0 66:0 67:0 68:0 69:0 70:0 71:0 72:0 73:0 74:0 75:0 76:0 77:0 78:0 79:0 80:0 81:0 82:0 83:0 84:0 85:0 86:0 87:0 88:0 89:0 90:0 91:0 92:0 93:0 94:0 95:0 96:0 97:0 98:0 99:0 100:0 101:0 102:0 103:0 104:0 105:0 106:0 107:0 108:0 109:0 110:0 111:0 112:0 113:0 114:0 115:0 116:0 117:0 118:0 119:0 120:0 
-0 -0 0 1 0 1:3.037e+09 2:0 3:0 4:0 5:0 6:0 7:0 8:0 9:0 10:0 11:0 12:0 13:0 14:0 15:0 16:0 17:0 18:0 19:0 20:0 21:0 22:0 23:0 24:0 25:0 26:0 27:0 28:0 29:0 30:0 31:0 32:0 33:0 34:0 35:0 36:0 37:0 38:0 39:0 40:0 41:0 42:0 43:0 44:0 45:0 46:0 47:0 48:0 49:0 50:0 51:0 52:0 53:0 54:0 55:0 56:0 57:0 58:0 59:0 60:0 61:0 62:0 63:0 64:0 65:0 66:0 67:0 68:0 69:0 70:0 71:0 72:0 73:0 74:0 75:0 76:0 77:0 78:0 79:0 80:0 81:0 82:0 83:0 84:0 85:0 86:0 87:0 88:0 89:0 90:0 91:0 92:0 93:0 94:0 95:0 96:0 97:0 98:0 99:0 100:0 101:0 102:0 103:0 104:0 105:0 106:0 107:0 108:0 109:0 110:0 111:0 112:0 113:0 114:0 115:0 116:0 117:0 118:0 119:0 120:0 
-0 -0 0 1 0 1:3.037e+09 2:0 3:0 4:0 5:0 6:0 7:0 8:0 9:0 10:0 11:0 12:0 13:0 14:0 15:0 16:0 17:0 18:0 19:0 20:0 21:0 22:0 23:0 24:0 25:0 26:0 27:0 28:0 29:0 30:0 31:0 32:0 33:0 34:0 35:0 36:0 37:0 38:0 39:0 40:0 41:0 42:0 43:0 44:0 45:0 46:0 47:0 48:0 49:0 50:0 51:0 52:0 53:0 54:0 55:0 56:0 57:0 58:0 59:0 60:0 61:0 62:0 63:0 64:0 65:0 66:0 67:0 68:0 69:0 70:0 71:0 72:0 73:0 74:0 75:0 76:0 77:0 78:0 79:0 80:0 81:0 82:0 83:0 84:0 85:0 86:0 87:0 88:0 89:0 90:0 91:0 92:0 93:0 94:0 95:0 96:0 97:0 98:0 99:0 100:0 101:0 102:0 103:0 104:0 105:0 106:0 107:0 108:0 109:0 110:0 111:0 112:0 113:0 114:0 115:0 116:0 117:0 118:0 119:0 120:0 
-0.8146748050756639 -1 -0.4809889486034295 1 0.6956100378607982 1:16.401219 2:20.615528 3:21.400935 4:26.07681 5:27.294688 6:26.925824 7:26.570661 8:27.202941 9:26.925824 10:28.635642 11:32.388269 12:36.013886 13:47.539457 14:40.706265 15:38.948684 16:38.275318 17:37.20215 18:34.409301 19:34.985711 20:36.235342 21:38.483763 22:42.449971 23:40.792156 24:41.10961 25:45.099889 26:50.596443 27:49.396356 28:42.011903 29:43.011626 30:43.266615 31:42.544095 32:37.64306 33:31.144823 34:37.363083 35:36.055513 36:35.846897 37:31.38471 38:36.796739 39:44.204072 40:48.826222 41:56.603887 42:65.368188 43:66.640828 44:62.39391 45:45.188494 46:41.231056 47:36.769553 48:25.059928 49:38.078866 50:41.231056 51:46.097722 52:61.684682 53:62.03225 54:65.368188 55:39.698866 56:32.649655 57:34.014703 58:36.769553 59:36.687873 60:37.363083 61:33.060551 62:32.140317 63:31.400637 64:33.54102 65:42.544095 66:43.011626 67:49.929951 68:51.264022 69:49.030603 70:46.389654 71:45.177428 72:45.044423 73:41.048752 74:42.449971 75:41.761226 76:41.785165 77:39.92493 78:39.395431 79:38.013156 80:37.121422 81:35.510562 82:34.669872 83:34.409301 84:33.970576 85:35.383612 86:35.468296 87:39.824616 88:40.706265 89:31.400637 90:26.925824 91:25.806976 92:17.204651 93:19.416488 94:28.178006 95:54.781384 96:60.406953 97:61.66036 98:54.589376 99:50.487622 100:45.398238 101:42.190046 102:31.016125 103:27.018512 104:26.07681 105:22.090722 106:26.07681 107:32.015621 108:38.052595 109:41.19466 110:45.398238 111:50.487622 112:58.694122 113:60.671245 114:49.769469 115:42.154478 116:33.54102 117:24.186773 118:21.095023 119:18.027756 120:15.264338 
-0 -0.485244413419712 -0 0.9372193446299492 0.7590852711218977 1:34.058773 2:33.734256 3:34.928498 4:35.171011 5:38.587563 6:39.661064 7:38.897301 8:40.459857 9:40.607881 10:45.486262 11:46.52956 12:49.729267 13:49.477268 14:50.990195 15:50.803543 16:51.351728 17:52.239832 18:52.773099 19:51.971146 20:52.201533 21:52.497619 22:47.010637 23:45.188494 24:44.777226 25:44.102154 26:44.407207 27:41.231056 28:40.360872 29:40.311289 30:40.459857 31:39.824616 32:40.496913 33:41.677332 34:43.416587 35:44.94441 36:50.960769 37:52.886671 38:56.515485 39:56.293872 40:58.855756 41:61.400326 42:63.285069 43:63.031738 44:62.008064 45:62 46:51.156622 47:45.044423 48:41 49:40 50:38.013156 51:38.052595 52:36.221541 53:32.388269 54:31.575307 55:29.832868 56:25.632011 57:18.11077 58:17.117243 59:16.03122 60:16 61:11.661904 62:13.453624 63:16.278821 64:24.186773 65:24.596748 66:25.942244 67:26.832816 68:28.178006 69:30.870698 70:32.202484 71:49.040799 72:55.362442 73:69.641941 74:69.375788 75:69.856997 76:71.19691 77:70.349129 78:66.121101 79:55.081757 80:46 81:34.014703 82:32.140317 83:31.144823 84:21.84033 85:21.540659 86:25.495098 87:30.870698 88:33.105891 89:36.769553 90:38.078866 91:41.785165 92:43.081318 93:44.011362 94:46.615448 95:47.539457 96:51.078371 97:54.230987 98:62.241465 99:69.354164 100:71.112587 101:72.945185 102:72.401657 103:64.63745 104:63.82006 105:62.425956 106:52.630789 107:51.088159 108:49.678969 109:46.754679 110:44.598206 111:43.139309 112:41.725292 113:39.59798 114:34.205263 115:30.805844 116:27.784888 117:25.059928 118:34.71311 119:35.510562 120:34.014703 
-1 -1 -0.4872194878145729 0.3641408488416603 0.6932905033733978 1:18.384776 2:18.601075 3:18.027756 4:18.35756 5:17.464249 6:20.223748 7:20.099751 8:25.179357 9:25.317978 10:26.476405 11:26.925824 12:28.160256 13:28.460499 14:32.310989 15:33.24154 16:35.846897 17:37.121422 18:36.71512 19:35.846897 20:37.215588 21:37.589892 22:35.468296 23:34.176015 24:33.24154 25:28.160256 26:27.892651 27:26.683328 28:26.476405 29:25.317978 30:25.079872 31:19.416488 32:19.646883 33:17.888544 34:18.35756 35:18.027756 36:19.209373 37:19.104973 38:15.264338 39:15.652476 40:14.866069 41:15.524175 42:15.297059 43:14.56022 44:17.204651 45:20 46:21.260292 47:21.213203 48:20.518285 49:20.808652 50:20.248457 51:21.023796 52:19.924859 53:20.615528 54:20.223748 55:24.020824 56:25.019992 57:27.166155 58:27.45906 59:28.635642 60:29.12044 61:35.468296 62:36.249138 63:40.249224 64:42.190046 65:41.880783 66:42.190046 67:40.706265 68:38.013156 69:37.576588 70:36.249138 71:35.846897 72:30.675723 73:30.364453 74:29.12044 75:28.635642 76:27.45906 77:27.294688 78:23 79:22 80:21.023796 81:21.095023 82:20.223748 83:20.615528 84:19.924859 85:20.615528 86:19.723083 87:20.248457 88:19.849433 89:20.518285 90:20.615528 91:17.804494 92:14.317821 93:15.132746 94:15.524175 95:14.866069 96:15.231546 97:14.764823 98:0 99:0 100:0 101:0 102:0 103:0 104:0 105:0 106:0 107:0 108:0 109:0 110:0 111:0 112:0 113:0 114:0 115:0 116:0 117:0 118:0 119:0 120:0 
-0.2911905011657956 -0.8621154687343313 -0.7056812269427707 1 1 1:55.081757 2:55.542776 3:55.901699 4:56.435804 5:57.078893 6:61.400326 7:60.671245 8:60.827625 9:59.439044 10:57.870545 11:57.271284 12:55.461698 13:51.884487 14:45.793013 15:36.055513 16:37 17:40.024992 18:39.293765 19:38.275318 20:39.217343 21:39.560081 22:39.115214 23:36.124784 24:34.525353 25:39.293765 26:39.849718 27:45.793013 28:46.872167 29:47.381431 30:58.180753 31:55.317267 32:53.488316 33:45.221676 34:40.459857 35:40.360872 36:38.288379 37:48.270074 38:57.078893 39:58.034473 40:57.078893 41:55.326305 42:54.332311 43:45.398238 44:40.199502 45:35 46:34 47:25.632011 48:13.928388 49:11.401754 50:18.35756 51:19.723083 52:21.954498 53:24.186773 54:27.294688 55:44.598206 56:51.623638 57:56.648036 58:57.870545 59:64.031242 60:65 61:59.539903 62:57.31492 63:55.226805 64:45.099889 65:33.24154 66:26.172505 67:25 68:35.846897 69:41.182521 70:56.824291 71:60.41523 72:72.945185 73:70.802542 74:65.436993 75:59.665736 76:58.898217 77:44.598206 78:37.64306 79:36.400549 80:33.286634 81:43.863424 82:49.517674 83:50.931326 84:64.031242 85:71.610055 86:72.401657 87:69.835521 88:51.884487 89:48.764741 90:47.413078 91:45.177428 92:44.294469 93:28.84441 94:27.202941 95:22.022716 96:17.888544 97:65.306967 98:64.031242 99:62.361847 100:55.713553 101:51.623638 102:50.695167 103:34.438351 104:29.966648 105:23.706539 106:11.18034 107:27.513633 108:40.112342 109:42.190046 110:53.460266 111:56.0803 112:46.324939 113:41.231056 114:39.824616 115:38.897301 116:38.897301 117:40.360872 118:40.459857 119:44.94441 120:52.554733 
-0 -0.8256801337017067 -1 1 1 1:42.720019 2:43.266615 3:42.43819 4:42.011903 5:38.897301 6:39.051248 7:42.43819 8:44.418465 9:45.276926 10:45.650849 11:46.52956 12:46.518813 13:47.539457 14:47.169906 15:48.383882 16:52.952809 17:55.326305 18:55.081757 19:54.332311 20:54.589376 21:53.75872 22:54.129474 23:53.600373 24:53.160135 25:52.497619 26:50.596443 27:49.979996 28:46.615448 29:45.310043 30:43.046487 31:44.102154 32:43.600459 33:42.011903 34:39.623226 35:38.288379 36:37.64306 37:42.059482 38:45.891176 39:49.497475 40:54.147945 41:54.083269 42:57.218878 43:56.320511 44:52.469038 45:44.553339 46:43.416587 47:39.319207 48:37.336309 49:35.057096 50:31.016125 51:29.154759 52:20.396078 53:19.416488 54:13 55:24.186773 56:25.553865 57:27.294688 58:30.88689 59:33.615473 60:35.846897 61:37.589892 62:52 63:53.310412 64:54.230987 65:61.465437 66:65.787537 67:67.067131 68:70.604532 69:69.42622 70:69.050706 71:50.635956 72:49.497475 73:47.518417 74:45.276926 75:44.28318 76:34.058773 77:32.062439 78:31.016125 79:30.016662 80:29 81:28 82:23.194827 83:22.36068 84:29.12044 85:30.364453 86:34.205263 87:38.600518 88:40.521599 89:43.680659 90:50 91:56.753854 92:57.974132 93:58.940648 94:61.131007 95:62.361847 96:63.324561 97:64.56005 98:65.520989 99:66.760767 100:70.213959 101:70.837843 102:72.111026 103:73.164199 104:70.774289 105:70.263789 106:63.06346 107:61.717096 108:59.059292 109:51.971146 110:47.707442 111:46.324939 112:41.617304 113:37.013511 114:32.015621 115:38.948684 116:39.357337 117:38.910153 118:35.057096 119:30.413813 120:29.614186 
-0 -1 -1 1 1 1:2.236068 2:2.236068 3:2.236068 4:2.236068 5:2.236068 6:2.236068 7:2.236068 8:2.236068 9:0 10:0 11:0 12:0 13:0 14:0 15:0 16:0 17:0 18:0 19:0 20:0 21:0 22:0 23:0 24:0 25:0 26:0 27:0 28:0 29:0 30:0 31:0 32:0 33:0 34:0 35:0 36:0 37:0 38:0 39:0 40:0 41:0 42:0 43:0 44:0 45:0 46:0 47:0 48:0 49:0 50:0 51:0 52:0 53:0 54:0 55:0 56:0 57:0 58:0 59:0 60:0 61:0 62:0 63:0 64:0 65:0 66:0 67:0 68:0 69:0 70:0 71:0 72:0 73:0 74:0 75:0 76:0 77:0 78:0 79:0 80:0 81:0 82:0 83:0 84:0 85:0 86:0 87:0 88:0 89:0 90:0 91:0 92:0 93:0 94:0 95:0 96:0 97:0 98:0 99:0 100:0 101:0 102:0 103:0 104:0 105:0 106:0 107:0 108:0 109:0 110:0 111:0 112:0 113:0 114:0 115:0 116:0 117:0 118:0 119:0 120:0 
-1 -1 -1 1 1 1:2.236068 2:2.236068 3:2.236068 4:2.236068 5:2.236068 6:2.236068 7:2.236068 8:2.236068 9:0 10:0 11:0 12:0 13:0 14:0 15:0 16:0 17:0 18:0 19:0 20:0 21:0 22:0 23:0 24:0 25:0 26:0 27:0 28:0 29:0 30:0 31:0 32:0 33:0 34:0 35:0 36:0 37:0 38:0 39:0 40:0 41:0 42:0 43:0 44:0 45:0 46:0 47:0 48:0 49:0 50:0 51:0 52:0 53:0 54:0 55:0 56:0 57:0 58:0 59:0 60:0 61:0 62:0 63:0 64:0 65:0 66:0 67:0 68:0 69:0 70:0 71:0 72:0 73:0 74:0 75:0 76:0 77:0 78:0 79:0 80:0 81:0 82:0 83:0 84:0 85:0 86:0 87:0 88:0 89:0 90:0 91:0 92:0 93:0 94:0 95:0 96:0 97:0 98:0 99:0 100:0 101:0 102:0 103:0 104:0 105:0 106:0 107:0 108:0 109:0 110:0 111:0 112:0 113:0 114:0 115:0 116:0 117:0 118:0 119:0 120:0 
-0.08974440523865923 -0.2028173400432368 -0.4828254489773255 0.699471604016116 1 1:63.245553 2:63.890531 3:62.801274 4:61.66036 5:61.294372 6:54.589376 7:55.785303 8:55.362442 9:55.713553 10:53.535035 11:53.254108 12:50.803543 13:49.819675 14:49.517674 15:48.795492 16:47.423623 17:47.201695 18:50.921508 19:59.228372 20:63.63961 21:64.629715 22:70.028566 23:70.710678 24:67.896981 25:50.358713 26:43 27:42 28:38.470768 29:34.205263 30:33.526109 31:24.698178 32:17.464249 33:16.124515 34:16.124515 35:24.839485 36:30.610456 37:31.400637 38:32.802439 39:36.400549 40:37.20215 41:41.400483 42:45 43:54.378304 44:55.758407 45:58.309519 46:68.476273 47:71.119618 48:73.3553 49:74.706091 50:78.262379 51:83.384651 52:80.956779 53:78.447435 54:77.491935 55:67.446275 56:64.56005 57:55.542776 58:47.074409 59:42.755117 60:40.792156 61:23.537205 62:25.96151 63:33.955854 64:35.171011 65:44.72136 66:46.389654 67:49.36598 68:50.487622 69:50.635956 70:53.150729 71:65.306967 72:66.287254 73:76.687678 74:80.808415 75:82 76:84.929382 77:89.84431 78:90.138782 79:76.157731 80:73.006849 81:71.693793 82:64.884513 83:63.505905 84:61.269895 85:59.481089 86:57.706152 87:56.356011 88:46.324939 89:44.654227 90:33.301652 91:34.82815 92:35.608988 93:37.802116 94:40.607881 95:42.801869 96:47.434165 97:48.373546 98:47.88528 99:41.048752 100:39.012818 101:39.051248 102:38.832976 103:36.138622 104:35.1141 105:35.468296 106:34 107:34.985711 108:38.897301 109:39.293765 110:46.872167 111:49.244289 112:52.810984 113:54.129474 114:54.120237 115:53.235327 116:54.81788 117:55.803226 118:56.302753 119:59.539903 120:61.294372 
-1 -1 -1 1 1 1:3.0370001e+09 2:0 3:0 4:0 5:0 6:0 7:0 8:0 9:0 10:0 11:0 12:0 13:0 14:0 15:0 16:0 17:0 18:0 19:0 20:0 21:0 22:0 23:0 24:0 25:0 26:0 27:0 28:0 29:0 30:0 31:0 32:0 33:0 34:0 35:0 36:0 37:0 38:0 39:0 40:0 41:0 42:0 43:0 44:0 45:0 46:0 47:0 48:0 49:0 50:0 51:0 52:0 53:0 54:0 55:0 56:0 57:0 58:0 59:0 60:0 61:0 62:0 63:0 64:0 65:0 66:0 67:0 68:0 69:0 70:0 71:0 72:0 73:0 74:0 75:0 76:0 77:0 78:0 79:0 80:0 81:0 82:0 83:0 84:0 85:0 86:0 87:0 88:0 89:0 90:0 91:0 92:0 93:0 94:0 95:0 96:0 97:0 98:0 99:0 100:0 101:0 102:0 103:0 104:0 105:0 106:0 107:0 108:0 109:0 110:0 111:0 112:0 113:0 114:0 115:0 116:0 117:0 118:0 119:0 120:0 
