svm_type c_svc
kernel_type rbf
gamma 2.7778e-05
nr_class 11
total_sv 789
rho 0.249761 0.345996 -0.533449 -0.495611 -0.195605 -0.536389 0.37772 -0.257832 -0.203213 -0.665821 -0.158819 -0.714641 -0.49109 -0.703218 -0.820264 -0.286205 -0.33406 -0.484498 -1.72808 -0.745054 -0.52586 -0.667893 -0.787908 -0.0776079 -0.516576 -0.489735 -1.66329 0.615265 0.691758 -0.204177 0.490895 0.69032 0.51694 -0.065995 0.144255 -0.366324 0.484694 0.634941 0.540845 -0.489512 -0.535548 0.254027 0.152056 -0.19111 -1.60541 0.554636 0.632703 0.310537 -0.0813869 -0.757486 -0.38094 -0.877838 -0.246623 -0.937999 -1.22337
label 1 2 3 4 5 6 7 8 9 10 11
probA -4.41222 -4.65754 -4.28176 -4.42072 -4.66552 -4.17497 -4.13573 -3.715 -4.69561 -4.27518 -3.84231 -4.20839 -4.34286 -4.43629 -4.30094 -4.42255 -4.55027 -4.65508 -4.76752 -4.28279 -4.36867 -4.08791 -4.31143 -4.20927 -3.9527 -4.45293 -4.22284 -4.62334 -4.3313 -4.26142 -4.287 -4.34161 -3.74936 -4.16312 -4.27633 -4.18031 -4.39643 -4.6049 -4.11974 -4.26017 -4.10752 -4.32052 -4.84791 -4.05559 -4.4391 -4.19978 -4.10508 -4.1913 -4.00157 -4.71653 -4.62029 -4.12301 -4.87661 -4.70106 -4.71575
probB 0.0321621 0.135984 -0.0327258 -0.158488 -0.0931965 -0.11003 -0.311054 0.122354 -0.0769139 -0.305978 0.201413 0.0443663 -0.236495 0.153532 -0.160296 0.35953 -0.222836 0.268825 -0.0407028 -0.134122 -0.26271 -0.010548 -0.534669 0.551757 -0.0472476 -0.153421 -0.465227 -0.728241 0.0830505 0.0278552 -0.00301151 -0.0167765 0.861587 -0.186945 0.217944 0.0791684 0.0911247 0.181226 0.608878 0.0128138 -0.931247 0.539594 0.560959 0.753066 -0.0960622 0.0542716 0.174974 0.915811 0.16484 -0.210269 -0.369152 -0.483216 0.27611 -0.691127 -0.389314
nr_sv 74 70 80 62 64 87 54 75 82 65 76
SV
0.01114010167039349 0.02034688677889452 0.03168442409790379 0 0 0.09176121174285677 0 0 0 0 1:76.2365 2:75.326 3:75.4255 4:74.049 5:72.6911 6:25.0799 7:24.1334 8:25.807 9:27.3225 10:29.6816 11:31.0644 12:32.5964 13:34.1321 14:35.5106 15:37.0476 16:38.5876 17:40.8199 18:43.0465 19:44.7772 20:46.5759 21:48.3735 22:50.1199 23:52.3567 24:54.5894 25:57.9184 26:61.2699 27:62.6099 28:65.0734 29:66.6408 30:74.7061 31:76.4916 32:75.4718 33:73.9185 34:71.2811 35:68.0074 36:65.4068 37:62.8013 38:60.4401 39:57.8807 40:55.3173 41:51.6382 42:49.4975 43:48.0833 44:45.3045 45:43.2782 46:41.8688 47:39.9062 48:38.6005 49:36.9109 50:35.2278 51:34.6699 52:32.7678 53:30.8869 54:29.5466 55:33.5381 56:53.2259 57:55.6859 58:58.1808 59:70.4911 60:72.0314 61:74.4312 62:75.1798 63:73.1201 64:71.5891 65:70.0604 66:67.2309 67:66.8506 68:62.7971 69:58.8218 70:58.5235 71:53.4835 72:42.0476 73:41.0122 74:40.05 75:39.1152 76:39.0491 77:40.1622 78:39.5601 79:41.8684 80:43.2666 81:43.9167 82:44.6878 83:46.6905 84:47.0252 85:47.4236 86:48.1664 87:48.8093 88:49.4065 89:50.3486 90:52.1536 91:52.4786 92:53.5254 93:54.5894 94:57.0088 95:56.9466 96:56.6127 97:57.7604 98:62.8013 99:62.2896 100:61.1187 101:57.0351 102:56.0089 103:55.6847 104:55.5788 105:54.9269 106:54.3415 107:55.6597 108:55.1949 109:54.7814 110:55.1543 111:54.8312 112:54.1202 113:54.0622 114:54.0833 115:53.6004 116:53.4305 117:53.3385 118:56.0803 119:57.2967 120:57.2451 121:59.0718 122:59.6657 123:59.439 124:60.1123 125:60.8276 126:60.6712 127:64.1599 128:65.0692 129:62.1521 130:57.3149 131:56.4358 132:54.3324 133:52.2398 134:51.2445 135:46.5107 136:46 137:42.2433 138:35.8469 139:34.9285 140:33.1016 141:30.4138 142:29.5296 143:27.7455 144:26 145:24.9918 146:24.0416 147:25.2982 148:27.0658 149:28.178 150:29.5296 151:31.2174 152:32.45 153:34.7234 154:37.0135 155:38.9487 156:41.0431 157:43.1393 158:44.5533 159:47.0669 160:49.5782 161:54.1157 162:58.0086 163:59.4054 164:61.1636 165:65.5134 166:68.0294 167:67.8891 168:67.7791 169:66.3059 170:64.846 171:63.9062 172:61.6856 173:59.4643 174:56.648 175:53.0288 176:49.3964 177:46.889 178:44.3847 179:43.0813 180:40.578 181:38.0789 182:36.7696 183:35.1934 184:33.6155 185:31.387 186:29.1548 187:28.2312 188:26.0028 189:21.1896 190:20.8806 191:22.074 192:23.7697 193:44.8421 194:55.2268 195:56.1427 196:64.597 197:68.0661 198:69.029 199:72.5443 200:75.1066 
0.3932012515038408 0.1828368520012437 0 0.01463691322654112 0.03899412398516726 0.02554567854055772 0.1789229558899514 0 0.0177304743989369 0 1:76.2955 2:75.505 3:74.9629 4:68.4105 5:64.2933 6:60.1664 7:52.8262 8:40.8534 9:37.2443 10:33.6155 11:29.3011 12:23.3238 13:22.6127 14:22.0227 15:24.7487 16:26.1725 17:29.3661 18:32.5576 19:34.0074 20:35.4683 21:38.6698 22:40.4599 23:41.9345 24:43.4166 25:46.6192 26:48.4149 27:49.905 28:51.4004 29:53.6037 30:55.8032 31:57.3107 32:58.8218 33:60.6245 34:62.426 35:63.9415 36:70.3365 37:76.4003 38:76.5271 39:76.6942 40:72.2115 41:69.3109 42:67.1825 43:65.0538 44:63.6435 45:62.2415 46:60.4846 47:58.7282 48:56.6789 49:55.3173 50:53.5854 51:51.8556 52:49.905 53:48.6004 54:46.9086 55:45.2217 56:43.9604 57:42.19 58:39.1974 59:37.5899 60:35.7799 61:34.0147 62:31.2004 63:29.7321 64:28.7856 65:28.8617 66:29.4506 67:36.2215 68:37.8319 69:41.1006 70:43.9318 71:45.5044 72:47.0744 73:51.1788 74:55.3624 75:60.1133 76:64.846 77:69.1757 78:70.9366 79:74.9727 80:74.9466 81:74.9574 82:73.7631 83:71.1863 84:59.4138 85:54.7104 86:50 87:47.5421 88:44.2832 89:42.4415 90:40.6079 91:39.1725 92:38.6005 93:38.5863 94:38.6264 95:38.7181 96:38.9487 97:39.8118 98:40.8044 99:41.2384 100:41.7732 101:43.1393 102:44.643 103:45.4533 104:46.2097 105:47.5079 106:48.7835 107:50.0899 108:51.0225 109:56.5155 110:59.2476 111:62.0322 112:61.0041 113:58.0775 114:56.6108 115:56.2228 116:55.5289 117:54.9181 118:54.9442 119:54.8179 120:54.5738 121:54.4243 122:54.8902 123:55.0364 124:54.7855 125:54.5894 126:54.7255 127:54.9181 128:53.5854 129:54.3783 130:54.2205 131:54.1202 132:54.3457 133:55.1543 134:55.0719 135:57.522 136:59.8415 137:60.6011 138:62.2896 139:63.1358 140:64.0312 141:65.0038 142:66.0076 143:65.5956 144:65.192 145:58.0529 146:54.9181 147:52.7794 148:50.636 149:45.0722 150:43 151:42.5296 152:42.107 153:39.541 154:36.0555 155:28.8168 156:25.9615 157:24.627 158:23.3452 159:26.164 160:27.7849 161:29.6936 162:31.6228 163:34.1248 164:37.4833 165:40.7089 166:43.9318 167:49.3002 168:62.8566 169:64.846 170:67.2419 171:67.6757 172:65.5246 173:63.3246 174:59.6884 175:56.0446 176:47.7557 177:42.3792 178:40.1635 179:37.9473 180:34.476 181:31.9531 182:29.734 183:27.5136 184:24.0538 185:22.4722 186:19.6707 187:20.2237 188:32.6004 189:37.054 190:40.5124 191:44 192:48.5051 193:52.0096 194:54.5367 195:57.0789 196:61.6013 197:65.123 198:66.6877 199:68.2642 200:72.0367 
0.1002713831808023 0.0948297396721829 0 0.1644328880505622 0 0 1 0.8814601783620645 0.04139748480364128 0 1:75.0267 2:73.1095 3:72.111 4:63.2013 5:54.3323 6:44.9758 7:36.6742 8:32.5115 9:27.8927 10:23.7255 11:21.5407 12:21.1123 13:23.0217 14:23.8537 15:26.0823 16:28.3019 17:29.8417 18:31.3847 19:33.6193 20:35.8469 21:38.2693 22:40.7063 23:42.9443 24:45.1774 25:46.7391 26:50.0899 27:51.4296 28:55.7006 29:60.0083 30:62.2428 31:64.4748 32:70.0386 33:76.5376 34:72.8476 35:68.5055 36:64.5175 37:61.4003 38:58.4253 39:55.4437 40:53.1507 41:50.6287 42:48.1041 43:44.5702 44:41.8688 45:39.8322 46:37.8021 47:36.5036 48:34.6699 49:33.0217 50:31.3847 51:29.7413 52:27.8568 53:29.1204 54:30.4445 55:32.7567 56:34.4422 57:37.3631 58:42.1039 59:46.8188 60:48.2853 61:56.3649 62:63.5628 63:71.1969 64:72.5603 65:75.6031 66:74.3236 67:72.8111 68:71.3092 69:69.6443 70:68.0074 71:60.3032 72:54.1295 73:47.0237 74:40.1995 75:39.5656 76:39.0512 77:40.1622 78:41.0521 79:42.19 80:45.5301 81:46.7547 82:47.3869 83:48.1041 84:48.8774 85:49.679 86:50.213 87:50.8035 88:52.5641 89:53.535 90:53.8516 91:55.7839 92:56.4624 93:56.8284 94:57.2451 95:58.8268 96:63.561 97:61.9572 98:61.2944 99:57.6923 100:56.0357 101:55.204 102:54.4518 103:55.5428 104:55.0902 105:54.7083 106:54.7258 107:55.1543 108:54.8312 109:54.5619 110:54.6062 111:54.7083 112:53.9018 113:54.037 114:54.6717 115:55.6267 116:57.3062 117:59.0945 118:60.9262 119:63.091 120:67.2681 121:63.7015 122:60.0333 123:57.5087 124:55.0364 125:53.5609 126:52.0865 127:51.1566 128:49.2666 129:47.3814 130:39.8534 131:38.0789 132:31.0699 133:27.2947 134:25.7187 135:24.1661 136:23.7255 137:23.3452 138:24.1038 139:25.0799 140:25.318 141:26.5799 142:27.8927 143:28.7856 144:29.7321 145:31.2004 146:32.6956 147:33.7721 148:34.8855 149:36.4752 150:38.0789 151:39.8061 152:41.0488 153:42.4382 154:43.7094 155:45.607 156:47.6404 157:49.679 158:51.6962 159:53.7587 160:55.8705 161:57.9828 162:64.7379 163:65.6049 164:66.888 165:66.5505 166:66.242 167:64.6486 168:63.0635 169:61.5024 170:59.9416 171:58.149 172:56.356 173:53.0334 174:50.6063 175:48.3761 176:46.1411 177:45.2769 178:43.4777 179:41.6773 180:40.1314 181:38.5876 182:36.7875 183:34.9857 184:33.4444 185:31.9061 186:30.1052 187:28.3019 188:26.7679 189:25.2389 190:22.4722 191:20.2506 192:18.3576 193:21.0988 194:24.6982 195:35.7858 196:62.8013 197:65.6207 198:68.469 199:71.7615 200:74.027 
0.07043043296616323 0.2479089111311401 0 0.126489528421958 0 0 0 0.4853059498201247 0 0 1:74.7329 2:73.9797 3:73.1704 4:66.4078 5:61.125 6:55.9464 7:45.967 8:36.1248 9:30.8195 10:27.2947 11:28.4068 12:30.4631 13:33.3235 14:36.2353 15:38.0806 16:39.9625 17:42.9933 18:44.6542 19:45.9186 20:47.2017 21:49.21 22:51.225 23:52.5595 24:53.9073 25:55.6452 26:57.3847 27:58.758 28:60.1415 29:61.8982 30:72.1388 31:75.1797 32:71.6101 33:69.6396 34:67.6757 35:65.8826 36:64.6607 37:63.0272 38:61.4003 39:59.7373 40:58.5918 41:57.0215 42:55.4617 43:54.3743 44:53.3104 45:51.8118 46:50.3289 47:48.7071 48:47.1275 49:45.7436 50:44.3847 51:43.5505 52:42.7551 53:41.4485 54:40.1995 55:40.5798 56:41.7732 57:43.4597 58:45.2217 59:51.176 60:54.037 61:54.5671 62:55.1725 63:56.885 64:56.6127 65:57.9852 66:60.208 67:62.964 68:61.4654 69:60.1675 70:56.648 71:55.7035 72:54.1479 73:55.1543 74:54.3323 75:54.34 76:54.8179 77:54.4143 78:54.0833 79:54.138 80:55.4617 81:55.4777 82:55.5698 83:55.9194 84:56.3028 85:56.1018 86:56.2228 87:56.789 88:57.3847 89:58.3559 90:59.4138 91:61.6684 92:63.2535 93:63.8071 94:64.405 95:66.1588 96:67.1193 97:68.1712 98:69.7711 99:63.8419 100:58.3095 101:53.3338 102:48.7473 103:47.8853 104:46.8291 105:45.793 106:45.0702 107:44.4072 108:42.7199 109:41.8688 110:41.0422 111:40.3113 112:35.6094 113:31.8904 114:29.7397 115:27.5862 116:25.0392 117:24.6982 118:25.816 119:26.2488 120:27.1229 121:29.2746 122:38.3992 123:39.6232 124:41.1905 125:41.9762 126:50.759 127:56.0803 128:57.7778 129:59.5063 130:61.0529 131:62.6099 132:64.207 133:66.888 134:64.1655 135:55.9732 136:52.4981 137:49.0408 138:34.6026 139:18.868 140:17.117 141:18.3848 142:20.1586 143:23.3452 144:24.7891 145:26.2488 146:28.042 147:29.8329 148:31.313 149:33.6006 150:35.4025 151:37.2022 152:39.5287 153:41.0488 154:42.8524 155:44.6542 156:47.0162 157:48.5489 158:51.2043 159:53.8516 160:57.1186 161:58.6686 162:61.3416 163:64.0078 164:69.5482 165:70.6824 166:73.5411 167:71.8401 168:70.9551 169:69.3758 170:67.1868 171:65 172:63.4242 173:60.8769 174:58.6946 175:56.5155 176:53.9689 177:52.3927 178:50.7076 179:49.0306 180:47.4621 181:45.8912 182:44.2296 183:42.5793 184:41.0204 185:39.4588 186:37.8319 187:36.2215 188:34.68 189:33.1361 190:30.5657 191:28.0179 192:25.5096 193:23 194:21.5233 195:18.4391 196:19.6111 197:29.8329 198:41.336 199:52.469 200:69.7672 
0 0 0 0 0 0 0 1 0 0 1:73.8241 2:72.1803 3:70.214 4:67.4698 5:64.7611 6:59.5557 7:54.4059 8:51.8694 9:49.3964 10:44.5302 11:29.0689 12:28.6421 13:28.3196 14:31.313 15:32.6497 16:34.3859 17:36.1248 18:37.5033 19:39.598 20:41.3687 21:43.1393 22:45.3431 23:47.5124 24:49.679 25:51.9279 26:55 27:57.2045 28:59.4054 29:60.914 30:62.426 31:71.7124 32:72.3464 33:65.7609 34:62.9682 35:60.5516 36:58.1378 37:55.5203 38:53.0094 39:51.0458 40:49.0918 41:47.3342 42:45.6508 43:44.2945 44:43.1572 45:41.6293 46:38.9838 47:38.4708 48:38.6626 49:39 50:40.106 51:41.3038 52:42.1742 53:43.6807 54:50.5012 55:55.9732 56:60.7041 57:61.6117 58:63.2965 59:63.5059 60:61.1929 61:60.1664 62:56.3028 63:53.7461 64:53.9351 65:53.5609 66:54.037 67:53.2117 68:52.469 69:52.9987 70:52.8867 71:52.5063 72:52.2015 73:53.056 74:53.2259 75:53.2426 76:53.3385 77:53.5529 78:53.8238 79:53.9018 80:54.037 81:54.6168 82:55.2268 83:55.1725 84:56.5774 85:58.0517 86:58.9018 87:60 88:60.9179 89:61.8547 90:62.8595 91:63.6318 92:64.6913 93:65.7647 94:65.8204 95:58.5235 96:56.9437 97:47.927 98:46.9712 99:46.0652 100:44.1017 101:43.0465 102:42.72 103:41.749 104:40.8044 105:39.8296 106:38.9487 107:37.4833 108:34.2053 109:32.409 110:30.6105 111:23.3641 112:23.2594 113:23.5896 114:25.4951 115:30.9961 116:36.8782 117:44.435 118:49.7695 119:51.4806 120:53.2259 121:56.1289 122:59.0593 123:59.5399 124:61.1509 125:62.7694 126:63.9729 127:66.8506 128:66.906 129:66.6033 130:65.8255 131:64.3506 132:62.5809 133:56.5685 134:54.4518 135:52.345 136:47.7638 137:30.4795 138:25.4962 139:20.5183 140:21.225 141:22.6716 142:24.0832 143:25.5441 144:27.0185 145:30.2217 146:32.0156 147:33.5039 148:35.805 149:38.0176 150:40.2244 151:41.7435 152:44.1022 153:45.9056 154:47.7074 155:50.0852 156:51.6236 157:53.8542 158:56.0803 159:57.624 160:60.0333 161:62.7041 162:65.3682 163:69.7711 164:72.1357 165:68.9638 166:67.3841 167:65.8027 168:63.6009 169:61.4003 170:59.8215 171:58.2409 172:56.5267 173:54.8179 174:53.2412 175:51.6624 176:49.9626 177:48.2701 178:46.6973 179:45.1221 180:43.4426 181:41.7732 182:40.7922 183:39.1313 184:37.4833 185:35.926 186:34.3657 187:32.2493 188:30.1496 189:28.613 190:26.0768 191:22.6428 192:24.1868 193:33.754 194:43.1045 195:54.5598 196:60.0333 197:63.5079 198:67.0298 199:70.1395 200:72.3395 
0 0 0 0 0.5507561447110062 0 0 0 0 0.3069521805630405 1:70.406 2:69.6348 3:68.6586 4:65.4876 5:62.3618 6:55.3435 7:47.5395 8:38.0398 9:29 10:30.4795 11:35.0484 12:36.7967 13:38.1903 14:39.598 15:41.7311 16:43.8634 17:44.5982 18:46.3828 19:48.1664 20:50.3836 21:52.6308 22:54.8214 23:57.0088 24:57.8014 25:59.6015 26:68.4105 27:69.5413 28:65.7647 29:62.9527 30:60.1415 31:58.7963 32:56.4142 33:54.037 34:51.5025 35:50.2195 36:48.2668 37:46.3249 38:45.793 39:43.9175 40:42.0595 41:40.9212 42:39.8121 43:37.91 44:36.0555 45:36.6879 46:36.0949 47:36.1248 48:37.0877 49:38.2099 50:39.429 51:53.0754 52:53.0377 53:53.8237 54:54.6717 55:56.4132 56:58.2495 57:60.4088 58:60.9262 59:61.4654 60:59.4525 61:58.5235 62:54.6945 63:53.3667 64:51.9104 65:51.3517 66:50.4876 67:50.6049 68:50.9608 69:50.4428 70:49.98 71:50.0492 72:50.5668 73:50.0899 74:50.3285 75:51.1077 76:50.7585 77:50.6063 78:51.1076 79:51.6624 80:51.6236 81:52.4213 82:53.2635 83:53.8084 84:54.4059 85:55.3442 86:56.3028 87:56.6039 88:57.8175 89:59.0593 90:59.7198 91:61.6847 92:63.2582 93:63.0635 94:55.9017 95:54.3384 96:52.7731 97:50.9906 98:49.2443 99:47.9048 100:46.5725 101:45.4012 102:44.2719 103:43.3244 104:41.6928 105:40.2492 106:39.153 107:37.2156 108:36.0598 109:35 110:33.4216 111:32.596 112:31.1448 113:29.4005 114:27.6586 115:22.7795 116:22.8035 117:23.5372 118:23.766 119:24.0208 120:25.01 121:28.2843 122:30.2293 123:32.28 124:34.7851 125:37.0571 126:39.3954 127:40.9323 128:43.8292 129:44.9727 130:46.1411 131:48.8774 132:50.0852 133:51.3128 134:52.9757 135:54.6443 136:55.9152 137:57.2014 138:58.6003 139:59.9042 140:61.8466 141:63.8951 142:64.4438 143:65.1537 144:63.2535 145:57.6281 146:55.4439 147:53.2635 148:51.4719 149:46.8615 150:43.9833 151:41.1096 152:34.0588 153:29.7752 154:25.6125 155:22.9126 156:23.8537 157:25.6578 158:27.4591 159:29.1548 160:30.9567 161:32.7567 162:36.0352 163:38.4708 164:41.155 165:43.8292 166:45.618 167:48.3081 168:50.9902 169:55.2862 170:65.192 171:69.0035 172:66.4906 173:65.5134 174:63.8378 175:62.1691 176:59.6209 177:57.0701 178:54.9184 179:52.7731 180:51.788 181:49.649 182:47.5184 183:45.9639 184:44.4072 185:42.2967 186:40.1995 187:38.2099 188:36.1249 189:34.0588 190:31.5393 191:29.0172 192:27.5 193:24.1868 194:25.318 195:26.8825 196:34.3657 197:45.9155 198:57.2189 199:62.7432 200:64.2806 
0 0 0.02875030022237859 0 0 0.03478045115109719 0 0 0 0 1:69.0652 2:68.1175 3:64.1249 4:63.1981 5:50.8016 6:41.4367 7:40.6079 8:26.2789 9:26 10:27.313 11:28.8889 12:31.3847 13:32.6956 14:34.272 15:35.8469 16:37.1618 17:41.5039 18:44.9444 19:46.2385 20:47.8182 21:52.2015 22:53.4883 23:58.8268 24:62.2977 25:71.3092 26:71.6014 27:67.5352 28:66.1891 29:59.3509 30:52.6973 31:51.3128 32:44.1192 33:40.3609 34:38.9487 35:36.7764 36:34.6554 37:33.2415 38:31.185 39:29.8329 40:30.5287 41:32.9323 42:34.4819 43:41.3401 44:41.8808 45:46.3295 46:49.4065 47:50 48:53.1075 49:54.8179 50:55.4437 51:57.1699 52:68.7677 53:71.8401 54:71.1105 55:68.8186 56:67.6757 57:66.0108 58:64.3506 59:63.8122 60:62.1726 61:59.1693 62:58.6686 63:57.0652 64:54.1202 65:53.6656 66:52.11 67:49.2443 68:48.8467 69:46.0594 70:43.3244 71:43.0116 72:40.3916 73:37.855 74:37.6563 75:36.3107 76:35.0571 77:35.0143 78:36.276 79:35.6931 80:39.8246 81:40.2475 82:40.8044 83:42.0119 84:41.8688 85:43.1625 86:47.5079 87:47.634 88:51.7883 89:55.4617 90:55.9464 91:58.317 92:59.4811 93:60.1664 94:60.0405 95:60.0167 96:58.8558 97:58.1264 98:57.4282 99:56.3205 100:54.6302 101:53 102:52.0096 103:51.5633 104:51.1566 105:50.2494 106:49.9281 107:50.448 108:49.7293 109:49.969 110:49.98 111:49.3964 112:49.5069 113:49.6588 114:49.1935 115:49.2631 116:49.3964 117:48.1664 118:50.133 119:52.3259 120:53.8516 121:55.6971 122:56.3205 123:57.7235 124:57.4891 125:58.1506 126:58.8558 127:58.6941 128:61.2495 129:62.1289 130:62.0322 131:54.1481 132:50.04 133:49.0408 134:47.5105 135:38.0789 136:37.108 137:34.6451 138:33.6155 139:31.7805 140:30.8594 141:29.0689 142:28.178 143:26.6168 144:25.0799 145:24.6982 146:22.9852 147:21.3776 148:21.0238 149:22.2805 150:23.7697 151:24.6982 152:26.2004 153:27.7308 154:28.6531 155:30.2727 156:31.9061 157:33.0151 158:34.7047 159:36.4006 160:37.6431 161:39.7061 162:41.7732 163:43.1393 164:44.5533 165:46.6744 166:49.5782 167:50.9902 168:53.9676 169:57.0088 170:58.4123 171:62.5538 172:63.5138 173:65.2993 174:62.6518 175:60.4152 176:59.0931 177:56.6088 178:54.1295 179:52.8015 180:50.3245 181:47.8539 182:46.5188 183:44.9506 184:42.4853 185:41.1461 186:39.5797 187:38.0132 188:35.3412 189:33.7721 190:32.2025 191:30.8707 192:28.6398 193:26.4008 194:25.0799 195:24.0538 196:24.0416 197:53.4603 198:57.3158 199:61.2046 200:63.1981 
0.2847517196190474 0.1716924444804183 0.2408225751070066 0.0545394423640004 0.4929054821488346 0.1479594768116198 0 0.1694347161902588 0.3496032640093318 0.07939937296995113 1:75.3923 2:74.8465 3:68.6918 4:67.1193 5:64.8858 6:62.1956 7:60.4152 8:57.9358 9:54.7956 10:51.4296 11:48.7515 12:45.1798 13:42.9418 14:39.63 15:36.5312 16:34.1321 17:31.9106 18:29.263 19:27.4591 20:25.11 21:21.9772 22:24.2074 23:37.2074 24:42.1116 25:46.6905 26:49.5025 27:53.033 28:54.4518 29:57.64 30:61.1912 31:72.8629 32:74.2597 33:75.3085 34:75.743 35:72.4051 36:70.3598 37:69.029 38:67.3157 39:65.3024 40:62.2013 41:60.2167 42:56.8601 43:54.9181 44:53.2675 45:51.3657 46:48.3735 47:46.5314 48:43.3845 49:41.6293 50:37.5162 51:28.5393 52:27.2947 53:27.5093 54:29.5083 55:36.0139 56:37.5 57:40.0125 58:42.0476 59:44.5727 60:46.6338 61:48.1664 62:49.7519 63:51.8484 64:53.4603 65:55.5852 66:58.281 67:59.8415 68:62.6599 69:64.8171 70:66.4906 71:69.0409 72:73.3578 73:73.6817 74:72.5017 75:66.5676 76:62.0081 77:60.0422 78:57.6089 79:56.1427 80:53.8354 81:51.9736 82:50.636 83:49.2426 84:47.0894 85:44.3847 86:43.2003 87:40.9668 88:39.9249 89:38.7419 90:36.968 91:36.8917 92:36.9109 93:37.6509 94:38.2099 95:38.8973 96:39.661 97:40.4599 98:41.0042 99:42.0277 100:43.0465 101:46.3369 102:50.4625 103:52.1728 104:56.2716 105:57.0745 106:61.0737 107:60.7519 108:59.5505 109:58.8558 110:57.5609 111:54.9498 112:54.4059 113:54.3958 114:54.138 115:54.231 116:53.4458 117:53.4738 118:53 119:52.9687 120:51.8747 121:51.4004 122:51.589 123:52.1195 124:52.3259 125:52.4093 126:52.5063 127:52.2015 128:52.7587 129:53.2587 130:53.9351 131:55.0396 132:56.6815 133:57.0789 134:58.0215 135:59.0042 136:60.0333 137:60.6689 138:61.8441 139:62.514 140:63.8861 141:63.4546 142:60.7289 143:59.455 144:56.6091 145:55.0273 146:53.2849 147:48.9028 148:45.1221 149:44.3244 150:42.9962 151:42.2966 152:41.1521 153:40.0312 154:39 155:36.3735 156:31.1873 157:29.6142 158:27.951 159:25.8119 160:22.0227 161:22.2007 162:27.7219 163:30.4138 164:37.6968 165:48.4144 166:52.3259 167:59.8909 168:62.3291 169:63.5689 170:67.3826 171:62.8021 172:59.6825 173:42.3633 174:35.3079 175:29.8329 176:26.6871 177:23.0491 178:20.2237 179:20.5125 180:22.5109 181:25.02 182:27.5728 183:31.145 184:33.2415 185:35.7867 186:37.9035 187:40.4475 188:42.0863 189:44.7217 190:46.8722 191:48.4423 192:51.5815 193:53.1507 194:55.3177 195:57.9764 196:59.6657 197:61.8509 198:65.2572 199:67.4463 200:72.5774 
0 0 0.4696029190409744 0.9219565820837637 0 0.1068816629948239 0.3920251348700118 1 0.7144295513842449 0 1:58.0086 2:58.0086 3:56.0803 4:54.0833 5:53.1507 6:47.1699 7:46.2709 8:42.2966 9:41.4367 10:37.4833 11:37.4833 12:36.6742 13:29.8329 14:29.1204 15:26.2488 16:25.632 17:26.9258 18:36.4006 19:37.108 20:46.8722 21:46.8722 22:50.448 23:51.2445 24:49.98 25:49.0408 26:48.4665 27:42.9535 28:42.4853 29:36.3593 30:36.3593 31:36.0555 32:25.6125 33:24.2074 34:21.9545 35:22.3607 36:24.1661 37:25.4951 38:26.4197 39:27.7849 40:27.7849 41:28.3019 42:29.6816 43:30.8058 44:32.2025 45:36.0694 46:37.4833 47:38.8973 48:43.1393 49:43.1393 50:46.0109 51:45.3431 52:45.4533 53:44.8219 54:45 55:44.4072 56:43.0116 57:41.3401 58:39.9625 59:39.9625 60:38.4708 61:37.1214 62:35.4683 63:34.176 64:33.2415 65:32.0156 66:31.5753 67:30.4138 68:30.4138 69:30.2655 70:29.1548 71:29.4279 72:28.6356 73:35 74:34.8281 75:40.3609 76:40.4599 77:42.0119 78:42.0119 79:42.2019 80:43.0116 81:43.2666 82:44.1022 83:46.0977 84:45.6946 85:46.2385 86:43.2897 87:43.2897 88:42.19 89:42.107 90:41.0488 91:41.0122 92:40.05 93:41 94:40.2616 95:40.5216 96:39.8497 97:39.8497 98:40.1622 99:39 100:39.3954 101:38.9102 102:39.3573 103:38.5876 104:39.1152 105:38.2099 106:38.2099 107:38.8973 108:38.8973 109:39.6232 110:40.2244 111:39.6611 112:45.3542 113:46.3249 114:51.2445 115:51.0882 116:51.0882 117:52.0384 118:52.0096 119:51 120:51.0098 121:50.04 122:49.0408 123:48.0937 124:45.0999 125:45.0999 126:44.0454 127:42.0476 128:41.0122 129:39.0128 130:38 131:37 132:29.4109 133:29.7321 134:29.1548 135:29.1548 136:28.2312 137:27.2947 138:25.5539 139:24.1868 140:23.7065 141:22.3607 142:21.9317 143:19.3132 144:19.3132 145:18.6815 146:17.4642 147:19.7231 148:21.095 149:22.8035 150:24.2074 151:25.4951 152:26.9072 153:29 154:29 155:30.4138 156:32.6497 157:34.0588 158:36.4006 159:37.8021 160:40.2244 161:41.6173 162:43.2666 163:43.2666 164:44.6542 165:46.3249 166:47.7074 167:52.8394 168:54.1295 169:53.3104 170:49.3964 171:48.4665 172:47.1699 173:47.1699 174:45.31 175:44.0114 176:42.1545 177:40.8534 178:39 179:37.6962 180:36.7696 181:35.4683 182:35.4683 183:34.5398 184:33.2415 185:31.3847 186:30.0832 187:29.1548 188:27.8568 189:26 190:24.6982 191:21.9317 192:21.9317 193:20.6155 194:18.7883 195:14.8661 196:15.5242 197:42.19 198:43.2897 199:54.231 200:58.0086 
0 0 0 0 0 0 1 0 0 0 1:58.6941 2:57.0701 3:46.3249 4:45.1221 5:27.8568 6:26.5707 7:17.3488 8:17.8045 9:19.2094 10:20.8087 11:22.2036 12:23.8537 13:26.5119 14:29.1548 15:30.8869 16:32.249 17:34.8855 18:36.2353 19:40.4791 20:44.7772 21:46.0977 22:48.8467 23:50.1597 24:51.7356 25:52.8015 26:54.1295 27:55.0091 28:54.2033 29:52.4786 30:51.4638 31:45 32:43.6005 33:40.4599 34:39.0512 35:36.0694 36:33.6065 37:31.1448 38:29.2062 39:27.8029 40:26.0768 41:23.7727 42:21.5407 43:22.1359 44:21.8403 45:22.561 46:25.4951 47:26.8046 48:29.4109 49:29.7321 50:33.6155 51:34.0147 52:38.0132 53:39.1477 54:40.3113 55:41.6773 56:42.19 57:44.9444 58:45.4863 59:48.543 60:50.2195 61:51.0392 62:52.4309 63:54.0833 64:52.9039 65:50.0899 66:49.2443 67:47.927 68:47.5395 69:44.9444 70:43.9613 71:43.0116 72:40.5216 73:40.2616 74:39.0512 75:38.833 76:36.4211 77:35.2278 78:35.1283 79:33.0151 80:33 81:31.1046 82:30.2655 83:30.5941 84:29.8329 85:30.6757 86:30.0832 87:30.6423 88:33.0151 89:32.8024 90:34.7131 91:34.6554 92:36.7967 93:37.6485 94:38.6005 95:39.4081 96:39.6611 97:41.3401 98:41.6773 99:43.4644 100:44.0114 101:44.5982 102:44.2719 103:44.9222 104:43.1586 105:42.4264 106:41.3038 107:41.0488 108:40.0125 109:40.05 110:39.6574 111:40.6079 112:41.7732 113:42.72 114:42.0595 115:42.72 116:42.3493 117:42.0476 118:42.4853 119:42.0595 120:42.5441 121:42.1595 122:41.8688 123:42.5206 124:42.45 125:43.1856 126:43.4166 127:43.0342 128:42.72 129:43.0465 130:42.5441 131:44.9444 132:45.8803 133:47.6054 134:50.2195 135:51.1957 136:55.3263 137:55.0818 138:52 139:50.505 140:48.0104 141:47 142:44 143:43.0116 144:40.5311 145:39.0512 146:37.2156 147:36.2215 148:35.3553 149:35.5106 150:29.0993 151:26.4197 152:25.9422 153:21.9317 154:21.5407 155:20.2485 156:19.043 157:21.6333 158:23.0217 159:25.4951 160:26.9072 161:30.4385 162:33.4216 163:34.8281 164:43.909 165:45.2769 166:49.6488 167:50.992 168:52.3927 169:53.3104 170:54.4243 171:53.4509 172:50.9608 173:48.4212 174:39.2173 175:37.9473 176:35.1141 177:33.8378 178:31.0161 179:28.329 180:25.632 181:21.9317 182:20.6155 183:17.8885 184:16.1027 185:14.3178 186:13.6015 187:14.3178 188:15.2971 189:16.1245 190:28.5443 191:36.0139 192:37 193:42 194:43.0116 195:49.0102 196:51.0392 197:53.0848 198:55.0818 199:57.2189 200:57.3149 
0.2055336200820151 0.4491440627011141 0 0 0.6541450033383975 0 1 0 0 0 1:58.5235 2:57.8705 3:58.1893 4:57.5847 5:51.0784 6:49.7695 7:47.2712 8:43.8634 9:42.5441 10:38.9102 11:37.5766 12:34 13:31.3332 14:28.6531 15:25.2389 16:23.8537 17:21.4009 18:20 19:16.9853 20:16.4012 21:17.2047 22:18.6011 23:19.2094 24:22.3471 25:25.4951 26:26.1725 27:27.5862 28:28.2843 29:29.6985 30:31.1207 31:32.5576 32:33.9706 33:35.4683 34:36.8782 35:38.4187 36:40.6125 37:42.8019 38:43.6005 39:45 40:45.8039 41:48.902 42:50.6063 43:51.225 44:51.0882 45:51.7397 46:51.6624 47:50.9215 48:49.5177 49:48.1041 50:46.0977 51:44.6878 52:44.0454 53:42.0192 54:40 55:39.4081 56:38.0132 57:37.4433 58:36.0555 59:34.3006 60:32.2025 61:30.8707 62:30.4631 63:29.1548 64:28.153 65:27.2029 66:24.7386 67:24.5153 68:23.3452 69:23.1948 70:22.0567 71:23.0868 72:24.0832 73:31.4006 74:31.5753 75:32.7567 76:34.2125 77:35.7351 78:42.1545 79:44.9444 80:46.1736 81:44.7508 82:43.7379 83:41.4367 84:41.3038 85:40.1995 86:40.1123 87:35.0927 88:31.7805 89:32.0156 90:30.0832 91:30.4631 92:29.9666 93:30.2152 94:31.0644 95:30.8058 96:31.4006 97:31.241 98:31.8904 99:32.1773 100:32.5576 101:34.8281 102:35 103:35.805 104:36.7875 105:37.5899 106:38.4708 107:39.9249 108:40.8534 109:42.72 110:42.0098 111:42.2966 112:43.1856 113:43.0465 114:42.0119 115:42.0119 116:41.321 117:40.7922 118:41 119:39.5601 120:40.1622 121:39.9357 122:39.8121 123:40.2492 124:39.8246 125:40.3113 126:39.9625 127:40.079 128:39.4081 129:40 130:39.8246 131:40.6079 132:42.0595 133:41.8204 134:41.6293 135:42.1545 136:41.7852 137:54 138:54.0093 139:56.1515 140:55.3263 141:55.4437 142:54.5894 143:53.6004 144:51.2964 145:48.6621 146:47.676 147:46.5296 148:44.5533 149:43.4166 150:39.2132 151:36.0139 152:33.2415 153:33.3766 154:29.7321 155:27.8568 156:22.3219 157:20.6155 158:20.3961 159:19.2354 160:19.105 161:18.8627 162:19.2354 163:47.1699 164:47.7598 165:50.5964 166:51.2445 167:54.2387 168:54.9181 169:53.7587 170:53.6004 171:52.6118 172:51.4781 173:33.146 174:23.7697 175:22.561 176:15.8114 177:13.3417 178:13.1529 179:15.5 180:17.0294 181:20.025 182:21.095 183:24.0832 184:25.6759 185:27.2947 186:30.2655 187:31.4006 188:33.3766 189:34.5254 190:39.047 191:41.5933 192:42.7551 193:45.7056 194:46.8722 195:48.8365 196:50.5001 197:52.1728 198:53.1507 199:56.7539 200:57.0088 
0 0 0.2792404625945918 0.6191381425733147 0 0 1 0.6053648267395748 0.6063107578467757 0 1:61.4003 2:59.6825 3:20.1246 4:19.7231 5:22.4722 6:23.3238 7:24.6982 8:26.4197 9:27.7849 10:31.305 11:32.6497 12:36.2491 13:37.5766 14:44.9444 15:46.2385 16:49.98 17:51.264 18:52.2015 19:56.0803 20:57.2713 21:56.356 22:55.4707 23:55.0727 24:49.0918 25:47.7074 26:43.6005 27:42.2019 28:33.3017 29:31.8904 30:30 31:28.6007 32:26.4197 33:26.8328 34:29.5296 35:30.0167 36:31.3847 37:31.9061 38:33.2866 39:34.4093 40:35.805 41:37.0135 42:38.4187 43:39.6989 44:41.1096 45:42.45 46:43.8634 47:44.5533 48:48.7955 49:50.9902 50:51.225 51:50.6063 52:50.8035 53:49.6488 54:48.2597 55:46.6476 56:45.2769 57:44.2945 58:42.9418 59:42.0476 60:40.7185 61:39.9249 62:38.6264 63:37.9473 64:36.6879 65:36.4006 66:35.171 67:34.7131 68:33.541 69:33.3766 70:32.249 71:32.0624 72:31.0161 73:31.0161 74:30.0666 75:31.6228 76:31.0161 77:35.2278 78:35 79:39.598 80:39.6232 81:41.8688 82:42.0119 83:43.6005 84:43.8292 85:45.4863 86:45.793 87:46.6476 88:48.8467 89:48.1041 90:48.7032 91:47.0744 92:47.8539 93:47.676 94:46.5296 95:46.2709 96:45.1774 97:45.0999 98:44.0454 99:44.5533 100:43.7379 101:43.9318 102:43.1741 103:43.6807 104:43.0116 105:43.3244 106:42.72 107:43.0813 108:42.5441 109:42.9535 110:42.4853 111:42.9418 112:41.0366 113:41.7253 114:41.7253 115:42.45 116:43.0116 117:42.4382 118:43.8292 119:43.382 120:47.5395 121:48.5077 122:50.8035 123:51.788 124:55.2268 125:55.1453 126:56.0803 127:56.0357 128:55.0091 129:55 130:53.0377 131:47.0425 132:46.0109 133:43.0116 134:42 135:40 136:29.9666 137:27.2947 138:25.9422 139:25.4951 140:24.1661 141:23.7697 142:21.1896 143:20.8806 144:19.6469 145:20.2485 146:19.6977 147:20.1246 148:21.4709 149:24.2074 150:25.6125 151:27.5862 152:29 153:31.8904 154:33.3017 155:35.609 156:37.0135 157:41.0488 158:42.4382 159:46.6476 160:48.0208 161:53.2353 162:53.6656 163:56.3649 164:57.3847 165:55.9732 166:54.7083 167:52.811 168:51.5461 169:48.7032 170:47.4342 171:43.6578 172:42.3792 173:39.5601 174:38.2753 175:36.4006 176:35.1141 177:33.2415 178:31.9531 179:29.1548 180:27.8568 181:26 182:24.6982 183:22.8473 184:21.5407 185:18.7883 186:16.1555 187:15.8114 188:17.2627 189:32.1403 190:33.0606 191:44.0454 192:45.0111 193:54.0093 194:55 195:57 196:58.0086 197:59.0085 198:60.0333 199:60.075 200:61.131 
0 0.4223359062018729 0 0 0.1685351733622019 0 0.2852573953819776 1 0.0751937902148497 0 1:75.8024 2:74.9667 3:74.3396 4:67.6831 5:63.5644 6:59.439 7:52.0253 8:39.8497 9:36.2192 10:32.573 11:28.153 12:21.9317 13:21.0311 14:20.2485 15:25.5458 16:29.8329 17:33.0356 18:36.2353 19:37.7161 20:39.2046 21:42.4069 22:44.2041 23:45.7002 24:47.2017 25:50.4018 26:52.2015 27:53.7077 28:55.2178 29:57.4311 30:59.6406 31:61.1598 32:62.6817 33:64.4851 34:66.2873 35:70.59 36:74.6324 37:74.7021 38:74.8131 39:70.2318 40:67.2681 41:65.1188 42:62.9682 43:61.5345 44:60.1082 45:58.3384 46:56.5685 47:54.4656 48:53.0754 49:51.3263 50:49.5782 51:47.5658 52:46.2277 53:44.513 54:42.8019 55:41.5032 56:39.6611 57:36.6255 58:34.9857 59:33.1233 60:31.305 61:28.4334 62:26.9258 63:25.9344 64:25.9615 65:26.5023 66:33.2415 67:34.8605 68:37.6563 69:39.8197 70:41.9762 71:43.6608 72:47.8017 73:50.6312 74:53.4509 75:61.5653 76:65.9242 77:67.5024 78:71.8679 79:72.2805 80:72.7324 81:71.1752 82:68.4105 83:64.5771 84:60.0167 85:51.6551 86:49.0408 87:46.5264 88:44.0114 89:41.6083 90:36.1386 91:36.0678 92:36.0555 93:35.6576 94:35.3412 95:36.5372 96:37.4433 97:37.8104 98:38.2884 99:39.6106 100:41.0366 101:41.8738 102:42.8019 103:43.8513 104:44.9444 105:46.5113 106:47.927 107:49.1215 108:50.3289 109:52.7587 110:53.3667 111:53.3558 112:53.6004 113:57.5563 114:57.0088 115:53.5374 116:52.0865 117:51.6991 118:51.6236 119:50.9996 120:50.448 121:50.3476 122:50.9215 123:50.7036 124:50.5668 125:50.7637 126:51 127:50.857 128:50.4777 129:50.8228 130:50 131:51.2391 132:51.8941 133:51.7391 134:51.6236 135:52.6543 136:53.1601 137:55.6538 138:58.3095 139:59.1735 140:61.0328 141:62.0081 142:63.0317 143:64.0976 144:65.192 145:63.6799 146:59.0339 147:57.3782 148:54.5894 149:50.847 150:48.0416 151:46.0054 152:45.0444 153:43.7631 154:42.5793 155:36.5367 156:32.8938 157:29.4395 158:26.6833 159:24.2589 160:23.0868 161:22.5109 162:26.6271 163:28.612 164:30.6105 165:32.596 166:35.3553 167:38.2342 168:41.1096 169:45.7002 170:51.3128 171:59.2196 172:68.352 173:66.4108 174:64.195 175:60.5629 176:56.921 177:48.7502 178:43.4626 179:41.2329 180:39 181:35.5888 182:33.1059 183:30.8736 184:28.6356 185:25.2695 186:23.7065 187:20.8197 188:19.3132 189:20.0934 190:23.1948 191:30.0694 192:37.0135 193:41.5061 194:47 195:50.01 196:53.0377 197:56.5573 198:60.075 199:63.127 200:66.1891 
0 0 0 0.006456178560846729 0 0 1 0.4446845471825839 0 0 1:75.0267 2:73 3:72 4:63.0081 5:54.037 6:44.5733 7:36.1248 8:31.7561 9:27.1662 10:23.1948 11:21.3784 12:18.9737 13:22.1557 14:25.0599 15:26.8572 16:28.6531 17:30.4138 18:32.2072 19:34 20:35.5604 21:38.0132 22:40.2517 23:42.4853 24:44.2832 25:46.5208 26:48.7545 27:50.3245 28:53.7122 29:56.8652 30:60.0083 31:63.6946 32:65.9253 33:73.4098 34:74.2551 35:67.7422 36:64.6692 37:61.5873 38:59.0762 39:56.0474 40:53.0094 41:49.905 42:46.8615 43:43.9516 44:41.0366 45:38.8973 46:36.8041 47:34.7131 48:33.3542 49:31.4006 50:29.7054 51:28.0179 52:26.9258 53:24.86 54:25.2982 55:26.5873 56:28.8617 57:30.5658 58:33.5261 59:34.4819 60:42.6179 61:49.6588 62:54.1353 63:58.6686 64:67.3151 65:69.1158 66:71.6938 67:71.5765 68:69.3542 69:68.283 70:67.2309 71:64.4396 72:56.6127 73:56.3205 74:50.1148 75:36.1248 76:35.7884 77:35.9026 78:35.7858 79:35.8469 80:39.1152 81:40.6768 82:42.45 83:43.852 84:45.3431 85:45.8405 86:46.4004 87:47.2017 88:47.8469 89:48.5489 90:50.4278 91:51.4781 92:53.1174 93:54.0833 94:53.7587 95:55.5632 96:59.0339 97:57.9887 98:57.3149 99:53.7064 100:52.0384 101:51.2199 102:50.4876 103:51.6624 104:51.2534 105:50.9215 106:50.9796 107:51.4781 108:51.2099 109:51 110:51.4781 111:51.0434 112:50.448 113:51.0392 114:51.6624 115:53.4258 116:55.4617 117:56.3649 118:58.9939 119:62.0967 120:64.2287 121:66.1891 122:61.0082 123:59.0339 124:58.0345 125:56.5796 126:55.1453 127:53.2465 128:51.3517 129:43.5463 130:41.5933 131:37.2156 132:34.0487 133:28.178 134:27.0658 135:25.632 136:24.1966 137:22.8035 138:22.3607 139:23.0974 140:24.0208 141:25.1126 142:26.2488 143:27.6852 144:29.1548 145:29.5466 146:31.0878 147:32.6497 148:33.8014 149:34.9857 150:36.6255 151:38.2753 152:38.833 153:40.8124 154:42.8019 155:44.1192 156:45.4533 157:47.5139 158:49.5782 159:50.9313 160:53.0426 161:55.1543 162:57.2931 163:59.4643 164:64.3391 165:68.7968 166:68.2642 167:66.6291 168:65 169:63.4549 170:61.9112 171:60.1109 172:58.3095 173:55.7584 174:53.5378 175:51.3128 176:48.9542 177:47.4342 178:45.6326 179:43.8292 180:43.0116 181:41.2109 182:39.4081 183:37.9013 184:36.4006 185:34.6026 186:32.8024 187:32.0156 188:30.2217 189:28.4253 190:26.2491 191:24.0832 192:20.6301 193:18.6011 194:18.868 195:18.5729 196:27.2029 197:33.7559 198:40.2616 199:67.1775 200:71.5681 
0.1203007842497538 0.03822926073079865 0 0.0807542088389505 0 0 0.3910902030261264 0.5211991803376423 0.255165305553031 0 1:73.9797 2:73.1642 3:72.2059 4:65.2533 5:59.7937 6:54.4243 7:44.0562 8:33.6006 9:27.9017 10:23.8537 11:24.8791 12:26.8328 13:28.6234 14:32.0069 15:34.9857 16:36.8929 17:38.833 18:41.9096 19:45 20:46.3088 21:47.634 22:49.3599 23:51.0882 24:53.1084 25:54.4885 26:56.244 27:58.3471 28:60.1082 29:61.5183 30:62.9365 31:71.073 32:72.2496 33:67.709 34:65.8027 35:63.8253 36:61.8547 37:60.6013 38:59.3633 39:57.4607 40:55.3212 41:53.7122 42:52.5599 43:51.4296 44:49.8744 45:48.3322 46:47.2712 47:46.2385 48:43.4911 49:42.0595 50:41.1414 51:39.6564 52:38.833 53:37.4963 54:36.2215 55:36.5885 56:37.855 57:39.6067 58:41.4367 59:47.906 60:50.9902 61:51.6286 62:52.345 63:53.4496 64:53.7287 65:55.9464 66:57.58 67:55.5428 68:52.2353 69:52.2015 70:50.624 71:51.2445 72:50.5811 73:50.01 74:50.625 75:50.9215 76:50.512 77:51.0221 78:51.4781 79:52.3161 80:52.6973 81:52.7202 82:52.6308 83:53.2071 84:53.8145 85:54.1053 86:54.4518 87:56.6833 88:59.0339 89:60.003 90:61.4437 91:62.1289 92:63.9763 93:65 94:66.2065 95:68.0294 96:63.9882 97:53.3104 98:52.3478 99:51.4296 100:50.3285 101:49.0608 102:48.0208 103:46.8755 104:45.8039 105:44.9109 106:43.2782 107:41.0672 108:33.3017 109:31.8512 110:29 111:26.9175 112:24.8395 113:22.8658 114:23.793 115:24.5153 116:25.2487 117:28 118:34.0256 119:39.2938 120:41.0033 121:42.72 122:47.5058 123:52.3927 124:57.9176 125:60.8276 126:61.9721 127:63.8164 128:65.5134 129:67.6967 130:67.624 131:62.551 132:58.4123 133:52.5015 134:38.2753 135:29.902 136:20.5913 137:19.0517 138:17.2047 139:17.3606 140:18.0654 141:19.8494 142:22.1022 143:23.6008 144:26.8018 145:28.6007 146:30.1084 147:31.6228 148:33.4265 149:35.2278 150:37.5835 151:39.8061 152:42.19 153:43.9923 154:45.793 155:47.3342 156:49.7393 157:51.5394 158:53.3385 159:56.6263 160:59.9416 161:61.7358 162:63.5295 163:66.8622 164:73.9722 165:74.3303 166:72.8936 167:71.4703 168:69.8899 169:67.3573 170:65.6222 171:63.8905 172:61.3564 173:58.8218 174:56.6135 175:54.4059 176:52.8262 177:50.6223 178:49.0408 179:47.3209 180:45.607 181:44.0298 182:42.45 183:40.7463 184:39.0512 185:37.4785 186:35.9026 187:34.2237 188:32.5576 189:29.0286 190:25.8972 191:23.3452 192:21.7084 193:18 194:17.5725 195:18.2483 196:19.6599 197:22.8035 198:28.8879 199:34.9285 200:56.0073 
0 0 0 0 0 0 0 0.5570007887737218 0 0 1:73.3348 2:71.5681 3:69.5845 4:66.754 5:63.9531 6:58.6417 7:53.3667 8:50.6978 9:48.0833 10:43.3244 11:34.6735 12:26.4008 13:25.5538 14:28.3196 15:32.8996 16:34.6554 17:35.3553 18:37.1264 19:38.8973 20:40.3299 21:42.5206 22:44.3098 23:46.0977 24:49.1173 25:51.4004 26:52.8015 27:55.1046 28:58.2495 29:60.4675 30:62.6817 31:66.2895 32:70.214 33:69.814 34:62.996 35:60.1082 36:57.6402 37:55.1725 38:52.4452 39:49.8197 40:48.4149 41:46.5028 42:44.6542 43:42.7283 44:40.8167 45:39.63 46:38.0132 47:35.2042 48:34.5254 49:34.2345 50:35.0642 51:36.0139 52:36.7789 53:37.6563 54:39.3413 55:41.1096 56:53.0754 57:55.8315 58:59.9416 59:57.5201 60:56.4624 61:51.5014 62:49.2443 63:50.01 64:49.5659 65:50.04 66:49.2289 67:48.5077 68:49.121 69:49.0408 70:48.7123 71:48.4665 72:49.6588 73:49.4211 74:49.2443 75:50.0897 76:50.4777 77:50.3032 78:50.448 79:51.0882 80:51.3263 81:51.6236 82:52.3355 83:53.8145 84:54.6755 85:55.6058 86:57.2014 87:58.1062 88:58.8303 89:60.0489 90:61.2944 91:62.1635 92:63.0714 93:64.4883 94:64.2573 95:59.1354 96:51.351 97:50.1597 98:48.7564 99:47.4131 100:46.3353 101:45.2769 102:44.9444 103:43.9657 104:42.2019 105:41.2359 106:40.3609 107:36.0902 108:34.7131 109:31.8904 110:30.4385 111:29 112:24.305 113:22.1359 114:22.2007 115:22.3607 116:25.01 117:37.6431 118:37.9473 119:45.8962 120:51.4296 121:53.2369 122:55.0727 123:58.0555 124:61.0574 125:61.5873 126:63.241 127:64.8999 128:66.1552 129:68.6003 130:67.6414 131:65.8559 132:65.1153 133:59.1303 134:55.9732 135:53.2027 136:50.448 137:33.2015 138:24.4131 139:21.2603 140:23.6008 141:25 142:26.505 143:28.0179 144:29.8217 145:33.0151 146:34.5328 147:36.0555 148:37.4433 149:39.8061 150:42.19 151:43.9923 152:45.793 153:48.1926 154:49.7393 155:51.1077 156:53.5213 157:55.0727 158:57.3083 159:59.5399 160:61.0945 161:63.5295 162:66.2098 163:68.884 164:71.5542 165:73.1701 166:70.2282 167:68.6483 168:67.0671 169:64.8469 170:62.6259 171:61.6847 172:59.9356 173:58.1893 174:56.6091 175:55.0273 176:53.2849 177:51.5461 178:50.5964 179:48.8597 180:47.1275 181:45.5479 182:43.9659 183:42.2406 184:40.5216 185:38.9438 186:37.3631 187:36.1386 188:34.5634 189:32.0156 190:30.3194 191:28.6356 192:24.387 193:22 194:25.1794 195:28.7174 196:46.1736 197:52.5866 198:59.0339 199:64.5195 200:69.0072 
0.4074360348179221 0.3014809254288872 0.2079677935350076 0.3878289665260675 0.1943019039998403 0.1135078244893973 0.04691718920412641 0.6976015420189318 0.561369569461282 0.2097839362537003 1:70.859 2:70.0357 3:69.0507 4:65.7989 5:62.5859 6:55.4335 7:47.4342 8:46.8188 9:27.8382 10:29.6985 11:35.7124 12:38.8973 13:39.6232 14:41.4049 15:43.1856 16:44.6375 17:46.8615 18:48.2701 19:49.7444 20:51.225 21:53.4171 22:55.6058 23:57.2014 24:59.4083 25:61.6117 26:65.2167 27:68.6003 28:68.2495 29:63.7378 30:60.1082 31:57.9871 32:55.8659 33:53.8145 34:51.4251 35:49.0408 36:47.7128 37:45.8039 38:44.4072 39:43.1337 40:41.3401 41:39.7043 42:38.0789 43:36.9126 44:34.9285 45:33.6155 46:33.5804 47:33.7343 48:33.6868 49:34.0588 50:35.1283 51:36.2857 52:50.2096 53:50.5704 54:51.225 55:52.0096 56:53.8361 57:57.2451 58:57.0346 59:55.7136 60:54.4243 61:52.1862 62:50 63:48.2204 64:46.5296 65:46.2709 66:45.6447 67:45.1221 68:45.551 69:45.5412 70:44.9444 71:45.0436 72:45.618 73:45.4141 74:45.2769 75:46.3249 76:46.1022 77:46.0977 78:46.7119 79:47.3814 80:47.5079 81:48.4352 82:49.4065 83:50.0632 84:50.774 85:51.7974 86:52.8394 87:53.2353 88:54.5783 89:55.9464 90:56.8284 91:59.203 92:60.1664 93:61.4 94:56.5685 95:55.1618 96:52.7731 97:51.9711 98:50.6049 99:49.2443 100:48.0236 101:46.8402 102:45.8803 103:44.128 104:42.5441 105:41.3877 106:39.3573 107:38.9487 108:37.0537 109:35.2278 110:34.3003 111:32.0156 112:27.8029 113:26.505 114:25.2389 115:22.0387 116:21.095 117:21.0238 118:22.0114 119:23.0868 120:23.9303 121:24.7386 122:28.6264 123:32.6956 124:33.1059 125:36.0062 126:40.3113 127:41.5034 128:42.72 129:45.4863 130:46.7388 131:48.0104 132:51.102 133:52.8015 134:53.4135 135:55.1308 136:56.8507 137:58.1937 138:59.5483 139:60.959 140:62.3258 141:64.3817 142:66.1391 143:66.6033 144:65.9469 145:59.9279 146:56.7274 147:55.2675 148:53.8145 149:49.5782 150:46.7173 151:43.8634 152:36.4331 153:29 154:28.3196 155:24.548 156:24.1868 157:28.3999 158:29.9666 159:31.305 160:33.7721 161:35.3412 162:38.0348 163:40.7185 164:43.2038 165:46.6154 166:47.927 167:50.4239 168:53.8516 169:57.0135 170:60.1664 171:66.7308 172:68.765 173:67.1863 174:65.4848 175:63.7887 176:61.8466 177:59.6662 178:57.4891 179:54.9421 180:53.3667 181:52.1728 182:49.6251 183:48.0521 184:46.3817 185:44.7214 186:42.7551 187:40.6082 188:38.4708 189:35.926 190:33.3766 191:32.249 192:29.7101 193:28.1603 194:25.0399 195:28.4429 196:31.4006 197:36.0082 198:40.6079 199:61.845 200:66.2722 
0 0 0.1873038540281475 0.2983354635971976 0 0.05683260427557271 0 0 0.2537245146657259 0 1:69.0072 2:68 3:64 4:63.0079 5:50.5249 6:41.0488 7:40.1123 8:25.3439 9:25 10:28.7924 11:29.7321 12:31.4846 13:33.2415 14:35.1141 15:36.8684 16:38.6264 17:39.5601 18:40.8534 19:45.2392 20:48.7032 21:49.98 22:51.5615 23:55.9732 24:57.2451 25:61.9839 26:64.1958 27:70.2282 28:70.5762 29:67.6287 30:64.4748 31:58.1378 32:56.7979 33:49.9253 34:42.4382 35:41.0488 36:37.1013 37:34.8281 38:33.4216 39:31.185 40:29 41:27.5862 42:26.8701 43:28.0237 44:30.2324 45:31.0644 46:43.9023 47:48.4149 48:49.0408 49:51.8556 50:53.9074 51:55.9732 52:57.3847 53:58.758 54:60.1415 55:65.7951 56:68.7677 57:67.9457 58:65.6049 59:64.405 60:62.7169 61:61.0328 62:60.4649 63:59.0762 64:57.141 65:55.2268 66:53.8516 67:51.9724 68:50.1199 69:48.7647 70:46.9596 71:45.1885 72:42.5441 73:42.1545 74:39.3887 75:36.6879 76:36.4006 77:33.8451 78:32.5576 79:32.1403 80:31.0644 81:31.5393 82:32.5576 83:31.7805 84:36.2074 85:37.8021 86:37.6431 87:38.9487 88:39.6043 89:40.3609 90:45 91:46.8853 92:51.0784 93:53.8516 94:56.3205 95:56.1504 96:56.0892 97:54.9181 98:54.1726 99:53.4603 100:52.345 101:50.6403 102:49 103:48.0104 104:48.0416 105:47.1328 106:46.2709 107:46.3897 108:46.0569 109:45.8803 110:46.4866 111:45.8803 112:45.9666 113:46.0977 114:45.618 115:45.858 116:46.1411 117:45.4863 118:46.0435 119:45.6111 120:49.7695 121:50.6952 122:52.9743 123:55.5428 124:55.3173 125:56.8858 126:57.1386 127:57.4282 128:58.3095 129:59.6239 130:61.0082 131:62 132:58.1378 133:55.0899 134:53.0377 135:52.0096 136:46.493 137:41 138:38.8973 139:37.6418 140:35.4683 141:34.9285 142:34.0147 143:32.238 144:25.2982 145:25 146:23.6535 147:22.3607 148:22.0227 149:21 150:21.7869 151:23.7697 152:25.0799 153:27.1023 154:28.3019 155:29.6816 156:30.8058 157:32.5025 158:34.2053 159:35.4683 160:37.2074 161:38.9487 162:40.3113 163:41.7253 164:43.8463 165:46.0109 166:47.4236 167:49.6236 168:52.6308 169:54.037 170:57.1009 171:60.2163 172:61.6117 173:64.8999 174:66.0034 175:63.0635 176:62.1772 177:59.9435 178:57.7062 179:55.9464 180:54.5894 181:52.1588 182:49.7393 183:48.3735 184:46.8245 185:44.4185 186:43.0465 187:42.19 188:40.3896 189:37.2156 190:36.3593 191:34.5589 192:32.7567 193:31.9061 194:29.1548 195:27.6139 196:26.4197 197:25.0599 198:24.3849 199:57.4282 200:58.3095 
0 0 0.1944749041359545 0.06730428422157431 0.04648637470885032 0 0 1 0.2183932888730695 0 1:74 2:73.3894 3:67.1311 4:65.5515 5:63.3256 6:61.0983 7:59.5196 8:57.0088 9:54.7826 10:51.1621 11:48.4665 12:45.0397 13:42.5441 14:39.8574 15:37.1618 16:34.6779 17:31.5366 18:29.0689 19:27.2818 20:25.4951 21:23.0336 22:19.7231 23:20.2113 24:39.598 25:42.4323 26:47.3973 27:50.2494 28:54.8577 29:56.6392 30:58.7963 31:60.959 32:64.1588 33:70.5081 34:72.2496 35:72.5216 36:72.8354 37:69.3866 38:68.0147 39:66.2751 40:64.2137 41:62.482 42:60.4402 43:58.4123 44:55.3029 45:52.2015 46:50.9167 47:49.6488 48:47.9836 49:44.6814 50:41.6773 51:39.8266 52:38.0132 53:33.8151 54:24.7386 55:23.9303 56:23.5109 57:25 58:29.0174 59:33 60:34.5071 61:37.0135 62:39.0513 63:41.6083 64:43.1856 65:44.7292 66:46.2709 67:47.8775 68:49.4975 69:51.6304 70:53.7587 71:55.4099 72:58.7389 73:60.4152 74:61.9891 75:64.5368 76:67.1964 77:70.214 78:65.8967 79:60.0411 80:58.0086 81:56.5 82:54.037 83:52.5621 84:51.0882 85:49.6614 86:47.7625 87:45.5412 88:43.1606 89:41.7732 90:39.7777 91:38.6005 92:37.3215 93:36.0555 94:33.3079 95:33.7402 96:33.9706 97:35.3695 98:36.1248 99:36.6244 100:37.2022 101:38.1442 102:39.2807 103:40.3113 104:41.5968 105:47.8539 106:50.9936 107:53.0848 108:56.3782 109:54.8315 110:54.1295 111:52.0557 112:51.2445 113:50.759 114:50.3289 115:50.4275 116:50.5668 117:49.8843 118:49.9943 119:49.6488 120:50.0196 121:49.2037 122:49.3703 123:49.7393 124:49.9055 125:50.4275 126:50.3289 127:51.2534 128:51.6624 129:51.5834 130:51.788 131:52.5404 132:53.2869 133:56.0357 134:56.5045 135:57.0088 136:58.056 137:59.1354 138:59.7554 139:60.531 140:61.7373 141:63.0594 142:64.3273 143:63.3725 144:61.0328 145:59.2982 146:57.5674 147:54.7497 148:50.8307 149:48.8365 150:47.5972 151:46.3897 152:45.7242 153:45.0999 154:44.0284 155:43.0058 156:37.6563 157:35.1092 158:33.541 159:31.8945 160:30.2655 161:25.7391 162:23.7697 163:26.4789 164:32.2072 165:34.7131 166:47.6921 167:55.4617 168:59.6355 169:63.9062 170:67.099 171:66.7125 172:61.6117 173:52.1906 174:42.72 175:36.3676 176:31.0161 177:27.8661 178:24.234 179:21.1896 180:21.6119 181:26 182:28.0179 183:30.0666 184:33.5963 185:36.1248 186:38.2101 187:40.8075 188:42.4264 189:44.9742 190:46.5296 191:48.6624 192:50.8035 193:52.3704 194:55.5037 195:57.0701 196:59.2287 197:61.3922 198:62.9654 199:64.5368 200:67.426 
0 0.5656732955023802 0.06832628508799173 0.7535251765225418 0 0.2631243523680427 1 1 0.25288742608916 0 1:65 2:63.7887 3:62.8172 4:59.9271 5:57.0701 6:54.924 7:52.7731 8:50.4876 9:48.9355 10:47.3814 11:44.6794 12:43.1045 13:42.107 14:39.5127 15:36.0555 16:34.5946 17:33.1361 18:32.249 19:30.8354 20:29.4279 21:28.1471 22:26.9258 23:25.9615 24:24.613 25:27.7849 26:37.9857 27:40.1622 28:40.8044 29:44.9986 30:47.2969 31:50.0116 32:52.7731 33:54.7449 34:56.3938 35:58.0517 36:57.3802 37:56.5155 38:55.0818 39:53.7856 40:52.4976 41:50.9226 42:49.3964 43:47.275 44:45.1885 45:44.7214 46:42.743 47:39.9625 48:38.4316 49:37.0135 50:33.2415 51:32.2413 52:31.4006 53:31.0953 54:30.4138 55:30.8707 56:30.7396 57:30.6757 58:31.1846 59:31.7805 60:31.5753 61:32.2643 62:33.0606 63:33.5074 64:34.0588 65:35.1283 66:35.7867 67:36.4966 68:37.7557 69:39.0512 70:39.2938 71:40.9791 72:42.72 73:44.1199 74:45.618 75:46.9574 76:48.9984 77:49.2037 78:49.1771 79:49.4975 80:46.7547 81:44.0725 82:43.0116 83:42.0354 84:41.6773 85:41.8264 86:42.0476 87:41.6293 88:41.4794 89:41.4849 90:41.0223 91:41.0488 92:42.0119 93:42.6463 94:43.566 95:45.604 96:45.8803 97:48.7647 98:50.8717 99:53 100:58.331 101:62.2896 102:63.7024 103:65.0692 104:63.7024 105:59.0962 106:57.3149 107:56.5862 108:54.8121 109:53.0377 110:51.6188 111:50.2096 112:48.7955 113:46.0489 114:43.4166 115:40.2997 116:37.2156 117:36.7151 118:35.1204 119:29.5466 120:20.7121 121:17.6918 122:17.2239 123:17 124:16.1555 125:17.3635 126:19.0263 127:20.6018 128:23.1948 129:24.3311 130:26.4883 131:28.6356 132:34.004 133:42.1545 134:43.0813 135:46.155 136:54.5619 137:56.3576 138:58.6686 139:60.0333 140:61.7457 141:62.9682 142:59.7705 143:58.2495 144:55.4707 145:53.2548 146:51.0392 147:47.8469 148:44.6542 149:43.8292 150:40.6366 151:38.833 152:36.6205 153:34.4093 154:30.2324 155:26.6323 156:21.4009 157:21.5725 158:34.6554 159:35.3836 160:37.1667 161:44.5982 162:47.4607 163:50.3289 164:52.1187 165:53.9073 166:54.6717 167:56.4655 168:58.258 169:59.737 170:66.8506 171:66.2873 172:58.9434 173:43.4166 174:41.8633 175:40.7063 176:31.3847 177:28.5169 178:25.632 179:22.9452 180:23.5372 181:26.4764 182:28.1471 183:29.8329 184:31.4107 185:33.9559 186:35.171 187:37.7177 188:39.2938 189:41.0033 190:42.72 191:43.6807 192:45.4012 193:47.1275 194:48.7094 195:51.2445 196:52.4976 197:55.0328 198:56.6127 199:58.8226 200:61.0328 
0.5961628011208804 1 0.3877539445544465 0.3247441977633821 1 0 1 1 1 0.9415252547232443 1:61.6847 2:60.5392 3:58.6941 4:57.3847 5:55.8083 6:52.3927 7:51.0784 8:48.5857 9:46.0977 10:44.7772 11:43.2038 12:40.7185 13:39.3954 14:36.0077 15:34.4384 16:33.1059 17:31.5366 18:29.0689 19:27.7308 20:26.3199 21:26.4008 22:32.0156 23:34.2057 24:36.4006 25:42.0119 26:44.0456 27:46.2277 28:53.2635 29:54.7403 30:56.0803 31:58.8982 32:60.2537 33:62.9682 34:60.8112 35:58.6985 36:56.5862 37:55.9017 38:52.7389 39:45.3431 40:44.6878 41:42.9581 42:41.2311 43:40.6079 44:36.4006 45:31.632 46:27.7849 47:27.2947 48:29.097 49:35.7771 50:36.6742 51:38.4617 52:41.5933 53:42.4853 54:48.325 55:51.4781 56:52.3546 57:55.9485 58:59.5399 59:60.4152 60:63.0933 61:63.0635 62:62.6099 63:59.7198 64:58.6003 65:57.2713 66:53.5942 67:49.3964 68:40.5216 69:39.6564 70:38.0789 71:34.5254 72:31.8453 73:29.1548 74:28.0713 75:27.5089 76:27.074 77:30.4138 78:31.8248 79:33.2415 80:34.1321 81:35.5919 82:38.0526 83:39.0128 84:40.0125 85:41.5 86:43.0116 87:44.0114 88:45.5439 89:47.0956 90:49.0918 91:51.6552 92:53.0848 93:48.0416 94:46.5701 95:45.0999 96:44.1814 97:41.8968 98:39.6232 99:38.833 100:37.4815 101:36.1386 102:35.4401 103:33.2099 104:31.9531 105:30.0167 106:30.1808 107:29.0689 108:29.4109 109:29.187 110:29.0689 111:30.0832 112:30.3902 113:30.8058 114:37 115:38.6065 116:40.3113 117:43.7379 118:44.5269 119:45.607 120:50.5964 121:51.8738 122:51.6236 123:52 124:51.4781 125:52.1398 126:50.6063 127:49.93 128:48.959 129:48.0104 130:47.8017 131:43.3422 132:40.4599 133:40.3113 134:39.6484 135:39.0512 136:39.2046 137:38.7167 138:37.7359 139:38.0789 140:37.8015 141:36.7696 142:37.3363 143:36.7542 144:36.6742 145:37.4833 146:37.7731 147:38.0132 148:39 149:38.7661 150:41.2311 151:42.5441 152:44.5033 153:48.2597 154:49.6488 155:52.101 156:54.037 157:55.4437 158:57.3323 159:56.5685 160:55.1543 161:51.6236 162:48.0833 163:45.2548 164:43.8634 165:41.1373 166:38.4187 167:37.2022 168:34.7103 169:32.249 170:30.8707 171:29.1695 172:26.2488 173:25.2982 174:22.145 175:19.6977 176:17.8885 177:17.0681 178:16.4012 179:15.8114 180:21.5233 181:24.0208 182:25.02 183:27.6632 184:29.2746 185:31.257 186:32.8825 187:34.5254 188:35.5106 189:37.1653 190:40.025 191:41 192:42.688 193:44.3847 194:45.3542 195:47.5401 196:50.9608 197:51.923 198:54.8842 199:56.6127 200:57.5674 
0 0 0 0 0 0 1 0 0 0 1:59.0085 2:58.0086 3:57.0351 4:51.0392 5:50.0899 6:45.6376 7:38.2099 8:37.3363 9:34.3657 10:33.541 11:29.238 12:25.9615 13:24.7386 14:22.8035 15:20.7246 16:18.7883 17:19.2354 18:20.5913 19:21.4709 20:25.5283 21:29.5466 22:37 23:38.2753 24:43.9659 25:47.6108 26:51.2445 27:55.0818 28:56.3205 29:56.293 30:47.5395 31:47.0106 32:26.1725 33:24.7588 34:21.7939 35:21.4709 36:22.4722 37:24.3516 38:28.2312 39:29.3011 40:30.4138 41:31.7648 42:32.249 43:33.8738 44:35.5106 45:36.6197 46:38.0132 47:39.2046 48:41.2384 49:43.2782 50:44.5982 51:46.0109 52:46.6905 53:48.4498 54:50.2494 55:45.2217 56:43.8292 57:41.5034 58:39.8246 59:38.4708 60:38.0132 61:36.6742 62:34.8222 63:33.5261 64:32.28 65:32.0156 66:30.8058 67:30.011 68:29.2746 69:28.1603 70:28.8617 71:28.6575 72:28.6356 73:29.5296 74:29.1548 75:30.2324 76:30.6205 77:31.1448 78:31.8277 79:31.8277 80:33.3017 81:34.6133 82:36.0555 83:37.7359 84:38.0789 85:39.153 86:40.2492 87:41.7852 88:40.025 89:37.6563 90:36.7789 91:36.4966 92:35.6931 93:35.9026 94:35.171 95:35.1126 96:35.8469 97:35.3412 98:35.7771 99:35.8573 100:36.0555 101:37.8021 102:37.6431 103:38.9487 104:39.2603 105:40.2244 106:39.6611 107:40.3113 108:41.3879 109:43.382 110:43.8634 111:44.7772 112:45.31 113:46.5287 114:48.7032 115:50 116:50.9608 117:52.3927 118:54.5491 119:55.5788 120:53.3385 121:47.3814 122:45.5415 123:43.7379 124:42.7551 125:41.9762 126:41 127:39.7777 128:38.6005 129:37.6431 130:37 131:36.0555 132:35.0041 133:33.541 134:32.6497 135:32.249 136:28.1517 137:26.6271 138:21.095 139:20.5913 140:17.8885 141:16.8099 142:15.8114 143:14.5602 144:14.1421 145:13.0384 146:12.9954 147:15 148:16.4012 149:19.105 150:21.2705 151:23.4307 152:25 153:26.4008 154:28.0179 155:30.6585 156:33.2866 157:35.8469 158:37.2156 159:38.9487 160:41.1854 161:43.4166 162:46.0652 163:47.4131 164:54.8902 165:56.0803 166:56.648 167:54.0833 168:53.1413 169:50.9226 170:48.7032 171:46.8188 172:45.5412 173:43.6578 174:41.908 175:40.1622 176:39.2173 177:37.9473 178:36.3676 179:33.8378 180:32.573 181:30.6757 182:29.4109 183:26.8812 184:24.3516 185:23.0868 186:21.1896 187:19.9249 188:18.3469 189:17.1172 190:18.0278 191:21.0238 192:24.0838 193:27.1662 194:41.1096 195:42.19 196:47.1699 197:51.0885 198:55.0364 199:57.0351 200:58.0086 
0.3177930112482129 1 0.2276386715883187 0.2632021114196281 0.1504527103522678 0.4522213522450284 1 1 0.7183379201525276 0.01624535362578029 1:59.0339 2:58.0086 3:50.01 4:49 5:44 6:43.0116 7:40.0125 8:39.0512 9:34.0588 10:32.1405 11:30.2655 12:20.3961 13:19.6469 14:17.72 15:17.088 16:19.6977 17:23.4094 18:26.5793 19:29.7321 20:49.0306 21:50.2195 22:54.1295 23:55.3173 24:55.7853 25:55.0818 26:53.7856 27:31.3847 28:31.0644 29:19.2354 30:20.2485 31:22.1359 32:27.313 33:27.7308 34:29.0689 35:30.2083 36:31.3847 37:32.7567 38:33.8378 39:35.2278 40:37.0135 41:38.4187 42:41.0366 43:43.5017 44:45.9674 45:46.6905 46:48.1041 47:49.4975 48:49.5177 49:45.607 50:44.2041 51:41.1889 52:38.9487 53:37.5899 54:36.6742 55:35.3412 56:34.9285 57:33.6155 58:32.28 59:31.0483 60:30.011 61:29.2746 62:28.1603 63:28 64:27.0185 65:27.4591 66:26.6833 67:27.5136 68:27.5519 69:27.7849 70:30 71:29.8329 72:31.8277 73:31.8277 74:34.0588 75:34.2053 76:39.2807 77:40.3113 78:40.7063 79:42.4853 80:43.4626 81:44.3847 82:44.9444 83:42.7551 84:40.4475 85:39.7579 86:39 87:38.0132 88:38.0526 89:37.1214 90:37.855 91:37.108 92:37.6431 93:37.3481 94:37.1618 95:37.5766 96:37.1214 97:37.5899 98:37.2156 99:37.7359 100:37.4433 101:37.8281 102:38.9487 103:38.8973 104:39.598 105:40 106:39.4081 107:39.6611 108:39.1152 109:39.8246 110:39.5847 111:40.7185 112:41.2311 113:42.1545 114:51.1566 115:51.0882 116:52.0384 117:51.0098 118:48.5 119:45.0111 120:44.0114 121:43.0465 122:42.0476 123:39.3192 124:38.3275 125:31.7648 126:30.7078 127:28.0179 128:26.6271 129:25.807 130:20.2485 131:19.7231 132:18.3576 133:17.8885 134:16.5529 135:14.5842 136:14.1421 137:13.3417 138:14.7648 139:16.1245 140:17.8045 141:19.2094 142:20.5183 143:22.2796 144:24.0416 145:25.4951 146:26.9072 147:29.2062 148:30.6105 149:33.8378 150:35.2278 151:36.7494 152:38.2753 153:39.6611 154:41.3401 155:42.72 156:46.1411 157:47.5079 158:53.6656 159:55.0091 160:55.9133 161:55.1543 162:53.8516 163:52 164:50.6952 165:49.7695 166:48.4665 167:46.6154 168:44.3863 169:42.1545 170:41.2311 171:39.9249 172:38.0789 173:36.7696 174:35.8469 175:34.5398 176:32.9632 177:31.3847 178:30.0832 179:28.2312 180:26.9258 181:25.0799 182:23.7697 183:21.0238 184:19.6977 185:18.1263 186:16.4924 187:17.2627 188:19.2354 189:20.3961 190:23.3452 191:24.5153 192:32.3883 193:36.4999 194:40.6079 195:45.5412 196:46.3897 197:53.3385 198:54.231 199:56.2228 200:57.1402 
0 0 0 0 0 0 1 0.1279095645984588 0 0 1:58.2151 2:57.2189 3:56.1427 4:51.1566 5:48.0938 6:45.0444 7:41.0488 8:40.0125 9:36.5068 10:33 11:32.0156 12:30.0167 13:27.0744 14:24.1868 15:18.2483 16:17.4642 17:18.6705 18:20.2485 19:21.5407 20:28.7856 21:34.2053 22:34.9285 23:37.855 24:43.9439 25:50.01 26:53.9351 27:55.109 28:55.1803 29:43.3244 30:42.72 31:28.3019 32:23.7172 33:20.1246 34:22.8473 35:28.4156 36:32.7567 37:33.2866 38:34.6699 39:36.5036 40:38.4187 41:39.8246 42:41.1096 43:42.8531 44:44.5982 45:45.9674 46:48.7955 47:50.2144 48:50.9902 49:49.0408 50:47.634 51:43.9604 52:42.19 53:40.8167 54:39.63 55:38.4708 56:37.1214 57:36.2491 58:34.5523 59:32.8938 60:32.28 61:31.0483 62:30.21 63:29.4279 64:28.2843 65:28.0713 66:27.0185 67:26.0768 68:26.4764 69:26.1403 70:26 71:28.3019 72:28.0179 73:29.1375 74:32.5576 75:32.6497 76:38.2753 77:39.4494 78:40.7063 79:41.5933 80:42.0476 81:43.208 82:43.0813 83:43.6578 84:42.72 85:41.2425 86:38.6394 87:38.3275 88:37.2156 89:36.3456 90:36.4966 91:35.6931 92:35.7894 93:36.6879 94:36.0555 95:37.1618 96:36.8978 97:36.7151 98:37.2156 99:36.8917 100:39.1279 101:39.6989 102:39.598 103:40.3856 104:39.8246 105:40.2244 106:41.0488 107:42.547 108:43.8292 109:45.618 110:46.0977 111:47.275 112:48.4665 113:50.2892 114:51.2445 115:52.8873 116:54.5711 117:54.3415 118:54.5221 119:53.7587 120:45.8912 121:45.1221 122:42.812 123:41.4849 124:40.8044 125:39.8497 126:38.7463 127:37.6962 128:36.7696 129:35.7771 130:34.6837 131:33.6155 132:33.2866 133:32.45 134:31.4065 135:29.2062 136:28.4253 137:20.562 138:18.3576 139:17.8885 140:16.5529 141:14.5842 142:15.2315 143:16.5529 144:17.4929 145:19.1422 146:20.8087 147:21.4009 148:22.8035 149:24.1351 150:25.4951 151:26.9072 152:28.2931 153:31.1448 154:32.5576 155:34.0588 156:35.8518 157:37.6431 158:38.4187 159:39.8246 160:41.3099 161:43.6005 162:45 163:47.4342 164:51.7673 165:55.0727 166:51 167:50.1199 168:46.9713 169:45.1774 170:44.2945 171:42.5007 172:40.7063 173:39.8246 174:38.4708 175:36.9126 176:35.3553 177:34 178:33.121 179:31.3258 180:29.5296 181:28.6531 182:27.2947 183:25.7398 184:24.1868 185:22.8254 186:19.0475 187:16.1555 188:17.4642 189:18.4391 190:20.1312 191:21.8403 192:24.7386 193:25.9615 194:35.3079 195:38.833 196:40.025 197:49.8197 198:52.1182 199:54.4518 200:57.4282 
0 0 0 0 0 0 0.2635218970696943 1 0 0 1:69 2:68.0074 3:67.0075 4:59.534 5:52.0865 6:47.6318 7:41.1947 8:40.3113 9:35.9281 10:31.5753 11:25.9977 12:20.6155 13:23.2594 14:26.6565 15:31.0161 16:38.477 17:45.8803 18:51.6624 19:56.2762 20:60.8769 21:64.0353 22:65.8027 23:65.146 24:64.9867 25:63.9062 26:27.1018 27:23.2594 28:25 29:28.1684 30:29.7321 31:31.2004 32:32.6956 33:33.1059 34:36.0062 35:37.5899 36:39.8061 37:41.6173 38:43.0116 39:44.9055 40:46.8615 41:48.9241 42:50.9902 43:52.3689 44:53.7587 45:56.5862 46:58.467 47:58.258 48:56.3073 49:52.1536 50:50.774 51:48.5648 52:46.9574 53:45.0013 54:43.0813 55:42.72 56:41.1206 57:39.5601 58:38.4531 59:37.6563 60:36.4966 61:35.6749 62:35.0571 63:34.0147 64:33.0606 65:33.9559 66:33.7088 67:33.6155 68:34.6837 69:36.0555 70:35.805 71:37.5899 72:38.8973 73:40.3831 74:42.0119 75:44.4072 76:45.4896 77:46.6476 78:47.6966 79:48.7647 80:49.1935 81:51.4951 82:52.9245 83:53.3148 84:53.7587 85:52.2745 86:50.9902 87:48.6621 88:47.9446 89:47.0956 90:46.0217 91:45.0111 92:45.0444 93:46.3941 94:45.8912 95:45.966 96:45.8803 97:45.2217 98:45.5952 99:45.6946 100:45.6268 101:45.6508 102:46.1411 103:46.059 104:46.0435 105:46.5079 106:47.0106 107:46.8615 108:48.1248 109:48.7955 110:50.352 111:51.4781 112:52.3546 113:53.2194 114:54.1295 115:55.5583 116:57.0088 117:58.8218 118:60.4528 119:62.0967 120:63.303 121:66.0984 122:63.9549 123:58.3095 124:57.4282 125:55.0165 126:53.6004 127:51.7883 128:50.01 129:49.0306 130:47.056 131:45.8803 132:44.29 133:42.72 134:41.1461 135:40.0369 136:38.9487 137:36.4984 138:33.0151 139:32.2025 140:26.3519 141:23.3238 142:22.1482 143:20.6155 144:19.3132 145:17.8509 146:19.7231 147:21.3642 148:23.0217 149:24.2074 150:25.9307 151:27.6586 152:29.7069 153:32.5576 154:33.9706 155:36.9392 156:39.2046 157:41.4049 158:43.6005 159:44.4072 160:47.0318 161:49.6488 162:52.8443 163:61.2944 164:62.8566 165:64.846 166:65.307 167:63.232 168:61.4654 169:59.888 170:57.3847 171:56.0803 172:53.5777 173:50.1597 174:48.3869 175:46.6154 176:45.6946 177:43.9237 178:42.1545 179:40.578 180:39 181:37.6962 182:35.1934 183:32.6956 184:30.9239 185:29.1548 186:27.313 187:25.083 188:22.8473 189:19.7043 190:17.72 191:18.4391 192:22.9489 193:27.4591 194:35.531 195:43.566 196:56.4358 197:59.3046 198:62.2013 199:65.6566 200:67.1193 
0.8449793622882842 1 0.6652022076627445 0.9298150201660359 1 0.5330929107820448 1 1 1 1 1:65.7647 2:63.5059 3:62.514 4:61.4003 5:59.311 6:57.2189 7:56.1427 8:55.1453 9:52.5381 10:51.0098 11:50.01 12:49 13:47.5053 14:46.0109 15:45.0444 16:43.575 17:42.107 18:41.1947 19:40.1995 20:38.8234 21:36.6742 22:35.6931 23:34.9285 24:33.5987 25:31.3209 26:30.6757 27:29.4434 28:28.2312 29:27.7308 30:26.8328 31:26.7328 32:29.0689 33:29.8329 34:31.241 35:42.2724 36:48.8467 37:49.3964 38:57.8705 39:59.2999 40:58.3095 41:56.4624 42:55.4914 43:54.5619 44:52.7731 45:52.3546 46:49.5678 47:46.8722 48:46.6154 49:41.1096 50:37.1616 51:33.6155 52:32.6497 53:32.9007 54:33.2415 55:32.573 56:33.2415 57:32.9671 58:33.1361 59:34.0588 60:34.0147 61:35.3751 62:36.8782 63:37.6431 64:39.4111 65:41.2311 66:42.9418 67:44.2945 68:46.4815 69:51.8556 70:51.7397 71:52.4023 72:51.759 73:52.6308 74:50.2195 75:50.4777 76:46.7391 77:43.6578 78:44.2719 79:43.3457 80:43.4166 81:42.5793 82:44.9444 83:44.7866 84:44.7214 85:45.6508 86:45.2769 87:46.1842 88:47.2017 89:47.0106 90:52.3355 91:55.3173 92:55.4437 93:58.6003 94:60.0581 95:61.5873 96:62.434 97:62.7694 98:60.1544 99:58.5918 100:57.2451 101:55.6825 102:40.6079 103:40.4599 104:36.7696 105:35.501 106:32.8024 107:31.6228 108:26.0768 109:22.9022 110:17.0294 111:17.2047 112:15.6525 113:15.7263 114:16.1245 115:16.0312 116:17.0586 117:20.6155 118:20.8806 119:28.6356 120:31.5438 121:34 122:51.8652 123:52.4309 124:56.9071 125:58.6003 126:59.203 127:60.9131 128:62.6259 129:65.8559 130:64.3817 131:61.1912 132:56.5862 133:55.8659 134:45.9674 135:41.0122 136:36.0694 137:29 138:28.2843 139:23.6934 140:21.9317 141:21.2603 142:22.0528 143:26.6271 144:27.4591 145:31.6228 146:33.1439 147:34.6699 148:36.0555 149:36.8917 150:38.6953 151:41.8808 152:42.72 153:45.9056 154:49.0918 155:49.93 156:51.3128 157:52.8443 158:55.2268 159:56.6039 160:58.3095 161:63.1654 162:65.7419 163:60.4152 164:58.1829 165:55.9464 166:52 167:51.0784 168:46.7042 169:42.3792 170:41.4367 171:35.171 172:32.9929 173:30.8058 174:28.4429 175:27.4591 176:25.8119 177:23.0868 178:23.0217 179:25 180:27.0185 181:28.0179 182:29.0689 183:31.6024 184:36.1248 185:37.2156 186:38.2099 187:39.8152 188:41.4367 189:42.4264 190:44.5536 191:46.6905 192:48.6621 193:49.8197 194:53.3541 195:55.9017 196:57.0701 197:59.0339 198:61.1885 199:63.3482 200:65.307 
0 0 0 0 0 0 0.1567942219971446 0.04595633235878314 0 0 1:75 2:73.6817 3:66.4273 4:62.9682 5:60.7464 6:57.5858 7:55.3624 8:50.9763 9:45.9627 10:39.8121 11:36.6846 12:33.541 13:30.2083 14:27.1023 15:24.6982 16:20.8814 17:18.7449 18:19.2094 19:20.7005 20:23.6018 21:25.6125 22:31.5657 23:34.7131 24:37.5034 25:42.4323 26:45.2548 27:48.4394 28:50.5704 29:52.345 30:54.4886 31:57.3455 32:58.7963 33:61.9948 34:72.2496 35:74.9867 36:71.6415 37:70.2922 38:68.5667 39:66.5312 40:64.8151 41:63.502 42:61.5021 43:60.2163 44:57.1438 45:54.0833 46:52.8443 47:50.2505 48:48.3735 49:46.7701 50:43.6056 51:42.0476 52:40.3147 53:34.8374 54:30.8058 55:27.2304 56:26.0768 57:26.5096 58:27.5449 59:29.0689 60:32.639 61:36.5548 62:38.0132 63:40.5062 64:42.5058 65:45.0111 66:46.543 67:48.0937 68:49.6257 69:51.6982 70:53.2353 71:54.8293 72:58.0539 73:60.8276 74:62.3912 75:63.9531 76:65.6068 77:67.7588 78:69.4262 79:74.1576 80:73.9912 81:73.3348 82:64.5078 83:60.6321 84:59.2115 85:57.765 86:56.3205 87:54.9477 88:53.1061 89:50.9902 90:49.6271 91:47.9048 92:46.5725 93:45.4012 94:43.7981 95:42.72 96:41.5081 97:40.3113 98:39.3611 99:38.7097 100:38.5876 101:38.9741 102:39.3064 103:39.8246 104:40.3677 105:41.3687 106:41.7732 107:42.5793 108:43.4166 109:44.0038 110:45.3687 111:49.0408 112:52.8557 113:57.7385 114:60 115:56.5573 116:55.5045 117:55.0818 118:54.2401 119:53.4603 120:53.3558 121:53.2435 122:53.4509 123:53.1497 124:53.1174 125:52.8015 126:53.4505 127:53.2047 128:53.2541 129:53.1075 130:53.8238 131:55.2954 132:55.6862 133:55.4617 134:55.7446 135:56.4754 136:64.4981 137:66.2239 138:68.0294 139:69.0615 140:60.8296 141:56.7186 142:54.0383 143:49.1971 144:47.0106 145:45.0278 146:42.3615 147:39.2938 148:37.9853 149:36.6879 150:35.5848 151:33.3658 152:31.6228 153:27.8468 154:25.1126 155:26 156:27.5219 157:29.5428 158:31.3847 159:33.1439 160:36.2353 161:38.9772 162:43.1618 163:46.0109 164:52.901 165:58.6769 166:62.2656 167:63.0897 168:65.8145 169:62.6418 170:60.105 171:51.8652 172:47.7704 173:42.2556 174:39.5601 175:37.0484 176:32.9632 177:30.4631 178:27.7778 179:23.7203 180:21.0238 181:18.7944 182:16.4924 183:20.2288 184:26.576 185:30.0167 186:33.5076 187:37.5066 188:40.0125 189:42.5471 190:46.5968 191:49.163 192:51.6982 193:54.231 194:56.3206 195:59.4139 196:61.5224 197:63.0768 198:65.1972 199:66.7533 200:72.6739 
0.2360567225822927 0.2062840140144299 0.003921244918091813 0 0.2437251850055485 0.01030646014615311 0 0 0.1598864485041963 0 1:73.2462 2:72.1734 3:71.1758 4:69.615 5:68.0661 6:64.5502 7:59.0339 8:58.0086 9:51.5048 10:48 11:44.5113 12:41.0488 13:39.0512 14:36.6233 15:34.2345 16:29.8467 17:21.587 18:20.8806 19:19.3566 20:19.7231 21:21.5248 22:23.3238 23:26.6185 24:30.8707 25:32.2025 26:35.5888 27:39.9249 28:42.6212 29:45.31 30:49.0408 31:52.6781 32:56.3028 33:64.5183 34:67.0522 35:73.3894 36:74.3813 37:76.1577 38:68.1367 39:60.208 40:56.0357 41:51.8426 42:47.634 43:42.4323 44:38.9487 45:36.886 46:34.8281 47:34.2053 48:32.2126 49:30.2324 50:28.6664 51:30.0832 52:30.6757 53:32.2583 54:33.8378 55:41.8385 56:48.7647 57:49.2443 58:52.2249 59:53.8516 60:55.7592 61:57.6888 62:60.7488 63:72.2011 64:73.0069 65:74.8087 66:75.452 67:76.4132 68:73.9256 69:72.5603 70:70.9122 71:69.7711 72:68.2015 73:65.307 74:64.8845 75:62.044 76:59.2368 77:57.5877 78:55.9732 79:50.9608 80:48.2932 81:45.7056 82:42.2433 83:41.1096 84:40.5061 85:44.7214 86:44.2945 87:46.1842 88:47.2017 89:47.6404 90:48.1664 91:49.5177 92:50.2144 93:51.0882 94:52.5971 95:54.2033 96:56.9386 97:59.1703 98:59.808 99:60.0908 100:57.28 101:53.783 102:51.3517 103:52.2398 104:52.5047 105:55.0818 106:54.8842 107:54.7814 108:55.9464 109:56.3839 110:56.9386 111:57.7055 112:58.0086 113:57.8014 114:58.275 115:59.4643 116:59.761 117:60.1082 118:62.2896 119:63.9034 120:65.6049 121:67.3126 122:69.0652 123:70.1804 124:71.6938 125:73.4302 126:73.8464 127:71.6938 128:68.0776 129:63.9062 130:62.6259 131:52.1434 132:50.9902 133:49.6509 134:48.0208 135:47.1699 136:46.4578 137:45.8039 138:44.1247 139:41.7732 140:41.7253 141:38.9166 142:37.5366 143:33.9773 144:31.8277 145:29.7069 146:26.4008 147:26.6271 148:26.2482 149:25.9422 150:26.2004 151:26.5707 152:25.9615 153:26.5799 154:32.0156 155:33.7089 156:35.5106 157:37.855 158:39.92 159:42.0595 160:44.7713 161:46.2385 162:47.2712 163:48.3322 164:50.9902 165:52.1013 166:53.2353 167:54.831 168:56.4358 169:56.9386 170:58.5699 171:60.208 172:63.9291 173:60.959 174:56.7274 175:54.562 176:52.4023 177:49.2073 178:47.4236 179:46.6905 180:44.9151 181:41.7253 182:38.8909 183:36.0694 184:31.4862 185:15.6205 186:14.8661 187:16.4469 188:19.4165 189:21.7836 190:24.1868 191:25.5539 192:27.9739 193:32.2025 194:36.733 195:41.2311 196:47.7598 197:52.3502 198:56.921 199:68.7668 200:70.0928 
0.388675477362937 0.4896547160133927 0.2973541609739158 0.4359063476604729 0.06067341101601101 0.1893647563867338 0.4182202600251454 0.3968491429906567 0.0743210541766731 0.0682238463921714 1:73.7564 2:73.0069 3:71.672 4:68.4105 5:63.9016 6:59.4643 7:52.6586 8:45.1774 9:40.9897 10:35.805 11:29.2054 12:31.0644 13:34.4189 14:38.1104 15:39.8246 16:41.1644 17:43.1856 18:45.2828 19:47.3814 20:48.7904 21:50.9313 22:53.0798 23:55.2268 24:57.4326 25:59.6657 26:61.4602 27:69.2055 28:70.9366 29:71.5472 30:72.1803 31:71.4353 32:67.9412 33:65.5325 34:63.1269 35:60.5187 36:58.6003 37:56.3361 38:54.0833 39:52.3118 40:50.4235 41:48.7647 42:47.1853 43:45.618 44:44.1199 45:43.0813 46:41.6109 47:40.1622 48:39.2281 49:39.1152 50:40.05 51:41.3514 52:42.7551 53:44.9065 54:47.0106 55:47.6981 56:48.5489 57:53.8609 58:54.4885 59:54.8121 60:55.3173 61:57.5544 62:58.8982 63:61.3106 64:62.9165 65:62.6498 66:62.8367 67:63.0714 68:61.9884 69:60.9262 70:58.1246 71:56.0803 72:53.1497 73:53.4509 74:53.2435 75:52.7731 76:53.4695 77:54.134 78:53.0848 79:53.9709 80:54.4059 81:54.2701 82:54.231 83:55.2354 84:55.4707 85:55.3212 86:55.2268 87:55.6146 88:56.0357 89:56.1018 90:56.8559 91:57.3847 92:58.7112 93:60.8276 94:61.6234 95:62.482 96:64.117 97:65.8027 98:66.4404 99:67.1193 100:68.9563 101:70.1496 102:69.8355 103:70.0032 104:68.4251 105:64.2344 106:60.0083 107:57.3203 108:54.626 109:51.0074 110:47.5079 111:46.4863 112:44.6542 113:44.0038 114:42.6427 115:41.7732 116:40.3113 117:38.2884 118:38.1104 119:36.4006 120:35.1072 121:33.6006 122:28.521 123:25 124:24.2252 125:24.1661 126:24.5249 127:24.8693 128:31.0161 129:33.8693 130:36.8782 131:44.435 132:47.1699 133:48.8496 134:50.5668 135:53.4458 136:56.356 137:58.1821 138:60.5392 139:62.1726 140:65.2115 141:65.7647 142:58.707 143:53.0377 144:51.2677 145:48.0833 146:44.5534 147:41.0366 148:26.5399 149:19.105 150:18.4119 151:20.7005 152:22.2036 153:24.007 154:25.807 155:27.3225 156:29.6816 157:31.9106 158:34.1321 159:37.397 160:40.7063 161:42.9443 162:45.1774 163:47.6293 164:51.6581 165:55.0364 166:58.1866 167:61.327 168:66.5776 169:68.1542 170:69.1757 171:73.4983 172:73.6129 173:72.7805 174:71.3906 175:69.2315 176:67.5741 177:64.9387 178:62.8013 179:60.2551 180:56.7186 181:54.5896 182:52.469 183:49.9268 184:47.3814 185:45.7739 186:44.1814 187:42.6463 188:40.1123 189:38.0526 190:35.5141 191:34 192:30.5083 193:27.0185 194:25.08 195:21.587 196:27.1894 197:32.7567 198:53.8963 199:66.2722 200:67.862 
0.1652510004948354 0.437685150856976 0.2850386320345787 0.34136280910404 0.3215835426380006 0.1485885371937851 0.6480385817845076 0.8204212306820973 0.2202998735536765 0.08191099732555368 1:72.8354 2:70.5762 3:69.5845 4:67.476 5:65.3758 6:60.8498 7:55.3263 8:54.231 9:51.6982 10:49.163 11:46.5968 12:44.0454 13:41.5299 14:39.0128 15:38 16:35.5071 17:30.0167 18:27.0744 19:24.1868 20:21.4096 21:20.8806 22:22.1359 23:23.7192 24:29.1204 25:35.6822 26:42.2019 27:63.3772 28:65.9242 29:73.0069 30:73.3865 31:70.8378 32:53.9356 33:36.2353 34:31.1207 35:27.2029 36:27.7849 37:29.3349 38:31.0644 39:32.7326 40:34.4093 41:35.7003 42:37.6431 43:39.0512 44:41.067 45:43.1393 46:45.2604 47:47.3814 48:49.5782 49:51.7439 50:53.9073 51:56.1472 52:58.4123 53:68.8883 54:69.4262 55:70.0928 56:66.2589 57:61.0737 58:58.5022 59:56.6127 60:54.3764 61:52.1536 62:50.6063 63:49.0045 64:47.4131 65:45.8537 66:44.3847 67:42.7303 68:41.1096 69:40.5216 70:38.6535 71:39 72:39.7579 73:41.4849 74:45.114 75:47.1699 76:48.8262 77:51.1796 78:53.7401 79:55.3891 80:56.4004 81:57.0205 82:60.2163 83:61.8547 84:63.7295 85:63.9766 86:63.8195 87:63.3246 88:62.0322 89:61.0458 90:60.0833 91:58.3462 92:55.3624 93:54.5238 94:54.1479 95:55.0818 96:54.5598 97:54.7449 98:54.2531 99:53.8516 100:54.3958 101:54.7814 102:54.231 103:54.3777 104:55.0091 105:54.831 106:54.7083 107:55.0725 108:55.4707 109:55 110:55.4615 111:55.9732 112:56.244 113:56.5862 114:58.0947 115:58.8982 116:59.0339 117:60.7041 118:61.6117 119:62.5486 120:63.6318 121:64.6913 122:65.7647 123:66.1891 124:67.5557 125:66.1287 126:53.9382 127:49.98 128:48.1041 129:47.0775 130:46.0977 131:44.9549 132:43.8292 133:42.9803 134:41.8808 135:41.0488 136:40.4022 137:39.8246 138:39 139:38.2099 140:36.826 141:32.6497 142:29 143:26.5994 144:25.807 145:24.8791 146:24.5967 147:25.316 148:26.4764 149:26.1725 150:29.0086 151:34.5254 152:35.9105 153:37.3631 154:40.0059 155:42.72 156:43.0813 157:45.8962 158:47.4236 159:48.5237 160:49.6488 161:52.597 162:54.2033 163:54.7083 164:56.3421 165:57.9828 166:59.2159 167:61.0328 168:62.426 169:65.9316 170:63.1269 171:57.1083 172:55.3173 173:53.1508 174:50.9902 175:49.5782 176:48.13 177:46.6905 178:42.0876 179:36.0694 180:31.8198 181:27.5862 182:19.105 183:17.7481 184:19.2094 185:22.3275 186:23.8537 187:26.0823 188:28.3019 189:30.0167 190:32.6924 191:35.3553 192:39.5797 193:42.9535 194:44.7358 195:46.5188 196:57.5847 197:63.5904 198:68.9638 199:71.3509 200:72.5672 
0 0 0.03286911045527025 0.03834868268918952 0.01578177550783046 0 0 0 0 0 1:72.111 2:70.2567 3:46.3897 4:45.5412 5:24.1297 6:24.5967 7:25.4951 8:26.8328 9:29.3011 10:31.7805 11:33.1059 12:34.0147 13:36.71 14:39.3954 15:42.1545 16:44.3863 17:46.6154 18:49.3964 19:50.6952 20:55.0689 21:60.407 22:61.6847 23:63.5689 24:72.1135 25:72.45 26:63.6318 27:60.1242 28:56.6039 29:51.614 30:50.2195 31:43.983 32:41.0366 33:39.6232 34:37.4833 35:35.3912 36:33.3017 37:32.0156 38:30.6105 39:27.9814 40:29.0689 41:29.5466 42:32.6997 43:34.4384 44:39.8246 45:40.3113 46:43.3063 47:46.3249 48:46.8722 49:48.2597 50:50.2201 51:52.2015 52:53.6004 53:54.9045 54:56.2228 55:67.4759 56:69.814 57:69.7023 58:69.6348 59:69.0652 60:67.6757 61:65.8826 62:64.1405 63:62.7694 64:61.5836 65:60.4152 66:59.0593 67:58.5918 68:57.0215 69:54.1295 70:53.7122 71:52.3927 72:50.6982 73:49.0408 74:46.4866 75:46.1736 76:44.7826 77:42.2019 78:41.9762 79:38.3992 80:37.2156 81:37 82:36.0139 83:38.7419 84:42.4382 85:42.2019 86:43.4166 87:43.9382 88:44.5533 89:45.2548 90:46.3924 91:47.634 92:50.8035 93:51.0392 94:53.2456 95:55.5428 96:56.8595 97:58.6941 98:61.7464 99:60.0167 100:58.8558 101:58.1264 102:57.4282 103:56.4358 104:54.231 105:53.5605 106:53.0377 107:52.0865 108:53.6004 109:53.1688 110:52.811 111:53.1413 112:52.5547 113:52.177 114:51.8845 115:51.4781 116:51.7974 117:52.1536 118:51.4004 119:50.6063 120:50.6596 121:51.0882 122:50.448 123:50.8035 124:50.8488 125:51 126:52.9245 127:52.848 128:52.811 129:53.4509 130:53.1601 131:53.726 132:54.3415 133:54.1295 134:54.9181 135:55.1618 136:55.4437 137:57.2189 138:57.0088 139:49.2549 140:46.1736 141:45.1774 142:43.0291 143:40.05 144:40.1123 145:38.3275 146:37.6745 147:37.108 148:32.7567 149:31.0644 150:29.1674 151:27.2947 152:25.632 153:23.7732 154:24.0832 155:25 156:26.2488 157:27.9743 158:29.0689 159:30.4138 160:31.3847 161:33.8783 162:36.4006 163:38.9487 164:41.0431 165:43.1393 166:45.2769 167:46.6905 168:50.3836 169:62.434 170:62.7694 171:63.6318 172:65.2086 173:62.0322 174:60.1664 175:58.8727 176:54.503 177:51.0784 178:49.7695 179:46.3526 180:43.8634 181:42.5441 182:40.7185 183:38.486 184:36.2491 185:35.3412 186:34.0147 187:31.5366 188:29.9666 189:28.6356 190:26.164 191:24.5967 192:20.6155 193:21.1896 194:24.6699 195:49.6488 196:50.4876 197:59.4138 198:62.2899 199:65.192 200:66.1891 
0 0 0 0 0 0 0 0.3326047546300568 0 0 1:71.0634 2:69.1809 3:49.2544 4:48.3735 5:39.0491 6:32.7567 7:31.5753 8:25.355 9:24.0416 10:23.4094 11:24.8306 12:27.313 13:28.6356 14:31.1218 15:32.6956 16:34.0147 17:36.5044 18:40.8534 19:42.1545 20:45.5915 21:48.1041 22:49.3964 23:53.7828 24:59.1354 25:60.407 26:62.9333 27:64.5136 28:69.6419 29:70.6582 30:71.6938 31:71.1758 32:71.3508 33:63.1348 34:61.7738 35:55.9153 36:51.0392 37:49.6488 38:43.3417 39:39.6232 40:38.2099 41:36.0624 42:33.9706 43:32.5576 44:31.241 45:28.646 46:28.178 47:31.7805 48:34.6619 49:38.9487 50:39.4462 51:42.455 52:45.4863 53:46.0435 54:47.7223 55:50.8035 56:51.4004 57:53.1075 58:56.2228 59:56.8507 60:67.8687 61:69.2026 62:68.6003 63:68.5304 64:66.8506 65:65.7343 66:63.8178 67:61.9112 68:61.4003 69:59.7866 70:58.1808 71:57.7062 72:54.7855 73:53.2259 74:52.8015 75:51.2783 76:48.4665 77:48.1041 78:45.3814 79:43.9659 80:43.6807 81:39.9185 82:37.4833 83:37.3363 84:36.2215 85:35.5919 86:39.8246 87:39.4462 88:41.5089 89:43.2782 90:43.1856 91:43.852 92:45.2769 93:45.3431 94:48.5076 95:51.0392 96:54.231 97:56.9261 98:60.7289 99:58.8558 100:57.6324 101:53.1507 102:53.0094 103:52.0432 104:51.1566 105:52.8867 106:52.5063 107:51.6236 108:52 109:51.2099 110:50.6063 111:51.1077 112:51.0434 113:50.2494 114:49.5782 115:49.5117 116:50.2494 117:49.7393 118:50.3135 119:51.0784 120:50.6952 121:51.0928 122:51.5461 123:51.2445 124:51.923 125:52.1863 126:52.7731 127:53.6004 128:53.7848 129:54.0093 130:53 131:51.1319 132:48.2597 133:47.3814 134:44.8407 135:43.2897 136:41.1096 137:40.0244 138:39.0128 139:38.0526 140:37.6669 141:37.3363 142:35.6931 143:35.1923 144:34.7851 145:32.249 146:31.2246 147:29.6816 148:28.6531 149:26.4633 150:24.3516 151:23.1948 152:24.2992 153:25.7099 154:26.9258 155:28.65 156:30.4138 157:31.3847 158:33.2973 159:35.2278 160:37.6431 161:39.7061 162:41.7732 163:43.8406 164:45.2548 165:48.13 166:53.4135 167:54.8179 168:59.7744 169:62.434 170:64.8845 171:62.7718 172:60.5392 173:59.2368 174:55.8083 175:51.4781 176:50.1597 177:47.6714 178:45.1885 179:43.8634 180:41.3831 181:38.9102 182:37.5766 183:35.1077 184:33.541 185:32.2025 186:30.6358 187:28.178 188:26.8328 189:23.937 190:22.4722 191:28.1603 192:33.2594 193:37.855 194:53.6004 195:57.4294 196:61.2944 197:64.2806 198:65.6906 199:70.0071 200:70 
0 0 0.1226888264645902 0.7339102985143954 0 0 1 1 0.4342450580003693 0 1:52.1536 2:52.1536 3:51.2445 4:27.4591 5:26.6833 6:18.9737 7:17.4929 8:20.2485 9:21.095 10:22.4722 11:23.3238 12:24.6982 13:25.5539 14:26.9258 15:28.6531 16:30.0167 17:32.6497 18:34 19:35.7771 20:37.1214 21:38.0132 22:39.3573 23:42.0476 24:43.382 25:46.0977 26:52.7731 27:53.2353 28:52.8394 29:51.1077 30:51.1077 31:49.7393 32:47.1699 33:45.793 34:41.6173 35:40.2244 36:36.2353 37:34.8281 38:32.5576 39:31.1448 40:29.6985 41:28.2843 42:26.9072 43:25.4951 44:24.2074 45:22.8035 46:20.5913 47:21.5407 48:22.4722 49:23.0868 50:24.3516 51:26.2488 52:27.5136 53:27.8568 54:31.7805 55:32.2025 56:36.2353 57:36.7151 58:39.4462 59:39.4462 60:39.9625 61:42.72 62:43.2666 63:50.2195 64:51.0392 65:51.3128 66:50.774 67:49.3964 68:48.8774 69:47.5079 70:47.0106 71:45.6508 72:45.1774 73:42.4853 74:42.0476 75:40.7185 76:40.3113 77:37.6962 78:37.3363 79:34.7851 80:34.4819 81:28.4429 82:28.2843 83:27.1662 84:27.0185 85:26.0768 86:27.5136 87:27.5136 88:26.9258 89:29.6816 90:29.4109 91:30.6105 92:30.4795 93:31.8277 94:31.8277 95:32.5576 96:32.6497 97:33.4216 98:33.6006 99:34.4093 100:38.6005 101:37.6563 102:36.8782 103:37.108 104:36.4006 105:37 106:35.8469 107:36.2491 108:35.7771 109:36.2353 110:35.8469 111:36.3593 112:36.0555 113:36.6197 114:36.6197 115:36.0555 116:36.0555 117:36.7151 118:36.2353 119:36.6742 120:36.2491 121:36.7696 122:36.4006 123:37 124:36.6879 125:37.3631 126:37.108 127:37.855 128:37.4833 129:39.2046 130:39.0512 131:40.0125 132:40 133:35.3553 134:33.3766 135:32.249 136:32.1403 137:31.0644 138:31 139:29.0689 140:29.1548 141:25.9615 142:26.2488 143:24.1868 144:24.1868 145:23.3238 146:23.0217 147:22.2036 148:19.4165 149:18.3576 150:17 151:15.5242 152:16.2788 153:16.2788 154:17.4642 155:18.7883 156:20.1246 157:21.095 158:22.4722 159:23.0217 160:24.4131 161:26.2488 162:27.6586 163:29.6985 164:31.1127 165:33.3017 166:34.7131 167:37.8021 168:39.2046 169:45.793 170:47.927 171:47.5395 172:46.2385 173:46.2385 174:44.3847 175:43.0813 176:40.3113 177:39 178:36.2491 179:34.9285 180:33.1059 181:31.7805 182:29.9666 183:28.6356 184:27.7308 185:26.4008 186:25.4951 187:24.1661 188:23.2594 189:21.9317 190:20.1246 191:14.8661 192:15.5242 193:36.2215 194:37.1214 195:43.1045 196:44.0454 197:46.0435 198:47.0106 199:48.0104 200:52.0865 
0 0 0 0 0 0 0.5511462249786324 0 0 0 1:53.9351 2:53.9351 3:53.1507 4:45.3542 5:44.1475 6:37.3631 7:36.1386 8:23.7697 9:22.4722 10:19.6977 11:19.2354 12:18.3576 13:18.0278 14:19.8494 15:22.6716 16:23.4307 17:24.8395 18:25.6125 19:27.0185 20:27.8029 21:29.2062 22:30.8058 23:32.2025 24:33.0151 25:34.4093 26:35.2278 27:36.6197 28:37.4433 29:38.833 30:40.4969 31:41.8808 32:43.566 33:44.9444 34:46.6476 35:53.535 36:54.6443 37:50.6063 38:49.2037 39:47.634 40:46.2277 41:46.2277 42:44.6878 43:43.2782 44:41.7732 45:40.3609 46:38.8973 47:37.4833 48:36.0694 49:34.6554 50:33.3017 51:31.8904 52:30.6105 53:29.2062 54:28.6007 55:27.2029 56:26.6271 57:25.2389 58:24.6982 59:23.3238 60:21.5407 61:22.8035 62:27.6586 63:32.573 64:33.5261 65:41.2311 66:41.6293 67:48.3011 68:49.1935 69:50.5371 70:51.4296 71:50.5668 72:49.2443 73:48.8467 74:47.5395 75:47.1699 76:43.3244 77:43.0116 78:28 79:28.0713 80:27.1662 81:27.1662 82:27.6586 83:26.9258 84:28.2312 85:27.7308 86:29.1548 87:28.8444 88:30.6105 89:30.4795 90:31.1448 91:31.1127 92:31.8277 93:32.0156 94:32.8024 95:33.0151 96:33.8378 97:34.1321 98:34.9857 99:35.7771 100:36.6742 101:38.8973 102:38.6005 103:39.2938 104:38.4708 105:37.6563 106:38.0789 107:37.3631 108:37.6431 109:37 110:37.6962 111:36.2353 112:36.7151 113:36.0555 114:36.6197 115:36.2353 116:36.8782 117:36.1248 118:36.4006 119:35.805 120:36.3593 121:36.3593 122:35.8469 123:36.2353 124:35.7771 125:36.2491 126:35.8469 127:36.4006 128:36.0555 129:36.6879 130:36.1386 131:36.8782 132:36.4966 133:37.3363 134:37.1214 135:38.0526 136:38.0132 137:39 138:39.0128 139:40.05 140:40.1995 141:36.1386 142:34.2053 143:31.7805 144:31.5753 145:30.4138 146:30.0666 147:29.0172 148:29 149:27.074 150:27.1662 151:25.4951 152:25.7099 153:22.8254 154:21.095 155:18.3576 156:17.4642 157:16.1555 158:17.4929 159:18.868 160:20 161:20 162:21.4009 163:23.3452 164:24.7588 165:29.2062 166:30.6105 167:36.3593 168:37.7359 169:44.7214 170:45.1885 171:46.0977 172:48.3839 173:47.8017 174:46.5725 175:42.72 176:41.4849 177:35.7351 178:34.4819 179:30.6757 180:29.4109 181:27.5136 182:26.2488 183:24.3516 184:23.0868 185:21.1896 186:19.9249 187:18.9737 188:15.2971 189:17.0294 190:24.0208 191:25 192:29 193:30.0167 194:36.0139 195:37.054 196:42.0476 197:43.1045 198:45.0999 199:46.1736 200:47.1699 
0 0 0 0 0 0 0 1 0 0 1:55.7136 2:50.1597 3:48.8467 4:47.0106 5:45.6946 6:44.7772 7:43.4626 8:40.7185 9:39.3954 10:35.7771 11:34.4384 12:31.7648 13:30.4138 14:28.6531 15:27.2947 16:25.7398 17:23.3238 18:21.9545 19:19.4165 20:19.105 21:22.0227 22:27.6586 23:28.3196 24:31.1448 25:31.8277 26:36.0694 27:36.7696 28:41.0122 29:41.7253 30:43.5014 31:45.2769 32:46.0109 33:55.9017 34:56.5862 35:56.5685 36:55.8659 37:54.4518 38:53.7587 39:52.345 40:51.6624 41:50.2494 42:49.5782 43:48.1664 44:46.0978 45:44.0454 46:42.638 47:42.0119 48:40.6079 49:40 50:37.2022 51:36.6197 52:35.2278 53:34.1321 54:31.3847 55:30.8869 56:25.4951 57:25.0799 58:22.4722 59:22.3909 60:24.1868 61:25.0799 62:28.0713 63:29.1548 64:30.1496 65:31.257 66:32.249 67:33.3766 68:35.3553 69:38.833 70:39.8121 71:42.2019 72:43.1741 73:47.3209 74:50.2892 75:51.2445 76:52.4976 77:54.4059 78:54.1202 79:52.8867 80:52.6308 81:47.8539 82:46.8722 83:38.0132 84:37.0135 85:35.0143 86:34.0147 87:31.6426 88:28.6356 89:27.6586 90:26.2488 91:26.9258 92:26.4008 93:26.8328 94:26.4197 95:27.4591 96:27.0185 97:27.6586 98:27.5862 99:28.2843 100:28.3196 101:29.3753 102:30.5287 103:32.8938 104:33.8378 105:39.2046 106:39.0512 107:38.1182 108:38.4708 109:37.6563 110:38.8973 111:38.2753 112:38.6264 113:37.5766 114:38.0132 115:37.2156 116:37.3071 117:37.5366 118:37.4833 119:36.7967 120:37.0135 121:36.4006 122:36.6197 123:36.0555 124:36.3593 125:35.8469 126:36.2353 127:35.7771 128:36.2491 129:35.8469 130:36.228 131:36.6879 132:35.9026 133:36.6742 134:36.3456 135:37.2156 136:37 137:38.0132 138:38.1182 139:39.2046 140:40.8044 141:38.0132 142:37.1214 143:34.4384 144:33.3551 145:31.9531 146:30.6757 147:29.6142 148:28.4429 149:28.2843 150:27.1662 151:27.074 152:26.0192 153:26.0192 154:22.561 155:19.6469 156:17.2627 157:17.1172 158:16.0312 159:15.5166 160:15.8114 161:15.2315 162:23.6008 163:25 164:26.6271 165:26.9258 166:42.3792 167:43.0116 168:44.9222 169:45.607 170:46.5725 171:50.4876 172:50.3587 173:40.3275 174:30.2655 175:23.3452 176:22.2036 177:20.2237 178:17 179:17.0294 180:18.1108 181:20.0998 182:21.2132 183:23.1948 184:24.3311 185:26.3059 186:27.4591 187:29.0286 188:30.5941 189:31.7805 190:33.7343 191:34.9285 192:35.9026 193:37.108 194:39.0512 195:40.2616 196:41.2311 197:42.45 198:44.3847 199:46.8402 200:47.8017 
0 0 0 0 0 0 0 1 0 0 1:56.7979 2:56.356 3:55.4707 4:54.1202 5:52.3546 6:51 7:49.2443 8:47.8853 9:47.0106 10:45.6508 11:44.7772 12:43.4166 13:41.6773 14:39.8787 15:38.0789 16:36.3593 17:34.9857 18:34.1321 19:32.7567 20:31.0644 21:29.6816 22:28.0179 23:25.2389 24:24.4131 25:23.0217 26:21.5061 27:18.4391 28:18.4391 29:21.6333 30:28.6007 31:29.4109 32:35 33:35.609 34:42.638 35:43.2782 36:47.5079 37:48.1664 38:53.8145 39:55.2675 40:56.7274 41:56.8507 42:55.6058 43:52.8015 44:52.2015 45:49.4065 46:48.8262 47:44.6542 48:44.1022 49:41.3401 50:40.8167 51:36.4752 52:33.541 53:33.1059 54:22.8035 55:22.561 56:21.3776 57:21.095 58:24.0208 59:31.0161 60:32 61:34 62:35.0143 63:37.0135 64:38.5519 65:40.1123 66:41.1096 67:42.19 68:43.1856 69:44.2832 70:45.2769 71:46.3897 72:47.3814 73:48.5077 74:49.4975 75:50.636 76:54.5206 77:48.0104 78:47.0106 79:45.0111 80:44.0114 81:43.0465 82:42.0476 83:40.1995 84:39.2046 85:37.4833 86:35.5106 87:34.7131 88:33.7343 89:32.5002 90:31.3209 91:30.3645 92:29.7321 93:28.7924 94:28.2312 95:27.313 96:26.0768 97:26.6271 98:26.4008 99:27.0185 100:26.8701 101:27.802 102:28.8444 103:34.5254 104:35.5106 105:39.0512 106:39.0128 107:40 108:40.4475 109:39.6232 110:39.8121 111:39.0512 112:40.4969 113:39.9249 114:39.8343 115:39.8246 116:38.2884 117:38.9487 118:39.0512 119:38.4187 120:38.6005 121:38.0132 122:38.2753 123:37.7359 124:38.0789 125:36.2491 126:36.5851 127:37 128:36.6879 129:37.3631 130:36.8782 131:37.6563 132:37 133:38.0132 134:38.3275 135:39.4588 136:40.025 137:39.2938 138:41.2311 139:38.591 140:34.9857 141:33.541 142:32.2025 143:30.0832 144:28.8617 145:28.2843 146:27.1662 147:27.0185 148:23.1948 149:20.2237 150:16.0312 151:15.7108 152:16.5529 153:16.1245 154:18.4391 155:18.3848 156:22.2036 157:23.6008 158:25.2389 159:25.5539 160:35.4683 161:36.0555 162:39.8497 163:40.5216 164:43.782 165:45.1221 166:45.8912 167:46.8722 168:51.1566 169:51.0392 170:50.04 171:49.0102 172:47.0106 173:46.0435 174:41.0488 175:40.1123 176:21.6493 177:19.105 178:16.0312 179:16.1245 180:18.4391 181:20.3961 182:21.587 183:23.5372 184:24.7386 185:25.7099 186:26.9258 187:27.8927 188:29.1204 189:31.3281 190:33.5261 191:34.7851 192:35.7351 193:37 194:37.9473 195:39.2173 196:40.1622 197:41.4367 198:42.3792 199:44.9444 200:45.8803 
0.2836064042923486 1 0.4955772230949765 0.5900514121797439 1 0 0.8938843065931225 1 1 1 1:58.1378 2:57.7062 3:55.0727 4:53.7122 5:52.8394 6:51.4781 7:49.7393 8:47.9407 9:46.1411 10:45.2769 11:43.909 12:43.0465 13:41.6773 14:39.275 15:37.7359 16:36.3593 17:35.5106 18:34.1321 19:32.45 20:30.2377 21:28.0179 22:26.4008 23:23.6008 24:22.8035 25:21.4009 26:19.9125 27:16.9706 28:17.2047 29:20.5913 30:26.0768 31:26.9258 32:34.1236 33:42.8019 34:43.4166 35:56.0803 36:58.4123 37:58.6003 38:57.3107 39:56.0357 40:53.2541 41:52.6973 42:48.5489 43:48.0208 44:42.3018 45:39.3573 46:38.9102 47:32.311 48:31.9531 49:21.095 50:21.5119 51:22.0227 52:23.0868 53:24.0832 54:25.1794 55:26.1725 56:27.7895 57:29.1548 58:33.1361 59:34.0588 60:37.054 61:38.0132 62:40.5062 63:43 64:44.0114 65:45.0111 66:46.0435 67:47.0425 68:48.5927 69:50.1597 70:52.1536 71:53.2353 72:57.2189 73:57.0789 74:51.5388 75:49.163 76:48.1664 77:47.2652 78:46.2709 79:45.3982 80:43.9866 81:42.5793 82:41.7732 83:40.7922 84:40.025 85:38.0789 86:36.8818 87:35.7351 88:33.8378 89:33.2415 90:32.311 91:31.7805 92:29.7481 93:28.6531 94:28.0179 95:28.6007 96:28.3196 97:29 98:29.4509 99:30.2324 100:31.0644 101:36.6742 102:36.4966 103:39.1152 104:39.0512 105:40.0062 106:41.0122 107:41.1096 108:40.1995 109:40.6079 110:39.8121 111:39.9109 112:39.8497 113:39.2173 114:39.5601 115:39 116:39.3954 117:39.1337 118:38.0132 119:38.6005 120:38.4187 121:39.0512 122:39.4081 123:38.9741 124:38.0789 125:38.9102 126:38.4838 127:39.5601 128:38.8973 129:39.1965 130:39.6232 131:39.2046 132:40.1123 133:40.0125 134:41 135:41.5779 136:42.4264 137:43.566 138:44.9222 139:42.0476 140:40.2492 141:37.1731 142:35.4683 143:35.1141 144:33.8378 145:33.2415 146:32.0156 147:30.9946 148:30.2655 149:29.1548 150:29.0172 151:27.0185 152:27.074 153:25.6759 154:24.3311 155:20.3961 156:16 157:16.7631 158:16.1555 159:21.9203 160:39.3954 161:39.9249 162:43.6578 163:44.2719 164:46.1736 165:49.5928 166:48.2597 167:40.3113 168:39.4588 169:32.5576 170:31.4006 171:21.9693 172:18.4391 173:17.2627 174:16.2788 175:14.0357 176:14.0357 177:17.2636 178:19.4165 179:21.3776 180:22.561 181:23.5372 182:24.7386 183:26.3179 184:27.8927 185:29.1204 186:30.0832 187:31.3209 188:32.28 189:34.004 190:35.7351 191:36.6879 192:37.9473 193:38.8973 194:40.1622 195:41.7444 196:43.3244 197:44.5982 198:45.5412 199:46.8188 200:47.7598 
0 0 0 0 0.3412291116641423 0 0 1 0 0.2757463019065475 1:55.0273 2:54.4243 3:54.7814 4:49.2443 5:47.927 6:45.4375 7:42.9535 8:41.6293 9:40.7185 10:38.486 11:36.2491 12:34.4384 13:33.1059 14:29.7413 15:26.4197 16:25.0599 17:22.4722 18:20.6717 19:18.868 20:18.0278 21:16.6433 22:15 23:18.3576 24:22.4722 25:23.0217 26:28.9034 27:37.6431 28:38.2884 29:41.1096 30:41.7732 31:44.9376 32:55.1725 33:57.3847 34:57.4891 35:54.3002 36:53.0094 37:48.8262 38:48.2597 39:42.455 40:39.4462 41:38.9487 42:36.2353 43:33.7788 44:31.3847 45:23.7697 46:22.8035 47:21.3054 48:23.0217 49:24.0208 50:25.0799 51:29.5428 52:32.0156 53:33 54:35 55:36.0139 56:38.5322 57:42.0476 58:43.1045 59:44.1022 60:45.6755 61:47.2652 62:48.2597 63:49.366 64:50.9184 65:52.469 66:53.6004 67:54.5894 68:56.2251 69:58.4209 70:58.3095 71:51.0098 72:49.5254 73:48.0416 74:47.0956 75:46.0977 76:44.6794 77:43.2897 78:42.2966 79:41.4367 80:40.4475 81:38.6398 82:36.8782 83:34.9285 84:34.2053 85:32.9073 86:31.6228 87:31.0161 88:29.1548 89:28.8523 90:28.3019 91:28.8444 92:28.6007 93:29.1375 94:29.7321 95:29.6985 96:30.4138 97:31.0055 98:35.4401 99:35.171 100:35.9026 101:36.0949 102:36.3456 103:37.2156 104:37.1214 105:38.0526 106:37.5068 107:37.2156 108:36.3456 109:36.6742 110:36.2953 111:36.0555 112:36.4006 113:35.3412 114:36.0411 115:37.4433 116:37.2022 117:38.4187 118:38.6185 119:38.8973 120:39.598 121:40.8167 122:41.4299 123:41.5933 124:41.1461 125:41.6293 126:41.5081 127:41.4367 128:42.0595 129:41.7612 130:43.1741 131:43.3457 132:43.566 133:47.0956 134:47.0425 135:48.0052 136:49.0102 137:49.0918 138:48.1664 139:46.5854 140:41.9762 141:37.3363 142:37.2156 143:36.0901 144:34 145:34.0147 146:29.6142 147:28.2641 148:23.0868 149:20.6155 150:19.6469 151:18.2749 152:17.2627 153:18.0278 154:19.3132 155:19.6977 156:21.2474 157:22.8254 158:24.4131 159:25.807 160:27.7219 161:30.4138 162:31.8277 163:35.4683 164:40.0724 165:45.6946 166:44.5982 167:43.3244 168:40.7994 169:31.7805 170:30.4631 171:27.7308 172:25.4988 173:23.2594 174:21.4709 175:20.1246 176:18.562 177:16.1245 178:10.7703 179:10.4403 180:12.0416 181:15.5166 182:20 183:21.0238 184:23.0217 185:25.08 186:27.1662 187:29.1548 188:30.2655 189:32.8128 190:35.3553 191:36.4966 192:38.4708 193:40.1156 194:41.7732 195:43.7379 196:44.911 197:46.4828 198:48.0521 199:52.8867 200:53.1601 
0 0 0 0 0 0 0.580806201756242 1 0 0 1:55.9017 2:55.109 3:55.3173 4:54.3415 5:53.6004 6:50.0862 7:42.72 8:41.4849 9:37.6431 10:36.4006 11:30.0433 12:22.8473 13:21.5407 14:18.7883 15:16.5584 16:14.8661 17:17.0294 18:18.4391 19:19.105 20:20.8657 21:24.0416 22:24.7588 23:26.1725 24:26.9072 25:31.5176 26:33.3017 27:34.0588 28:35.4683 29:37.6433 30:39.8246 31:41.2311 32:42.0119 33:43.4166 34:45.7002 35:47.2017 36:48.6004 37:49.4065 38:56.4004 39:58.1549 40:57.3149 41:55.9017 42:54.4518 43:52.6818 44:50.9117 45:49.5177 46:48.1041 47:47.4236 48:45.677 49:43.9318 50:43.2782 51:41.8688 52:41.2311 53:39.5146 54:37.8021 55:37.2022 56:34.4093 57:33.1439 58:31.9061 59:30.5287 60:30.0167 61:23.2594 62:22.194 63:21.1896 64:21.8403 65:21.587 66:23.1948 67:30.2777 68:32.3883 69:33.541 70:34.5254 71:36.1837 72:37.855 73:38.833 74:40.025 75:41 76:42.688 77:48.0833 78:49.0408 79:52.811 80:53.7587 81:56.4489 82:58.5235 83:58.2409 84:57.0088 85:52.0676 86:46.3897 87:43.1045 88:42.107 89:40.0125 90:38.5064 91:37 92:34.1321 93:33.1361 94:31.4006 95:29.6378 96:29.1204 97:28.4605 98:29.1548 99:29.3262 100:29.6816 101:30.2324 102:30 103:31.241 104:31.4702 105:32.45 106:33.2866 107:38.833 108:42.8191 109:44.0454 110:43.0465 111:39.4588 112:38.3275 113:37.5331 114:37.3363 115:36.4966 116:36.8782 117:36.1386 118:36.0678 119:36.4006 120:37.6962 121:38.9102 122:38.7097 123:38.5876 124:40.2244 125:40 126:41.2311 127:41.3687 128:41.8688 129:42.638 130:43.566 131:43.0465 132:43.6056 133:44.3847 134:44.0114 135:50.4876 136:47.1026 137:42.0476 138:41.0122 139:40.0125 140:40 141:38.0854 142:33.9559 143:32.9848 144:31.0161 145:30.0832 146:28.6387 147:26.4008 148:24.5967 149:19.3132 150:18.5664 151:19.4165 152:21.8403 153:22.1359 154:23.4094 155:24.4248 156:25.9422 157:27.2947 158:27.7849 159:29.1548 160:30.373 161:32.2025 162:33.6006 163:34.8281 164:37.5663 165:40.3113 166:44.6878 167:44.8219 168:45.607 169:45.9125 170:42.4853 171:41.5933 172:40.2492 173:37.5899 174:34.9254 175:32.249 176:29.6816 177:28.3019 178:26.7679 179:24.4131 180:23.0217 181:22.2036 182:19.4165 183:17.9029 184:16.4012 185:12.2066 186:11.6619 187:10.2956 188:15.0934 189:20.2237 190:26.1725 191:27.074 192:31.54 193:36.0139 194:37 195:43 196:44.0114 197:47.5261 198:49.0408 199:54.4518 200:54.5894 
0 0 0 0 0 0 0.7135477068954441 0 0 0 1:57.1402 2:55.0364 3:52.0384 4:51.0098 5:45.0111 6:44 7:36 8:32.5155 9:29.0689 10:20.0998 11:19.2354 12:17.2627 13:16.4924 14:16.4593 15:17.4642 16:19.3132 17:20.6155 18:23.4094 19:24.6982 20:26.5707 21:29.2663 22:31.9531 23:35.7351 24:37 25:40.8044 26:42.0595 27:47.4617 28:50.9608 29:58.5235 30:58.8727 31:58.3095 32:57.3847 33:56.8595 34:54.3743 35:46.5296 36:45.1774 37:39.9625 38:38.5876 39:34.4093 40:31.8128 41:29.2062 42:27.6586 43:26.2488 44:24.7588 45:23.3452 46:21.2603 47:22.0528 48:22.8254 49:24.1868 50:25.9422 51:27.2947 52:27.7849 53:32.178 54:38.0132 55:38.6005 56:40 57:40.6079 58:42.0119 59:42.638 60:45.7755 61:54.5619 62:56.0803 63:55.4437 64:55.6058 65:54.2033 66:51.7351 67:50.4777 68:49.0918 69:48.5489 70:45.793 71:45.2769 72:43.6628 73:40.7063 74:40.2492 75:37.5766 76:37.1618 77:33.2415 78:32.8938 79:30.2238 80:28.8617 81:28 82:27.0185 83:27.1662 84:28.2843 85:29.4434 86:31.3847 87:31.0644 88:32.8024 89:32.6497 90:33.9706 91:33.9411 92:36.1801 93:37.0135 94:37.2022 95:38.0132 96:38.9487 97:39.8246 98:43.4193 99:48.0833 100:47.5395 101:45.1221 102:44.911 103:40.025 104:38.833 105:37.5861 106:37.0135 107:36 108:36.0555 109:37.1214 110:37.2156 111:38.3992 112:39.6232 113:40.2616 114:39.5601 115:42.0476 116:41.5933 117:42.0595 118:43.0423 119:44.2041 120:44.8219 121:44.5982 122:45.2769 123:45.4533 124:46.1227 125:48.3322 126:48.8467 127:48.4665 128:49.0408 129:48.7032 130:41.2311 131:39.9109 132:38.6005 133:37.3363 134:37.6962 135:37.1618 136:37.5766 137:37.3557 138:37.2156 139:32.2025 140:32.0156 141:29.7321 142:25.4951 143:24.1351 144:22.2036 145:20.8087 146:19.2354 147:19.6977 148:18.9737 149:19.6469 150:19.5131 151:20.025 152:23.3452 153:23.5372 154:25.9615 155:26.2488 156:27.6852 157:29.1548 158:29.5466 159:32.2025 160:32.6497 161:34 162:34.4819 163:36.1031 164:37.7359 165:38.833 166:40.2244 167:41.4005 168:42.8019 169:46.1193 170:44.4072 171:41.6173 172:40.8044 173:39.4081 174:38.6005 175:37.2022 176:34.9071 177:33.4216 178:32.0156 179:31.241 180:29.8329 181:29.0689 182:27.2829 183:24.0832 184:23.3452 185:19.105 186:18.3848 187:14.1421 188:13.4536 189:15.3007 190:18.3576 191:21.0238 192:22.3607 193:27.8568 194:29.1548 195:42.1025 196:51.4198 197:52.1728 198:53.1507 199:56.4358 200:56.3205 
0 0 0 0 0 0 1 1 0 0 1:56.7186 2:54.4518 3:53.4603 4:52.345 5:49.366 6:48.2597 7:44.2832 8:42.1902 9:40.1123 10:38.1182 11:37.054 12:34.0588 13:33.0151 14:30.5081 15:29 16:28.0179 17:25.02 18:24.0832 19:22.0907 20:19.7307 21:16.7631 22:18.0278 23:21.8403 24:22.561 25:31.4006 26:35.2295 27:39.1152 28:42.107 29:43.0465 30:51.0392 31:54.231 32:54.5894 33:52.462 34:51.1957 35:49.2443 36:48.5077 37:45.607 38:44.9222 39:38.9219 40:34.0147 41:33.541 42:30.0167 43:29.6816 44:22.6274 45:22.3471 46:22.8254 47:25.5539 48:26.6271 49:28.0179 50:29.8329 51:32.2413 52:34.6554 53:36.0694 54:37.4833 55:42.8019 56:44.2041 57:46.6154 58:48.4183 59:53.0094 60:54.2033 61:53.9073 62:45.4533 63:44.0454 64:40.3549 65:37.5899 66:36.2353 67:34.5398 68:33.2415 69:31.257 70:32.0702 71:31.0161 72:31.4006 73:32.5576 74:33.8378 75:35.1141 76:42.5793 77:43.8634 78:44.0454 79:43.4166 80:43.8292 81:43.2666 82:43.566 83:41.3829 84:41.1461 85:39.9249 86:40.4969 87:39.2938 88:40.025 89:39.7594 90:40.1123 91:41.0488 92:41 93:42.0119 94:42.2966 95:41.6049 96:41 97:41.7612 98:41.1096 99:43.382 100:42.5441 101:42.4577 102:46.6905 103:46.7547 104:49.0408 105:49.2037 106:52.4309 107:52.6973 108:53.6933 109:54.7083 110:55.0727 111:54.5894 112:55.0091 113:54.5619 114:53.0137 115:48.8467 116:47.927 117:46.6154 118:42.9535 119:41.6293 120:37.8015 121:35.8469 122:35.2278 123:34.4093 124:34.2053 125:32.6497 126:32.1926 127:31.8277 128:31.1448 129:31.241 130:30 131:28.6007 132:27.0185 133:21.985 134:18.7883 135:18.3848 136:18.9737 137:18.6815 138:19.4165 139:19.565 140:20 141:22.0907 142:22.2036 143:23.3452 144:23.5372 145:26.1052 146:27.5136 147:27.8568 148:30.4631 149:30.8707 150:33.541 151:34.6777 152:35.8469 153:37.2156 154:37.7359 155:39.1152 156:39.6611 157:42.4382 158:43.7094 159:45.607 160:47.0106 161:49.5782 162:50.9902 163:50.9313 164:52.3641 165:49.8197 166:45.607 167:44.8219 168:43.4166 169:42.638 170:40.8455 171:39.0512 172:38.2884 173:36.8782 174:36.1248 175:33.3017 176:30.4386 177:27.5862 178:23.3452 179:22.6274 180:18.3848 181:17.6918 182:13.4536 183:12.8832 184:13.8924 185:15.2643 186:17.8885 187:19.2354 188:21.0238 189:23.2634 190:25.4951 191:28.2312 192:29.5466 193:32.311 194:33.6155 195:37.9814 196:42.3792 197:43.6578 198:44.5982 199:45.8803 200:55.3624 
0.09865566021197469 0 1 1 0.5402576487906704 0.4726615585041071 0 1 0.9460576192770656 0.5623050531634654 1:49.2443 2:48.0521 3:47.8539 4:46.6905 5:45.7056 6:39.6138 7:37.0135 8:36.0139 9:31.257 10:30.2655 11:28.1471 12:26.9258 13:25.9615 14:25.2982 15:24.3516 16:23.3085 17:21.6333 18:23.0217 19:25.5539 20:25.9422 21:27.981 22:31.0161 23:31.6228 24:32.573 25:33.2415 26:34.5669 27:35.9026 28:36.6742 29:38.6394 30:39.4588 31:42.008 32:43.566 33:44.7214 34:44.911 35:46.0977 36:45.5854 37:43.6578 38:43.0813 39:42.1545 40:41.6293 41:40.4839 42:39.3573 43:38.9487 44:37.2156 45:36.8917 46:35.9303 47:34.2053 48:34.0588 49:31.8277 50:31.8277 51:31.1929 52:30 53:30.2324 54:29.6816 55:30.8707 56:31.0429 57:31.3209 58:32.0156 59:31.7805 60:32.5576 61:33.2602 62:34.0588 63:35.0143 64:35 65:36.0139 66:36.5885 67:37.2156 68:38.3275 69:38.6394 70:39.8121 71:40.628 72:41.7612 73:43.0116 74:46.5296 75:45.793 76:45.966 77:44.8219 78:44.6878 79:43.9318 80:43.8634 81:43.1625 82:42.5206 83:43.0116 84:41.8808 85:42.19 86:41.3879 87:41.1461 88:41.6293 89:41.2311 90:41.7852 91:40.8763 92:40.6079 93:39.4588 94:39.3192 95:40.4475 96:41.1447 97:41.4367 98:40.8534 99:41.6293 100:41.1461 101:42.3671 102:43.2666 103:44.6542 104:53.0377 105:53.0754 106:53.8609 107:51.4004 108:45.8039 109:45 110:43.6005 111:41.3099 112:39.8246 113:38.4187 114:34.6554 115:34.6554 116:30.3806 117:29.5296 118:29.9666 119:29.5466 120:26.9258 121:20.4199 122:18.6011 123:18.4391 124:19.2094 125:19.4165 126:21.4756 127:25.0799 128:30.1496 129:31.1448 130:35.6931 131:39.0796 132:42.45 133:48.7032 134:49.0408 135:50.3289 136:51.3476 137:53.2259 138:52.3546 139:51.4781 140:51.1077 141:49.5634 142:48.0208 143:45.2769 144:44.4185 145:38.9487 146:36.0394 147:33.121 148:31.7648 149:30.8869 150:28.178 151:26.6185 152:25.0599 153:22.3607 154:21.4709 155:18.7883 156:16.56 157:13.4164 158:13.0384 159:13.6015 160:15 161:17.0298 162:19.105 163:23.3452 164:24.0416 165:28.2843 166:31.1208 167:33.9706 168:38.2099 169:38.9487 170:43.1856 171:45.3432 172:47.5079 173:48.9183 174:49.679 175:51.0882 176:52.5595 177:54.037 178:54.2033 179:55 180:55.7584 181:50.8082 182:46.5296 183:42.4853 184:41.5933 185:28.4605 186:25.6417 187:24.5153 188:25.4951 189:27.8927 190:28.8617 191:31.8005 192:37.3363 193:38.2753 194:42.1545 195:43.0813 196:44.8474 197:46.6154 198:47.5395 199:48.1041 200:49.0408 
