svm_type c_svc
kernel_type rbf
gamma 2.7778e-05
nr_class 11
total_sv 466
rho 0.0706719 0.115663 -0.200066 0.0443969 -0.0823309 -0.330301 0.245443 0.100927 0.0665035 -0.368982 -0.0832691 -0.409349 -0.115653 -0.52995 -0.433121 -0.148803 0.0317239 -0.0432938 -1.11687 -0.397206 -0.125924 -0.249948 -0.487272 -0.173838 0.00332966 -0.0591331 -0.502729 0.564543 0.199335 -0.339183 0.330495 0.629911 0.54624 0.243025 -0.0790786 -0.462344 0.0718756 0.239513 0.198796 -0.609611 -0.175837 0.105294 0.230374 0.12267 -0.609326 0.446392 0.597884 0.343646 0.15868 -0.303064 -0.0769431 -0.487486 -0.205409 -0.615132 -1.03902
label 1 2 3 4 5 6 7 8 9 10 11
probA -4.03604 -4.15333 -4.15681 -4.13867 -4.15079 -4.04653 -4.46331 -4.08755 -4.06678 -4.05166 -4.10563 -3.90189 -4.0631 -4.17196 -3.89757 -4.09204 -3.99291 -4.15615 -4.23898 -4.10223 -4.00692 -4.02019 -3.79979 -4.00985 -4.11098 -4.05432 -3.96169 -4.36924 -4.03145 -4.23202 -4.18305 -4.07567 -3.9094 -3.8927 -3.98243 -3.89731 -4.13605 -4.16436 -3.90602 -3.89371 -3.89085 -4.1483 -4.1228 -4.319 -3.95258 -4.06123 -3.99986 -3.71935 -3.88671 -3.95971 -4.05993 -4.12851 -4.13205 -4.00882 -4.18654
probB -0.0414173 0.0840578 -0.14399 -0.14709 -0.136785 -0.193611 0.0448265 0.16251 -0.251317 -0.141242 -0.375173 0.114137 0.0985822 0.0267991 -0.0914161 0.18708 -0.0150238 0.0792972 -0.365605 -0.058775 -0.163596 -0.142775 -0.281393 0.0259792 -0.0274491 -0.257143 -0.374976 -0.597987 0.0185648 0.353825 0.407045 0.0792445 0.314846 -0.444428 -0.125025 -0.0530021 0.174296 -0.0118804 -0.155049 -0.311849 -0.113022 -0.00206216 0.205989 -0.00623356 -0.0562653 0.281191 0.0454843 0.618013 -0.0152242 -0.269379 -0.494815 -0.417843 0.0445462 -0.014343 -0.327906
nr_sv 34 44 38 47 47 43 27 46 47 42 51
SV
0 0.03601123461607642 0.07164649596861022 0.1279193600411782 0 0.08099607949115052 0 0 0 0 1:76.2365 2:75.0989 3:72.6482 4:69.721 5:66.7534 6:63.7888 7:60.8278 8:57.8707 9:54.9183 10:51.9714 11:49.0309 12:46.0981 13:42.6886 14:39.2943 15:36.4012 16:33.527 17:30.6769 18:27.8583 19:25.2255 20:24.1512 21:26.8173 22:29.8635 23:33.1083 24:36.5353 25:40.261 26:43.9109 27:47.1751 28:50.2808 29:53.3931 30:56.3573 31:59.4822 32:62.4619 33:65.5959 34:69.3191 35:73.3561 36:75.6671 37:75.9054 38:73.4997 39:70.4572 40:67.8123 41:65.0018 42:62.0101 43:59.244 44:56.5113 45:53.8173 46:51.162 47:48.3207 48:45.7665 49:42.5775 50:39.471 51:36.3499 52:33.5711 53:31.1832 54:29.8655 55:31.6238 56:34.4827 57:37.647 58:41.4396 59:45.3123 60:49.9081 61:53.9669 62:57.4143 63:60.9023 64:65.0006 65:69.1164 66:72.5453 67:74.8013 68:74.2464 69:72.0177 70:69.5543 71:66.5443 72:62.8007 73:59.1428 74:56.0475 75:53.0466 76:49.824 77:46.395 78:43.1112 79:41.0081 80:39.4566 81:39.1391 82:39.0593 83:39.8573 84:40.1287 85:41.5996 86:42.1958 87:43.2929 88:44.5712 89:46.0148 90:47.158 91:48.2838 92:49.6099 93:51.3147 94:53.1764 95:55.0201 96:56.5164 97:56.9263 98:58.1538 99:60.4231 100:62.4783 101:62.3992 102:61.1364 103:60.0333 104:57.0262 105:56.0149 106:55.8166 107:55.2734 108:54.7895 109:54.8236 110:55.3498 111:55.0994 112:54.7414 113:54.3043 114:53.8233 115:53.6125 116:53.1632 117:53.0503 118:53.2759 119:53.3497 120:53.6341 121:54.5728 122:56.2106 123:57.5668 124:58.8891 125:59.7709 126:60.5052 127:62.4004 128:64.463 129:65.0128 130:63.0374 131:59.7382 132:56.359 133:53.3036 134:50.1653 135:47.0211 136:45.0188 137:42.5304 138:40.6189 139:38.3406 140:36.4158 141:34.3026 142:31.6094 143:28.1879 144:25.3279 145:23.7829 146:23.209 147:23.0145 148:23.209 149:23.7829 150:25.6434 151:27.4365 152:30.025 153:32.7313 154:35.5079 155:38.2934 156:41.0409 157:43.8444 158:46.6938 159:49.3578 160:51.8582 161:54.6124 162:57.2035 163:60.2182 164:62.1305 165:64.6621 166:66.459 167:67.732 168:67.4721 169:64.9603 170:61.6853 171:58.5242 172:55.4782 173:52.5556 174:49.5193 175:46.3627 176:43.2068 177:40.052 178:36.3088 179:32.4371 180:29.283 181:26.0019 182:22.4772 183:21.6762 184:24.7394 185:27.6592 186:30.5945 187:33.5413 188:36.4968 189:39.459 190:42.9217 191:46.271 192:49.2545 193:52.2399 194:55.2002 195:58.1378 196:61.131 197:64.107 198:67.0671 199:70.0215 200:73.0113 
0 0.02319658120768029 0 0 0 0 0 0 0 0 1:76.2955 2:75.3894 3:73.2464 4:70.3423 5:67.2721 6:64.2888 7:61.3095 8:58.2413 9:55.3629 10:52.299 11:49.3362 12:46.4873 13:43.6587 14:40.7329 15:37.6974 16:34.797 17:31.7823 18:28.2915 19:25.063 20:22.8497 21:22.6798 22:25.2233 23:28.7728 24:32.3347 25:35.6865 26:39.2665 27:42.4286 28:46.0201 29:49.4083 30:52.6008 31:55.6073 32:59.0156 33:62.2348 34:65.6493 35:70.3319 36:74.9442 37:76.4849 38:75.9294 39:73.6634 40:70.7694 41:68.1289 42:65.2908 43:62.0019 44:58.9738 45:56.225 46:53.0088 47:50.345 48:47.4725 49:44.3808 50:41.9089 51:38.2765 52:34.7434 53:31.6988 54:29.1011 55:28.9751 56:31.2572 57:34.2346 58:37.2951 59:40.5533 60:43.866 61:47.1474 62:50.6116 63:54.1231 64:57.5699 65:61.3535 66:64.9603 67:68.5894 68:72.3354 69:74.964 70:74.6518 71:72.535 72:69.8596 73:66.2904 74:62.8049 75:59.4552 76:56.2276 77:53.0435 78:50.0034 79:47.0606 80:44.2501 81:41.5425 82:39.3857 83:38.591 84:38.3963 85:39.1656 86:39.9493 87:40.8811 88:42.0307 89:43.3807 90:44.9131 91:46.0088 92:47.1833 93:48.7773 94:50.7116 95:52.5653 96:54.4155 97:56.1982 98:57.8783 99:60.4137 100:62.1342 101:61.0122 102:58.0634 103:55.8973 104:55.5846 105:55.1148 106:54.5031 107:54.7138 108:54.7867 109:54.7414 110:54.8904 111:54.6682 112:54.4178 113:53.9196 114:53.7525 115:53.6618 116:53.6125 117:54.1044 118:54.3687 119:54.6366 120:55.057 121:56.3297 122:58.4718 123:60.1765 124:61.407 125:63.1328 126:64.6796 127:66.0353 128:64.8652 129:62.5207 130:59.9594 131:57.0703 132:53.8755 133:50.5857 134:47.2708 135:44.2889 136:42.3887 137:40.3216 138:38.845 139:36.7022 140:34.1772 141:31.2596 142:27.5183 143:25.0718 144:23.209 145:23.0145 146:23.209 147:23.7829 148:24.7099 149:26.5409 150:28.8738 151:31.715 152:34.5727 153:36.8016 154:39.6022 155:41.7768 156:44.6909 157:47.0133 158:49.8013 159:52.433 160:54.9199 161:57.4559 162:60.0347 163:62.4957 164:64.702 165:66.3185 166:67.3865 167:67.0567 168:63.8077 169:60.1668 170:57.1885 171:54.1207 172:51.2451 173:48.2823 174:45.2224 175:42.2711 176:39.1089 177:36.0565 178:32.8949 179:29.7334 180:26.5721 181:23.5266 182:20.2538 183:20.2845 184:23.1951 185:26.6696 186:30.1497 187:33.0865 188:36.0555 189:39.0128 190:42.0119 191:45 192:48.0034 193:51.0098 194:54.037 195:57.064 196:60.075 197:63.1269 198:66.1661 199:69.2912 200:72.5638 
0 0.1809457198107618 0 0 0.1098459905016524 0 0 0.006572162762874873 0 0 1:74.7329 2:73.898 3:72.0316 4:69.2608 5:66.5175 6:63.9068 7:61.099 8:57.8483 9:55.0374 10:52.3271 11:49.6502 12:47.0123 13:44.9465 14:42.0316 15:39.2078 16:36.882 17:33.9751 18:31.8331 19:29.8395 20:27.7509 21:28.0361 22:30.5967 23:33.8441 24:37.0098 25:40.2496 26:43.9656 27:47.4725 28:50.0828 29:53.0088 30:56.225 31:59.2192 32:63.1302 33:67.897 34:71.9088 35:74.3324 36:75.035 37:73.4126 38:70.915 39:67.9534 40:65.4753 41:62.4849 42:60.1254 43:57.5449 44:54.3802 45:51.3175 46:48.7058 47:46.2049 48:43.8285 49:41.9284 50:40.4164 51:40.0083 52:40.7847 53:41.4446 54:42.6336 55:43.6877 56:45.7204 57:47.0166 58:48.3066 59:49.7443 60:51.042 61:52.2057 62:53.9799 63:55.4217 64:56.598 65:56.8623 66:56.8912 67:57.9844 68:60.7358 69:62.1787 70:62.4645 71:60.1672 72:56.9635 73:55.6651 74:55.6725 75:54.924 76:54.4578 77:54.4869 78:55.0151 79:55.0424 80:54.789 81:54.4231 82:54.3473 83:54.448 84:54.4053 85:54.2362 86:55.2445 87:55.8655 88:56.0323 89:56.1421 90:56.9876 91:58.003 92:59.9573 93:61.9396 94:63.6225 95:65.2168 96:66.9411 97:68.4354 98:69.33 99:67.1205 100:63.16 101:59.3619 102:56.0811 103:53.3114 104:50.5679 105:48.0976 106:45.9756 107:44.2206 108:42.4362 109:41.0404 110:39.6277 111:37.1385 112:33.4255 113:30.7007 114:27.8188 115:25.5024 116:24.979 117:25.5468 118:26.2979 119:28.3393 120:31.0766 121:34.0239 122:37.2226 123:40.1188 124:43.1783 125:46.8435 126:50.2845 127:53.4904 128:56.7727 129:60.1763 130:63.0676 131:65.3721 132:66.6105 133:66.0401 134:65.4471 135:63.2423 136:58.7963 137:55.0659 138:51.0882 139:47.6342 140:43.4168 141:38.5038 142:34.0026 143:30.0004 144:25.8077 145:21.6345 146:18.0335 147:18.2262 148:21.9317 149:25.2757 150:28.6389 151:31.8095 152:34.8019 153:38.5682 154:42.2512 155:45.4885 156:48.7288 157:51.6254 158:54.7099 159:58.2348 160:61.7751 161:64.8857 162:67.5362 163:69.9262 164:71.7018 165:73.4681 166:72.766 167:70.4286 168:67.1866 169:63.9495 170:60.7964 171:57.119 172:53.4435 173:50.1486 174:46.9385 175:43.6795 176:40.4999 177:36.7783 178:33.1102 179:30.0666 180:27.0185 181:24 182:21.0488 183:18.8324 184:21.1913 185:24.0428 186:26.9267 187:29.9143 188:32.9854 189:36.3911 190:39.8124 191:42.7554 192:45.7058 193:48.6623 194:51.5762 195:54.9479 196:58.421 197:61.4004 198:64.3817 199:67.4797 200:70.8623 
0.1153648931966429 0.07996469545870694 0 0 0 0 0 0 0 0 1:73.8241 2:72.1235 3:69.3624 4:66.4908 5:63.789 6:60.8773 7:58.2413 8:55.3629 9:52.8116 10:50.0993 11:47.5405 12:44.9183 13:42.4869 14:39.8265 15:37.2179 16:34.6728 17:32.2061 18:29.6281 19:28.5576 20:30.8196 21:33.8072 22:37.0438 23:39.8358 24:42.9093 25:45.5653 26:48.4856 27:51.4346 28:54.2056 29:57.2035 30:60.4111 31:63.8203 32:68.0076 33:71.4033 34:72.4798 35:70.4685 36:67.8993 37:65.2908 38:62.7261 39:60.2111 40:57.4925 41:55.0813 42:52.7413 43:50.2029 44:47.7391 45:45.3621 46:42.7874 47:40.6218 48:39.2249 49:38.3356 50:37.994 51:38.676 52:39.3418 53:40.1206 54:41.4446 55:42.9609 56:44.0065 57:45.5477 58:46.6215 59:47.8596 60:49.2495 61:50.7787 62:52.4352 63:54.2072 64:55.8324 65:55.8778 66:56.2008 67:58.2604 68:60.7091 69:62.1392 70:63.1446 71:63.2136 72:62.246 73:59.8595 74:56.6202 75:55.368 76:54.5768 77:53.6149 78:53.4664 79:53.157 80:54.0154 81:53.7104 82:53.2415 83:52.618 84:53.1567 85:52.5542 86:52.5224 87:53.0121 88:53.0781 89:53.6341 90:53.5376 91:53.9469 92:54.8201 93:55.869 94:57.3176 95:58.9006 96:60.2065 97:61.6721 98:63.1169 99:65.0491 100:66.3473 101:64.9702 102:61.1001 103:57.4703 104:54.425 105:51.6245 106:48.8477 107:46.6692 108:44.4603 109:42.5491 110:41.0099 111:39.2748 112:37.7255 113:36.1299 114:33.9453 115:30.8196 116:28.3249 117:26.1792 118:23.9174 119:23.4299 120:23.7403 121:25.1839 122:27.0881 123:30.027 124:33.2492 125:36.3543 126:39.2981 127:43.0149 128:45.8828 129:49.4652 130:52.5019 131:55.6065 132:58.7684 133:61.6904 134:64.3792 135:66.3707 136:67.0173 137:66.3892 138:65.0716 139:61.991 140:57.9828 141:54.4518 142:50.9313 143:47.1795 144:43.1857 145:38.9487 146:34.7132 147:30.7007 148:26.9073 149:22.6717 150:20.9894 151:24.4608 152:28.4256 153:31.8095 154:35.0034 155:38.0161 156:41.2371 157:44.285 158:47.5271 159:50.598 160:53.8533 161:57.1095 162:60.201 163:63.136 164:66.2432 165:68.885 166:70.6907 167:72.2435 168:71.9539 169:69.0617 170:65.7079 171:62.5475 172:59.2947 173:55.9571 174:52.7149 175:49.3984 176:46.1722 177:42.8861 178:39.6849 179:36.4451 180:33.2854 181:30.1871 182:27.074 183:24.0139 184:23.1574 185:26.8007 186:30.2657 187:33.2417 188:36.2217 189:39.2047 190:42.1631 191:45.0999 192:48.0937 193:51.0882 194:54.0681 195:57.0351 196:60.0251 197:63.0079 198:66.015 199:69.0696 200:71.9216 
0 0 0.09295174756276511 0.1184905214082169 0.2498753125892676 0 0 0 0.005863820432689452 0.09457010315284202 1:70.406 2:69.1467 3:66.9406 4:64.0316 5:61.4007 6:58.524 7:55.7666 8:53.142 9:50.7965 10:48.4674 11:46.0989 12:43.3835 13:40.708 14:38.081 15:35.5132 16:33.4265 17:31.4045 18:29.3006 19:29.7372 20:33.3017 21:36.5546 22:39.8358 23:42.0876 24:44.8242 25:47.9465 26:50.8742 27:53.8286 28:56.8053 29:60.2011 30:63.502 31:67.0076 32:69.4041 33:68.6826 34:66.4855 35:63.6422 36:61.3126 37:59.1303 38:56.7308 39:54.2981 40:51.9355 41:49.1018 42:46.6085 43:43.9147 44:41.8264 45:39.515 46:37.7038 47:36.3813 48:35.9115 49:36.3546 50:36.7308 51:37.0225 52:37.6657 53:38.4792 54:39.7065 55:40.8119 56:41.7921 57:42.9599 58:44.3003 59:45.535 60:46.8771 61:48.6048 62:50.4519 63:52.4058 64:53.5122 65:54.1312 66:55.2118 67:57.2035 68:58.8963 69:60.0437 70:61.2796 71:61.2395 72:60.7502 73:59.4525 74:57.2827 75:54.2519 76:52.9589 77:52.1442 78:51.1631 79:51.0163 80:51.0245 81:51.1631 82:50.8251 83:50.6711 84:50.7013 85:50.2885 86:50.086 87:50.3284 88:50.4211 89:50.7865 90:50.8164 91:51.1011 92:51.6365 93:52.415 94:53.3385 95:54.609 96:56.1258 97:57.8122 98:59.4912 99:60.018 100:61.8029 101:63.5788 102:63.194 103:60.6413 104:57.0738 105:53.8166 106:50.9904 107:48.3513 108:45.7917 109:43.7981 110:42.0352 111:40.1084 112:38.081 113:36.0584 114:34.2089 115:32.1123 116:29.4005 117:27.026 118:25.248 119:23.7176 120:22.8021 121:23.2287 122:24.0969 123:25.01 124:27.1757 125:29.621 126:32.6073 127:35.4332 128:38.6972 129:41.45 130:44.0618 131:46.4333 132:49.6826 133:52.4214 134:55.4916 135:58.3349 136:61.2243 137:63.572 138:64.6986 139:65.0641 140:64.948 141:62.9969 142:59.034 143:55.4438 144:52.5595 145:49.6791 146:45.8823 147:42.0855 148:38.2885 149:34.2762 150:30.4796 151:26.5066 152:23.5055 153:24.0381 154:27.2793 155:30.356 156:33.618 157:36.5535 158:39.6672 159:42.0393 160:44.7229 161:47.8553 162:50.8477 163:53.7132 164:56.8604 165:59.6163 166:61.9297 167:64.258 168:66.4159 169:68.4179 170:67.6859 171:64.3963 172:61.1884 173:58.5428 174:55.9633 175:52.8321 176:49.6489 177:46.4821 178:43.3312 179:40.2359 180:37.6657 181:35.104 182:32.0464 183:29.0113 184:26.033 185:25.2702 186:28.4433 187:30.9072 188:33.3769 189:36.4968 190:39.459 191:42.4266 192:45.3984 193:48.3737 194:50.8552 195:53.3386 196:56.2886 197:59.2115 198:62.2303 199:65.3798 200:68.7348 
0 0 0 0.09308091251671383 0 0 0 0 0 0 1:69.0652 2:67.6184 3:65.123 4:62.2013 5:59.2115 6:56.2228 7:53.7332 8:51.281 9:48.3737 10:45.3984 11:42.4266 12:40.1156 13:37.6566 14:34.7135 15:31.781 16:28.8624 17:26.5873 18:26.315 19:29.4136 20:32.5653 21:35.9791 22:39.0013 23:41.5039 24:44.0124 25:47.2916 26:50.3298 27:53.3714 28:55.8326 29:58.2996 30:61.352 31:64.8478 32:68.7111 33:71.5015 34:71.5973 35:69.3191 36:66.3412 37:63.5307 38:61.3377 39:58.8344 40:56.0819 41:53.5369 42:50.4797 43:48.0128 44:46.0037 45:43.6255 46:41.1131 47:38.214 48:35.3601 49:32.8996 50:30.7343 51:30.2537 52:32.4164 53:35.8481 54:39.275 55:42.1625 56:45.771 57:49.139 58:52.5385 59:55.1308 60:57.746 61:61.7172 62:65.947 63:69.529 64:71.6368 65:71.1014 66:69.0916 67:66.5658 68:63.5323 69:60.5399 70:57.9874 71:55.4717 72:52.6286 73:49.5526 74:46.5527 75:43.9613 76:41.7648 77:39.056 78:36.8328 79:35.8011 80:35.0071 81:35.7315 82:36.3546 83:35.9115 84:36.6961 85:37.7038 86:38.697 87:39.5427 88:40.5027 89:41.4056 90:42.525 91:43.49 92:45.2804 93:47.2989 94:49.2062 95:51.0518 96:51.7974 97:52.9311 98:55.3233 99:57.3946 100:59.1445 101:59.8519 102:60.0405 103:59.6935 104:57.8937 105:55.8962 106:53.3768 107:52.5048 108:51.4277 109:50.0352 110:49.8261 111:50.1323 112:50.1446 113:49.675 114:49.5575 115:49.3622 116:49.1218 117:48.7133 118:48.2838 119:48.8091 120:48.9319 121:49.4196 122:50.2619 123:51.2148 124:52.8126 125:54.6652 126:56.3021 127:57.4071 128:58.1506 129:59.0299 130:60.9686 131:62.0779 132:60.0056 133:57.5567 134:55.1453 135:52.1308 136:49.0304 137:46.0072 138:43.575 139:41.3138 140:38.845 141:36.4145 142:34.3019 143:31.927 144:29.7413 145:27.1372 146:24.3958 147:22.8171 148:21.2286 149:21.5119 150:22.1057 151:22.8971 152:24.3638 153:26.7105 154:28.4156 155:30.8171 156:33.2915 157:36.138 158:38.7977 159:41.067 160:43.3809 161:46.2012 162:48.8396 163:51.7425 164:54.4596 165:56.6158 166:59.2051 167:61.6135 168:63.3359 169:64.5077 170:65.0726 171:63.6771 172:60.2785 173:57.1328 174:53.9891 175:51.4422 176:48.7558 177:45.4733 178:42.3378 179:39.0575 180:36.0077 181:33.2489 182:29.8243 183:26.2645 184:24.0497 185:25.9624 186:28.3772 187:30.8064 188:33.7347 189:36.6746 190:39.6235 191:42.0863 192:44.5535 193:47.5186 194:50.4877 195:53.4205 196:55.8234 197:58.3096 198:61.235 199:64.1307 200:67.0126 
0 0 0.8136910324887192 1 0 0.6975643905175258 1 0.9936398474543794 0.2275400901543908 0.1390146288335002 1:58.0086 2:56.5577 3:54.5825 4:52.6522 5:50.1598 6:47.6681 7:45.7739 8:43.7865 9:41.3936 10:38.9648 11:37.0788 12:35.2031 13:32.7571 14:30.3194 15:28.6403 16:26.7259 17:26.8049 18:29.2622 19:31.1493 20:33.527 21:35.9203 22:37.5934 23:39.5381 24:41.9765 25:44.4214 26:46.3817 27:48.6482 28:50.7013 29:50.9205 30:49.5104 31:48.003 32:45.6958 33:43.4084 34:42.0393 35:39.8265 36:37.6472 37:36.2074 38:34.8186 39:32.8062 40:30.8603 41:29.3661 42:27.9352 43:26.2562 44:23.9041 45:22.747 46:22.1576 47:24.3069 48:26.181 49:28.0434 50:29.957 51:31.9369 52:33.7402 53:35.0484 54:37.2455 55:39.6043 56:42.4323 57:44.197 58:45.5436 59:45.1376 60:44.7036 61:42.7249 62:41.0611 63:39.1974 64:37.7961 65:36.4617 66:35.1637 67:33.682 68:32.6286 69:31.2565 70:29.7101 71:29.0431 72:29.0086 73:29.1661 74:29.0318 75:28.9911 76:29.5715 77:30.4723 78:31.5349 79:32.5029 80:33.5622 81:34.7458 82:35.7965 83:37.14 84:38.5405 85:40.148 86:41.6215 87:42.6068 88:43.9291 89:44.9773 90:45.8578 91:45.9666 92:45.5477 93:44.7826 94:44.2661 95:43.8348 96:43.4241 97:42.1485 98:41.0305 99:41.0061 100:40.1206 101:40.3794 102:40.7 103:40.5944 104:40.0059 105:39.28 106:39.1528 107:38.9645 108:38.9741 109:38.5096 110:38.2492 111:39.1393 112:39.7617 113:40.1122 114:39.8118 115:40.7212 116:41.8919 117:43.0222 118:44.6544 119:46.6997 120:48.258 121:49.9281 122:51.1631 123:52.024 124:51.0049 125:49.5404 126:47.0957 127:44.5727 128:42.547 129:40.5123 130:38.0043 131:35.5355 132:33.6868 133:31.9818 134:30.1 135:29.4434 136:27.981 137:26.4227 138:23.9467 139:22.1462 140:19.9644 141:18.3732 142:17.19 143:17.0147 144:17.0733 145:17.4823 146:18.2063 147:19.0118 148:20.4091 149:22.2135 150:24.5235 151:26.2012 152:28.2902 153:30.7793 154:32.27 155:34.4435 156:36.6039 157:39.0043 158:40.9208 159:42.8524 160:45.4885 161:48.1282 162:49.8229 163:51.5394 164:53.2468 165:53.9208 166:52.6552 167:50.0458 168:47.2916 169:44.6607 170:42.6179 171:39.9261 172:37.2329 173:35.0041 174:32.7763 175:30.2076 176:27.3913 177:25.3491 178:23.3085 179:20.7483 180:18.1263 181:15.5108 182:16.0083 183:18.4399 184:20.8868 185:22.853 186:25.3183 187:27.7895 188:29.77 189:31.753 190:34.2346 191:36.7186 192:38.7073 193:40.6971 194:43.2543 195:45.7739 196:47.7625 197:49.7519 198:52.2399 199:54.6881 200:56.5577 
0 0 0 0 0 0 1 1 0 0 1:58.5235 2:58.0299 3:57.1164 4:55.2475 5:52.9254 6:50.4239 7:48.3869 8:45.6958 9:43.2038 10:41.1739 11:38.7663 12:36.2257 13:34.4428 14:31.7671 15:29.3349 16:27.3554 17:25.0565 18:22.6127 19:20.7005 20:18.4468 21:16.2788 22:16.8029 23:19.4753 24:22.3471 25:24.7891 26:27.3477 27:30.0561 28:32.1926 29:34.7173 30:37.2606 31:39.1217 32:41.6034 33:44.3002 34:46.5028 35:49.4701 36:51.1566 37:51.701 38:50.6842 39:48.8109 40:47.0891 41:44.9436 42:42.325 43:40.7002 44:38.7106 45:36.3365 46:34.3006 47:32.8853 48:31.1788 49:28.9736 50:27.3583 51:25.0718 52:23.27 53:22.0567 54:22.3698 55:24.5516 56:26.5093 57:29.1639 58:31.488 59:32.8708 60:35.1268 61:37.6377 62:40.2067 63:43.0824 64:45.2428 65:46.0269 66:45.0362 67:43.8348 68:42.008 69:40.5385 70:38.5322 71:36.5069 72:34.8066 73:32.9671 74:31.8981 75:30.6933 76:30.2149 77:30.2152 78:30.7997 79:31.3208 80:31.8591 81:32.7954 82:34.4435 83:35.4025 84:36.2074 85:37.7587 86:39.1528 87:40.3892 88:42.0721 89:42.3259 90:41.8747 91:42.1054 92:43.1451 93:42.5292 94:41.6869 95:41.1521 96:41.3702 97:41.1285 98:39.9109 99:40.0059 100:39.9321 101:40.0306 102:40.068 103:40.0402 104:39.7041 105:39.7617 106:39.6148 107:39.7617 108:40.7061 109:41.3554 110:41.8264 111:41.8385 112:42.1063 113:43.3461 114:44.7534 115:46.7 116:48.814 117:50.624 118:53.016 119:54.5228 120:56.1115 121:55.6642 122:54.0949 123:52.2806 124:50.3116 125:47.6225 126:45.0473 127:42.9215 128:40.2062 129:37.5331 130:36.0069 131:34.1436 132:32.9671 133:31.4144 134:29.6296 135:27.2137 136:24.6699 137:21.7531 138:19.8157 139:18.5664 140:18.0462 141:18.3437 142:18.8276 143:19.4154 144:19.9858 145:21.1048 146:22.6798 147:24.4002 148:25.872 149:27.8074 150:29.8217 151:31.4853 152:33.618 153:35.7953 154:37.5673 155:39.8136 156:42.0867 157:43.9237 158:46.2395 159:48.2315 160:50.1226 161:52.2021 162:54.2113 163:55.2131 164:54.3384 165:52.5634 166:49.9925 167:48.0131 168:45.5414 169:43.0727 170:41.1006 171:38.6396 172:36.1837 173:34.2237 174:31.5757 175:29.1249 176:27.171 177:24.7394 178:22.074 179:20.1312 180:17.7215 181:15.1858 182:13.2473 183:15.0119 184:17.5286 185:19.5256 186:22.0908 187:24.6313 188:26.7336 189:29.2748 190:31.8945 191:33.951 192:36.4968 193:39.047 194:41.1006 195:43.7381 196:46.2889 197:48.3452 198:51.0577 199:53.7461 200:56.1483 
0 0 0 0 0 0 0.3140695257561277 0 0 0 1:61.4003 2:60.1067 3:58.2001 4:55.7317 5:53.2659 6:50.8037 7:48.3452 8:45.8915 9:43.4426 10:41.0004 11:38.5651 12:36.1392 13:33.7234 14:31.3218 15:28.9357 16:26.5721 17:24.234 18:21.9343 19:19.9238 20:22.297 21:25.126 22:27.6192 23:29.9717 24:32.4985 25:34.8898 26:37.4365 27:39.8534 28:42.1556 29:44.4779 30:47.1708 31:49.5104 32:52.318 33:55.4308 34:56.8644 35:56.577 36:55.2717 37:53.3401 38:51.1988 39:48.9097 40:46.4578 41:44.4098 42:41.8012 43:39.8279 44:37.9125 45:36.0738 46:34.313 47:32.1444 48:30.3052 49:28.0259 50:26.6728 51:28.1802 52:30.7007 53:33.0102 54:35.1072 55:37.2776 56:39.3751 57:41.7776 58:44.2084 59:47.3814 60:49.8835 61:51.1011 62:50.7049 63:49.376 64:47.4387 65:45.5673 66:43.6181 67:41.7505 68:40.1181 69:38.4509 70:37.0119 71:35.0498 72:33.8769 73:32.1947 74:31.3595 75:30.5414 76:30.2763 77:30.7 78:31.3307 79:31.2004 80:32.2109 81:33.3682 82:34.6766 83:35.3045 84:36.8834 85:38.5536 86:39.8607 87:41.4892 88:42.8047 89:44.2417 90:45.9756 91:47.2119 92:48.3443 93:48.2853 94:48.3901 95:47.6706 96:47.4084 97:47.1028 98:45.946 99:44.5727 100:44.0076 101:44.0738 102:44.2323 103:44.2328 104:43.5529 105:43.3696 106:43.0222 107:42.8596 108:42.7136 109:42.205 110:41.5089 111:41.1257 112:41.7253 113:42.5362 114:42.9067 115:42.7349 116:43.6229 117:43.8767 118:45.2428 119:46.8511 120:48.876 121:50.8672 122:53.036 123:54.9015 124:56.058 125:54.6728 126:52.5381 127:50.04 128:47.5421 129:45.0111 130:42.5058 131:40.0043 132:37.587 133:35.3674 134:33.3596 135:31.9514 136:30.482 137:28.6234 138:26.244 139:23.9679 140:21.5141 141:19.5317 142:19.1222 143:19.0131 144:19.2523 145:19.7859 146:20.0236 147:21.7127 148:23.0316 149:24.91 150:26.9141 151:29.3492 152:31.1497 153:33.6802 154:35.8169 155:38.2013 156:40.2271 157:42.8524 158:44.9465 159:47.3342 160:49.741 161:51.9164 162:53.8209 163:55.9133 164:57.0843 165:56.4754 166:54.8134 167:52.1785 168:50.1226 169:47.5413 170:45.0697 171:42.4912 172:40.0285 173:37.3374 174:34.6451 175:32.0703 176:29.619 177:26.9275 178:24.234 179:21.6678 180:19.243 181:16.477 182:16.8775 183:19.2358 184:21.7084 185:24.187 186:26.6693 187:29.1549 188:31.6426 189:34.0588 190:36.5548 191:39.0513 192:41.5482 193:44.0343 194:46.5107 195:49.0102 196:51.5097 197:54.0062 198:56.5 199:59.0168 200:60.603 
0 0 0 0 0 0 0.254446365077073 0 0 0 1:75.0267 2:73.0023 3:70.0071 4:67.0075 5:64.0078 6:61.0082 7:58.0086 8:55.0184 9:52.0385 10:49.0408 11:46.0435 12:43.1046 13:40.1124 14:37.1215 15:34.2346 16:30.7615 17:27.2076 18:24.187 19:21.3781 20:19.3113 21:20.4311 22:24.024 23:27.4558 24:30.5694 25:33.8451 26:37.1233 27:40.2509 28:43.3835 29:46.5201 30:50.3244 31:53.85 32:56.8604 33:59.8762 34:62.7702 35:65.9249 36:69.4636 37:73.108 38:74.3928 39:72.9462 40:70.329 41:67.5709 42:64.6621 43:61.767 44:58.3832 45:55.2198 46:52.2038 47:49.4083 48:46.6496 49:43.9351 50:41.2659 51:38.6595 52:35.8782 53:32.908 54:30.2705 55:27.4676 56:25.0702 57:24.7208 58:27.0224 59:30.5683 60:34.581 61:38.2785 62:42.0297 63:45.6967 64:49.3603 65:52.7743 66:56.8253 67:60.0341 68:64.1411 69:67.9153 70:70.832 71:72.1824 72:71.1164 73:68.2878 74:64.9345 75:61.6866 76:57.8729 77:55.0846 78:51.4234 79:48.8408 80:45.4037 81:42.1138 82:39.0085 83:36.4668 84:35.5197 85:35.5046 86:36.0637 87:36.4729 88:38.0854 89:39.1188 90:40.613 91:42.2798 92:43.6145 93:45.1315 94:46.6099 95:48.0809 96:50.084 97:51.8962 98:53.0121 99:53.7768 100:55.1774 101:57.8816 102:58.6997 103:57.0212 104:54.236 105:52.0448 106:52.016 107:51.1631 108:50.8251 109:50.9965 110:51.3477 111:51.2374 112:51.0125 113:51.2993 114:51.1953 115:51.042 116:50.7365 117:51.4254 118:51.6752 119:52.0222 120:52.7094 121:54.2148 122:55.6119 123:57.3946 124:59.357 125:61.4086 126:62.5936 127:64.9453 128:66.488 129:65.8614 130:62.5296 131:59.0256 132:56.1015 133:53.2428 134:50.496 135:48.0618 136:45.8915 137:43.897 138:42.0617 139:39.8265 140:37.0471 141:33.4488 142:29.5315 143:26.7105 144:24.2072 145:22.7055 146:23.0362 147:24.0969 148:24.8521 149:26.5747 150:28.8527 151:31.6084 152:34.1962 153:37.1755 154:39.9539 155:42.5396 156:45.7122 157:48.4175 158:51.1752 159:54.4495 160:57.7715 161:60.6537 162:63.1291 163:65.439 164:67.6053 165:68.5148 166:67.1741 167:63.97 168:60.711 169:57.4559 170:54.5573 171:51.4959 172:48.4476 173:44.5265 174:40.6099 175:37.4011 176:34.0026 177:30.8196 178:27.4443 179:23.8647 180:20.6253 181:18.6089 182:19.7005 183:22.4741 184:25.2995 185:28.3581 186:31.3218 187:34.6891 188:38.0794 189:41.2315 190:44.1479 191:47.0747 192:50.0103 193:52.953 194:55.9019 195:58.8559 196:61.8144 197:64.7767 198:67.6494 199:70.5763 200:73.3403 
0 0 0 0 0 0 0.8471258362513349 0.8402995847109019 0 0 1:73.9797 2:73.0266 3:70.9872 4:68.1545 5:65.3442 6:62.6423 7:59.7751 8:56.9216 9:54.3133 10:51.1608 11:47.9281 12:45.1898 13:42.9435 14:40.3133 15:37.7384 16:35.2309 17:32.4012 18:29.458 19:26.8763 20:24.8473 21:24.0509 22:25.945 23:29.2202 24:32.5431 25:35.796 26:39.7375 27:43.6008 28:46.7506 29:49.936 30:52.6522 31:55.6588 32:58.9341 33:61.991 34:65.7647 35:70.183 36:72.1896 37:70.9393 38:69.0319 39:66.4035 40:63.8235 41:61.0191 42:58.2668 43:55.3233 44:52.1831 45:49.3603 46:46.927 47:43.9755 48:41.4474 49:39.382 50:37.492 51:36.1039 52:36.0231 53:37.2244 54:37.6649 55:39.3017 56:40.4829 57:42.1612 58:43.3882 59:44.7829 60:46.6061 61:48.0757 62:49.6829 63:51.1817 64:52.5821 65:53.2759 66:53.5594 67:53.8633 68:56.0432 69:57.4771 70:55.412 71:52.5602 72:51.8709 73:51.6684 74:50.9965 75:50.4941 76:50.6341 77:51.0065 78:51.0947 79:50.6969 80:50.4832 81:50.4542 82:50.6155 83:50.6485 84:50.5722 85:51.6908 86:52.4431 87:52.7473 88:53.015 89:54.0083 90:55.1753 91:56.9519 92:58.8317 93:60.9226 94:62.9698 95:64.8362 96:66.4984 97:67.732 98:65.9257 99:62.0341 100:58.8735 101:55.6186 102:52.6687 103:50.6955 104:48.7142 105:46.8744 106:45.2086 107:43.5031 108:41.7292 109:39.6277 110:35.419 111:31.3721 112:28.7616 113:25.9985 114:23.61 115:22.8523 116:23.4328 117:24.8573 118:26.5687 119:30.027 120:33.2492 121:36.6799 122:39.6222 123:42.4055 124:45.544 125:49.3985 126:52.7016 127:56.8091 128:60.5344 129:63.4276 130:65.8004 131:67.9593 132:68.0169 133:66.8451 134:63.2536 135:58.7238 136:54.2035 137:50.8039 138:46.6158 139:42.4387 140:38.4599 141:34.6707 142:30.5298 143:25.7428 144:21.4743 145:18.7104 146:17.3086 147:18.6601 148:21.6067 149:25.0005 150:28.4048 151:32.3204 152:36.0584 153:39.2958 154:42.3654 155:45.6197 156:48.8792 157:52.1391 158:55.0741 159:58.1821 160:61.7357 161:65.3004 162:68.4261 163:71.1135 164:73.4177 165:74.7213 166:73.3725 167:70.4167 168:66.7274 169:62.937 170:59.7751 171:56.6133 172:53.3528 173:50.0951 174:46.7496 175:43.5032 176:39.6557 177:35.8313 178:32.6224 179:29.5504 180:26.4178 181:23.2933 182:20.1131 183:17.715 184:18.7781 185:22.3915 186:25.9624 187:28.8624 188:31.781 189:34.8551 190:37.8554 191:40.7925 192:43.7381 193:47.1835 194:50.6361 195:53.6005 196:56.4809 197:59.4139 198:62.394 199:65.3759 200:68.3954 
0 0 0 0 0 0.1067000335760278 0 0.09758870063909682 0 0 1:70.859 2:69.5432 3:67.2683 4:64.3275 5:61.612 6:58.6944 7:56.2696 8:54.1207 9:51.2451 10:48.3845 11:45.8812 12:43.5463 13:41.2323 14:38.4853 15:35.7789 16:33.1233 17:30.9567 18:28.848 19:27.927 20:29.9371 21:33.9411 22:36.7764 23:39.8524 24:42.9635 25:46.1008 26:49.253 27:51.9279 28:54.4075 29:57.4007 30:60.4111 31:63.8203 32:67.3091 33:68.4201 34:66.7104 35:64.2225 36:61.5574 37:59.4012 38:57.0429 39:54.4918 40:51.7434 41:49.3012 42:46.405 43:44.1182 44:41.8863 45:39.1625 46:36.5341 47:34.6284 48:34.0069 49:33.2508 50:33.5506 51:33.8108 52:34.0098 53:34.5936 54:35.3646 55:36.5598 56:37.6512 57:38.6339 58:39.6037 59:40.7127 60:42.1958 61:43.8343 62:45.6116 63:47.1847 64:48.8402 65:50.4501 66:51.1011 67:52.4069 68:54.234 69:55.7698 70:56.8351 71:56.9762 72:56.0854 73:54.2538 74:51.5488 75:49.0908 76:48.0587 77:46.8651 78:46.2223 79:46.0507 80:46.0181 81:46.1807 82:45.5483 83:45.4558 84:45.7436 85:45.2358 86:45.0919 87:45.4821 88:45.7983 89:45.9237 90:46.2419 91:46.7047 92:47.4376 93:48.4285 94:49.5276 95:50.9585 96:52.6819 97:54.5728 98:56.4725 99:56.9466 100:58.5324 101:60.885 102:60.8657 103:57.7101 104:55.1618 105:52.8343 106:50.1513 107:47.6291 108:45.2334 109:43.3695 110:41.7732 111:39.5184 112:37.3954 113:35.4278 114:33.2015 115:30.6107 116:26.9376 117:24.1388 118:22.3726 119:21.3651 120:20.6307 121:20.7809 122:22.3698 123:23.6851 124:25.9677 125:28.6264 126:31.3878 127:34.4404 128:37.5913 129:41.106 130:43.4111 131:46.3213 132:49.4068 133:52.5385 134:55.7041 135:58.1937 136:60.709 137:63.7053 138:66.2487 139:66.5382 140:65.2419 141:61.7172 142:58.1378 143:54.7832 144:50.9902 145:48.13 146:44.8242 147:41.0366 148:37.0254 149:33.2416 150:29.7069 151:26.9073 152:24.2159 153:24.3668 154:26.8353 155:29.5178 156:32.2044 157:35.4846 158:38.4853 159:41.6307 160:44.3203 161:46.7457 162:49.8982 163:52.9254 164:56.0811 165:58.9929 166:61.5653 167:63.9068 168:66.6252 169:68.6879 170:67.1034 171:64.3944 172:61.7673 173:58.6163 174:55.4666 175:52.245 176:49.6251 177:46.9385 178:43.7381 179:40.6081 180:37.4836 181:34.8605 182:32.2942 183:29.1935 184:26.0311 185:25.4241 186:27.8688 187:30.4141 188:33.5413 189:36.4968 190:39.5125 191:42.0863 192:44.5535 193:47.5186 194:50.4877 195:53.4604 196:55.9397 197:58.421 198:61.3656 199:64.2807 200:67.3686 
0.566710447358005 0.7958015389797565 0 0.5681894922223276 0.9836264299688239 0 1 1 1 0.418662539531885 1:61.6847 2:60.8188 3:59.1548 4:56.9235 5:54.2319 6:51.7356 7:49.702 8:47.0118 9:44.3203 10:42.0867 11:39.5326 12:37.1254 13:34.8898 14:32.6542 15:29.9687 16:27.2818 17:26.2482 18:26.6702 19:29.9083 20:32.409 21:35.4049 22:38.5034 23:41.3099 24:43.3417 25:46.4383 26:49.7444 27:52.5595 28:55.187 29:58.1937 30:60.2537 31:62.2926 32:61.8819 33:60.1041 34:58.3471 35:55.6588 36:52.7389 37:50.2842 38:46.7547 39:43.983 40:41.9345 41:39.2049 42:36.1028 43:33.7122 44:30.9276 45:28.0295 46:27.5128 47:29.0911 48:31.7832 49:35.1077 50:37.3437 51:40.2509 52:43.1572 53:45.8535 54:48.325 55:51.3175 56:54.3924 57:56.3853 58:59.3786 59:62.2118 60:63.9711 61:62.3144 62:59.7198 63:57.9358 64:56.2011 65:52.9264 66:49.8626 67:47.4614 68:44.2749 69:41.1414 70:39.6564 71:36.8834 72:34.0332 73:31.8226 74:29.6522 75:27.6964 76:27.0462 77:28.7174 78:31.3545 79:33.6868 80:35.5919 81:38.0398 82:40.5062 83:42.5058 84:44.5279 85:47.0776 86:49.6257 87:51.6551 88:52.758 89:50.5049 90:48.5259 91:46.08 92:43.6835 93:41.8666 94:40.1156 95:37.932 96:35.7894 97:34.004 98:32.0772 99:30.6423 100:30.2727 101:30.0218 102:29.0344 103:29.0344 104:29.3085 105:29.1763 106:29.3077 107:29.9077 108:30.7395 109:31.9818 110:33.6868 111:36.0237 112:37.5331 113:39.6574 114:40.874 115:43.4163 116:45.2381 117:46.2236 118:49.3384 119:51.7057 120:51.9126 121:52.0932 122:52.1052 123:51.0422 124:50.0897 125:48.6428 126:47.4062 127:45.8405 128:42.6382 129:40.4104 130:39.9546 131:39.4578 132:38.9026 133:38.5541 134:37.9074 135:37.7265 136:36.9657 137:37.1682 138:36.7321 139:36.7762 140:37.4098 141:38.1269 142:38.5066 143:39.032 144:39.1599 145:38.4792 146:38.9421 147:39.4269 148:40.1696 149:41.0422 150:42.7488 151:44.1296 152:45.896 153:46.9088 154:47.9836 155:50.2239 156:52.101 157:53.7253 158:56.0838 159:57.3498 160:56.9243 161:54.2146 162:50.9166 163:48.4394 164:45.9619 165:43.6222 166:41.4414 167:40.1422 168:37.8077 169:35.5164 170:34.401 171:32.5431 172:31.0878 173:29.3507 174:28.153 175:25.1962 176:22.6114 177:20.719 178:18.7915 179:17.0681 180:16.34 181:16.1638 182:16.3387 183:17.404 184:18.8372 185:21.0488 186:23.5104 187:25.5484 188:28.2003 189:30.7612 190:32.8825 191:35.5701 192:38.2447 193:40.5125 194:42.688 195:45.4371 196:48.0236 197:50.345 198:53.163 199:55.9876 200:58.1946 
0 0 0 0 0 0 0.2842316256390836 0 0 0 1:57.0789 2:55.644 3:53.6493 4:51.2446 5:48.7571 6:46.7681 7:44.3669 8:41.9316 9:39.9532 10:37.4836 11:35.018 12:33.2455 13:30.8064 14:28.3772 15:26.4437 16:24.0428 17:21.6628 18:19.45 19:19.0403 20:21.7836 21:24.1902 22:26.6185 23:28.6234 24:31.158 25:33.5603 26:35.3877 27:37.9495 28:40.3892 29:42.2526 30:44.9454 31:47.4614 32:49.9808 33:52.5033 34:54.5553 35:56.6532 36:55.6173 37:54.1691 38:51.8953 39:49.4222 40:47.4057 41:45.179 42:42.9803 43:41.247 44:38.9379 45:36.4736 46:34.8186 47:32.8062 48:30.8603 49:28.7728 50:26.5213 51:25.1673 52:23.0715 53:21.7939 54:21.7013 55:23.4111 56:25.7735 57:28.153 58:30.4661 59:32.8717 60:35.5604 61:37.7938 62:40.2297 63:42.1662 64:44.7036 65:46.7055 66:49.3012 67:52.2432 68:51.705 69:50.2239 70:47.9836 71:46.4815 72:44.4902 73:42.2675 74:40.4791 75:38.3902 76:36.228 77:35.1085 78:33.6393 79:31.488 80:29.4964 81:28.0089 82:27.5459 83:27.3066 84:26.8046 85:26.8868 86:27.0239 87:27.5398 88:28.1599 89:28.9586 90:29.7153 91:30.7793 92:32.4475 93:34.0049 94:35.5132 95:37.1525 96:38.4617 97:39.9391 98:41.4354 99:41.8434 100:41.7809 101:40.874 102:39.6574 103:37.3554 104:37.0338 105:36.1732 106:36.5055 107:36.5084 108:36.0678 109:36.0978 110:36.4617 111:36.732 112:36.3376 113:36.3179 114:37.2994 115:37.8466 116:38.3536 117:38.5696 118:38.3332 119:38.242 120:39.0146 121:40.4833 122:41.8434 123:43.7482 124:44.8421 125:47.1036 126:49.0051 127:49.5254 128:48.1184 129:45.5988 130:43.5743 131:41.008 132:38.5327 133:36.6715 134:34.5383 135:32.6324 136:31.3195 137:29.8329 138:28.219 139:26.2398 140:23.3255 141:20.3579 142:17.7802 143:15.6678 144:14.7196 145:14.0238 146:13.2473 147:13.3007 148:13.9104 149:15.3102 150:16.9853 151:19.1131 152:21.0082 153:23.2022 154:25.6157 155:28.1517 156:30.5317 157:32.9323 158:34.9186 159:37.432 160:39.8033 161:42.0393 162:44.2846 163:46.5542 164:48.7882 165:51.0794 166:53.3881 167:55.2475 168:56.2945 169:53.9284 170:51.723 171:49.1377 172:46.6505 173:43.9666 174:41.2828 175:39.2251 176:36.5903 177:34.004 178:31.947 179:29.3119 180:26.5822 181:24.5208 182:21.9359 183:19.3032 184:17.3635 185:19.054 186:21.5233 187:24.0208 188:26.5189 189:28.5175 190:31.0161 191:33.5149 192:35.5141 193:38.0132 194:40.5494 195:42.547 196:45.0111 197:47.5105 198:49.5101 199:52.0033 200:54.5045 
0.259896556442928 0.4883935650571765 0.3497538998221185 0.9330328110449794 0.1329898646345772 0.1363047095920339 0.8647105707061583 0.7426986576522536 0.6169082622772734 0.2433216846501895 1:65.7647 2:64.0678 3:61.4404 4:58.2461 5:55.644 6:53.0531 7:50.0066 8:47.5053 9:45.0336 10:42.1354 11:39.2821 12:37.0788 13:34.8592 14:32.2808 15:30.2039 16:28.3723 17:26.4431 18:26.1039 19:27.9153 20:31.0298 21:33.6041 22:35.6417 23:37.7384 24:40.3133 25:42.2724 26:44.2846 27:47.0118 28:49.524 29:51.7328 30:54.084 31:56.9216 32:59.2999 33:58.189 34:55.815 35:54.1138 36:52.2019 37:49.914 38:47.7095 39:46.2097 40:44.2069 41:41.8722 42:40.6739 43:38.9017 44:36.8834 45:35.0061 46:33.5622 47:33.1287 48:33.0143 49:32.7334 50:32.9944 51:33.0586 52:33.5974 53:34.0098 54:35.1378 55:35.5197 56:36.9931 57:37.9678 58:39.5674 59:41.4302 60:42.4916 61:44.7829 62:46.8901 63:48.543 64:50.0043 65:51.6068 66:52.0323 67:51.6365 68:52.0754 69:51.705 70:50.5003 71:49.4012 72:47.8906 73:45.8416 74:44.7835 75:43.9803 76:43.8233 77:43.1814 78:43.5735 79:43.2377 80:43.0542 81:43.0194 82:43.1933 83:42.998 84:42.9609 85:43.6877 86:44.435 87:44.7021 88:45.0291 89:45.5736 90:46.1842 91:46.9426 92:48.2741 93:49.9138 94:51.627 95:53.0783 96:54.9396 97:56.2251 98:58.4078 99:60.4666 100:62.0107 101:62.2696 102:60.5344 103:57.9184 104:55.1618 105:52.356 106:49.741 107:47.5954 108:45.4885 109:43.0142 110:41.0042 111:39.7025 112:37.4876 113:36.4608 114:34.8339 115:32.2092 116:28.8453 117:25.6578 118:23.4059 119:20.622 120:18.7449 121:17.3086 122:16.1401 123:15.8304 124:15.7108 125:16.6869 126:18.2607 127:20.7481 128:23.4145 129:27.3162 130:30.2086 131:33.2478 132:36.7164 133:40.8176 134:44.2552 135:47.708 136:51.5913 137:54.5208 138:57.4715 139:60.3431 140:62.9397 141:64.5398 142:65.1176 143:61.7836 144:58.7069 145:55.6346 146:51.6236 147:48.0885 148:45.0209 149:41.0122 150:37.0076 151:33.9485 152:30.4138 153:26.8701 154:23.6934 155:21.531 156:22.6531 157:25.933 158:28.8453 159:32.6369 160:35.8724 161:38.6953 162:41.6992 163:45.3045 164:48.3996 165:51.1321 166:54.38 167:57.4559 168:60.1109 169:62.2669 170:64.8857 171:66.4187 172:64.4061 173:60.5543 174:57.5201 175:54.6276 176:50.9493 177:47.2916 178:44.3011 179:41.326 180:37.647 181:34.6881 182:31.8571 183:28.5054 184:25.2702 185:23.0543 186:25 187:28.0351 188:30.5655 189:33.1362 190:36.1562 191:38.7646 192:41.3915 193:44.5535 194:47.6762 195:50.3116 196:52.8321 197:55.9633 198:58.5428 199:61.1884 200:64.3275 
0.2687509415640873 0.1687341994871245 0.2461233808268576 0.09090401267995193 0.3541880572624093 0.1615910103393194 0 0.02219245327936373 0.4571443509442069 0.0800697279748263 1:73.2462 2:71.1545 3:68.083 4:65.0562 5:62.0323 6:59.0253 7:55.509 8:52.0063 9:49 10:46.0109 11:43.0116 12:39.5671 13:36.1248 14:33.2417 15:30.3168 16:27.4595 17:24.0272 18:20.7975 19:19.1123 20:20.9242 21:24.1902 22:27.621 23:31.0133 24:34.0164 25:37.1633 26:40.052 27:43.6393 28:47.1708 29:50.2112 30:53.142 31:56.1917 32:59.6102 33:62.937 34:66.0989 35:69.572 36:73.0788 37:75.5865 38:75.161 39:72.8981 40:70.2364 41:67.603 42:65.0013 43:61.8786 44:58.5252 45:55.8465 46:53.0116 47:50.6088 48:47.4085 49:44.6016 50:41.9589 51:39.6277 52:36.8834 53:33.5096 54:30.5123 55:28.662 56:29.2912 57:31.7308 58:35.7622 59:40.3135 60:43.3837 61:47.4143 62:50.6073 63:54.1167 64:57.9684 65:61.3079 66:65.2153 67:69.4048 68:73.7063 69:76.0928 70:75.475 71:73.639 72:71.2979 73:68.2037 74:64.5842 75:61.5424 76:58.5648 77:55.6614 78:51.8271 79:48.2739 80:45.3834 81:42.6344 82:41.0569 83:40.0208 84:40.2677 85:40.8 86:41.4924 87:42.3862 88:43.4691 89:44.5191 90:45.7983 91:46.6202 92:47.6382 93:48.8402 94:50.4071 95:51.6511 96:52.4432 97:53.514 98:56.7699 99:58.8282 100:60.238 101:60.0994 102:58.526 103:55.3629 104:52.7676 105:51.9773 106:51.4845 107:52.16 108:52.016 109:53.0707 110:53.3447 111:53.7647 112:54.3473 113:54.7685 114:54.9699 115:55.5478 116:55.9065 117:57.023 118:57.7086 119:57.9126 120:58.3974 121:59.6621 122:60.8302 123:62.5955 124:64.6627 125:66.6576 126:68.8824 127:70.8479 128:72.5615 129:74.251 130:73.6226 131:71.0034 132:67.4183 133:63.7927 134:60.746 135:57.4754 136:54.2319 137:51.759 138:49.6502 139:47.8548 140:45.9299 141:43.8426 142:42.0064 143:40.3156 144:37.2905 145:33.4382 146:30.1755 147:27.6656 148:26.3682 149:26.2542 150:26.1952 151:26.8181 152:29.0819 153:31.6927 154:34.242 155:37.0297 156:40.5255 157:43.3274 158:45.9328 159:48.6394 160:52.107 161:55.366 162:58.0261 163:60.7492 164:62.4295 165:63.9448 166:63.7573 167:63.4211 168:61.6228 169:58.1378 170:54.5619 171:50.4518 172:46.4637 173:43.1393 174:39.598 175:35.8315 176:31.4865 177:26.9073 178:22.6717 179:18.4393 180:15.1175 181:16.8135 182:20.2533 183:23.3276 184:26.4227 185:29.5322 186:32.8717 187:36.2507 188:39.0013 189:42.1556 190:44.9454 191:48.3999 192:51.8659 193:54.7089 194:57.8711 195:60.7294 196:64.0808 197:67.4466 198:70.0156 199:72.3735 200:73.8285 
0.3573372507749853 0.2153672689168275 0.3494717241362175 0.4783106884183294 0 0.242320087490977 0 0.5461704754109309 0.2990253136784539 0.2813540607290062 1:75.4321 2:74.6855 3:72.8417 4:70.2288 5:67.4172 6:64.1594 7:60.927 8:58.1817 9:55.4628 10:52.7744 11:50.0558 12:46.8205 13:44.1044 14:42.006 15:39.2078 16:36.3398 17:33.2463 18:30.9015 19:28.6983 20:29.3386 21:32.347 22:36.0789 23:39.1109 24:42.2023 25:45.3463 26:48.978 27:52.6522 28:55.4157 29:58.2199 30:61.5224 31:65.7761 32:70.4857 33:73.3091 34:73.8438 35:72.3491 36:69.7343 37:66.935 38:64.366 39:61.5738 40:58.5493 41:55.7591 42:52.4793 43:49.9644 44:47.235 45:44.4405 46:41.4924 47:39.8201 48:39.3275 49:39.393 50:40.0437 51:40.6492 52:41.7809 53:42.4573 54:43.3312 55:45.5117 56:46.0709 57:47.2295 58:48.2645 59:49.4766 60:51.4195 61:52.8068 62:53.1632 63:53.8066 64:56.9353 65:59.6717 66:61.0677 67:61.8893 68:62.0507 69:60.2341 70:57.736 71:54.3093 72:52.5034 73:52.3155 74:51.9773 75:52.6653 76:53.4242 77:54.0062 78:54.0894 79:54.3384 80:54.3497 81:54.5768 82:55.0508 83:55.3678 84:56.2135 85:56.9558 86:57.233 87:57.4191 88:58.0741 89:59.4221 90:61.0756 91:62.9391 92:64.6725 93:66.7104 94:68.5098 95:70.8411 96:72.7675 97:73.065 98:71.5927 99:67.755 100:63.0726 101:59.6475 102:56.799 103:54.1216 104:51.2975 105:48.735 106:47.0121 107:45.2494 108:43.6448 109:41.7586 110:39.8297 111:37.2026 112:34.0026 113:31.2454 114:28.306 115:26.2562 116:25.5332 117:25.5183 118:25.9474 119:27.8954 120:31.0276 121:33.4026 122:36.3522 123:39.6821 124:43.6843 125:46.8067 126:49.3985 127:52.3944 128:56.1353 129:59.6496 130:61.9788 131:64.3792 132:65.1916 133:64.7531 134:64.1603 135:61.991 136:58.6941 137:54.9201 138:50.7386 139:46.6905 140:43.1857 141:38.9487 142:34.7132 143:30.5372 144:25.8235 145:22.023 146:18.0144 147:15.8186 148:18.9889 149:22.6018 150:25.6157 151:29.0316 152:32.0857 153:35.5451 154:38.9507 155:42.0613 156:45.0239 157:47.8553 158:51.4439 159:55.0374 160:58.0445 161:60.927 162:64.5402 163:67.7797 164:70.236 165:72.1321 166:73.898 167:73.2078 168:69.9803 169:66.8574 170:63.7384 171:60.6238 172:57.0638 173:53.4604 174:50.3588 175:47.2653 176:44.1815 177:40.5795 178:37.0135 179:34 180:31.0109 181:28.0179 182:24.5817 183:21.271 184:19.9401 185:22.4741 186:25.2995 187:28.8597 188:32.2808 189:35.1716 190:38.0794 191:41.1526 192:44.6353 193:48.0524 194:51.0577 195:54.0013 196:56.886 197:60.3348 198:63.7888 199:66.9669 200:70.4089 
0 0 0 0 0.1321213307510767 0 0 0 0.02494227608224329 0 1:73.7564 2:72.1169 3:69.3761 4:66.7612 5:63.891 6:61.0333 7:58.5242 8:55.2487 9:52.2651 10:49.66 11:46.9588 12:44.6212 13:42.1922 14:39.6637 15:36.5051 16:33.4255 17:31.1497 18:29.2558 19:29.6165 20:32.4508 21:35.27 22:39.1263 23:42.525 24:45.2808 25:48.3207 26:51.162 27:54.0389 28:56.9461 29:60.3711 30:64.6608 31:68.6289 32:71.3437 33:71.6836 34:70.0096 35:67.6972 36:64.6779 37:61.8498 38:59.2066 39:56.6166 40:54.363 41:51.9105 42:49.2495 43:46.2942 44:43.7737 45:41.128 46:39.5679 47:39.1691 48:39.3275 49:39.7259 50:40.293 51:41.3117 52:42.4339 53:43.4238 54:44.593 55:46.2447 56:46.829 57:48.1373 58:49.0965 59:50.8078 60:52.6346 61:54.0701 62:54.692 63:55.5415 64:58.4182 65:61.0204 66:62.4363 67:63.295 68:62.9494 69:62.777 70:60.0445 71:57.0096 72:53.8037 73:53.1407 74:53.2846 75:52.9589 76:53.4664 77:54.1248 78:54.0062 79:53.4242 80:53.3447 81:53.7647 82:54.0238 83:54.1259 84:54.2619 85:54.6311 86:55.3138 87:55.2898 88:55.7549 89:56.1421 90:57.2415 91:58.7177 92:60.6043 93:62.1572 94:63.8292 95:65.611 96:67.3086 97:69.2947 98:70.0424 99:67.9819 100:64.8858 101:61.0587 102:57.7763 103:54.9006 104:52.3271 105:49.209 106:46.8268 107:44.8492 108:43.2184 109:41.5595 110:40.0819 111:38.5519 112:36.1042 113:32.4012 114:29.8374 115:27.592 116:25.5024 117:24.4223 118:24.3165 119:24.6971 120:26.3224 121:29.0295 122:31.407 123:34.3726 124:37.2104 125:40.5255 126:44.4405 127:47.852 128:50.8736 129:53.9669 130:57.1203 131:60.0375 132:62.7191 133:65.1852 134:66.4101 135:65.957 136:65.5379 137:63.4158 138:59.4138 139:54.6388 140:50.6776 141:47.144 142:43.1393 143:39.6232 144:35.3836 145:31.1449 146:26.5395 147:21.9317 148:18.6429 149:20.2034 150:23.4059 151:26.8173 152:29.8635 153:33.4452 154:36.8803 155:39.8265 156:42.9435 157:46.0667 158:49.1949 159:52.1807 160:55.7005 161:59.0941 162:62.2423 163:65.0008 164:68.0316 165:70.236 166:72.1321 167:73.3762 168:71.3892 169:68.1266 170:64.9386 171:61.8144 172:58.6943 173:55.6289 174:52.0088 175:48.3737 176:45.2431 177:42.1341 178:39.0721 179:36.0274 180:33 181:29.5129 182:26.0584 183:23.2129 184:22.7201 185:25.7106 186:28.6362 187:31.642 188:35.2037 189:38.6396 190:41.5935 191:44.5535 192:47.5186 193:50.4877 194:53.4205 195:56.8178 196:60.2993 197:63.2851 198:66.3044 199:69.4659 200:72.5098 
0.03895175771061662 0.1138802272604046 0 0 0.4019110215475521 0 1 1 0.4176728984820042 0.3427942914235819 1:55.0273 2:54.6028 3:53.3881 4:51.5392 5:49.702 6:47.0118 7:44.3203 8:42.2914 9:40.057 10:38.0302 11:35.3429 12:32.6542 13:30.8594 14:28.6234 15:26.8572 16:24.1902 17:21.7836 18:19.5582 19:17.3355 20:15.4057 21:14.9107 22:16.2274 23:17.9252 24:20.4091 25:23.3023 26:26.505 27:28.9034 28:31.313 29:34.1248 30:37.3889 31:40.4042 32:42.4794 33:44.9376 34:47.3973 35:50.9313 36:54.4656 37:56.2705 38:57.4369 39:56.5367 40:54.7354 41:52.3117 42:49.5229 43:47.5659 44:44.1028 45:41.5034 46:39.1974 47:36.9126 48:35.1077 49:32.0904 50:29.4378 51:26.8812 52:24.3849 53:22.1953 54:21.2286 55:21.5119 56:23.5213 57:25.5783 58:27.5727 59:30.0339 60:32.5078 61:34.5 62:36.5137 63:39.0381 64:41.5482 65:43.6033 66:45.6755 67:47.7625 68:50.401 69:53.0347 70:55.1604 71:57.1386 72:58.3652 73:56.1478 74:53.5232 75:51.5049 76:49.5254 77:47.5686 78:45.1522 79:42.7931 80:40.9421 81:39.1313 82:36.8124 83:34.5669 84:32.9073 85:31.3195 86:29.619 87:28.7859 88:28.5732 89:28.9034 90:29.4005 91:30.0561 92:30.8302 93:31.7644 94:32.4493 95:33.3607 96:34.4805 97:35.5046 98:36.0949 99:36.7806 100:37.587 101:37.6756 102:37.0877 103:36.7806 104:36.5854 105:36.0206 106:36.3813 107:36.1237 108:35.5591 109:36.0411 110:36.6255 111:37.4825 112:38.3536 113:38.923 114:39.6106 115:39.7617 116:40.2404 117:41.247 118:41.3879 119:41.3877 120:41.5081 121:41.7525 122:42.812 123:43.3457 124:43.9866 125:46.1821 126:47.5265 127:48.5051 128:49.0663 129:48.213 130:46.5389 131:44.4214 132:42.4648 133:40.2077 134:37.9035 135:36.4653 136:34.5071 137:33.5376 138:31.6987 139:30.014 140:27.818 141:25.4808 142:23.5642 143:21.2279 144:18.7781 145:18.0693 146:18.0139 147:17.6867 148:17.5921 149:19.0129 150:21.2474 151:23.0746 152:24.1334 153:26.1039 154:28.1709 155:30.073 156:32.1773 157:33.6061 158:35.0907 159:37.6467 160:39.6023 161:41.2109 162:42.8524 163:43.9232 164:44.9549 165:45.5023 166:44.7713 167:42.8518 168:40.2721 169:37.8058 170:35.9344 171:34.0777 172:32.238 173:29.5484 174:27.0658 175:25.0459 176:22.81 177:20.7978 178:18.0413 179:15.4447 180:12.7497 181:10.6053 182:12.0868 183:14.5345 184:16.5 185:18.5 186:20.5119 187:23.0425 188:25.5783 189:27.6632 190:29.7101 191:31.753 192:34.3659 193:36.99 194:39.047 195:41.1905 196:43.2465 197:45.9589 198:48.6482 199:51.0552 200:53.0234 
0 0 0 0 0 0 1 0 0 0 1:55.9017 2:55.2131 3:53.9709 4:52.1466 5:49.5601 6:47.056 7:45.125 8:42.6285 9:40.0408 10:38.1218 11:35.4408 12:33.0496 13:31.1493 14:28.4617 15:26.1013 16:24.234 17:22.194 18:19.7005 19:17.0086 20:15.4584 21:15.1408 22:16.6541 23:18.772 24:21.453 25:24.4002 26:26.5399 27:29.7322 28:32.596 29:34.7635 30:36.9392 31:40.0356 32:42.7142 33:44.602 34:47.4008 35:50.105 36:52.901 37:56.1364 38:57.9431 39:58.0947 40:56.1297 41:53.7448 42:51.6188 43:49.2771 44:46.7172 45:44.6375 46:42.5735 47:40.0868 48:37.5021 49:35.1072 50:32.7313 51:30.2727 52:27.9739 53:24.5995 54:22.194 55:21.515 56:22.3808 57:24.6831 58:26.6693 59:28.6575 60:31.3515 61:34.0332 62:36.1837 63:38.9043 64:41.6009 65:43.7794 66:46.8435 67:49.665 68:52.1785 69:54.9197 70:57.3958 71:58.3822 72:56.4351 73:53.7461 74:51.3873 75:49.0782 76:46.3493 77:43.643 78:41.5779 79:39.0084 80:36.5069 81:34.5946 82:32.2619 83:30.014 84:28.9911 85:28.8025 86:28.8523 87:29.7732 88:29.957 89:30.6172 90:31.1288 91:31.8591 92:32.2227 93:33.451 94:34.2192 95:35.4841 96:37.0255 97:38.4559 98:41.0774 99:43.1606 100:44.3452 101:44.1097 102:42.5767 103:40.753 104:38.8932 105:38.1269 106:37.0068 107:37.0338 108:37.2244 109:36.5854 110:36.5084 111:36.0637 112:37.0484 113:38.2813 114:38.7765 115:38.8514 116:39.9427 117:40.3039 118:41.1257 119:41.3687 120:41.821 121:42.8172 122:43.4163 123:43.2315 124:43.6916 125:44.198 126:44.9099 127:46.5832 128:48.4443 129:50.0682 130:50.304 131:49.0977 132:46.5053 133:44.5283 134:42.0354 135:40.0062 136:38.5327 137:37.2265 138:35.1118 139:33.4703 140:31.6396 141:29.8149 142:28.1832 143:25.4975 144:22.5956 145:19.9644 146:18.8276 147:18.2661 148:18.0139 149:18.5664 150:19.7558 151:21.9881 152:23.5896 153:25.5057 154:27.5398 155:29.4182 156:31.6299 157:33.9029 158:35.5317 159:37.2074 160:39.1395 161:41.3687 162:42.8178 163:44.4805 164:45.7055 165:46.1842 166:46.1465 167:44.5033 168:42.0393 169:39.3591 170:36.9126 171:34.9186 172:32.4164 173:30.1052 174:27.8805 175:25.6578 176:23.2128 177:20.1126 178:17.9029 179:15.0009 180:11.9342 181:10.533 182:12.6518 183:15.0422 184:16.9783 185:19.3598 186:21.7084 187:23.6908 188:25.6759 189:28.0714 190:30.5655 191:32.5154 192:35.0143 193:37.5 194:39.5 195:42 196:44.5112 197:46.5107 198:49.0575 199:51.6982 200:53.8952 
0 0 0.07663515914776545 0 0 0 0.214438167540787 0.6355242937191552 0 0 1:57.1402 2:55.5583 3:53.5374 4:51.0194 5:48.5103 6:46.5107 7:44.0037 8:41.5 9:39.5 10:37 11:34.5145 12:32.5154 13:30.0339 14:27.5727 15:25.5783 16:23.0869 17:20.5974 18:18.7418 19:16.8394 20:16.8099 21:19.4378 22:22.0064 23:24.0538 24:26.6865 25:29.2622 26:31.3144 27:33.8389 28:36.3676 29:38.4223 30:40.9045 31:43.4888 32:45.4012 33:47.9881 34:50.4804 35:52.8262 36:55.9755 37:58.6981 38:57.8471 39:55.9474 40:53.2569 41:50.9914 42:48.7473 43:46.9713 44:44.2962 45:42.1107 46:40.3896 47:37.7384 48:35.6417 49:33.7122 50:31.4045 51:28.8158 52:26.9537 53:24.5331 54:22.2796 55:21.3306 56:22.3103 57:24.6234 58:26.6185 59:29.1561 60:32.178 61:35.2284 62:38.3068 63:40.3039 64:42.8984 65:45.7755 66:48.2131 67:51.7398 68:54.9396 69:55.762 70:54.4698 71:52.7202 72:50.7585 73:48.2702 74:45.535 75:43.6628 76:41.005 77:38.2434 78:36.5044 79:33.5584 80:30.9936 81:29.1935 82:28.3636 83:28.1158 84:27.6788 85:27.1201 86:28.3636 87:28.8726 88:29.5715 89:29.3507 90:30.4224 91:31.2246 92:31.9126 93:32.9179 94:33.9558 95:35.0195 96:36.4579 97:37.6077 98:38.4314 99:39.9853 100:42.9803 101:44.7348 102:45.9666 103:47.1265 104:47.8081 105:45.7235 106:44.4214 107:41.9766 108:39.429 109:38.5551 110:38.2186 111:37.0338 112:36.0069 113:36.7975 114:38.3992 115:39.7176 116:39.9489 117:40.0059 118:40.6752 119:41.636 120:41.8264 121:42.1958 122:43.5479 123:44.3056 124:44.7026 125:45.2659 126:45.31 127:45.0917 128:45.354 129:45.967 130:46.9702 131:48.5894 132:48.7536 133:47.437 134:44.3014 135:41.8405 136:39.4741 137:37.6418 138:37.429 139:37.4293 140:36.7875 141:34.6728 142:32.6088 143:31.6283 144:29.5104 145:26.2012 146:24.1351 147:21.9386 148:19.9858 149:19.4665 150:19.3113 151:19.3259 152:19.0656 153:20.3733 154:22.7744 155:24.1379 156:26.5747 157:28.5058 158:30.2086 159:32.9507 160:35.1644 161:37.4569 162:39.5287 163:41.1024 164:43.4213 165:45.0155 166:45.9891 167:46.0253 168:45.9174 169:44.7036 170:41.8111 171:39.0043 172:36.8014 173:34.4119 174:31.6283 175:29.4509 176:26.687 177:23.7142 178:21.225 179:18.1534 180:14.8492 181:13.8258 182:15.6944 183:17.6788 184:20.1279 185:22.81 186:24.623 187:26.9275 188:29.619 189:31.4846 190:33.8389 191:36.2115 192:38.1218 193:40.5222 194:43.2003 195:45.125 196:47.5399 197:49.9626 198:51.7963 199:53.9436 200:56.0073 
1 0.8461093755671829 1 1 1 1 1 1 1 1 1:49.2443 2:47.953 3:46.198 4:43.985 5:41.7456 6:39.6138 7:37.5331 8:35.0095 9:32.6004 10:30.7612 11:29.0318 12:27.2922 13:25.6299 14:23.6562 15:22.1576 16:22.3275 17:24.2759 18:25.7481 19:27.2818 20:29.1564 21:31.3195 22:32.9073 23:34.5669 24:36.2884 25:38.1479 26:40.4477 27:43.0727 28:44.8162 29:46.2113 30:46.2264 31:44.9099 32:43.3695 33:41.5008 34:39.8033 35:38.5138 36:37.0537 37:35.9303 38:34.6026 39:33.306 40:31.8277 41:31.1929 42:30.3052 43:29.957 44:30.2152 45:30.7833 46:31.4718 47:31.8981 48:32.473 49:33.6868 50:34.5365 51:35.6898 52:37.1685 53:38.3992 54:39.2257 55:40.628 56:41.6231 57:43.168 58:44.0179 59:44.9829 60:45.8416 61:46.3353 62:46.059 63:45.9237 64:45.0389 65:43.8976 66:43.1393 67:42.8531 68:42.7199 69:42.7249 70:41.9161 71:41.3879 72:41.3877 73:41.5081 74:41.2732 75:40.663 76:41.0077 77:40.0334 78:39.2619 79:39.0832 80:39.0064 81:39.032 82:39.1599 83:40.1249 84:40.8961 85:41.358 86:40.957 87:41.1451 88:41.4302 89:41.5996 90:42.3671 91:42.9933 92:44.938 93:46.1022 94:47.3223 95:48.9222 96:50.5904 97:51.9748 98:53.0566 99:53.8609 100:52.9471 101:51.1367 102:47.9011 103:45.402 104:43.2012 105:41.3099 106:39.1217 107:37.2606 108:35.3879 109:34.313 110:32.9757 111:31.7081 112:30.5191 113:30.2727 114:29.681 115:27.5785 116:25.5399 117:23.7127 118:21.9158 119:20.4199 120:18.8189 121:18.4119 122:19.3129 123:19.0517 124:19.9731 125:21.2338 126:23.2129 127:25.5495 128:27.5089 129:29.6093 130:31.6969 131:33.951 132:36.1837 133:39.056 134:41.9675 135:44.3014 136:46.8039 137:48.872 138:50.512 139:52.3981 140:52.9995 141:51.9164 142:50.6786 143:48.4491 144:45.9623 145:43.0474 146:39.63 147:37.397 148:34.6777 149:32.4429 150:30.2083 151:27.1383 152:24.3832 153:21.9158 154:19.4565 155:17.2207 156:14.7747 157:13.2274 158:14.7407 159:17.7342 160:19.8116 161:22.6385 162:24.7487 163:27.5772 164:30.4138 165:33.6061 166:36.0902 167:38.5793 168:41.067 169:43.5587 170:46.5352 171:49.2986 172:51.4719 173:53.6503 174:54.6017 175:55.3442 176:55.2312 177:53.5213 178:50.799 179:48.0889 180:45.8535 181:43.1572 182:40.9212 183:37.5786 184:34.272 185:31.6636 186:29.0963 187:26.8812 188:24.3849 189:25.5646 190:28.3772 191:30.7021 192:32.9031 193:35.4203 194:37.8058 195:40.856 196:43.733 197:45.9627 198:47.8218 199:49.3448 200:50.1446 
0 0.1521311162638582 0 0 0.01430166394270835 0 1 0 0.5621593882154708 0.8408164829898291 1:51.2445 2:50.4232 3:49.2426 4:47.3631 5:45.4011 6:43.4426 7:41.4881 8:39.5381 9:37.5934 10:35.6548 11:33.7234 12:31.8005 13:29.8877 14:28.1586 15:26.4629 16:24.623 17:22.81 18:21.0311 19:19.2955 20:17.6162 21:17 22:19.0919 23:21.225 24:23.0512 25:25.226 26:26.8018 27:29.0058 28:30.3806 29:31.8169 30:33.5605 31:35.3313 32:37.3437 33:40.0318 34:41.4299 35:42.455 36:42.32 37:41.0042 38:39.4379 39:37.9125 40:36.0902 41:34.2983 42:32.1773 43:30.8122 44:29.5195 45:28.3093 46:27.1924 47:25.7398 48:24.3814 49:23.121 50:21.9881 51:22.4609 52:23.639 53:25.5783 54:27.7252 55:29.0286 56:31.2932 57:33.1132 58:34.6335 59:36.228 60:38.3481 61:40.9703 62:43.0034 63:44.3048 64:44.1189 65:43.5486 66:42.089 67:40.2077 68:37.9035 69:36.1732 70:34.5359 71:33.0076 72:31.6036 73:30.3397 74:29.7235 75:30.2238 76:30.3795 77:30.6669 78:31.5349 79:32.5029 80:32.7326 81:33.5111 82:34.3859 83:35.3695 84:36.4331 85:36.9458 86:37.3227 87:37.4758 88:37.3557 89:36.4617 90:35.6576 91:35.8953 92:35.3055 93:34.8208 94:34.4455 95:34.1833 96:33.0378 97:32.5078 98:32.1014 99:33.3091 100:33.6376 101:33.8957 102:34.0069 103:33.3607 104:32.8853 105:33.0217 106:33.3079 107:33.7402 108:34.6843 109:34.6843 110:34.9141 111:35.3692 112:35.1705 113:36.0131 114:37.2329 115:38.9219 116:40.4833 117:42.1056 118:43.5529 119:45.3083 120:46.9555 121:48.213 122:48.0677 123:47.5052 124:45.5276 125:43.6033 126:41.6083 127:39.5818 128:37.5533 129:35.5141 130:33.5074 131:31.54 132:29.7121 133:28.0508 134:26.5873 135:25.3559 136:23.9363 137:22.39 138:20.3579 139:18.1263 140:16.4497 141:15.4106 142:14.0889 143:15.0166 144:15.2149 145:16.1436 146:17.2761 147:18.1231 148:19.1422 149:21.1048 150:22.7267 151:24.421 152:26.163 153:27.9529 154:29.7742 155:31.9453 156:33.8134 157:36.0048 158:37.9013 159:39.8162 160:41.7435 161:43.6844 162:45.3687 163:46.8291 164:47.6335 165:47.2171 166:45.9627 167:43.5463 168:41.3193 169:39.2757 170:37.2329 171:35.0041 172:32.9632 173:30.734 174:28.5058 175:26.4629 176:24.234 177:22.0064 178:19.7808 179:17.7364 180:15.5108 181:12.9854 182:13.5943 183:15.5323 184:17.5286 185:19.5256 186:21.5233 187:23.5213 188:25.5196 189:27.5182 190:29.5169 191:31.5159 192:33.5149 193:35.5141 194:37.5133 195:39.5127 196:41.512 197:43.5115 198:45.5056 199:47.5 200:49.5251 
0 0 0 0 0 0 0.715720315083832 0 0 0 1:57.8705 2:56.682 3:54.8294 4:52.3931 5:49.9626 6:47.4574 7:44.8694 8:42.4505 9:39.9077 10:37.3637 11:34.961 12:33.0496 13:30.6769 14:28.3246 15:25.8747 16:23.3085 17:21.0267 18:18.7965 19:16.6492 20:15.9497 21:18.6601 22:21.0082 23:22.9022 24:25.4263 25:27.8805 26:30.7055 27:33.1861 28:35.8492 29:38.5138 30:40.8635 31:43.3855 32:45.3933 33:47.8553 34:50.7597 35:53.5326 36:54.4558 37:53.9052 38:52.0224 39:49.4088 40:47.4062 41:45.0317 42:42.5735 43:40.7352 44:38.4388 45:36.0624 46:33.9759 47:31.5657 48:29.7371 49:27.7385 50:25.5635 51:23.483 52:22.194 53:21.2191 54:22.853 55:25.3751 56:27.288 57:29.7357 58:32.132 59:34.931 60:37.7949 61:39.591 62:41.9688 63:44.6814 64:47.708 65:50.8952 66:52.8307 67:52.597 68:51.1347 69:49.4516 70:47.235 71:45.2392 72:43.168 73:41.1693 74:39.429 75:36.8328 76:34.68 77:33.0246 78:31.54 79:30.608 80:30.2135 81:30.0599 82:30.2732 83:30.1902 84:30.5366 85:31.9126 86:32.6556 87:33.5913 88:34.5039 89:36.0048 90:37.2663 91:39.0169 92:40.0369 93:41.2449 94:41.7481 95:41.4924 96:41.3842 97:40.1249 98:39.1599 99:39.0214 100:38.5327 101:38.2186 102:39.541 103:39.9185 104:40.5292 105:40.8033 106:41.5485 107:42.2664 108:43.135 109:42.5791 110:43.0767 111:43.605 112:43.852 113:43.9469 114:43.5085 115:43.554 116:44.1017 117:45.7714 118:47.4688 119:49.2809 120:51.2338 121:52.8289 122:54.58 123:55.9955 124:55.254 125:53.7838 126:51.1567 127:48.6647 128:46.1736 129:43.7356 130:41.3493 131:39.0491 132:37.2673 133:35.4546 134:33.8957 135:32.2209 136:31.2246 137:28.8453 138:25.8153 139:23.418 140:21.7362 141:19.6183 142:18.3437 143:18.0693 144:19.0438 145:19.3259 146:19.9401 147:20.8197 148:22.8366 149:24.1334 150:25.877 151:27.9891 152:29.7069 153:31.8327 154:34.0074 155:36.239 156:38.2013 157:40.4166 158:42.8524 159:44.9465 160:47.0778 161:49.0889 162:50.9833 163:52.3478 164:53.2411 165:52.5033 166:50.4927 167:47.7557 168:45.2224 169:42.6919 170:40.163 171:37.8058 172:35.9344 173:33.2428 174:30.9239 175:28.233 176:25.7403 177:23.1191 178:20.5742 179:18.0413 180:15.4447 181:12.7162 182:13.8297 183:15.7108 184:18.111 185:20.5974 186:23.0869 187:25.5783 188:28.0714 189:30.5655 190:33.0152 191:35.5141 192:37.5 193:40 194:42.5118 195:45.0111 196:47.5105 197:50.04 198:52.5616 199:55.1504 200:57.3716 
0 0 0 0 0 0 1 0.3786221919360734 0.2665887940451589 0.2010897237827061 1:66.0681 2:65.1575 3:63.2566 4:60.3358 5:57.4725 6:55.0841 7:52.7205 8:49.948 9:47.1505 10:44.3851 11:42.2406 12:39.8505 13:37.3374 14:34.93 15:32.2044 16:30.4518 17:28.3053 18:26.4054 19:24.7857 20:25.6176 21:28.5045 22:30.9881 23:33.7279 24:36.0738 25:38.5793 26:40.4633 27:42.8047 28:45.2241 29:47.7095 30:49.8229 31:52.4803 32:55.2373 33:58.3137 34:58.0671 35:56.208 36:54.6183 37:52.5003 38:50.2524 39:48.0867 40:46.3507 41:44.1844 42:42.0168 43:40.2299 44:38.4256 45:36.722 46:35.3489 47:33.2503 48:32.2895 49:31.6779 50:31.5967 51:31.0269 52:31.407 53:32.3983 54:32.8708 55:33.5352 56:34.5481 57:35.7845 58:38.0854 59:39.3881 60:40.8098 61:42.6427 62:44.3611 63:45.6111 64:47.4268 65:49.6818 66:51.812 67:52.4273 68:52.2249 69:51.8962 70:52.3981 71:50.3311 72:47.7549 73:46.7063 74:46.1046 75:44.8887 76:44.8535 77:44.6852 78:44.0284 79:43.8578 80:43.2459 81:42.8592 82:42.3898 83:42.1063 84:41.7567 85:42.55 86:42.9994 87:43.5085 88:43.6911 89:43.8786 90:44.2189 91:44.9585 92:46.3353 93:47.7145 94:49.7809 95:51.6551 96:53.8609 97:55.8056 98:56.8915 99:56.1102 100:53.3386 101:50.3588 102:47.946 103:45.5974 104:42.8892 105:40.4376 106:38.5863 107:36.785 108:34.9029 109:33.3058 110:31.6147 111:30.1058 112:27.3594 113:23.8379 114:20.8794 115:18.8807 116:17.6764 117:16.7812 118:17.1364 119:17.0489 120:17.4823 121:18.6705 122:20.7308 123:23.6158 124:26.9072 125:29.3004 126:32.2793 127:35.2173 128:38.4566 129:41.9671 130:44.9041 131:47.6153 132:50.7038 133:54.0389 134:56.9461 135:59.282 136:61.6375 137:64.0064 138:64.6409 139:62.1293 140:59.2159 141:56.3032 142:52.6978 143:49.0923 144:46.1792 145:42.901 146:39.2958 147:35.6907 148:32.0857 149:29.263 150:26.2582 151:22.4736 152:21.0519 153:23.899 154:26.6565 155:29.283 156:32.5653 157:35.5926 158:38.6276 159:41.3193 160:44.0124 161:47.1708 162:50.3298 163:52.6714 164:55.2495 165:58.19 166:61.0333 167:63.891 168:66.1429 169:67.1909 170:64.6855 171:61.4644 172:58.3199 173:55.7014 174:53.0178 175:49.7618 176:46.6359 177:43.4654 178:40.874 179:38.2169 180:35.0802 181:32.0308 182:29.5169 183:27 184:24.0208 185:22.2183 186:24.5159 187:26.8855 188:29.2748 189:32.2492 190:35.228 191:38.1183 192:40.611 193:43.0465 194:46.0435 195:49.0408 196:52.0096 197:54.5092 198:57.0088 199:60.0028 200:63 
0 0 0 0 0 0 1 0 0 0 1:56.0803 2:55.2896 3:53.6777 4:51.8777 5:49.6417 6:47.1079 7:44.2753 8:42.0393 9:40.0318 10:37.7961 11:35.1969 12:32.685 13:30.4518 14:28.4698 15:26.0805 16:23.4377 17:21.5061 18:19.6047 19:17.4169 20:15.8186 21:17.1029 22:19.9125 23:21.9659 24:24.052 25:27.1089 26:30.0561 27:32.5346 28:35.0195 29:37.9851 30:40.7352 31:42.8994 32:45.0705 33:47.5658 34:50.0791 35:51.643 36:51.2775 37:49.9138 38:48.5942 39:45.9704 40:43.503 41:41.1024 42:38.7106 43:36.3365 44:33.8738 45:31.568 46:29.7413 47:27.9743 48:25.952 49:23.4226 50:21.9693 51:20.6565 52:20.5125 53:23.0642 54:25.5196 55:27.5089 56:29.6093 57:32.2942 58:34.9381 59:37.0765 60:39.429 61:41.8405 62:44.9255 63:47.7557 64:49.8124 65:51.3116 66:51.3078 67:49.4973 68:46.954 69:44.7292 70:42.5761 71:40.0204 72:37.5336 73:35.6763 74:33.8056 75:32.1691 76:30.3816 77:28.8952 78:28.861 79:28.9996 80:28.9034 81:29.7383 82:30.7793 83:31.3208 84:32.3262 85:33.4574 86:34.6834 87:36.1237 88:37.4737 89:38.9471 90:40.1483 91:40.3794 92:40.1559 93:40.0312 94:40.0062 95:38.4598 96:37.4098 97:36.7762 98:36.2696 99:37.6368 100:38.8132 101:39.6037 102:40.0369 103:40.1369 104:40.7834 105:41.3158 106:41.0731 107:41.0244 108:41.2471 109:41.749 110:41.5087 111:41.3879 112:40.9323 113:39.9321 114:39.5335 115:40.3916 116:41.3866 117:42.6672 118:43.9604 119:45.5717 120:46.5054 121:47.0266 122:47.8418 123:46.9555 124:45.3083 125:43.4426 126:41.3842 127:38.6449 128:35.7867 129:34.1833 130:32.5381 131:31.5081 132:30.8249 133:30.014 134:29.4767 135:27.9871 136:25.6365 137:23.9057 138:21.9693 139:20.6565 140:19.5125 141:18.7932 142:18.5603 143:19.1434 144:19.9112 145:19.9858 146:21.4108 147:22.6495 148:23.7142 149:25.226 150:27.2072 151:29.263 152:30.7078 153:32.2072 154:33.9897 155:36.2507 156:38.1613 157:40.0285 158:41.908 159:43.6451 160:45.7006 161:47.7835 162:49.4251 163:50.5618 164:50.2559 165:48.5927 166:46.5695 167:44.5733 168:42.6058 169:40.1124 170:37.7128 171:35.7247 172:33.8712 173:31.8945 174:29.4282 175:26.9677 176:25.0052 177:23.0491 178:20.6165 179:18.2008 180:16.2872 181:13.9509 182:13.0957 183:15 184:17.5286 185:19.563 186:21.5929 187:23.6908 188:26.26 189:28.8561 190:30.9072 191:33.0493 192:35.7615 193:38.4531 194:40.628 195:42.688 196:44.8694 197:47.6256 198:50.345 199:52.8262 200:54.8678 
0.7173717807509103 1 0 0.5201259328783512 0 0.6216663269146154 1 1 0.3904151304919383 0 1:51.6236 2:50.8969 3:49.7319 4:47.7835 5:45.8396 6:43.9006 7:41.7165 8:39.7777 9:37.8453 10:35.9203 11:34.004 12:31.947 13:29.8877 14:27.9871 15:26.1013 16:24.234 17:21.9343 18:19.68 19:17.4443 20:15.968 21:15.9497 22:18.0654 23:19.9125 24:22.1022 25:24.007 26:26.217 27:28.1517 28:30.1052 29:32.3314 30:34.0487 31:35.7953 32:38.0149 33:40.6977 34:43.1572 35:44.5358 36:45.535 37:45.0702 38:43.4204 39:41.8012 40:39.9062 41:38.0309 42:36.1732 43:34.3418 44:32.8842 45:30.7633 46:29.4005 47:27.7219 48:25.8155 49:23.5888 50:22.1482 51:20.8197 52:20.0867 53:19.5317 54:20.6594 55:22.6428 56:24.4232 57:26.3179 58:28.7856 59:30.8459 60:32.5033 61:34.2265 62:36.0062 63:38.95 64:42.1107 65:43.1619 66:42.7488 67:41.5039 68:40.3295 69:38.2702 70:36.2696 71:34.8208 72:33.4588 73:31.6969 74:30.0416 75:28.5089 76:27.6187 77:26.3911 78:26.6193 79:26.7482 80:26.6168 81:27.1103 82:27.7385 83:28.9034 84:29.7825 85:30.7633 86:31.5176 87:32.409 88:33.4265 89:34.307 90:35.5662 91:36.048 92:36.7003 93:36.5442 94:35.9115 95:34.4455 96:34.1833 97:34.0367 98:35.0071 99:34.5946 100:34.3001 101:33.6376 102:34.0806 103:34.1599 104:34.3579 105:34.6834 106:34.6837 107:34.8278 108:34.7047 109:34.7322 110:35.3695 111:36.1801 112:36.1028 113:35.783 114:35.6011 115:35.5591 116:35.6576 117:36.3717 118:37.9853 119:39.6594 120:41.1927 121:42.8581 122:43.6439 123:45.0278 124:46.0054 125:44.1107 126:41.8002 127:39.7579 128:37.6657 129:35.5909 130:33.537 131:31.5081 132:30.1081 133:28.8587 134:28.2641 135:26.8868 136:25.7475 137:24.1516 138:22.1462 139:19.9644 140:18.0527 141:16.2017 142:16.0156 143:16.0779 144:16.3856 145:16.9255 146:17.6764 147:18.6128 148:19.7082 149:20.9379 150:23.0084 151:24.4002 152:25.872 153:27.4107 154:29.0058 155:31.6262 156:33.7094 157:35.4163 158:37.397 159:39.3867 160:41.1498 161:42.9337 162:44.7358 163:46.3566 164:47.4649 165:47.2808 166:46.2236 167:44.0298 168:41.9675 169:40.0408 170:38.1218 171:35.4408 172:33.0496 173:31.1493 174:28.9357 175:27.0421 176:24.8249 177:22.9408 178:20.8946 179:18.849 180:16.8099 181:14.58 182:12.5092 183:13.6475 184:15.5323 185:17.5286 186:20.025 187:22.5114 188:24.5 189:26.5 190:28.5 191:30.5164 192:32.5154 193:34.5145 194:36.534 195:38.5519 196:40.5494 197:42.547 198:44.601 199:46.5967 200:48.7104 
0 0.1298124666145759 0.752820600772572 0.8941501647091876 0 0 1 0.2029554309595523 0 0 1:50.2892 2:49.176 3:47.2893 4:45.2392 5:43.1889 6:41.141 7:39.0932 8:37.0484 9:35.0041 10:33.1555 11:30.9239 12:29.0911 13:26.8569 14:25.0459 15:23.266 16:21.0311 17:19.2955 18:17.0681 19:15.4057 20:15.2112 21:16.9853 22:19.0919 23:21.5725 24:23.7142 25:25.872 26:28.042 27:30.2217 28:32.1015 29:34.0049 30:36.2123 31:38.4231 32:40.079 33:42.5737 34:44.938 35:46.1022 36:45.8405 37:44.3098 38:42.8178 39:40.6739 40:38.8909 41:36.7764 42:34.6771 43:32.596 44:30.9257 45:28.9034 46:27.3225 47:25.8153 48:24.3832 49:22.5956 50:20.432 51:19.3032 52:18.3437 53:19.565 54:21.5233 55:23.6368 56:25.8972 57:28.2602 58:30.7021 59:32.9031 60:34.476 61:36.1189 62:38.7371 63:41.1739 64:43.4084 65:44.198 66:43.4911 67:41.9104 68:39.9448 69:37.2646 70:34.9381 71:33.1888 72:31.5393 73:29.5086 74:28.6146 75:26.8855 76:25.8357 77:25.4651 78:25.2875 79:25.3069 80:25.5229 81:25.9307 82:27.2467 83:27.9529 84:28.8158 85:29.8217 86:31.2246 87:32.4493 88:33.5603 89:34.827 90:36.3717 91:37.721 92:37.7557 93:37.4098 94:37.1685 95:37.0338 96:36.5069 97:35.5919 98:34.7968 99:34.1298 100:32.6324 101:32.7334 102:33.4285 103:34.2265 104:35.1204 105:35.2481 106:35.5164 107:35.5386 108:35.3695 109:35.426 110:35.707 111:36.2074 112:36.0411 113:35.5591 114:35.6576 115:34.9496 116:34.8264 117:35.3108 118:35.9281 119:36.6715 120:37.5336 121:38.5064 122:39.5818 123:40.7516 124:41.515 125:41.3866 126:39.9109 127:37.8453 128:35.7858 129:33.3563 130:30.9946 131:29.2147 132:29.0431 133:28.0089 134:27.1201 135:25.837 136:24.6758 137:22.9408 138:21.0351 139:19.043 140:17.6828 141:16.5147 142:16.0779 143:16.3856 144:16.4593 145:16.7765 146:17.7603 147:18.1218 148:19.452 149:20.8893 150:22.4131 151:24.007 152:25.6578 153:27.3554 154:29.0914 155:30.8594 156:32.6542 157:34.4716 158:36.3082 159:37.8058 160:39.6898 161:41.5845 162:43.3461 163:44.9986 164:45.9944 165:45.6234 166:43.9119 167:41.9316 168:39.9532 169:37.9771 170:36.0036 171:34.0332 172:32.0665 173:30.1042 174:28.1471 175:26.1966 176:24.2542 177:22.1953 178:20.1312 179:18.2008 180:16.2872 181:13.9509 182:13.0957 183:14.5 184:16.5147 185:18.527 186:20.56 187:22.5888 188:24.6313 189:26.6693 190:28.7174 191:30.7612 192:32.8825 193:34.9381 194:36.99 195:39.1313 196:41.1006 197:43.2465 198:45.3063 199:47.4621 200:49.3608 
0 0.2673441555502477 0 0 0 0 1 0 0 0 1:53.1601 2:52.0219 3:50.1226 4:48.2315 5:46.18 6:44.128 7:41.908 8:39.3299 9:36.8684 10:34.6451 11:32.5973 12:30.5497 13:28.5058 14:26.0019 15:23.7127 16:21.4778 17:19.68 18:17.4443 19:15.6944 20:14.0118 21:14.384 22:17.3312 23:19.4772 24:21.3191 25:23.5055 26:25.7004 27:28.8012 28:31.5042 29:33.7122 30:35.9237 31:38.1381 32:40.3549 33:42.3004 34:45.4869 35:48.543 36:49.7032 37:49.4302 38:48.5423 39:46.3828 40:44.0932 41:41.3687 42:39.2476 43:37.14 44:35.0484 45:32.9757 46:30.9257 47:28.8729 48:26.3519 49:24.8703 50:23.0336 51:21.2736 52:19.6111 53:18.4563 54:19.565 55:21.5233 56:23.5525 57:25.7426 58:28.0474 59:30.4406 60:33.2463 61:36.3676 62:38.9177 63:41.5039 64:44.1199 65:46.5542 66:49.1153 67:50.1545 68:48.5435 69:46.9838 70:44.9958 71:43.0638 72:40.6133 73:37.7716 74:35.5909 75:33.5074 76:31.54 77:29.7121 78:28.0508 79:26.8998 80:26.6633 81:26.6263 82:26.7764 83:26.7096 84:27.6224 85:28.7844 86:29.9164 87:30.9351 88:32.0776 89:33.331 90:34.4716 91:35.7619 92:37.6569 93:38.4559 94:38.5551 95:39.2619 96:39.0832 97:38.0066 98:36.7308 99:36.2836 100:34.9403 101:34.3345 102:33.8617 103:35.8953 104:37.5162 105:39.7047 106:41.3697 107:41.4299 108:41.1944 109:40.7061 110:40.7847 111:41.7294 112:42.4853 113:42.325 114:41.9096 115:40.7728 116:40.564 117:39.591 118:40.0161 119:40.8033 120:41.6231 121:42.5777 122:43.6519 123:44.8421 124:45.1072 125:44.0057 126:42.5118 127:40.5494 128:38.5519 129:36.5068 130:34.5074 131:32.1526 132:30.9974 133:30.9271 134:30.5201 135:29.8149 136:28.6234 137:26.244 138:23.9679 139:22.3041 140:20.7481 141:19.8157 142:19.0656 143:19.0438 144:19.3259 145:19.7859 146:19.5055 147:20.3579 148:21.3642 149:22.5036 150:24.0909 151:25.8142 152:27.2829 153:28.8158 154:30.4029 155:32.0364 156:34.1348 157:36.0411 158:37.5673 159:39.3611 160:40.9748 161:42.6179 162:44.128 163:45.8915 164:46.2113 165:45.3063 166:43.0727 167:41.1006 168:39.1313 169:36.6746 170:34.4422 171:32.5002 172:30.5658 173:28.6403 174:26.7259 175:24.8249 176:22.4741 177:20.1566 178:18.1263 179:16.1027 180:14.0906 181:11.8939 182:13.2844 183:15.6286 184:17.614 185:19.5256 186:21.5233 187:23.5109 188:25.5 189:28.0057 190:30.5164 191:32.5615 192:34.5936 193:36.6702 194:38.7073 195:41.3039 196:43.9119 197:45.9639 198:48.0903 199:50.4049 200:52.2828 
0 0 0 0 0.3991000393800127 0 0 0 0 0.004672540997905967 1:50 2:48.5052 3:46.5107 4:44.5283 5:42.547 6:40.5494 7:38.5519 8:36.5548 9:34.6302 10:32.6382 11:30.7612 12:28.7794 13:26.8003 14:25.0052 15:23.0491 16:21.1013 17:19.1642 18:17.5579 19:15.904 20:16.8087 21:19.5573 22:21.9158 23:23.7127 24:25.5399 25:27.5785 26:29.619 27:31.3195 28:33.0496 29:34.961 30:36.6233 31:38.5651 32:40.7463 33:42.585 34:44.1189 35:44.3048 36:43.0034 37:41.3877 38:39.8033 39:37.5673 40:35.7953 41:33.618 42:31.7644 43:30.4029 44:28.8158 45:27.2829 46:25.8142 47:24.421 48:23.1171 49:21.9185 50:20.8431 51:19.9112 52:20.5645 53:22.4636 54:24.5249 55:26.2004 56:28.3999 57:30.2083 58:32.0707 59:33.5622 60:35.1072 61:37.2776 62:39.7556 63:41.9345 64:43.5085 65:43.5479 66:42.455 67:40.9943 68:39.591 69:37.7949 70:36.048 71:34.8222 72:33.682 73:32.1478 74:30.7 75:29.3512 76:28.1158 77:27.5089 78:27.0462 79:28.2223 80:27.5588 81:28.1711 82:28.044 83:29.3011 84:30.6504 85:30.7966 86:31.9126 87:32.3326 88:33.6361 89:34.2983 90:34.7706 91:35.1139 92:35.6787 93:36.4548 94:36.5093 95:36.228 96:35.5876 97:35.0498 98:35.6019 99:35.2916 100:35.0927 101:34.343 102:34.5936 103:35.2916 104:35.1118 105:35.0498 106:34.6335 107:34.827 108:33.7779 109:33.8077 110:34.401 111:35.5164 112:35.9222 113:36.4608 114:36.7831 115:36.1801 116:36.5101 117:37.0537 118:37.8015 119:39.1528 120:40.5823 121:42.392 122:44.0327 123:45.5066 124:46.61 125:45.8333 126:44.6398 127:42.5761 128:40.5494 129:38.5847 130:36.6231 131:34.7312 132:32.8825 133:31.1906 134:29.7471 135:28.5118 136:27.5128 137:26.5013 138:25.4035 139:22.9022 140:20.5286 141:18.3714 142:16.3542 143:15.6678 144:16.2017 145:16.5156 146:17.0733 147:17.3635 148:18.3469 149:19.5055 150:20.7978 151:22.6392 152:24.1334 153:26.1039 154:27.7219 155:29.7742 156:31.8512 157:33.5913 158:35.7124 159:37.8466 160:39.6548 161:42.0855 162:44.4336 163:45.7055 164:46.7438 165:46.059 166:45.0271 167:42.9803 168:40.7469 169:38.5138 170:36.281 171:34.3006 172:32.0707 173:29.8417 174:27.3554 175:25.126 176:22.898 177:20.6717 178:18.4479 179:16.2274 180:13.7303 181:13.1528 182:15.1951 183:17.2416 184:19.1642 185:21.1013 186:23.0491 187:25.0052 188:26.9677 189:29.1249 190:31.0847 191:33.0493 192:35.018 193:36.99 194:38.9648 195:41.1006 196:43.0727 197:45.0473 198:47.024 199:48.814 200:50.1248 
1 1 0.8396420987450383 1 1 0.6178004232238637 1 0.7996211953277024 1 1 1:49.7695 2:49.2443 3:48.3042 4:46.5113 5:44.2753 6:42.0393 7:39.5797 8:38.0132 9:36.2257 10:33.9897 11:31.9773 12:29.7413 13:27.7363 14:26.4197 15:24.6234 16:22.898 17:20.6717 18:18.7221 19:16.8029 20:16.2788 21:17.0294 22:18.5069 23:21.3191 24:23.757 25:26.2012 26:29.0259 27:30.4795 28:32.596 29:35.4189 30:38.2427 31:41.067 32:42.8994 33:44.1247 34:43.6005 35:42.7249 36:41.1889 37:38.4256 38:35.9349 39:33.4444 40:31.3847 41:30.2083 42:27.5054 43:26.2004 44:24.0538 45:21.9881 46:20.5058 47:20.2237 48:21.5589 49:23.5 50:25.5196 51:27.6171 52:29.7101 53:31.257 54:32.7453 55:34.7949 56:36.9144 57:39.1313 58:41.1905 59:43.2465 60:44.7214 61:44.9758 62:44.2323 63:42.6058 64:40.5494 65:38.513 66:37.0135 67:35.5141 68:33.5 69:31.54 70:29.7121 71:27.951 72:26.6833 73:26.5873 74:26.2853 75:25.7187 76:25.8153 77:26.1039 78:26.9629 79:26.8701 80:27.2829 81:28.2018 82:28.9996 83:29.9717 84:31.1277 85:31.9531 86:32.4265 87:33.3596 88:33.4588 89:33.1888 90:32.039 91:31.5081 92:31.0644 93:30.7052 94:29.521 95:29.958 96:30.9936 97:32.132 98:32.6956 99:33.3235 100:33.8077 101:33.985 102:34.3073 103:34.7706 104:35.3695 105:36.0694 106:36.1801 107:37.1078 108:36.7557 109:36.1031 110:36.0062 111:35.3412 112:35.1984 113:36.3717 114:37.9853 115:38.9421 116:40.0354 117:41.7469 118:42.107 119:43.0291 120:43.0058 121:41.5786 122:39.702 123:37.7128 124:36.2215 125:34.6302 126:32.5615 127:30.5081 128:29.0431 129:28.2223 130:28.0508 131:26.9258 132:25.9404 133:24.234 134:21.8309 135:20.2637 136:18.8324 137:18.1108 138:17.0147 139:16.0779 140:16.3856 141:16.9255 142:17.6764 143:17.4929 144:18.3144 145:19.5294 146:20.8657 147:22.3016 148:23.8191 149:25.4035 150:26.6271 151:27.8805 152:29.5857 153:30.8594 154:32.6542 155:34.4716 156:35.8469 157:36.8684 158:38.7463 159:40.6359 160:42.2406 161:43.782 162:45.3083 163:45.5412 164:44.8407 165:42.6878 166:40.6971 167:38.7073 168:36.7186 169:35.2278 170:33.8712 171:31.8945 172:29.9208 173:28.0508 174:26.1966 175:24.0263 176:22.561 177:21.1013 178:19.1642 179:17.2416 180:15.0422 181:13.2473 182:13.0384 183:14.5 184:16.5303 185:18.5664 186:20.5974 187:22.6992 188:24.6831 189:26.3059 190:27.8688 191:29.9208 192:32.0665 193:34.3314 194:36.5053 195:38.0789 196:39.7777 197:41.8405 198:44.3014 199:46.8039 200:48.872 
0 0 0 0 0 0 1 0.3479540646651618 0 0 1:74.2159 2:72.7132 3:69.9218 4:67.0527 5:63.891 6:60.8291 7:57.6673 8:54.5055 9:51.5467 10:48.3845 11:45.4332 12:42.3801 13:39.5611 14:36.4017 15:33.4888 16:30.4648 17:27.315 18:24.1685 19:21.0267 20:18.3619 21:16.6913 22:17.9224 23:21.2604 24:25.4952 25:29.2445 26:33.2415 27:36.7696 28:40.3113 29:44.0932 30:47.877 31:51.438 32:54.7832 33:58.1378 34:61.5022 35:65.2994 36:69.527 37:72.2521 38:72.8446 39:71.4518 40:68.9293 41:65.6957 42:62.7397 43:59.5563 44:56.4006 45:53.0098 46:49.9266 47:46.6085 48:43.6239 49:40.4154 50:37.5786 51:34.5428 52:30.6799 53:27.5787 54:24.671 55:23.3695 56:25.0592 57:28.1604 58:31.1449 59:34.0445 60:37.0091 61:40.0082 62:43.0346 63:46.1225 64:49.2234 65:52.3857 66:55.6289 67:58.9143 68:62.1066 69:65.3749 70:68.4473 71:71.2033 72:71.7053 73:70.0217 74:67.1237 75:64.0361 76:61.0028 77:58.026 78:55.1033 79:52.2474 80:49.4546 81:46.7525 82:44.0775 83:41.5798 84:39.1141 85:37.1774 86:36.1472 87:36.3586 88:37.1428 89:38.1881 90:39.4907 91:41.0099 92:42.5491 93:44.1441 94:45.7072 95:47.4454 96:49.7394 97:51.6516 98:52.1459 99:52.16 100:51.3494 101:50.713 102:49.925 103:49.3276 104:49.2507 105:49.047 106:49.0468 107:48.9485 108:49.3622 109:49.4091 110:49.1455 111:49.4327 112:49.5109 113:49.6923 114:50.2324 115:51.4563 116:52.7845 117:53.0121 118:53.4628 119:54.448 120:56.3023 121:58.7015 122:61.3009 123:63.4098 124:66.0051 125:67.7378 126:67.9375 127:65.6266 128:62.8014 129:59.7347 130:56.4403 131:53.2404 132:50.3794 133:48.3507 134:46.182 135:44.5631 136:42.1288 137:39.6597 138:36.7901 139:33.527 140:30.0886 141:26.4843 142:23.7639 143:23.0362 144:23.3591 145:24.0543 146:25.091 147:26.4293 148:29.1263 149:31.6696 150:34.3162 151:36.8016 152:39.3643 153:41.7768 154:44.6909 155:47.2177 156:50.0024 157:52.433 158:55.1014 159:57.9844 160:60.5407 161:62.651 162:65.1513 163:66.717 164:66.4874 165:63.6802 166:60.5186 167:57.5854 168:54.7822 169:51.7478 170:48.8477 171:45.9619 172:42.9548 173:39.8136 174:36.676 175:33.6921 176:30.5694 177:27.6192 178:24.7019 179:21.4513 180:18.3714 181:17.1051 182:18.316 183:21.1365 184:24.0833 185:27.0562 186:30.0167 187:33.0103 188:36 189:39.0128 190:42.0354 191:45.081 192:48.1174 193:51.1567 194:54.231 195:57.315 196:60.407 197:63.506 198:66.6577 199:69.8746 200:73.0249 
0.4299412940004763 0.5873701206905839 0.325782151201903 0.6980131131156846 0.3391314005837993 0.267155045715165 1 1 0.5456514531604816 0.3166162739651738 1:72.3395 2:70.5367 3:67.7423 4:64.7767 5:61.711 6:58.6943 7:55.7317 8:52.7185 9:49.6489 10:46.6907 11:43.7381 12:40.7925 13:37.8554 14:34.929 15:32.0163 16:29.0321 17:25.9624 18:23.0881 19:19.9264 20:17.0904 21:14.6578 22:15.5671 23:19.105 24:23.1062 25:26.4049 26:29.7322 27:33.0836 28:36.6632 29:40.0356 30:43.2109 31:46.8064 32:50.2014 33:53.2056 34:56.4196 35:59.6424 36:62.8689 37:66.8509 38:70.4885 39:71.7491 40:71.3759 41:68.8194 42:65.5328 43:62.4625 44:59.6565 45:56.3936 46:53.4034 47:50.4519 48:47.539 49:44.6801 50:41.6053 51:39.1625 52:36.2369 53:33.1082 54:30.0868 55:26.8927 56:24.5283 57:24.43 58:27.0121 59:30.0167 60:33.0049 61:36.5605 62:40.1698 63:43.3735 64:46.5822 65:49.824 66:53.1545 67:56.5939 68:60.0794 69:63.6027 70:66.9541 71:70.2144 72:72.7132 73:73.0112 74:72.0437 75:68.8873 76:65.4943 77:62.2303 78:59.0956 79:56.0177 80:53.0063 81:49.5843 82:46.2797 83:43.5175 84:40.9327 85:38.6139 86:37.3981 87:37.4293 88:38.03 89:38.8794 90:40.2151 91:41.4957 92:42.7496 93:44.0093 94:45.3112 95:46.6946 96:48.3443 97:49.9909 98:50.6484 99:50.2258 100:49.6553 101:48.2233 102:48.0174 103:47.0496 104:47.2722 105:47.6828 106:47.6295 107:48.0896 108:48.1101 109:48.6445 110:49.3622 111:49.6885 112:50.2324 113:50.4611 114:51.1817 115:52.1236 116:53.2759 117:53.8358 118:55.0583 119:56.5158 120:58.4637 121:61.0113 122:63.4632 123:65.7106 124:67.9189 125:70.4125 126:72.1817 127:72.1159 128:69.1851 129:66.0855 130:63.1087 131:60.239 132:57.3912 133:54.6941 134:52.1818 135:49.7394 136:47.6542 137:45.5701 138:43.2436 139:40.5523 140:37.432 141:33.5603 142:29.3728 143:26.315 144:25.0123 145:24.3444 146:25.0333 147:25.0931 148:26.4885 149:29.1258 150:31.6466 151:34.3238 152:36.5341 153:39.1625 154:41.8863 155:44.6801 156:47.539 157:50.1923 158:52.9017 159:55.6588 160:57.9856 161:61.0215 162:63.7831 163:64.8253 164:65.1916 165:62.6898 166:59.1847 167:56.1203 168:53.0675 169:50.2217 170:47.2042 171:44.2069 172:41.0225 173:37.8575 174:34.2762 175:30.9225 176:27.8188 177:24.52 178:21.2604 179:17.2491 180:14.8784 181:15.1435 182:18.0298 183:20.8819 184:23.7706 185:26.684 186:29.6146 187:32.558 188:35.5108 189:38.471 190:41.3936 191:44.2833 192:47.2653 193:50.2201 194:53.1508 195:56.1427 196:59.0963 197:62.0726 198:65.0438 199:68.0124 200:71.0326 
0 0 0 0 0 0 1 0 0 0 1:61 2:59.5084 3:57.5219 4:55.0364 5:52.5381 6:50.04 7:47.5421 8:45.5439 9:43.0465 10:40.5494 11:38.0526 12:35.5563 13:33.6341 14:31.1449 15:28.6575 16:26.1395 17:23.585 18:21.7084 19:19.9893 20:20.432 21:23.2626 22:25.9479 23:28.1832 24:31.0133 25:33.5603 26:36.2507 27:38.9396 28:40.7712 29:43.4638 30:46.155 31:48.4674 32:51.1594 33:53.0215 34:55.7155 35:58.9625 36:59.3717 37:57.2477 38:55.2318 39:52.7744 40:50.5599 41:47.8869 42:45.709 43:43.4777 44:41.3423 45:39.247 46:37.0068 47:34.6026 48:32.7186 49:30.2631 50:27.9529 51:25.4624 52:23.0084 53:21.7118 54:21.9828 55:23.7127 56:26.5422 57:29.7413 58:32.4429 59:35.2756 60:38.4256 61:41.0493 62:43.7094 63:46.1022 64:48.9417 65:51.9279 66:55.2345 67:56.7046 68:55.9152 69:54.0875 70:51.8886 71:49.4541 72:46.7701 73:44.9494 74:42.353 75:39.6556 76:37.6542 77:35.1085 78:33.5951 79:30.6008 80:28.2223 81:27.3633 82:27.0462 83:27.2304 84:27.6701 85:28.3104 86:29.1646 87:29.7481 88:30.2727 89:31.6299 90:32.726 91:33.7378 92:34.6843 93:35.8518 94:37.2053 95:38.6953 96:40.3267 97:41.3877 98:42.4372 99:43.0238 100:44.7534 101:44.7314 102:44.9027 103:42.8566 104:41.1177 105:41.0061 106:41.0569 107:40.2554 108:40.5277 109:41.0077 110:41.1447 111:40.82 112:40.5149 113:40.4777 114:39.9783 115:39.7041 116:39.7156 117:39.6106 118:39.7617 119:39.9618 120:40.1369 121:40.558 122:41.5081 123:41.7481 124:42.1377 125:42.8543 126:43.4241 127:44.1418 128:44.5283 129:45.6848 130:44.6407 131:42.34 132:39.6574 133:38.5322 134:36.6897 135:36.1732 136:35.193 137:33.5987 138:32.263 139:30.8897 140:29.0914 141:26.4215 142:23.0336 143:21.7362 144:20.2538 145:19.3259 146:18.3776 147:18.5664 148:19.3259 149:19.9401 150:21.7362 151:22.8366 152:24.9685 153:26.505 154:28.687 155:30.8122 156:33.0034 157:35.0195 158:36.8307 159:39.2665 160:41.6215 161:44.002 162:46.2097 163:48.1302 164:50.4797 165:52.5768 166:54.5442 167:55.6862 168:55.9133 169:53.0832 170:50.5401 171:48.0016 172:45.6213 173:43.3855 174:40.8635 175:38.2693 176:35.6813 177:33.1861 178:30.9567 179:28.1275 180:25.3875 181:22.4736 182:19.4792 183:18.5865 184:19.7454 185:22.074 186:24.5875 187:27.171 188:29.1249 189:31.5757 190:34.0332 191:36.4968 192:38.9648 193:40.8756 194:43.2898 195:45.7739 196:48.2598 197:50.7469 198:52.6953 199:55.1453 200:57.6089 
-0 0 0 0 1 0 0 0 0 0 1:65.7343 2:65 3:63.8065 4:61.8811 5:60.4401 6:59.0023 7:56.9439 8:54.8842 9:53.4509 10:51.8711 11:49.8124 12:48.3839 13:46.6505 14:44.7468 15:42.6919 16:41.1096 17:39.6898 18:37.8058 19:36.4006 20:35.0041 21:32.7763 22:30.9239 23:29.5466 24:27.9743 25:25.9479 26:24.5967 27:23.0336 28:21.283 29:20.7121 30:21.2603 31:21.9317 32:21.7118 33:21.6333 34:20.8431 35:19.9112 36:19.1434 37:17.72 38:17.3635 39:17.5725 40:19.0263 41:20.5119 42:22.0567 43:23.27 44:23.5372 45:24.8693 46:24.5249 47:25.0799 48:26.164 49:28.1832 50:30.1902 51:30.8869 52:32.5029 53:33.5622 54:34.4093 55:35.3045 56:37.3283 57:37.8733 58:38.8973 59:39.9546 60:40.7352 61:41.8688 62:42.4069 63:43.4204 64:44.5233 65:45.2769 66:45.858 67:46.7647 68:47.5395 69:48.4036 70:49.1882 71:48.6362 72:49.2443 73:48.9335 74:49.5731 75:49.366 76:47.7148 77:45.5711 78:43.5285 79:42.0119 80:41.0061 81:42.0773 82:43.1856 83:43.8485 84:44.6373 85:45.9944 86:46.3249 87:45.125 88:43.0653 89:41.2311 90:39.9109 91:40.0059 92:39.7425 93:40.3113 94:39.3611 95:38.0303 96:36.7151 97:35.4163 98:33.4444 99:31.4853 100:30.2324 101:29.3085 102:28.3725 103:28.2843 104:27.2467 105:25.9307 106:24.7066 107:23.0217 108:22.2134 109:21.7013 110:21.5407 111:21.0351 112:20.9965 113:21.1541 114:21.0238 115:21.5114 116:22.1472 117:22.3607 118:23.6535 119:25.1491 120:26.7482 121:27.313 122:28.8523 123:30.2083 124:31.3847 125:32.178 126:33.7122 127:35.3045 128:37.0135 129:37.9657 130:40.0299 131:41.0366 132:42.7946 133:44.197 134:46.3289 135:47.4236 136:48.5423 137:50.3836 138:51.225 139:52.4056 140:54.0031 141:55.6267 142:56.3028 143:56.7712 144:57.5062 145:58.1378 146:57.4844 147:55.2862 148:53.0525 149:51.4781 150:50.1128 151:47.8779 152:46.5188 153:44.9506 154:42.9337 155:40.9212 156:39.3573 157:37.7961 158:35.7953 159:34 160:32.4429 161:30.2083 162:27.9739 163:26.4197 164:24.8703 165:22.6392 166:21.095 167:19.5582 168:16.8087 169:14.5413 170:13.9284 171:15.0422 172:16.8775 173:18.2483 174:19.7296 175:21.7084 176:23.6908 177:25.0799 178:26.5754 179:28.5701 180:30.0167 181:31.5159 182:33.5149 183:35.5 184:37 185:38.5 186:40.5123 187:42.0119 188:43.5285 189:45.5439 190:47.5681 191:49.0918 192:50.589 193:52.6522 194:54.1479 195:55.7248 196:57.7642 197:59.9724 198:61.6604 199:63.3772 200:65.2111 
-0 0 0 0 1 0 0 0 0 0 1:64.1249 2:63.1981 3:61.7029 4:60.208 5:58.7133 6:56.7208 7:55.2268 8:53.7332 9:51.7422 10:50.2494 11:48.7571 12:46.7681 13:45.2769 14:43.9119 15:41.9316 16:40.4475 17:38.9648 18:36.99 19:35.5106 20:34.1298 21:32.2686 22:30.8058 23:29.3473 24:27.4092 25:25.9615 26:24.5208 27:22.7795 28:22.8473 29:23.483 30:24.1868 31:24.1334 32:23.8191 33:23.3452 34:22.2796 35:21.7118 36:20.8087 37:19.9858 38:19.4665 39:20.6155 40:21.8383 41:23.4283 42:24.5153 43:25.2487 44:25.5495 45:26 46:26.048 47:26.7336 48:28.2843 49:30.011 50:31.4107 51:32.28 52:33.2054 53:34.3579 54:35.8469 55:36.9129 56:38.242 57:38.9487 58:40.1314 59:41.3401 60:41.749 61:42.5019 62:43.4166 63:43.605 64:44.2084 65:44.5533 66:45.6439 67:46.4796 68:47.634 69:47.906 70:48.4043 71:48.8774 72:49.0045 73:48.974 74:48.3322 75:48.1968 76:48.4036 77:48.3839 78:46.5039 79:44.1618 80:42.45 81:41.1155 82:41.1927 83:41.4367 84:42.7411 85:44.0738 86:45.0111 87:45.0056 88:45.0444 89:44.6407 90:42.8581 91:41.4367 92:39.8834 93:37.6657 94:36.2215 95:36.4211 96:36.2884 97:34.9285 98:33.7234 99:31.9514 100:30.6757 101:29.2622 102:27.5849 103:27.7308 104:27.5398 105:27.331 106:26.4008 107:25.226 108:23.7142 109:22.6274 110:21.596 111:21.1048 112:20.2485 113:20.3579 114:19.9731 115:20.8806 116:20.9965 117:21.2132 118:22.0567 119:23.5104 120:24.0832 121:25.7426 122:27.5588 123:28.8617 124:29.7424 125:31.7879 126:33.2415 127:34.272 128:36.4617 129:38.0132 130:39.1477 131:40.9943 132:42.19 133:43.8341 134:45.7649 135:47.4342 136:48.7084 137:50.3032 138:52.0096 139:52.9471 140:54.2346 141:55.2268 142:56.244 143:56.5774 144:56.6392 145:56.789 146:57.0088 147:56.1018 148:53.7077 149:52.2015 150:50.4018 151:48.201 152:46.4004 153:44.9055 154:42.7142 155:41.2311 156:39.1217 157:36.9392 158:34.8281 159:33.3542 160:30.5369 161:29.0689 162:26.9537 163:24.4613 164:22.6716 165:20.5549 166:17.7342 167:15.6205 168:14.7111 169:15.2086 170:16.5529 171:17.9245 172:19.7808 173:21.1896 174:22.6114 175:24.0416 176:25.4808 177:27.4092 178:28.8617 179:30.3194 180:32.2686 181:33.7343 182:35.2031 183:37.1653 184:38.6394 185:40.1156 186:42.0863 187:43.566 188:45.0473 189:47.024 190:48.5077 191:49.9281 192:51.8484 193:53.3385 194:54.8293 195:56.7697 196:58.2151 197:59.6052 198:61.5204 199:63 200:64.0195 
-0 0 0 0 0.75618494207858 0 0 0 0 0 1:64.4981 2:63.6396 3:62.1551 4:60.6712 5:59.1883 6:57.7062 7:56.2251 8:54.1726 9:52.6118 10:51.1298 11:49.6488 12:48.169 13:46.198 14:44.7214 15:43.2465 16:41.7732 17:40.3021 18:38.833 19:37.3666 20:35.4156 21:33.9559 22:32.5002 23:30.8058 24:29.6018 25:28.1586 26:28.2312 27:27.5128 28:26.4197 29:25.6578 30:24.4131 31:23.2022 32:21.9772 33:21.9317 34:22.4131 35:23.0217 36:22.6488 37:22.1462 38:21.5407 39:21.9881 40:21.587 41:22.7778 42:24.0832 43:24.5104 44:25.5484 45:26.1725 46:26.3911 47:27.6586 48:28.0265 49:29.5715 50:30.0832 51:31.5826 52:32.2025 53:32.8853 54:33.8738 55:34.6699 56:35.5164 57:36.4006 58:37.3283 59:37.5366 60:38.5536 61:39.2603 62:40.3609 63:40.8455 64:42.0119 65:42.6068 66:44.2417 67:45.4863 68:45.967 69:46.5296 70:47.1905 71:47.927 72:47.8218 73:47.597 74:47.1275 75:47.1898 76:47.2969 77:47.953 78:48.0919 79:47.3814 80:47.2176 81:46.0977 82:44.5279 83:43 84:43.0291 85:42.6473 86:43.2897 87:43.4913 88:42.7551 89:43.0638 90:42.585 91:42.0595 92:40.8033 93:39.9249 94:38.9396 95:38.0132 96:37.1525 97:35.9349 98:34.6699 99:33.4265 100:32.2025 101:31.0055 102:28.8158 103:27.6586 104:26.5399 105:25.4558 106:24.421 107:23.9041 108:23.0217 109:21.3642 110:20.5913 111:19.9112 112:20.2485 113:20.2702 114:20.3099 115:20.0998 116:20.5125 117:21.0238 118:21.1541 119:22.4609 120:22.8035 121:24.1966 122:25.632 123:27.1194 124:28.6356 125:29.7413 126:31.1358 127:32.7567 128:33.5622 129:34.4093 130:36.1028 131:37.7161 132:39.0512 133:40.7847 134:42.5206 135:43.5245 136:44.5533 137:46.3182 138:47.7427 139:48.8365 140:50.6198 141:51.7397 142:52.8806 143:54.4275 144:55.6058 145:56.208 146:56.8595 147:57.2973 148:57.8014 149:57.0652 150:55.9134 151:54.1202 152:52.5599 153:51 154:49.4423 155:47.448 156:45.6508 157:44.0969 158:42.5441 159:40.7469 160:38.7625 161:37.2156 162:35.4163 163:33.6155 164:32.0707 165:30.5287 166:28.4698 167:26.2398 168:24.6982 169:22.6392 170:20.5913 171:19.9112 172:20.5645 173:21.8403 174:23.2866 175:24.7386 176:26.1966 177:27.6586 178:29.0318 179:30.9072 180:32.3883 181:33.8056 182:35.2278 183:36.7186 184:38.7073 185:40.1995 186:41.6924 187:43.1045 188:44.601 189:46.0977 190:47.5686 191:49.5404 192:51.0392 193:52.5239 194:54.0093 195:55.5045 196:57.5 197:59.0085 198:60.5535 199:62.1289 200:63.7394 
-0 0 0 0 1 0 0 0 0 0 1:47.2969 2:46.5725 3:45.607 4:44.643 5:43.2003 6:41.7612 7:40.5216 8:38.9438 9:37.3631 10:36.1386 11:34.9285 12:33.3563 13:31.7805 14:30.5941 15:28.9354 16:27.4591 17:26.3059 18:24.8245 19:23.1948 20:22.2036 21:21.2132 22:19.6024 23:18.1108 24:17.0294 25:15.5156 26:14 27:13.0384 28:12.0416 29:10.5476 30:9 31:8.06226 32:8.39511 33:8.94427 34:10.2956 35:11.5116 36:13.6015 37:15 38:16.4012 39:18.5069 40:20.6155 41:22.0227 42:24.1351 43:25.4951 44:26.9072 45:28.3196 46:30.4385 47:31.8277 48:33.2415 49:35.3624 50:37.4833 51:38.1838 52:40.3051 53:42.4264 54:43.8406 55:44.5533 56:46.3289 57:48.1041 58:48.8365 59:49.9536 60:51.0882 61:51.225 62:50.6063 63:50.5115 64:48.8262 65:47.4342 66:46.1792 67:44.6542 68:43.2666 69:41.1889 70:39.1152 71:37.7359 72:36.3593 73:34.8213 74:32.7567 75:31.3847 76:29.3349 77:27.2947 78:25.9422 79:23.9281 80:21.9317 81:20.6155 82:19.3132 83:17.3954 84:15.5242 85:14.5602 86:12.7536 87:11.0454 88:11 89:10.0499 90:10.7999 91:12.3693 92:13.3417 93:14.8074 94:16.2788 95:17.4642 96:18.8276 97:20.2485 98:20.6155 99:20.1246 100:20.4199 101:20.8087 102:20.6155 103:19.8242 104:19.8494 105:19.2094 106:19.4165 107:20.1572 108:21.9545 109:23.3238 110:24.6234 111:25.9422 112:26.8328 113:27.981 114:28.7924 115:29.4109 116:29.1204 117:29.7235 118:30.4138 119:31.257 120:31.6036 121:33.0151 122:33 123:33.0151 124:33.0983 125:34.2345 126:34.3657 127:33.1488 128:32.9848 129:33.2415 130:33.682 131:34.176 132:33.6155 133:34.0147 134:33.7705 135:34.4819 136:34.9857 137:35.783 138:36.6197 139:37.2022 140:37.3283 141:37.5366 142:37.4833 143:36.7696 144:36.4608 145:36.2353 146:35.609 147:34.7047 148:33.8378 149:32.45 150:31.9061 151:29.8417 152:27.7849 153:27.2947 154:26.6168 155:26 156:25.632 157:25.1491 158:23.7697 159:23.5372 160:22.3607 161:21.1541 162:20.025 163:20 164:18.5685 165:18.2483 166:17.4642 167:17.72 168:17.2761 169:17 170:17.4929 171:17.117 172:17.6918 173:17.6918 174:18.5201 175:19.4165 176:19.7231 177:20.5913 178:21.4778 179:22.4722 180:23.4094 181:24.5208 182:25.7099 183:26.6833 184:27.4591 185:28.8587 186:30.2655 187:31.1448 188:32.6004 189:34.0588 190:35.0143 191:36.5069 192:38 193:39.0128 194:40.05 195:41.6083 196:43.1856 197:44.2832 198:45.4697 199:46.6905 200:46.8722 
-0 0 0 0 1 0 0 0 0.5230337695985134 0 1:47.5395 2:46.8402 3:47.1275 4:46.4866 5:45.4123 6:44.0114 7:42.72 8:41.141 9:39.5601 10:38.2753 11:36.5278 12:34.7851 13:33.5261 14:31.6642 15:30.0832 16:28.8617 17:27.288 18:25.7099 19:24.5153 20:22.9489 21:21.3776 22:20.2237 23:18.7418 24:17.1172 25:16.1245 26:14.5345 27:13 28:12 29:10.5249 30:9.21954 31:9.48683 32:10.0722 33:10.8167 34:12.2066 35:13.5095 36:15.6205 37:17.0294 38:18.3984 39:20.5183 40:21.9317 41:24.052 42:25.4558 43:26.8701 44:28.2843 45:29.7069 46:31.8277 47:32.5576 48:34.3418 49:36.1248 50:37.5366 51:38.9936 52:41.1096 53:41.8688 54:43.6618 55:45.4533 56:46.8615 57:48.0244 58:49.8197 59:50.6063 60:51.5072 61:52.4309 62:52.6973 63:52.3161 64:51.9711 65:50.6063 66:49.4423 67:47.8853 68:46.5296 69:44.7359 70:42.9418 71:41.5933 72:40.0318 73:38.4708 74:37.1214 75:35.5604 76:33.541 77:32.2025 78:30.4187 79:28.6356 80:27.313 81:25.7403 82:23.7697 83:22.8473 84:21.5407 85:19.6111 86:17.72 87:16.4924 88:14.921 89:13.1529 90:12.0416 91:11.0227 92:10.198 93:10.4403 94:12.3524 95:13.9284 96:14.8661 97:16.4497 98:18.0278 99:19.3132 100:20.8197 101:21.4709 102:21.9545 103:22.747 104:22.8035 105:22.6716 106:22.2796 107:22.0227 108:21.4009 109:21.7939 110:22.3607 111:23.2594 112:25.0459 113:26.8328 114:27.313 115:28.693 116:29.7321 117:30.3645 118:30.4445 119:31.5753 120:31.4006 121:32.1947 122:33.0606 123:33.0151 124:33 125:34.0367 126:34.1321 127:34.2345 128:33.4588 129:33.7343 130:32.9848 131:33.3838 132:33.8378 133:34.176 134:33.8151 135:33.541 136:34 137:34.7338 138:35.5106 139:36.0555 140:36.1028 141:37.0135 142:37.6431 143:37.51 144:37.4833 145:36.7967 146:36.5568 147:35.609 148:35 149:34.9489 150:34.1321 151:34.4819 152:35.1134 153:34.9285 154:33.6155 155:32.0401 156:30.4631 157:29.1548 158:27.6852 159:26.2488 160:25.9615 161:25.1126 162:24.3311 163:24.1868 164:23.0868 165:22.5109 166:21.0238 167:20.0998 168:19.8201 169:18.6815 170:18.0278 171:18.1367 172:17.4929 173:18.0278 174:17.7481 175:17.6918 176:18.4391 177:19.0088 178:19.7231 179:20.5913 180:21.2822 181:22.4722 182:23.0868 183:24.3901 184:25.7099 185:26.4764 186:27.8717 187:29.1548 188:30.1496 189:31.54 190:33.0151 191:34 192:35.5141 193:37.054 194:38.0526 195:39.6574 196:41.3038 197:42.4264 198:44.1437 199:44.911 200:46.0977 
-0 0 0 0 1 0 0 0 0 0 1:46.1736 2:45.0999 3:44.1022 4:42.547 5:41.0488 6:40.05 7:38.6167 8:37.1214 9:36.1248 10:34.7312 11:33.2415 12:32.249 13:30.7612 14:29.2746 15:28.2843 16:26.8003 17:25.318 18:24.3311 19:22.853 20:21.3776 21:20.3961 22:18.9278 23:17.4642 24:16.4924 25:15.0422 26:13.6015 27:12.6491 28:11.0725 29:9.21954 30:8.03113 31:9.05539 32:9.21954 33:11.0725 34:12.6491 35:13.9284 36:15.5108 37:17.088 38:18.3848 39:19.9644 40:21.5407 41:22.8473 42:24.623 43:26.4008 44:27.7308 45:29.3011 46:30.8707 47:32.2025 48:33.9897 49:35.7771 50:37.1214 51:38.6852 52:40.2492 53:41.5933 54:43.6181 55:45.6508 56:47.0106 57:48.1926 58:49.3964 59:50.2038 60:50.2195 61:50 62:48.8093 63:47.634 64:46.8615 65:44.7494 66:43.2782 67:41.8688 68:40.4042 69:38.2884 70:37.5366 71:35.4189 72:33.9706 73:32.5576 74:30.7793 75:29 76:28.2843 77:26.5213 78:24.7588 79:23.3452 80:21.9659 81:20.6155 82:19.2094 83:17.9029 84:16.6433 85:15.2643 86:13.6544 87:12.083 88:11.5532 89:11.1803 90:11.0454 91:11.5208 92:13.0384 93:14.0357 94:15.5323 95:17.0294 96:18.0278 97:19.6644 98:20.3961 99:21.587 100:21.515 101:21.5407 102:21.9317 103:21.283 104:20.8087 105:20.6155 106:21.2367 107:22.6274 108:23.3452 109:25.4657 110:26.9072 111:27.6586 112:28.8158 113:29.4109 114:29.6816 115:30.7078 116:31.305 117:32.0457 118:31.9531 119:32.573 120:33.1132 121:33.7343 122:33.541 123:33.3091 124:33.1361 125:33.0606 126:33.0076 127:33.0151 128:33.0606 129:33.1888 130:33.3766 131:32.5576 132:33.3563 133:34.2053 134:34.4819 135:35.4203 136:36.4006 137:36.7696 138:37.3692 139:37.1214 140:37.5899 141:36.7875 142:36.0555 143:35.2278 144:34.3073 145:33.4216 146:31.9453 147:30.4795 148:29.0689 149:28.3019 150:27.5862 151:26.9072 152:25.9307 153:25 154:24.4131 155:23.5888 156:22.8254 157:22.3607 158:20.8197 159:20.2485 160:19.9249 161:18.5603 162:18.2483 163:18.1108 164:17.0147 165:17.0294 166:17.1172 167:16.3856 168:16.7631 169:17.088 170:16.7765 171:17.4929 172:18.0278 173:18.9052 174:19.8494 175:20.8657 176:21.9317 177:22.6716 178:23.5158 179:24.4131 180:25.2389 181:26.5013 182:27.7849 183:28.6531 184:29.9717 185:31.305 186:32.2025 187:33.5603 188:34.5398 189:35.4683 190:36.8684 191:38.2753 192:39.2173 193:40.4833 194:41.7612 195:42.72 196:43.9006 197:45.1221 198:45.8912 199:46.61 200:46.3897 
-0 1 0 0 0 0 0 0 0 0 1:53.9351 2:53.1507 3:51.6842 4:50.2195 5:48.5413 6:47.0744 7:45.6099 8:44.1475 9:42.688 10:41.2311 11:39.6564 12:38.0789 13:36.6233 14:35.171 15:33.5951 16:31.532 17:30.0832 18:28.6403 19:27.2029 20:25.7735 21:24.0416 22:22.6114 23:20.8806 24:19.4493 25:18.0278 26:16.2872 27:14.8661 28:13.8671 29:13.0384 30:13.9071 31:15.9497 32:16.2788 33:17.117 34:16.6433 35:15.8885 36:15.2315 37:14.7131 38:13.3417 39:13.0957 40:13 41:13.0957 42:14.3178 43:15.6286 44:17.614 45:19.105 46:20.3099 47:20.6155 48:21.0351 49:20.6155 50:20.8075 51:20.2485 52:20.3078 53:20.5183 54:20.8893 55:22.6716 56:24.421 57:25.4951 58:26.6337 59:27.6104 60:28.8444 61:29.8492 62:30.8869 63:32.2072 64:33.541 65:34.4716 66:35.8469 67:36.8684 68:37.9473 69:38.464 70:39.0512 71:39.2281 72:39.4588 73:40.2554 74:39.5818 75:39.0128 76:40.0062 77:39.0512 78:37.5133 79:36 80:34.5 81:33 82:31.5 83:30 84:28.5 85:27.0185 86:25.6281 87:23.6908 88:22.2036 89:20.5974 90:19.0263 91:19.0131 92:20.0998 93:21.5929 94:23.0868 95:24.5815 96:26.0768 97:27.5727 98:29.1548 99:30.3397 100:29.6142 101:29.3473 102:27.8369 103:27.8568 104:27.981 105:27.2947 106:26.5013 107:25.807 108:24.6037 109:23.4307 110:22.9863 111:21.9317 112:21.7118 113:20.8087 114:20.8431 115:20.1246 116:19.0412 117:17.3954 118:15.5242 119:14.7196 120:13.0384 121:12.0208 122:11.1803 123:12.0254 124:13 125:13.6544 126:14.4222 127:15.3102 128:16.2788 129:17.6777 130:19.4772 131:20.6155 132:22.1022 133:23.6008 134:24.826 135:26.0768 136:27.8805 137:29.1548 138:30.4518 139:31.7648 140:33.5605 141:34.8855 142:36.2257 143:38.0132 144:39.3611 145:41.1739 146:42.9535 147:44.3203 148:45.6946 149:47.0775 150:48.4665 151:49.8626 152:51.264 153:52.6714 154:53.7587 155:51.8711 156:50.2892 157:48.562 158:47.1275 159:45.4012 160:43.343 161:41.7612 162:40.1822 163:38.6005 164:37.1655 165:35.7351 166:34.004 167:32.573 168:30.9936 169:29.4109 170:27.8317 171:26.2488 172:24.5208 173:22.4636 174:20.8806 175:19.043 176:18.2483 177:17.5725 178:18 179:19.5256 180:21.0238 181:22.5222 182:24.0208 183:25.5196 184:27.0185 185:28.5701 186:30.0666 187:31.5634 188:33.5963 189:35.1283 190:36.6231 191:38.1182 192:39.6138 193:41.1947 194:42.6878 195:44.2832 196:45.7739 197:47.3814 198:48.8698 199:50.4876 200:52.1177 
-0 1 0.005945092122726847 0 0 0.134678686300322 0 0 0 0 1:72.0347 2:71.4387 3:70.1232 4:68.2002 5:66.1409 6:64.0802 7:62.1633 8:60.2517 9:58.1946 10:56.1362 11:53.7593 12:51.2308 13:49.176 14:47.2893 15:45.4123 16:43.1889 17:41.3193 18:39.0932 19:37.2329 20:34.797 21:32.238 22:30.4187 23:28.1832 24:26.164 25:24.1516 26:22.1482 27:20.1572 28:18.1804 29:16.0251 30:14.8661 31:15.1322 32:17.0681 33:19.0403 34:21.0311 35:22.3895 36:24.0607 37:24.8693 38:25.3308 39:24.052 40:24.0104 41:23.639 42:23.4412 43:23.9057 44:25.7735 45:27.6816 46:29.7424 47:32.2626 48:33.4285 49:34.2265 50:34.6837 51:33.985 52:34.3073 53:34.3859 54:34.6554 55:35.0907 56:35.8232 57:36.5372 58:37.349 59:39.1479 60:39.591 61:40.564 62:42.1107 63:43.6229 64:45.1697 65:47.1522 66:49.1215 67:50.7965 68:52.3381 69:53.9284 70:54.9498 71:55.43 72:55.9955 73:56.6436 74:56.3264 75:54.6466 76:52.6522 77:50.6582 78:48.6647 79:46.7681 80:44.7801 81:42.7931 82:40.8756 83:38.471 84:36.1837 85:34.4455 86:34.6814 87:36.5548 88:38.513 89:40.5123 90:42.5 91:44.5279 92:45.1847 93:45.4697 94:46.2889 95:48.1611 96:49.6033 97:50.1446 98:49.3448 99:47.8218 100:46.155 101:44.0076 102:42.0393 103:40.7469 104:39.0169 105:37.3138 106:35.9303 107:34.6026 108:33.0356 109:32.1926 110:31.1288 111:29.8395 112:27.9018 113:26.3519 114:25.3069 115:24.3814 116:23.121 117:21.9881 118:21.4823 119:20.6565 120:20.0167 121:20.1618 122:20.5058 123:21.0351 124:21.7362 125:22.5931 126:23.5888 127:24.7066 128:26.7096 129:28.3261 130:30.7633 131:32.1926 132:33.6802 133:35.8518 134:37.4078 135:39.3003 136:41.2109 137:42.8524 138:45.3045 139:47.5954 140:49.3084 141:51.5394 142:53.2758 143:55.03 144:57.2652 145:59.0364 146:60.8219 147:63.2152 148:65.7594 149:67.5743 150:69.0021 151:70.2917 152:70.0605 153:67.9897 154:65.6222 155:63.4135 156:60.8291 157:58.1946 158:56.1362 159:53.9284 160:52.0219 161:49.8124 162:47.7557 163:45.6976 164:43.7981 165:41.1104 166:38.5823 167:36.5278 168:34.3115 169:32.4234 170:30.2039 171:28.153 172:26.1013 173:23.8805 174:21.0835 175:18.5603 176:18.6766 177:20.5244 178:22.5 179:24.5 180:26.5 181:28.5175 182:30.5164 183:33.0298 184:35.5563 185:37.6198 186:39.6138 187:41.6924 188:43.6835 189:45.7242 190:47.7625 191:49.8066 192:52.3857 193:55.0153 194:57.0636 195:59.1883 196:61.3209 197:63.4607 198:65.6068 199:67.6658 200:69.8187 
