svm_type c_svc
kernel_type rbf
gamma 2.7778e-05
nr_class 11
total_sv 496
rho 0.00012809 0.00169655 -0.340594 -0.109419 -0.244197 -0.456596 0.144586 0.0180258 0.107336 -0.474941 -0.147269 -0.438373 -0.112674 -0.674783 -0.459264 -0.0921179 0.0821173 0.0607634 -1.09703 -0.44119 -0.172723 -0.309631 -0.504513 -0.102291 0.0279178 0.0520438 -0.517421 0.56542 0.2109 -0.35427 0.452435 0.683482 0.79852 0.328618 -0.0797629 -0.452458 0.165914 0.338054 0.417914 -0.51448 -0.210311 0.210335 0.299525 0.34159 -0.541011 0.574717 0.660258 0.539967 0.265803 -0.410803 0.0400127 -0.591365 -0.0930373 -0.607877 -1.06383
label 1 2 3 4 5 6 7 8 9 10 11
probA -4.10126 -4.16863 -4.13681 -4.21593 -4.11611 -4.0806 -4.05527 -4.22417 -4.14918 -4.11106 -4.08233 -3.98461 -4.05278 -3.99724 -3.89454 -4.15537 -4.07268 -4.25211 -4.28819 -4.12945 -4.08933 -4.06514 -3.94539 -4.08687 -4.09907 -4.21178 -4.0692 -4.48337 -4.02655 -4.14445 -4.2462 -4.10218 -3.82264 -3.8903 -3.9604 -3.90285 -4.33057 -4.26343 -3.99795 -3.99017 -3.88521 -4.17666 -4.13235 -4.34745 -3.94721 -4.03008 -3.98767 -3.65466 -3.7906 -4.4972 -4.1533 -4.12764 -4.19212 -4.05333 -4.33381
probB -0.00879317 -0.0379649 -0.110463 -0.137901 -0.0786539 -0.232249 -0.392221 -0.165616 -0.302217 -0.153268 -0.116363 0.0543878 0.0638015 0.0475637 -0.135298 0.221774 0.166457 0.119125 -0.450989 -0.145471 -0.215272 -0.231491 -0.415991 0.309041 -0.0778928 -0.165597 -0.571465 -0.421393 0.0363033 0.464476 0.12982 0.209437 -0.0154965 -0.500799 -0.123517 -0.10712 0.243076 0.0128153 -0.190091 -0.191415 -0.119755 0.0561261 0.157523 0.0501355 -0.188727 0.296956 0.0662734 0.548279 -0.0352337 -0.375564 -0.445611 -0.315174 -0.0635122 -0.0835808 -0.767524
nr_sv 39 43 40 51 49 43 26 50 50 50 55
SV
0 0 0 0 0 0 0.4538538190151441 0 0 0 1:60.6712 2:59.0445 3:56.5236 4:53.956 5:51.4783 6:48.8698 7:46.3898 8:43.9119 9:41.3915 10:38.8234 11:36.3457 12:33.8712 13:31.3036 14:28.7794 15:26.3062 16:23.8381 17:21.2245 18:19.0131 19:21.0702 20:23.585 21:26.0769 22:28.5701 23:31.1449 24:33.6853 25:36.2217 26:38.7073 27:41.3039 28:43.7865 29:46.3098 30:48.8698 31:51.4783 32:54.0949 33:56.7226 34:59.4362 35:60.4205 36:58.6944 37:56.2696 38:53.8521 39:51.4419 40:49.0414 41:46.6505 42:44.1684 43:41.5845 44:39.2183 45:36.7003 46:34.5412 47:32.238 48:29.5484 49:27.0658 50:24.4504 51:21.9158 52:20.2799 53:20.9379 54:23.6473 55:26.0066 56:28.8012 57:31.5042 58:34.2174 59:36.7494 60:39.4778 61:42.3004 62:44.7678 63:47.5954 64:50.2512 65:52.9086 66:55.7389 67:58.4853 68:61.0613 69:59.91 70:57.8388 71:55.6073 72:53.2009 73:50.8119 74:48.6554 75:46.1008 76:43.5587 77:41.2659 78:38.8909 79:36.5546 80:34.3859 81:32.2793 82:30.1084 83:27.7431 84:25.7398 85:23.5678 86:22.7795 87:24.5934 88:26.9677 89:29.7581 90:32.6286 91:35.739 92:38.4509 93:41.2334 94:44.0733 95:46.9589 96:49.4423 97:52.8403 98:55.5095 99:55.6065 100:53.9208 101:51.696 102:49.3576 103:46.8039 104:44.3273 105:41.6009 106:39.302 107:36.7789 108:35.0655 109:32.5078 110:30.4932 111:29.0318 112:28.4942 113:28.044 114:28.4889 115:28.5732 116:29.4833 117:30.073 118:30.9332 119:32.1091 120:33.478 121:34.9186 122:36.8287 123:38.5394 124:40.3889 125:42.3898 126:44.3958 127:45.9944 128:46.5366 129:46.2223 130:46.3839 131:47.5052 132:47.1036 133:44.7801 134:42.5897 135:41.5641 136:40.957 137:41.4843 138:41.8385 139:41.7767 140:41.6104 141:41.4163 142:41.0731 143:40.3278 144:40.8455 145:41.6329 146:42.3671 147:42.7935 148:42.8127 149:42.3862 150:42.585 151:43.2885 152:44.9758 153:46.1821 154:48.026 155:49.6833 156:51.1224 157:52.6817 158:54.1726 159:56.0949 160:56.1504 161:53.8521 162:51.1788 163:48.4273 164:45.5044 165:42.9145 166:40.7516 167:38.7265 168:36.3565 169:34.6814 170:33.2248 171:31.532 172:29.4119 173:27.0421 174:24.0478 175:21.2279 176:19.2474 177:17.5139 178:16.4776 179:16.1519 180:15.9775 181:16.5223 182:17.702 183:19.4772 184:21.2166 185:22.898 186:25.3868 187:27.7363 188:29.9687 189:32.238 190:34.5412 191:36.8684 192:39.2183 193:41.908 194:44.2726 195:46.6505 196:49.0414 197:51.4419 198:53.6007 199:56.0291 200:58.2497 
0.9788408918253811 0.8478053881092132 1 1 1 0.9658629585512455 1 1 1 1 1:49.2443 2:47.953 3:46.198 4:43.985 5:41.7456 6:39.6138 7:37.5331 8:35.0095 9:32.6004 10:30.7612 11:29.0318 12:27.2922 13:25.6299 14:23.6562 15:22.1576 16:22.3275 17:24.2759 18:25.7481 19:27.2818 20:29.1564 21:31.3195 22:32.9073 23:34.5669 24:36.2884 25:38.1479 26:40.4477 27:43.0727 28:44.8162 29:46.2113 30:46.2264 31:44.9099 32:43.3695 33:41.5008 34:39.8033 35:38.5138 36:37.0537 37:35.9303 38:34.6026 39:33.306 40:31.8277 41:31.1929 42:30.3052 43:29.957 44:30.2152 45:30.7833 46:31.4718 47:31.8981 48:32.473 49:33.6868 50:34.5365 51:35.6898 52:37.1685 53:38.3992 54:39.2257 55:40.628 56:41.6231 57:43.168 58:44.0179 59:44.9829 60:45.8416 61:46.3353 62:46.059 63:45.9237 64:45.0389 65:43.8976 66:43.1393 67:42.8531 68:42.7199 69:42.7249 70:41.9161 71:41.3879 72:41.3877 73:41.5081 74:41.2732 75:40.663 76:41.0077 77:40.0334 78:39.2619 79:39.0832 80:39.0064 81:39.032 82:39.1599 83:40.1249 84:40.8961 85:41.358 86:40.957 87:41.1451 88:41.4302 89:41.5996 90:42.3671 91:42.9933 92:44.938 93:46.1022 94:47.3223 95:48.9222 96:50.5904 97:51.9748 98:53.0566 99:53.8609 100:52.9471 101:51.1367 102:47.9011 103:45.402 104:43.2012 105:41.3099 106:39.1217 107:37.2606 108:35.3879 109:34.313 110:32.9757 111:31.7081 112:30.5191 113:30.2727 114:29.681 115:27.5785 116:25.5399 117:23.7127 118:21.9158 119:20.4199 120:18.8189 121:18.4119 122:19.3129 123:19.0517 124:19.9731 125:21.2338 126:23.2129 127:25.5495 128:27.5089 129:29.6093 130:31.6969 131:33.951 132:36.1837 133:39.056 134:41.9675 135:44.3014 136:46.8039 137:48.872 138:50.512 139:52.3981 140:52.9995 141:51.9164 142:50.6786 143:48.4491 144:45.9623 145:43.0474 146:39.63 147:37.397 148:34.6777 149:32.4429 150:30.2083 151:27.1383 152:24.3832 153:21.9158 154:19.4565 155:17.2207 156:14.7747 157:13.2274 158:14.7407 159:17.7342 160:19.8116 161:22.6385 162:24.7487 163:27.5772 164:30.4138 165:33.6061 166:36.0902 167:38.5793 168:41.067 169:43.5587 170:46.5352 171:49.2986 172:51.4719 173:53.6503 174:54.6017 175:55.3442 176:55.2312 177:53.5213 178:50.799 179:48.0889 180:45.8535 181:43.1572 182:40.9212 183:37.5786 184:34.272 185:31.6636 186:29.0963 187:26.8812 188:24.3849 189:25.5646 190:28.3772 191:30.7021 192:32.9031 193:35.4203 194:37.8058 195:40.856 196:43.733 197:45.9627 198:47.8218 199:49.3448 200:50.1446 
0 0 0 0 0 0 1 0.6302139396556887 0 0 1:51.6236 2:50.8969 3:49.7319 4:47.7835 5:45.8396 6:43.9006 7:41.7165 8:39.7777 9:37.8453 10:35.9203 11:34.004 12:31.947 13:29.8877 14:27.9871 15:26.1013 16:24.234 17:21.9343 18:19.68 19:17.4443 20:15.968 21:15.9497 22:18.0654 23:19.9125 24:22.1022 25:24.007 26:26.217 27:28.1517 28:30.1052 29:32.3314 30:34.0487 31:35.7953 32:38.0149 33:40.6977 34:43.1572 35:44.5358 36:45.535 37:45.0702 38:43.4204 39:41.8012 40:39.9062 41:38.0309 42:36.1732 43:34.3418 44:32.8842 45:30.7633 46:29.4005 47:27.7219 48:25.8155 49:23.5888 50:22.1482 51:20.8197 52:20.0867 53:19.5317 54:20.6594 55:22.6428 56:24.4232 57:26.3179 58:28.7856 59:30.8459 60:32.5033 61:34.2265 62:36.0062 63:38.95 64:42.1107 65:43.1619 66:42.7488 67:41.5039 68:40.3295 69:38.2702 70:36.2696 71:34.8208 72:33.4588 73:31.6969 74:30.0416 75:28.5089 76:27.6187 77:26.3911 78:26.6193 79:26.7482 80:26.6168 81:27.1103 82:27.7385 83:28.9034 84:29.7825 85:30.7633 86:31.5176 87:32.409 88:33.4265 89:34.307 90:35.5662 91:36.048 92:36.7003 93:36.5442 94:35.9115 95:34.4455 96:34.1833 97:34.0367 98:35.0071 99:34.5946 100:34.3001 101:33.6376 102:34.0806 103:34.1599 104:34.3579 105:34.6834 106:34.6837 107:34.8278 108:34.7047 109:34.7322 110:35.3695 111:36.1801 112:36.1028 113:35.783 114:35.6011 115:35.5591 116:35.6576 117:36.3717 118:37.9853 119:39.6594 120:41.1927 121:42.8581 122:43.6439 123:45.0278 124:46.0054 125:44.1107 126:41.8002 127:39.7579 128:37.6657 129:35.5909 130:33.537 131:31.5081 132:30.1081 133:28.8587 134:28.2641 135:26.8868 136:25.7475 137:24.1516 138:22.1462 139:19.9644 140:18.0527 141:16.2017 142:16.0156 143:16.0779 144:16.3856 145:16.9255 146:17.6764 147:18.6128 148:19.7082 149:20.9379 150:23.0084 151:24.4002 152:25.872 153:27.4107 154:29.0058 155:31.6262 156:33.7094 157:35.4163 158:37.397 159:39.3867 160:41.1498 161:42.9337 162:44.7358 163:46.3566 164:47.4649 165:47.2808 166:46.2236 167:44.0298 168:41.9675 169:40.0408 170:38.1218 171:35.4408 172:33.0496 173:31.1493 174:28.9357 175:27.0421 176:24.8249 177:22.9408 178:20.8946 179:18.849 180:16.8099 181:14.58 182:12.5092 183:13.6475 184:15.5323 185:17.5286 186:20.025 187:22.5114 188:24.5 189:26.5 190:28.5 191:30.5164 192:32.5154 193:34.5145 194:36.534 195:38.5519 196:40.5494 197:42.547 198:44.601 199:46.5967 200:48.7104 
0.6070937805953319 0.6780579706084309 0.4030440627930242 0.6529750777188518 0.5828847254193931 0.3167107883650774 0.4659617821811382 0.4801167597654472 0.6444223159293799 0.2491056269406468 1:76.3217 2:74.4784 3:71.1705 4:67.3593 5:63.7928 6:60.1691 7:56.5939 8:53.1545 9:49.7618 10:46.395 11:43.131 12:40.0204 13:37.023 14:34.1436 15:31.4146 16:29.4547 17:30.0868 18:33.617 19:36.1746 20:38.8981 21:41.9683 22:45.2015 23:47.7961 24:50.5876 25:53.4205 26:56.2886 27:59.1866 28:62.1289 29:65.123 30:66.9415 31:64.6363 32:61.9911 33:59.5161 34:56.9256 35:54.3129 36:51.9801 37:49.6484 38:47.2898 39:45.3399 40:43.2252 41:40.7885 42:38.8481 43:37.5011 44:36.8961 45:36.6373 46:36.732 47:36.8685 48:37.6422 49:38.7373 50:39.7978 51:41.4506 52:43.341 53:45.4393 54:47.0569 55:48.5144 56:50.7766 57:53.163 58:55.6614 59:57.9446 60:59.0979 61:59.0607 62:59.1209 63:60.7426 64:63.3359 65:66.0152 66:66.2279 67:64.4113 68:62.0579 69:58.6872 70:56.6419 71:54.4548 72:52.8385 73:51.8594 74:51.081 75:50.7865 76:50.4211 77:49.9695 78:49.7153 79:49.3417 80:49.4836 81:49.4991 82:49.2611 83:50.0466 84:51.0163 85:51.1631 86:52.4753 87:52.9589 88:53.6062 89:53.4566 90:54.4296 91:56.1587 92:57.7022 93:59.946 94:61.6904 95:63.816 96:65.4634 97:67.4708 98:69.817 99:71.7035 100:73.4183 101:72.1335 102:68.593 103:64.8194 104:61.5251 105:58.4856 106:55.476 107:53.0088 108:50.345 109:48.015 110:46.0472 111:43.9147 112:41.8937 113:39.7047 114:36.4036 115:32.8949 116:30.0847 117:27.315 118:24.5995 119:22.4764 120:20.8449 121:19.9742 122:20.7435 123:21.8637 124:23.2474 125:26.0392 126:29.0056 127:32.0464 128:35.1607 129:38.2874 130:41.4878 131:44.7835 132:48.1236 133:51.344 134:54.7345 135:58.1509 136:61.5889 137:65.1481 138:68.6381 139:71.56 140:73.9295 141:73.6952 142:70.2149 143:67.2321 144:63.803 145:60.2259 146:56.9458 147:53.8159 148:50.3867 149:47.1079 150:43.9828 151:40.5523 152:37.1231 153:33.6921 154:30.2626 155:26.9844 156:24.7237 157:26.4012 158:30.4058 159:34.2056 160:37.8024 161:42.7146 162:47.6342 163:51.8557 164:56.0804 165:60.3076 166:63.7809 167:67.5173 168:70.7698 169:73.5551 170:76.1329 171:77.5945 172:75.3232 173:71.5891 174:68.1176 175:63.8906 176:60.4402 177:56.4855 178:52.8017 179:48.8703 180:45.4971 181:41.4017 182:37.2167 183:33.1225 184:29.0712 185:26.0109 186:27.204 187:30.466 188:33.9486 189:37.4544 190:40.6141 191:44.0138 192:47.5416 193:51.0802 194:54.4931 195:58.0445 196:61.464 197:64.7469 198:68.1676 199:71.4504 200:74.7336 
0 0 0 0 0 0 0.2265457080669885 0 0 0 1:58.6941 2:57.1195 3:55.0569 4:52.3931 5:49.9626 6:47.7835 7:45.1224 8:42.4648 9:40.3021 10:37.7874 11:35.2031 12:32.4998 13:29.8442 14:27.7895 15:25.1795 16:22.5888 17:20.56 18:18.3514 19:19.6024 20:21.5929 21:24.187 22:26.6693 23:29.1549 24:31.6426 25:33.6341 26:36.0555 27:38.5519 28:40.5494 29:43.0465 30:45.5439 31:47.5421 32:50.04 33:52.5616 34:55.1026 35:56.2716 36:54.9477 37:52.4692 38:50.0682 39:48.169 40:45.7058 41:43.3457 42:41.4881 43:39.0517 44:36.7542 45:34.4827 46:32.0979 47:30.3795 48:28.233 49:26.1715 50:24.6234 51:22.4764 52:20.4043 53:19.1572 54:18.475 55:20.1126 56:23.3373 57:25.9307 58:27.9891 59:30.4195 60:32.8842 61:34.6771 62:36.882 63:39.4379 64:41.0042 65:43.6032 66:46.2097 67:49.139 68:49.4302 69:47.889 70:46.0142 71:44.197 72:42.7946 73:40.3654 74:38.3472 75:36.4064 76:34.1236 77:33.0217 78:31.1832 79:29.3011 80:28.044 81:26.2603 82:25.6025 83:24.2589 84:24.0347 85:24.052 86:23.6897 87:24.3849 88:25.4651 89:26.4112 90:27.5398 91:28.5732 92:30.0071 93:31.5657 94:32.8996 95:34.6601 96:36.5015 97:38.2208 98:39.8162 99:41.4648 100:43.3983 101:44.0618 102:42.2664 103:40.6218 104:39.3887 105:38.7489 106:38.4131 107:38.5551 108:37.5548 109:36.534 110:36.0069 111:36.1339 112:35.9281 113:35.7979 114:35.4487 115:35.2912 116:35.594 117:35.9531 118:36.6255 119:37.208 120:38.735 121:39.286 122:40.09 123:41.1703 124:41.5089 125:42.9081 126:44.3431 127:45.6213 128:47.2898 129:49.1215 130:50.607 131:51.7927 132:50.2122 133:47.8022 134:45.551 135:43.7981 136:41.7862 137:39.6602 138:37.8728 139:36.281 140:35.0902 141:33.2185 142:31.6283 143:29.4509 144:26.9073 145:23.757 146:21.7118 147:19.4282 148:17.2464 149:16.1733 150:14.921 151:14.0889 152:14.722 153:15.4106 154:16.9255 155:18.496 156:20.8431 157:23.163 158:25.8077 159:28.5045 160:31.2473 161:33.6361 162:35.3624 163:38.1838 164:41.3687 165:43.5014 166:46.0142 167:48.5423 168:50.0635 169:52.012 170:53.7121 171:51.0396 172:48.1302 173:45.6326 174:42.8194 175:39.5287 176:37.3164 177:34.2174 178:31.5042 179:29.0058 180:26.2012 181:23.5055 182:20.4086 183:18.3144 184:18.7965 185:21.3187 186:24.1516 187:26.164 188:28.7777 189:31.3256 190:33.3551 191:35.8483 192:38.5394 193:41.1035 194:43.5463 195:45.5915 196:48.1049 197:50.4508 198:52.3381 199:54.6098 200:56.8003 
0.3491752753573604 0.666736216614451 0 0.5745170455324968 0.7906092653565365 0 1 1 0.981837730155859 0.2522309955396073 1:61.6847 2:60.8188 3:59.1548 4:56.9235 5:54.2319 6:51.7356 7:49.702 8:47.0118 9:44.3203 10:42.0867 11:39.5326 12:37.1254 13:34.8898 14:32.6542 15:29.9687 16:27.2818 17:26.2482 18:26.6702 19:29.9083 20:32.409 21:35.4049 22:38.5034 23:41.3099 24:43.3417 25:46.4383 26:49.7444 27:52.5595 28:55.187 29:58.1937 30:60.2537 31:62.2926 32:61.8819 33:60.1041 34:58.3471 35:55.6588 36:52.7389 37:50.2842 38:46.7547 39:43.983 40:41.9345 41:39.2049 42:36.1028 43:33.7122 44:30.9276 45:28.0295 46:27.5128 47:29.0911 48:31.7832 49:35.1077 50:37.3437 51:40.2509 52:43.1572 53:45.8535 54:48.325 55:51.3175 56:54.3924 57:56.3853 58:59.3786 59:62.2118 60:63.9711 61:62.3144 62:59.7198 63:57.9358 64:56.2011 65:52.9264 66:49.8626 67:47.4614 68:44.2749 69:41.1414 70:39.6564 71:36.8834 72:34.0332 73:31.8226 74:29.6522 75:27.6964 76:27.0462 77:28.7174 78:31.3545 79:33.6868 80:35.5919 81:38.0398 82:40.5062 83:42.5058 84:44.5279 85:47.0776 86:49.6257 87:51.6551 88:52.758 89:50.5049 90:48.5259 91:46.08 92:43.6835 93:41.8666 94:40.1156 95:37.932 96:35.7894 97:34.004 98:32.0772 99:30.6423 100:30.2727 101:30.0218 102:29.0344 103:29.0344 104:29.3085 105:29.1763 106:29.3077 107:29.9077 108:30.7395 109:31.9818 110:33.6868 111:36.0237 112:37.5331 113:39.6574 114:40.874 115:43.4163 116:45.2381 117:46.2236 118:49.3384 119:51.7057 120:51.9126 121:52.0932 122:52.1052 123:51.0422 124:50.0897 125:48.6428 126:47.4062 127:45.8405 128:42.6382 129:40.4104 130:39.9546 131:39.4578 132:38.9026 133:38.5541 134:37.9074 135:37.7265 136:36.9657 137:37.1682 138:36.7321 139:36.7762 140:37.4098 141:38.1269 142:38.5066 143:39.032 144:39.1599 145:38.4792 146:38.9421 147:39.4269 148:40.1696 149:41.0422 150:42.7488 151:44.1296 152:45.896 153:46.9088 154:47.9836 155:50.2239 156:52.101 157:53.7253 158:56.0838 159:57.3498 160:56.9243 161:54.2146 162:50.9166 163:48.4394 164:45.9619 165:43.6222 166:41.4414 167:40.1422 168:37.8077 169:35.5164 170:34.401 171:32.5431 172:31.0878 173:29.3507 174:28.153 175:25.1962 176:22.6114 177:20.719 178:18.7915 179:17.0681 180:16.34 181:16.1638 182:16.3387 183:17.404 184:18.8372 185:21.0488 186:23.5104 187:25.5484 188:28.2003 189:30.7612 190:32.8825 191:35.5701 192:38.2447 193:40.5125 194:42.688 195:45.4371 196:48.0236 197:50.345 198:53.163 199:55.9876 200:58.1946 
0 0.2007734901110789 0 0.6325869082412905 0 0 1 1 1 0.3342826703509025 1:51.2445 2:50.4232 3:49.2426 4:47.3631 5:45.4011 6:43.4426 7:41.4881 8:39.5381 9:37.5934 10:35.6548 11:33.7234 12:31.8005 13:29.8877 14:28.1586 15:26.4629 16:24.623 17:22.81 18:21.0311 19:19.2955 20:17.6162 21:17 22:19.0919 23:21.225 24:23.0512 25:25.226 26:26.8018 27:29.0058 28:30.3806 29:31.8169 30:33.5605 31:35.3313 32:37.3437 33:40.0318 34:41.4299 35:42.455 36:42.32 37:41.0042 38:39.4379 39:37.9125 40:36.0902 41:34.2983 42:32.1773 43:30.8122 44:29.5195 45:28.3093 46:27.1924 47:25.7398 48:24.3814 49:23.121 50:21.9881 51:22.4609 52:23.639 53:25.5783 54:27.7252 55:29.0286 56:31.2932 57:33.1132 58:34.6335 59:36.228 60:38.3481 61:40.9703 62:43.0034 63:44.3048 64:44.1189 65:43.5486 66:42.089 67:40.2077 68:37.9035 69:36.1732 70:34.5359 71:33.0076 72:31.6036 73:30.3397 74:29.7235 75:30.2238 76:30.3795 77:30.6669 78:31.5349 79:32.5029 80:32.7326 81:33.5111 82:34.3859 83:35.3695 84:36.4331 85:36.9458 86:37.3227 87:37.4758 88:37.3557 89:36.4617 90:35.6576 91:35.8953 92:35.3055 93:34.8208 94:34.4455 95:34.1833 96:33.0378 97:32.5078 98:32.1014 99:33.3091 100:33.6376 101:33.8957 102:34.0069 103:33.3607 104:32.8853 105:33.0217 106:33.3079 107:33.7402 108:34.6843 109:34.6843 110:34.9141 111:35.3692 112:35.1705 113:36.0131 114:37.2329 115:38.9219 116:40.4833 117:42.1056 118:43.5529 119:45.3083 120:46.9555 121:48.213 122:48.0677 123:47.5052 124:45.5276 125:43.6033 126:41.6083 127:39.5818 128:37.5533 129:35.5141 130:33.5074 131:31.54 132:29.7121 133:28.0508 134:26.5873 135:25.3559 136:23.9363 137:22.39 138:20.3579 139:18.1263 140:16.4497 141:15.4106 142:14.0889 143:15.0166 144:15.2149 145:16.1436 146:17.2761 147:18.1231 148:19.1422 149:21.1048 150:22.7267 151:24.421 152:26.163 153:27.9529 154:29.7742 155:31.9453 156:33.8134 157:36.0048 158:37.9013 159:39.8162 160:41.7435 161:43.6844 162:45.3687 163:46.8291 164:47.6335 165:47.2171 166:45.9627 167:43.5463 168:41.3193 169:39.2757 170:37.2329 171:35.0041 172:32.9632 173:30.734 174:28.5058 175:26.4629 176:24.234 177:22.0064 178:19.7808 179:17.7364 180:15.5108 181:12.9854 182:13.5943 183:15.5323 184:17.5286 185:19.5256 186:21.5233 187:23.5213 188:25.5196 189:27.5182 190:29.5169 191:31.5159 192:33.5149 193:35.5141 194:37.5133 195:39.5127 196:41.512 197:43.5115 198:45.5056 199:47.5 200:49.5251 
0 0 0.04125837686305165 0 0 0.03798085690815624 0 0 0 0 1:50 2:48.5052 3:46.5107 4:44.5283 5:42.547 6:40.5494 7:38.5519 8:36.5548 9:34.6302 10:32.6382 11:30.7612 12:28.7794 13:26.8003 14:25.0052 15:23.0491 16:21.1013 17:19.1642 18:17.5579 19:15.904 20:16.8087 21:19.5573 22:21.9158 23:23.7127 24:25.5399 25:27.5785 26:29.619 27:31.3195 28:33.0496 29:34.961 30:36.6233 31:38.5651 32:40.7463 33:42.585 34:44.1189 35:44.3048 36:43.0034 37:41.3877 38:39.8033 39:37.5673 40:35.7953 41:33.618 42:31.7644 43:30.4029 44:28.8158 45:27.2829 46:25.8142 47:24.421 48:23.1171 49:21.9185 50:20.8431 51:19.9112 52:20.5645 53:22.4636 54:24.5249 55:26.2004 56:28.3999 57:30.2083 58:32.0707 59:33.5622 60:35.1072 61:37.2776 62:39.7556 63:41.9345 64:43.5085 65:43.5479 66:42.455 67:40.9943 68:39.591 69:37.7949 70:36.048 71:34.8222 72:33.682 73:32.1478 74:30.7 75:29.3512 76:28.1158 77:27.5089 78:27.0462 79:28.2223 80:27.5588 81:28.1711 82:28.044 83:29.3011 84:30.6504 85:30.7966 86:31.9126 87:32.3326 88:33.6361 89:34.2983 90:34.7706 91:35.1139 92:35.6787 93:36.4548 94:36.5093 95:36.228 96:35.5876 97:35.0498 98:35.6019 99:35.2916 100:35.0927 101:34.343 102:34.5936 103:35.2916 104:35.1118 105:35.0498 106:34.6335 107:34.827 108:33.7779 109:33.8077 110:34.401 111:35.5164 112:35.9222 113:36.4608 114:36.7831 115:36.1801 116:36.5101 117:37.0537 118:37.8015 119:39.1528 120:40.5823 121:42.392 122:44.0327 123:45.5066 124:46.61 125:45.8333 126:44.6398 127:42.5761 128:40.5494 129:38.5847 130:36.6231 131:34.7312 132:32.8825 133:31.1906 134:29.7471 135:28.5118 136:27.5128 137:26.5013 138:25.4035 139:22.9022 140:20.5286 141:18.3714 142:16.3542 143:15.6678 144:16.2017 145:16.5156 146:17.0733 147:17.3635 148:18.3469 149:19.5055 150:20.7978 151:22.6392 152:24.1334 153:26.1039 154:27.7219 155:29.7742 156:31.8512 157:33.5913 158:35.7124 159:37.8466 160:39.6548 161:42.0855 162:44.4336 163:45.7055 164:46.7438 165:46.059 166:45.0271 167:42.9803 168:40.7469 169:38.5138 170:36.281 171:34.3006 172:32.0707 173:29.8417 174:27.3554 175:25.126 176:22.898 177:20.6717 178:18.4479 179:16.2274 180:13.7303 181:13.1528 182:15.1951 183:17.2416 184:19.1642 185:21.1013 186:23.0491 187:25.0052 188:26.9677 189:29.1249 190:31.0847 191:33.0493 192:35.018 193:36.99 194:38.9648 195:41.1006 196:43.0727 197:45.0473 198:47.024 199:48.814 200:50.1248 
1 1 0.5098343121256379 0.710272780650273 1 0.288003869219734 1 1 1 1 1:50.0899 2:49.0408 3:47.5105 4:45.511 5:43.5115 6:41.512 7:39.5127 8:37.5133 9:35.5141 10:33.5149 11:32.0156 12:30.5081 13:28.5 14:26.5 15:24.5 16:22.5 17:20.5125 18:18.6766 19:18.5603 20:19.9249 21:21.6628 22:23.5642 23:25.6244 24:27.6816 25:29.8877 26:31.947 27:34.1556 28:36.2115 29:37.6431 30:39.3735 31:41.4319 32:43.4888 33:45.8541 34:48.0687 35:50.1545 36:48.9314 37:47.0775 38:45.6946 39:44.3203 40:42.5005 41:40.2653 42:38.2434 43:36.2257 44:34.4428 45:32.2072 46:30.4518 47:29.1548 48:27.6139 49:25.3875 50:23.4377 51:21.221 52:19.9247 53:20.1586 54:21.9659 55:24.7891 56:26.9072 57:28.2931 58:30.4056 59:33.234 60:35.7124 61:37.8466 62:39.9921 63:42.4794 64:45.3045 65:47.4236 66:49.2073 67:50.6198 68:48.8109 69:47.0252 70:44.9041 71:42.7946 72:41.067 73:38.9936 74:37.6431 75:35.5317 76:33.9029 77:32.319 78:30.373 79:28.4698 80:26.181 81:23.9281 82:22.194 83:21.1896 84:21.2338 85:21.7906 86:23.639 87:25.6759 88:27.8688 89:30.21 90:32.3827 91:34.5634 92:35.4401 93:36.8439 94:38.7463 95:40.9668 96:40.0059 97:38.464 98:36.6233 99:34.3314 100:32.473 101:31.6969 102:30.0666 103:28.5086 104:26.5189 105:25.1296 106:24.9166 107:24.8693 108:24.5249 109:23.9363 110:24.0202 111:23.6008 112:24.1453 113:24.4002 114:24.9197 115:25.9419 116:27.1103 117:28.1832 118:29.619 119:30.9983 120:32.0156 121:33.1488 122:34.7968 123:35.0927 124:36.0069 125:35.0357 126:33.5974 127:31.6987 128:30.014 129:29.8329 130:29.2657 131:30.3741 132:31.1277 133:31.0959 134:30.3806 135:30.7081 136:30.4467 137:31.1288 138:31.241 139:31.5117 140:32.0776 141:33.331 142:33.3607 143:34.0069 144:34.3436 145:33.8451 146:34.4455 147:34.2345 148:34.5946 149:36.5069 150:38.5322 151:39.6574 152:40.874 153:43.1586 154:44.5269 155:45.9633 156:46.8402 157:46.807 158:44.7468 159:42.6919 160:40.1822 161:37.7177 162:35.7979 163:33.951 164:32.6909 165:31.0644 166:30.0083 167:28.5443 168:26.736 169:24.8245 170:23.0491 171:20.9916 172:18.8324 173:16.6936 174:15.0333 175:13.5192 176:12.7611 177:11.8939 178:11.9342 179:12.3848 180:13.5275 181:14.8433 182:16.1027 183:17.4642 184:18.849 185:20.719 186:22.6114 187:24.5208 188:26.4437 189:28.3772 190:30.3194 191:32.0665 192:33.541 193:35.018 194:36.99 195:38.9648 196:40.9421 197:42.7931 198:44.7801 199:46.7681 200:48.7114 
0 0 0 0 0 0 1 0 0 0 1:54.7083 2:53.2849 3:51.3934 4:49.5104 5:47.2893 6:45.2392 7:43.0185 8:40.9668 9:38.9177 10:36.8684 11:35.0041 12:32.7763 13:30.9239 14:28.693 15:26.6565 16:24.4248 17:22.3895 18:20.1566 19:18.3384 20:17.3488 21:18.1218 22:19.452 23:21.9203 24:24.7487 25:27.5772 26:30.4056 27:32.5346 28:35.0195 29:37.5033 30:39.9921 31:42.4794 32:44.9707 33:47.1313 34:49.6236 35:53.1508 36:54.1236 37:51.9843 38:49.8535 39:47.7323 40:45.6222 41:43.1567 42:41.067 43:38.9936 44:36.9392 45:34.5167 46:32.5025 47:30.9276 48:28.5732 49:26.2398 50:23.5061 51:21.6922 52:19.5055 53:18.8276 54:19.8201 55:21.652 56:23.585 57:25.6262 58:27.7252 59:29.8442 60:31.8945 61:34.1271 62:36.3904 63:38.6863 64:40.8733 65:43.343 66:45.5479 67:47.909 68:50.5971 69:50.6223 70:48.1521 71:45.7235 72:43.3434 73:41.0204 74:38.8234 75:36.6702 76:34.5936 77:32.5154 78:30.5083 79:28.5701 80:26.6693 81:24.9166 82:23.9057 83:23.5896 84:23.9363 85:24.0202 86:24.7066 87:24.7992 88:25.4755 89:26.3248 90:27.331 91:27.9814 92:29.3077 93:30.3795 94:31.6683 95:33.1488 96:34.7968 97:35.0927 98:35.0071 99:34.5365 100:34.1833 101:33.8803 102:34.0806 103:34.6335 104:34.3579 105:33.7779 106:33.8077 107:33.5622 108:33.5111 109:33.2716 110:33.9558 111:33.7402 112:33.7192 113:33.451 114:33.331 115:33.3607 116:33.5397 117:33.8657 118:34.3345 119:34.4455 120:34.6814 121:35.0357 122:36.0069 123:36.0901 124:36.7789 125:37.5698 126:38.9421 127:39.4269 128:38.5863 129:37.429 130:36.1189 131:34.9496 132:33.3838 133:32.8708 134:31.9791 135:30.4911 136:29.0086 137:28.5443 138:26.736 139:25.0052 140:23.0491 141:20.8007 142:18.5664 143:16.5156 144:15.7108 145:15.1951 146:15.442 147:16.3839 148:16.7153 149:18.0383 150:19.4772 151:21.0082 152:22.6127 153:24.2759 154:25.9868 155:28.219 156:29.7481 157:31.3256 158:33.1555 159:35.0041 160:36.8684 161:38.7463 162:40.6359 163:42.5356 164:44.444 165:46.2264 166:47.6745 167:49.2426 168:47.6762 169:45.2135 170:43.2465 171:41.2827 172:39.3225 173:37.3666 174:35.4156 175:33.4703 176:31.4107 177:29.3473 178:27.4092 179:25.4808 180:23.4226 181:21.3605 182:19.043 183:17.19 184:17.0147 185:18.5664 186:20.6565 187:22.6992 188:24.7524 189:26.8003 190:28.9354 191:30.9946 192:33.146 193:35.3079 194:37.3666 195:39.5381 196:41.7165 197:43.7794 198:45.9633 199:48.0236 200:50.345 
0 0 0.006382779577593973 0 0 0 0 0 0.03714538815568511 0 1:69.7209 2:68.0345 3:65.4517 4:62.394 5:59.2729 6:56.1956 7:53.1284 8:50.0899 9:47.0599 10:44.0225 11:41.004 12:38.0132 13:35.5355 14:33.0606 15:30.1229 16:27.1663 17:24.3492 18:25.0062 19:28.1612 20:31.0491 21:34.2059 22:37.1914 23:40.2622 24:42.688 25:45.1224 26:48.0524 27:50.9904 28:54.0638 29:57.0703 30:60.0168 31:63.0891 32:66.0986 33:68.9691 34:69.5383 35:67.6703 36:65.2537 37:62.6423 38:59.7751 39:56.9216 40:54.084 41:51.3869 42:48.8477 43:46.0989 44:43.3835 45:40.708 46:39.0169 47:36.8944 48:34.0269 49:31.4045 50:29.0738 51:27.1212 52:27.4131 53:30.8064 54:33.9453 55:36.6277 56:39.3815 57:41.7193 58:43.867 59:46.5352 60:49.4657 61:52.216 62:55.2012 63:58.2051 64:60.6087 65:59.668 66:57.3872 67:55.1753 68:53.3889 69:51.6659 70:49.6829 71:47.015 72:44.6801 73:42.7256 74:40.3175 75:38.6147 76:36.4666 77:34.7937 78:32.9944 79:32.473 80:32.1506 81:32.0104 82:32.1506 83:32.5675 84:33.2508 85:34.1846 86:35.3489 87:36.1472 88:37.4494 89:39.2099 90:40.7847 91:42.4542 92:43.867 93:46.1008 94:48.012 95:50.2217 96:51.6358 97:51.3026 98:52.5324 99:54.6632 100:56.4674 101:56.7727 102:55.538 103:53.1306 104:50.3246 105:47.3008 106:45.7126 107:44.621 108:44.3862 109:45.0185 110:44.5215 111:44.2328 112:44.1546 113:44.3045 114:44.2938 115:44.1771 116:44.3003 117:44.9497 118:46.0826 119:46.6146 120:47.3955 121:47.9534 122:48.8073 123:50.1176 124:51.5394 125:53.3983 126:55.6119 127:57.5179 128:59.6959 129:61.8862 130:64.3807 131:65.7391 132:64.136 133:61.0002 134:58.0519 135:55.5991 136:53.2963 137:50.5324 138:47.898 139:45.4377 140:42.9645 141:40.8657 142:38.795 143:36.5435 144:34.0269 145:31.0028 146:27.9018 147:25.248 148:22.8366 149:20.6293 150:18.6981 151:18.1289 152:18.0462 153:18.4563 154:19.3282 155:21.1833 156:23.5797 157:26.1039 158:28.687 159:32.1444 160:35.1412 161:38.1881 162:41.2659 163:44.3757 164:47.727 165:50.8742 166:53.8286 167:56.8053 168:59.3002 169:61.6135 170:64.0719 171:66.3985 172:65.0006 173:61.0668 174:57.4702 175:54.0385 176:50.6073 177:47.0117 178:43.5793 179:40.5036 180:37.7512 181:34.3194 182:30.8894 183:27.6192 184:24.0086 185:22.8021 186:25.001 187:28.258 188:31.4195 189:34.4827 190:36.8818 191:39.381 192:42.4505 193:45.4371 194:48.5082 195:51.6628 196:54.5714 197:57.4894 198:60.4155 199:63.3485 200:66.1625 
0 0 0 0 0 0 0.5750187647810686 0 0 0 1:50.2892 2:49.176 3:47.2893 4:45.2392 5:43.1889 6:41.141 7:39.0932 8:37.0484 9:35.0041 10:33.1555 11:30.9239 12:29.0911 13:26.8569 14:25.0459 15:23.266 16:21.0311 17:19.2955 18:17.0681 19:15.4057 20:15.2112 21:16.9853 22:19.0919 23:21.5725 24:23.7142 25:25.872 26:28.042 27:30.2217 28:32.1015 29:34.0049 30:36.2123 31:38.4231 32:40.079 33:42.5737 34:44.938 35:46.1022 36:45.8405 37:44.3098 38:42.8178 39:40.6739 40:38.8909 41:36.7764 42:34.6771 43:32.596 44:30.9257 45:28.9034 46:27.3225 47:25.8153 48:24.3832 49:22.5956 50:20.432 51:19.3032 52:18.3437 53:19.565 54:21.5233 55:23.6368 56:25.8972 57:28.2602 58:30.7021 59:32.9031 60:34.476 61:36.1189 62:38.7371 63:41.1739 64:43.4084 65:44.198 66:43.4911 67:41.9104 68:39.9448 69:37.2646 70:34.9381 71:33.1888 72:31.5393 73:29.5086 74:28.6146 75:26.8855 76:25.8357 77:25.4651 78:25.2875 79:25.3069 80:25.5229 81:25.9307 82:27.2467 83:27.9529 84:28.8158 85:29.8217 86:31.2246 87:32.4493 88:33.5603 89:34.827 90:36.3717 91:37.721 92:37.7557 93:37.4098 94:37.1685 95:37.0338 96:36.5069 97:35.5919 98:34.7968 99:34.1298 100:32.6324 101:32.7334 102:33.4285 103:34.2265 104:35.1204 105:35.2481 106:35.5164 107:35.5386 108:35.3695 109:35.426 110:35.707 111:36.2074 112:36.0411 113:35.5591 114:35.6576 115:34.9496 116:34.8264 117:35.3108 118:35.9281 119:36.6715 120:37.5336 121:38.5064 122:39.5818 123:40.7516 124:41.515 125:41.3866 126:39.9109 127:37.8453 128:35.7858 129:33.3563 130:30.9946 131:29.2147 132:29.0431 133:28.0089 134:27.1201 135:25.837 136:24.6758 137:22.9408 138:21.0351 139:19.043 140:17.6828 141:16.5147 142:16.0779 143:16.3856 144:16.4593 145:16.7765 146:17.7603 147:18.1218 148:19.452 149:20.8893 150:22.4131 151:24.007 152:25.6578 153:27.3554 154:29.0914 155:30.8594 156:32.6542 157:34.4716 158:36.3082 159:37.8058 160:39.6898 161:41.5845 162:43.3461 163:44.9986 164:45.9944 165:45.6234 166:43.9119 167:41.9316 168:39.9532 169:37.9771 170:36.0036 171:34.0332 172:32.0665 173:30.1042 174:28.1471 175:26.1966 176:24.2542 177:22.1953 178:20.1312 179:18.2008 180:16.2872 181:13.9509 182:13.0957 183:14.5 184:16.5147 185:18.527 186:20.56 187:22.5888 188:24.6313 189:26.6693 190:28.7174 191:30.7612 192:32.8825 193:34.9381 194:36.99 195:39.1313 196:41.1006 197:43.2465 198:45.3063 199:47.4621 200:49.3608 
0.07398649672982002 0 0.005688882133207803 0.1227846448896042 0.07156284502300311 0 1 1 0.2855029839858076 0.06991646772920788 1:72.3395 2:70.5367 3:67.7423 4:64.7767 5:61.711 6:58.6943 7:55.7317 8:52.7185 9:49.6489 10:46.6907 11:43.7381 12:40.7925 13:37.8554 14:34.929 15:32.0163 16:29.0321 17:25.9624 18:23.0881 19:19.9264 20:17.0904 21:14.6578 22:15.5671 23:19.105 24:23.1062 25:26.4049 26:29.7322 27:33.0836 28:36.6632 29:40.0356 30:43.2109 31:46.8064 32:50.2014 33:53.2056 34:56.4196 35:59.6424 36:62.8689 37:66.8509 38:70.4885 39:71.7491 40:71.3759 41:68.8194 42:65.5328 43:62.4625 44:59.6565 45:56.3936 46:53.4034 47:50.4519 48:47.539 49:44.6801 50:41.6053 51:39.1625 52:36.2369 53:33.1082 54:30.0868 55:26.8927 56:24.5283 57:24.43 58:27.0121 59:30.0167 60:33.0049 61:36.5605 62:40.1698 63:43.3735 64:46.5822 65:49.824 66:53.1545 67:56.5939 68:60.0794 69:63.6027 70:66.9541 71:70.2144 72:72.7132 73:73.0112 74:72.0437 75:68.8873 76:65.4943 77:62.2303 78:59.0956 79:56.0177 80:53.0063 81:49.5843 82:46.2797 83:43.5175 84:40.9327 85:38.6139 86:37.3981 87:37.4293 88:38.03 89:38.8794 90:40.2151 91:41.4957 92:42.7496 93:44.0093 94:45.3112 95:46.6946 96:48.3443 97:49.9909 98:50.6484 99:50.2258 100:49.6553 101:48.2233 102:48.0174 103:47.0496 104:47.2722 105:47.6828 106:47.6295 107:48.0896 108:48.1101 109:48.6445 110:49.3622 111:49.6885 112:50.2324 113:50.4611 114:51.1817 115:52.1236 116:53.2759 117:53.8358 118:55.0583 119:56.5158 120:58.4637 121:61.0113 122:63.4632 123:65.7106 124:67.9189 125:70.4125 126:72.1817 127:72.1159 128:69.1851 129:66.0855 130:63.1087 131:60.239 132:57.3912 133:54.6941 134:52.1818 135:49.7394 136:47.6542 137:45.5701 138:43.2436 139:40.5523 140:37.432 141:33.5603 142:29.3728 143:26.315 144:25.0123 145:24.3444 146:25.0333 147:25.0931 148:26.4885 149:29.1258 150:31.6466 151:34.3238 152:36.5341 153:39.1625 154:41.8863 155:44.6801 156:47.539 157:50.1923 158:52.9017 159:55.6588 160:57.9856 161:61.0215 162:63.7831 163:64.8253 164:65.1916 165:62.6898 166:59.1847 167:56.1203 168:53.0675 169:50.2217 170:47.2042 171:44.2069 172:41.0225 173:37.8575 174:34.2762 175:30.9225 176:27.8188 177:24.52 178:21.2604 179:17.2491 180:14.8784 181:15.1435 182:18.0298 183:20.8819 184:23.7706 185:26.684 186:29.6146 187:32.558 188:35.5108 189:38.471 190:41.3936 191:44.2833 192:47.2653 193:50.2201 194:53.1508 195:56.1427 196:59.0963 197:62.0726 198:65.0438 199:68.0124 200:71.0326 
0 0 0 0 0 0 1 0 0 0 1:57.8705 2:56.682 3:54.8294 4:52.3931 5:49.9626 6:47.4574 7:44.8694 8:42.4505 9:39.9077 10:37.3637 11:34.961 12:33.0496 13:30.6769 14:28.3246 15:25.8747 16:23.3085 17:21.0267 18:18.7965 19:16.6492 20:15.9497 21:18.6601 22:21.0082 23:22.9022 24:25.4263 25:27.8805 26:30.7055 27:33.1861 28:35.8492 29:38.5138 30:40.8635 31:43.3855 32:45.3933 33:47.8553 34:50.7597 35:53.5326 36:54.4558 37:53.9052 38:52.0224 39:49.4088 40:47.4062 41:45.0317 42:42.5735 43:40.7352 44:38.4388 45:36.0624 46:33.9759 47:31.5657 48:29.7371 49:27.7385 50:25.5635 51:23.483 52:22.194 53:21.2191 54:22.853 55:25.3751 56:27.288 57:29.7357 58:32.132 59:34.931 60:37.7949 61:39.591 62:41.9688 63:44.6814 64:47.708 65:50.8952 66:52.8307 67:52.597 68:51.1347 69:49.4516 70:47.235 71:45.2392 72:43.168 73:41.1693 74:39.429 75:36.8328 76:34.68 77:33.0246 78:31.54 79:30.608 80:30.2135 81:30.0599 82:30.2732 83:30.1902 84:30.5366 85:31.9126 86:32.6556 87:33.5913 88:34.5039 89:36.0048 90:37.2663 91:39.0169 92:40.0369 93:41.2449 94:41.7481 95:41.4924 96:41.3842 97:40.1249 98:39.1599 99:39.0214 100:38.5327 101:38.2186 102:39.541 103:39.9185 104:40.5292 105:40.8033 106:41.5485 107:42.2664 108:43.135 109:42.5791 110:43.0767 111:43.605 112:43.852 113:43.9469 114:43.5085 115:43.554 116:44.1017 117:45.7714 118:47.4688 119:49.2809 120:51.2338 121:52.8289 122:54.58 123:55.9955 124:55.254 125:53.7838 126:51.1567 127:48.6647 128:46.1736 129:43.7356 130:41.3493 131:39.0491 132:37.2673 133:35.4546 134:33.8957 135:32.2209 136:31.2246 137:28.8453 138:25.8153 139:23.418 140:21.7362 141:19.6183 142:18.3437 143:18.0693 144:19.0438 145:19.3259 146:19.9401 147:20.8197 148:22.8366 149:24.1334 150:25.877 151:27.9891 152:29.7069 153:31.8327 154:34.0074 155:36.239 156:38.2013 157:40.4166 158:42.8524 159:44.9465 160:47.0778 161:49.0889 162:50.9833 163:52.3478 164:53.2411 165:52.5033 166:50.4927 167:47.7557 168:45.2224 169:42.6919 170:40.163 171:37.8058 172:35.9344 173:33.2428 174:30.9239 175:28.233 176:25.7403 177:23.1191 178:20.5742 179:18.0413 180:15.4447 181:12.7162 182:13.8297 183:15.7108 184:18.111 185:20.5974 186:23.0869 187:25.5783 188:28.0714 189:30.5655 190:33.0152 191:35.5141 192:37.5 193:40 194:42.5118 195:45.0111 196:47.5105 197:50.04 198:52.5616 199:55.1504 200:57.3716 
0 0 0 0 0 0 0.08674267619135162 0.1485510798411332 0 0 1:70.859 2:69.5432 3:67.2683 4:64.3275 5:61.612 6:58.6944 7:56.2696 8:54.1207 9:51.2451 10:48.3845 11:45.8812 12:43.5463 13:41.2323 14:38.4853 15:35.7789 16:33.1233 17:30.9567 18:28.848 19:27.927 20:29.9371 21:33.9411 22:36.7764 23:39.8524 24:42.9635 25:46.1008 26:49.253 27:51.9279 28:54.4075 29:57.4007 30:60.4111 31:63.8203 32:67.3091 33:68.4201 34:66.7104 35:64.2225 36:61.5574 37:59.4012 38:57.0429 39:54.4918 40:51.7434 41:49.3012 42:46.405 43:44.1182 44:41.8863 45:39.1625 46:36.5341 47:34.6284 48:34.0069 49:33.2508 50:33.5506 51:33.8108 52:34.0098 53:34.5936 54:35.3646 55:36.5598 56:37.6512 57:38.6339 58:39.6037 59:40.7127 60:42.1958 61:43.8343 62:45.6116 63:47.1847 64:48.8402 65:50.4501 66:51.1011 67:52.4069 68:54.234 69:55.7698 70:56.8351 71:56.9762 72:56.0854 73:54.2538 74:51.5488 75:49.0908 76:48.0587 77:46.8651 78:46.2223 79:46.0507 80:46.0181 81:46.1807 82:45.5483 83:45.4558 84:45.7436 85:45.2358 86:45.0919 87:45.4821 88:45.7983 89:45.9237 90:46.2419 91:46.7047 92:47.4376 93:48.4285 94:49.5276 95:50.9585 96:52.6819 97:54.5728 98:56.4725 99:56.9466 100:58.5324 101:60.885 102:60.8657 103:57.7101 104:55.1618 105:52.8343 106:50.1513 107:47.6291 108:45.2334 109:43.3695 110:41.7732 111:39.5184 112:37.3954 113:35.4278 114:33.2015 115:30.6107 116:26.9376 117:24.1388 118:22.3726 119:21.3651 120:20.6307 121:20.7809 122:22.3698 123:23.6851 124:25.9677 125:28.6264 126:31.3878 127:34.4404 128:37.5913 129:41.106 130:43.4111 131:46.3213 132:49.4068 133:52.5385 134:55.7041 135:58.1937 136:60.709 137:63.7053 138:66.2487 139:66.5382 140:65.2419 141:61.7172 142:58.1378 143:54.7832 144:50.9902 145:48.13 146:44.8242 147:41.0366 148:37.0254 149:33.2416 150:29.7069 151:26.9073 152:24.2159 153:24.3668 154:26.8353 155:29.5178 156:32.2044 157:35.4846 158:38.4853 159:41.6307 160:44.3203 161:46.7457 162:49.8982 163:52.9254 164:56.0811 165:58.9929 166:61.5653 167:63.9068 168:66.6252 169:68.6879 170:67.1034 171:64.3944 172:61.7673 173:58.6163 174:55.4666 175:52.245 176:49.6251 177:46.9385 178:43.7381 179:40.6081 180:37.4836 181:34.8605 182:32.2942 183:29.1935 184:26.0311 185:25.4241 186:27.8688 187:30.4141 188:33.5413 189:36.4968 190:39.5125 191:42.0863 192:44.5535 193:47.5186 194:50.4877 195:53.4604 196:55.9397 197:58.421 198:61.3656 199:64.2807 200:67.3686 
0 0 0 0 0 0 0.3803106109260545 0 0 0 1:55.0091 2:54.3963 3:53.4258 4:51.7332 5:49.5108 6:47.2898 7:45.0702 8:42.5737 9:40.3549 10:38.1381 11:35.4189 12:32.9015 13:30.7003 14:28.8158 15:26.6337 16:24.7891 17:22.9863 18:20.8657 19:18.772 20:17.5046 21:18.0566 22:20.7978 23:23.5061 24:26.2398 25:28.9918 26:31.4853 27:33.9783 28:36.7494 29:38.7106 30:41.5032 31:44.6039 32:47.0248 33:48.1282 34:48.6255 35:47.6492 36:46.7381 37:44.526 38:41.8876 39:39.2757 40:36.8684 41:34.4751 42:31.6642 43:29.7235 44:27.8688 45:25.6262 46:24.51 47:24.052 48:25.7426 49:27.951 50:29.77 51:32.1152 52:34.5579 53:36.5137 54:38.513 55:40.5062 56:42.5058 57:44.5279 58:46.543 59:48.5927 60:50.589 61:52.3781 62:53.0047 63:51.5633 64:49.6614 65:47.7625 66:45.8939 67:43.9866 68:42.0863 69:40.3021 70:38.5651 71:36.4996 72:34.6451 73:33.1555 74:31.9836 75:32.0776 76:31.5117 77:31.953 78:32.5423 79:32.6036 80:32.9088 81:33.9669 82:35.1134 83:36.1237 84:37.3215 85:37.2355 86:36.7762 87:36.9164 88:37.1685 89:36.0347 90:35.0071 91:35.1378 92:35.433 93:34.8208 94:34.8264 95:34.9496 96:35.6576 97:36.4617 98:36.4752 99:37.4758 100:37.7282 101:37.9112 102:38.1969 103:38.5793 104:39.1279 105:40.1122 106:40.6568 107:40.5088 108:40.4839 109:40.5823 110:40.3295 111:41.4971 112:43.4426 113:45.2135 114:46.9555 115:48.213 116:49.5659 117:51.0049 118:52.024 119:53.1178 120:52.7902 121:51.6321 122:49.4251 123:47.5632 124:45.5044 125:43.4426 126:41.2827 127:39.047 128:36.9144 129:34.68 130:33.537 131:31.6934 132:30.2076 133:29.0318 134:27.5478 135:25.6244 136:23.4226 137:21.4823 138:19.6644 139:18.0139 140:17.5725 141:17.4823 142:17.746 143:18.1231 144:18.7345 145:19.5294 146:20.8657 147:22.3016 148:23.8191 149:25.4035 150:27.0431 151:29.1578 152:31.3258 153:32.6542 154:34.4716 155:36.3082 156:38.1613 157:40.0285 158:41.7481 159:43.4888 160:45.125 161:47.2246 162:48.7493 163:49.4317 164:48.7104 165:46.5695 166:44.5449 167:42.547 168:40.5494 169:38.5519 170:36.5894 171:34.1322 172:31.6426 173:29.6522 174:27.6632 175:25.6759 176:23.6908 177:21.7084 178:19.7296 179:17.7555 180:15.7879 181:13.0602 182:13.5903 183:15.7879 184:17.9517 185:20.016 186:22.074 187:24.2542 188:26.3179 189:28.5065 190:30.5658 191:33.4293 192:36.2115 193:38.4223 194:40.6359 195:42.6919 196:44.9065 197:47.2893 198:49.6849 199:51.8118 200:53.5113 
0 0 0 0 0 0 0.7095580269031121 0 0 0 1:56.0803 2:55.2896 3:53.6777 4:51.8777 5:49.6417 6:47.1079 7:44.2753 8:42.0393 9:40.0318 10:37.7961 11:35.1969 12:32.685 13:30.4518 14:28.4698 15:26.0805 16:23.4377 17:21.5061 18:19.6047 19:17.4169 20:15.8186 21:17.1029 22:19.9125 23:21.9659 24:24.052 25:27.1089 26:30.0561 27:32.5346 28:35.0195 29:37.9851 30:40.7352 31:42.8994 32:45.0705 33:47.5658 34:50.0791 35:51.643 36:51.2775 37:49.9138 38:48.5942 39:45.9704 40:43.503 41:41.1024 42:38.7106 43:36.3365 44:33.8738 45:31.568 46:29.7413 47:27.9743 48:25.952 49:23.4226 50:21.9693 51:20.6565 52:20.5125 53:23.0642 54:25.5196 55:27.5089 56:29.6093 57:32.2942 58:34.9381 59:37.0765 60:39.429 61:41.8405 62:44.9255 63:47.7557 64:49.8124 65:51.3116 66:51.3078 67:49.4973 68:46.954 69:44.7292 70:42.5761 71:40.0204 72:37.5336 73:35.6763 74:33.8056 75:32.1691 76:30.3816 77:28.8952 78:28.861 79:28.9996 80:28.9034 81:29.7383 82:30.7793 83:31.3208 84:32.3262 85:33.4574 86:34.6834 87:36.1237 88:37.4737 89:38.9471 90:40.1483 91:40.3794 92:40.1559 93:40.0312 94:40.0062 95:38.4598 96:37.4098 97:36.7762 98:36.2696 99:37.6368 100:38.8132 101:39.6037 102:40.0369 103:40.1369 104:40.7834 105:41.3158 106:41.0731 107:41.0244 108:41.2471 109:41.749 110:41.5087 111:41.3879 112:40.9323 113:39.9321 114:39.5335 115:40.3916 116:41.3866 117:42.6672 118:43.9604 119:45.5717 120:46.5054 121:47.0266 122:47.8418 123:46.9555 124:45.3083 125:43.4426 126:41.3842 127:38.6449 128:35.7867 129:34.1833 130:32.5381 131:31.5081 132:30.8249 133:30.014 134:29.4767 135:27.9871 136:25.6365 137:23.9057 138:21.9693 139:20.6565 140:19.5125 141:18.7932 142:18.5603 143:19.1434 144:19.9112 145:19.9858 146:21.4108 147:22.6495 148:23.7142 149:25.226 150:27.2072 151:29.263 152:30.7078 153:32.2072 154:33.9897 155:36.2507 156:38.1613 157:40.0285 158:41.908 159:43.6451 160:45.7006 161:47.7835 162:49.4251 163:50.5618 164:50.2559 165:48.5927 166:46.5695 167:44.5733 168:42.6058 169:40.1124 170:37.7128 171:35.7247 172:33.8712 173:31.8945 174:29.4282 175:26.9677 176:25.0052 177:23.0491 178:20.6165 179:18.2008 180:16.2872 181:13.9509 182:13.0957 183:15 184:17.5286 185:19.563 186:21.5929 187:23.6908 188:26.26 189:28.8561 190:30.9072 191:33.0493 192:35.7615 193:38.4531 194:40.628 195:42.688 196:44.8694 197:47.6256 198:50.345 199:52.8262 200:54.8678 
0.01568885687437545 0.3312114464472196 0.1519096859226465 0.385701392182676 0 0.1722833215517756 0 0.05841294966733396 0 0.02510719535331329 1:76.2955 2:75.3894 3:73.2464 4:70.3423 5:67.2721 6:64.2888 7:61.3095 8:58.2413 9:55.3629 10:52.299 11:49.3362 12:46.4873 13:43.6587 14:40.7329 15:37.6974 16:34.797 17:31.7823 18:28.2915 19:25.063 20:22.8497 21:22.6798 22:25.2233 23:28.7728 24:32.3347 25:35.6865 26:39.2665 27:42.4286 28:46.0201 29:49.4083 30:52.6008 31:55.6073 32:59.0156 33:62.2348 34:65.6493 35:70.3319 36:74.9442 37:76.4849 38:75.9294 39:73.6634 40:70.7694 41:68.1289 42:65.2908 43:62.0019 44:58.9738 45:56.225 46:53.0088 47:50.345 48:47.4725 49:44.3808 50:41.9089 51:38.2765 52:34.7434 53:31.6988 54:29.1011 55:28.9751 56:31.2572 57:34.2346 58:37.2951 59:40.5533 60:43.866 61:47.1474 62:50.6116 63:54.1231 64:57.5699 65:61.3535 66:64.9603 67:68.5894 68:72.3354 69:74.964 70:74.6518 71:72.535 72:69.8596 73:66.2904 74:62.8049 75:59.4552 76:56.2276 77:53.0435 78:50.0034 79:47.0606 80:44.2501 81:41.5425 82:39.3857 83:38.591 84:38.3963 85:39.1656 86:39.9493 87:40.8811 88:42.0307 89:43.3807 90:44.9131 91:46.0088 92:47.1833 93:48.7773 94:50.7116 95:52.5653 96:54.4155 97:56.1982 98:57.8783 99:60.4137 100:62.1342 101:61.0122 102:58.0634 103:55.8973 104:55.5846 105:55.1148 106:54.5031 107:54.7138 108:54.7867 109:54.7414 110:54.8904 111:54.6682 112:54.4178 113:53.9196 114:53.7525 115:53.6618 116:53.6125 117:54.1044 118:54.3687 119:54.6366 120:55.057 121:56.3297 122:58.4718 123:60.1765 124:61.407 125:63.1328 126:64.6796 127:66.0353 128:64.8652 129:62.5207 130:59.9594 131:57.0703 132:53.8755 133:50.5857 134:47.2708 135:44.2889 136:42.3887 137:40.3216 138:38.845 139:36.7022 140:34.1772 141:31.2596 142:27.5183 143:25.0718 144:23.209 145:23.0145 146:23.209 147:23.7829 148:24.7099 149:26.5409 150:28.8738 151:31.715 152:34.5727 153:36.8016 154:39.6022 155:41.7768 156:44.6909 157:47.0133 158:49.8013 159:52.433 160:54.9199 161:57.4559 162:60.0347 163:62.4957 164:64.702 165:66.3185 166:67.3865 167:67.0567 168:63.8077 169:60.1668 170:57.1885 171:54.1207 172:51.2451 173:48.2823 174:45.2224 175:42.2711 176:39.1089 177:36.0565 178:32.8949 179:29.7334 180:26.5721 181:23.5266 182:20.2538 183:20.2845 184:23.1951 185:26.6696 186:30.1497 187:33.0865 188:36.0555 189:39.0128 190:42.0119 191:45 192:48.0034 193:51.0098 194:54.037 195:57.064 196:60.075 197:63.1269 198:66.1661 199:69.2912 200:72.5638 
0 0 0 0 0 0 0.0355191311078469 0 0 0 1:56.8595 2:55.9133 3:54.1138 4:51.8777 5:49.6417 6:47.6293 7:44.8719 8:42.0393 9:39.8033 10:37.7961 11:35.5604 12:33.3248 13:30.7271 14:28.219 15:25.9868 16:24.011 17:21.5248 18:18.6946 19:16.2274 20:14.933 21:15.2433 22:16.8029 23:18.7221 24:22.2044 25:25.11 26:27.9018 27:30.7003 28:33.5039 29:36.7552 30:39.7556 31:42.5735 32:45.3928 33:47.4605 34:50.2842 35:53.5929 36:55.6988 37:55.9143 38:53.9018 39:51.5025 40:48.8266 41:45.7649 42:43.4111 43:40.6513 44:38.7625 45:36.4752 46:33.543 47:30.2086 48:28.5058 49:25.9344 50:23.4226 51:20.6241 52:18.6731 53:18.5139 54:19.563 55:21.6493 56:23.7629 57:26.2189 58:28.6575 59:30.607 60:32.5615 61:34.5365 62:36.5137 63:39 64:41.512 65:43.546 66:45.5988 67:47.6681 68:50.219 69:52.7376 70:54.1895 71:52.5616 72:50.5049 73:48.5052 74:46.0328 75:43.6033 76:41.6924 77:39.8152 78:37.9054 79:35.6343 80:33.3596 81:31.6683 82:29.8877 83:28.3246 84:26.8569 85:25.8576 86:25.7097 87:26.2107 88:26.5399 89:27.1107 90:28.3243 91:29.7481 92:30.7396 93:31.9514 94:32.8708 95:33.9534 96:35.4706 97:36.5069 98:37.0338 99:36.1732 100:36.4211 101:35.9115 102:35.5876 103:35.2912 104:35.1348 105:35.1204 106:34.8278 107:34.4809 108:35.0484 109:35.3695 110:35.5386 111:35.9303 112:36.1031 113:35.7845 114:36.1237 115:36.3717 116:37.2355 117:37.2673 118:37.3451 119:38.0854 120:38.0066 121:39.032 122:39.6574 123:40.3794 124:41.7809 125:42.8092 126:43.8233 127:43.0222 128:41.8919 129:39.9321 130:38.1113 131:36.5442 132:35.5336 133:34.6192 134:33.3091 135:32.0728 136:30.5083 137:29.6107 138:27.7275 139:25.8119 140:23.2933 141:20.56 142:18.5131 143:17.0733 144:15.9015 145:15.9834 146:17.0153 147:17.5046 148:18.772 149:20.1586 150:21.6415 151:23.8015 152:26.217 153:27.8805 154:29.5857 155:31.3258 156:33.0953 157:35.3429 158:37.6203 159:39.4625 160:41.3193 161:43.0222 162:44.7468 163:47.0343 164:48.876 165:49.9148 166:48.169 167:46.198 168:43.7381 169:41.2827 170:39.5381 171:37.5934 172:35.6548 173:33.7234 174:31.0491 175:28.6403 176:26.7259 177:24.8249 178:22.7727 179:20.2504 180:17.5579 181:15.1858 182:14.23 183:14.0178 184:15.5789 185:18.2003 186:20.8868 187:22.9489 188:25.0052 189:27.171 190:29.9143 191:32.6286 192:34.8227 193:37.0218 194:39.2251 195:41.4319 196:44.1684 197:46.9604 198:49.176 199:51.5615 200:54.1348 
0 0 0 0 0 0 1 0.5845608566165297 0 0 1:74.2159 2:72.7132 3:69.9218 4:67.0527 5:63.891 6:60.8291 7:57.6673 8:54.5055 9:51.5467 10:48.3845 11:45.4332 12:42.3801 13:39.5611 14:36.4017 15:33.4888 16:30.4648 17:27.315 18:24.1685 19:21.0267 20:18.3619 21:16.6913 22:17.9224 23:21.2604 24:25.4952 25:29.2445 26:33.2415 27:36.7696 28:40.3113 29:44.0932 30:47.877 31:51.438 32:54.7832 33:58.1378 34:61.5022 35:65.2994 36:69.527 37:72.2521 38:72.8446 39:71.4518 40:68.9293 41:65.6957 42:62.7397 43:59.5563 44:56.4006 45:53.0098 46:49.9266 47:46.6085 48:43.6239 49:40.4154 50:37.5786 51:34.5428 52:30.6799 53:27.5787 54:24.671 55:23.3695 56:25.0592 57:28.1604 58:31.1449 59:34.0445 60:37.0091 61:40.0082 62:43.0346 63:46.1225 64:49.2234 65:52.3857 66:55.6289 67:58.9143 68:62.1066 69:65.3749 70:68.4473 71:71.2033 72:71.7053 73:70.0217 74:67.1237 75:64.0361 76:61.0028 77:58.026 78:55.1033 79:52.2474 80:49.4546 81:46.7525 82:44.0775 83:41.5798 84:39.1141 85:37.1774 86:36.1472 87:36.3586 88:37.1428 89:38.1881 90:39.4907 91:41.0099 92:42.5491 93:44.1441 94:45.7072 95:47.4454 96:49.7394 97:51.6516 98:52.1459 99:52.16 100:51.3494 101:50.713 102:49.925 103:49.3276 104:49.2507 105:49.047 106:49.0468 107:48.9485 108:49.3622 109:49.4091 110:49.1455 111:49.4327 112:49.5109 113:49.6923 114:50.2324 115:51.4563 116:52.7845 117:53.0121 118:53.4628 119:54.448 120:56.3023 121:58.7015 122:61.3009 123:63.4098 124:66.0051 125:67.7378 126:67.9375 127:65.6266 128:62.8014 129:59.7347 130:56.4403 131:53.2404 132:50.3794 133:48.3507 134:46.182 135:44.5631 136:42.1288 137:39.6597 138:36.7901 139:33.527 140:30.0886 141:26.4843 142:23.7639 143:23.0362 144:23.3591 145:24.0543 146:25.091 147:26.4293 148:29.1263 149:31.6696 150:34.3162 151:36.8016 152:39.3643 153:41.7768 154:44.6909 155:47.2177 156:50.0024 157:52.433 158:55.1014 159:57.9844 160:60.5407 161:62.651 162:65.1513 163:66.717 164:66.4874 165:63.6802 166:60.5186 167:57.5854 168:54.7822 169:51.7478 170:48.8477 171:45.9619 172:42.9548 173:39.8136 174:36.676 175:33.6921 176:30.5694 177:27.6192 178:24.7019 179:21.4513 180:18.3714 181:17.1051 182:18.316 183:21.1365 184:24.0833 185:27.0562 186:30.0167 187:33.0103 188:36 189:39.0128 190:42.0354 191:45.081 192:48.1174 193:51.1567 194:54.231 195:57.315 196:60.407 197:63.506 198:66.6577 199:69.8746 200:73.0249 
0.2207964159515516 0.2350197176789192 0 0 0.1078707411911299 0 0 0.03604204660591798 0 0 1:74.7329 2:73.898 3:72.0316 4:69.2608 5:66.5175 6:63.9068 7:61.099 8:57.8483 9:55.0374 10:52.3271 11:49.6502 12:47.0123 13:44.9465 14:42.0316 15:39.2078 16:36.882 17:33.9751 18:31.8331 19:29.8395 20:27.7509 21:28.0361 22:30.5967 23:33.8441 24:37.0098 25:40.2496 26:43.9656 27:47.4725 28:50.0828 29:53.0088 30:56.225 31:59.2192 32:63.1302 33:67.897 34:71.9088 35:74.3324 36:75.035 37:73.4126 38:70.915 39:67.9534 40:65.4753 41:62.4849 42:60.1254 43:57.5449 44:54.3802 45:51.3175 46:48.7058 47:46.2049 48:43.8285 49:41.9284 50:40.4164 51:40.0083 52:40.7847 53:41.4446 54:42.6336 55:43.6877 56:45.7204 57:47.0166 58:48.3066 59:49.7443 60:51.042 61:52.2057 62:53.9799 63:55.4217 64:56.598 65:56.8623 66:56.8912 67:57.9844 68:60.7358 69:62.1787 70:62.4645 71:60.1672 72:56.9635 73:55.6651 74:55.6725 75:54.924 76:54.4578 77:54.4869 78:55.0151 79:55.0424 80:54.789 81:54.4231 82:54.3473 83:54.448 84:54.4053 85:54.2362 86:55.2445 87:55.8655 88:56.0323 89:56.1421 90:56.9876 91:58.003 92:59.9573 93:61.9396 94:63.6225 95:65.2168 96:66.9411 97:68.4354 98:69.33 99:67.1205 100:63.16 101:59.3619 102:56.0811 103:53.3114 104:50.5679 105:48.0976 106:45.9756 107:44.2206 108:42.4362 109:41.0404 110:39.6277 111:37.1385 112:33.4255 113:30.7007 114:27.8188 115:25.5024 116:24.979 117:25.5468 118:26.2979 119:28.3393 120:31.0766 121:34.0239 122:37.2226 123:40.1188 124:43.1783 125:46.8435 126:50.2845 127:53.4904 128:56.7727 129:60.1763 130:63.0676 131:65.3721 132:66.6105 133:66.0401 134:65.4471 135:63.2423 136:58.7963 137:55.0659 138:51.0882 139:47.6342 140:43.4168 141:38.5038 142:34.0026 143:30.0004 144:25.8077 145:21.6345 146:18.0335 147:18.2262 148:21.9317 149:25.2757 150:28.6389 151:31.8095 152:34.8019 153:38.5682 154:42.2512 155:45.4885 156:48.7288 157:51.6254 158:54.7099 159:58.2348 160:61.7751 161:64.8857 162:67.5362 163:69.9262 164:71.7018 165:73.4681 166:72.766 167:70.4286 168:67.1866 169:63.9495 170:60.7964 171:57.119 172:53.4435 173:50.1486 174:46.9385 175:43.6795 176:40.4999 177:36.7783 178:33.1102 179:30.0666 180:27.0185 181:24 182:21.0488 183:18.8324 184:21.1913 185:24.0428 186:26.9267 187:29.9143 188:32.9854 189:36.3911 190:39.8124 191:42.7554 192:45.7058 193:48.6623 194:51.5762 195:54.9479 196:58.421 197:61.4004 198:64.3817 199:67.4797 200:70.8623 
0 0 0 0 0 0 0.120613842768314 0 0 0 1:73.3348 2:71.5291 3:68.686 4:65.7649 5:62.9684 6:60.0168 7:57.2715 8:54.3418 9:51.6628 10:48.8591 11:46.1743 12:43.4388 13:40.8545 14:38.0802 15:35.3429 16:32.6518 17:30.0194 18:27.4627 19:25.8361 20:26.8763 21:29.7322 22:33.4849 23:36.5361 24:39.8524 25:42.7418 26:45.8823 27:48.6229 28:51.6027 29:54.6032 30:57.4301 31:60.4666 32:63.6985 33:67.676 34:69.9496 35:69.0309 36:66.7104 37:64.4461 38:61.5574 39:58.9284 40:56.3462 41:53.8179 42:51.092 43:48.6787 44:46.0758 45:43.547 46:41.106 47:38.4775 48:36.2568 49:35.1225 50:34.2143 51:34.2084 52:34.8066 53:35.3427 54:36.1339 55:37.492 56:39.0593 57:40.1731 58:41.7921 59:42.9599 60:44.3003 61:45.7983 62:47.4389 63:49.2079 64:51.092 65:52.8385 66:53.088 67:53.6268 68:55.8053 69:58.0671 70:59.1798 71:59.4855 72:57.8802 73:55.1561 74:52.2072 75:51.2505 76:50.1292 77:49.8261 78:49.3726 79:49.4316 80:50.0067 81:49.4316 82:49.0427 83:48.8431 84:49.1621 85:48.7093 86:48.7847 87:49.3655 88:49.5441 89:50.219 90:50.2753 91:50.8421 92:51.8706 93:53.0783 94:54.6742 95:56.4025 96:57.8802 97:59.5154 98:61.1422 99:63.2193 100:64.6989 101:62.9701 102:59.2439 103:56.3034 104:53.4891 105:50.9539 106:48.7558 107:46.6946 108:44.7745 109:43.0142 110:41.2343 111:39.6271 112:37.4879 113:34.4661 114:30.9225 115:27.8188 116:25.5024 117:23.61 118:21.9659 119:21.5668 120:22.254 121:24.0993 122:26.0311 123:29.2829 124:32.7626 125:36.4049 126:39.2205 127:43.0837 128:46.4053 129:50.0913 130:53.2364 131:56.4366 132:59.6831 133:62.6898 134:65.7368 135:68.0106 136:68.2592 137:67.0462 138:63.7025 139:59.7125 140:56.225 141:52.4977 142:49.0409 143:44.8221 144:40.6081 145:36.4009 146:32.6012 147:28.6012 148:24.607 149:22.0288 150:21.4987 151:23.8015 152:27.0093 153:30.422 154:34.0269 155:37.258 156:40.3174 157:43.3915 158:46.6495 159:49.9081 160:53.0046 161:56.2716 162:59.3786 163:62.651 164:65.7659 165:68.7301 166:71.4097 167:73.0147 168:72.4925 169:69.1749 170:65.9002 171:62.7389 172:59.3535 173:56.0819 174:52.7053 175:49.4386 176:46.0744 177:42.8157 178:39.4697 179:36.2242 180:32.9854 181:29.7581 182:26.6124 183:23.2055 184:22.3481 185:25.145 186:28.2003 187:31.2572 188:34.2346 189:37.2157 190:40.1996 191:43.1857 192:46.1489 193:49.0918 194:52.0865 195:55.0818 196:58.0634 197:61.0328 198:64.0236 199:67.0075 200:70.0331 
0 0 0 0 0 0 0.8791690413963525 0 0 0 1:55.0273 2:54.6028 3:53.3881 4:51.5392 5:49.702 6:47.0118 7:44.3203 8:42.2914 9:40.057 10:38.0302 11:35.3429 12:32.6542 13:30.8594 14:28.6234 15:26.8572 16:24.1902 17:21.7836 18:19.5582 19:17.3355 20:15.4057 21:14.9107 22:16.2274 23:17.9252 24:20.4091 25:23.3023 26:26.505 27:28.9034 28:31.313 29:34.1248 30:37.3889 31:40.4042 32:42.4794 33:44.9376 34:47.3973 35:50.9313 36:54.4656 37:56.2705 38:57.4369 39:56.5367 40:54.7354 41:52.3117 42:49.5229 43:47.5659 44:44.1028 45:41.5034 46:39.1974 47:36.9126 48:35.1077 49:32.0904 50:29.4378 51:26.8812 52:24.3849 53:22.1953 54:21.2286 55:21.5119 56:23.5213 57:25.5783 58:27.5727 59:30.0339 60:32.5078 61:34.5 62:36.5137 63:39.0381 64:41.5482 65:43.6033 66:45.6755 67:47.7625 68:50.401 69:53.0347 70:55.1604 71:57.1386 72:58.3652 73:56.1478 74:53.5232 75:51.5049 76:49.5254 77:47.5686 78:45.1522 79:42.7931 80:40.9421 81:39.1313 82:36.8124 83:34.5669 84:32.9073 85:31.3195 86:29.619 87:28.7859 88:28.5732 89:28.9034 90:29.4005 91:30.0561 92:30.8302 93:31.7644 94:32.4493 95:33.3607 96:34.4805 97:35.5046 98:36.0949 99:36.7806 100:37.587 101:37.6756 102:37.0877 103:36.7806 104:36.5854 105:36.0206 106:36.3813 107:36.1237 108:35.5591 109:36.0411 110:36.6255 111:37.4825 112:38.3536 113:38.923 114:39.6106 115:39.7617 116:40.2404 117:41.247 118:41.3879 119:41.3877 120:41.5081 121:41.7525 122:42.812 123:43.3457 124:43.9866 125:46.1821 126:47.5265 127:48.5051 128:49.0663 129:48.213 130:46.5389 131:44.4214 132:42.4648 133:40.2077 134:37.9035 135:36.4653 136:34.5071 137:33.5376 138:31.6987 139:30.014 140:27.818 141:25.4808 142:23.5642 143:21.2279 144:18.7781 145:18.0693 146:18.0139 147:17.6867 148:17.5921 149:19.0129 150:21.2474 151:23.0746 152:24.1334 153:26.1039 154:28.1709 155:30.073 156:32.1773 157:33.6061 158:35.0907 159:37.6467 160:39.6023 161:41.2109 162:42.8524 163:43.9232 164:44.9549 165:45.5023 166:44.7713 167:42.8518 168:40.2721 169:37.8058 170:35.9344 171:34.0777 172:32.238 173:29.5484 174:27.0658 175:25.0459 176:22.81 177:20.7978 178:18.0413 179:15.4447 180:12.7497 181:10.6053 182:12.0868 183:14.5345 184:16.5 185:18.5 186:20.5119 187:23.0425 188:25.5783 189:27.6632 190:29.7101 191:31.753 192:34.3659 193:36.99 194:39.047 195:41.1905 196:43.2465 197:45.9589 198:48.6482 199:51.0552 200:53.0234 
0.05598815876943344 0 0.2086313881125216 0.3887031332831113 0 0.1380862772331812 0 0.7152262271436153 0.2373471779821497 0.2833147285330986 1:75.4321 2:74.6855 3:72.8417 4:70.2288 5:67.4172 6:64.1594 7:60.927 8:58.1817 9:55.4628 10:52.7744 11:50.0558 12:46.8205 13:44.1044 14:42.006 15:39.2078 16:36.3398 17:33.2463 18:30.9015 19:28.6983 20:29.3386 21:32.347 22:36.0789 23:39.1109 24:42.2023 25:45.3463 26:48.978 27:52.6522 28:55.4157 29:58.2199 30:61.5224 31:65.7761 32:70.4857 33:73.3091 34:73.8438 35:72.3491 36:69.7343 37:66.935 38:64.366 39:61.5738 40:58.5493 41:55.7591 42:52.4793 43:49.9644 44:47.235 45:44.4405 46:41.4924 47:39.8201 48:39.3275 49:39.393 50:40.0437 51:40.6492 52:41.7809 53:42.4573 54:43.3312 55:45.5117 56:46.0709 57:47.2295 58:48.2645 59:49.4766 60:51.4195 61:52.8068 62:53.1632 63:53.8066 64:56.9353 65:59.6717 66:61.0677 67:61.8893 68:62.0507 69:60.2341 70:57.736 71:54.3093 72:52.5034 73:52.3155 74:51.9773 75:52.6653 76:53.4242 77:54.0062 78:54.0894 79:54.3384 80:54.3497 81:54.5768 82:55.0508 83:55.3678 84:56.2135 85:56.9558 86:57.233 87:57.4191 88:58.0741 89:59.4221 90:61.0756 91:62.9391 92:64.6725 93:66.7104 94:68.5098 95:70.8411 96:72.7675 97:73.065 98:71.5927 99:67.755 100:63.0726 101:59.6475 102:56.799 103:54.1216 104:51.2975 105:48.735 106:47.0121 107:45.2494 108:43.6448 109:41.7586 110:39.8297 111:37.2026 112:34.0026 113:31.2454 114:28.306 115:26.2562 116:25.5332 117:25.5183 118:25.9474 119:27.8954 120:31.0276 121:33.4026 122:36.3522 123:39.6821 124:43.6843 125:46.8067 126:49.3985 127:52.3944 128:56.1353 129:59.6496 130:61.9788 131:64.3792 132:65.1916 133:64.7531 134:64.1603 135:61.991 136:58.6941 137:54.9201 138:50.7386 139:46.6905 140:43.1857 141:38.9487 142:34.7132 143:30.5372 144:25.8235 145:22.023 146:18.0144 147:15.8186 148:18.9889 149:22.6018 150:25.6157 151:29.0316 152:32.0857 153:35.5451 154:38.9507 155:42.0613 156:45.0239 157:47.8553 158:51.4439 159:55.0374 160:58.0445 161:60.927 162:64.5402 163:67.7797 164:70.236 165:72.1321 166:73.898 167:73.2078 168:69.9803 169:66.8574 170:63.7384 171:60.6238 172:57.0638 173:53.4604 174:50.3588 175:47.2653 176:44.1815 177:40.5795 178:37.0135 179:34 180:31.0109 181:28.0179 182:24.5817 183:21.271 184:19.9401 185:22.4741 186:25.2995 187:28.8597 188:32.2808 189:35.1716 190:38.0794 191:41.1526 192:44.6353 193:48.0524 194:51.0577 195:54.0013 196:56.886 197:60.3348 198:63.7888 199:66.9669 200:70.4089 
0 0 0.3332190460876293 0.3065065705450125 0 0.3406472233535038 0 0 0 0 1:59.0762 2:57.639 3:55.7248 4:53.2354 5:50.7469 6:48.2598 7:45.7739 8:43.9119 9:41.4369 10:38.9648 11:36.6746 12:34.2237 13:31.781 14:29.6018 15:27.6816 16:25.2995 17:24.4248 18:26.9275 19:29.2622 20:31.1493 21:33.8389 22:36.2115 23:38.6012 24:40.7463 25:43.1745 26:45.6099 27:47.5632 28:50.0788 29:52.9966 30:55.0874 31:54.3958 32:52.5556 33:50.2323 34:48.3869 35:46.0989 36:43.8326 37:41.9091 38:39.8787 39:38.1617 40:36.0584 41:34.0049 42:32.0197 43:30.1058 44:28.2902 45:26.578 46:24.5235 47:23.0316 48:23.266 49:25.8465 50:28.1517 51:30.2705 52:32.7186 53:34.3859 54:36.5546 55:38.5405 56:40.811 57:42.8994 58:45.3928 59:48.0166 60:50.6596 61:50.9248 62:49.9138 63:48.2741 64:45.9174 65:44.7036 66:42.7161 67:41.0784 68:38.9552 69:37.3437 70:36.048 71:34.4941 72:32.9031 73:31.4634 74:30.3397 75:29.4119 76:29.0086 77:29.1118 78:29.4389 79:29.958 80:30.0599 81:31.1218 82:32.3671 83:33.0217 84:34.1236 85:35.6148 86:37.2074 87:38.9017 88:39.9921 89:41.4892 90:42.8047 91:44.2417 92:45.8068 93:47.2119 94:47.7349 95:47.3547 96:47.597 97:46.8467 98:46.6997 99:47.3555 100:45.8333 101:44.1097 102:43.0058 103:42.0297 104:41.8669 105:42.5029 106:42.3111 107:42.1056 108:41.7481 109:41.2449 110:40.9262 111:40.832 112:40.5144 113:40.4762 114:40.3113 115:40.4104 116:40.8203 117:40.6568 118:41.3073 119:41.4302 120:42.0822 121:43.6923 122:45.7259 123:47.6853 124:49.8077 125:51.4277 126:52.0048 127:51.5244 128:49.1398 129:46.6717 130:44.1022 131:41.5482 132:39.0084 133:36.5069 134:34.5946 135:32.4017 136:30.9271 137:29.7505 138:28.4068 139:26.8572 140:24.0086 141:21.2736 142:19.6183 143:18.3437 144:18.0462 145:18.0693 146:18.3437 147:18.9895 148:19.9112 149:21.3862 150:23.3113 151:25.3562 152:27.2467 153:29.3492 154:31.1497 155:33.6802 156:36.0257 157:38.2013 158:40.1063 159:42.4407 160:44.7942 161:47.1719 162:49.3084 163:51.4797 164:53.6778 165:54.7991 166:54.2362 167:51.9094 168:49.1579 169:46.5251 170:44.4779 171:41.9066 172:39.4625 173:36.7709 174:34.0777 175:31.3863 176:28.693 177:26.6565 178:24.0311 179:21.4778 180:18.7915 181:16.3542 182:16.5894 183:18.9278 184:20.8868 185:23.3457 186:25.8119 187:28.2845 188:30.7612 189:32.7453 190:35.228 191:37.7128 192:40.1996 193:42.6878 194:45.1775 195:47.6681 196:49.6614 197:52.1537 198:54.6466 199:57.0646 200:59.0042 
0 0 0 0 0 0 0.644877933147882 0.4905269027800388 0 0 1:73.9797 2:73.0266 3:70.9872 4:68.1545 5:65.3442 6:62.6423 7:59.7751 8:56.9216 9:54.3133 10:51.1608 11:47.9281 12:45.1898 13:42.9435 14:40.3133 15:37.7384 16:35.2309 17:32.4012 18:29.458 19:26.8763 20:24.8473 21:24.0509 22:25.945 23:29.2202 24:32.5431 25:35.796 26:39.7375 27:43.6008 28:46.7506 29:49.936 30:52.6522 31:55.6588 32:58.9341 33:61.991 34:65.7647 35:70.183 36:72.1896 37:70.9393 38:69.0319 39:66.4035 40:63.8235 41:61.0191 42:58.2668 43:55.3233 44:52.1831 45:49.3603 46:46.927 47:43.9755 48:41.4474 49:39.382 50:37.492 51:36.1039 52:36.0231 53:37.2244 54:37.6649 55:39.3017 56:40.4829 57:42.1612 58:43.3882 59:44.7829 60:46.6061 61:48.0757 62:49.6829 63:51.1817 64:52.5821 65:53.2759 66:53.5594 67:53.8633 68:56.0432 69:57.4771 70:55.412 71:52.5602 72:51.8709 73:51.6684 74:50.9965 75:50.4941 76:50.6341 77:51.0065 78:51.0947 79:50.6969 80:50.4832 81:50.4542 82:50.6155 83:50.6485 84:50.5722 85:51.6908 86:52.4431 87:52.7473 88:53.015 89:54.0083 90:55.1753 91:56.9519 92:58.8317 93:60.9226 94:62.9698 95:64.8362 96:66.4984 97:67.732 98:65.9257 99:62.0341 100:58.8735 101:55.6186 102:52.6687 103:50.6955 104:48.7142 105:46.8744 106:45.2086 107:43.5031 108:41.7292 109:39.6277 110:35.419 111:31.3721 112:28.7616 113:25.9985 114:23.61 115:22.8523 116:23.4328 117:24.8573 118:26.5687 119:30.027 120:33.2492 121:36.6799 122:39.6222 123:42.4055 124:45.544 125:49.3985 126:52.7016 127:56.8091 128:60.5344 129:63.4276 130:65.8004 131:67.9593 132:68.0169 133:66.8451 134:63.2536 135:58.7238 136:54.2035 137:50.8039 138:46.6158 139:42.4387 140:38.4599 141:34.6707 142:30.5298 143:25.7428 144:21.4743 145:18.7104 146:17.3086 147:18.6601 148:21.6067 149:25.0005 150:28.4048 151:32.3204 152:36.0584 153:39.2958 154:42.3654 155:45.6197 156:48.8792 157:52.1391 158:55.0741 159:58.1821 160:61.7357 161:65.3004 162:68.4261 163:71.1135 164:73.4177 165:74.7213 166:73.3725 167:70.4167 168:66.7274 169:62.937 170:59.7751 171:56.6133 172:53.3528 173:50.0951 174:46.7496 175:43.5032 176:39.6557 177:35.8313 178:32.6224 179:29.5504 180:26.4178 181:23.2933 182:20.1131 183:17.715 184:18.7781 185:22.3915 186:25.9624 187:28.8624 188:31.781 189:34.8551 190:37.8554 191:40.7925 192:43.7381 193:47.1835 194:50.6361 195:53.6005 196:56.4809 197:59.4139 198:62.394 199:65.3759 200:68.3954 
0 0 0 0 0 0 0.1160360362872949 0 0 0 1:67 2:65.5192 3:63.0317 4:60.5331 5:58.0345 6:55.0364 7:52.5381 8:50.04 9:47.0425 10:44.5449 11:42.0679 12:39.1153 13:36.6231 14:34.1322 15:31.1449 16:28.6575 17:26.1727 18:23.2474 19:21.7137 20:22.7926 21:26.2645 22:28.8889 23:31.5145 24:34.797 25:37.6203 26:40.052 27:43.0824 28:45.7743 29:48.3442 30:50.9763 31:53.4891 32:56.6488 33:58.9939 34:61.6866 35:65.2443 36:65.8505 37:63.9775 38:61.271 39:58.5858 40:56.3573 41:53.3931 42:51.0422 43:48.7082 44:45.795 45:43.6844 46:41.2371 47:38.6036 48:36.3112 49:34.0629 50:30.9225 51:28.6421 52:26.1792 53:23.7049 54:24.0202 55:25.945 56:29.2202 57:32.4429 58:34.9868 59:38.4256 60:41.0493 61:44.4076 62:47.1011 63:50.0828 64:53.522 65:56.7847 66:60.3076 67:62.6364 68:61.9065 69:59.6444 70:57.1443 71:54.9676 72:52.2626 73:49.0619 74:46.7381 75:44.1715 76:41.4789 77:39.0573 78:36.4049 79:33.7401 80:31.3288 81:30.4094 82:30.0278 83:30.2076 84:30.6046 85:31.3307 86:32.132 87:32.2109 88:33.3682 89:34.6766 90:35.8831 91:37.2074 92:37.959 93:39.4907 94:40.7061 95:42.4407 96:44.5992 97:45.858 98:46.715 99:47.8776 100:49.969 101:51.672 102:52.6329 103:51.5509 104:49.2598 105:47.0496 106:46.0054 107:45.1073 108:44.4146 109:44.8162 110:45.3611 111:45.2283 112:45.1272 113:44.8957 114:44.791 115:44.3782 116:44.2189 117:43.8976 118:43.8786 119:44.2189 120:43.9657 121:44.2073 122:44.5939 123:45.5952 124:45.865 125:46.6573 126:47.2741 127:47.7199 128:48.4336 129:49.5051 130:50.3794 131:49.2626 132:46.954 133:44.289 134:41.3893 135:40.0062 136:38.4598 137:37.1646 138:36.5084 139:34.8004 140:33.1237 141:31.3258 142:28.6548 143:25.8026 144:24.0538 145:22.4924 146:21.2954 147:21.0396 148:21.1107 149:21.9693 150:23.0999 151:24.1775 152:25.3069 153:27.4676 154:30.0071 155:32.3326 156:34.4661 157:37.0076 158:39.2603 159:41.7768 160:44.4731 161:46.6192 162:49.0018 163:51.6161 164:53.6687 165:56.3046 166:58.8318 167:60.2243 168:61.2796 169:59.3674 170:56.8181 171:54.2724 172:51.4309 173:48.7473 174:46.2186 175:43.6181 176:41.0222 177:37.9142 178:35.1644 179:32.5856 180:29.3285 181:26.5013 182:23.3255 183:21.0367 184:21.6628 185:23.7706 186:26.762 187:29.3473 188:31.781 189:34.7135 190:37.1653 191:39.6235 192:42.5297 193:44.9027 194:47.3815 195:50.3588 196:52.8418 197:55.2938 198:58.2152 199:60.7063 200:63.1328 
0 0 0 0 0 0 0 0.3145908449727636 0 0 1:69.0652 2:67.6184 3:65.123 4:62.1289 5:59.1355 6:56.7208 7:54.231 8:51.3168 9:48.3737 10:45.8939 11:43.4677 12:40.6081 13:37.8554 14:34.929 15:32.5002 16:30.084 17:27.204 18:26.315 19:28.8889 20:31.3863 21:34.4166 22:37.5744 23:40.0285 24:42.6048 25:45.542 26:48.4889 27:51.5467 28:54.2335 29:56.6133 30:59.7751 31:62.8372 32:65.4722 33:67.9942 34:68.2393 35:65.5522 36:63.232 37:60.927 38:58.1817 39:55.4628 40:52.7744 41:50.5599 42:48.3752 43:45.4477 44:42.7223 45:40.6366 46:38.6036 47:36.239 48:33.9751 49:31.4702 50:29.7383 51:27.543 52:26.9492 53:29.2202 54:32.0069 55:34.4194 56:37.7227 57:40.5377 58:42.7142 59:44.9436 60:47.9192 61:50.6909 62:53.033 63:55.6346 64:59.174 65:59.4167 66:57.3879 67:55.762 68:54.2072 69:51.8875 70:49.6522 71:47.7644 72:45.6565 73:43.3882 74:40.9284 75:39.3887 76:37.3303 77:35.5848 78:33.7145 79:33.0706 80:32.5078 81:32.1506 82:32.2421 83:32.2895 84:32.132 85:33.1142 86:33.9159 87:35.2342 88:35.9222 89:37.5416 90:38.9014 91:40.6839 92:42.4085 93:43.9657 94:45.6262 95:47.7323 96:49.9501 97:51.351 98:51.2439 99:50.9668 100:50.5526 101:50.3123 102:49.3102 103:47.4349 104:45.674 105:43.4452 106:43.3532 107:43.0915 108:42.7814 109:42.3862 110:42.3493 111:42.4916 112:42.7702 113:43.2929 114:43.5422 115:44.2084 116:45.0578 117:46.2419 118:46.8858 119:47.6966 120:49.2057 121:51.2151 122:53.4987 123:55.3435 124:57.1916 125:59.5161 126:62.0468 127:64.6795 128:66.4266 129:65.8614 130:63.0714 131:60.075 132:57.5782 133:55.1453 134:52.2399 135:49.4108 136:47.1044 137:44.8495 138:42.287 139:39.9572 140:37.5803 141:35.3877 142:33.1077 143:29.8243 144:26.0037 145:23.7192 146:21.2745 147:18.7894 148:18.0462 149:17.3635 150:17.4241 151:18.3714 152:20.0107 153:21.9398 154:24.052 155:26.4675 156:29.414 157:32.4012 158:34.8186 159:37.258 160:40.1393 161:43.2183 162:45.709 163:48.2095 164:51.0014 165:54.1216 166:56.799 167:59.0533 168:61.3279 169:63.825 170:63.5965 171:61.0458 172:58.2996 173:55.1378 174:51.976 175:49.176 176:46.3808 177:43.2186 178:40.0564 179:36.8942 180:34.3115 181:31.6238 182:28.4617 183:25.1962 184:23.6535 185:24.2371 186:27.1663 187:30.1497 188:32.7453 189:35.228 190:38.21 191:41.1387 192:44.128 193:46.6717 194:49.163 195:52.1537 196:55.1453 197:57.5782 198:60.0474 199:63.0239 200:66.0051 
0.4300771653713354 0.2196066352963447 0.3158325608755788 0.1870078937441911 0.4776753658399858 0.1676126337884994 0 0.05389953103216399 0.583968893196147 0.2001384586333944 1:73.2462 2:71.1545 3:68.083 4:65.0562 5:62.0323 6:59.0253 7:55.509 8:52.0063 9:49 10:46.0109 11:43.0116 12:39.5671 13:36.1248 14:33.2417 15:30.3168 16:27.4595 17:24.0272 18:20.7975 19:19.1123 20:20.9242 21:24.1902 22:27.621 23:31.0133 24:34.0164 25:37.1633 26:40.052 27:43.6393 28:47.1708 29:50.2112 30:53.142 31:56.1917 32:59.6102 33:62.937 34:66.0989 35:69.572 36:73.0788 37:75.5865 38:75.161 39:72.8981 40:70.2364 41:67.603 42:65.0013 43:61.8786 44:58.5252 45:55.8465 46:53.0116 47:50.6088 48:47.4085 49:44.6016 50:41.9589 51:39.6277 52:36.8834 53:33.5096 54:30.5123 55:28.662 56:29.2912 57:31.7308 58:35.7622 59:40.3135 60:43.3837 61:47.4143 62:50.6073 63:54.1167 64:57.9684 65:61.3079 66:65.2153 67:69.4048 68:73.7063 69:76.0928 70:75.475 71:73.639 72:71.2979 73:68.2037 74:64.5842 75:61.5424 76:58.5648 77:55.6614 78:51.8271 79:48.2739 80:45.3834 81:42.6344 82:41.0569 83:40.0208 84:40.2677 85:40.8 86:41.4924 87:42.3862 88:43.4691 89:44.5191 90:45.7983 91:46.6202 92:47.6382 93:48.8402 94:50.4071 95:51.6511 96:52.4432 97:53.514 98:56.7699 99:58.8282 100:60.238 101:60.0994 102:58.526 103:55.3629 104:52.7676 105:51.9773 106:51.4845 107:52.16 108:52.016 109:53.0707 110:53.3447 111:53.7647 112:54.3473 113:54.7685 114:54.9699 115:55.5478 116:55.9065 117:57.023 118:57.7086 119:57.9126 120:58.3974 121:59.6621 122:60.8302 123:62.5955 124:64.6627 125:66.6576 126:68.8824 127:70.8479 128:72.5615 129:74.251 130:73.6226 131:71.0034 132:67.4183 133:63.7927 134:60.746 135:57.4754 136:54.2319 137:51.759 138:49.6502 139:47.8548 140:45.9299 141:43.8426 142:42.0064 143:40.3156 144:37.2905 145:33.4382 146:30.1755 147:27.6656 148:26.3682 149:26.2542 150:26.1952 151:26.8181 152:29.0819 153:31.6927 154:34.242 155:37.0297 156:40.5255 157:43.3274 158:45.9328 159:48.6394 160:52.107 161:55.366 162:58.0261 163:60.7492 164:62.4295 165:63.9448 166:63.7573 167:63.4211 168:61.6228 169:58.1378 170:54.5619 171:50.4518 172:46.4637 173:43.1393 174:39.598 175:35.8315 176:31.4865 177:26.9073 178:22.6717 179:18.4393 180:15.1175 181:16.8135 182:20.2533 183:23.3276 184:26.4227 185:29.5322 186:32.8717 187:36.2507 188:39.0013 189:42.1556 190:44.9454 191:48.3999 192:51.8659 193:54.7089 194:57.8711 195:60.7294 196:64.0808 197:67.4466 198:70.0156 199:72.3735 200:73.8285 
0 0 0.2157358999319385 0.0225458802503543 0.1666568938072652 0.1271569013790447 0 0.03084202619400839 0.2169023773420895 0 1:54.1295 2:52.5609 3:50.5001 4:48.3452 5:46.3817 6:43.6795 7:41.1006 8:38.9648 9:36.9144 10:34.8605 11:32.2118 12:29.6522 13:27.5727 14:25.5484 15:23.5213 16:21.0076 17:18.5139 18:17.19 19:18.0729 20:20.1312 21:22.5618 22:25.0052 23:26.9677 24:29.0286 25:31.0847 26:33.3769 27:35.8504 28:37.8319 29:39.8152 30:41.8002 31:44.2833 32:46.7681 33:48.7571 34:50.8552 35:52.407 36:51.6238 37:49.2426 38:47.3631 39:45.4011 40:43.4426 41:41.1563 42:38.8107 43:37.1655 44:35.2601 45:32.8949 46:30.5497 47:28.8952 48:27.2818 49:25.5011 50:23.5108 51:21.8023 52:20.2325 53:19.105 54:19.6047 55:21.6345 56:25.11 57:27.1018 58:29.5195 59:31.5657 60:33.4849 61:35.7124 62:37.5033 63:39.3238 64:41.1644 65:43.6255 66:46.3088 67:47.2478 68:46.3828 69:44.2308 70:42.4303 71:40.6987 72:38.9936 73:37.3283 74:36.1028 75:33.8446 76:31.6454 77:30.6504 78:28.8523 79:27.5785 80:26.2603 81:24.627 82:24.2589 83:24.052 84:23.3695 85:23.27 86:23.6535 87:24.1966 88:24.889 89:26.2542 90:27.1924 91:28.3093 92:29.5195 93:30.8122 94:32.532 95:34.3418 96:35.5386 97:36.8014 98:38.4231 99:39.9783 100:39.591 101:38.2434 102:36.9657 103:36.228 104:35.4487 105:34.8208 106:34.4455 107:33.6853 108:33.0378 109:33.0252 110:33.1888 111:32.9671 112:32.3862 113:31.9514 114:32.3199 115:33.3235 116:33.3682 117:33.5622 118:34.7047 119:35.4737 120:36.4195 121:36.8375 122:37.4078 123:38.292 124:39.6354 125:41.1498 126:42.5005 127:43.9237 128:45.6574 129:47.6054 130:49.121 131:49.1374 132:47.5632 133:45.0536 134:42.688 135:41.0033 136:39.2287 137:37.6418 138:35.5991 139:33.9897 140:32.685 141:31.2246 142:29.8217 143:27.8074 144:25.5441 145:22.7267 146:19.9125 147:18.3144 148:15.8442 149:14.1231 150:13.4716 151:13.0957 152:13.0192 153:13.3654 154:15.0488 155:16.3262 156:18.1804 157:20.1126 158:23.0715 159:25.5441 160:27.9891 161:30.073 162:32.2937 163:35.0195 164:37.5033 165:39.6548 166:41.8151 167:44.259 168:46.6192 169:48.8093 170:50.4018 171:50.344 172:46.8727 173:43.9604 174:41.4648 175:38.9682 176:36.7494 177:33.6526 178:30.6484 179:28.4311 180:25.933 181:23.7174 182:20.8096 183:17.7603 184:17.2321 185:18.5007 186:20.719 187:23.4111 188:26.1013 189:28.153 190:30.2039 191:32.0979 192:34.6821 193:37.3176 194:39.3735 195:41.4319 196:43.4888 197:45.8809 198:48.2832 199:50.2122 200:52.1466 
1 1 0.8594815619231846 0.9741829751737276 0.9761123361407326 0.7183025067633062 1 1 1 1 1:56 2:54.5092 3:52.5381 4:50.5396 5:48.5412 6:46.543 7:44.5449 8:42.547 9:40.5494 10:38.5519 11:36.0555 12:33.5597 13:31.5634 14:29.5677 15:27.5727 16:25.5783 17:23.585 18:21.5929 19:19.6024 20:17.614 21:15.1331 22:13.4716 23:13.2082 24:15.4447 25:18.1804 26:20.4091 27:22.6392 28:24.8703 29:26.8572 30:29.5322 31:32.2072 32:34.4428 33:36.6784 34:38.9141 35:40.9212 36:43.1572 37:45.1697 38:47.1864 39:49.2067 40:51.8956 41:55.2318 42:56.1512 43:54.8905 44:52.9086 45:51.1988 46:49.2394 47:47.2898 48:45.0702 49:42.6282 50:40.1063 51:38.2013 52:36.0048 53:33.8134 54:32.27 55:30.1058 56:27.9529 57:26.163 58:24.052 59:21.0138 60:18.9052 61:17.7603 62:18.3384 63:19.7808 64:21.6628 65:23.8805 66:26.2789 67:28.693 68:31.7832 69:34.8898 70:37.3437 71:40.0318 72:42.738 73:45.0271 74:47.3342 75:50.0852 76:52.3118 77:54.0275 78:52.944 79:50.7597 80:48.9955 81:46.3526 82:44.6607 83:42.0784 84:39.5297 85:37.0218 86:34.8227 87:31.7865 88:28.8561 89:26.6215 90:25.5096 91:25.0499 92:24.2589 93:24.627 94:24.6758 95:24.889 96:25.7187 97:26.6575 98:27.5029 99:27.9891 100:29 101:29.7825 102:30.7081 103:31.4853 104:32.9388 105:33.7779 106:35.1297 107:35.3055 108:34.8208 109:34.4455 110:34.1833 111:34.0367 112:34.0074 113:33.0983 114:32.3186 115:33.146 116:34.8557 117:35.8953 118:36.5851 119:36.4617 120:37.3557 121:38.3332 122:38.9741 123:39.3064 124:39.7617 125:40.8032 126:41.7492 127:42.5793 128:42.9067 129:42.5791 130:42.7953 131:43.1619 132:41.3831 133:38.7371 134:36.918 135:35.2048 136:33.1861 137:31.4853 138:28.9918 139:26.7679 140:24.4425 141:22.5931 142:20.8197 143:19.1434 144:18.4563 145:18.5685 146:19.0131 147:19.1702 148:20.5058 149:21.9881 150:23.5896 151:25.2875 152:27.0638 153:29.3349 154:31.6283 155:34.1236 156:36.1028 157:37.7161 158:39.3751 159:41.4414 160:42.7946 161:44.9041 162:45.31 163:45.3534 164:43.2012 165:41.0042 166:38.8117 167:36.9392 168:35.0907 169:32.9296 170:31.1207 171:28.9914 172:26.8794 173:24.0833 174:21.3191 175:18.5069 176:16.508 177:14.3007 178:12.4239 179:12.1241 180:12.9732 181:14.7747 182:16.9757 183:19.4493 184:21.3605 185:23.2866 186:25.2243 187:27.171 188:29.1249 189:31.0847 190:33.0493 191:35.018 192:37.4836 193:39.9532 194:41.9316 195:43.9119 196:45.7739 197:47.7625 198:49.7519 199:51.7422 200:53.617 
0.05266265264608918 0.8851223089882985 0 0.3708990509066722 0 0 1 1 0.6862865203115663 0 1:50.01 2:48.5052 3:46.543 4:44.5449 5:42.5292 6:40.5123 7:38.5 8:36.5137 9:34.5145 10:32.5615 11:30.5655 12:28.5701 13:26.0769 14:23.585 15:21.652 16:19.7296 17:17.7555 18:15.7058 19:14.0178 20:15.5323 21:17.614 22:19.7296 23:21.8691 24:24.4519 25:27.171 26:29.3473 27:31.532 28:33.7234 29:36.064 30:38.2702 31:40.4797 32:42.6919 33:45.0697 34:47.2893 35:50.3311 36:52.6552 37:53.9208 38:54.7855 39:54.1508 40:52.9086 41:50.9365 42:48.7086 43:46.4815 44:43.9923 45:41.765 46:38.762 47:35.9349 48:33.7094 49:31.4853 50:29.5384 51:27.6104 52:25.4035 53:23.5055 54:21.3191 55:19.4772 56:17.3312 57:17.6117 58:20.1126 59:22.1022 60:24.91 61:26.9537 62:29.7742 63:32.27 64:34.7635 65:37.2074 66:39.6548 67:41.7433 68:45.2769 69:48.4703 70:49.9536 71:50.5272 72:49.7032 73:48.543 74:46.1792 75:44.2552 76:41.5034 77:38.7625 78:36.4752 79:33.543 80:31.1218 81:28.9736 82:26.8812 83:24.8693 84:22.9489 85:21.6493 86:21.0119 87:22.5548 88:24.5815 89:26.5189 90:29.0056 91:31.5634 92:33.6341 93:35.6266 94:37.7128 95:39.8834 96:42.008 97:44.1437 98:46.3817 99:48.3452 100:50.2278 101:50.3652 102:48.6283 103:46.5695 104:44.5112 105:42.5 106:40.5311 107:38.6167 108:36.7186 109:34.9403 110:33.2455 111:31.6683 112:30.0483 113:28.6561 114:28.4775 115:27.9104 116:28.3725 117:29 118:29.7825 119:30.7081 120:31.2246 121:32.4493 122:33.3607 123:34.4805 124:36.3162 125:38.2472 126:38.3992 127:39.1599 128:39.032 129:39.0064 130:38.5847 131:37.7731 132:35.9281 133:35.3108 134:33.7234 135:32.9028 136:35.1934 137:36.9129 138:38.242 139:38.3332 140:38.9741 141:38.9026 142:39.3751 143:39.6106 144:39.661 145:39.9123 146:40.5126 147:40.5088 148:40.0306 149:39.1977 150:39.3887 151:38.7489 152:38.2032 153:38.2472 154:39.8851 155:40.6546 156:41.5303 157:43.3524 158:44.6398 159:45.3376 160:45.6234 161:44.5293 162:42.9333 163:41.0033 164:38.9438 165:36.6233 166:34.3314 167:31.9791 168:30.4911 169:30.0083 170:29.0431 171:28.7195 172:28.0508 173:26.3224 174:24.1379 175:22.2821 176:20.56 177:19.5131 178:18.6766 179:18.3828 180:18.5865 181:19.4792 182:19.7082 183:20.5669 184:21.5725 185:22.4131 186:24.007 187:25.6578 188:27.3554 189:28.6234 190:30.8726 191:32.7763 192:34.6451 193:36.2115 194:37.9853 195:39.7777 196:41.6036 197:43.4426 198:45.2135 199:46.9555 200:48.7114 
0 0 0 0 0 0 1 0 0 0 1:53.1601 2:52.0219 3:50.1226 4:48.2315 5:46.18 6:44.128 7:41.908 8:39.3299 9:36.8684 10:34.6451 11:32.5973 12:30.5497 13:28.5058 14:26.0019 15:23.7127 16:21.4778 17:19.68 18:17.4443 19:15.6944 20:14.0118 21:14.384 22:17.3312 23:19.4772 24:21.3191 25:23.5055 26:25.7004 27:28.8012 28:31.5042 29:33.7122 30:35.9237 31:38.1381 32:40.3549 33:42.3004 34:45.4869 35:48.543 36:49.7032 37:49.4302 38:48.5423 39:46.3828 40:44.0932 41:41.3687 42:39.2476 43:37.14 44:35.0484 45:32.9757 46:30.9257 47:28.8729 48:26.3519 49:24.8703 50:23.0336 51:21.2736 52:19.6111 53:18.4563 54:19.565 55:21.5233 56:23.5525 57:25.7426 58:28.0474 59:30.4406 60:33.2463 61:36.3676 62:38.9177 63:41.5039 64:44.1199 65:46.5542 66:49.1153 67:50.1545 68:48.5435 69:46.9838 70:44.9958 71:43.0638 72:40.6133 73:37.7716 74:35.5909 75:33.5074 76:31.54 77:29.7121 78:28.0508 79:26.8998 80:26.6633 81:26.6263 82:26.7764 83:26.7096 84:27.6224 85:28.7844 86:29.9164 87:30.9351 88:32.0776 89:33.331 90:34.4716 91:35.7619 92:37.6569 93:38.4559 94:38.5551 95:39.2619 96:39.0832 97:38.0066 98:36.7308 99:36.2836 100:34.9403 101:34.3345 102:33.8617 103:35.8953 104:37.5162 105:39.7047 106:41.3697 107:41.4299 108:41.1944 109:40.7061 110:40.7847 111:41.7294 112:42.4853 113:42.325 114:41.9096 115:40.7728 116:40.564 117:39.591 118:40.0161 119:40.8033 120:41.6231 121:42.5777 122:43.6519 123:44.8421 124:45.1072 125:44.0057 126:42.5118 127:40.5494 128:38.5519 129:36.5068 130:34.5074 131:32.1526 132:30.9974 133:30.9271 134:30.5201 135:29.8149 136:28.6234 137:26.244 138:23.9679 139:22.3041 140:20.7481 141:19.8157 142:19.0656 143:19.0438 144:19.3259 145:19.7859 146:19.5055 147:20.3579 148:21.3642 149:22.5036 150:24.0909 151:25.8142 152:27.2829 153:28.8158 154:30.4029 155:32.0364 156:34.1348 157:36.0411 158:37.5673 159:39.3611 160:40.9748 161:42.6179 162:44.128 163:45.8915 164:46.2113 165:45.3063 166:43.0727 167:41.1006 168:39.1313 169:36.6746 170:34.4422 171:32.5002 172:30.5658 173:28.6403 174:26.7259 175:24.8249 176:22.4741 177:20.1566 178:18.1263 179:16.1027 180:14.0906 181:11.8939 182:13.2844 183:15.6286 184:17.614 185:19.5256 186:21.5233 187:23.5109 188:25.5 189:28.0057 190:30.5164 191:32.5615 192:34.5936 193:36.6702 194:38.7073 195:41.3039 196:43.9119 197:45.9639 198:48.0903 199:50.4049 200:52.2828 
0 0 0.1336815099497011 0.6159476798188087 0 0 1 0.8737353394464814 0.4543119111726443 0.3296342725193978 1:60.8769 2:59.0647 3:56.8915 4:54.0638 5:51.2958 6:48.5583 7:45.8939 8:43.7865 9:41.1373 10:38.5519 11:36.0045 12:33.5376 13:31.1835 14:28.8587 15:26.9677 16:24.8301 17:23.1284 18:22.8366 19:25.3875 20:27.7879 21:29.9717 22:31.7537 23:34.0164 24:36.3082 25:38.3963 26:40.6359 27:42.8201 28:45.125 29:46.8109 30:49.2446 31:51.6842 32:53.3726 33:52.5441 34:50.4966 35:48.5724 36:46.8927 37:44.9183 38:42.9337 39:41.029 40:39.0169 41:37.2663 42:35.4025 43:34.4435 44:32.5623 45:30.7633 46:29.5904 47:28.7226 48:28.4775 49:28.3483 50:28.1586 51:28.2295 52:28.8587 53:29.4134 54:30.0083 55:31.1046 56:32.0676 57:33.8451 58:35.4487 59:37.1682 60:38.6972 61:40.4791 62:41.8264 63:43.6239 64:45.2153 65:46.6202 66:46.6192 67:46.0253 68:45.9891 69:45.0155 70:44.2088 71:43.5479 72:41.9089 73:40.068 74:39.5216 75:39.28 76:39.0573 77:38.3356 78:38.7362 79:38.3361 80:38.0854 81:38.6753 82:39.0832 83:39.2619 84:39.302 85:40.1433 86:40.8119 87:41.6109 88:41.8919 89:42.1975 90:42.7953 91:43.8325 92:44.7036 93:46.2321 94:47.8371 95:49.1771 96:50.915 97:52.7102 98:53.9099 99:55.8332 100:57.4063 101:57.9691 102:56.4493 103:53.7168 104:50.8952 105:48.4476 106:46.2097 107:44.2069 108:42.2534 109:40.4042 110:38.6766 111:37.14 112:35.4737 113:33.9029 114:31.6299 115:29.4182 116:27.3554 117:24.5253 118:22.0528 119:20.006 120:18.0654 121:16.8004 122:15.968 123:15.442 124:15.8715 125:16.577 126:18.0442 127:19.8157 128:21.9693 129:24.9104 130:27.8317 131:30.787 132:33.8907 133:37.1642 134:40.4791 135:42.9337 136:46.0665 137:49.4423 138:52.8403 139:54.9676 140:57.4225 141:59.7705 142:59.8108 143:57.0044 144:54.3002 145:51.2006 146:47.9011 147:45.2015 148:42.1012 149:39.6023 150:36.6039 151:33.5039 152:30.2023 153:27.1018 154:23.8015 155:21.0082 156:20.5183 157:22.6717 158:26.2012 159:29.5104 160:32.596 161:35.2541 162:38.3472 163:41.1644 164:44.259 165:47.5658 166:50.2379 167:52.7115 168:54.9045 169:57.4007 170:59.8108 171:61.3939 172:60.0543 173:56.6045 174:53.1651 175:50.6786 176:47.5088 177:44.0969 178:41.0222 179:38.242 180:35.3434 181:32.0401 182:29.8089 183:26.6865 184:23.7192 185:21.9293 186:23.8381 187:26.5434 188:29.1249 189:31.2932 190:33.8803 191:36.6233 192:39.2114 193:41.9675 194:44.7347 195:47.3209 196:49.5204 197:52.2021 198:54.8842 199:57.4705 200:59.9606 
1 1 1 1 0.8412376782488322 0.8087524987345686 1 0.730878582555633 1 1 1:49.7695 2:49.2443 3:48.3042 4:46.5113 5:44.2753 6:42.0393 7:39.5797 8:38.0132 9:36.2257 10:33.9897 11:31.9773 12:29.7413 13:27.7363 14:26.4197 15:24.6234 16:22.898 17:20.6717 18:18.7221 19:16.8029 20:16.2788 21:17.0294 22:18.5069 23:21.3191 24:23.757 25:26.2012 26:29.0259 27:30.4795 28:32.596 29:35.4189 30:38.2427 31:41.067 32:42.8994 33:44.1247 34:43.6005 35:42.7249 36:41.1889 37:38.4256 38:35.9349 39:33.4444 40:31.3847 41:30.2083 42:27.5054 43:26.2004 44:24.0538 45:21.9881 46:20.5058 47:20.2237 48:21.5589 49:23.5 50:25.5196 51:27.6171 52:29.7101 53:31.257 54:32.7453 55:34.7949 56:36.9144 57:39.1313 58:41.1905 59:43.2465 60:44.7214 61:44.9758 62:44.2323 63:42.6058 64:40.5494 65:38.513 66:37.0135 67:35.5141 68:33.5 69:31.54 70:29.7121 71:27.951 72:26.6833 73:26.5873 74:26.2853 75:25.7187 76:25.8153 77:26.1039 78:26.9629 79:26.8701 80:27.2829 81:28.2018 82:28.9996 83:29.9717 84:31.1277 85:31.9531 86:32.4265 87:33.3596 88:33.4588 89:33.1888 90:32.039 91:31.5081 92:31.0644 93:30.7052 94:29.521 95:29.958 96:30.9936 97:32.132 98:32.6956 99:33.3235 100:33.8077 101:33.985 102:34.3073 103:34.7706 104:35.3695 105:36.0694 106:36.1801 107:37.1078 108:36.7557 109:36.1031 110:36.0062 111:35.3412 112:35.1984 113:36.3717 114:37.9853 115:38.9421 116:40.0354 117:41.7469 118:42.107 119:43.0291 120:43.0058 121:41.5786 122:39.702 123:37.7128 124:36.2215 125:34.6302 126:32.5615 127:30.5081 128:29.0431 129:28.2223 130:28.0508 131:26.9258 132:25.9404 133:24.234 134:21.8309 135:20.2637 136:18.8324 137:18.1108 138:17.0147 139:16.0779 140:16.3856 141:16.9255 142:17.6764 143:17.4929 144:18.3144 145:19.5294 146:20.8657 147:22.3016 148:23.8191 149:25.4035 150:26.6271 151:27.8805 152:29.5857 153:30.8594 154:32.6542 155:34.4716 156:35.8469 157:36.8684 158:38.7463 159:40.6359 160:42.2406 161:43.782 162:45.3083 163:45.5412 164:44.8407 165:42.6878 166:40.6971 167:38.7073 168:36.7186 169:35.2278 170:33.8712 171:31.8945 172:29.9208 173:28.0508 174:26.1966 175:24.0263 176:22.561 177:21.1013 178:19.1642 179:17.2416 180:15.0422 181:13.2473 182:13.0384 183:14.5 184:16.5303 185:18.5664 186:20.5974 187:22.6992 188:24.6831 189:26.3059 190:27.8688 191:29.9208 192:32.0665 193:34.3314 194:36.5053 195:38.0789 196:39.7777 197:41.8405 198:44.3014 199:46.8039 200:48.872 
0 0 0 0 0 0 1 0 0 0 1:61.4003 2:60.1067 3:58.2001 4:55.7317 5:53.2659 6:50.8037 7:48.3452 8:45.8915 9:43.4426 10:41.0004 11:38.5651 12:36.1392 13:33.7234 14:31.3218 15:28.9357 16:26.5721 17:24.234 18:21.9343 19:19.9238 20:22.297 21:25.126 22:27.6192 23:29.9717 24:32.4985 25:34.8898 26:37.4365 27:39.8534 28:42.1556 29:44.4779 30:47.1708 31:49.5104 32:52.318 33:55.4308 34:56.8644 35:56.577 36:55.2717 37:53.3401 38:51.1988 39:48.9097 40:46.4578 41:44.4098 42:41.8012 43:39.8279 44:37.9125 45:36.0738 46:34.313 47:32.1444 48:30.3052 49:28.0259 50:26.6728 51:28.1802 52:30.7007 53:33.0102 54:35.1072 55:37.2776 56:39.3751 57:41.7776 58:44.2084 59:47.3814 60:49.8835 61:51.1011 62:50.7049 63:49.376 64:47.4387 65:45.5673 66:43.6181 67:41.7505 68:40.1181 69:38.4509 70:37.0119 71:35.0498 72:33.8769 73:32.1947 74:31.3595 75:30.5414 76:30.2763 77:30.7 78:31.3307 79:31.2004 80:32.2109 81:33.3682 82:34.6766 83:35.3045 84:36.8834 85:38.5536 86:39.8607 87:41.4892 88:42.8047 89:44.2417 90:45.9756 91:47.2119 92:48.3443 93:48.2853 94:48.3901 95:47.6706 96:47.4084 97:47.1028 98:45.946 99:44.5727 100:44.0076 101:44.0738 102:44.2323 103:44.2328 104:43.5529 105:43.3696 106:43.0222 107:42.8596 108:42.7136 109:42.205 110:41.5089 111:41.1257 112:41.7253 113:42.5362 114:42.9067 115:42.7349 116:43.6229 117:43.8767 118:45.2428 119:46.8511 120:48.876 121:50.8672 122:53.036 123:54.9015 124:56.058 125:54.6728 126:52.5381 127:50.04 128:47.5421 129:45.0111 130:42.5058 131:40.0043 132:37.587 133:35.3674 134:33.3596 135:31.9514 136:30.482 137:28.6234 138:26.244 139:23.9679 140:21.5141 141:19.5317 142:19.1222 143:19.0131 144:19.2523 145:19.7859 146:20.0236 147:21.7127 148:23.0316 149:24.91 150:26.9141 151:29.3492 152:31.1497 153:33.6802 154:35.8169 155:38.2013 156:40.2271 157:42.8524 158:44.9465 159:47.3342 160:49.741 161:51.9164 162:53.8209 163:55.9133 164:57.0843 165:56.4754 166:54.8134 167:52.1785 168:50.1226 169:47.5413 170:45.0697 171:42.4912 172:40.0285 173:37.3374 174:34.6451 175:32.0703 176:29.619 177:26.9275 178:24.234 179:21.6678 180:19.243 181:16.477 182:16.8775 183:19.2358 184:21.7084 185:24.187 186:26.6693 187:29.1549 188:31.6426 189:34.0588 190:36.5548 191:39.0513 192:41.5482 193:44.0343 194:46.5107 195:49.0102 196:51.5097 197:54.0062 198:56.5 199:59.0168 200:60.603 
0 0.4383876042982763 0 0 0 0 1 1 0.1378528292108859 0 1:57.5587 2:55.8811 3:53.8354 4:51.7948 5:49.7519 6:47.7625 7:45.7739 8:43.1857 9:40.6971 10:38.7073 11:36.7186 12:34.6302 13:32.6382 14:30.1211 15:27.5727 16:25.5783 17:23.585 18:21.5929 19:19.563 20:17.019 21:15.582 22:16.3856 23:18.3469 24:20.5572 25:22.6114 26:25.2995 27:27.8317 28:29.8877 29:32.0979 30:34.004 31:36.2115 32:38.1218 33:40.7086 34:43.2003 35:45.2617 36:47.3209 37:49.247 38:51.3091 39:54.4086 40:56.4471 41:54.8933 42:52.8449 43:50.7965 44:48.9314 45:46.6165 46:44.1199 47:42.0867 48:40.2653 49:38.4617 50:36.2257 51:34.0022 52:31.568 53:29.5857 54:27.6139 55:25.6578 56:23.4377 57:21.5061 58:19.2162 59:18.4119 60:19.3129 61:21.221 62:23.163 63:25.933 64:29.1429 65:32.1015 66:34.5167 67:36.9392 68:39.7556 69:41.8151 70:44.3536 71:47.3973 72:50.2245 73:52.7102 74:52.45 75:50.7681 76:48.9417 77:46.5028 78:44.5254 79:42.1595 80:40.2297 81:37.9016 82:36.0352 83:33.2478 84:30.2086 85:28.5058 86:26.4097 87:24.8693 88:24.4232 89:24.0969 90:23.5109 91:23.1408 92:24.4232 93:24.8693 94:25.4651 95:25.8124 96:26.6728 97:27.7385 98:28.1141 99:29.4005 100:30.0561 101:31.4671 102:33.2015 103:34.2539 104:35.4163 105:36.4548 106:37.6203 107:40.057 108:42.1679 109:43.6451 110:43.0653 111:41.1155 112:39.5381 113:37.5934 114:35.2601 115:34.4455 116:34.1833 117:33.0378 118:32.0078 119:32.5993 120:34.0442 121:35.7979 122:36.2696 123:35.8953 124:36.5851 125:37.3692 126:38.1876 127:38.4314 128:39.1205 129:40.3039 130:41.1703 131:41.7492 132:42.0876 133:42.6535 134:42.7249 135:42.03 136:39.275 137:36.7875 138:35.3692 139:33.6041 140:31.0055 141:28.5045 142:25.7004 143:23.7174 144:21.7836 145:19.8347 146:18.2063 147:18.0796 148:18.1795 149:19.0131 150:19.0656 151:20.0823 152:22.4636 153:24.5249 154:26.6565 155:28.3999 156:30.2083 157:32.0707 158:34.9525 159:37.3164 160:39.3003 161:40.9195 162:42.9581 163:44.6375 164:46.4568 165:46.7226 166:46.1574 167:43.6618 168:41.4892 169:39.3238 170:37.0254 171:34.2983 172:32.1773 173:30.073 174:27.6134 175:25.5441 176:22.2848 177:19.3005 178:16.8029 179:15.2433 180:14.1774 181:14.8433 182:16.5623 183:18.7915 184:21.2736 185:23.3085 186:25.3491 187:27.3913 188:29.2622 189:31.7308 190:34.3115 191:36.2115 192:38.1218 193:40.0408 194:41.9675 195:44.3851 196:47.056 197:48.9925 198:50.9339 199:52.8797 200:54.7252 
0 0 0 0 0 0 0.9100759407333754 0.9255282830004341 0 0 1:54.231 2:52.7376 3:50.8552 4:48.8698 5:46.8855 6:44.9758 7:43.0727 8:40.6081 9:38.1479 10:36.1837 11:34.2237 12:32.5002 13:30.5658 14:28.6403 15:26.1506 16:23.5642 17:21.6628 18:20.3701 19:19.9858 20:22.3275 21:25.2429 22:27.8805 23:29.8417 24:31.8169 25:34.0487 26:36.0352 27:38.0303 28:40.708 29:43.3855 30:45.3933 31:47.4057 32:49.6417 33:51.6581 34:53.2194 35:51.4797 36:48.8089 37:47.0778 38:45.3687 39:43.4111 40:41.4648 41:39.0235 42:36.8014 43:35.2186 44:33.0356 45:31.5176 46:30.0561 47:27.9352 48:25.7473 49:23.5055 50:21.9185 51:22.1576 52:23.1284 53:24.8249 54:27.2137 55:30.4661 56:33.7721 57:36.4493 58:38.2693 59:40.1314 60:42.878 61:45.4869 62:48.6757 63:47.8594 64:46.3943 65:44.9727 66:43.1572 67:41.3831 68:38.3902 69:36.228 70:34.6335 71:32.6286 72:30.21 73:28.8561 74:26.6215 75:25.6797 76:25.1296 77:24.9166 78:24.8693 79:24.5249 80:25.2875 81:25.8576 82:26.5139 83:27.3386 84:27.9352 85:29.0344 86:30.2217 87:31.2143 88:33.1174 89:34.9186 90:36.2257 91:37.429 92:38.5863 93:39.4269 94:39.4317 95:38.5258 96:35.7867 97:34.0954 98:33.0076 99:32.039 100:31.6987 101:31.5855 102:31.6642 103:31.7879 104:32.5033 105:33.3235 106:33.8077 107:34.401 108:34.7458 109:35.426 110:36.0694 111:36.1801 112:36.1028 113:35.783 114:35.6011 115:35.6551 116:36.7003 117:37.9853 118:39.4317 119:41.0223 120:42.7411 121:45.0525 122:47.0053 123:46.5701 124:44.601 125:42.6058 126:40.5494 127:38.513 128:36.0048 129:33.5974 130:32.8149 131:31.1906 132:29.7471 133:28.5118 134:27.2818 135:25.5572 136:22.898 137:20.4091 138:18.562 139:16.3542 140:14.7131 141:13.5031 142:13.0192 143:12.2674 144:12.8246 145:13.6544 146:14.7111 147:15.9497 148:17.7005 149:19.6047 150:21.8023 151:23.4377 152:25.3875 153:27.3554 154:29.0914 155:31.7671 156:33.9897 157:36.0077 158:38.0302 159:39.8534 160:42.0867 161:44.3858 162:46.7042 163:48.5724 164:50.7965 165:52.6714 166:54.2335 167:55.5111 168:54.0296 169:51.3091 170:49.247 171:47.056 172:44.9958 173:42.9333 174:40.7463 175:38.2431 176:35.6548 177:33.7234 178:31.532 179:29.4725 180:27.4092 181:24.7394 182:22.074 183:19.8157 184:19.0656 185:20.5 186:22.5 187:24.5 188:27 189:29.5 190:31.5 191:33.5074 192:35.5141 193:37.5133 194:39.5127 195:42.0119 196:44.5112 197:46.5107 198:48.5256 199:50.5396 200:52.5616 
0 0 0 0 0 0 0.1385541848789389 0 0 0 1:75.0267 2:73.0023 3:70.0071 4:67.0075 5:64.0078 6:61.0082 7:58.0086 8:55.0184 9:52.0385 10:49.0408 11:46.0435 12:43.1046 13:40.1124 14:37.1215 15:34.2346 16:30.7615 17:27.2076 18:24.187 19:21.3781 20:19.3113 21:20.4311 22:24.024 23:27.4558 24:30.5694 25:33.8451 26:37.1233 27:40.2509 28:43.3835 29:46.5201 30:50.3244 31:53.85 32:56.8604 33:59.8762 34:62.7702 35:65.9249 36:69.4636 37:73.108 38:74.3928 39:72.9462 40:70.329 41:67.5709 42:64.6621 43:61.767 44:58.3832 45:55.2198 46:52.2038 47:49.4083 48:46.6496 49:43.9351 50:41.2659 51:38.6595 52:35.8782 53:32.908 54:30.2705 55:27.4676 56:25.0702 57:24.7208 58:27.0224 59:30.5683 60:34.581 61:38.2785 62:42.0297 63:45.6967 64:49.3603 65:52.7743 66:56.8253 67:60.0341 68:64.1411 69:67.9153 70:70.832 71:72.1824 72:71.1164 73:68.2878 74:64.9345 75:61.6866 76:57.8729 77:55.0846 78:51.4234 79:48.8408 80:45.4037 81:42.1138 82:39.0085 83:36.4668 84:35.5197 85:35.5046 86:36.0637 87:36.4729 88:38.0854 89:39.1188 90:40.613 91:42.2798 92:43.6145 93:45.1315 94:46.6099 95:48.0809 96:50.084 97:51.8962 98:53.0121 99:53.7768 100:55.1774 101:57.8816 102:58.6997 103:57.0212 104:54.236 105:52.0448 106:52.016 107:51.1631 108:50.8251 109:50.9965 110:51.3477 111:51.2374 112:51.0125 113:51.2993 114:51.1953 115:51.042 116:50.7365 117:51.4254 118:51.6752 119:52.0222 120:52.7094 121:54.2148 122:55.6119 123:57.3946 124:59.357 125:61.4086 126:62.5936 127:64.9453 128:66.488 129:65.8614 130:62.5296 131:59.0256 132:56.1015 133:53.2428 134:50.496 135:48.0618 136:45.8915 137:43.897 138:42.0617 139:39.8265 140:37.0471 141:33.4488 142:29.5315 143:26.7105 144:24.2072 145:22.7055 146:23.0362 147:24.0969 148:24.8521 149:26.5747 150:28.8527 151:31.6084 152:34.1962 153:37.1755 154:39.9539 155:42.5396 156:45.7122 157:48.4175 158:51.1752 159:54.4495 160:57.7715 161:60.6537 162:63.1291 163:65.439 164:67.6053 165:68.5148 166:67.1741 167:63.97 168:60.711 169:57.4559 170:54.5573 171:51.4959 172:48.4476 173:44.5265 174:40.6099 175:37.4011 176:34.0026 177:30.8196 178:27.4443 179:23.8647 180:20.6253 181:18.6089 182:19.7005 183:22.4741 184:25.2995 185:28.3581 186:31.3218 187:34.6891 188:38.0794 189:41.2315 190:44.1479 191:47.0747 192:50.0103 193:52.953 194:55.9019 195:58.8559 196:61.8144 197:64.7767 198:67.6494 199:70.5763 200:73.3403 
-0.7307341312860171 1 1 1 1 1 1 1 1 1 1:54.5894 2:53.6004 3:52.6118 4:51.6236 5:50.636 6:49.0026 7:47.5184 8:46.5296 9:45.5412 10:44.0597 11:42.4264 12:41.4367 13:40.4475 14:38.9648 15:37.4833 16:36.4966 17:35.5106 18:34.0332 19:32.5576 20:31.4006 21:30.4138 22:28.9354 23:27.2947 24:26.1725 25:25.1794 26:24.9131 27:26.6833 28:26.9258 29:27.2029 30:27.5136 31:26.2853 32:25.0799 33:24.1661 34:22.8473 35:21.4778 36:20.1246 37:19.7231 38:20.2485 39:20.7121 40:21.2603 41:20.5183 42:19.799 43:19.5294 44:18.6011 45:18.868 46:19.2354 47:19.5055 48:19.9249 49:19.6469 50:19.4165 51:20.1618 52:20.025 53:20 54:20.025 55:20.0998 56:21.2954 57:21.587 58:21.8403 59:22.1359 60:22.6598 61:23.2594 62:22.8254 63:23.3238 64:24.1334 65:25 66:25.6125 67:26.2488 68:26.5213 69:27.5862 70:27.6586 71:28.4253 72:29.0058 73:29.6816 74:30.5287 75:31.3847 76:32.2072 77:33.541 78:34.4384 79:34.9285 80:35.4683 81:36.3717 82:36.4006 83:36.1386 84:35.9026 85:35.1118 86:36.3456 87:37.2156 88:36.2215 89:34.68 90:33.0606 91:33.0151 92:33 93:32.039 94:31.1448 95:30.2655 96:29.2746 97:28.0508 98:27.8927 99:27.2029 100:27.5136 101:27.1194 102:27.7308 103:27.2947 104:27.7849 105:27.4591 106:26.5139 107:25.6125 108:24.8395 109:24.7588 110:24.421 111:24.2074 112:23.6008 113:23.0217 114:22.2134 115:21.4709 116:21.0238 117:19.6977 118:18.6705 119:17.72 120:16.4924 121:16.2788 122:15.083 123:15 124:15.0333 125:14.1421 126:14.439 127:13.9284 128:14.3178 129:15.6525 130:16.1245 131:17.7603 132:18.6011 133:20 134:20.6155 135:22.3471 136:24.0832 137:24.7588 138:26.1725 139:27.5772 140:29 141:30.4138 142:31.1448 143:32.27 144:34.0588 145:34.8281 146:35.609 147:37.4078 148:39.2046 149:40 150:40.8044 151:42.6068 152:43.2666 153:43.566 154:43.909 155:44.2945 156:42.738 157:41.1825 158:39.8246 159:38.9487 160:37.1525 161:35.3553 162:34.4819 163:33.121 164:31.568 165:30.0167 166:28.6531 167:27.2947 168:25.7398 169:23.7065 170:22.3607 171:21.9317 172:20.432 173:20.8806 174:20.6155 175:21.3776 176:22.6992 177:24.0832 178:25.0799 179:26.0192 180:27.0185 181:28.5089 182:30 183:31 184:32 185:33.5074 186:35.0143 187:36.0139 188:37.0135 189:38.5322 190:40.05 191:41.0488 192:42.0476 193:43.5743 194:45.0999 195:46.0977 196:47.0956 197:48.6647 198:50.1597 199:51.2445 200:52.345 
-0 0.8227839121294733 0 0 0 0 0 0 0 0 1:46.8188 2:45.5412 3:44.2719 4:43.3244 5:41.4319 6:39.8497 7:38.6005 8:37.0218 9:35.4401 10:34.2053 11:32.5002 12:30.8058 13:29.6142 14:28.0474 15:26.3059 16:25.318 17:23.6368 18:22.0907 19:21.0238 20:20.025 21:18.5 22:17.0294 23:16.1245 24:15.4106 25:15.8114 26:17.088 27:17.2321 28:17.4929 29:17.2047 30:16.6541 31:16.2788 32:15.6205 33:14.7111 34:13.8924 35:14.3178 36:15.3387 37:16.4924 38:17.4642 39:18.2483 40:19.1702 41:20.025 42:21 43:21.0594 44:21.2132 45:21.3776 46:21.7137 47:22.1359 48:23.4094 49:24.3901 50:25.7099 51:26.6833 52:27.7756 53:29.1204 54:30.0832 55:31.4718 56:32.8938 57:33.2415 58:33.6155 59:34.2265 60:34.8855 61:36.2353 62:36.9654 63:37.7359 64:38.2753 65:38.7167 66:38.4187 67:38.2884 68:38.923 69:38.8973 70:38.9487 71:37.9657 72:37.0135 73:35.609 74:35 75:32.9015 76:30.8058 77:30 78:28.8158 79:27.6586 80:26.2488 81:26.5139 82:27.4591 83:27.7849 84:29.3349 85:30.8869 86:31.7648 87:32.449 88:33.6155 89:34.176 90:34.1599 91:33.2415 92:32.9848 93:31.7805 94:30.3194 95:29.1204 96:28.1603 97:26.8868 98:26 99:24.6982 100:23.2481 101:23.7697 102:24.5153 103:25.2487 104:26.0768 105:26.0192 106:27.0093 107:27.074 108:26.1725 109:24.9166 110:23.5372 111:22.561 112:21.587 113:20.016 114:18.4391 115:17.4642 116:16.1519 117:16.1555 118:15.6525 119:15.1322 120:14.8661 121:14.8661 122:14.3174 123:14.7648 124:15.2315 125:15.1951 126:16.2788 127:17.1172 128:18.5139 129:20.025 130:21.095 131:22.2036 132:23.4412 133:24.7386 134:25.9615 135:27.8317 136:29.7321 137:30.6757 138:32.5973 139:33.6155 140:34.9285 141:36.9129 142:38.9102 143:40.2492 144:41.3829 145:43.4166 146:43.909 147:44.4185 148:45.6396 149:46.0435 150:45.8039 151:44.602 152:43.4166 153:42.638 154:40.5278 155:38.4187 156:37.0135 157:34.9071 158:32.8024 159:31.4006 160:29.6031 161:27.8029 162:26.4008 163:24.6037 164:22.8035 165:21.4009 166:20 167:17.9029 168:16.4012 169:15 170:12.904 171:11.4018 172:10.6301 173:11.016 174:12.2066 175:13.0384 176:14.8433 177:16.6433 178:17.4929 179:19.2955 180:21.095 181:21.9545 182:23.7553 183:25.0599 184:26.4197 185:27.2947 186:29.0914 187:30.8869 188:31.7648 189:33.5605 190:35.3553 191:36.7151 192:38.2693 193:40.3113 194:41.1825 195:42.9803 196:44.2945 197:45.1774 198:46.292 199:47.0106 200:47.5395 
-0 0 0.3955512626514127 1 0 0.223297695097559 0 0 1 0.1879987835507553 1:39.0128 2:38.0526 3:37.1214 4:36.1248 5:35.1283 6:34.1321 7:33.2415 8:32.249 9:31.257 10:30.2655 11:29.2746 12:28.4429 13:27.4591 14:26.4764 15:25.4951 16:24.7386 17:23.2866 18:22.1359 19:21.1896 20:20.2485 21:19.3132 22:18.3848 23:17.8885 24:17 25:16.1245 26:15.2643 27:14.4222 28:13.6015 29:12.8062 30:12.0416 31:11.3137 32:10.7234 33:11.1803 34:11.7047 35:12.6491 36:13.6015 37:14.3178 38:15.2971 39:15.1327 40:16.0312 41:16 42:16.0312 43:16.1245 44:16.2788 45:16.4924 46:16.7631 47:17.088 48:17.6764 49:19.2354 50:20.5913 51:21.9545 52:22.4722 53:23.8537 54:24.4131 55:25.807 56:26.4008 57:26.2488 58:26.9072 59:26.8701 60:27.5862 61:27.6586 62:27.8029 63:28.7226 64:29.1548 65:29.5296 66:29.9666 67:30.4631 68:31.0161 69:31.6228 70:31.3209 71:32.0156 72:32.7567 73:32.5576 74:32.3883 75:32.249 76:31.257 77:30.1496 78:28.5434 79:28 80:28.0179 81:27.074 82:26.1725 83:25.1794 84:24.1868 85:23.1948 86:22.2036 87:21.095 88:20.2237 89:20.3961 90:20.6155 91:20.8806 92:20.2485 93:19.6977 94:18.5729 95:17.4929 96:16.6433 97:16.4012 98:15.6205 99:14.8661 100:14.1421 101:13.4536 102:13.6015 103:13.0384 104:13.4164 105:13 106:13.6015 107:13.3417 108:13.1529 109:13.0192 110:14.0357 111:14.1421 112:15.2971 113:16.4924 114:16.7631 115:18.0278 116:18.3848 117:18.7883 118:20.1246 119:20.5913 120:21.095 121:22.4722 122:23.0217 123:24.4131 124:25.807 125:27.1018 126:28.4253 127:29.8329 128:30.4795 129:31.8904 130:32.5576 131:33.9706 132:34.6554 133:35.3553 134:36.7696 135:37.4833 136:38.2099 137:38.2884 138:38.4187 139:38.6005 140:37.7282 141:36.0555 142:34.6699 143:33.8378 144:32.45 145:31.0644 146:30.2324 147:28.8444 148:28.0179 149:26.6271 150:25.807 151:24.4131 152:23.0217 153:21.6333 154:20.2485 155:18.7221 156:17.2047 157:15.8114 158:14.4222 159:13.6015 160:12.2066 161:11.4018 162:10 163:8.60233 164:7.2111 165:5.83095 166:5.38516 167:5.09902 168:6 169:7 170:8 171:9.52494 172:11.0454 173:12.0416 174:13.0384 175:14.0357 176:15.0333 177:16.0312 178:17.0294 179:18.0278 180:19.0263 181:20.025 182:21.095 183:22.0907 184:23.0868 185:24.0832 186:25.6262 187:27.1662 188:28.1603 189:29.1548 190:30.2655 191:31.257 192:32.249 193:33.2415 194:34.2345 195:35.2278 196:36.2215 197:37.2156 198:38.1182 199:39.0512 200:39.0128 
