svm_type c_svc
kernel_type rbf
gamma 2.7778e-05
nr_class 6
total_sv 124
rho 0.725251 0.790336 0.752933 0.772981 0.550039 0.342315 0.272602 0.217197 -0.0949371 -0.0567666 -0.123468 -0.361071 -0.0433255 -0.348977 -0.29365
label 0 1 2 3 4 5
probA -2.6961 -2.86182 -3.41638 -2.8017 -3.2225 -1.98542 -2.92098 -2.45554 -3.74377 -2.74113 -3.06269 -4.26733 -2.32375 -4.05404 -4.69185
probB -0.0381096 0.0282565 -0.164194 0.0281022 -0.172761 -0.170862 -0.456879 -0.290776 -0.0348676 0.0464719 -0.0274858 0.0797017 0.0252522 0.0356107 0.194147
nr_sv 11 19 24 24 24 22
SV
1 1 1 1 1 1:12.1655 2:12.1655 3:12.1655 4:12.1655 5:12.1655 6:12.1655 7:12.1655 8:10 9:10 10:10 11:10 12:10 13:10 14:10 15:8 16:8 17:8 18:8 19:8 20:8 21:8 22:7.07107 23:7.07107 24:7.07107 25:7.07107 26:7.07107 27:7.07107 28:7.07107 29:2.23607 30:2.23607 31:2.23607 32:2.23607 33:2.23607 34:2.23607 35:2.23607 36:3 37:3 38:3 39:3 40:3 41:3 42:3 43:4 44:4 45:4 46:4 47:4 48:4 49:4 50:5.65685 51:5.65685 52:5.65685 53:5.65685 54:5.65685 55:5.65685 56:5.65685 57:6.32456 58:6.32456 59:6.32456 60:6.32456 61:6.32456 62:6.32456 63:6.32456 64:8.24621 65:8.24621 66:8.24621 67:8.24621 68:8.24621 69:8.24621 70:9.05539 71:9.05539 72:9.05539 73:9.05539 74:9.05539 75:9.05539 76:9.05539 77:10.198 78:10.198 79:10.198 80:10.198 81:10.198 82:10.198 83:10.198 84:11.0454 85:11.0454 86:11.0454 87:11.0454 88:11.0454 89:11.0454 90:11.0454 91:14.0357 92:14.0357 93:14.0357 94:14.0357 95:14.0357 96:14.0357 97:14.0357 98:13 99:13 100:13 101:13 102:13 103:13 104:13 105:14.0357 106:14.0357 107:14.0357 108:14.0357 109:14.0357 110:14.0357 111:14.0357 112:12.0416 113:12.0416 114:12.0416 115:12.0416 116:12.0416 117:12.0416 118:12.0416 119:11.1803 120:11.1803 121:11.1803 122:11.1803 123:11.1803 124:11.1803 125:11.1803 126:9.21954 127:9.21954 128:9.21954 129:9.21954 130:9.21954 131:9.21954 132:9.21954 133:8.06226 134:8.06226 135:8.06226 136:8.06226 137:8.06226 138:8.06226 139:7.28011 140:7.28011 141:7.28011 142:7.28011 143:7.28011 144:7.28011 145:7.28011 146:3.60555 147:3.60555 148:3.60555 149:3.60555 150:3.60555 151:3.60555 152:3.60555 153:3.60555 154:3.60555 155:3.60555 156:3.60555 157:3.60555 158:3.60555 159:3.60555 160:6.7082 161:6.7082 162:6.7082 163:6.7082 164:6.7082 165:6.7082 166:6.7082 167:8.06226 168:8.06226 169:8.06226 170:8.06226 171:8.06226 172:8.06226 173:8.06226 174:10.7703 175:10.7703 176:10.7703 177:10.7703 178:10.7703 179:10.7703 180:10.7703 181:12.083 182:12.083 183:12.083 184:12.083 185:12.083 186:12.083 187:12.083 188:12.6491 189:12.6491 190:12.6491 191:12.6491 192:12.6491 193:12.6491 194:12.6491 195:11.4018 196:11.4018 197:11.4018 198:11.4018 199:11.4018 200:11.4018 
0 0.5111001433890486 0 0.4449050825413345 0 1:23.0868 2:23.0868 3:23.0868 4:21 5:21 6:21 7:21.0238 8:21.0238 9:21.0238 10:20.0998 11:20.0998 12:20.0998 13:21.9317 14:21.9317 15:21.9317 16:21.4709 17:21.4709 18:21.4709 19:21.9545 20:21.9545 21:21.6333 22:21.6333 23:21.6333 24:22.2036 25:22.2036 26:22.2036 27:21.9317 28:21.9317 29:21.9317 30:23.3452 31:23.3452 32:23.3452 33:23.8537 34:23.8537 35:23.8537 36:23.3238 37:23.3238 38:23.3238 39:25.2982 40:25.2982 41:25 42:25 43:25 44:25.7099 45:25.7099 46:25.7099 47:25.318 48:25.318 49:25.318 50:26.1725 51:26.1725 52:26.1725 53:26.1725 54:26.1725 55:26.1725 56:25.318 57:25.318 58:25.318 59:25.7099 60:25.7099 61:25 62:25 63:25 64:25.632 65:25.632 66:25.632 67:25.0799 68:25.0799 69:25.0799 70:25.4951 71:25.4951 72:25.4951 73:25.0599 74:25.0599 75:25.0599 76:25.5539 77:25.5539 78:25.5539 79:25.2389 80:25.2389 81:25.807 82:25.807 83:25.807 84:22.6716 85:22.6716 86:22.6716 87:22.6716 88:22.6716 89:22.6716 90:23.4307 91:23.4307 92:23.4307 93:23.6008 94:23.6008 95:23.6008 96:23.0217 97:23.0217 98:23.0217 99:23.7065 100:23.7065 101:23.2594 102:23.2594 103:23.2594 104:23.7697 105:23.7697 106:23.7697 107:22.0907 108:22.0907 109:22.0907 110:23.0217 111:23.0217 112:23.0217 113:23.0868 114:23.0868 115:23.0868 116:22.2036 117:22.2036 118:22.2036 119:22.561 120:22.561 121:21.8403 122:21.8403 123:21.8403 124:22.1359 125:22.1359 126:22.1359 127:21.5407 128:21.5407 129:21.5407 130:25.6125 131:25.6125 132:25.6125 133:25.4951 134:25.4951 135:25.4951 136:26.1725 137:26.1725 138:26.1725 139:26.2488 140:26.2488 141:27.0185 142:27.0185 143:27.0185 144:26.4008 145:26.4008 146:26.4008 147:26.6271 148:26.6271 149:26.6271 150:25.0599 151:25.0599 152:25.0599 153:25.4951 154:25.4951 155:25.4951 156:24.0416 157:24.0416 158:24.0416 159:24.7386 160:24.7386 161:26.8328 162:26.8328 163:26.8328 164:26.4197 165:26.4197 166:26.4197 167:27.4591 168:27.4591 169:27.4591 170:27.2029 171:27.2029 172:27.2029 173:27.8029 174:27.8029 175:27.8029 176:27.6586 177:27.6586 178:27.6586 179:26.1725 180:26.1725 181:26.1725 182:26.1725 183:26.1725 184:23.0217 185:23.0217 186:23.0217 187:23.3238 188:23.3238 189:23.3238 190:22.3607 191:22.3607 192:22.3607 193:22.8473 194:22.8473 195:22.8473 196:22.4722 197:22.4722 198:22.4722 199:23.7697 200:23.7697 
1 1 1 0.9576493547741778 1 1:43.4166 2:43.4166 3:42.5793 4:44.5982 5:44.0114 6:44.3847 7:43.8634 8:45.1774 9:44.7772 10:47.4342 11:47.2017 12:50.3289 13:50.2494 14:53.0377 15:53.4135 16:54.2033 17:48.3011 18:48.7545 19:45.1221 20:43.9318 21:43.2897 22:42.19 23:42 24:41.0122 25:41.1096 26:40.1995 27:40.7922 28:40.025 29:40.5216 30:39.8497 31:40.4969 32:39.9249 33:40.3113 34:38.2753 35:38.2753 36:38.833 37:37.4433 38:36.6197 39:35.2278 40:34.1321 41:34.4819 42:31.7648 43:30.8869 44:30.5287 45:31.0644 46:30.8058 47:32.6497 48:34.0588 49:32.6497 50:30.8058 51:31.0644 52:30.0167 53:31.7648 54:32.2025 55:33.121 56:34.4819 57:34.1321 58:34.6699 59:37.4433 60:39.9249 61:39.5601 62:40.1622 63:39.8497 64:40.5216 65:40.025 66:40.7922 67:40.1995 68:40.1995 69:41.1096 70:41.0122 71:42 72:42.19 73:43.2897 74:43.9318 75:45.1221 76:48.7545 77:48.3011 78:53.6004 79:53.2635 80:52.4976 81:52.3259 82:50.2494 83:50.3289 84:47.2017 85:47.4342 86:44.7772 87:45.1774 88:43.8634 89:44.3847 90:43.6578 91:44.2719 92:42.5793 93:43.4166 94:43.0465 95:41.1947 96:41.3038 97:37.3631 98:38.6264 99:41.2311 100:43.909 101:43.566 102:43.566 103:44.1022 104:43.4166 105:42.638 106:42.5206 107:41.0366 108:41.0122 109:40.3113 110:40.4599 111:37.4433 112:36.0555 113:31.6228 114:32.28 115:32.8938 116:32.311 117:31.3847 118:30.8707 119:29.9666 120:29.1548 121:28.3019 122:28.0179 123:29.8329 124:32.6497 125:34.6554 126:35 127:35.805 128:36.0555 129:35.5106 130:35.8469 131:35.3553 132:35.7771 133:33.5261 134:32.28 135:32.28 136:32.0156 137:30.8058 138:30.4138 139:29.2746 140:31.0644 141:32.28 142:31.6228 143:31.9531 144:31.3847 145:31.7805 146:30.8869 147:33.6006 148:33.3017 149:33.9706 150:33.9411 151:35.3836 152:34.6554 153:34.6554 154:33.9706 155:34.2053 156:31.3847 157:32.2025 158:31.7805 159:32.311 160:31.9531 161:32.573 162:31.1448 163:30.2655 164:30.8058 165:33.2415 166:36.2353 167:35.5106 168:35.5106 169:36.6197 170:35.805 171:35.3553 172:32.0156 173:29.2062 174:28.6007 175:29.1548 176:30.0167 177:30.8707 178:31.7805 179:32.311 180:33.2415 181:32.573 182:31.9531 183:36.0555 184:37.4433 185:41.1096 186:41.0122 187:41.7253 188:41.7732 189:42.5206 190:42.638 191:44.2041 192:44.6542 193:43.566 194:43.909 195:40.8534 196:38.2753 197:37.6431 198:41.4367 199:41.3038 200:43.1045 
0 0.131768366085683 0 0 0 1:37 2:35 3:35 4:34 5:34 6:33 7:33 8:34 9:34 10:35 11:34 12:36 13:34 14:34 15:33 16:34 17:33 18:34 19:33 20:34 21:34 22:35 23:35 24:36 25:36 26:37 27:36 28:36 29:35 30:36 31:33 32:34 33:34 34:36 35:36 36:35 37:34 38:29 39:33 40:34 41:35 42:36 43:36 44:33 45:34 46:33 47:36 48:35 49:36 50:36 51:36 52:35 53:35 54:33 55:33 56:33 57:33 58:32 59:33 60:33 61:34 62:36 63:34 64:35 65:34 66:34 67:33 68:33 69:34 70:34 71:35 72:35 73:38 74:38 75:37 76:37 77:35 78:34 79:41 80:41 81:41 82:41 83:40 84:40 85:38 86:39 87:38 88:38 89:36 90:37 91:36 92:37 93:37 94:36 95:37 96:36 97:39 98:39 99:39 100:39 101:39 102:40 103:40 104:41 105:41 106:38 107:37 108:37 109:36 110:37 111:36 112:35 113:34 114:33 115:32 116:26 117:26 118:22 119:23 120:23 121:23 122:25 123:26 124:25 125:24 126:24 127:24 128:25 129:25 130:26 131:25 132:26 133:25 134:25 135:25 136:26 137:26 138:27 139:27 140:27 141:26 142:26 143:25 144:25 145:25 146:26 147:26 148:26 149:25 150:25 151:24 152:25 153:25 154:26 155:24 156:23 157:23 158:23 159:26 160:26 161:32 162:33 163:34 164:35 165:36 166:37 167:36 168:37 169:37 170:38 171:42 172:41 173:41 174:41 175:40 176:40 177:39 178:40 179:36 180:37 181:36 182:37 183:37 184:36 185:37 186:36 187:39 188:39 189:39 190:39 191:40 192:40 193:42 194:42 195:41 196:41 197:34 198:35 199:36 200:37 
0.3580069410334963 0 0 0 0 1:24.1661 2:24.1661 3:24.1661 4:22.8035 5:22.8035 6:22.8035 7:22.0227 8:22.0227 9:22.0227 10:21.9317 11:21.9317 12:22.6716 13:22.6716 14:22.6716 15:22.8035 16:22.8035 17:22.8035 18:23.6008 19:23.6008 20:23.8537 21:23.8537 22:23.8537 23:26.4197 24:26.4197 25:26.4197 26:26.8328 27:26.8328 28:26.8328 29:26.4008 30:26.4008 31:26.9258 32:26.9258 33:26.9258 34:26.2488 35:26.2488 36:26.2488 37:26.9258 38:26.9258 39:26.6833 40:26.6833 41:26.6833 42:29.1548 43:29.1548 44:29.1548 45:29 46:29 47:28.0179 48:28.0179 49:28.0179 50:28.0713 51:28.0713 52:28.0713 53:26.3059 54:26.3059 55:26.3059 56:26.4764 57:26.4764 58:25 59:25 60:25 61:25.2982 62:25.2982 63:25.2982 64:24.6982 65:24.6982 66:25.0799 67:25.0799 68:25.0799 69:24.5967 70:24.5967 71:24.5967 72:22.8254 73:22.8254 74:22.4722 75:22.4722 76:22.4722 77:21.6333 78:21.6333 79:21.6333 80:21.4009 81:21.4009 82:21.4009 83:22.0227 84:22.0227 85:21.9317 86:21.9317 87:21.9317 88:22.6274 89:22.6274 90:22.6274 91:22.8035 92:22.8035 93:21.095 94:21.095 95:21.095 96:21.4709 97:21.4709 98:21.4709 99:20.2485 100:20.2485 101:20.8806 102:20.8806 103:20.8806 104:20.6155 105:20.6155 106:20.6155 107:21.3776 108:21.3776 109:21.3776 110:21.2132 111:21.2132 112:22.0907 113:22.0907 114:22.0907 115:22.561 116:22.561 117:22.561 118:21.8403 119:21.8403 120:22.8473 121:22.8473 122:22.8473 123:22.3607 124:22.3607 125:22.3607 126:24.4131 127:24.4131 128:24.4131 129:24.2074 130:24.2074 131:25.4951 132:25.4951 133:25.4951 134:25.4558 135:25.4558 136:25.4558 137:26.1725 138:26.1725 139:26.2488 140:26.2488 141:26.2488 142:25.6125 143:25.6125 144:25.6125 145:26.0768 146:26.0768 147:22.561 148:22.561 149:22.561 150:23.3452 151:23.3452 152:23.3452 153:23.1948 154:23.1948 155:23.1948 156:24.0832 157:24.0832 158:24.0208 159:24.0208 160:24.0208 161:25 162:25 163:25 164:25.4951 165:25.4951 166:24.7386 167:24.7386 168:24.7386 169:25.2982 170:25.2982 171:25.2982 172:24.6982 173:24.6982 174:25.9422 175:25.9422 176:25.9422 177:25.5539 178:25.5539 179:25.5539 180:26.6271 181:26.6271 182:26.6271 183:26.1725 184:26.1725 185:24.2074 186:24.2074 187:24.2074 188:24.4131 189:24.4131 190:24.4131 191:22.8254 192:22.8254 193:23.2594 194:23.2594 195:23.2594 196:21.3776 197:21.3776 198:21.3776 199:22.2036 200:22.2036 
1 1 1 1 0.6438658423947423 1:37.0135 2:37.0135 3:37.0135 4:36 5:36 6:36.0555 7:36.0555 8:35.1283 9:35.1283 10:35.3553 11:35.3553 12:33.7343 13:33.7343 14:35.4683 15:35.4683 16:34.9285 17:34.9285 18:36.2353 19:36.2353 20:35.8469 21:35.8469 22:36.8917 23:36.8917 24:36.6197 25:36.6197 26:38.4187 27:38.4187 28:38.2884 29:38.2884 30:39.6232 31:39.6232 32:38.8973 33:38.8973 34:38.9487 35:38.9487 36:38.9487 37:39.6989 38:39.6989 39:39.8246 40:39.8246 41:40.6079 42:40.6079 43:40.8044 44:40.8044 45:41.6173 46:41.6173 47:41.0488 48:41.0488 49:41.3401 50:41.3401 51:40.3113 52:40.3113 53:40.7063 54:40.7063 55:40.2492 56:40.2492 57:41.2311 58:41.2311 59:38.833 60:38.833 61:37.6563 62:37.6563 63:37.2156 64:37.2156 65:36.1248 66:36.1248 67:36.0139 68:36.0139 69:36.0139 70:35.0571 71:35.0571 72:37 73:37 74:36.4006 75:36.4006 76:38.0132 77:38.0132 78:37.5899 79:37.5899 80:38.0789 81:38.0789 82:36.8782 83:36.8782 84:31.241 85:31.241 86:31.6228 87:31.6228 88:32.45 89:32.45 90:33.121 91:33.121 92:34 93:34 94:34.9285 95:34.9285 96:33.2415 97:33.2415 98:33.9559 99:33.9559 100:33.7343 101:33.7343 102:33.7343 103:36.2215 104:36.2215 105:36.1248 106:36.1248 107:37.054 108:37.054 109:37.054 110:37.054 111:36.1248 112:36.1248 113:36.6742 114:36.6742 115:37.855 116:37.855 117:38.3275 118:38.3275 119:39.5601 120:39.5601 121:42.0476 122:42.0476 123:41.5933 124:41.5933 125:43.0465 126:43.0465 127:42.0119 128:42.0119 129:42.638 130:42.638 131:41.1096 132:41.1096 133:41.0366 134:41.0366 135:41.0366 136:39.598 137:39.598 138:39.6232 139:39.6232 140:36.4006 141:36.4006 142:36.6197 143:36.6197 144:34.9857 145:34.9857 146:35.3553 147:35.3553 148:33.2415 149:33.2415 150:34.4819 151:34.4819 152:34.2053 153:34.2053 154:34.9285 155:34.9285 156:34.0588 157:34.0588 158:33.1361 159:33.1361 160:33.541 161:33.541 162:34.7131 163:34.7131 164:37.1618 165:37.1618 166:36.6742 167:36.6742 168:36.6742 169:39.1152 170:39.1152 171:38.833 172:38.833 173:42.5206 174:42.5206 175:42.4264 176:42.4264 177:35.5106 178:35.5106 179:35.8469 180:35.8469 181:34.8855 182:34.8855 183:35.3412 184:35.3412 185:34.9285 186:34.9285 187:36.0555 188:36.0555 189:35.7351 190:35.7351 191:36.4006 192:36.4006 193:35.9026 194:35.9026 195:36.6742 196:36.6742 197:36.2215 198:36.2215 199:37.1214 200:37.1214 
0.1266105505581616 0.1284484744359219 0 0 0 1:23.0868 2:23.0868 3:23.0868 4:23.0868 5:22.2036 6:22.2036 7:22.2036 8:23.0868 9:23.0868 10:23.0868 11:21.4709 12:21.4709 13:21.4709 14:22.4722 15:22.4722 16:22.4722 17:22.2036 18:22.2036 19:22.2036 20:21.4009 21:21.4009 22:21.4009 23:21.2603 24:21.2603 25:21.2603 26:20.5183 27:20.5183 28:20.5183 29:20.5183 30:20.5183 31:20.5183 32:21.2603 33:21.2603 34:21.2603 35:21.4009 36:21.4009 37:21.4009 38:25.5539 39:25.5539 40:25.5539 41:27.5136 42:27.5136 43:27.5136 44:26.3059 45:26.3059 46:26.3059 47:25.4951 48:25.4951 49:25.4951 50:26.5707 51:26.5707 52:26.5707 53:26 54:26 55:26 56:26.8328 57:26.8328 58:26.8328 59:26.4197 60:26.4197 61:26.4197 62:26.9258 63:26.9258 64:26.9258 65:24.4131 66:24.4131 67:24.4131 68:24.2074 69:24.2074 70:24.2074 71:23.4307 72:23.4307 73:23.4307 74:23.8537 75:23.8537 76:23.8537 77:22.3607 78:22.3607 79:22.3607 80:22.8473 81:22.8473 82:22.8473 83:21.587 84:21.587 85:21.587 86:22.3607 87:22.3607 88:22.3607 89:22.3607 90:22.3607 91:22.3607 92:21.587 93:21.587 94:21.587 95:21.8403 96:21.8403 97:21.8403 98:21.1896 99:21.1896 100:21.1896 101:22.8254 102:22.8254 103:22.8254 104:22.8254 105:22.4722 106:22.4722 107:22.4722 108:24.8395 109:24.8395 110:24.8395 111:24.7588 112:24.7588 113:24.7588 114:26.1725 115:26.1725 116:26.1725 117:26.2488 118:26.2488 119:26.2488 120:27.8029 121:27.8029 122:27.8029 123:27.2029 124:27.2029 125:27.2029 126:27.4591 127:27.4591 128:27.4591 129:26.9258 130:26.9258 131:26.9258 132:27.2947 133:27.2947 134:27.2947 135:25.632 136:25.632 137:25.632 138:26.2488 139:26.2488 140:26.2488 141:25.02 142:25.02 143:25.02 144:24.0832 145:24.0832 146:24.0832 147:25.632 148:25.632 149:25.632 150:25.0799 151:25.0799 152:25.0799 153:25.9422 154:25.9422 155:25.9422 156:25.5539 157:25.5539 158:25.5539 159:26.0768 160:26.0768 161:26.0768 162:25.4951 163:25.4951 164:25.4951 165:24.7588 166:24.7588 167:24.7588 168:24.7588 169:24.7588 170:24.7588 171:24.0832 172:24.0832 173:24.0832 174:24.2074 175:24.2074 176:24.2074 177:23.0217 178:23.0217 179:23.0217 180:23.3238 181:23.3238 182:23.3238 183:22.3607 184:22.3607 185:22.3607 186:22.8473 187:22.8473 188:22.8473 189:22.1359 190:22.1359 191:22.1359 192:22.8035 193:22.8035 194:22.8035 195:22.0907 196:22.0907 197:22.0907 198:23.0217 199:23.0217 200:23.0217 
1 1 1 0.9418660013892493 0.7759077475858115 1:40.3113 2:40.3113 3:39.6611 4:40.8044 5:40.8044 6:40.6079 7:42.5206 8:42.5206 9:42.45 10:46.7547 11:46.7547 12:48.1664 13:48.9183 14:48.9183 15:48.1664 16:46.7547 17:46.7547 18:42.45 19:42.5206 20:42.5206 21:40 22:40.2244 23:40.2244 24:39.6611 25:39.9625 26:39.9625 27:39.4462 28:39.8246 29:39.8246 30:37.6962 31:33.8378 32:33.8378 33:32.8938 34:31.6228 35:31.6228 36:31.3209 37:30.0832 38:30.0832 39:29.0172 40:28 41:28 42:28.6356 43:27.2029 44:27.2029 45:25.2982 46:24.6982 47:24.6982 48:22.8473 49:21.9545 50:21.9545 51:21.095 52:18.3576 53:18.3576 54:17.8885 55:20.3961 56:20.3961 57:20.025 58:19 59:19 60:17 61:14.3178 62:14.3178 63:14.5602 64:13.9284 65:13.9284 66:18.3848 67:18.6011 68:18.6011 69:15 70:17.1172 71:17.1172 72:17.2627 73:18.4391 74:18.4391 75:20.1246 76:19.7231 77:19.7231 78:20.2485 79:20 80:20 81:21.9317 82:21.9317 83:21.9317 84:24.2074 85:26.5707 86:26.5707 87:25.0799 88:26.1725 89:26.1725 90:26.3059 91:27.2947 92:27.2947 93:32.0156 94:33.6155 95:33.6155 96:33.1059 97:32.2025 98:32.2025 99:30.6105 100:33.2415 101:34.6554 102:34.6554 103:36.7967 104:36.8782 105:36.8782 106:38.4187 107:39.1152 108:39.1152 109:38.5876 110:38.9487 111:38.9487 112:38.0132 113:38.9487 114:38.9487 115:38.5876 116:39.6611 117:39.6611 118:39.4081 119:38.6005 120:38.6005 121:38.4187 122:36.8782 123:36.8782 124:36.7967 125:33.9706 126:33.9706 127:32.5576 128:31.241 129:31.241 130:33.1059 131:34.0147 132:34.0147 133:31.7805 134:28.2843 135:28.2843 136:27.2947 137:26.1725 138:26.1725 139:26.0768 140:25.02 141:25.02 142:26.9258 143:25 144:25 145:21.9317 146:21.9317 147:21.9317 148:20.6155 149:20.8087 150:20.8087 151:20.2485 152:20.5913 153:20.5913 154:18.2483 155:17.1172 156:17.1172 157:17.0294 158:15.0333 159:15.0333 160:19.2094 161:19.105 162:19.105 163:18.3848 164:18.4391 165:18.4391 166:17.0294 167:14.3178 168:14.3178 169:14.8661 170:14.5602 171:14.5602 172:18 173:20.0998 174:20.0998 175:20.2237 176:17.4642 177:17.4642 178:18.868 179:20.2485 180:20.2485 181:22.8254 182:23.7697 183:23.7697 184:24.6982 185:25.2982 186:25.2982 187:28.1603 188:28.8617 189:28.8617 190:28 191:29.0172 192:29.0172 193:29.8329 194:31.0483 195:31.0483 196:31.3209 197:35.1141 198:35.1141 199:36.0555 200:37.3363 
1 1 1 1 1 1:13.9284 2:13.9284 3:13.9284 4:12.6491 5:12.6491 6:12.3693 7:12.3693 8:9 9:9 10:9.21954 11:9.21954 12:9.21954 13:8.544 14:8.544 15:15.2643 16:15.2643 17:15.6525 18:15.6525 19:16.5529 20:16.5529 21:17.72 22:17.72 23:17.72 24:19.6469 25:19.6469 26:24 27:24 28:25 29:25 30:28.1603 31:28.1603 32:28.1603 33:28.2843 34:28.2843 35:29.4279 36:29.4279 37:30.0832 38:30.0832 39:31.3209 40:31.3209 41:31.6228 42:31.6228 43:31.6228 44:32.8938 45:32.8938 46:33.2415 47:33.2415 48:31.9531 49:31.9531 50:31.3209 51:31.3209 52:31.3209 53:30.0832 54:30.0832 55:29.6142 56:29.6142 57:28.4429 58:28.4429 59:28.2843 60:28.2843 61:28.2843 62:24 63:24 64:23 65:23 66:18.6815 67:18.6815 68:17.72 69:17.72 70:17.088 71:17.088 72:17.088 73:16.1555 74:16.1555 75:15.6525 76:15.6525 77:14.7648 78:14.7648 79:14.4222 80:14.4222 81:8.544 82:8.544 83:8.544 84:9.21954 85:9.21954 86:9.05539 87:9.05539 88:12.6491 89:12.6491 90:13 91:13 92:13 93:14.3178 94:14.3178 95:16.4012 96:16.4012 97:16.2788 98:16.2788 99:17.0294 100:17.0294 101:17.0294 102:18.3848 103:18.3848 104:29.8329 105:29.8329 106:30.5941 107:30.5941 108:31.5753 109:31.5753 110:32.3883 111:32.3883 112:32.3883 113:32.249 114:32.249 115:33.1361 116:33.1361 117:33.0606 118:33.0606 119:34.0147 120:34.0147 121:34.0147 122:34.9285 123:34.9285 124:36.1386 125:36.1386 126:39.3573 127:39.3573 128:40.7063 129:40.7063 130:42.72 131:42.72 132:42.72 133:44.1022 134:44.1022 135:44.6542 136:44.6542 137:46.0435 138:46.0435 139:46.6154 140:46.6154 141:48.0104 142:48.0104 143:48.0104 144:48.6004 145:48.6004 146:51.4004 147:51.4004 148:57.9828 149:57.9828 150:50.8035 151:50.8035 152:50.8035 153:48.0104 154:48.0104 155:47.4342 156:47.4342 157:44.6542 158:44.6542 159:43.566 160:43.566 161:42.19 162:42.19 163:42.19 164:40.7063 165:40.7063 166:39.3573 167:39.3573 168:36.1386 169:36.1386 170:34.9285 171:34.9285 172:34.9285 173:34.0147 174:34.0147 175:33.0606 176:33.0606 177:33.2415 178:33.2415 179:32.3883 180:32.3883 181:32.3883 182:32.5576 183:32.5576 184:30.5941 185:30.5941 186:29.8329 187:29.8329 188:19.3132 189:19.3132 190:17.8045 191:17.8045 192:17.8045 193:17.0294 194:17.0294 195:16.9706 196:16.9706 197:16.2788 198:16.2788 199:16.4012 200:16.4012 
0 0.102520174232397 0.3020818950955168 0.02395919708314021 0 1:36.0555 2:36.0555 3:35.0143 4:35.0143 5:35 6:35 7:34.0147 8:34.0147 9:34.0588 10:34.0588 11:33.1361 12:33.1361 13:33.3766 14:33.3766 15:32.5576 16:32.5576 17:32.7567 18:32.0156 19:32.0156 20:32.8938 21:32.8938 22:34.176 23:34.176 24:35.3412 25:35.3412 26:34.4819 27:34.4819 28:34.9857 29:34.9857 30:34.4093 31:34.4093 32:35 33:35 34:34.7131 35:35.3836 36:35.3836 37:35.3836 38:35.3836 39:40.8044 40:40.8044 41:41.0488 42:41.0488 43:40.4969 44:40.4969 45:40.8167 46:40.8167 47:40.3113 48:40.3113 49:41.6293 50:41.6293 51:40.4969 52:41.1096 53:41.1096 54:40.025 55:40.025 56:38.833 57:38.833 58:38.3275 59:38.3275 60:37.2156 61:37.2156 62:37.1214 63:37.1214 64:38.0526 65:38.0526 66:37.0135 67:37.0135 68:37.1214 69:36.2215 70:36.2215 71:36.6742 72:36.6742 73:35.9026 74:35.9026 75:37 76:37 77:36.4006 78:36.4006 79:37.1618 80:37.1618 81:36.6742 82:36.6742 83:37.5899 84:37.5899 85:36.6197 86:35.805 87:35.805 88:35.609 89:35.609 90:34.8281 91:34.8281 92:34.7131 93:34.7131 94:31.1448 95:31.1448 96:31.241 97:31.241 98:30 99:30 100:30.8869 101:32.6497 102:32.6497 103:33.1059 104:33.1059 105:31.3209 106:31.3209 107:32.7567 108:32.7567 109:33.7343 110:33.7343 111:34.5254 112:34.5254 113:34.3657 114:34.3657 115:35.2278 116:35.2278 117:35.0143 118:36 119:36 120:36.0139 121:36.0139 122:35.0571 123:35.0571 124:35.2278 125:35.2278 126:34.3657 127:34.3657 128:35.4401 129:35.4401 130:36.6879 131:36.6879 132:40.8167 133:40.8167 134:40.4969 135:41.6173 136:41.6173 137:41.2311 138:41.2311 139:40.4599 140:40.4599 141:40.3609 142:40.3609 143:39.6989 144:39.6989 145:40.2244 146:40.2244 147:38.5876 148:38.5876 149:35.8469 150:35.8469 151:34.8855 152:37 153:37 154:37.9473 155:37.9473 156:36.6742 157:36.6742 158:35.5106 159:35.5106 160:35.2278 161:35.2278 162:34.1321 163:34.1321 164:34.0588 165:34.0588 166:33.1361 167:33.1361 168:33.541 169:32.7567 170:32.7567 171:35.7771 172:35.7771 173:35.3553 174:35.3553 175:39.8246 176:39.8246 177:39.598 178:39.598 179:38.8973 180:38.8973 181:38.9487 182:38.9487 183:38.2884 184:38.2884 185:38.4187 186:36.0555 187:36.0555 188:36.3593 189:36.3593 190:34.4384 191:34.4384 192:35.4683 193:35.4683 194:35.1141 195:35.1141 196:36.4006 197:36.4006 198:36.1386 199:36.1386 200:36.8782 
1 1 0.977700468066566 0.9601151396613908 0.9482501102146916 1:43 2:41 3:41 4:40 5:39 6:40 7:39 8:39 9:40 10:41 11:41 12:41 13:40 14:39 15:38 16:38 17:37 18:38 19:37 20:36 21:34 22:33 23:32 24:31 25:29 26:27 27:28 28:27 29:28 30:28 31:28 32:29 33:29 34:29 35:30 36:32 37:28 38:24 39:24 40:22 41:20 42:21 43:20 44:20 45:19 46:18 47:16 48:16 49:14 50:13 51:13 52:10 53:11 54:14 55:15 56:16 57:17 58:17 59:18 60:19 61:22 62:25 63:29 64:30 65:32 66:33 67:32 68:32 69:37 70:37 71:41 72:43 73:44 74:45 75:47 76:47 77:48 78:48 79:47 80:47 81:46 82:48 83:47 84:47 85:46 86:47 87:47 88:48 89:48 90:47 91:47 92:45 93:44 94:44 95:41 96:37 97:38 98:34 99:32 100:33 101:32 102:31 103:30 104:28 105:24 106:20 107:19 108:18 109:17 110:17 111:16 112:15 113:14 114:12 115:10 116:11 117:13 118:13 119:14 120:15 121:18 122:19 123:20 124:21 125:22 126:25 127:27 128:29 129:31 130:30 131:29 132:29 133:28 134:27 135:28 136:27 137:27 138:28 139:27 140:28 141:31 142:31 143:33 144:36 145:37 146:37 147:37 148:38 149:39 150:39 151:41 152:40 153:39 154:40 155:39 156:39 157:40 158:41 159:41 160:43 161:44 162:44 163:44 164:43 165:42 166:45 167:46 168:47 169:53 170:53 171:54 172:53 173:52 174:52 175:50 176:50 177:50 178:46 179:47 180:46 181:47 182:47 183:46 184:50 185:50 186:51 187:52 188:51 189:54 190:54 191:53 192:53 193:48 194:46 195:44 196:43 197:44 198:45 199:44 200:44 
-0.06935527627745353 1 1 1 0.7843083441922148 1:96.8814 2:96.8814 3:95.7079 4:93.7443 5:92.5743 6:91.5915 7:90.4268 8:89.4427 9:88.2836 10:88.2836 11:79.4292 12:78.6448 13:74.7329 14:73.5459 15:72.5672 16:71.3863 17:68.4471 18:68.4471 19:67.2681 20:62.3699 21:61.1882 22:53.3667 23:50.9902 24:50.1597 25:50.1597 26:49.0918 27:49.0408 28:46.0109 29:37.0135 30:36.0555 31:36.8782 32:36.1386 33:36.6879 34:36.6879 35:36.0555 36:36.4006 37:34.8855 38:34 39:33.6155 40:34.1321 41:33.8378 42:33.8378 43:34.4093 44:34.2053 45:36.1248 46:36.0694 47:34.6554 48:34.7131 49:34.7131 50:31.0644 51:32.2025 52:33.1059 53:33.6155 54:31.1448 55:30.0666 56:30.0666 57:30.0666 58:29.1548 59:29.6142 60:28.8617 61:29.7321 62:28.178 63:29.6816 64:29.4109 65:31.241 66:31.241 67:31.1448 68:31.8277 69:31.8277 70:35.609 71:38.4187 72:39.0512 73:41.8688 74:41.8688 75:42.5206 76:46.7547 77:49.8197 78:50 79:52.4309 80:53.8238 81:54.4059 82:54.4059 83:58.6003 84:62.6817 85:62.9682 86:64.3506 87:68.6003 88:68.9638 89:68.9638 90:69.8355 91:70.2353 92:72.0069 93:72.9178 94:73.8241 95:74.3236 96:75.2396 97:75.2396 98:75.7694 99:75.3923 100:76.5506 101:75.8947 102:76.5376 103:74.9533 104:73.7564 105:73.7564 106:73.3485 107:72.1803 108:71.8471 109:70.7107 110:70.5762 111:69.4622 112:69.2604 113:69.2604 114:67.1193 115:66.1211 116:65.0692 117:65.0308 118:63 119:63.0079 120:62.0322 121:62.0322 122:62.0725 123:58.0775 124:57.1402 125:55.1453 126:53.3385 127:48.3735 128:47.5184 129:46.5296 130:46.5296 131:44.911 132:43.9318 133:43.1741 134:42.2019 135:38.4838 136:35.7771 137:35.3553 138:35.3553 139:32.7567 140:32.45 141:31.6228 142:31.4006 143:32.0156 144:31.8904 145:33.2415 146:33.2415 147:33.2415 148:33.9706 149:34.0588 150:32.8024 151:33.0151 152:31.3847 153:31.7648 154:31.7648 155:30.4631 156:31.0161 157:30.6757 158:31.3209 159:31.0483 160:34.2345 161:34.0588 162:34.0588 163:33.1361 164:31.1448 165:29.4279 166:30.3645 167:29.1548 168:29.5466 169:28.0179 170:28.0179 171:30.8058 172:31.4006 173:32.8024 174:35.3836 175:35.3553 176:37.5366 177:37.5366 178:37.6431 179:40.8044 180:42.2019 181:48.0208 182:49.3964 183:51.9711 184:54.7083 185:54.7083 186:61.7171 187:63.0635 188:64.846 189:68.884 190:76.0592 191:76.5572 192:86.7295 193:86.7295 194:87.3155 195:95.8175 196:96.4624 197:97.4166 198:98.0816 199:97.8008 200:98.4937 
-0 0.5369031109275313 0 0 0 1:76.4199 2:76.4199 3:75.326 4:75.326 5:73.3348 6:73.3348 7:72.2496 8:72.2496 9:61.2944 10:61.2944 11:60.208 12:60.208 13:47.2652 14:47.2652 15:46.1736 16:46.1736 17:41.1947 18:41.1947 19:40.1123 20:40.1123 21:37.1214 22:37.1214 23:36.2215 24:36.2215 25:35.2278 26:34.3657 27:34.3657 28:32.3883 29:32.3883 30:26.0192 31:26.0192 32:26.1725 33:26.1725 34:25.318 35:25.318 36:25.9615 37:25.9615 38:23.0217 39:23.0217 40:23.6008 41:23.6008 42:23.4307 43:23.4307 44:24.7588 45:24.7588 46:24.7588 47:24.7588 48:24.0832 49:24.0832 50:24.4131 51:23.8537 52:23.8537 53:25.0799 54:25.0799 55:26 56:26 57:26.5707 58:26.5707 59:27.5136 60:27.5136 61:29.6142 62:29.6142 63:33.121 64:33.121 65:32.7567 66:32.7567 67:33.2866 68:33.2866 69:32.8024 70:32.8024 71:36.0694 72:36.0694 73:40.3113 74:40.3113 75:41.0122 76:42.4264 77:42.4264 78:48.4149 79:48.4149 80:50.1199 81:50.1199 82:49.1935 83:49.1935 84:49.6588 85:49.6588 86:48.4665 87:48.4665 88:50.9608 89:50.9608 90:49.163 91:49.163 92:46.0109 93:46.0109 94:46 95:46 96:45 97:45 98:42.107 99:42.107 100:42.19 101:40.4475 102:40.4475 103:40.6079 104:40.6079 105:38.3275 106:38.3275 107:37.3631 108:37.3631 109:36.0555 110:36.0555 111:36.4006 112:36.4006 113:35.8469 114:35.8469 115:36.2491 116:36.2491 117:35.7771 118:35.7771 119:36.2353 120:36.2353 121:34.8281 122:34.8281 123:34.0588 124:34.0588 125:33.9706 126:33.2415 127:33.2415 128:33.4216 129:33.4216 130:28.6356 131:28.6356 132:27.313 133:27.313 134:26.9258 135:26.9258 136:27.5136 137:27.5136 138:26.6833 139:26.6833 140:29.1548 141:29.1548 142:29.0172 143:29.0172 144:28.0713 145:28.0713 146:28.1603 147:28.1603 148:27.2947 149:27.2947 150:27.6586 151:26.9258 152:26.9258 153:27.5136 154:27.5136 155:26.9258 156:26.9258 157:27.313 158:27.313 159:26.4008 160:26.4008 161:25.5539 162:25.5539 163:26.0768 164:26.0768 165:25.6125 166:25.6125 167:27.5862 168:27.5862 169:27.5862 170:27.5862 171:31.4006 172:31.4006 173:31.6228 174:31.6228 175:42.9535 176:44.2832 177:44.2832 178:58.1893 179:58.1893 180:59.4643 181:59.4643 182:65.146 183:65.146 184:65.8027 185:65.8027 186:68.6804 187:68.6804 188:69.3758 189:69.3758 190:71.3092 191:71.3092 192:72.7805 193:72.7805 194:73.7564 195:73.7564 196:74.5252 197:74.5252 198:76.4853 199:76.4853 200:77.2787 
-0.2908678039985108 1 1 1 0.6487179193290529 1:84 2:83 3:83 4:67 5:66 6:63 7:43 8:42 9:41 10:35 11:32 12:29 13:29 14:26 15:25 16:21 17:20 18:20 19:16 20:15 21:15 22:17 23:17 24:19 25:18 26:19 27:17 28:17 29:18 30:18 31:18 32:17 33:17 34:15 35:15 36:19 37:20 38:22 39:24 40:26 41:30 42:30 43:32 44:35 45:41 46:42 47:43 48:63 49:66 50:67 51:82 52:83 53:83 54:85 55:84 56:83 57:82 58:80 59:78 60:77 61:72 62:67 63:66 64:55 65:48 66:43 67:34 68:33 69:31 70:28 71:27 72:27 73:25 74:25 75:24 76:28 77:28 78:29 79:30 80:31 81:33 82:34 83:35 84:35 85:37 86:36 87:38 88:38 89:41 90:40 91:40 92:41 93:39 94:39 95:37 96:36 97:36 98:33 99:34 100:36 101:39 102:42 103:42 104:42 105:41 106:41 107:40 108:39 109:39 110:38 111:38 112:37 113:36 114:34 115:34 116:32 117:32 118:30 119:28 120:29 121:28 122:27 123:27 124:26 125:24 126:23 127:22 128:21 129:17 130:17 131:20 132:23 133:23 134:26 135:26 136:27 137:27 138:28 139:29 140:29 141:30 142:32 143:33 144:34 145:34 146:37 147:38 148:39 149:38 150:40 151:41 152:41 153:42 154:42 155:42 156:42 157:38 158:36 159:34 160:33 161:36 162:36 163:37 164:40 165:39 166:41 167:40 168:40 169:41 170:39 171:38 172:37 173:37 174:35 175:36 176:35 177:33 178:31 179:30 180:29 181:28 182:28 183:24 184:25 185:25 186:27 187:29 188:31 189:33 190:43 191:43 192:54 193:60 194:67 195:72 196:72 197:76 198:81 199:83 200:84 
-0 0.404952974479782 0.5746098517109646 0.3921941728335563 0.1944557855456821 1:74.0068 2:74.0068 3:71.0282 4:71.0282 5:70.0286 6:69.0652 7:69.0652 8:61.0737 9:60.0333 10:60.0333 11:58.0345 12:57.0789 13:57.0789 14:54.0833 15:53.1507 16:53.1507 17:51.1566 18:51.1566 19:50.2494 20:38.3275 21:38.3275 22:37.2156 23:34.2345 24:34.2345 25:33.3766 26:32.3883 27:32.3883 28:31.5753 29:32.573 30:32.573 31:31.9531 32:31.9531 33:32.311 34:30.8869 35:30.8869 36:28.3019 37:28.0179 38:28.0179 39:27.2029 40:27.0185 41:27.0185 42:26.2488 43:26.1725 44:26.1725 45:23.6008 46:22.2036 47:22.2036 48:21.095 49:21.095 50:21.4709 51:19.0263 52:19.0263 53:18.1108 54:20.5913 55:20.5913 56:20.2485 57:22.6716 58:22.6716 59:22.6274 60:25.4558 61:25.4558 62:26.9072 63:26.9072 64:29.7321 65:30.4795 66:30.4795 67:33.3017 68:34.8281 69:34.8281 70:36.2353 71:54.1295 72:54.1295 73:54.626 74:55.5428 75:55.5428 76:56.0803 77:57.0088 78:57.0088 79:57.5847 80:57.5847 81:58.5235 82:59.1354 83:59.1354 84:60.0833 85:60.7289 86:60.7289 87:61.6847 88:62.3618 89:62.3618 90:63.3246 91:64.0312 92:64.0312 93:63.1506 94:63.1506 95:61.9839 96:61.8142 97:61.8142 98:59.5399 99:59.4138 100:59.4138 101:56.1427 102:56.0803 103:56.0803 104:55.0364 105:54.037 106:54.037 107:53.0094 108:53 109:53 110:52.0096 111:52.0096 112:52.0384 113:51.0882 114:51.0882 115:45.0999 116:44.1814 117:44.1814 118:41.1947 119:40.3113 120:40.3113 121:39.3192 122:38.4708 123:38.4708 124:37.4833 125:37.4833 126:35.9026 127:31.0483 128:31.0483 129:30.3645 130:29.4109 131:29.4109 132:28.7924 133:27.8568 134:27.8568 135:26.8328 136:25.9422 137:25.9422 138:25.5539 139:24.6982 140:24.6982 141:24.4131 142:24.4131 143:23.6008 144:23.8537 145:23.8537 146:23.3238 147:23.7065 148:23.7065 149:23.2594 150:23.7697 151:23.7697 152:23.4094 153:24.0416 154:24.0416 155:23.7697 156:23.7697 157:25.318 158:25.0799 159:25.0799 160:26.0192 161:26.0192 162:26.0192 163:28.1603 164:32.249 165:32.249 166:31.9061 167:32.45 168:32.45 169:32.2025 170:32.8024 171:32.8024 172:32.5576 173:32.5576 174:31.8277 175:31.8277 176:31.8277 177:30.4795 178:31.3847 179:31.3847 180:33.121 181:33.541 182:33.541 183:34.4384 184:34.9285 185:34.9285 186:35.8469 187:35.8469 188:39.0512 189:57.7062 190:57.7062 191:58.8558 192:64.7765 193:64.7765 194:65.6201 195:68.593 196:68.593 197:69.4622 198:72.4431 199:72.4431 200:74.2428 
-0.1714723151557566 1 1 1 0.8023532756236967 1:99 2:98 3:94 4:83 5:74 6:57 7:53 8:52 9:49 10:47 11:42 12:36 13:38 14:39 15:38 16:37 17:37 18:38 19:39 20:37 21:36 22:34 23:36 24:37 25:38 26:38 27:37 28:37 29:38 30:38 31:38 32:36 33:35 34:37 35:46 36:49 37:51 38:52 39:53 40:54 41:65 42:74 43:83 44:94 45:98 46:100 47:97 48:94 49:87 50:81 51:77 52:72 53:67 54:65 55:63 56:59 57:55 58:51 59:51 60:49 61:47 62:41 63:38 64:30 65:27 66:25 67:27 68:27 69:29 70:30 71:29 72:28 73:28 74:28 75:29 76:28 77:28 78:27 79:27 80:28 81:30 82:34 83:35 84:36 85:37 86:39 87:40 88:40 89:41 90:45 91:48 92:48 93:50 94:52 95:53 96:53 97:54 98:55 99:56 100:57 101:57 102:57 103:56 104:56 105:54 106:51 107:50 108:49 109:48 110:46 111:34 112:34 113:32 114:31 115:27 116:26 117:26 118:26 119:27 120:27 121:27 122:28 123:29 124:30 125:33 126:33 127:34 128:32 129:31 130:30 131:29 132:28 133:27 134:26 135:26 136:27 137:27 138:29 139:32 140:33 141:40 142:47 143:49 144:51 145:51 146:53 147:56 148:56 149:56 150:57 151:57 152:57 153:56 154:55 155:54 156:53 157:53 158:52 159:49 160:46 161:46 162:42 163:41 164:40 165:39 166:37 167:35 168:32 169:29 170:28 171:29 172:28 173:28 174:28 175:28 176:29 177:30 178:29 179:28 180:27 181:25 182:27 183:29 184:38 185:42 186:46 187:49 188:51 189:53 190:55 191:59 192:63 193:65 194:67 195:72 196:78 197:81 198:87 199:94 200:98 
-1 1 1 1 0.8846642755909223 1:21.095 2:21.095 3:21.095 4:21.095 5:19.4165 6:19.4165 7:19.4165 8:19.4165 9:19.2094 10:19.2094 11:19.2094 12:17.8045 13:17.8045 14:17.8045 15:17.8045 16:16.2788 17:16.2788 18:16.2788 19:16.2788 20:16.4012 21:16.4012 22:16.4012 23:15 24:15 25:15 26:15 27:15.2643 28:15.2643 29:15.2643 30:15.2643 31:14.7648 32:14.7648 33:14.7648 34:8.24621 35:8.24621 36:8.24621 37:8.24621 38:8.94427 39:8.94427 40:8.94427 41:10.2956 42:10.2956 43:10.2956 44:10.2956 45:10 46:10 47:10 48:10 49:10.6301 50:10.6301 51:10.6301 52:9.8995 53:9.8995 54:9.8995 55:9.8995 56:10 57:10 58:10 59:10 60:8.94427 61:8.94427 62:8.94427 63:9.48683 64:9.48683 65:9.48683 66:9.48683 67:9 68:9 69:9 70:9 71:10.0499 72:10.0499 73:10.0499 74:11.1803 75:11.1803 76:11.1803 77:11.1803 78:10.8167 79:10.8167 80:10.8167 81:12.0416 82:12.0416 83:12.0416 84:12.0416 85:12.0416 86:12.0416 87:12.0416 88:12.0416 89:14.4222 90:14.4222 91:14.4222 92:17.2047 93:17.2047 94:17.2047 95:17.2047 96:19.7231 97:19.7231 98:19.7231 99:19.7231 100:17.72 101:17.72 102:17.72 103:18.4391 104:18.4391 105:18.4391 106:18.4391 107:18.1108 108:18.1108 109:18.1108 110:18.1108 111:19.0263 112:19.0263 113:19.0263 114:18 115:18 116:18 117:18 118:17.0294 119:17.0294 120:17.0294 121:16 122:16 123:16 124:16 125:13.3417 126:13.3417 127:13.3417 128:13.3417 129:10.4403 130:10.4403 131:10.4403 132:8.06226 133:8.06226 134:8.06226 135:8.06226 136:7.28011 137:7.28011 138:7.28011 139:7.28011 140:6.08276 141:6.08276 142:6.08276 143:4.12311 144:4.12311 145:4.12311 146:4.12311 147:2.23607 148:2.23607 149:2.23607 150:2.23607 151:2.82843 152:2.82843 153:2.82843 154:4 155:4 156:4 157:4 158:4.12311 159:4.12311 160:4.12311 161:5.38516 162:5.38516 163:5.38516 164:5.38516 165:6.32456 166:6.32456 167:6.32456 168:6.32456 169:7.61577 170:7.61577 171:7.61577 172:9.48683 173:9.48683 174:9.48683 175:9.48683 176:10.7703 177:10.7703 178:10.7703 179:10.7703 180:11.7047 181:11.7047 182:11.7047 183:15.6525 184:15.6525 185:15.6525 186:15.6525 187:16.5529 188:16.5529 189:16.5529 190:16.5529 191:17.8885 192:17.8885 193:17.8885 194:18.7883 195:18.7883 196:18.7883 197:18.7883 198:19.7231 199:19.7231 200:19.7231 
-0.1379430470640766 0.7413782948127182 0.8298994185525622 0.6027565531457564 0.281184811910487 1:91 2:87 3:85 4:84 5:81 6:79 7:77 8:64 9:62 10:60 11:57 12:45 13:44 14:41 15:39 16:34 17:30 18:26 19:23 20:20 21:17 22:20 23:21 24:23 25:25 26:28 27:33 28:39 29:42 30:44 31:45 32:57 33:59 34:61 35:64 36:77 37:79 38:81 39:85 40:88 41:91 42:91 43:87 44:85 45:71 46:62 47:56 48:49 49:47 50:45 51:43 52:41 53:40 54:36 55:32 56:27 57:26 58:27 59:28 60:29 61:30 62:30 63:31 64:32 65:33 66:35 67:36 68:38 69:41 70:44 71:44 72:44 73:44 74:45 75:46 76:49 77:50 78:50 79:51 80:52 81:52 82:53 83:53 84:54 85:55 86:55 87:54 88:55 89:53 90:52 91:51 92:49 93:47 94:45 95:44 96:43 97:42 98:39 99:36 100:35 101:34 102:35 103:33 104:30 105:30 106:29 107:27 108:26 109:23 110:23 111:17 112:11 113:6 114:5 115:7 116:8 117:11 118:17 119:17 120:18 121:18 122:19 123:18 124:19 125:19 126:19 127:18 128:17 129:16 130:17 131:22 132:24 133:25 134:29 135:30 136:30 137:32 138:34 139:35 140:35 141:35 142:37 143:42 144:41 145:41 146:43 147:43 148:44 149:46 150:47 151:49 152:50 153:52 154:52 155:54 156:55 157:55 158:55 159:55 160:54 161:53 162:52 163:52 164:52 165:51 166:50 167:50 168:46 169:45 170:45 171:44 172:44 173:44 174:41 175:38 176:36 177:35 178:33 179:32 180:30 181:30 182:28 183:27 184:26 185:26 186:28 187:34 188:36 189:41 190:42 191:43 192:45 193:48 194:50 195:61 196:66 197:72 198:85 199:90 200:91 
-0.2189192043799953 1 1 1 0.684174243730947 1:83 2:80 3:78 4:77 5:65 6:63 7:62 8:56 9:53 10:50 11:34 12:31 13:29 14:28 15:25 16:24 17:24 18:22 19:18 20:13 21:18 22:19 23:23 24:25 25:27 26:29 27:33 28:34 29:50 30:52 31:55 32:62 33:63 34:65 35:77 36:78 37:81 38:84 39:80 40:76 41:61 42:60 43:59 44:48 45:45 46:44 47:40 48:35 49:34 50:23 51:22 52:21 53:21 54:20 55:23 56:23 57:25 58:25 59:27 60:30 61:31 62:31 63:31 64:37 65:38 66:39 67:40 68:41 69:42 70:43 71:43 72:45 73:45 74:46 75:46 76:48 77:50 78:51 79:52 80:53 81:53 82:54 83:55 84:55 85:56 86:57 87:60 88:59 89:60 90:60 91:58 92:56 93:55 94:54 95:53 96:52 97:51 98:50 99:50 100:50 101:48 102:48 103:45 104:41 105:40 106:37 107:36 108:35 109:35 110:33 111:28 112:28 113:26 114:26 115:24 116:22 117:20 118:19 119:19 120:21 121:21 122:23 123:26 124:26 125:27 126:33 127:33 128:34 129:35 130:35 131:36 132:37 133:40 134:41 135:45 136:49 137:49 138:50 139:51 140:51 141:52 142:52 143:53 144:54 145:55 146:56 147:58 148:59 149:59 150:59 151:60 152:59 153:58 154:57 155:56 156:55 157:54 158:54 159:53 160:52 161:52 162:51 163:48 164:46 165:46 166:45 167:45 168:43 169:42 170:41 171:40 172:40 173:37 174:31 175:32 176:31 177:31 178:28 179:28 180:26 181:25 182:25 183:23 184:21 185:21 186:21 187:21 188:23 189:23 190:34 191:37 192:41 193:43 194:46 195:49 196:59 197:60 198:68 199:77 200:81 
-0.2660270306175924 0.3378564660110377 0 0 0.3031311536018066 1:71.007 2:71.007 3:69.0652 4:69.0652 5:60.075 6:59.1354 7:59.1354 8:56.1427 9:56.1427 10:55.2268 11:48.2597 12:48.2597 13:47.1699 14:43.1856 15:43.1856 16:42.107 17:42.107 18:39.1152 19:38.0526 20:38.0526 21:37.054 22:36.0139 23:36.0139 24:34.0147 25:34.0147 26:32.1403 27:32.249 28:32.249 29:31.4006 30:31.4006 31:30.4138 32:25 33:25 34:24.2074 35:24.0832 36:24.0832 37:23.3452 38:23.3452 39:23.4307 40:22.8035 41:22.8035 42:23.3238 43:20.2237 44:20.2237 45:21.095 46:21.095 47:21.8403 48:21.1896 49:21.1896 50:21.9317 51:21.4709 52:21.4709 53:22.4722 54:22.4722 55:22.2036 56:22.8035 57:22.8035 58:22.6716 59:22.6716 60:31.9061 61:34.6699 62:34.6699 63:35.2278 64:38.0132 65:38.0132 66:38.833 67:38.833 68:40.2244 69:43.566 70:43.566 71:43.909 72:45.6508 73:45.6508 74:46.0652 75:46.0652 76:46.9574 77:47.927 78:47.927 79:48.8467 80:48.8467 81:49.3964 82:50.3289 83:50.3289 84:50.9215 85:52.811 86:52.811 87:53.4509 88:53.4509 89:54.4059 90:55.0818 91:55.0818 92:54.5711 93:55.3173 94:55.3173 95:54.7449 96:54.7449 97:53.6004 98:53.3385 99:53.3385 100:52.2398 101:52.0865 102:52.0865 103:51.0392 104:51.0392 105:51.0098 106:50 107:50 108:50.01 109:50.01 110:49.0408 111:49.0918 112:49.0918 113:46.3897 114:45.3982 115:45.3982 116:43.7379 117:43.7379 118:42.7551 119:41.2311 120:41.2311 121:26.9258 122:25.9422 123:25.9422 124:26.4197 125:26.4197 126:26.0768 127:26.6271 128:26.6271 129:26.4008 130:26.4008 131:27.0185 132:26.9072 133:26.9072 134:27.5862 135:27.6586 136:27.6586 137:28.4253 138:28.4253 139:28.6007 140:29.4109 141:29.4109 142:29.6816 143:28.6531 144:28.6531 145:29.0689 146:29.0689 147:26.4764 148:27.2947 149:27.2947 150:27.0185 151:26.0768 152:26.0768 153:26.3059 154:26.3059 155:25.4951 156:25.7099 157:25.7099 158:24.7386 159:24.7386 160:24.0416 161:23.0868 162:23.0868 163:22.4722 164:21.5407 165:21.5407 166:20 167:20 168:20.6155 169:20.5183 170:20.5183 171:22.6716 172:22.8035 173:22.8035 174:34.0147 175:34.0147 176:34.5398 177:35.4683 178:35.4683 179:36.0555 180:36.0555 181:41.7612 182:42.45 183:42.45 184:44.3847 185:45.1221 186:45.1221 187:48.0521 188:48.0521 189:48.8365 190:63.6396 191:63.6396 192:64.4981 193:66.4831 194:66.4831 195:69.1809 196:69.1809 197:70.1783 198:70.1142 199:70.1142 200:71.0634 
-0.2482088362859386 1 1 1 0.7767519119822922 1:72 2:67 3:65 4:63 5:60 6:59 7:56 8:54 9:53 10:51 11:50 12:49 13:47 14:42 15:40 16:37 17:35 18:32 19:31 20:29 21:26 22:23 23:22 24:19 25:18 26:13 27:13 28:12 29:10 30:10 31:11 32:12 33:13 34:15 35:15 36:18 37:18 38:18 39:19 40:20 41:22 42:27 43:27 44:29 45:31 46:32 47:34 48:35 49:37 50:38 51:39 52:45 53:47 54:48 55:48 56:50 57:51 58:51 59:51 60:50 61:50 62:51 63:53 64:56 65:57 66:63 67:67 68:67 69:68 70:70 71:71 72:71 73:72 74:72 75:72 76:73 77:72 78:73 79:73 80:72 81:69 82:70 83:73 84:72 85:73 86:72 87:72 88:72 89:71 90:71 91:71 92:70 93:69 94:67 95:64 96:63 97:57 98:56 99:53 100:51 101:50 102:51 103:51 104:51 105:50 106:47 107:48 108:45 109:38 110:37 111:35 112:34 113:34 114:31 115:29 116:29 117:27 118:24 119:21 120:19 121:19 122:18 123:18 124:17 125:15 126:15 127:13 128:11 129:9 130:11 131:13 132:13 133:14 134:18 135:20 136:21 137:22 138:23 139:25 140:29 141:31 142:32 143:35 144:37 145:39 146:42 147:46 148:50 149:52 150:53 151:55 152:57 153:58 154:59 155:61 156:63 157:65 158:66 159:72 160:72 161:73 162:71 163:71 164:70 165:68 166:68 167:64 168:60 169:56 170:49 171:45 172:41 173:35 174:31 175:30 176:29 177:29 178:30 179:30 180:31 181:30 182:32 183:32 184:31 185:30 186:29 187:30 188:37 189:41 190:45 191:49 192:56 193:60 194:64 195:68 196:69 197:71 198:72 199:72 200:73 
-0.8158254606781218 1 1 1 0.6490370560016623 1:65 2:64 3:63 4:56 5:55 6:40 7:39 8:37 9:35 10:34 11:33 12:31 13:27 14:26 15:25 16:23 17:26 18:27 19:30 20:34 21:35 22:35 23:36 24:39 25:40 26:55 27:56 28:62 29:64 30:65 31:66 32:62 33:48 34:48 35:41 36:35 37:32 38:28 39:24 40:23 41:21 42:17 43:18 44:18 45:18 46:20 47:20 48:22 49:22 50:23 51:24 52:25 53:26 54:28 55:30 56:37 57:37 58:38 59:38 60:39 61:39 62:40 63:42 64:43 65:44 66:45 67:46 68:47 69:46 70:47 71:46 72:47 73:48 74:49 75:50 76:51 77:53 78:53 79:54 80:54 81:55 82:56 83:56 84:56 85:58 86:56 87:55 88:53 89:52 90:51 91:51 92:49 93:48 94:47 95:46 96:34 97:32 98:29 99:29 100:27 101:26 102:22 103:19 104:17 105:16 106:14 107:14 108:13 109:12 110:11 111:10 112:11 113:10 114:19 115:20 116:20 117:19 118:19 119:11 120:11 121:11 122:12 123:13 124:14 125:14 126:15 127:16 128:15 129:16 130:17 131:18 132:25 133:28 134:29 135:29 136:30 137:30 138:31 139:34 140:34 141:47 142:48 143:48 144:49 145:49 146:51 147:51 148:53 149:54 150:56 151:57 152:58 153:56 154:56 155:56 156:54 157:54 158:53 159:52 160:51 161:50 162:48 163:46 164:47 165:46 166:47 167:45 168:44 169:43 170:42 171:41 172:40 173:40 174:39 175:38 176:30 177:29 178:28 179:25 180:25 181:24 182:23 183:22 184:21 185:20 186:18 187:18 188:18 189:18 190:18 191:21 192:22 193:25 194:32 195:32 196:39 197:41 198:48 199:48 200:63 
-0.2185911101728087 1 1 1 0.9447093071662319 1:96 2:95 3:93 4:90 5:86 6:79 7:78 8:66 9:59 10:57 11:51 12:48 13:48 14:47 15:44 16:42 17:35 18:36 19:35 20:34 21:30 22:25 23:22 24:21 25:29 26:31 27:29 28:24 29:20 30:23 31:24 32:28 33:27 34:26 35:29 36:31 37:32 38:32 39:33 40:37 41:39 42:41 43:45 44:44 45:42 46:45 47:48 48:52 49:55 50:57 51:63 52:65 53:67 54:67 55:67 56:66 57:65 58:63 59:63 60:61 61:60 62:58 63:56 64:56 65:59 66:60 67:62 68:63 69:65 70:66 71:66 72:67 73:66 74:64 75:62 76:58 77:55 78:52 79:51 80:48 81:45 82:42 83:44 84:46 85:44 86:40 87:39 88:38 89:35 90:33 91:31 92:31 93:30 94:27 95:26 96:27 97:28 98:24 99:21 100:20 101:19 102:15 103:16 104:10 105:8 106:16 107:18 108:20 109:22 110:26 111:30 112:29 113:26 114:20 115:20 116:24 117:26 118:30 119:33 120:35 121:36 122:35 123:40 124:42 125:44 126:45 127:48 128:51 129:51 130:57 131:59 132:66 133:78 134:80 135:84 136:88 137:93 138:95 139:92 140:89 141:85 142:73 143:63 144:60 145:55 146:53 147:50 148:46 149:40 150:37 151:37 152:40 153:40 154:41 155:38 156:37 157:36 158:38 159:38 160:38 161:38 162:38 163:41 164:41 165:41 166:42 167:45 168:51 169:53 170:53 171:49 172:46 173:45 174:42 175:41 176:41 177:39 178:38 179:39 180:38 181:36 182:37 183:39 184:41 185:40 186:40 187:37 188:37 189:40 190:47 191:50 192:52 193:55 194:60 195:65 196:82 197:90 198:91 199:93 200:95 
-0 0.2145624707725403 0.4373985494510977 0.3145220208948519 0.2955595323844895 1:89.6772 2:89.6772 3:88.5664 4:86.5794 5:86.5794 6:85.4751 7:82.4924 8:82.4924 9:81.3941 10:79.404 11:79.404 12:78.3135 13:77.3175 14:75.1665 15:75.1665 16:63.1981 17:62.1289 18:62.1289 19:61.2046 20:60.1332 21:60.1332 22:59.2115 23:58.2151 24:58.2151 25:57.1402 26:49.163 27:48.2597 28:48.2597 29:45.2769 30:44.4072 31:44.4072 32:41.4367 33:39.2046 34:39.2046 35:37.2156 36:36.3456 37:35.3553 38:35.3553 39:33.1361 40:33.0606 41:33.0606 42:32.0156 43:32.0156 44:32.0156 45:31.0161 46:30.0666 47:30.0666 48:29.0689 49:28.1603 50:22.2036 51:22.2036 52:21.095 53:19.105 54:19.105 55:18.0278 56:17.0294 57:17.0294 58:16 59:14.1421 60:14.3178 61:14.3178 62:15.5242 63:16.4924 64:16.4924 65:18.9737 66:22.8035 67:22.8035 68:22.6716 69:24.7588 70:24.7588 71:24.8395 72:27.2029 73:27.4591 74:27.4591 75:29.1548 76:33.7343 77:33.7343 78:33.541 79:35.2278 80:35.2278 81:35.0571 82:34.1321 83:34.1321 84:34.9285 85:37.3631 86:38.6264 87:38.6264 88:38.0789 89:39.3573 90:39.3573 91:38.9487 92:40.4969 93:40.4969 94:41.8808 95:46.0977 96:46.0109 97:46.0109 98:46.6905 99:46.669 100:46.669 101:47.3814 102:47.4236 103:47.4236 104:48.1664 105:48.2701 106:48.2701 107:49.0408 108:49.6488 109:51.3128 110:51.3128 111:52.7731 112:56.3649 113:56.3649 114:57.3847 115:55.0818 116:55.0818 117:53.8516 118:53.6004 119:54.3415 120:54.3415 121:53.2353 122:52.1536 123:52.1536 124:52.0865 125:51.0392 126:51.0392 127:51 128:50.01 129:50.01 130:50.0899 131:49.163 132:49.4975 133:49.4975 134:48.6621 135:48.8365 136:48.8365 137:48.0521 138:47.0744 139:47.0744 140:40.8167 141:39.9625 142:39.9625 143:39.0512 144:38.2884 145:38.2099 146:38.2099 147:36.7696 148:36.7967 149:36.7967 150:31.9061 151:32.249 152:32.249 153:30.4631 154:31.0161 155:29.0689 156:29.0689 157:28.1603 158:28.2843 159:28.2843 160:26.6833 161:26.9258 162:26.9258 163:26.2488 164:26.9258 165:26.9258 166:25.2389 167:25.807 168:25.6125 169:25.6125 170:27.5862 171:28.0179 172:28.0179 173:30.8058 174:31.4006 175:31.4006 176:32.8024 177:40.3113 178:40.7063 179:40.7063 180:46.0977 181:47.4236 182:47.4236 183:51.0784 184:53.7122 185:53.7122 186:60.1664 187:60.7454 188:60.7454 189:71.1688 190:71.8401 191:73.0821 192:73.0821 193:80.7775 194:81.4923 195:81.4923 196:85.3756 197:86.122 198:86.122 199:88.0738 200:90.4268 
-0.2491554606030259 1 1 1 0.8803448693734428 1:97 2:96 3:96 4:92 5:91 6:90 7:89 8:80 9:79 10:72 11:71 12:69 13:68 14:53 15:67 16:68 17:71 18:72 19:79 20:80 21:89 22:90 23:91 24:92 25:95 26:96 27:96 28:97 29:97 30:96 31:94 32:93 33:91 34:90 35:81 36:80 37:71 38:70 39:55 40:54 41:53 42:50 43:49 44:48 45:45 46:44 47:42 48:43 49:42 50:43 51:42 52:42 53:42 54:42 55:41 56:35 57:34 58:32 59:31 60:28 61:26 62:26 63:24 64:24 65:18 66:18 67:13 68:13 69:7 70:7 71:6 72:6 73:6 74:7 75:7 76:8 77:9 78:10 79:13 80:14 81:15 82:16 83:17 84:19 85:20 86:26 87:30 88:31 89:37 90:38 91:41 92:41 93:42 94:43 95:44 96:47 97:46 98:43 99:43 100:38 101:36 102:32 103:32 104:31 105:30 106:29 107:28 108:27 109:27 110:26 111:26 112:25 113:24 114:23 115:20 116:23 117:24 118:26 119:26 120:27 121:27 122:28 123:29 124:30 125:30 126:31 127:32 128:34 129:38 130:38 131:43 132:43 133:47 134:47 135:44 136:43 137:42 138:41 139:40 140:38 141:37 142:32 143:31 144:27 145:20 146:19 147:18 148:17 149:16 150:15 151:14 152:11 153:9 154:8 155:8 156:7 157:6 158:6 159:6 160:7 161:7 162:13 163:13 164:16 165:16 166:23 167:24 168:25 169:26 170:28 171:31 172:32 173:34 174:35 175:42 176:43 177:42 178:42 179:42 180:43 181:42 182:43 183:43 184:43 185:44 186:45 187:48 188:49 189:50 190:53 191:54 192:55 193:70 194:71 195:80 196:81 197:90 198:91 199:93 200:94 
-0.6340829850526684 1 0.9164173245610554 0.6882088152777467 0.4143526578455262 1:75 2:74 3:73 4:72 5:71 6:68 7:67 8:61 9:41 10:40 11:32 12:31 13:31 14:32 15:36 16:41 17:61 18:64 19:68 20:70 21:72 22:75 23:73 24:72 25:68 26:67 27:61 28:58 29:57 30:52 31:47 32:42 33:39 34:38 35:36 36:36 37:34 38:32 39:31 40:27 41:26 42:26 43:26 44:26 45:25 46:24 47:24 48:22 49:23 50:24 51:24 52:25 53:26 54:26 55:27 56:27 57:29 58:30 59:32 60:34 61:34 62:35 63:35 64:36 65:37 66:37 67:39 68:40 69:41 70:42 71:42 72:43 73:44 74:47 75:46 76:47 77:48 78:52 79:49 80:46 81:45 82:43 83:40 84:39 85:37 86:37 87:32 88:31 89:30 90:30 91:29 92:30 93:28 94:27 95:25 96:24 97:23 98:19 99:19 100:20 101:19 102:19 103:20 104:20 105:23 106:24 107:26 108:25 109:26 110:27 111:27 112:29 113:28 114:27 115:26 116:26 117:25 118:25 119:23 120:23 121:20 122:19 123:20 124:20 125:20 126:20 127:20 128:22 129:24 130:26 131:27 132:29 133:29 134:30 135:29 136:30 137:30 138:31 139:32 140:37 141:38 142:39 143:43 144:45 145:46 146:50 147:53 148:48 149:47 150:47 151:44 152:43 153:43 154:42 155:41 156:41 157:40 158:35 159:35 160:34 161:33 162:33 163:29 164:29 165:28 166:27 167:28 168:26 169:26 170:25 171:24 172:24 173:23 174:23 175:23 176:24 177:25 178:25 179:26 180:26 181:27 182:28 183:31 184:32 185:33 186:34 187:36 188:36 189:38 190:39 191:43 192:51 193:52 194:56 195:57 196:60 197:68 198:69 199:73 200:74 
-0.7552192127779598 1 1 1 1 1:30.0167 2:30.0167 3:29.0689 4:29.0689 5:35.805 6:35.805 7:35.609 8:38.2099 9:38.2099 10:38.1838 11:38.1838 12:41.1096 13:41.1096 14:41.2311 15:43.6005 16:43.6005 17:45.1774 18:45.1774 19:44.7214 20:47.4342 21:47.4342 22:47.1275 23:47.1275 24:47.8017 25:47.8017 26:47.2969 27:52.2398 28:52.2398 29:52.0096 30:52.0096 31:50.0899 32:50.0899 33:50.1597 34:49.2544 35:49.2544 36:49.6488 37:49.6488 38:48.8365 39:49.2443 40:49.2443 41:48.5077 42:48.5077 43:49.0408 44:49.0408 45:47.1699 46:47.5395 47:47.5395 48:44.7772 49:44.7772 50:42.1545 51:41.7852 52:41.7852 53:40.4969 54:40.4969 55:38.6264 56:38.6264 57:38.0789 58:37.1618 59:37.1618 60:35.8469 61:35.8469 62:36.3593 63:36.3593 64:35.805 65:35 66:35 67:34.8281 68:34.8281 69:33.3017 70:33.2415 71:33.2415 72:32.5269 73:32.5269 74:32.5576 75:32.5576 76:28.3019 77:26.9258 78:26.9258 79:27.2947 80:27.2947 81:25.2982 82:25.2982 83:25.9615 84:25.4951 85:25.4951 86:26.3059 87:26.3059 88:26.0768 89:25.02 90:25.02 91:26 92:26 93:24.0832 94:24.0832 95:24.1868 96:21.8403 97:21.8403 98:22.4722 99:22.4722 100:21.9317 101:22.8254 102:22.8254 103:22.2036 104:22.2036 105:26.9072 106:26.9072 107:27.0185 108:31.9061 109:31.9061 110:32.249 111:32.249 112:65.9697 113:65.9697 114:66.7083 115:75.505 116:75.505 117:76.2955 118:76.2955 119:80.2309 120:80.0625 121:80.0625 122:80.895 123:80.895 124:80.5047 125:80.5047 126:79.404 127:79.3095 128:79.3095 129:78.2304 130:78.2304 131:77.2334 132:77.2334 133:76.1643 134:70.1783 135:70.1783 136:69.1158 137:69.1158 138:59.1354 139:57.0351 140:57.0351 141:52.0384 142:52.0384 143:51.0882 144:51.0882 145:50.0899 146:49.0408 147:49.0408 148:48.0416 149:48.0416 150:47.0106 151:43.0116 152:43.0116 153:42.0476 154:42.0476 155:37.054 156:37.054 157:36.0139 158:36 159:36 160:35.0143 161:35.0143 162:35.2278 163:35.2278 164:33.541 165:33.7343 166:33.7343 167:31.7805 168:31.7805 169:31.0483 170:30.0832 171:30.0832 172:29.4109 173:29.4109 174:27.5136 175:27.5136 176:25.9422 177:24.1868 178:24.1868 179:23.8537 180:23.8537 181:23.0217 182:23.0217 183:22.6274 184:24.0832 185:24.0832 186:24.6982 187:24.6982 188:25.5539 189:26.9258 190:26.9258 191:27.8568 192:27.8568 193:29.1204 194:29.1204 195:28.8617 196:29.6142 197:29.6142 198:29.2746 199:29.2746 200:30.1496 
-0.688462022476791 0.4902079581932546 0.3869048572845591 0.2069435589059813 0.7996633423896861 1:75.8024 2:75.8024 3:73.5527 4:73.5527 5:73.437 6:60.531 7:60.531 8:59.4138 9:53.4603 10:53.4603 11:52.345 12:52.345 13:48.3735 14:47.2652 15:47.2652 16:45.2769 17:44.1814 18:44.1814 19:34.2345 20:34.2345 21:33.3766 22:28.4429 23:28.4429 24:27.2947 25:27.1662 26:27.1662 27:26.0768 28:26.0192 29:26.0192 30:25 31:25 32:25.02 33:24.0832 34:24.0832 35:24.5153 36:25.7099 37:25.7099 38:26.9258 39:26.9258 40:25.9422 41:25.0599 42:25.0599 43:24.6982 44:23.0217 45:23.0217 46:22.8035 47:22.8035 48:22.0227 49:22.0227 50:22.0227 51:24.4131 52:24.6982 53:24.6982 54:27.2947 55:28.2312 56:28.2312 57:27.5136 58:27.5136 59:28.1603 60:27.8927 61:27.8927 62:28.6356 63:28.4429 64:28.4429 65:29.2746 66:29.2746 67:29.1548 68:30.0666 69:30.0666 70:30.0666 71:31.1448 72:31.1448 73:30.2655 74:30.2655 75:37.2022 76:37.0135 77:37.0135 78:38.2884 79:38.2099 80:38.2099 81:39.598 82:39.6232 83:39.6232 84:41.1096 85:41.1096 86:41.6173 87:42.4382 88:42.4382 89:43.0465 90:43.909 91:43.909 92:44.2945 93:44.2945 94:45.1774 95:46.6154 96:46.6154 97:45.8803 98:46.4866 99:46.4866 100:45.8803 101:46.5725 102:46.5725 103:45.2769 104:45.2769 105:47.0956 106:47.0956 107:47.0956 108:46.1736 109:44.1814 110:44.1814 111:43.2897 112:43.2897 113:40.3113 114:38.6394 115:38.6394 116:38.833 117:38.0789 118:38.0789 119:38.6005 120:38.6005 121:37.6431 122:35.8469 123:35.8469 124:34.9285 125:33.6155 126:33.6155 127:34.6699 128:33.8378 129:33.8378 130:33.3017 131:33.3017 132:32.5576 133:32.5269 134:32.5269 135:29.2062 136:27.8029 137:27.8029 138:25.5539 139:25.5539 140:25.9422 141:24.6982 142:24.6982 143:25.2982 144:24.7386 145:24.7386 146:25.4951 147:25.4951 148:25.02 149:23.0217 150:23.0217 151:23.0868 152:21.3776 153:21.3776 154:22.8473 155:21.9545 156:21.9545 157:22.4722 158:22.4722 159:21.9317 160:23.3452 161:23.3452 162:27.5862 163:33.0151 164:33.0151 165:33.2866 166:33.2866 167:41.1461 168:41.6293 169:41.6293 170:43.4626 171:44.7772 172:44.7772 173:45.6946 174:45.6946 175:47.0106 176:47.927 177:47.927 178:49.2443 179:51.0784 180:51.0784 181:52.3927 182:55.1543 183:55.1543 184:55.7136 185:55.7136 186:56.648 187:57.2451 188:57.2451 189:61.0328 190:62.2977 191:62.2977 192:68.0074 193:68.0074 194:68.6804 195:71.5681 196:71.5681 197:72.2772 198:75.1864 199:75.1864 200:76.6877 
-0.7204877260509589 1 1 1 0.1408484251524417 1:75.6637 2:75.6637 3:73.437 4:73.437 5:64.4981 6:64.4981 7:63.3877 8:63.3877 9:60.407 10:60.407 11:59.3043 12:59.3043 13:38.4708 14:38.4708 15:37.3363 16:37.3363 17:33.3766 18:33.3766 19:32.249 20:32.249 21:31.257 22:30.1496 23:30.1496 24:30.0666 25:30.0666 26:28 27:28 28:28.0179 29:28.0179 30:24.5153 31:24.5153 32:25 33:25 34:24.3516 35:24.3516 36:25.0799 37:25.0799 38:24.5967 39:24.5967 40:25.0599 41:24.6982 42:24.6982 43:25.2389 44:25.2389 45:24.8395 46:24.8395 47:23.3452 48:23.3452 49:23.3452 50:23.3452 51:22.6716 52:22.6716 53:23.7065 54:23.7065 55:24.5967 56:24.5967 57:25.0799 58:25.0799 59:26 60:26 61:26.5707 62:26.2488 63:26.2488 64:27.6586 65:27.6586 66:27.4591 67:27.4591 68:29.1548 69:29.1548 70:29.0172 71:29.0172 72:30.0666 73:30.0666 74:30.1496 75:30.1496 76:29.2746 77:29.2746 78:34.1321 79:34.1321 80:33.8378 81:35 82:35 83:34.8281 84:34.8281 85:36.7967 86:36.7967 87:36.7696 88:36.7696 89:39.6989 90:39.6989 91:39.8246 92:39.8246 93:40.6079 94:40.6079 95:40.8044 96:40.8044 97:44.1022 98:44.1022 99:44.4185 100:44.4185 101:47.0106 102:49.3964 103:49.3964 104:49.0408 105:49.0408 106:49.6488 107:49.6488 108:48.2701 109:48.2701 110:49.0306 111:49.0306 112:48.3735 113:48.3735 114:47.2652 115:47.2652 116:47.0425 117:47.0425 118:46.0977 119:46.0977 120:46.2709 121:45.3982 122:45.3982 123:44.4072 124:44.4072 125:43.566 126:43.566 127:42.5793 128:42.5793 129:41.7732 130:41.7732 131:40.7922 132:40.7922 133:39.2938 134:39.2938 135:38.3275 136:38.3275 137:37 138:37 139:37.3363 140:37.3363 141:36.7696 142:37.5766 143:37.5766 144:35.609 145:35.609 146:34.8281 147:34.8281 148:34.7131 149:34.7131 150:33.2415 151:33.2415 152:33.2415 153:33.2415 154:30 155:30 156:30.2324 157:30.2324 158:25.02 159:25.02 160:24 161:24.0832 162:24.0832 163:20.8806 164:20.8806 165:18.9737 166:18.9737 167:18.3848 168:18.3848 169:17.4642 170:17.4642 171:17 172:17 173:19.7231 174:19.7231 175:20.5913 176:20.5913 177:21.9545 178:21.9545 179:23.0217 180:23.0217 181:24.4131 182:26.2488 183:26.2488 184:27.6586 185:27.6586 186:31.8904 187:31.8904 188:32.0156 189:32.0156 190:46.5188 191:46.5188 192:47.0106 193:47.0106 194:68.6804 195:68.6804 196:69.3758 197:69.3758 198:74.2159 199:74.2159 200:76.4853 
-0 0.5228547699313996 0.0443633241389868 0 0.2520112558022342 1:78.6384 2:78.6384 3:76.4199 4:76.4199 5:76.3217 6:75.326 7:75.326 8:74.2428 9:74.2428 10:73.2462 11:72.1734 12:72.1734 13:64.195 14:64.195 15:63.2851 16:59.3043 17:59.3043 18:58.2151 19:58.2151 20:54.231 21:53.1507 22:53.1507 23:33.2415 24:33.2415 25:28.0179 26:26.0192 27:26.0192 28:25.0799 29:25.0799 30:20.0998 31:19.2354 32:19.2354 33:19.6469 34:19.6469 35:22.1359 36:23.2594 37:23.2594 38:22.0227 39:22.0227 40:20.5183 41:20.5183 42:20.5183 43:19.8494 44:19.8494 45:20.2485 46:21.6333 47:21.6333 48:25.9422 49:25.9422 50:26.9258 51:27.8568 52:27.8568 53:28.4605 54:28.4605 55:29.4109 56:30.0832 57:30.0832 58:29.2746 59:29.2746 60:30.1496 61:31.9531 62:31.9531 63:33.2415 64:33.2415 65:33.6155 66:34.9285 67:34.9285 68:37.7359 69:37.7359 70:37.4433 71:38.0132 72:38.0132 73:37.8021 74:37.8021 75:38.4187 76:38.2884 77:38.2884 78:38.9487 79:38.9487 80:38.8973 81:39.598 82:39.598 83:39.6989 84:39.6989 85:40.4599 86:40.6079 87:40.6079 88:41.4005 89:41.4005 90:41.8808 91:45.2769 92:45.2769 93:45.6508 94:45.6508 95:48.3011 96:47.8539 97:47.8539 98:48.3322 99:48.3322 100:47.927 101:49.0408 102:49.0408 103:48.7032 104:48.7032 105:49.3356 106:49.0408 107:49.0408 108:49.7293 109:49.7293 110:49.4773 111:52.6118 112:52.6118 113:52.469 114:52.469 115:53.3385 116:52.2398 117:52.2398 118:52.1536 119:52.1536 120:48.1664 121:45.0111 122:45.0111 123:45 124:45 125:43.0465 126:43.1045 127:43.1045 128:42.19 129:42.19 130:42.4264 131:43.566 132:43.566 133:43.7379 134:43.7379 135:44.911 136:44.1475 137:44.1475 138:45.3542 139:45.3542 140:43.9659 141:42.72 142:42.72 143:42.0595 144:42.0595 145:40.8044 146:39.8497 147:39.8497 148:39.2173 149:39.2173 150:38.2753 151:36.6742 152:36.6742 153:37.1214 154:37.1214 155:36.2353 156:34.6554 157:34.6554 158:31.4006 159:31.4006 160:31.6228 161:26.0768 162:26.0768 163:24.3311 164:24.3311 165:24.7386 166:23.4094 167:23.4094 168:22.4722 169:22.4722 170:21.9317 171:22.3607 172:22.3607 173:21.6333 174:21.6333 175:23.4307 176:23.3452 177:23.3452 178:24.0416 179:24.0416 180:25.4558 181:28.4253 182:28.4253 183:31.241 184:31.241 185:44.7214 186:45.1885 187:45.1885 188:49.7695 189:49.7695 190:50.3289 191:56.921 192:56.921 193:57.5674 194:57.5674 195:72.0347 196:72.7805 197:72.7805 198:77.666 199:77.666 200:79.2465 
-0.1656801750980387 -0.5842541178559136 1 0.8118702386668055 0.6947338721205494 1:90 2:90 3:89 4:86 5:82 6:78 7:75 8:71 9:67 10:60 11:45 12:41 13:37 14:31 15:25 16:20 17:17 18:14 19:16 20:19 21:22 22:26 23:28 24:30 25:31 26:30 27:27 28:30 29:31 30:30 31:28 32:26 33:23 34:18 35:14 36:11 37:11 38:12 39:15 40:15 41:19 42:22 43:27 44:33 45:40 46:44 47:53 48:62 49:71 50:76 51:80 52:84 53:88 54:89 55:86 56:79 57:71 58:63 59:58 60:53 61:43 62:38 63:30 64:26 65:22 66:23 67:29 68:37 69:42 70:46 71:53 72:62 73:68 74:73 75:78 76:82 77:85 78:89 79:91 80:88 81:83 82:78 83:65 84:61 85:56 86:49 87:44 88:40 89:37 90:32 91:27 92:27 93:30 94:33 95:41 96:49 97:52 98:57 99:60 100:62 101:66 102:68 103:71 104:71 105:73 106:76 107:77 108:77 109:77 110:79 111:79 112:75 113:73 114:72 115:67 116:64 117:61 118:58 119:55 120:49 121:44 122:45 123:45 124:47 125:51 126:52 127:51 128:53 129:50 130:50 131:47 132:44 133:43 134:50 135:56 136:58 137:61 138:63 139:66 140:69 141:73 142:76 143:79 144:78 145:77 146:77 147:77 148:74 149:71 150:71 151:70 152:67 153:63 154:60 155:57 156:52 157:50 158:45 159:35 160:30 161:27 162:27 163:30 164:35 165:39 166:43 167:48 168:56 169:61 170:65 171:82 172:88 173:91 174:93 175:91 176:87 177:82 178:77 179:72 180:69 181:63 182:54 183:50 184:45 185:42 186:38 187:32 188:26 189:21 190:27 191:30 192:38 193:44 194:54 195:60 196:64 197:69 198:73 199:76 200:85 
-0.5542300768348464 -0.5263056982665694 1 0.7588071755371465 0.554757492296842 1:64 2:63 3:58 4:52 5:50 6:47 7:41 8:35 9:26 10:24 11:22 12:21 13:17 14:17 15:18 16:21 17:26 18:27 19:23 20:27 21:28 22:37 23:38 24:40 25:42 26:43 27:43 28:45 29:46 30:48 31:49 32:50 33:51 34:53 35:54 36:56 37:55 38:56 39:57 40:55 41:57 42:60 43:58 44:57 45:55 46:54 47:53 48:52 49:47 50:45 51:41 52:36 53:28 54:23 55:22 56:26 57:32 58:39 59:43 60:45 61:47 62:49 63:50 64:53 65:54 66:54 67:54 68:56 69:57 70:58 71:59 72:55 73:56 74:57 75:56 76:55 77:55 78:53 79:51 80:50 81:48 82:46 83:44 84:43 85:42 86:41 87:40 88:40 89:37 90:29 91:27 92:24 93:23 94:23 95:27 96:24 97:20 98:17 99:17 100:22 101:23 102:25 103:26 104:35 105:41 106:48 107:50 108:52 109:57 110:62 111:63 112:63 113:61 114:60 115:57 116:45 117:42 118:36 119:17 120:16 121:15 122:17 123:22 124:30 125:33 126:36 127:40 128:43 129:45 130:47 131:50 132:54 133:55 134:57 135:61 136:65 137:62 138:62 139:59 140:53 141:46 142:37 143:35 144:32 145:30 146:22 147:18 148:18 149:17 150:18 151:18 152:20 153:22 154:25 155:26 156:20 157:26 158:23 159:20 160:19 161:18 162:17 163:18 164:18 165:20 166:29 167:31 168:34 169:36 170:37 171:46 172:53 173:59 174:62 175:63 176:65 177:61 178:58 179:56 180:54 181:50 182:47 183:45 184:44 185:41 186:36 187:33 188:30 189:22 190:18 191:15 192:17 193:18 194:36 195:37 196:41 197:44 198:56 199:60 200:61 
-0.6162309495849897 -0.6795772539328128 0.7552309215661612 0.9677801810382463 0.3864011868893682 1:43 2:43 3:43 4:43 5:41 6:40 7:38 8:36 9:34 10:34 11:32 12:31 13:28 14:27 15:23 16:22 17:21 18:21 19:25 20:20 21:21 22:21 23:23 24:24 25:27 26:30 27:32 28:33 29:34 30:36 31:37 32:39 33:41 34:41 35:42 36:42 37:43 38:42 39:37 40:36 41:34 42:32 43:29 44:28 45:26 46:20 47:19 48:18 49:16 50:14 51:12 52:10 53:8 54:7 55:6 56:10 57:14 58:13 59:9 60:8 61:4 62:3 63:2 64:5 65:7 66:9 67:11 68:13 69:16 70:17 71:19 72:20 73:24 74:30 75:31 76:39 77:39 78:40 79:33 80:26 81:25 82:24 83:22 84:21 85:20 86:18 87:18 88:17 89:18 90:17 91:18 92:21 93:23 94:26 95:34 96:35 97:38 98:42 99:43 100:42 101:41 102:40 103:40 104:45 105:50 106:50 107:50 108:49 109:51 110:52 111:55 112:55 113:60 114:65 115:67 116:71 117:74 118:75 119:74 120:75 121:76 122:76 123:76 124:75 125:74 126:75 127:74 128:72 129:67 130:63 131:59 132:55 133:55 134:52 135:50 136:49 137:49 138:50 139:50 140:47 141:41 142:40 143:42 144:40 145:36 146:34 147:29 148:26 149:21 150:21 151:19 152:17 153:18 154:17 155:18 156:19 157:21 158:23 159:25 160:26 161:34 162:40 163:40 164:35 165:30 166:28 167:22 168:20 169:18 170:17 171:14 172:12 173:11 174:8 175:6 176:3 177:2 178:3 179:7 180:8 181:11 182:13 183:13 184:7 185:6 186:8 187:10 188:12 189:14 190:15 191:17 192:20 193:21 194:22 195:28 196:29 197:31 198:33 199:37 200:37 
-0.2302653376023734 -0.6902597573899687 1 0.9271875851584964 1 1:85 2:79 3:75 4:71 5:61 6:53 7:50 8:44 9:35 10:29 11:24 12:21 13:18 14:16 15:20 16:23 17:36 18:46 19:48 20:52 21:56 22:59 23:63 24:68 25:71 26:75 27:81 28:80 29:72 30:62 31:58 32:56 33:52 34:47 35:41 36:35 37:33 38:29 39:22 40:19 41:13 42:11 43:11 44:14 45:20 46:25 47:30 48:36 49:43 50:47 51:53 52:56 53:59 54:65 55:73 56:79 57:79 58:74 59:70 60:66 61:62 62:59 63:55 64:50 65:48 66:45 67:32 68:23 69:19 70:15 71:18 72:21 73:25 74:28 75:37 76:44 77:46 78:50 79:55 80:64 81:72 82:77 83:82 84:86 85:83 86:80 87:75 88:71 89:68 90:65 91:61 92:59 93:53 94:47 95:43 96:41 97:36 98:33 99:33 100:34 101:36 102:37 103:41 104:47 105:50 106:54 107:60 108:63 109:65 110:68 111:70 112:71 113:74 114:77 115:71 116:68 117:62 118:57 119:55 120:54 121:52 122:51 123:49 124:46 125:44 126:39 127:35 128:31 129:27 130:24 131:23 132:23 133:23 134:17 135:15 136:18 137:21 138:24 139:24 140:24 141:25 142:28 143:33 144:35 145:37 146:43 147:45 148:45 149:42 150:38 151:36 152:40 153:39 154:36 155:35 156:35 157:41 158:44 159:45 160:44 161:43 162:45 163:46 164:49 165:51 166:53 167:55 168:57 169:60 170:67 171:72 172:78 173:74 174:72 175:70 176:67 177:62 178:57 179:53 180:50 181:43 182:40 183:37 184:35 185:34 186:33 187:33 188:38 189:41 190:45 191:48 192:54 193:58 194:59 195:63 196:66 197:68 198:72 199:77 200:84 
-0.1183356676232612 -1 0.9633476511223467 0.6337068843250546 0.602262692894896 1:102 2:102 3:100 4:98 5:97 6:93 7:90 8:88 9:86 10:85 11:82 12:81 13:75 14:72 15:68 16:63 17:62 18:49 19:46 20:44 21:44 22:44 23:43 24:42 25:39 26:35 27:29 28:28 29:29 30:31 31:32 32:33 33:35 34:35 35:35 36:37 37:36 38:36 39:34 40:32 41:31 42:31 43:31 44:32 45:31 46:31 47:32 48:32 49:33 50:33 51:33 52:35 53:35 54:35 55:37 56:39 57:41 58:43 59:44 60:45 61:48 62:51 63:53 64:54 65:55 66:58 67:59 68:61 69:60 70:60 71:61 72:63 73:63 74:63 75:65 76:68 77:66 78:62 79:61 80:61 81:59 82:57 83:56 84:55 85:47 86:45 87:45 88:43 89:42 90:39 91:39 92:38 93:38 94:37 95:35 96:34 97:33 98:32 99:33 100:35 101:37 102:33 103:33 104:33 105:36 106:38 107:39 108:39 109:39 110:42 111:43 112:45 113:46 114:47 115:55 116:57 117:59 118:62 119:62 120:64 121:67 122:67 123:68 124:68 125:66 126:65 127:63 128:62 129:62 130:61 131:60 132:60 133:59 134:54 135:52 136:51 137:51 138:50 139:49 140:48 141:46 142:45 143:43 144:41 145:39 146:35 147:35 148:35 149:35 150:33 151:33 152:34 153:33 154:31 155:31 156:31 157:32 158:31 159:31 160:31 161:31 162:32 163:34 164:34 165:35 166:36 167:36 168:37 169:35 170:35 171:35 172:34 173:33 174:32 175:31 176:29 177:28 178:29 179:34 180:36 181:41 182:43 183:43 184:45 185:45 186:49 187:49 188:62 189:68 190:71 191:73 192:78 193:81 194:82 195:86 196:91 197:93 198:98 199:99 200:101 
-0.1651906175000365 -0.5455572993337433 0.8979083328246317 0.7183850803993036 0.6895409481660797 1:110 2:106 3:100 4:93 5:87 6:84 7:80 8:75 9:70 10:64 11:59 12:52 13:46 14:40 15:38 16:40 17:50 18:57 19:65 20:69 21:74 22:77 23:82 24:89 25:95 26:100 27:104 28:106 29:106 30:97 31:92 32:87 33:80 34:76 35:72 36:67 37:60 38:54 39:50 40:42 41:31 42:24 43:24 44:37 45:44 46:51 47:55 48:62 49:71 50:76 51:80 52:87 53:93 54:96 55:105 56:106 57:104 58:99 59:95 60:89 61:82 62:77 63:73 64:69 65:64 66:57 67:51 68:41 69:39 70:38 71:39 72:44 73:50 74:56 75:60 76:68 77:73 78:77 79:81 80:85 81:91 82:98 83:101 84:109 85:111 86:104 87:92 88:85 89:79 90:76 91:64 92:60 93:53 94:47 95:42 96:38 97:32 98:26 99:25 100:26 101:28 102:33 103:35 104:37 105:36 106:39 107:45 108:50 109:51 110:53 111:54 112:54 113:53 114:52 115:45 116:42 117:37 118:43 119:49 120:56 121:60 122:62 123:62 124:57 125:53 126:52 127:52 128:49 129:39 130:37 131:34 132:33 133:31 134:29 135:27 136:25 137:22 138:20 139:22 140:32 141:34 142:32 143:28 144:26 145:31 146:34 147:33 148:26 149:21 150:23 151:25 152:25 153:28 154:30 155:31 156:32 157:36 158:39 159:46 160:51 161:53 162:53 163:53 164:56 165:60 166:63 167:61 168:58 169:55 170:53 171:50 172:50 173:53 174:54 175:54 176:54 177:51 178:49 179:42 180:39 181:37 182:38 183:36 184:33 185:28 186:26 187:25 188:26 189:32 190:37 191:40 192:46 193:53 194:58 195:62 196:72 197:79 198:84 199:88 200:103 
-0 -0.3511527485320997 0.5646432585120521 0 0.009776683562239132 1:90.0944 2:90.0944 3:88.955 4:86.977 5:85.8429 6:83.863 7:83.0241 8:77.1038 9:75.9539 10:74.9667 11:72.6911 12:65.7647 13:64.6297 14:41 15:40.2616 16:39.2938 17:36.8782 18:37.6563 19:38.6394 20:40.3113 21:40.05 22:37.3363 23:36.3456 24:34.7131 25:32.7567 26:32.0156 27:27.2029 28:26 29:29.9666 30:30.8869 31:32.249 32:32.7567 33:35.5106 34:36.6197 35:38.0132 36:37.2022 37:37.0135 38:36.2353 39:36.1248 40:35.3836 41:35.3553 42:36.0694 43:38.8973 44:40.3609 45:40.4599 46:42.0119 47:42.4382 48:43.2666 49:41.6773 50:42.0595 51:41.1461 52:41.6293 53:39.2938 54:40.025 55:39.8121 56:40.6079 57:40.1123 58:39.2046 59:39.6232 60:38.833 61:39.0512 62:40.2616 63:42.9535 64:42.0595 65:50.2494 66:51.1077 67:52.4786 68:53.535 69:54.9181 70:55.4707 71:58.2495 72:59.9083 73:64.0703 74:67.0075 75:66.8431 76:67.4759 77:67.3573 78:68.0147 79:67.9412 80:68.6222 81:68.593 82:69.3109 83:69.4262 84:70.1783 85:69.527 86:69.6563 87:68.4105 88:68.6003 89:66.8506 90:67.1193 91:64.0078 92:62.6498 93:61.7171 94:62.1691 95:60.5392 96:57.9396 97:53.3104 98:50.6952 99:49.3356 100:46.8402 101:46.5725 102:46.5725 103:45.607 104:41.9762 105:41.7732 106:38.833 107:35.3553 108:36.2215 109:36.1248 110:37.054 111:37.855 112:37.108 113:37.6431 114:37 115:38.0789 116:37.5766 117:38.9487 118:38.2753 119:38.833 120:38.4187 121:39.0512 122:38.8973 123:39.598 124:39.6232 125:40.3609 126:40.4599 127:42.0119 128:44.2832 129:45.1885 130:46.2385 131:47.1699 132:49.0408 133:50 134:51.4198 135:52.3927 136:53.1507 137:54.1295 138:54.9181 139:55.9017 140:56.7186 141:58.6941 142:59.5399 143:60.531 144:61.4003 145:62.3939 146:63.2851 147:64.2806 148:66.1211 149:67.1193 150:69.029 151:70.0286 152:71.007 153:72.0069 154:72.0625 155:70.1783 156:66.1891 157:65.2763 158:62.2896 159:61.4003 160:60.407 161:59.5399 162:58.5491 163:57.7062 164:53.7587 165:50.3587 166:49.366 167:48.2597 168:43.2897 169:38 170:36 171:35.0143 172:30.0167 173:28.0179 174:28.0713 175:27.1662 176:27.6586 177:28.8617 178:29.7321 179:28.6356 180:29.5296 181:29.1548 182:37.5366 183:37.6431 184:38.4187 185:39.8246 186:42.2019 187:43.6005 188:45.2217 189:45.4863 190:46.8722 191:47.1699 192:52.3546 193:53.7122 194:85.0706 195:85.7263 196:87.6413 197:88.3233 198:90.2497 199:89.9889 200:91.444 
-1 -1 0.8358685697283498 0.9827034181415993 0.5408435104894719 1:39.9625 2:39.9625 3:38.5876 4:38.5876 5:37.1214 6:32.7567 7:32.7567 8:32.2025 9:31.4006 10:31.4006 11:32.6497 12:32.8024 13:32.8024 14:32.2025 15:32.45 16:32.45 17:31.3847 18:31.3847 19:27.2947 20:26 21:26 22:24.6982 23:24.3516 24:24.3516 25:23.0868 26:22.561 27:22.561 28:18.0278 29:16.0312 30:16.0312 31:14.0357 32:14.0357 33:15.2315 34:15.8114 35:15.8114 36:16.7631 37:18.2483 38:18.2483 39:18.1108 40:19.0263 41:19.0263 42:20.025 43:21 44:21 45:21.095 46:22.2036 47:22.2036 48:22.8035 49:22.8035 50:21.5407 51:23.3238 52:23.3238 53:24.6982 54:26.4008 55:26.4008 56:26.2488 57:25.6125 58:25.6125 59:24.2074 60:23.0217 61:23.0217 62:21.6333 63:21.6333 64:20.1246 65:18.7883 66:18.7883 67:22.2036 68:22.0907 69:22.0907 70:23.0217 71:23 72:23 73:24.0208 74:24.1868 75:24.1868 76:25.318 77:25.7099 78:25.7099 79:30.6757 80:30.6757 81:31.0161 82:32.311 83:32.311 84:32.6956 85:34.0147 86:34.0147 87:34.4384 88:35.7771 89:35.7771 90:36.2353 91:37.5899 92:37.5899 93:41.4005 94:41.4005 95:42.8019 96:43.4166 97:43.4166 98:42.8019 99:41.4005 100:41.4005 101:37.1214 102:35.7771 103:35.7771 104:35.3412 105:32.6956 106:32.6956 107:31.9531 108:30.6757 109:30.6757 110:30.3645 111:30.3645 112:25.4951 113:25.318 114:25.318 115:24.1868 116:24 117:24 118:23.0217 119:23.0868 120:23.0868 121:21.3776 122:21.587 123:21.587 124:19.6977 125:19.6977 126:21.6333 127:23.0217 128:23.0217 129:23.6008 130:25 131:25 132:26.9072 133:27.0185 134:27.0185 135:24.6982 136:23.3238 137:23.3238 138:21.9317 139:23.0868 140:23.0868 141:22.2036 142:22.2036 143:21.095 144:21.0238 145:21.0238 146:20.025 147:17.4642 148:17.4642 149:17.72 150:16.7631 151:16.7631 152:15.2643 153:14.7648 154:14.7648 155:15.2315 156:15.2315 157:14.1421 158:17.0294 159:17.0294 160:18.0278 161:19.105 162:19.105 163:20.0998 164:21.2132 165:21.2132 166:21.3776 167:22.561 168:22.561 169:22.8035 170:24.0416 171:24.0416 172:24.6982 173:24.6982 174:26 175:26.8328 176:26.8328 177:30.8869 178:33.0151 179:33.0151 180:32.8024 181:33.4216 182:33.4216 183:33.2415 184:32.5576 185:32.5576 186:32.6497 187:32.6497 188:32.0156 189:32.2025 190:32.2025 191:33.0151 192:33.6155 193:33.6155 194:36.2353 195:37.5899 196:37.5899 197:38.5876 198:39.9625 199:39.9625 200:41.6173 
-0.5980472651284653 -0.9344650438240949 0.8440762020150545 0.83185899305067 0.1011413431513069 1:65.8027 2:65.8027 3:64.5136 4:56.0803 5:56.0803 6:54.7814 7:47.4236 8:46.0977 9:46.0977 10:41.5933 11:40.2492 12:39.3573 13:39.3573 14:38.0132 15:34.4819 16:33.121 17:33.121 18:25.6125 19:24.2074 20:24.2074 21:22.6716 22:21.2603 23:19.105 24:19.105 25:19.7231 26:20.5913 27:22.1359 28:22.1359 29:21 30:20.025 31:23.3452 32:23.3452 33:25.318 34:27.6586 35:27.6586 36:28.7924 37:30.0832 38:29.5466 39:29.5466 40:31.3847 41:31.0644 42:33.4216 43:33.4216 44:33.3017 45:36.7967 46:36.8782 47:36.8782 48:38.4187 49:38.6005 50:40.2244 51:40.2244 52:40.4969 53:41.3401 54:41.3401 55:43.4626 56:44.3847 57:44.9444 58:44.9444 59:45.8803 60:46.4866 61:47.4342 62:47.4342 63:49.4773 64:49.2443 65:51.6236 66:51.6236 67:51.4781 68:52.345 69:52.345 70:52 71:50.04 72:50.1597 73:50.1597 74:49.2544 75:49.366 76:48.5077 77:48.5077 78:49.7293 79:46.8402 80:44.3847 81:44.3847 82:45.1885 83:43.909 84:41.3401 85:41.3401 86:41.0488 87:35.4683 88:35.4683 89:34.0588 90:31.8277 91:30.4138 92:30.4138 93:27.6586 94:26.2488 95:25.6125 96:25.6125 97:25.807 98:25.2389 99:25.5539 100:25.5539 101:23.7697 102:18.6815 103:18.6815 104:18.2483 105:17.1172 106:17.1172 107:17.1172 108:16.2788 109:17.4642 110:17 111:17 112:18.6011 113:20 114:21.2603 115:21.2603 116:24.0832 117:24.7588 118:24.7588 119:27.5862 120:31.241 121:32.6497 122:32.6497 123:38.2753 124:39.6611 125:43.0465 126:43.0465 127:44.4185 128:45.2769 129:46.6476 130:46.6476 131:53.6656 132:55.0091 133:58.6003 134:58.6003 135:59.9333 136:63.561 137:63.561 138:64.0781 139:65.9242 140:63.6003 141:63.6003 142:62.3618 143:62.0967 144:59.6657 145:59.6657 146:57.7235 147:56.5155 148:54.5711 149:54.5711 150:53.3667 151:49.4773 152:49.4773 153:48.2701 154:44.3847 155:39.6232 156:39.6232 157:37.6563 158:35.3553 159:30.4138 160:30.4138 161:29.2746 162:23.3452 163:22.561 164:22.561 165:19.6469 166:18.4391 167:18.2483 168:18.2483 169:17.1172 170:18.0278 171:18.0278 172:18 173:20.0998 174:22.0907 175:22.0907 176:23.1948 177:25.1794 178:26.3059 179:26.3059 180:35.2278 181:36.3456 182:37.3363 183:37.3363 184:38.4708 185:41.4367 186:41.4367 187:42.5793 188:48.5077 189:49.6488 190:49.6488 191:54.5894 192:55.7315 193:59.6825 194:59.6825 195:61.9839 196:62.1691 197:63.3482 198:63.3482 199:63.561 200:64.7611 
-0.157950745877649 -0.5585300493582859 1 0.7966963834896296 0.9406525045673024 1:86 2:83 3:80 4:77 5:70 6:64 7:61 8:57 9:54 10:44 11:37 12:33 13:32 14:31 15:29 16:29 17:34 18:34 19:35 20:38 21:41 22:43 23:47 24:55 25:64 26:70 27:71 28:79 29:83 30:86 31:85 32:82 33:78 34:73 35:71 36:67 37:60 38:53 39:44 40:42 41:38 42:35 43:35 44:32 45:29 46:29 47:31 48:32 49:33 50:38 51:46 52:55 53:58 54:63 55:68 56:74 57:79 58:81 59:86 60:74 61:68 62:66 63:64 64:58 65:54 66:48 67:43 68:35 69:27 70:28 71:32 72:36 73:41 74:45 75:49 76:55 77:63 78:67 79:71 80:75 81:79 82:82 83:85 84:84 85:80 86:75 87:65 88:62 89:57 90:51 91:44 92:42 93:35 94:25 95:17 96:17 97:20 98:22 99:22 100:21 101:24 102:27 103:32 104:35 105:36 106:38 107:38 108:41 109:42 110:45 111:47 112:49 113:50 114:51 115:53 116:57 117:64 118:70 119:73 120:74 121:78 122:80 123:84 124:85 125:88 126:88 127:88 128:87 129:88 130:88 131:88 132:88 133:88 134:89 135:87 136:85 137:81 138:79 139:76 140:74 141:70 142:67 143:57 144:55 145:52 146:51 147:50 148:49 149:48 150:46 151:44 152:43 153:39 154:38 155:37 156:36 157:33 158:28 159:24 160:21 161:22 162:22 163:20 164:16 165:17 166:24 167:31 168:42 169:44 170:47 171:57 172:61 173:66 174:77 175:81 176:85 177:84 178:81 179:79 180:76 181:73 182:69 183:64 184:57 185:50 186:47 187:42 188:37 189:34 190:30 191:27 192:32 193:41 194:46 195:52 196:57 197:63 198:66 199:68 200:70 
-0 -0.6326013901072602 1 0.7962709458543242 0.495506901625368 1:88 2:88 3:85 4:84 5:72 6:66 7:65 8:52 9:50 10:49 11:45 12:44 13:43 14:41 15:38 16:36 17:35 18:29 19:28 20:21 21:23 22:28 23:29 24:30 25:30 26:29 27:29 28:27 29:26 30:24 31:23 32:25 33:27 34:28 35:29 36:31 37:31 38:31 39:32 40:31 41:31 42:31 43:33 44:35 45:37 46:37 47:35 48:35 49:35 50:35 51:34 52:33 53:31 54:30 55:32 56:32 57:36 58:36 59:37 60:40 61:41 62:40 63:40 64:41 65:41 66:42 67:44 68:43 69:44 70:45 71:46 72:47 73:53 74:54 75:55 76:56 77:59 78:61 79:62 80:68 81:70 82:70 83:71 84:70 85:69 86:68 87:67 88:67 89:66 90:65 91:66 92:64 93:61 94:59 95:57 96:57 97:57 98:56 99:57 100:59 101:58 102:59 103:57 104:55 105:55 106:55 107:54 108:53 109:51 110:51 111:49 112:50 113:50 114:47 115:45 116:44 117:43 118:41 119:39 120:35 121:34 122:33 123:33 124:34 125:36 126:34 127:33 128:24 129:21 130:20 131:23 132:23 133:26 134:29 135:34 136:36 137:42 138:44 139:48 140:48 141:50 142:52 143:57 144:60 145:64 146:66 147:76 148:87 149:86 150:87 151:86 152:85 153:83 154:82 155:80 156:77 157:74 158:73 159:71 160:67 161:66 162:62 163:61 164:59 165:58 166:55 167:54 168:51 169:42 170:41 171:38 172:36 173:34 174:30 175:29 176:25 177:23 178:22 179:23 180:24 181:34 182:35 183:49 184:53 185:54 186:57 187:59 188:61 189:63 190:67 191:68 192:69 193:71 194:72 195:75 196:79 197:80 198:82 199:85 200:85 
-0.4832177675658201 -0.9202638204272428 1 1 0.8379323482274398 1:70 2:69 3:67 4:64 5:61 6:58 7:54 8:50 9:45 10:42 11:36 12:28 13:24 14:21 15:18 16:16 17:19 18:21 19:24 20:28 21:35 22:46 23:51 24:55 25:60 26:65 27:66 28:67 29:64 30:62 31:57 32:54 33:52 34:50 35:47 36:45 37:39 38:36 39:30 40:28 41:24 42:21 43:17 44:13 45:12 46:12 47:14 48:20 49:20 50:28 51:33 52:34 53:35 54:36 55:39 56:42 57:46 58:48 59:47 60:46 61:46 62:48 63:52 64:53 65:53 66:54 67:57 68:58 69:58 70:57 71:55 72:48 73:47 74:48 75:46 76:43 77:42 78:38 79:34 80:31 81:28 82:28 83:30 84:33 85:36 86:42 87:43 88:47 89:48 90:48 91:46 92:51 93:58 94:58 95:57 96:55 97:53 98:52 99:51 100:48 101:45 102:45 103:44 104:46 105:47 106:48 107:45 108:42 109:39 110:36 111:34 112:34 113:31 114:24 115:21 116:20 117:13 118:11 119:12 120:15 121:19 122:21 123:23 124:25 125:27 126:30 127:36 128:38 129:42 130:47 131:49 132:52 133:56 134:60 135:63 136:65 137:67 138:65 139:61 140:59 141:56 142:53 143:48 144:43 145:40 146:31 147:25 148:22 149:19 150:17 151:17 152:19 153:20 154:24 155:28 156:35 157:42 158:46 159:49 160:51 161:55 162:61 163:66 164:68 165:69 166:71 167:69 168:66 169:62 170:57 171:50 172:46 173:39 174:36 175:33 176:31 177:28 178:25 179:23 180:24 181:26 182:28 183:31 184:28 185:28 186:26 187:24 188:23 189:25 190:27 191:31 192:33 193:35 194:38 195:45 196:50 197:56 198:61 199:65 200:70 
-0.2140921171885777 -0.645536056397632 1 0.7182558361474967 1 1:85 2:83 3:81 4:79 5:75 6:72 7:64 8:54 9:52 10:47 11:43 12:41 13:35 14:30 15:28 16:29 17:39 18:44 19:51 20:58 21:63 22:70 23:78 24:83 25:84 26:78 27:74 28:71 29:61 30:48 31:42 32:36 33:33 34:30 35:25 36:26 37:31 38:33 39:32 40:31 41:28 42:26 43:24 44:24 45:28 46:28 47:27 48:25 49:28 50:29 51:26 52:23 53:22 54:23 55:25 56:27 57:30 58:32 59:32 60:32 61:27 62:24 63:23 64:25 65:31 66:34 67:37 68:43 69:50 70:61 71:71 72:75 73:80 74:84 75:83 76:77 77:65 78:61 79:54 80:49 81:42 82:38 83:28 84:28 85:31 86:38 87:42 88:45 89:49 90:52 91:58 92:69 93:73 94:76 95:81 96:85 97:85 98:81 99:70 100:61 101:54 102:48 103:44 104:40 105:36 106:32 107:27 108:25 109:22 110:23 111:25 112:26 113:28 114:31 115:32 116:32 117:34 118:37 119:41 120:43 121:45 122:48 123:50 124:52 125:55 126:59 127:61 128:62 129:65 130:68 131:64 132:62 133:61 134:60 135:58 136:56 137:52 138:47 139:46 140:43 141:41 142:41 143:39 144:34 145:32 146:30 147:26 148:26 149:29 150:32 151:34 152:39 153:41 154:42 155:44 156:46 157:48 158:53 159:57 160:58 161:60 162:61 163:62 164:64 165:67 166:64 167:62 168:60 169:56 170:52 171:50 172:49 173:47 174:43 175:41 176:38 177:35 178:33 179:32 180:32 181:32 182:28 183:27 184:25 185:23 186:22 187:25 188:27 189:29 190:31 191:35 192:39 193:42 194:46 195:50 196:54 197:59 198:62 199:70 200:81 
-0.1557598666252089 -0.4619798856371753 0.8171024923341631 1 0.3688547893640126 1:61 2:60 3:52 4:49 5:46 6:43 7:42 8:39 9:36 10:32 11:30 12:29 13:27 14:27 15:25 16:24 17:24 18:23 19:22 20:22 21:24 22:24 23:22 24:23 25:23 26:24 27:25 28:26 29:27 30:29 31:30 32:31 33:37 34:36 35:41 36:43 37:45 38:48 39:51 40:55 41:60 42:58 43:56 44:46 45:45 46:35 47:30 48:29 49:24 50:20 51:18 52:15 53:14 54:11 55:10 56:10 57:10 58:11 59:6 60:4 61:3 62:13 63:15 64:17 65:20 66:22 67:25 68:32 69:34 70:35 71:37 72:40 73:43 74:49 75:49 76:49 77:47 78:46 79:33 80:30 81:27 82:23 83:22 84:21 85:19 86:16 87:15 88:14 89:14 90:13 91:17 92:17 93:18 94:22 95:26 96:28 97:30 98:45 99:45 100:44 101:43 102:45 103:46 104:48 105:51 106:52 107:53 108:54 109:57 110:61 111:64 112:66 113:74 114:76 115:76 116:76 117:77 118:78 119:79 120:79 121:78 122:78 123:77 124:76 125:76 126:76 127:74 128:65 129:64 130:60 131:56 132:54 133:53 134:52 135:51 136:50 137:45 138:44 139:43 140:44 141:46 142:30 143:29 144:27 145:25 146:23 147:19 148:18 149:17 150:16 151:15 152:14 153:13 154:14 155:15 156:15 157:18 158:20 159:21 160:23 161:25 162:29 163:31 164:46 165:46 166:48 167:49 168:49 169:46 170:41 171:39 172:37 173:35 174:33 175:28 176:24 177:21 178:18 179:16 180:13 181:4 182:4 183:5 184:6 185:8 186:11 187:10 188:9 189:13 190:15 191:17 192:19 193:24 194:27 195:30 196:32 197:41 198:47 199:51 200:55 
-0.4440700069149364 -1 1 0.7218147388881234 0.4677335618435665 1:77.8781 2:77.8781 3:77.1298 4:77.6209 5:76.922 6:71.1688 7:69.9214 8:67.0522 9:65.8027 10:63.8905 11:62.6418 12:59.7746 13:58.5235 14:56.6127 15:55.3624 16:54.4059 17:53.1601 18:47.4342 19:46.8188 20:40.3113 21:39 22:38.0789 23:36.7696 24:34.0147 25:32.6956 26:28.178 27:26.8328 28:19.2094 29:19.105 30:20.5183 31:20.6155 32:23.0217 33:23.3238 34:22.8254 35:23.2594 36:22.4722 37:23.0868 38:22.2036 39:23.0868 40:23.0217 41:23.0217 42:25.02 43:27.0185 44:28.0713 45:29.0689 46:31.257 47:31.4006 48:32.5576 49:32.7567 50:33.9559 51:35.1141 52:34.5398 53:36.2353 54:35.8469 55:37.4433 56:37.2022 57:39.6989 58:39.6232 59:42.45 60:42.638 61:43.4166 62:43.6005 63:45.2217 64:45.793 65:46.6476 66:47.0106 67:49.6488 68:50.5668 69:53.3104 70:55.9464 71:56.3649 72:57.2713 73:58.6003 74:58.1808 75:61.0328 76:61.9839 77:63.3246 78:62.8172 79:63.561 80:63.3482 81:63.3482 82:64.1327 83:63.1981 84:62.1289 85:62 86:61.0082 87:61.131 88:60.208 89:60.2993 90:58.5491 91:57.5587 92:56.7186 93:55.7315 94:54.1295 95:51.1957 96:50.448 97:49.4773 98:48.7647 99:47.8017 100:46.4866 101:47.927 102:46.9574 103:47.4131 104:45.6508 105:45.2769 106:42.72 107:42.4382 108:40.8044 109:40.6079 110:39.0512 111:38.9487 112:37.4833 113:37.4833 114:33.6006 115:32.2025 116:31.0644 117:29.6816 118:28.6531 119:24.5967 120:24.1661 121:24.1661 122:21.5407 123:18.7883 124:16.1555 125:15.8114 126:16.4924 127:17.4642 128:18.2483 129:23.1948 130:23.0868 131:22.2036 132:22.561 133:21.8403 134:26.4008 135:26.2488 136:26.9072 137:28.3196 138:29 139:30.4138 140:31.1127 141:32.5269 142:33.9706 143:35.3836 144:38.4187 145:39.8246 146:42.2019 147:43.6005 148:49.3964 149:50.774 150:54.2033 151:55.5698 152:61.7171 153:63.0635 154:64.846 155:67.5352 156:70.214 157:70.6824 158:71.5891 159:73.1642 160:75.0267 161:75.0267 162:75.6108 163:73.7631 164:68.884 165:65.9697 166:64.7611 167:57.0088 168:55.7853 169:53.8516 170:52.6308 171:47.8017 172:46.5725 173:43.6807 174:41.2311 175:41 176:39.8121 177:38.833 178:37.6563 179:28.8617 180:27.6586 181:27.2947 182:31 183:33 184:34.0147 185:44.0114 186:45.0444 187:48.0416 188:49.0918 189:55.0818 190:56.1427 191:57.1402 192:58.2151 193:59.2115 194:60.2993 195:64.2806 196:65.3758 197:69.3542 198:70.4557 199:72.4431 200:76.9415 
-0 -0.169338286219597 0.07102491867958013 0.1445835387963618 0.6364433079150101 1:81 2:79 3:74 4:74 5:73 6:68 7:67 8:66 9:64 10:59 11:58 12:55 13:54 14:50 15:49 16:39 17:36 18:35 19:32 20:31 21:30 22:23 23:23 24:31 25:32 26:33 27:33 28:31 29:30 30:30 31:29 32:29 33:28 34:28 35:27 36:27 37:25 38:26 39:25 40:27 41:29 42:29 43:31 44:33 45:34 46:35 47:36 48:38 49:39 50:43 51:44 52:45 53:47 54:47 55:48 56:50 57:51 58:52 59:54 60:55 61:59 62:59 63:62 64:62 65:63 66:63 67:62 68:62 69:61 70:61 71:63 72:64 73:65 74:64 75:65 76:63 77:59 78:59 79:57 80:56 81:56 82:55 83:56 84:55 85:55 86:54 87:53 88:52 89:51 90:50 91:51 92:51 93:45 94:43 95:41 96:36 97:35 98:35 99:33 100:34 101:32 102:30 103:27 104:26 105:25 106:22 107:22 108:21 109:21 110:20 111:22 112:23 113:30 114:31 115:35 116:38 117:39 118:40 119:42 120:43 121:46 122:47 123:49 124:50 125:51 126:52 127:57 128:59 129:63 130:64 131:72 132:74 133:80 134:81 135:78 136:77 137:76 138:74 139:73 140:71 141:70 142:68 143:65 144:65 145:63 146:62 147:61 148:56 149:55 150:53 151:50 152:48 153:45 154:44 155:42 156:41 157:39 158:38 159:37 160:34 161:33 162:32 163:29 164:28 165:25 166:22 167:22 168:23 169:23 170:25 171:26 172:28 173:31 174:32 175:38 176:39 177:44 178:49 179:49 180:50 181:51 182:51 183:52 184:52 185:53 186:53 187:54 188:55 189:56 190:57 191:58 192:61 193:62 194:66 195:67 196:69 197:71 198:72 199:78 200:79 
-0 -0.1419483518900716 1 0.6543614804168358 0.5933719723972132 1:72 2:71 3:59 4:55 5:52 6:51 7:42 8:33 9:29 10:24 11:22 12:17 13:18 14:23 15:25 16:26 17:27 18:26 19:24 20:28 21:31 22:33 23:33 24:36 25:39 26:42 27:46 28:48 29:49 30:51 31:52 32:54 33:56 34:58 35:60 36:62 37:62 38:62 39:65 40:64 41:62 42:59 43:58 44:59 45:58 46:56 47:53 48:51 49:50 50:43 51:34 52:29 53:33 54:38 55:43 56:50 57:51 58:54 59:56 60:58 61:58 62:59 63:60 64:62 65:64 66:63 67:62 68:63 69:62 70:60 71:57 72:53 73:52 74:51 75:48 76:48 77:47 78:45 79:41 80:38 81:35 82:34 83:33 84:33 85:31 86:27 87:25 88:23 89:24 90:26 91:27 92:26 93:24 94:18 95:16 96:22 97:26 98:30 99:33 100:43 101:51 102:53 103:55 104:59 105:71 106:71 107:67 108:65 109:62 110:59 111:57 112:54 113:47 114:42 115:39 116:23 117:21 118:23 119:27 120:30 121:35 122:37 123:40 124:43 125:46 126:49 127:53 128:56 129:60 130:63 131:64 132:68 133:67 134:65 135:64 136:58 137:50 138:48 139:42 140:41 141:38 142:33 143:30 144:27 145:23 146:21 147:20 148:19 149:19 150:20 151:27 152:26 153:27 154:28 155:27 156:25 157:20 158:19 159:20 160:21 161:21 162:23 163:27 164:29 165:32 166:38 167:40 168:43 169:48 170:50 171:58 172:65 173:67 174:68 175:68 176:64 177:60 178:57 179:55 180:51 181:47 182:44 183:42 184:40 185:35 186:30 187:29 188:27 189:20 190:21 191:31 192:41 193:43 194:47 195:55 196:57 197:61 198:63 199:65 200:68 
-0.182914166925624 -0.6284978814853001 1 0.9686088068584402 0.7830140460810443 1:93 2:89 3:86 4:80 5:75 6:72 7:69 8:64 9:60 10:57 11:55 12:49 13:41 14:38 15:35 16:32 17:31 18:26 19:27 20:29 21:28 22:29 23:31 24:33 25:36 26:37 27:40 28:42 29:45 30:51 31:54 32:59 33:62 34:64 35:64 36:67 37:70 38:71 39:71 40:72 41:73 42:74 43:70 44:64 45:59 46:53 47:52 48:50 49:45 50:43 51:41 52:40 53:40 54:40 55:36 56:36 57:37 58:37 59:37 60:37 61:36 62:34 63:30 64:29 65:29 66:29 67:26 68:25 69:29 70:31 71:36 72:44 73:59 74:70 75:76 76:83 77:89 78:85 79:76 80:70 81:60 82:46 83:39 84:35 85:31 86:29 87:25 88:25 89:27 90:28 91:29 92:28 93:32 94:36 95:36 96:37 97:37 98:37 99:36 100:37 101:39 102:39 103:40 104:42 105:42 106:46 107:49 108:52 109:52 110:58 111:65 112:67 113:70 114:73 115:73 116:72 117:71 118:71 119:70 120:69 121:67 122:64 123:63 124:60 125:57 126:53 127:51 128:45 129:42 130:37 131:36 132:36 133:34 134:31 135:29 136:28 137:29 138:27 139:26 140:28 141:31 142:34 143:37 144:39 145:44 146:45 147:53 148:55 149:61 150:63 151:66 152:69 153:72 154:75 155:84 156:87 157:91 158:92 159:90 160:86 161:78 162:72 163:67 164:62 165:41 166:39 167:37 168:38 169:39 170:41 171:48 172:53 173:57 174:61 175:68 176:73 177:74 178:82 179:87 180:92 181:92 182:92 183:90 184:84 185:78 186:74 187:73 188:64 189:59 190:55 191:51 192:45 193:39 194:39 195:52 196:65 197:71 198:77 199:85 200:89 
-0.1731136769272434 -0.6766070145073267 0.9776714964376978 0.7816438850682527 0.7609630151292972 1:103 2:99 3:96 4:88 5:79 6:74 7:67 8:59 9:55 10:60 11:65 12:77 13:88 14:90 15:96 16:98 17:98 18:96 19:93 20:90 21:87 22:82 23:78 24:59 25:53 26:47 27:43 28:42 29:35 30:31 31:28 32:28 33:27 34:27 35:27 36:27 37:28 38:32 39:29 40:30 41:32 42:33 43:34 44:36 45:38 46:42 47:46 48:49 49:52 50:54 51:54 52:53 53:51 54:47 55:44 56:40 57:38 58:35 59:34 60:33 61:31 62:29 63:29 64:31 65:31 66:27 67:27 68:26 69:27 70:27 71:27 72:29 73:34 74:39 75:42 76:45 77:50 78:56 79:68 80:83 81:88 82:91 83:95 84:97 85:98 86:98 87:97 88:93 89:90 90:87 91:68 92:66 93:63 94:56 95:55 96:56 97:59 98:66 99:73 100:79 101:90 102:97 103:101 104:101 105:99 106:93 107:89 108:83 109:68 110:46 111:41 112:42 113:42 114:42 115:40 116:34 117:33 118:32 119:31 120:36 121:40 122:40 123:41 124:39 125:38 126:37 127:37 128:38 129:38 130:36 131:35 132:34 133:34 134:37 135:40 136:43 137:47 138:52 139:55 140:57 141:58 142:59 143:62 144:59 145:60 146:61 147:63 148:63 149:63 150:61 151:58 152:59 153:60 154:62 155:64 156:64 157:63 158:61 159:60 160:60 161:63 162:62 163:59 164:57 165:56 166:54 167:50 168:47 169:44 170:41 171:37 172:35 173:35 174:36 175:37 176:38 177:38 178:37 179:37 180:38 181:40 182:41 183:40 184:40 185:35 186:32 187:32 188:33 189:35 190:40 191:43 192:43 193:42 194:42 195:51 196:76 197:83 198:88 199:93 200:100 
-0.5316237835827726 -0.7222490896956503 1 1 0.9579686443624783 1:66 2:64 3:63 4:60 5:57 6:48 7:43 8:33 9:25 10:22 11:20 12:15 13:18 14:20 15:20 16:20 17:19 18:18 19:18 20:20 21:22 22:23 23:24 24:26 25:26 26:26 27:27 28:31 29:36 30:39 31:40 32:41 33:42 34:43 35:46 36:49 37:51 38:52 39:53 40:56 41:58 42:58 43:57 44:56 45:55 46:51 47:49 48:47 49:46 50:45 51:47 52:50 53:52 54:55 55:55 56:57 57:57 58:58 59:56 60:53 61:52 62:52 63:48 64:45 65:44 66:42 67:42 68:41 69:40 70:39 71:36 72:33 73:27 74:26 75:27 76:28 77:26 78:23 79:22 80:22 81:21 82:18 83:17 84:18 85:19 86:20 87:20 88:18 89:15 90:15 91:18 92:22 93:24 94:27 95:38 96:47 97:57 98:59 99:61 100:62 101:65 102:63 103:61 104:54 105:50 106:47 107:44 108:41 109:31 110:20 111:21 112:28 113:34 114:37 115:39 116:48 117:52 118:55 119:58 120:61 121:63 122:65 123:67 124:68 125:68 126:67 127:61 128:57 129:55 130:51 131:47 132:44 133:39 134:34 135:31 136:29 137:27 138:25 139:21 140:18 141:19 142:20 143:21 144:28 145:30 146:31 147:33 148:37 149:41 150:44 151:45 152:46 153:45 154:45 155:40 156:34 157:33 158:31 159:30 160:29 161:25 162:21 163:19 164:18 165:18 166:23 167:25 168:27 169:29 170:32 171:34 172:39 173:44 174:49 175:53 176:55 177:58 178:65 179:68 180:69 181:68 182:65 183:63 184:61 185:57 186:54 187:51 188:47 189:37 190:35 191:28 192:22 193:20 194:32 195:42 196:45 197:47 198:51 199:54 200:62 
-0.5072199611989393 -1 0.7352287611863464 0.6852088199109021 0.5506311417005285 1:60 2:56 3:53 4:49 5:47 6:45 7:41 8:39 9:37 10:36 11:33 12:28 13:25 14:21 15:19 16:18 17:17 18:16 19:17 20:18 21:18 22:18 23:14 24:10 25:7 26:5 27:6 28:8 29:10 30:12 31:17 32:20 33:24 34:27 35:29 36:32 37:35 38:37 39:39 40:42 41:44 42:50 43:51 44:54 45:53 46:43 47:40 48:38 49:35 50:33 51:30 52:28 53:26 54:24 55:21 56:20 57:18 58:18 59:17 60:16 61:16 62:17 63:17 64:18 65:19 66:25 67:27 68:29 69:30 70:32 71:33 72:33 73:33 74:36 75:37 76:39 77:42 78:44 79:46 80:48 81:48 82:50 83:51 84:51 85:49 86:50 87:54 88:57 89:66 90:69 91:70 92:72 93:70 94:69 95:67 96:66 97:61 98:54 99:52 100:50 101:49 102:50 103:51 104:50 105:48 106:46 107:45 108:43 109:40 110:39 111:37 112:35 113:33 114:33 115:33 116:34 117:33 118:30 119:28 120:27 121:25 122:18 123:17 124:17 125:17 126:16 127:16 128:17 129:16 130:17 131:18 132:21 133:23 134:26 135:27 136:29 137:32 138:35 139:37 140:40 141:42 142:52 143:52 144:54 145:51 146:50 147:43 148:41 149:39 150:37 151:35 152:32 153:28 154:26 155:23 156:19 157:16 158:12 159:10 160:8 161:5 162:4 163:7 164:12 165:14 166:16 167:17 168:18 169:19 170:17 171:16 172:17 173:17 174:19 175:20 176:23 177:27 178:30 179:36 180:38 181:40 182:41 183:44 184:48 185:50 186:54 187:58 188:62 189:61 190:62 191:61 192:58 193:55 194:51 195:49 196:52 197:58 198:62 199:62 200:62 
-0 -0 0.1277915227430366 0.3303816630658515 0.3155224910981171 1:82 2:80 3:78 4:78 5:73 6:72 7:70 8:69 9:66 10:63 11:39 12:38 13:37 14:36 15:35 16:34 17:33 18:32 19:31 20:27 21:25 22:24 23:22 24:23 25:32 26:33 27:34 28:34 29:34 30:25 31:24 32:26 33:27 34:28 35:29 36:30 37:31 38:34 39:31 40:30 41:30 42:32 43:32 44:33 45:33 46:34 47:35 48:36 49:35 50:34 51:34 52:33 53:36 54:37 55:38 56:43 57:43 58:44 59:44 60:45 61:47 62:47 63:48 64:49 65:50 66:51 67:52 68:53 69:61 70:62 71:62 72:63 73:63 74:64 75:65 76:67 77:68 78:69 79:71 80:71 81:70 82:69 83:68 84:67 85:69 86:70 87:68 88:67 89:66 90:64 91:63 92:62 93:61 94:61 95:57 96:56 97:54 98:53 99:54 100:53 101:48 102:45 103:45 104:42 105:41 106:35 107:33 108:30 109:27 110:26 111:26 112:27 113:27 114:29 115:26 116:24 117:22 118:22 119:21 120:21 121:20 122:29 123:32 124:35 125:38 126:42 127:43 128:45 129:49 130:51 131:52 132:53 133:57 134:59 135:62 136:64 137:65 138:68 139:70 140:72 141:74 142:79 143:80 144:81 145:83 146:82 147:83 148:82 149:80 150:80 151:79 152:75 153:75 154:72 155:71 156:70 157:69 158:67 159:65 160:64 161:62 162:57 163:54 164:52 165:51 166:50 167:46 168:45 169:40 170:39 171:36 172:34 173:30 174:28 175:24 176:24 177:23 178:23 179:24 180:26 181:27 182:32 183:35 184:36 185:42 186:43 187:51 188:52 189:52 190:54 191:55 192:58 193:61 194:64 195:65 196:66 197:67 198:73 199:75 200:76 
-0.2703805783604966 -0.4030890297479341 0.4085913188022286 0.1178000196470037 0.4082827805644266 1:70 2:69 3:69 4:65 5:61 6:60 7:55 8:46 9:41 10:34 11:33 12:28 13:25 14:23 15:20 16:20 17:21 18:22 19:22 20:22 21:23 22:25 23:26 24:29 25:31 26:34 27:34 28:35 29:37 30:38 31:40 32:42 33:45 34:48 35:49 36:50 37:50 38:49 39:48 40:47 41:43 42:40 43:39 44:39 45:33 46:30 47:27 48:27 49:27 50:27 51:24 52:25 53:26 54:26 55:27 56:29 57:32 58:36 59:39 60:39 61:41 62:42 63:44 64:46 65:47 66:48 67:49 68:50 69:50 70:49 71:47 72:45 73:42 74:39 75:37 76:36 77:36 78:33 79:33 80:31 81:28 82:27 83:26 84:25 85:22 86:22 87:21 88:21 89:20 90:19 91:19 92:20 93:23 94:25 95:29 96:33 97:34 98:41 99:46 100:56 101:60 102:62 103:65 104:69 105:70 106:68 107:67 108:65 109:61 110:57 111:55 112:51 113:47 114:44 115:40 116:34 117:26 118:25 119:26 120:32 121:40 122:43 123:46 124:49 125:52 126:56 127:64 128:70 129:72 130:71 131:71 132:67 133:63 134:59 135:57 136:55 137:51 138:45 139:43 140:41 141:37 142:28 143:26 144:24 145:20 146:18 147:19 148:19 149:20 150:21 151:20 152:20 153:20 154:21 155:20 156:22 157:20 158:19 159:18 160:18 161:20 162:23 163:26 164:29 165:37 166:40 167:43 168:47 169:50 170:54 171:58 172:60 173:63 174:67 175:71 176:73 177:72 178:70 179:65 180:60 181:56 182:53 183:49 184:46 185:43 186:41 187:33 188:28 189:25 190:26 191:33 192:40 193:44 194:47 195:52 196:55 197:57 198:61 199:65 200:68 
-0.3055143976037717 -0.976503270519585 0 0.220917931450645 0.2686148124647666 1:68 2:67 3:66 4:64 5:64 6:59 7:58 8:55 9:53 10:51 11:49 12:48 13:47 14:46 15:45 16:43 17:43 18:38 19:37 20:32 21:31 22:29 23:26 24:25 25:23 26:21 27:19 28:21 29:22 30:29 31:30 32:30 33:31 34:31 35:30 36:31 37:29 38:29 39:27 40:28 41:27 42:29 43:32 44:33 45:33 46:36 47:38 48:37 49:38 50:38 51:38 52:38 53:38 54:39 55:39 56:40 57:41 58:40 59:41 60:40 61:41 62:40 63:42 64:42 65:43 66:42 67:44 68:45 69:47 70:48 71:49 72:50 73:51 74:52 75:54 76:54 77:56 78:59 79:58 80:59 81:58 82:57 83:56 84:55 85:55 86:55 87:55 88:56 89:55 90:54 91:54 92:53 93:53 94:51 95:51 96:47 97:47 98:45 99:45 100:43 101:43 102:40 103:38 104:38 105:36 106:31 107:31 108:31 109:29 110:29 111:27 112:26 113:18 114:17 115:17 116:16 117:17 118:20 119:23 120:24 121:26 122:31 123:32 124:35 125:36 126:37 127:38 128:40 129:41 130:45 131:47 132:50 133:51 134:53 135:55 136:56 137:58 138:65 139:65 140:66 141:66 142:67 143:65 144:64 145:61 146:59 147:58 148:56 149:55 150:50 151:49 152:48 153:47 154:46 155:45 156:43 157:40 158:39 159:38 160:37 161:36 162:34 163:33 164:30 165:29 166:25 167:24 168:20 169:19 170:16 171:15 172:14 173:13 174:13 175:14 176:15 177:17 178:18 179:19 180:28 181:29 182:34 183:35 184:40 185:43 186:44 187:46 188:47 189:50 190:51 191:53 192:56 193:57 194:58 195:59 196:60 197:61 198:63 199:64 200:65 
-0.270441132047854 -0.8542573791306347 -1 0.7918673848552592 0.7961170648962105 1:92 2:91 3:89 4:78 5:68 6:52 7:47 8:43 9:43 10:43 11:43 12:43 13:46 14:52 15:63 16:78 17:89 18:90 19:90 20:87 21:84 22:80 23:69 24:61 25:55 26:49 27:45 28:41 29:37 30:34 31:31 32:33 33:36 34:37 35:40 36:43 37:48 38:52 39:55 40:58 41:64 42:68 43:71 44:72 45:69 46:65 47:61 48:55 49:51 50:46 51:43 52:37 53:33 54:30 55:27 56:24 57:20 58:16 59:13 60:10 61:7 62:3 63:6 64:13 65:14 66:17 67:20 68:23 69:25 70:28 71:33 72:38 73:42 74:44 75:46 76:46 77:48 78:48 79:45 80:43 81:44 82:41 83:39 84:36 85:33 86:31 87:31 88:31 89:32 90:33 91:35 92:37 93:38 94:38 95:40 96:42 97:45 98:48 99:49 100:50 101:52 102:54 103:53 104:53 105:55 106:57 107:59 108:68 109:70 110:77 111:88 112:88 113:79 114:69 115:58 116:57 117:53 118:53 119:53 120:50 121:49 122:48 123:46 124:43 125:40 126:38 127:37 128:37 129:34 130:33 131:32 132:31 133:32 134:34 135:36 136:39 137:40 138:42 139:47 140:49 141:48 142:46 143:47 144:45 145:41 146:37 147:30 148:27 149:24 150:21 151:18 152:17 153:16 154:13 155:5 156:3 157:6 158:9 159:12 160:14 161:17 162:23 163:26 164:28 165:31 166:34 167:40 168:46 169:49 170:52 171:60 172:65 173:68 174:72 175:71 176:69 177:66 178:64 179:61 180:57 181:52 182:48 183:45 184:43 185:40 186:38 187:37 188:33 189:32 190:32 191:35 192:38 193:43 194:45 195:52 196:59 197:66 198:76 199:82 200:87 
-0.03778247410476028 -0.7738204907704698 -0.1078998134870444 0.7859747334017456 0 1:70 2:69 3:68 4:66 5:65 6:64 7:55 8:54 9:50 10:49 11:48 12:46 13:45 14:34 15:32 16:31 17:29 18:22 19:21 20:22 21:21 22:25 23:29 24:31 25:33 26:36 27:38 28:41 29:43 30:44 31:46 32:47 33:48 34:51 35:52 36:53 37:54 38:59 39:62 40:63 41:65 42:69 43:69 44:71 45:71 46:72 47:68 48:66 49:66 50:64 51:63 52:62 53:61 54:58 55:55 56:54 57:52 58:51 59:49 60:48 61:46 62:46 63:44 64:43 65:41 66:39 67:38 68:37 69:34 70:32 71:32 72:30 73:29 74:28 75:26 76:26 77:34 78:34 79:34 80:34 81:35 82:35 83:34 84:34 85:33 86:33 87:35 88:36 89:39 90:38 91:39 92:38 93:39 94:39 95:40 96:42 97:46 98:47 99:48 100:47 101:48 102:47 103:49 104:49 105:50 106:50 107:51 108:52 109:52 110:51 111:52 112:52 113:52 114:50 115:48 116:48 117:46 118:44 119:45 120:44 121:43 122:43 123:44 124:43 125:44 126:41 127:41 128:40 129:41 130:40 131:40 132:39 133:40 134:41 135:41 136:43 137:42 138:45 139:47 140:50 141:50 142:52 143:53 144:56 145:56 146:57 147:58 148:61 149:62 150:63 151:62 152:62 153:59 154:55 155:54 156:51 157:50 158:46 159:44 160:41 161:40 162:39 163:38 164:38 165:36 166:35 167:34 168:32 169:31 170:29 171:28 172:27 173:25 174:21 175:21 176:18 177:17 178:16 179:16 180:12 181:16 182:24 183:24 184:25 185:26 186:28 187:30 188:32 189:49 190:50 191:54 192:65 193:67 194:68 195:69 196:69 197:70 198:69 199:70 200:70 
-0.1823789846563695 -0.02826132205706815 -0.4814939472796956 1 1 1:65 2:59 3:56 4:53 5:47 6:42 7:38 8:35 9:30 10:24 11:18 12:21 13:24 14:26 15:30 16:34 17:38 18:41 19:45 20:47 21:50 22:55 23:60 24:63 25:68 26:71 27:67 28:64 29:59 30:55 31:51 32:47 33:44 34:40 35:38 36:34 37:30 38:32 39:36 40:39 41:41 42:43 43:45 44:49 45:55 46:58 47:63 48:66 49:69 50:69 51:65 52:61 53:59 54:55 55:51 56:48 57:46 58:43 59:40 60:35 61:31 62:27 63:24 64:21 65:18 66:24 67:31 68:35 69:38 70:43 71:47 72:52 73:55 74:60 75:64 76:62 77:59 78:56 79:53 80:50 81:37 82:30 83:26 84:23 85:14 86:10 87:11 88:15 89:25 90:31 91:38 92:41 93:44 94:46 95:52 96:57 97:57 98:51 99:46 100:44 101:41 102:40 103:37 104:38 105:38 106:42 107:44 108:51 109:54 110:55 111:55 112:56 113:58 114:61 115:62 116:60 117:60 118:59 119:58 120:57 121:57 122:55 123:52 124:49 125:49 126:46 127:46 128:45 129:43 130:40 131:38 132:35 133:32 134:34 135:36 136:37 137:38 138:39 139:36 140:39 141:39 142:38 143:37 144:36 145:34 146:36 147:40 148:45 149:46 150:46 151:48 152:50 153:51 154:53 155:56 156:58 157:57 158:58 159:59 160:60 161:63 162:60 163:57 164:56 165:55 166:55 167:48 168:45 169:40 170:38 171:38 172:40 173:41 174:43 175:45 176:48 177:50 178:57 179:57 180:56 181:51 182:45 183:43 184:40 185:36 186:30 187:25 188:15 189:11 190:10 191:15 192:20 193:23 194:26 195:30 196:38 197:50 198:55 199:60 200:63 
