svm_type c_svc
kernel_type rbf
gamma 2.7778e-05
nr_class 14
total_sv 129
rho -0.363883 0.0219307 -0.35373 -0.000752495 -0.199736 -0.351575 -0.00912529 -0.0920861 0.145568 -0.338783 0.298753 0.295614 -0.0914747 0.401418 0.0976664 0.383971 0.363461 -0.0229071 0.277777 0.407588 0.533452 0.167124 0.626285 0.631221 0.318659 -0.301721 0.0405619 -0.260164 -0.348189 -0.0462259 0.0165401 0.138139 -0.342568 0.264774 0.255855 -0.0815599 0.481669 0.198195 -0.277176 0.255031 0.421603 0.497023 0.0413992 0.692208 0.648191 0.246883 -0.174497 -0.536661 -0.15154 0.136325 0.0264812 -0.424127 0.311757 0.256742 -0.243668 -0.238699 0.122798 0.164116 0.215749 -0.203999 0.467161 0.496051 0.0347001 0.316827 0.416398 0.456722 0.198514 0.610641 0.604185 0.291306 0.0073265 0.233725 -0.190928 0.291161 0.429204 -0.0741424 0.0885833 -0.391746 0.183011 0.315076 -0.139121 -0.501968 0.128405 0.14216 -0.150575 0.65668 0.671623 0.2766 0.124374 -0.409258 -0.394495
label 1 2 3 4 5 6 7 8 9 10 11 12 13 14
probA -2.64912 -2.78979 -2.66347 -2.79584 -2.81179 -2.51029 -2.4568 -2.31265 -2.81837 -2.63368 -2.3324 -2.50059 -2.59211 -2.67322 -2.50754 -2.56058 -2.6489 -2.428 -2.49298 -2.5464 -2.85893 -2.75731 -2.74254 -2.813 -2.55857 -2.48836 -2.88203 -2.93717 -2.50968 -2.34607 -2.88897 -3.00014 -2.60585 -2.65596 -2.87326 -2.65528 -4.08484 -2.51814 -3.00595 -2.50081 -2.79974 -2.60052 -2.78531 -2.73456 -2.74424 -2.45584 -2.68728 -2.58616 -2.57892 -3.3833 -2.60611 -3.13178 -2.92036 -2.81159 -2.23555 -2.56878 -2.72823 -2.70087 -3.13321 -2.79642 -2.70778 -3.07367 -2.51832 -2.50527 -2.652 -2.61028 -2.59493 -2.68427 -2.66113 -2.44409 -2.43661 -2.66119 -2.47888 -2.32301 -2.49229 -2.54117 -2.93387 -2.85275 -2.49713 -2.09894 -2.35837 -2.38376 -2.64064 -2.14986 -2.33968 -2.57618 -2.93521 -2.48849 -2.15989 -2.21584 -2.44557
probB -0.140698 -0.300632 -0.143799 -0.146798 0.021759 -0.119584 -0.198691 -0.00220037 0.0106822 -0.282429 0.161243 0.152318 0.0732669 -0.0624567 -0.0116255 0.0122145 0.00214333 0.00765224 0.204709 0.18584 -0.0584675 -0.116978 0.365333 0.303523 0.11722 -0.0625337 -0.106918 -0.215196 -0.0802076 -0.296835 0.225136 0.503919 -0.13416 0.403484 0.618853 0.0413249 0.931188 0.068381 -0.606159 0.155379 0.442762 0.283959 -0.203494 0.634947 0.274289 -0.12341 -0.0480226 -0.0714945 0.284779 0.506447 0.283564 -0.377199 0.555569 0.282527 0.0456195 -0.142106 0.16678 0.228567 0.00136235 -0.251905 0.328971 0.422984 0.267021 0.168539 0.280288 0.205051 -0.13738 0.231749 0.223343 0.15795 0.066854 -0.0496896 -0.373559 0.279443 0.337167 -0.0433724 -0.21986 -0.412224 0.237932 -0.0896601 -0.206843 -0.474732 0.348976 0.0842909 -0.170991 0.363154 0.481232 0.264313 -0.227425 -0.242042 -0.0171332
nr_sv 9 9 9 9 10 9 8 9 9 10 10 9 10 9
SV
0.6746389020451016 0.8635678978234212 0.7518757595211287 1 0.7498338702230045 0.6223807317393979 0.7450528638395116 1 1 0.8680827551571988 1 1 0.5761800141642696 1:63.6003 2:61.7464 3:58.8575 4:55.9164 5:53.0838 6:49.7618 7:46.954 8:44.3237 9:41.6498 10:39.0589 11:36.0048 12:33.5974 13:31.2209 14:28.9354 15:26.8487 16:24.4732 17:23.483 18:24.1388 19:27.3225 20:29.6849 21:32.0945 22:33.9897 23:36.2507 24:38.3526 25:40.4979 26:43.0123 27:45.2646 28:47.5399 29:49.7319 30:52.1731 31:55.1092 32:56.4047 33:55.8736 34:53.9284 35:51.9801 36:49.524 37:47.4688 38:45.6194 39:43.8555 40:41.8538 41:39.6637 42:38.2013 43:36.4579 44:35.0195 45:33.2468 46:32.022 47:31.3436 48:31.1922 49:31.1277 50:31.3199 51:31.4681 52:32.3186 53:33.0706 54:33.5074 55:34.4729 56:35.8467 57:37.4785 58:39.2458 59:40.7994 60:42.4674 61:44.2893 62:46.2974 63:48.0872 64:49.6632 65:49.9561 66:49.2596 67:48.816 68:48.5994 69:47.1847 70:45.0845 71:43.2929 72:42.8833 73:42.6571 74:42.7488 75:42.1063 76:41.7686 77:41.6036 78:41.6011 79:41.2492 80:42.0555 81:42.0198 82:42.6463 83:43.4241 84:43.8348 85:44.3917 86:45.2283 87:46.0594 88:46.1037 89:46.2974 90:48.0872 91:49.9347 92:51.3266 93:52.8055 94:54.3544 95:55.9766 96:58.003 97:59.7526 98:61.5574 99:62.7008 100:61.3319 101:58.4125 102:55.5203 103:52.8411 104:50.3836 105:48.1694 106:45.9709 107:43.49 108:41.7776 109:40.1422 110:38.6061 111:36.8981 112:35.6011 113:33.2478 114:30.2086 115:27.4498 116:24.5995 117:22.39 118:20.2533 119:18.8242 120:17.2306 121:16.3897 122:16.3542 123:16.8394 124:18.0693 125:20.04 126:23.2933 127:25.9858 128:28.8679 129:31.6642 130:34.6821 131:38.2785 132:41.5039 133:44.514 134:47.6714 135:50.8477 136:54.5632 137:57.0311 138:59.5407 139:62.5175 140:63.816 141:62.6834 142:60.3367 143:57.2378 144:54.234 145:51.0396 146:47.6253 147:44.5254 148:41.6178 149:38.7106 150:35.6113 151:32.0078 152:28.7144 153:25.6157 154:22.3275 155:20.2194 156:20.9813 157:23.6934 158:26.8701 159:30.4056 160:33.2415 161:36.7968 162:39.6548 163:43.1857 164:46.7172 165:49.8016 166:52.9326 167:56.0223 168:58.6844 169:61.1433 170:63.4133 171:65.8045 172:65.7451 173:62.6821 174:59.2159 175:56.1203 176:52.1542 177:48.7086 178:45.2778 179:41.8633 180:38.4723 181:34.4404 182:31.1218 183:28.1039 184:24.9918 185:21.8475 186:22.3088 187:24.9131 188:27.7346 189:30.3194 190:32.9854 191:36.2242 192:39.0803 193:41.8591 194:44.5938 195:47.3305 196:50.7035 197:53.4471 198:56.1917 199:58.8268 200:61.352 
0 0 0.3074929717960753 0 0.2032550552213332 0 0.6015557023677793 0.1515104294123198 0 0 0.3226162320044169 0 0.4786601475367361 1:58.2151 2:56.6808 3:54.6466 4:52.1537 5:49.5908 6:47.0957 7:44.5449 8:42.547 9:40.0247 10:37.5133 11:35 12:32.5078 13:30.0339 14:27.5727 15:25.5783 16:23.1951 17:20.7185 18:18.316 19:17.8739 20:19.7808 21:22.4741 22:24.8249 23:27.204 24:29.8877 25:32.2808 26:34.5669 27:36.3904 28:38.9771 29:41.4881 30:43.9321 31:46.3817 32:48.9001 33:51.4807 34:53.444 35:55.323 36:54.3348 37:51.9235 38:49.5204 39:47.6054 40:45.2224 41:43.0222 42:40.8545 43:38.5394 44:36.2507 45:33.9897 46:32.2072 47:30.0194 48:28.1599 49:26.4054 50:24.4613 51:22.6348 52:20.9379 53:19.7082 54:20.2905 55:22.3895 56:25.498 57:28.4156 58:30.7007 59:33.5711 60:35.5164 61:37.8077 62:40.1422 63:42.2719 64:44.9376 65:46.6744 66:49.5008 67:50.9608 68:49.6829 69:47.3223 70:46.1022 71:44.3808 72:42.455 73:40.0255 74:37.7961 75:35.9506 76:34.3579 77:32.7334 78:31.3781 79:29.521 80:28.172 81:27.0093 82:26.4226 83:26.3911 84:25.8357 85:26.2732 86:26.6168 87:27.7938 88:28.3093 89:29.1375 90:30.4195 91:32.1926 92:33.4255 93:35.4025 94:37.4461 95:39.0169 96:40.5088 97:42.1981 98:43.272 99:43.3312 100:42.1025 101:40.681 102:38.5551 103:37.7716 104:37.063 105:37.0068 106:37.1303 107:36.4211 108:35.7979 109:36.0889 110:36.228 111:36.8685 112:36.9183 113:37.1835 114:38.3068 115:39.1279 116:39.64 117:40.3361 118:40.0948 119:40.6366 120:41.5087 121:43.2633 122:45.1697 123:46.8826 124:48.7536 125:50.3941 126:52.4048 127:54.2113 128:54.4619 129:53.2659 130:50.8037 131:48.3452 132:45.9618 133:43.6608 134:41.9675 135:39.9572 136:37.9857 137:36.2653 138:34.6837 139:33.451 140:32.0177 141:29.9083 142:27.0188 143:23.5055 144:20.8193 145:19.0403 146:17.2207 147:15.8304 148:15.2149 149:14.0238 150:14.23 151:14.8859 152:16.7765 153:18.1804 154:20.542 155:23.1171 156:25.7473 157:28.2931 158:30.0561 159:32.3347 160:34.7635 161:37.4324 162:40.2162 163:42.8047 164:45.402 165:47.0248 166:49.6509 167:51.7332 168:53.8533 169:54.3924 170:51.6773 171:48.7659 172:45.8535 173:43.0986 174:40.2654 175:37.432 176:34.6777 177:32.4429 178:29.6899 179:26.8572 180:24.024 181:21.5248 182:18.3602 183:16.3542 184:17.1137 185:19.5672 186:22.3219 187:24.8233 188:27.4092 189:29.3473 190:31.781 191:34.2237 192:36.8786 193:39.429 194:41.9765 195:44.4214 196:46.3817 197:48.8367 198:51.1298 199:53.5547 200:55.9397 
0.6955296911283658 1 0.3024023206159426 0.6884634260440059 0.3862203479245229 0.02236816306482133 1 0.667849995853259 1 0.4547499887682903 0.9832791793381752 0.8197485605782463 0.2750562377581066 1:50.01 2:48.5052 3:46.543 4:44.5449 5:42.5292 6:40.5123 7:38.5 8:36.5137 9:34.5145 10:32.5615 11:30.5655 12:28.5701 13:26.0769 14:23.585 15:21.652 16:19.7296 17:17.7555 18:15.7058 19:14.0178 20:15.5323 21:17.614 22:19.7296 23:21.8691 24:24.4519 25:27.171 26:29.3473 27:31.532 28:33.7234 29:36.064 30:38.2702 31:40.4797 32:42.6919 33:45.0697 34:47.2893 35:50.3311 36:52.6552 37:53.9208 38:54.7855 39:54.1508 40:52.9086 41:50.9365 42:48.7086 43:46.4815 44:43.9923 45:41.765 46:38.762 47:35.9349 48:33.7094 49:31.4853 50:29.5384 51:27.6104 52:25.4035 53:23.5055 54:21.3191 55:19.4772 56:17.3312 57:17.6117 58:20.1126 59:22.1022 60:24.91 61:26.9537 62:29.7742 63:32.27 64:34.7635 65:37.2074 66:39.6548 67:41.7433 68:45.2769 69:48.4703 70:49.9536 71:50.5272 72:49.7032 73:48.543 74:46.1792 75:44.2552 76:41.5034 77:38.7625 78:36.4752 79:33.543 80:31.1218 81:28.9736 82:26.8812 83:24.8693 84:22.9489 85:21.6493 86:21.0119 87:22.5548 88:24.5815 89:26.5189 90:29.0056 91:31.5634 92:33.6341 93:35.6266 94:37.7128 95:39.8834 96:42.008 97:44.1437 98:46.3817 99:48.3452 100:50.2278 101:50.3652 102:48.6283 103:46.5695 104:44.5112 105:42.5 106:40.5311 107:38.6167 108:36.7186 109:34.9403 110:33.2455 111:31.6683 112:30.0483 113:28.6561 114:28.4775 115:27.9104 116:28.3725 117:29 118:29.7825 119:30.7081 120:31.2246 121:32.4493 122:33.3607 123:34.4805 124:36.3162 125:38.2472 126:38.3992 127:39.1599 128:39.032 129:39.0064 130:38.5847 131:37.7731 132:35.9281 133:35.3108 134:33.7234 135:32.9028 136:35.1934 137:36.9129 138:38.242 139:38.3332 140:38.9741 141:38.9026 142:39.3751 143:39.6106 144:39.661 145:39.9123 146:40.5126 147:40.5088 148:40.0306 149:39.1977 150:39.3887 151:38.7489 152:38.2032 153:38.2472 154:39.8851 155:40.6546 156:41.5303 157:43.3524 158:44.6398 159:45.3376 160:45.6234 161:44.5293 162:42.9333 163:41.0033 164:38.9438 165:36.6233 166:34.3314 167:31.9791 168:30.4911 169:30.0083 170:29.0431 171:28.7195 172:28.0508 173:26.3224 174:24.1379 175:22.2821 176:20.56 177:19.5131 178:18.6766 179:18.3828 180:18.5865 181:19.4792 182:19.7082 183:20.5669 184:21.5725 185:22.4131 186:24.007 187:25.6578 188:27.3554 189:28.6234 190:30.8726 191:32.7763 192:34.6451 193:36.2115 194:37.9853 195:39.7777 196:41.6036 197:43.4426 198:45.2135 199:46.9555 200:48.7114 
0.1471163995638044 0.3706859790679969 0.06966810593169323 0.2428552189485338 0.3638869368480322 0.191452418150108 1 0.6992443844403078 0.4104439434252763 0.1516172947813623 0.0109599911107025 0.7690459163751451 0.2382737126265906 1:73.5527 2:71.4138 3:68.2955 4:65.2478 5:62.2013 6:59.1857 7:56.1427 8:52.6351 9:49.0918 10:46.0435 11:43.0465 12:40.0125 13:37 14:34.0099 15:30.5293 16:27.074 17:24.0833 18:21.1365 19:18.4648 20:18.4003 21:20.5937 22:24.5036 23:28.1805 24:31.158 25:34.0164 26:37.1633 27:40.1808 28:43.0824 29:46.7056 30:50.3298 31:53.2557 32:56.3034 33:59.2439 34:62.2982 35:65.1465 36:68.7099 37:73.0565 38:74.7213 39:73.2779 40:70.6832 41:67.9789 42:65.3004 43:62.2137 44:58.8344 45:56.0819 46:53.1773 47:50.4797 48:48.0128 49:45.0027 50:42.2583 51:38.9525 52:36.5361 53:33.7279 54:30.7343 55:28.0707 56:26.0859 57:26.8782 58:29.9639 59:33.3641 60:36.5575 61:40.2509 62:44.0045 63:47.5088 64:51.8904 65:55.7494 66:58.8221 67:62.2015 68:65.605 69:69.6097 70:72.9081 71:73.5014 72:71.8713 73:69.4658 74:66.8286 75:63.9541 76:60.8371 77:57.3528 78:53.8037 79:50.5991 80:47.4858 81:44.1517 82:41.5986 83:38.8807 84:37.5198 85:37.1303 86:37.492 87:38.0871 88:38.9051 89:39.9321 90:41.1526 91:42.1617 92:43.5654 93:44.5712 94:45.7738 95:47.158 96:48.7085 97:49.4196 98:50.4464 99:52.7743 100:55.4724 101:56.7064 102:55.0296 103:51.8659 104:49.3417 105:48.3987 106:47.6828 107:48.2665 108:48.0486 109:49.017 110:49.1697 111:49.5041 112:50.1243 113:50.6484 114:50.9273 115:51.0839 116:51.7361 117:52.8442 118:53.5394 119:53.9161 120:54.5741 121:55.6348 122:56.87 123:58.69 124:60.6073 125:62.6243 126:64.9127 127:67.2322 128:69.0438 129:71.1209 130:71.6977 131:70.2673 132:66.7327 133:63.0982 134:59.8087 135:57.0096 136:54.4975 137:52.3271 138:50.4485 139:48.4098 140:46.2076 141:44.2664 142:42.4536 143:39.3643 144:35.3553 145:31.3511 146:28.1822 147:25.0085 148:23.628 149:23.4795 150:24.1089 151:24.5326 152:26.0128 153:29.7231 154:32.7626 155:35.7663 156:38.5942 157:41.8507 158:44.89 159:47.7118 160:51.0751 161:54.6628 162:57.4137 163:60.4895 164:62.8046 165:64.6637 166:65.1255 167:64.007 168:60.1415 169:56.5862 170:53.0377 171:49.7349 172:46.4496 173:42.9408 174:38.619 175:34.3162 176:30.6107 177:26.4012 178:22.2044 179:18.2163 180:15.6293 181:15.5802 182:18.3619 183:21.1697 184:24.3069 185:27.4498 186:30.5967 187:33.617 188:37.1401 189:40.4979 190:43.4339 191:46.4873 192:49.3362 193:52.3977 194:55.3629 195:58.791 196:62.3622 197:65.2537 198:68.1545 199:70.9872 200:73.3547 
0.1793730681085055 0 0.2270803210400198 0.2087798335141021 0.2209887687844234 0.1506249772296747 0 0 0.4948964158659314 0.1955071086392332 1 0 0.3495681399262605 1:72.8354 2:70.6205 3:67.476 4:64.3817 5:61.3645 6:58.3096 7:55.2926 8:51.6979 9:48.1174 10:45.081 11:42.0354 12:39.0084 13:36.0048 14:32.5154 15:29.0523 16:26.0769 17:23.1951 18:20.9579 19:23.1914 20:26.7276 21:30.2686 22:33.2423 23:36.1392 24:39.0517 25:42.1253 26:45.6104 27:49.0309 28:51.9714 29:54.9183 30:57.8707 31:60.8278 32:64.4043 33:68.2526 34:71.8079 35:73.5025 36:73.3829 37:70.9502 38:67.8852 39:64.6227 40:61.8474 41:59.0941 42:56.366 43:53.6669 44:50.5622 45:47.5097 46:44.9465 47:42.4407 48:40.003 49:37.4324 50:34.3484 51:31.5895 52:29.0755 53:27.4883 54:28.8182 55:31.3477 56:34.7063 57:37.9026 58:40.611 59:43.3809 60:46.2012 61:48.8396 62:52.2837 63:55.6554 64:58.6189 65:62.626 66:66.8432 67:69.279 68:69.5081 69:67.1814 70:65.1181 71:63.1299 72:60.4434 73:58.0686 74:55.1395 75:52.4374 76:50.3194 77:47.7118 78:45.4948 79:43.3953 80:41.2037 81:39.0593 82:38.4792 83:38.1269 84:38.6753 85:39.1237 86:40.5397 87:41.2387 88:43.0187 89:44.0179 90:45.1946 91:46.5351 92:47.6612 93:48.8768 94:50.4519 95:52.4058 96:53.9836 97:55.2388 98:56.0156 99:58.8221 100:61.6721 101:62.7794 102:63.6628 103:63.8719 104:63.0171 105:60.2492 106:56.6152 107:54.8236 108:54.463 109:54.5953 110:54.2371 111:55.0318 112:54.7096 113:54.2371 114:54.5953 115:54.1354 116:54.181 117:54.4054 118:54.5461 119:54.5668 120:54.7901 121:55.2052 122:55.2745 123:55.659 124:56.5803 125:57.8348 126:59.2495 127:61.0066 128:62.3173 129:64.0749 130:66.3453 131:67.732 132:66.8549 133:64.8478 134:61.035 135:56.8716 136:53.4515 137:50.7075 138:48.2281 139:45.9672 140:43.9891 141:41.9159 142:40.2097 143:38.7366 144:37.4879 145:35.2173 146:31.895 147:29.1746 148:26.2562 149:25.248 150:24.9122 151:25.3101 152:26.1641 153:27.5661 154:30.0762 155:33.3837 156:35.9079 157:38.6044 158:41.4396 159:44.8146 160:48.157 161:51.0011 162:53.917 163:56.889 164:59.6322 165:62.5167 166:64.8183 167:65.957 168:65.7749 169:65.1181 170:62.8749 171:58.3556 172:54.3433 173:50.7694 174:47.6502 175:43.8634 176:40.3113 177:35.7123 178:31.1127 179:27.3477 180:23.3453 181:19.336 182:18.2352 183:21.3659 184:25.0565 185:28.1275 186:31.2168 187:34.1588 188:37.1233 189:40.5883 190:44.1417 191:47.4249 192:50.1608 193:52.9254 194:55.7143 195:59.2527 196:62.6265 197:65.4604 198:68.2097 199:70.6117 200:72.4608 
0.7236676950517134 1 0.7595091211914241 0.8662837046126886 1 0.5405459787738452 1 1 1 1 1 1 0.9622267225805091 1:56 2:54.5092 3:52.5381 4:50.5396 5:48.5412 6:46.543 7:44.5449 8:42.547 9:40.5494 10:38.5519 11:36.0555 12:33.5597 13:31.5634 14:29.5677 15:27.5727 16:25.5783 17:23.585 18:21.5929 19:19.6024 20:17.614 21:15.1331 22:13.4716 23:13.2082 24:15.4447 25:18.1804 26:20.4091 27:22.6392 28:24.8703 29:26.8572 30:29.5322 31:32.2072 32:34.4428 33:36.6784 34:38.9141 35:40.9212 36:43.1572 37:45.1697 38:47.1864 39:49.2067 40:51.8956 41:55.2318 42:56.1512 43:54.8905 44:52.9086 45:51.1988 46:49.2394 47:47.2898 48:45.0702 49:42.6282 50:40.1063 51:38.2013 52:36.0048 53:33.8134 54:32.27 55:30.1058 56:27.9529 57:26.163 58:24.052 59:21.0138 60:18.9052 61:17.7603 62:18.3384 63:19.7808 64:21.6628 65:23.8805 66:26.2789 67:28.693 68:31.7832 69:34.8898 70:37.3437 71:40.0318 72:42.738 73:45.0271 74:47.3342 75:50.0852 76:52.3118 77:54.0275 78:52.944 79:50.7597 80:48.9955 81:46.3526 82:44.6607 83:42.0784 84:39.5297 85:37.0218 86:34.8227 87:31.7865 88:28.8561 89:26.6215 90:25.5096 91:25.0499 92:24.2589 93:24.627 94:24.6758 95:24.889 96:25.7187 97:26.6575 98:27.5029 99:27.9891 100:29 101:29.7825 102:30.7081 103:31.4853 104:32.9388 105:33.7779 106:35.1297 107:35.3055 108:34.8208 109:34.4455 110:34.1833 111:34.0367 112:34.0074 113:33.0983 114:32.3186 115:33.146 116:34.8557 117:35.8953 118:36.5851 119:36.4617 120:37.3557 121:38.3332 122:38.9741 123:39.3064 124:39.7617 125:40.8032 126:41.7492 127:42.5793 128:42.9067 129:42.5791 130:42.7953 131:43.1619 132:41.3831 133:38.7371 134:36.918 135:35.2048 136:33.1861 137:31.4853 138:28.9918 139:26.7679 140:24.4425 141:22.5931 142:20.8197 143:19.1434 144:18.4563 145:18.5685 146:19.0131 147:19.1702 148:20.5058 149:21.9881 150:23.5896 151:25.2875 152:27.0638 153:29.3349 154:31.6283 155:34.1236 156:36.1028 157:37.7161 158:39.3751 159:41.4414 160:42.7946 161:44.9041 162:45.31 163:45.3534 164:43.2012 165:41.0042 166:38.8117 167:36.9392 168:35.0907 169:32.9296 170:31.1207 171:28.9914 172:26.8794 173:24.0833 174:21.3191 175:18.5069 176:16.508 177:14.3007 178:12.4239 179:12.1241 180:12.9732 181:14.7747 182:16.9757 183:19.4493 184:21.3605 185:23.2866 186:25.2243 187:27.171 188:29.1249 189:31.0847 190:33.0493 191:35.018 192:37.4836 193:39.9532 194:41.9316 195:43.9119 196:45.7739 197:47.7625 198:49.7519 199:51.7422 200:53.617 
0 0.450418168886171 0.2120616190013315 0.5568717537047989 0.06629738084064346 0.1167429555062195 0 0.9363274030879376 0 0 0.3843572801291564 0.4337054499398686 0 1:72.111 2:70.7163 3:68.2642 4:65.2764 5:62.2897 6:59.3044 7:56.3206 8:53.3386 9:50.3588 10:47.3815 11:44.5535 12:41.5935 13:38.6396 14:35.6935 15:32.7571 16:29.8335 17:26.9267 18:24.3738 19:24.4504 20:27.7331 21:30.8726 22:34.1539 23:37.1633 24:40.3126 25:43.3339 26:46.4883 27:49.5193 28:52.5556 29:55.5953 30:58.5242 31:61.5725 32:64.8478 33:68.7111 34:71.6977 35:72.622 36:70.6621 37:68.0011 38:65.3694 39:62.4325 40:59.684 41:56.7817 42:54.0852 43:51.4215 44:48.6029 45:46.2305 46:43.4955 47:40.811 48:38.1881 49:35.3887 50:32.6556 51:30.3052 52:28.8524 53:28.3439 54:30.4648 55:33.7162 56:37.1231 57:40.6044 58:43.8523 59:47.1523 60:50.2199 61:53.3351 62:56.4855 63:60.4402 64:64.6608 65:68.2515 66:69.7396 67:68.7919 68:66.2949 69:63.8568 70:61.1941 71:58.2987 72:55.463 73:52.7016 74:49.7108 75:46.8067 76:44.3273 77:41.6567 78:38.8072 79:37.1303 80:36.6758 81:36.1339 82:36.5055 83:37.1164 84:37.9552 85:38.7034 86:39.364 87:40.8227 88:42.1736 89:43.1655 90:44.3611 91:45.5142 92:47.2989 93:49.2062 94:51.236 95:52.4905 96:53.6768 97:55.6761 98:58.5688 99:60.4159 100:61.7258 101:60.7576 102:60.2133 103:58.3695 104:56.3968 105:54.1541 106:53.0157 107:52.7112 108:52.2462 109:52.618 110:53.1567 111:53.2157 112:53.1344 113:52.624 114:51.7361 115:51.691 116:51.8776 117:50.8182 118:50.7501 119:50.9444 120:50.7142 121:50.5003 122:51.12 123:51.4412 124:52.624 125:53.1344 126:53.5374 127:54.463 128:55.2558 129:56.8932 130:57.0409 131:55.0154 132:52.161 133:49.2545 134:46.2054 135:43.3868 136:41.0207 137:39.2148 138:37.6684 139:36.4145 140:34.5562 141:33.1396 142:30.8841 143:28.3675 144:26.4112 145:24.6751 146:23.5507 147:23.7663 148:24.0347 149:24.3444 150:25.3291 151:26.9365 152:28.8523 153:30.8951 154:33.2937 155:35.27 156:37.6483 157:40.1154 158:42.9017 159:45.5069 160:48.1694 161:50.8742 162:53.4159 163:55.8053 164:58.2513 165:60.747 166:62.945 167:64.4222 168:65.4977 169:64.3155 170:61.099 171:57.9404 172:55.0288 173:52.0009 174:48.8477 175:45.8275 176:42.6789 177:39.5326 178:36.389 179:33.1077 180:29.8243 181:26.6863 182:23.2626 183:21.3137 184:24.1422 185:27.204 186:30.084 187:32.9854 188:35.9031 189:38.8333 190:41.7735 191:44.7216 192:47.6762 193:50.5382 194:53.4604 195:56.4359 196:59.378 197:62.2897 198:65.2206 199:68.0715 200:71.0047 
0 0 0 0 0 0 0.811954784315735 0.272645692555431 0 0 0 0 0 1:67.0298 2:65.519 3:63.0079 4:60.0083 5:57.0088 6:54 7:51.5 8:49.0102 9:46.022 10:43.0465 11:40.05 12:37.6198 13:35.1957 14:32.2492 15:29.4282 16:26.4769 17:23.5378 18:21.2338 19:19.6453 20:21.4736 21:24.5995 22:27.5891 23:30.0048 24:32.6972 25:35.8483 26:38.6276 27:41.4376 28:44.599 29:46.9604 30:49.6495 31:52.6008 32:55.6602 33:58.7212 34:61.2068 35:63.674 36:65.4798 37:63.6953 38:60.927 39:58.6369 40:56.366 41:53.5178 42:50.5385 43:47.8869 44:45.2788 45:43.143 46:41.0513 47:38.0161 48:35.6126 49:33.306 50:31.4702 51:29.006 52:27.026 53:25.248 54:24.6211 55:27.0523 56:30.2086 57:33.543 58:36.7164 59:39.9634 60:42.7161 61:45.1056 62:47.539 63:50.7077 64:53.6556 65:57.1365 66:59.1723 67:60.188 68:58.604 69:56.3115 70:54.0988 71:51.6853 72:49.4423 73:47.2591 74:44.4761 75:42.4127 76:40.1731 77:37.7177 78:36.0273 79:33.9121 80:32.3587 81:31.0751 82:30.755 83:30.9271 84:30.6854 85:31.7892 86:33.1287 87:33.8446 88:35.3045 89:36.1299 90:37.959 91:39.7025 92:41.4034 93:43.1391 94:44.7745 95:47.0123 96:49.0512 97:50.3946 98:49.6548 99:49.8646 100:49.2507 101:47.3532 102:45.6147 103:44.7186 104:44.0057 105:44.1097 106:43.7553 107:43.6146 108:43.6877 109:43.6645 110:43.663 111:44.1356 112:44.1432 113:44.9586 114:45.9775 115:46.7226 116:47.158 117:47.6479 118:48.273 119:49.7518 120:51.2148 121:52.9465 122:54.9086 123:57.1395 124:59.2977 125:61.7698 126:63.7405 127:63.7938 128:61.4811 129:58.421 130:55.4438 131:53.1061 132:50.8672 133:48.1265 134:45.525 135:43.2232 136:40.9833 137:39.3611 138:37.7587 139:35.5132 140:32.8253 141:29.2204 142:26.7679 143:23.9035 144:21.3333 145:18.669 146:17.2814 147:17.0147 148:17.1364 149:17.7374 150:19.0992 151:21.1065 152:23.61 153:25.9307 154:28.3261 155:31.3511 156:34.1986 157:37.0971 158:39.7556 159:42.4286 160:45.4038 161:48.4029 162:51.4215 163:54.4564 164:56.7215 165:58.8318 166:61.9127 167:63.8518 168:63.2094 169:60.3846 170:57.5542 171:54.4165 172:51.2818 173:48.0016 174:44.9506 175:42.1919 176:38.7663 177:35.4846 178:32.3495 179:29.0712 180:26.3875 181:23.5547 182:20.4311 183:19.0018 184:21.5879 185:24.0263 186:26.684 187:29.6852 188:32.7571 189:35.6935 190:38.6396 191:41.2827 192:43.7381 193:46.6907 194:49.6489 195:52.6119 196:55.0841 197:57.5588 198:60.4904 199:63.3878 200:66.2449 
0.1057511659574889 0.3503959258529949 0.4880812216787123 0.6824255305577139 0.507786355949397 0.6791882429834707 1 1 0.5802023315263493 0.9590708424416751 0.7841142474056153 1 0.3869161724370345 1:54.7083 2:53.2849 3:51.3934 4:49.5104 5:47.2893 6:45.2392 7:43.0185 8:40.9668 9:38.9177 10:36.8684 11:35.0041 12:32.7763 13:30.9239 14:28.693 15:26.6565 16:24.4248 17:22.3895 18:20.1566 19:18.3384 20:17.3488 21:18.1218 22:19.452 23:21.9203 24:24.7487 25:27.5772 26:30.4056 27:32.5346 28:35.0195 29:37.5033 30:39.9921 31:42.4794 32:44.9707 33:47.1313 34:49.6236 35:53.1508 36:54.1236 37:51.9843 38:49.8535 39:47.7323 40:45.6222 41:43.1567 42:41.067 43:38.9936 44:36.9392 45:34.5167 46:32.5025 47:30.9276 48:28.5732 49:26.2398 50:23.5061 51:21.6922 52:19.5055 53:18.8276 54:19.8201 55:21.652 56:23.585 57:25.6262 58:27.7252 59:29.8442 60:31.8945 61:34.1271 62:36.3904 63:38.6863 64:40.8733 65:43.343 66:45.5479 67:47.909 68:50.5971 69:50.6223 70:48.1521 71:45.7235 72:43.3434 73:41.0204 74:38.8234 75:36.6702 76:34.5936 77:32.5154 78:30.5083 79:28.5701 80:26.6693 81:24.9166 82:23.9057 83:23.5896 84:23.9363 85:24.0202 86:24.7066 87:24.7992 88:25.4755 89:26.3248 90:27.331 91:27.9814 92:29.3077 93:30.3795 94:31.6683 95:33.1488 96:34.7968 97:35.0927 98:35.0071 99:34.5365 100:34.1833 101:33.8803 102:34.0806 103:34.6335 104:34.3579 105:33.7779 106:33.8077 107:33.5622 108:33.5111 109:33.2716 110:33.9558 111:33.7402 112:33.7192 113:33.451 114:33.331 115:33.3607 116:33.5397 117:33.8657 118:34.3345 119:34.4455 120:34.6814 121:35.0357 122:36.0069 123:36.0901 124:36.7789 125:37.5698 126:38.9421 127:39.4269 128:38.5863 129:37.429 130:36.1189 131:34.9496 132:33.3838 133:32.8708 134:31.9791 135:30.4911 136:29.0086 137:28.5443 138:26.736 139:25.0052 140:23.0491 141:20.8007 142:18.5664 143:16.5156 144:15.7108 145:15.1951 146:15.442 147:16.3839 148:16.7153 149:18.0383 150:19.4772 151:21.0082 152:22.6127 153:24.2759 154:25.9868 155:28.219 156:29.7481 157:31.3256 158:33.1555 159:35.0041 160:36.8684 161:38.7463 162:40.6359 163:42.5356 164:44.444 165:46.2264 166:47.6745 167:49.2426 168:47.6762 169:45.2135 170:43.2465 171:41.2827 172:39.3225 173:37.3666 174:35.4156 175:33.4703 176:31.4107 177:29.3473 178:27.4092 179:25.4808 180:23.4226 181:21.3605 182:19.043 183:17.19 184:17.0147 185:18.5664 186:20.6565 187:22.6992 188:24.7524 189:26.8003 190:28.9354 191:30.9946 192:33.146 193:35.3079 194:37.3666 195:39.5381 196:41.7165 197:43.7794 198:45.9633 199:48.0236 200:50.345 
-0.007358133154290192 0.03429711512151724 0.1216607466272619 0.01423681172005219 1 0 0 0.08940405204892134 1 0.4626890074571505 0.2507187337396569 0.358888759380126 0.6853485651816994 1:66.7608 2:66.0984 3:64.8298 4:63.0974 5:61.6847 6:59.9356 7:58.0541 8:56.3028 9:54.8933 10:52.6714 11:50.622 12:49.0408 13:47.637 14:45.5915 15:44.0114 16:42.6179 17:40.7712 18:39 19:37.6203 20:35.7952 21:33.9897 22:32.6497 23:30.8594 24:29.0914 25:27.2947 26:25.9868 27:23.7553 28:22.0528 29:20.8087 30:20.5669 31:21.2367 32:20.6155 33:20.5286 34:19.9238 35:19.6977 36:18.6705 37:17.5921 38:16.6936 39:17.0294 40:18.5131 41:20.1618 42:21.3776 43:22.1953 44:23.2481 45:23.9679 46:23.7065 47:25.7398 48:27.7363 49:29.0689 50:30.2083 51:31.6454 52:32.45 53:33.3079 54:35.3045 55:36.5568 56:37.5366 57:38.5536 58:39.6106 59:40.3609 60:41.1703 61:42.1069 62:43.4204 63:44.1022 64:44.5978 65:45.3977 66:46.0977 67:46.8927 68:48.0718 69:49.0408 70:49.121 71:49.1374 72:48.7493 73:48.5077 74:48.3166 75:47.1328 76:47.0425 77:45.5054 78:44.5112 79:43.0465 80:42.6473 81:42.3615 82:43.6519 83:43.9318 84:44.2661 85:44.7826 86:44.2719 87:44.128 88:41.908 89:39.8611 90:39 91:39.6037 92:40.0369 93:39.4462 94:38.4314 95:37.0315 96:35.805 97:34.6026 98:32.409 99:29.9083 100:27.8029 101:26.6337 102:25.8142 103:25.4951 104:24.1351 105:22.5036 106:21.3642 107:20.5913 108:19.9112 109:19.1434 110:18.6815 111:19.3259 112:19.0656 113:20 114:20.0624 115:20.3099 116:21.2279 117:22.1359 118:23.121 119:24.3814 120:25.9422 121:26.6728 122:28.5732 123:29.7054 124:30.6105 125:32.3326 126:34.0074 127:35.3836 128:36.7764 129:38.5405 130:40.3113 131:41.4049 132:43.2262 133:45.0705 134:46.2277 135:47.4062 136:49.3002 137:50.8035 138:51.7396 139:53.1161 140:54.3783 141:55.3983 142:56.63 143:57.4713 144:58.1808 145:58.0425 146:57.2938 147:55.7136 148:53.9563 149:52.0892 150:49.8626 151:48.4665 152:46.889 153:44.8474 154:43.4626 155:41.8876 156:39.8534 157:38.0789 158:36.5044 159:34.4716 160:32.238 161:30.4631 162:29.0911 163:26.8569 164:25.0799 165:23.7127 166:21.4778 167:19.4565 168:17.4642 169:15.5108 170:14.439 171:15.1327 172:16.6209 173:18.6079 174:20.025 175:21.5233 176:23.5213 177:25.5 178:27 179:28.5086 180:30.5164 181:32.0156 182:33.5597 183:35.5563 184:37.6198 185:39.1152 186:40.6535 187:42.6878 188:44.2832 189:45.7739 190:47.8194 191:49.366 192:50.8552 193:52.9647 194:55.0153 195:56.5685 196:58.281 197:60.6024 198:62.3699 199:64.161 200:66.0945 
-1 1 1 1 1 1 1 1 1 1 1 1 1 1:60.6712 2:59.8415 3:58.4537 4:57.0701 5:55.5991 6:53.6401 7:52.1728 8:50.7076 9:49.2443 10:47.7835 11:45.6099 12:44.1475 13:42.688 14:41.2311 15:39.7777 16:37.8453 17:36.4006 18:34.961 19:33.5261 20:32.0979 21:30.2039 22:28.7924 23:27.3913 24:25.5399 25:24.1661 26:22.81 27:21.0238 28:19.68 29:17.9252 30:16.6433 31:15.4057 32:14.2127 33:14.1774 34:16.0109 35:17.2047 36:18.4479 37:19.7231 38:20.8075 39:21.8383 40:21.8403 41:21.9739 42:22.1472 43:22.0227 44:22.0114 45:23.0868 46:24.6831 47:26.7336 48:28.4429 49:29.7235 50:31.0483 51:31.4718 52:32.132 53:32.6956 54:33.3235 55:33.121 56:33.8738 57:35.3627 58:36.3593 59:37.6472 60:38.5876 61:39.3881 62:40.5144 63:41.4005 64:41.5499 65:42.4853 66:43.1393 67:43.5014 68:43.9318 69:44.1247 70:44.5307 71:44.9444 72:44.5978 73:44.2945 74:44.9549 75:44.581 76:43.4626 77:42.0867 78:40.7185 79:39.1977 80:38.4509 81:37.9473 82:38.9471 83:40.6308 84:41.7732 85:42.998 86:43.2897 87:44.6407 88:45.0278 89:45 90:44.0284 91:43.1045 92:41.6924 93:39.702 94:38.2099 95:36.7186 96:35.2278 97:34.4455 98:34.8208 99:34.2053 100:32.7608 101:31.3195 102:30.4631 103:29.5178 104:28.6531 105:27.3554 106:25.6578 107:24.4131 108:23.2022 109:22.0227 110:21.2367 111:20.5669 112:20.8087 113:20.8431 114:21.0238 115:20.9026 116:22.2007 117:23.3452 118:24.7552 119:26.0768 120:27.0093 121:28.5434 122:30.1496 123:30.8331 124:33.146 125:34.9285 126:36.7509 127:37.6431 128:39.0573 129:41.141 130:42.1545 131:43.663 132:45.1885 133:46.2877 134:48.0889 135:49.2443 136:50.4235 137:51.6236 138:52.0094 139:52.3162 140:52.0096 141:51.7977 142:51.2968 143:50.2096 144:49.1465 145:47.3814 146:45.6111 147:43.1335 148:41.7253 149:39.9673 150:38.2099 151:36.4608 152:34.0074 153:32.6497 154:30.5369 155:28.4253 156:26.3155 157:23.5055 158:21.4009 159:19.3005 160:17.2047 161:15.1168 162:12.6225 163:10.8167 164:9.60977 165:8.5438 166:9.43398 167:10.533 168:11.7047 169:13.1253 170:15.0422 171:16.7631 172:18.2008 173:19.6469 174:21.1013 175:22.853 176:24.3311 177:25.8119 178:27.2947 179:28.7794 180:30.7612 181:32.249 182:33.738 183:35.7247 184:37.2156 185:38.7073 186:40.1995 187:41.6508 188:43.643 189:45.1774 190:46.6346 191:48.0937 192:49.5659 193:51.5388 194:53.0377 195:54.5092 196:56 197:57.5216 198:59.6047 199:60.208 200:60.3531 
-0.3214804996500317 1 0 0.5686207461421462 0 0 0.6033005891554358 0.09397598163992998 1 0.6896150121056009 0.5321383886291544 0.6601202498442695 0.3177276420147927 1:57.4282 2:56.4358 3:55.4437 4:54.0949 5:52.469 6:50.9829 7:49.4975 8:48.0131 9:46.5296 10:45.0473 11:43.566 12:42.0863 13:40.6079 14:38.9648 15:37.4833 16:36.0036 17:34.5254 18:33.0493 19:31.5753 20:30.1042 21:28.6356 22:27.0675 23:25.4951 24:24.0263 25:22.561 26:20.8868 27:19.4165 28:18.4391 29:17.404 30:16.5529 31:17.6788 32:18.868 33:18.9052 34:19.105 35:18.4119 36:17.8045 37:16.924 38:16.1245 39:14.9851 40:13.9284 41:13.4716 42:13.1529 43:14.5842 44:16.1245 45:17.614 46:19.105 47:20.5618 48:21 49:21.0594 50:21.2132 51:20.9965 52:19.9249 53:20.2485 54:19.9112 55:20.5913 56:22.6392 57:23.8537 58:24.7066 59:25.6125 60:26.578 61:26.8701 62:27.9529 63:29.0689 64:30.2217 65:31.4006 66:32.0364 67:33.2866 68:34.5589 69:35.8469 70:36.6784 71:37.5766 72:38.7419 73:39.5601 74:39.0573 75:39.5601 76:39.1725 77:38.833 78:39.6232 79:39.8851 80:41.3038 81:42.1485 82:42.0476 83:40.5123 84:39.0128 85:37.5133 86:36.0139 87:34.5145 88:33.0151 89:31.5078 90:30.0167 91:30.1081 92:30.2655 93:30.504 94:30.8058 95:32.1478 96:31.6228 97:30.5497 98:29.5466 99:28.1832 100:27.2947 101:25.9868 102:24.6982 103:24.4131 104:23.2022 105:22.0227 106:21.5725 107:20.5183 108:20.3078 109:19.4165 110:19.4792 111:18.7883 112:18.2063 113:16.7631 114:15.8947 115:14.1421 116:13.5178 117:13.0384 118:12.2674 119:12.6491 120:14.1231 121:14.7648 122:15.9538 123:17.2047 124:18.1218 125:19.105 126:20.8657 127:21.9317 128:23.3452 129:24.4613 130:26.2488 131:27.4107 132:29.2062 133:30.4029 134:32.2025 135:33.4265 136:34.6699 137:36.4736 138:37.7359 139:39.5388 140:40.8167 141:42.6183 142:43.909 143:45.4592 144:47.0106 145:48.325 146:49.6488 147:51.4422 148:52.7731 149:54.1138 150:55.4617 151:56.8181 152:56.8595 153:55.5428 154:53.5777 155:52 156:50.2323 157:48.8467 158:47.0775 159:45.31 160:43.733 161:42.1545 162:40.578 163:39 164:37.4242 165:35.8469 166:34.0777 167:32.6956 168:30.9239 169:29.1548 170:27.5785 171:26 172:24.0538 173:22.1359 174:20.7481 175:20.3961 176:20.6594 177:22.0227 178:23.0217 179:24.5204 180:26.0192 181:27.5182 182:29.0172 183:30.5164 184:32.0156 185:33.5 186:35 187:36.5 188:38 189:39.5 190:41 191:42.5 192:44.0114 193:45.511 194:47.0106 195:48.5412 196:50.04 197:51.5873 198:53.0848 199:54.6466 200:56.2228 
-0 0 0.1668687526420104 0 0 0.4314758963881046 0 0 0 0.3834011119996815 0 0 0.07302848967398479 1:59.3043 2:58.4209 3:57.4282 4:55.9397 5:54.4518 6:53.4603 7:51.9104 8:50.3587 9:48.8698 10:47.3814 11:46.2709 12:44.7801 13:43.2897 14:42.2966 15:40.8075 16:39.3192 17:37.8319 18:36.3456 19:35.3553 20:33.8712 21:32.3883 22:31.4006 23:29.9208 24:28.2843 25:26.8003 26:25.318 27:24.3311 28:23.1704 29:23.0868 30:23.1284 31:22.3607 32:21.4709 33:20.6717 34:19.4165 35:18.6011 36:17.4169 37:16.2788 38:15.5884 39:16.4012 40:17.2047 41:17.6907 42:17.4642 43:18.0278 44:17.5921 45:17.2627 46:17.0733 47:17 48:18.0278 49:19.5256 50:21.095 51:21.7869 52:22.561 53:22.8035 54:23.2481 55:23.7697 56:24.1661 57:24.8283 58:25.5539 59:26.3519 60:27.2029 61:27.8029 62:28.7471 63:29.7321 64:29.6985 65:30.7793 66:31.8904 67:32.409 68:33.0151 69:33.8378 70:34.5589 71:35.3553 72:36.2353 73:36.918 74:37.6962 75:38.5863 76:38.6005 77:38.3275 78:37.9669 79:37.6563 80:36.4211 81:36.2215 82:35.1283 83:34.5359 84:33.0151 85:32 86:30.5 87:29 88:28.0446 89:29.1548 90:29.2746 91:30.011 92:30.8058 93:31.0483 94:31.4718 95:31.9531 96:32.0457 97:31.305 98:30.8869 99:29.8492 100:29.4109 101:27.9018 102:26.4008 103:25 104:23.5055 105:22.0227 106:21.2603 107:20.1586 108:19.105 109:18.1218 110:17.2047 111:15.8114 112:14.5784 113:13.4164 114:13 115:13.4716 116:14.1421 117:14.0178 118:15.0333 119:15.1327 120:16.3856 121:16.7631 122:18.0278 123:19.0412 124:20.1246 125:22.1482 126:24.1868 127:24.6982 128:26.7679 129:28.8444 130:30.1084 131:31.4006 132:32.0156 133:34.1248 134:35.4683 135:36.8782 136:38.2427 137:39.6232 138:41.3809 139:42.4264 140:43.8406 141:44.9151 142:46.6905 143:47.4236 144:49.2073 145:50.3289 146:50.5272 147:50.8035 148:51.0392 149:49.5229 150:48.0104 151:46.2097 152:45 153:43.6005 154:42.1012 155:40.6079 156:39.2046 157:37.7161 158:35.609 159:34.1248 160:32.0156 161:31.241 162:29.1291 163:27.0185 164:25.6125 165:24.1351 166:22.0227 167:19.9125 168:18.6011 169:18.0278 170:17.6907 171:18.3848 172:18.9737 173:20.0215 174:21.3776 175:22.853 176:24.1868 177:25.1794 178:26.6693 179:28.1603 180:29.6522 181:31.0644 182:32.0624 183:33.5597 184:35.0571 185:36.0555 186:37.5336 187:39.0128 188:40.5123 189:42.0119 190:43.0116 191:44.5 192:46 193:47 194:48.5103 195:50.01 196:51.5097 197:53.0377 198:54.037 199:55.5583 200:57.1402 
-0 0 0 0 1 0 0 0 0 0.6143340842478173 0 0 0 1:59.4811 2:58.5235 3:57.5674 4:56.1362 5:54.4059 6:53.4509 7:51.8711 8:50.2892 9:48.8597 10:47.1275 11:46.1736 12:44.7468 13:43.3244 14:41.7444 15:40.1622 16:39.2173 17:37.8058 18:36.4006 19:35.0041 20:33.6155 21:32.311 22:30.734 23:29.1548 24:27.8568 25:26.6633 26:25.9422 27:25.126 28:23.8537 29:23.0217 30:21.8023 31:20.6155 32:19.8242 33:19.8494 34:19.2094 35:19.1422 36:18.3576 37:18.5865 38:18.0278 39:18.6815 40:18.8372 41:20.0998 42:20.025 43:20.5119 44:21.095 45:21.2954 46:21.587 47:21.8403 48:22.3041 49:22.8473 50:23.9281 51:25.0599 52:25.5539 53:25.9419 54:26.4008 55:27.3386 56:28.3196 57:29 58:29.7153 59:30.4795 60:31.3208 61:32.2025 62:32.45 63:33.451 64:34 65:34.8855 66:36.0131 67:37.1618 68:38.3526 69:39.2173 70:39.8497 71:40.8763 72:41 73:41.6832 74:41.4367 75:40.3113 76:39.6574 77:38.0526 78:36.5068 79:36.0139 80:36.0555 81:36.1732 82:36.3456 83:35.5106 84:34.2237 85:32.9848 86:31.8005 87:30.6757 88:30.0832 89:30.6669 90:30.4138 91:31.1358 92:31.0644 93:31.6228 94:31.3208 95:30.4795 96:30.4138 97:29.7321 98:29.0689 99:28.1141 100:26.4008 101:25.5229 102:23.8537 103:23.3238 104:22.5931 105:22.8473 106:22.4722 107:21.5083 108:20.6155 109:18.8324 110:17.1172 111:16.0312 112:14.5178 113:13.0384 114:12.2674 115:13.6015 116:14.8661 117:15.442 118:16.1245 119:17.7603 120:18.6011 121:19.2094 122:20.9379 123:22.6716 124:23.3452 125:25.1073 126:26.1725 127:27.6134 128:29.0689 129:29.8329 130:31.0055 131:32.2025 132:34.0049 133:35.2278 134:36.6197 135:37.8593 136:39.1152 137:40.3896 138:42.19 139:43.0465 140:44.3431 141:45.6508 142:46.0652 143:47.4057 144:48.7545 145:49.5069 146:50.3289 147:50.9215 148:49.966 149:48.3839 150:46.9604 151:45.2217 152:44.2719 153:42.6919 154:41.1096 155:39.5297 156:37.9473 157:37 158:35.2601 159:33.8378 160:32.0979 161:30.6757 162:29.4109 163:27.8317 164:26.2488 165:25 166:23.4226 167:21.8403 168:20.016 169:19.2354 170:18.1108 171:18.0139 172:18.0278 173:19.6024 174:21.095 175:22.0907 176:23.585 177:25.0799 178:26.5754 179:28.0713 180:29.1548 181:30.7033 182:32.249 183:33.2415 184:34.7312 185:36.3456 186:37.8319 187:39.4588 188:40.4475 189:41.9316 190:43.566 191:45.0473 192:46.5296 193:47.676 194:49.2409 195:50.8035 196:52.462 197:54.1295 198:55.3173 199:57.1195 200:58.9406 
-1 1 1 1 0.4416289779368927 0.9604796940722903 1 1 1 1 1 1 0.6257704627640209 1:57.0701 2:56.0892 3:55.109 4:53.6401 5:52.1728 6:50.6029 7:49.0306 8:48.0521 9:46.5861 10:45.1221 11:43.5505 12:41.9762 13:40.5125 14:39.0512 15:38.0789 16:36.6233 17:35.171 18:33.7234 19:32.0156 20:31.0483 21:29.6018 22:27.8927 23:26.1966 24:25 25:26.8812 26:27.8568 27:28.2312 28:28.1832 29:27.2947 30:25.9868 31:24.1868 32:22.898 33:21.6333 34:21.4009 35:22.3471 36:22.6274 37:23.0084 38:22.0227 39:22.2036 40:21.3642 41:21.4709 42:22.202 43:22.1359 44:22.6823 45:22.3607 46:23.1948 47:23.0543 48:23 49:23.0543 50:24.1868 51:24.4232 52:24.7386 53:25 54:25.4651 55:26 56:25.7187 57:26.4197 58:26.9258 59:27.7385 60:28.6007 61:28.7471 62:29.7321 63:30.0561 64:30.4795 65:31.241 66:31.8016 67:33.0151 68:33.7094 69:34.9857 70:35.8469 71:36.6784 72:37.5766 73:38.3526 74:39.2173 75:40.4797 76:42.0595 77:42.72 78:43.782 79:44.911 80:46.1176 81:46.3897 82:46.2223 83:45.0999 84:44.1022 85:42.6058 86:41.1096 87:39.6138 88:38.0526 89:37.0135 90:37.0068 91:36.0555 92:35.6763 93:34.3657 94:32.9671 95:31.7805 96:32.0156 97:31.4718 98:31.0161 99:31.5826 100:31.305 101:31.5747 102:30.5287 103:30.2324 104:29.0058 105:28.4253 106:27.9529 107:27.5862 108:26.9072 109:25.9307 110:25 111:24.1334 112:22.4722 113:21.2729 114:20.1246 115:18.7883 116:17.7364 117:16.7631 118:16.3856 119:15.1327 120:15.0333 121:14.5178 122:14.1421 123:15.4106 124:16.7631 125:17.2761 126:18.7883 127:19.2354 128:20.8431 129:22.4722 130:23.7174 131:25 132:26.7096 133:28.4253 134:29.0689 135:30.073 136:31.8277 137:32.8842 138:34.6554 139:35.3836 140:37.1667 141:38.2884 142:40.0794 143:41.2311 144:42.4069 145:44.2041 146:45 147:46.2097 148:47.4342 149:48.6757 150:49.93 151:50.4278 152:51 153:51.4296 154:51.2305 155:49.2443 156:47.8779 157:46.0977 158:45.1885 159:43.6183 160:42.0476 161:40.2653 162:38.4838 163:36.9129 164:35.3412 165:34.0147 166:32.4432 167:30.8707 168:29.0911 169:27.313 170:26 171:24.4248 172:22.4722 173:21.0351 174:19.6469 175:19.8201 176:21.2132 177:22.0907 178:23.585 179:25.02 180:26.5189 181:28.0179 182:29.5086 183:31 184:32 185:33.5 186:35.0143 187:36.5137 188:38.0132 189:39.0128 190:40.5494 191:42.0476 192:43.5743 193:45.0999 194:46.6338 195:48.1664 196:49.163 197:50.7469 198:52.345 199:54.0248 200:55.7315 
-0 0.5581241835668224 0 0 0 0 0 0 0 1 0 0 0 1:60.1664 2:59.6154 3:58.6941 4:56.9235 5:55.5428 6:54.231 7:52.6552 8:51.0784 9:49.3081 10:47.927 11:47.0106 12:45.2359 13:43.8634 14:42.5005 15:40.7185 16:39.8121 17:38.4617 18:37.1214 19:35.3313 20:34 21:33.121 22:31.3258 23:29.5296 24:27.5054 25:25.9422 26:25.0599 27:24.2759 28:23.0217 29:21.8023 30:20.6155 31:19.2094 32:18.0654 33:16.9706 34:16.7153 35:15.8114 36:16.1245 37:15.442 38:15.8114 39:15.9015 40:16.1245 41:17.0294 42:17.5139 43:18.1108 44:18.2483 45:19.5317 46:19.9249 47:20.432 48:21.0238 49:21.4709 50:22.2134 51:23.0217 52:23.9041 53:24.8395 54:24.7588 55:25.8142 56:26.9072 57:28.042 58:28.6007 59:29.4109 60:30.3806 61:31.3847 62:31.9836 63:33.1059 64:33.6155 65:34.4805 66:35.7351 67:37.1655 68:38.6005 69:39.2938 70:40.4086 71:41.5933 72:42.3615 73:42.19 74:42.107 75:40.5306 76:39 77:38.0329 78:37.1214 79:36.2215 80:36.4211 81:36.6742 82:35.9026 83:36.2696 84:35.4401 85:34.3115 86:33.2415 87:32.6956 88:31.9836 89:31.3847 90:31.7644 91:31.4006 92:32.0156 93:31.8591 94:31.8277 95:31.1929 96:30.6105 97:30 98:29.1276 99:27.4591 100:26.2398 101:25.9422 102:25.4951 103:25.816 104:25.2982 105:24.8693 106:24.5153 107:23.3452 108:21.6493 109:20.025 110:18.5139 111:17.0294 112:16.1245 113:14.6374 114:13.1529 115:11.8855 116:10.7703 117:11.1803 118:12.3502 119:14.4222 120:15.3102 121:16.2788 122:16.9706 123:18.7449 124:19.8494 125:21.2603 126:22.4131 127:23.6008 128:25.4035 129:26.6271 130:27.4591 131:28.7284 132:30.0167 133:31.568 134:33.121 135:34 136:35.3313 137:36.6742 138:38.4617 139:39.3954 140:40.3113 141:41.6928 142:43.0813 143:44.4779 144:45.8803 145:46.8188 146:47.7587 147:48.7647 148:49.8484 149:49.0306 150:48.0521 151:46.5861 152:44.911 153:43.4426 154:41.9762 155:41 156:39.3225 157:37.855 158:36.1837 159:34.7131 160:33.7343 161:32.0665 162:30.5941 163:29.6142 164:28.0474 165:26.4764 166:24.9131 167:23.3452 168:22.2036 169:20.6565 170:19.105 171:17.5139 172:18.0278 173:18.1108 174:19.8157 175:21.587 176:23.0491 177:24.3311 178:25.4951 179:26.9677 180:28.6356 181:30.21 182:31.7805 183:32.9848 184:34.4422 185:36.1386 186:37.5934 187:39.0512 188:40.2616 189:41.8405 190:43.4166 191:44.9958 192:46.5725 193:47.5395 194:49.247 195:50.9608 196:52.5416 197:54.4059 198:55.6597 199:57.5552 200:59.4643 
-0.1972382890506576 0.03178227295852619 0.07459084390407045 0.1364233125871649 0 0 0 0.3827525977161569 0 0 0.1960037106553715 0 0 1:67.3647 2:66.3702 3:64.7785 4:63.2851 5:61.792 6:59.8018 7:58.3095 8:56.7688 9:54.7289 10:53.2353 11:51.6982 12:49.6614 13:48.0937 14:46.5967 15:44.601 16:43.1045 17:41.5482 18:39.5506 19:38.0526 20:36.534 21:34.5145 22:33.0151 23:31.5 24:29.5 25:28 26:26.5 27:24.5 28:23 29:21.5 30:20.025 31:18.5685 32:18.3437 33:18.6815 34:19.1434 35:19.9112 36:20.5913 37:20.5286 38:19.9247 39:19.105 40:18.4119 41:17.5046 42:16.6433 43:16.7765 44:17.5579 45:18.9737 46:20.4027 47:22.3219 48:23.5372 49:24.7552 50:25.0499 51:25 52:25.0499 53:24.2589 54:24.5153 55:24.8693 56:26.8812 57:27.8568 58:28.8889 59:29.9666 60:30.6504 61:31.6454 62:32.45 63:33.3079 64:34.9071 65:36.2353 66:37.2074 67:38.5536 68:39.598 69:40.6739 70:42.1469 71:43.2782 72:44.4336 73:45.402 74:46.6154 75:47.021 76:46.8291 77:47.4131 78:47.1905 79:47.275 80:48.1041 81:48.0718 82:47.9425 83:47.5395 84:46.8109 85:44.6348 86:42.9535 87:41.3842 88:39.6232 89:38.8932 90:37.6669 91:38.0526 92:38.0066 93:38.5327 94:38.1182 95:37.7731 96:36.0036 97:34.7131 98:33.3596 99:31.8005 100:30.6757 101:29.2622 102:27.7721 103:26.8328 104:26.2482 105:25.1194 106:24.8395 107:24.0624 108:23.0084 109:22.0227 110:21.1048 111:19.9858 112:18.3576 113:17.2207 114:15.9834 115:15.5242 116:15.7108 117:16.0312 118:17.0147 119:18.1795 120:18.4391 121:19.7859 122:20.8946 123:21.9317 124:23.483 125:25.7398 126:26.9258 127:28.9918 128:30.9276 129:33.0151 130:34.7047 131:37.1013 132:38.4187 133:40.1422 134:42.5735 135:44.6878 136:46.0489 137:48.13 138:50.2494 139:51.6382 140:53.7448 141:55.1543 142:56.9243 143:59.054 144:60.8276 145:61.9222 146:63.0317 147:64.4903 148:65.3681 149:64.8151 150:63.1063 151:61.0028 152:59.203 153:57.1009 154:54.9045 155:52.8015 156:51.308 157:48.5027 158:47.0106 159:44.9055 160:42.1012 161:40 162:38.5034 163:36.0048 164:34.2053 165:32.1015 166:29.9083 167:27.8029 168:25.7004 169:23.3113 170:21.6333 171:21.283 172:21.2822 173:22.1359 174:23.5642 175:25.2982 176:26.7259 177:28.9357 178:30.3645 179:32.0979 180:34.004 181:35.4401 182:36.8818 183:39.0803 184:40.5216 185:41.9675 186:44.0298 187:45.607 188:47.056 189:48.9925 190:50.448 191:51.9063 192:53.8541 193:55.3173 194:56.7826 195:58.7389 196:60.208 197:61.4919 198:63.4607 199:64.7765 200:66.1878 
-0 0 0 0 0.6747837870185945 0 0 0 0.8983620123832962 0 0 0 0 1:58.0517 2:57.2713 3:56.2939 4:54.8294 5:53.3667 6:51.6842 7:50.2195 8:48.7572 9:47.0744 10:45.6099 11:44.1475 12:42.688 13:41.2311 14:39.5381 15:38.0789 16:36.6233 17:35.171 18:34.2053 19:32.7608 20:31.3209 21:29.8877 22:28.4605 23:26.8812 24:25.2982 25:23.8805 26:22.4722 27:21.7013 28:21.9545 29:21.5171 30:21.2603 31:20.1586 32:19.105 33:18.1218 34:17.2047 35:16.6433 36:16.3387 37:17.4642 38:18.3546 39:19.4165 40:20.1618 41:20.025 42:20.0125 43:20.0998 44:19.8157 45:21.587 46:23.0491 47:24.7386 48:25.6244 49:26.5707 50:27.1194 51:27.7308 52:28.178 53:28.9039 54:30.5287 55:31.3436 56:32.2025 57:32.726 58:33.3017 59:34.313 60:35.3553 61:35.7542 62:36.2353 63:37.4078 64:38.0132 65:38.6953 66:39.4462 67:40.2654 68:41.1461 69:41.6293 70:42.4372 71:43.3244 72:43.8233 73:43.4166 74:43.0638 75:42.7551 76:42.008 77:41.3038 78:40.6535 79:39.0512 80:37.5066 81:36 82:34.5 83:33.0151 84:33.0983 85:33.2415 86:34.3657 87:35.6019 88:36.8782 89:37.2355 90:37.6431 91:37.1682 92:36.4006 93:35.3877 94:34.0147 95:32.0401 96:30.0832 97:28.153 98:26.9258 99:27.5219 100:28.178 101:28.4775 102:27.4591 103:26.6271 104:25.7097 105:24.2074 106:23.0512 107:21.9317 108:19.8116 109:17.6918 110:17 111:16.4012 112:16.3839 113:15.6525 114:15.9834 115:15.5242 116:16.2017 117:16.0312 118:17 119:17.5701 120:18.2483 121:20.016 122:21.8403 123:23.7192 124:24.6982 125:26.2004 126:27.7308 127:28.4156 128:30.0167 129:31.6454 130:33.2866 131:34.5328 132:35.805 133:37.5021 134:39.2046 135:39.8246 136:41.1644 137:42.5206 138:44.265 139:45.2769 140:46.6744 141:48.0833 142:49.1566 143:50.2494 144:50.3885 145:50.6063 146:50.9214 147:50.4777 148:49.2394 149:47.7074 150:45.9056 151:44.1022 152:43.2666 153:41.4648 154:40.2244 155:38.4231 156:36.6197 157:35.1072 158:33.0151 159:31.5042 160:29.4109 161:27.9018 162:25.807 163:24.007 164:22.2036 165:20.1126 166:18.0278 167:15.9538 168:14.7648 169:14.3178 170:15.1951 171:16.4924 172:17.8563 173:19.2354 174:20.7185 175:22.2036 176:23.6908 177:25.0799 178:26.5754 179:28.0713 180:29.5677 181:31.0161 182:32.5154 183:34.0147 184:35.5141 185:37 186:38 187:39.5 188:41 189:42.5058 190:44.0114 191:45.511 192:47.0425 193:48.5412 194:50.0899 195:51.5873 196:53.0848 197:54.6874 198:56.3205 199:57.4934 200:57.7062 
-0 -0 0.4995679027823494 0.4479357926645824 0 0.09590088248314325 0.1842219321484163 1 0 0.3457068175768572 0 0 0 1:75.71 2:74.5846 3:72.7617 4:70.8256 5:68.8932 6:66.9647 7:64.5604 8:61.8811 9:59.9606 10:58.0454 11:56.1362 12:54.2335 13:51.8659 14:49.5104 15:47.4614 16:45.4123 17:43.5463 18:41.2323 19:38.9396 20:36.9129 21:34.8898 22:32.6542 23:30.8594 24:30.5366 25:32.319 26:33.9029 27:34.7706 28:35.3695 29:34.4758 30:33.5111 31:32.7326 32:31.6454 33:30.2083 34:29.3077 35:31.0175 36:33.3658 37:35.2601 38:36.7542 39:37.7557 40:37.3451 41:37.0877 42:37.0068 43:36.5345 44:36.6702 45:37.9035 46:39.4921 47:40.3916 48:40.957 49:41.6109 50:41.4302 51:42.4916 52:42.7953 53:42.9933 54:43.306 55:43.731 56:44.265 57:45.4997 58:46.3828 59:46.9361 60:47.3179 61:47.8641 62:47.6966 63:49.8633 64:51.2148 65:52.1434 66:52.7396 67:52.0334 68:50.9302 69:49.247 70:47.1871 71:45.2381 72:43.8348 73:43.4913 74:43.1933 75:43.0291 76:43.0058 77:43.0755 78:42.2433 79:42.2596 80:42.089 81:42.1056 82:42.2194 83:42.4372 84:42.2958 85:42.363 86:42.455 87:43.5479 88:43.9023 89:44.7548 90:45.2916 91:45.9891 92:46.8081 93:48.0244 94:49.0034 95:50.6294 96:52.6992 97:54.5433 98:56.0028 99:57.7435 100:59.0364 101:61.271 102:63.3162 103:64.7374 104:65.3718 105:64.6798 106:62.6147 107:59.4836 108:56.397 109:54.2091 110:52.1466 111:50.2122 112:48.2832 113:45.8809 114:43.4888 115:41.5845 116:39.8611 117:38.1613 118:36.2507 119:34.4428 120:32.9388 121:31.4853 122:29.8217 123:27.9018 124:25.0005 125:21.5061 126:19.5582 127:17.6788 128:16.3542 129:14.5814 130:15.083 131:15.0166 132:16.2017 133:16.6277 134:17.7364 135:19.5383 136:21.7836 137:24.1334 138:26.1039 139:28.1141 140:30.7343 141:33.2641 142:35.3624 143:37.1264 144:39.2603 145:41.4049 146:43.9351 147:46.4796 148:48.3374 149:50.213 150:52.4056 151:54.6032 152:57.0205 153:58.6628 154:60.3268 155:61.7493 156:62.4577 157:63.5153 158:63.8195 159:62.1174 160:59.5196 161:57.4742 162:55.2475 163:52.6767 164:50.0458 165:47.8182 166:45.5915 167:43.3657 168:40.6141 169:37.8058 170:35.4203 171:33.2054 172:30.9936 173:28.6403 174:25.7915 175:22.9489 176:22.1472 177:22.5114 178:24.51 179:27.0185 180:29.5169 181:31.5159 182:33.5149 183:35.5141 184:37.5533 185:40.05 186:42.6058 187:44.601 188:46.5967 189:48.6283 190:51.1567 191:53.6909 192:55.7248 193:57.717 194:59.8018 195:61.792 196:64.3817 197:66.9795 198:69.0887 199:71.2789 200:73.5708 
-0.2466294429354437 -1 0.9355537885192778 1 0.3829308165023036 1 0.3001702510084369 0.4725636496826864 1 1 0.7626016285969206 0.7179231519908198 0.4968848371129197 1:59.9416 2:59.0593 3:57.7435 4:55.9464 5:54.638 6:52.8394 7:51.5394 8:49.3084 9:47.5079 10:46.2203 11:44.4185 12:43.143 13:40.9185 14:39.6611 15:38.1381 16:36.6197 17:35.1072 18:33.2015 19:31.4006 20:29.9083 21:28.4253 22:26.6337 23:24.8395 24:23.7142 25:22.6495 26:23.4307 27:24.007 28:24.6982 29:23.9467 30:23.0534 31:22.4722 32:21.9881 33:20.6155 34:20.3099 35:20.5618 36:22.0227 37:23.5 38:25.02 39:25.6262 40:25.9005 41:25.7099 42:25.6299 43:25.632 44:25.2875 45:26.8328 46:28.3999 47:29.7732 48:30.5287 49:30.9351 50:31.4006 51:31.5657 52:31.8277 53:31.8904 54:32.1091 55:32.45 56:32.9388 57:33.7779 58:34.5398 59:35.4246 60:36.4006 61:36.0206 62:35.6931 63:35.433 64:34.1833 65:33.0606 66:33.0076 67:32.0156 68:31.6036 69:30.7612 70:29.4279 71:27.951 72:26.6833 73:26.1052 74:26.7482 75:27.313 76:27.5128 77:27.7849 78:28.1599 79:28.513 80:29.0689 81:29.7153 82:30.4138 83:31.1929 84:31.4006 85:31.7644 86:32.9388 87:34 88:35.3313 89:36.6742 90:38.0302 91:39.8534 92:40.8534 93:42.2526 94:43.3244 95:44.7468 96:46.6505 97:47.8017 98:49.121 99:49.2443 100:48.4423 101:46.1158 102:44.4072 103:42.7399 104:41.1947 105:39.702 106:38.2099 107:36.7186 108:34.7312 109:33.2415 110:31.753 111:30.2655 112:28.9354 113:27.171 114:25.9615 115:24.6758 116:23.4094 117:22.0064 118:20.1566 119:18.3848 120:16.8099 121:15.2315 122:13.6589 123:11.7047 124:9.82993 125:8.52769 126:8.06226 127:8.86652 128:9.84886 129:10.5561 130:11.7217 131:12.7279 132:14.1598 133:15.6205 134:17.1029 135:19.3005 136:20.8087 137:22.6127 138:23.8537 139:25.126 140:27.3554 141:28.6531 142:30.4518 143:31.7648 144:33.0953 145:34.4384 146:36.0077 147:38.0302 148:39.3954 149:40.7712 150:42.1545 151:43.3695 152:45.0697 153:46.1736 154:47.1898 155:48.2701 156:48.4423 157:46.2889 158:44.7214 159:43.2465 160:41.5933 161:40.1156 162:38.6394 163:37.1653 164:35.018 165:33.541 166:31.8945 167:30.4138 168:28.7794 169:26.6693 170:25.0799 171:23.585 172:22.0227 173:20.5119 174:18.5139 175:17.1172 176:17.3635 177:17.72 178:18.6705 179:20.8946 180:22.4722 181:24.0538 182:25.632 183:27.2137 184:28.7924 185:30.5497 186:32.7763 187:34.176 188:36.1189 189:37.6962 190:39.2757 191:41.5039 192:43.0813 193:44.8474 194:46.6154 195:48.1931 196:50.6191 197:52.3927 198:54.3743 199:56.3649 200:58.3657 
-0.9479191992972206 -0.2108414005131924 0.693486992113023 0.7431031983211801 0.6212320991368049 0.4769090868892095 0.8828738806558957 1 0.4759042217746176 0.351524615697294 0.8315548697529765 0.9268864822338312 0.4472427893989924 1:66.7083 2:65.9697 3:64.6442 4:62.7106 5:60.6487 6:58.722 7:56.8003 8:54.601 9:52.6808 10:50.6223 11:48.562 12:46.6505 13:44.5938 14:42.5356 15:40.4797 16:38.4223 17:36.5278 18:34.6451 19:32.4234 20:30.5497 21:28.693 22:26.8569 23:25.0459 24:23.5152 25:23.3113 26:24.5235 27:26.9537 28:29.7742 29:31.9453 30:34.7635 31:37.2606 32:39.7556 33:42.5735 34:45.3928 35:47.5658 36:50.3836 37:53.2025 38:55.2675 39:58.0905 40:60.9139 41:62.996 42:65.0884 43:67.19 44:69.659 45:71.066 46:70.0179 47:67.9154 48:65.8217 49:63.3671 50:60.9139 51:58.467 52:56.0223 53:53.9676 54:51.1518 55:49.1173 56:46.3088 57:43.503 58:40.7002 59:38.7106 60:36.3376 61:33.9783 62:31.2174 63:28.4698 64:25.7398 65:23.9281 66:22.6598 67:21.9881 68:22.9531 69:24.6831 70:26.5754 71:28.5089 72:29.0431 73:29.2147 74:28.0508 75:26.5873 76:25.816 77:25.2775 78:25.3875 79:27.3554 80:28.861 81:30.8594 82:32.8717 83:34.6777 84:36.1031 85:35.9303 86:34.6026 87:33.6802 88:32.1926 89:31.4862 90:30.545 91:30.1162 92:30.9567 93:32.2072 94:33.7779 95:35.1984 96:36.7003 97:38.2739 98:39.6594 99:40.7 100:41.8666 101:43.6439 102:45.0278 103:45.0056 104:45.0722 105:45.2272 106:44.4803 107:44.3266 108:42.5777 109:40.7463 110:39.2287 111:39.3887 112:39.1977 113:39.1337 114:39.6354 115:39.8118 116:40.1122 117:39.7617 118:38.923 119:38.1969 120:37.2074 121:36.707 122:36.3376 123:35.6787 124:35.5662 125:35.594 126:35.7619 127:36.0678 128:36.5084 129:36.5854 130:36.2836 131:37.0877 132:37.0068 133:37.0338 134:37.6657 135:38.3992 136:39.2257 137:40.1433 138:41.6231 139:42.6919 140:43.8346 141:44.581 142:46.3083 143:47.1853 144:48.5648 145:49.9943 146:51.8886 147:53.3903 148:54.5251 149:53.8084 150:51.6173 151:49.1173 152:46.3088 153:43.9023 154:41.5032 155:39.5287 156:38.0056 157:36.1031 158:34.6777 159:33.3235 160:31.5826 161:30.3741 162:28.7856 163:27.288 164:25.8972 165:23.6368 166:21.5233 167:19.5256 168:17.5725 169:15.7108 170:14.2443 171:13.2274 172:12.7671 173:13.5275 174:14.3286 175:15.6935 176:17.2416 177:18.9278 178:20.7185 179:22.5888 180:24.5204 181:26.5096 182:28.5 183:30.5164 184:32.5381 185:34.5579 186:36.5885 187:38.6167 188:40.6535 189:42.6878 190:44.7801 191:46.8262 192:48.8698 193:50.9829 194:53.0347 195:55.0841 196:57.2124 197:59.2678 198:61.4057 199:63.5505 200:65.7013 
-0.5248659618646748 -0.1326649622618204 0.2189058956440466 0.3925370577383246 0 0.1643321225506301 0 0 0.5593671172911676 0 0.6127782491349322 0.1953647889735779 0.04654748332960721 1:80.0562 2:79.0145 3:77.5389 4:75.308 5:73.4662 6:70.9072 7:68.283 8:66.2517 9:64.2228 10:61.7424 11:59.0533 12:57.2477 13:55.2318 14:52.7744 15:50.3244 16:48.325 17:46.5759 18:44.0775 19:41.5034 20:39.5388 21:37.3138 22:36.4185 23:37.2074 24:37.4833 25:37.2074 26:35.8831 27:34.9489 28:33.0217 29:32.0069 30:30.8796 31:31.4846 32:33.3658 33:35.2601 34:36.7956 35:37.5698 36:37.2759 37:37.0877 38:37.009 39:37.5861 40:38.2687 41:38.5551 42:39.0593 43:39.7049 44:39.8611 45:40.1181 46:40.2558 47:40.564 48:41.1944 49:41.9096 50:42.1338 51:42.4382 52:43.1625 53:43.6618 54:44.9109 55:46.2398 56:47.3389 57:48.5691 58:50.799 59:53.2367 60:55.4554 61:57.2477 62:58.8467 63:60.1757 64:60.2451 65:58.6726 66:59.0718 67:58.143 68:55.9955 69:54.6671 70:54.3921 71:54.1541 72:52.5237 73:50.5049 74:48.5259 75:46.062 76:43.6835 77:42.3615 78:41.1927 79:41.2387 80:40.957 81:40.6752 82:40.0617 83:40.1284 84:40.2297 85:40.1122 86:39.7617 87:40.3278 88:40.7352 89:41.3158 90:41.749 91:43.061 92:44.0562 93:45.2359 94:46.7042 95:48.4931 96:50.625 97:52.2769 98:53.9709 99:56.1589 100:58.3632 101:60.1769 102:62.0182 103:63.8847 104:64.8652 105:64.0508 106:62.504 107:60.5208 108:58.098 109:55.644 110:53.6493 111:51.6551 112:49.1388 113:46.5967 114:44.5449 115:42.5292 116:40.0041 117:37.5336 118:35.5919 119:33.6868 120:31.461 121:29.1249 122:27.171 123:25.2243 124:22.6393 125:19.9063 126:17.6828 127:15.5789 128:14.3926 129:13.9596 130:14.1231 131:15.8885 132:17.2175 133:18.772 134:20.1586 135:21.9659 136:24.4169 137:27.1018 138:29.0058 139:31.2143 140:33.6526 141:35.9349 142:38.1617 143:39.8787 144:42.3811 145:44.7359 146:46.7391 147:48.7473 148:51.1353 149:53.6777 150:55.4914 151:57.3175 152:59.1548 153:61.4662 154:63.6154 155:65.1529 156:66.4296 157:68.1615 158:68.5528 159:66.6833 160:64.5342 161:61.984 162:59.3486 163:57.3782 164:55.4099 165:52.7733 166:50.3116 167:48.169 168:46.1158 169:43.5153 170:40.9421 171:38.8234 172:36.7186 173:34.1653 174:31.5634 175:29.5419 176:27.5089 177:26.0895 178:26.8825 179:29.1249 180:31.0847 181:33.7347 182:36.2857 183:38.344 184:40.406 185:43.0257 186:45.6099 187:47.6722 188:49.7319 189:52.3931 190:55.0569 191:57.0023 192:59.1799 193:61.8469 194:64.5156 195:66.578 196:68.765 197:71.481 198:74.3816 199:76.8675 200:78.4258 
-0 -1 0 0 0.4473677569161437 0.06443337357056536 0 0 0.08089191856633327 0.5415554113016845 0.2384951590579757 0 0.02034847342496113 1:60.0333 2:59.0762 3:57.5782 4:55.581 5:54.0833 6:52.5857 7:50.589 8:49.0918 9:47.5947 10:45.5988 11:43.6835 12:42.19 13:40.6971 14:38.8234 15:37.3363 16:35.8504 17:33.8712 18:32.0665 19:30.5941 20:29.1249 21:27.171 22:25.9615 23:24.5208 24:22.6114 25:20.719 26:19.6977 27:18.5729 28:17.9161 29:18.4391 30:19.105 31:19.9247 32:19.9858 33:19.2354 34:19.0508 35:18.8276 36:19.4165 37:20.8868 38:22.853 39:24.3311 40:25.7452 41:26.5477 42:27.0093 43:27.074 44:26.736 45:28.0474 46:28.8617 47:29.7424 48:30.8459 49:31.1277 50:31.305 51:32.0069 52:33.0217 53:33.8378 54:34.7047 55:35.9222 56:36.8375 57:37.4833 58:38.5405 59:39 60:39.2046 61:39.1205 62:38.8514 63:38.7097 64:38.0132 65:36.9129 66:34.272 67:33.2415 68:32.2583 69:31.1846 70:30.8058 71:30.504 72:30.2076 73:30.0416 74:30 75:30.0416 76:29.2147 77:28.4429 78:28.2641 79:28.3104 80:28.044 81:27.7308 82:27.9814 83:28.5732 84:28.6007 85:29.5195 86:30.073 87:30.4467 88:30.6105 89:30.9351 90:31.5747 91:32.2025 92:33.1555 93:34.4805 94:36.0678 95:37.3631 96:38.4559 97:40.1156 98:41.4367 99:42.7411 100:44.601 101:45.5276 102:46 103:45.5276 104:43.546 105:42.0119 106:40.5123 107:38.5 108:37 109:35.5141 110:33.5597 111:31.6426 112:30.2655 113:28.9354 114:27.2922 115:25.9615 116:24.8249 117:23.3085 118:21.4778 119:20.1246 120:18.7965 121:16.3262 122:14.3178 123:13.2887 124:11.7748 125:11.0227 126:10.0499 127:10.3192 128:10.9753 129:10.8167 130:11.7217 131:13.0908 132:15.2433 133:16.4012 134:17.9029 135:19.8325 136:21.6333 137:23.163 138:25.3875 139:27.4591 140:28.9918 141:31.2174 142:33.4444 143:34.9857 144:36.5312 145:38.7625 146:40.8167 147:42.1107 148:44.3431 149:46.5759 150:48.3735 151:49.9253 152:51.9164 153:53.2353 154:55.03 155:56.8005 156:57.9176 157:57.2713 158:55.2862 159:52.8516 160:51.0784 161:49.5032 162:47.0775 163:44.6607 164:43.0813 165:41.3193 166:39.0932 167:37.3363 168:35.7573 169:33.5349 170:31.6228 171:30.0433 172:27.6816 173:25.3501 174:23.7697 175:21.9693 176:20.6565 177:20.025 178:21.5114 179:23.5213 180:25.5 181:27 182:28.5175 183:30.5164 184:32.0156 185:33.5149 186:35.5563 187:37.5533 188:39.0512 189:40.5494 190:42.547 191:44.0454 192:45.5439 193:47.5947 194:49.5659 195:51.0392 196:52.5381 197:54.5367 198:56.0357 199:57.5219 200:59.5042 
-0 -0.3504636134330301 0 0 0.8650644400341819 0 0 0 0.2620621883435022 0 0.08366571783697931 0.4227091362918088 0.4051166563263047 1:53.6004 2:52.469 3:51.8484 4:49.8066 5:47.7625 6:45.7739 7:43.7865 8:42.19 9:40.6971 10:38.6614 11:36.6231 12:34.5579 13:32.5381 14:31.0161 15:29.5 16:27.5182 17:25.5783 18:23.6908 19:21.7084 20:20.3961 21:18.9278 22:17.1137 23:15.5215 24:14.1051 25:13.5275 26:14.1421 27:15.5724 28:17.6777 29:19.8116 30:21.9659 31:24.1351 32:25.6125 33:27.4107 34:29.6031 35:31.5042 36:33.4265 37:35.6417 38:37.4433 39:38.9682 40:41.1889 41:43.6844 42:45.9056 43:48.3996 44:50.4777 45:52.5597 46:55.34 47:57.7184 48:58.9017 49:60.1282 50:60.3075 51:60.1747 52:59.054 53:57.6314 54:55.5192 55:53.0519 56:50.9313 57:49.5429 58:47.0891 59:45.0155 60:42.9581 61:40.9195 62:39.2046 63:38.3068 64:36.3376 65:34.8213 66:33.3682 67:31.5349 68:29.9666 69:28.4334 70:26.2789 71:24.6699 72:23.6535 73:23.27 74:22.0907 75:22.0114 76:21.0594 77:20.3099 78:21.7137 79:22.7727 80:23.7697 81:24.3814 82:25.3069 83:27.3554 84:28.861 85:30.6358 86:32.6497 87:33.3682 88:34.401 89:35.1139 90:34.7706 91:35.0054 92:36.0694 93:36.1801 94:36.5101 95:37.0537 96:37.8015 97:38.7419 98:39.5601 99:40.0059 100:39.9109 101:39.9185 102:39.541 103:39.2619 104:40.0812 105:40.0125 106:41.0061 107:41.0792 108:41.2492 109:42.5029 110:41.2827 111:39.8121 112:38.0613 113:36.0036 114:34.1298 115:32.2686 116:30.3194 117:28.8617 118:27.5478 119:28.153 120:30.2732 121:31.0878 122:31.1358 123:31.0644 124:30.7081 125:30.8122 126:31.1288 127:31.953 128:32.9088 129:33.8378 130:34.8278 131:36.0411 132:37.5673 133:38.9396 134:40.7712 135:41.7852 136:43.1889 137:44.9099 138:46.6505 139:48.2832 140:49.9626 141:51.1957 142:52.5628 143:54.174 144:54.3921 145:53.6909 146:51.5628 147:50.01 148:48.5052 149:46.5107 150:44.5112 151:42.5118 152:40.5061 153:39 154:37.5 155:35.5141 156:33.5597 157:31.6426 158:29.7121 159:28.2843 160:26.8003 161:24.8245 162:22.853 163:20.8868 164:18.9278 165:17.4642 166:16.0083 167:14.0808 168:12.1769 169:9.96357 170:7.76316 171:6.08276 172:6.53553 173:7.44794 174:8.33229 175:9.55952 176:11.016 177:12.8062 178:14.6063 179:16.8029 180:19.0088 181:20.6717 182:22.898 183:24.1868 184:25.7398 185:27.9739 186:29.9717 187:31.9773 188:33.9897 189:35.3412 190:37.1254 191:38.9396 192:40.7712 193:42.8086 194:44.8474 195:46.2385 196:47.4649 197:49.176 198:50.625 199:52.0276 200:53.5429 
-0.7889929760229965 -0 0 0.09309620937388098 0 0 1 0.2516636273468669 0.6321097385310653 0.3923480363866561 0 0.7952011715191889 0 1:52.8867 2:51.6624 3:49.8461 4:48.2701 5:46.5861 6:44.4214 7:42.7551 8:41.1905 9:39.4588 10:37.9035 11:35.7867 12:34.1321 13:32.5993 14:31.0161 15:29.5083 16:27.5093 17:26.0192 18:24.5815 19:22.6992 20:21.3776 21:20.7481 22:21.1896 23:21.7362 24:23.483 25:23.3238 26:23.7273 27:23.4307 28:22.9863 29:22.3471 30:22.2036 31:22.6488 32:23.9363 33:25.0799 34:26.1013 35:27.5136 36:28.511 37:29.521 38:30.2655 39:30.1081 40:30.0167 41:30.5081 42:32.5154 43:34.0147 44:35.0357 45:36.1732 46:36.3456 47:36.5854 48:36.8782 49:38.2032 50:38.7489 51:39.2173 52:39.28 53:38.4838 54:38.6905 55:39.1974 56:39.1152 57:39.5346 58:38.8117 59:38.2884 60:36.8375 61:36.0694 62:35.3695 63:35.1482 64:35 65:34.1236 66:34.1321 67:33.3682 68:32.8778 69:32.6956 70:32.132 71:32.4265 72:32.0156 73:31.1873 74:30.4138 75:30.2076 76:30.0416 77:29 78:29.0431 79:29.1548 80:29.3512 81:29.7235 82:30.0832 83:30.5201 84:31.2004 85:30.8707 86:30.6504 87:30.5287 88:30.9351 89:31.7081 90:31.8904 91:32.8996 92:33.9411 93:35.0195 94:36.5015 95:37.0135 96:38.2013 97:39.8162 98:41.0488 99:41.765 100:43.0465 101:44.1017 102:44.5023 103:43.8634 104:43.272 105:41.7852 106:39.8571 107:37.6377 108:36.0555 109:34.476 110:32.4234 111:31.0161 112:29.619 113:28.6356 114:27.2818 115:25.9868 116:25.2389 117:24.007 118:23.4307 119:22.3016 120:21.596 121:20.6155 122:20.1126 123:18.1804 124:16.6433 125:15.4057 126:14.2127 127:13.0908 128:11.7217 129:11.6619 130:11.4425 131:12.3693 132:13.7419 133:14.5178 134:15.0333 135:16.2017 136:17.5921 137:18.9737 138:20.8946 139:22.8473 140:23.9281 141:26.6185 142:27.7849 143:29.8417 144:31.9061 145:33.9783 146:36.3376 147:38.0132 148:40.1063 149:42.9012 150:44.2041 151:45.9174 152:47.634 153:48.9745 154:50.6596 155:51.6624 156:51.6236 157:50.9313 158:49.9138 159:48.2131 160:46.0977 161:43.983 162:41.1644 163:39.0512 164:37.5833 165:35.4683 166:34.1248 167:31.313 168:29.2062 169:27.1018 170:25.807 171:23.7174 172:21.221 173:19.4165 174:17.3355 175:15.0146 176:14.3178 177:15.3387 178:17.088 179:18.6705 180:20.8946 181:22.4722 182:24.234 183:26 184:27.5785 185:29.8089 186:31.3847 187:33.1555 188:35.3877 189:37.1618 190:38.7371 191:40.7185 192:42.2914 193:44.7358 194:46.5188 195:47.8779 196:49.2443 197:50.8226 198:52.2774 199:53.1413 200:53.6048 
-0.5266603915102483 -0.2718311826211518 0.1192090702490868 0.427487986181767 1 0.3834486175087826 0.7723825576829728 0.7352776007668222 0.4338206711649757 0.4724441021466276 0.6376082894975341 1 0.7480106873474788 1:77.3692 2:75.9162 3:74.1122 4:72.0504 5:70.1232 6:68.2002 7:65.7079 8:63.1211 9:61.2068 10:59.2982 11:57.3958 12:55.5002 13:53.142 14:50.7965 15:48.9314 16:46.889 17:44.8474 18:43.0034 19:40.72 20:38.0302 21:36.4548 22:35.6787 23:35.9303 24:35.0501 25:33.6061 26:32.1773 27:30.8122 28:29.5195 29:28.7226 30:30.1951 31:31.9836 32:32.9686 33:33.682 34:33.5987 35:33.6376 36:35.2717 37:36.5894 38:37.0068 39:37.0338 40:37.1685 41:37.492 42:37.9669 43:38.464 44:39.0573 45:39.28 46:39.6037 47:40.4223 48:41.0784 49:41.333 50:41.7062 51:42.1947 52:42.7946 53:43.6448 54:45.0705 55:46.3141 56:47.3179 57:48.6757 58:50.352 59:53.0018 60:55.139 61:56.871 62:58.62 63:59.9275 64:61.6062 65:63.047 66:63.7375 67:61.6652 68:59.149 69:57.1444 70:55.8713 71:54.0323 72:53.6795 73:52.9026 74:51.7422 75:49.6257 76:47.0211 77:44.5057 78:42.5296 79:40.6546 80:40.3794 81:39.4955 82:38.9471 83:38.5863 84:38.3526 85:38.2485 86:38.2748 87:37.7308 88:37.7226 89:37.8733 90:37.4833 91:38.2492 92:38.8117 93:39.8554 94:40.9996 95:42.0393 96:43.208 97:44.4779 98:45.8574 99:47.9918 100:50.0886 101:51.6842 102:53.444 103:55.1618 104:57.3912 105:59.7561 106:61.1024 107:61.0205 108:59.5042 109:57.5567 110:55.173 111:52.7376 112:50.7469 113:48.7104 114:46.6717 115:44.601 116:42.067 117:39.5127 118:37.5068 119:35.5355 120:33.5974 121:31.2704 122:28.9354 123:27.171 124:25.2243 125:23.2866 126:21.2279 127:18.5167 128:15.7058 129:14.0178 130:13.0957 131:13.4716 132:14.1231 133:15.5575 134:17.5046 135:19.5294 136:20.8657 137:22.9863 138:25.127 139:27.8783 140:30.5369 141:32.7186 142:34.6026 143:36.8014 144:39.2152 145:42.0277 146:43.9604 147:46.1792 148:48.1282 149:50.0852 150:52.6513 151:55.139 152:56.871 153:59.1042 154:60.6214 155:62.1635 156:63.9858 157:65.2758 158:66.4297 159:66.2531 160:64.3682 161:61.5889 162:59.0023 163:56.8003 164:54.7413 165:52.6808 166:50.4804 167:47.713 168:45.125 169:42.9333 170:40.7463 171:38.4531 172:36.2857 173:33.6039 174:30.8331 175:28.7174 176:26.5466 177:26.0096 178:27.5727 179:30.0666 180:32.5993 181:34.6302 182:36.6231 183:38.6167 184:41.1657 185:43.6835 186:45.7242 187:47.7625 188:49.7519 189:51.7948 190:54.3324 191:56.8177 192:58.8617 193:60.9036 194:62.8908 195:64.9943 196:67.5593 197:70.1476 198:72.4201 199:74.7306 200:76.5865 
-1 -0.6584024128176712 0.6184860810621693 1 0.7825176871083053 0.4239066661071799 1 1 1 1 1 1 0.8051838359170672 1:46.5296 2:45.7056 3:44.4214 4:42.9535 5:41.4881 6:39.429 7:37.855 8:36.1837 9:34.0332 10:32.5576 11:30.9072 12:29.2746 13:27.7895 14:25.6759 15:24.1868 16:22.5888 17:20.5974 18:19.105 19:17.5286 20:15.5323 21:14.0357 22:12.5192 23:11.0454 24:9.84244 25:10.5146 26:12.53 27:14.5784 28:16.8087 29:18.868 30:20.4091 31:22.6392 32:24.6982 33:26.2398 34:28.3019 35:29.8417 36:32.5964 37:34.6699 38:36.4736 39:38.9682 40:40.4969 41:42.5737 42:45.3488 43:47.4342 44:49.1163 45:50.8035 46:51.705 47:52.5642 48:52.4023 49:51.2968 50:49.8535 51:48.0833 52:46.3182 53:43.8463 54:41.7253 55:39.6043 56:37.4833 57:35.7265 58:33.2641 59:31.1448 60:29.7742 61:27.3386 62:25.6125 63:24.3004 64:22.3275 65:20.2485 66:19.0403 67:17.8885 68:16.3542 69:15.6678 70:15.2971 71:15.582 72:17.5 73:19 74:20.5244 75:22.0227 76:23.5213 77:25.51 78:27.0185 79:27.1201 80:27.3769 81:26.6833 82:26.5873 83:26.2853 84:26.4008 85:26.181 86:26.9258 87:27.3225 88:29.8217 89:31.6228 90:32.5025 91:32.9757 92:33.2415 93:33.9558 94:34.4435 95:35 96:35.3692 97:35.8469 98:36.0062 99:35.1348 100:34.0147 101:32.8778 102:31.3258 103:29.5296 104:29.7566 105:30.3795 106:30.3645 107:28.9911 108:28.6356 109:28.8587 110:30.607 111:31.0161 112:30.5083 113:29.1118 114:28.1603 115:26.736 116:24.9166 117:23.5372 118:22.9452 119:24.3516 120:25.3491 121:26.6168 122:27.2947 123:28.9039 124:30.373 125:31.6228 126:32.5025 127:32.6036 128:33.2415 129:33.2716 130:33.4216 131:34.3073 132:34.401 133:34.4819 134:32.8853 135:31.9915 136:32.311 137:31.7879 138:32.28 139:32.3862 140:34.0332 141:35.3553 142:36.6715 143:38.5327 144:40 145:40.5306 146:42.1485 147:43.2897 148:43.4913 149:43.7379 150:43.5529 151:42.1056 152:40.8044 153:39.3735 154:37.0218 155:35.4401 156:33.5951 157:31.4107 158:29.6142 159:28.8561 160:28.1603 161:27.0462 162:27.0093 163:26.0768 164:25.7452 165:25.1169 166:23.7697 167:22.6114 168:20.2637 169:18.4391 170:17.6828 171:16.0312 172:14.5178 173:14.23 174:13.6015 175:14.1231 176:14.1573 177:14.2127 178:15.2112 179:16.0109 180:17.2047 181:17.9252 182:19.2354 183:20.3701 184:22.0064 185:23.0868 186:24.5208 187:26.3224 188:27.6586 189:29.1249 190:30.9072 191:32.249 192:33.6868 193:35.1283 194:36.5894 195:38.5327 196:40.0125 197:41.506 198:43.5285 199:44.1022 200:45.7242 
-0 -0 -0 0.1439524368740537 0 0.7490519464838538 0 0.03514613426477147 0 0 0 0 0 1:59.3043 2:58.2151 3:57.2189 4:55.7248 5:54.231 6:52.6945 7:51.1566 8:50.1597 9:48.5927 10:47.0425 11:45.5273 12:45 13:46.0109 14:47.5105 15:49.0102 16:50.5099 17:52.0384 18:53.0377 19:54.5367 20:56.0803 21:55.186 22:54.231 23:53.2353 24:51.8484 25:50.3587 26:48.9369 27:47.5184 28:46.5296 29:45.1313 30:43.9318 31:42.812 32:42.72 33:43.9659 34:43.4911 35:42.72 36:41.8919 37:40.7185 38:40.2492 39:38.9141 40:38.0789 41:36.7875 42:35.5106 43:35.2278 44:34.0049 45:32.8024 46:32.27 47:31.1448 48:30.4138 49:30.073 50:29.0689 51:28.513 52:28.0179 53:27.4591 54:26.6728 55:26.8328 56:26.2004 57:25.632 58:25.2982 59:25.355 60:25.4951 61:25.2487 62:26.0768 63:26.0192 64:26.0096 65:27.074 66:27.2304 67:27.4591 68:27.6586 69:28.0265 70:27.5136 71:28.044 72:28.6356 73:29.0689 74:29.7732 75:30.5287 76:30.5191 77:31.4006 78:32.0156 79:32.9757 80:33.9706 81:35.0054 82:36.0694 83:36.1248 84:37.2606 85:38.4187 86:39.6023 87:40.8044 88:41.0488 89:42.3004 90:43.566 91:44.5978 92:45.6508 93:46.5296 94:47.8571 95:48.7545 96:50.1128 97:51.4781 98:52.3927 99:53.2064 100:53.1413 101:52.6543 102:52.2015 103:51.923 104:51.5411 105:51.1957 106:49.9148 107:49.6488 108:49.4975 109:48.3166 110:48.1664 111:47.5681 112:47.0106 113:47 114:46.527 115:46.0977 116:45.2272 117:44.4072 118:44.5533 119:43.8348 120:43.1741 121:43.0683 122:43.0116 123:42.3792 124:41.3193 125:40.3113 126:39.1528 127:38.4708 128:38.0789 129:37.5896 130:36.6197 131:36.0048 132:35.4683 133:34.7131 134:34.2983 135:33.2415 136:32.224 137:31.241 138:31.4006 139:30.5191 140:29.6816 141:29.7732 142:29.0689 143:28.6356 144:28.044 145:27.5136 146:27.0644 147:26.6833 148:26.4764 149:26.2392 150:26.0768 151:26.0096 152:26.0192 153:26.0768 154:26.2392 155:26.4764 156:26.8046 157:27.2029 158:27.5136 159:28.044 160:28.6356 161:29.2993 162:29.1548 163:29.6816 164:30.5191 165:31.4006 166:32.3326 167:32.5576 168:31.8277 169:30.7633 170:29.7321 171:30.2217 172:30.8058 173:31.6228 174:32.8683 175:34.1321 176:35.4163 177:36.7151 178:37.5899 179:39.3867 180:40.7063 181:42.2675 182:43.8292 183:44.7214 184:46.0684 185:47.4236 186:48.7882 187:49.7695 188:50.6952 189:52.0892 190:53.4883 191:54.5553 192:55.6597 193:56.3205 194:57.1444 195:55.7853 196:54.4563 197:55.109 198:55.9017 199:57.2124 200:58.5491 
-0 -0 -0 0.8710258036588369 0 0 0 0.2356679063030812 0 0 0.07007022294704041 0 0 1:65.1153 2:64.3273 3:63.3482 4:62.0988 5:60.8769 6:61.2657 7:61.6847 8:61.0328 9:59.7738 10:58.5235 11:57.1164 12:55.7136 13:54.7814 14:53.3881 15:52 16:50.8226 17:49.6588 18:48.7545 19:48.5329 20:48.3735 21:49.1369 22:49.93 23:48.959 24:48.0104 25:47.2017 26:46.6192 27:45.4533 28:44.3098 29:43.1856 30:42.45 31:41.3687 32:40.3113 33:39.286 34:38.2884 35:37.6431 36:36.707 37:35.805 38:34.5328 39:33.2866 40:32.7567 41:32.0069 42:31.305 43:30.6669 44:30.0832 45:29.0963 46:28.1603 47:27.8927 48:27.5588 49:27.2947 50:27.6187 51:28.0179 52:28 53:28.0446 54:28.1603 55:28.8587 56:28.6356 57:28.8617 58:29.2657 59:28.7924 60:28.8952 61:29.0689 62:29.3422 63:29.6816 64:30.2324 65:30.7081 66:31.241 67:31.4862 68:31.8277 69:32.5576 70:33.0356 71:33.6006 72:34.2539 73:34.9857 74:35.3553 75:36.4548 76:37.1618 77:38.3526 78:39.5601 79:40.1622 80:41.1447 81:42.2019 82:43.4426 83:44.911 84:46.3817 85:47.8539 86:48.8365 87:50.0682 88:51.3517 89:52.7902 90:54.1479 91:55.0818 92:56.5577 93:58.0345 94:59.5336 95:61.0328 96:62.0081 97:63.5039 98:65.0308 99:64.597 100:63.1981 101:61.792 102:60.407 103:59.5399 104:58.2823 105:57.0701 106:55.7032 107:55.5428 108:54.8179 109:54.2631 110:53.7587 111:52.5063 112:51.264 113:49.98 114:48.0687 115:46.4866 116:45.2428 117:44.3847 118:44.7772 119:44.9549 120:45.1774 121:45.896 122:45.793 123:46.5986 124:46.6154 125:46.4004 126:45.8405 127:45.3431 128:44.9151 129:43.8406 130:43.1393 131:42.4853 132:41.8688 133:41.3158 134:40.8044 135:40.2244 136:39.8118 137:39.4462 138:38.7097 139:38.0132 140:37.5766 141:36.9657 142:37.3363 143:36.8439 144:36.4006 145:35.0498 146:34.7131 147:34.5254 148:33.8036 149:33.1361 150:32.5381 151:32 152:32.0156 153:32.1014 154:31.257 155:31.488 156:31.7805 157:31.0483 158:31.4718 159:31.9531 160:31.1277 161:30.4138 162:29.8492 163:29.4109 164:29.2062 165:29.0344 166:29 167:29.7825 168:30 169:30.2324 170:30.7078 171:31.305 172:32.238 173:33.2415 174:34.176 175:35.5848 176:37 177:38.1218 178:39.5601 179:40.5216 180:41.7165 181:43.1741 182:44.5293 183:45.8912 184:47.2741 185:48.6621 186:49.4975 187:50.9197 188:52.345 189:53.7332 190:55.1453 191:56.0803 192:57.5219 193:59 194:59.5209 195:60.075 196:59.1354 197:59.7554 198:61.4003 199:63.0768 200:64.7765 
-0.6185065937870141 -0.3468345105382448 -0.4464463552393012 1 0.622786124050889 1 0.4035586633216207 1 0.2059832016538773 0.9918505284275874 0.486938857547525 0.4152281325170677 0.1509084124333476 1:52.345 2:51.2445 3:51.1566 4:50.1597 5:48.6283 6:47.0956 7:46.0977 8:45.0999 9:43.6033 10:42.0476 11:41.0488 12:40.05 13:38.513 14:37 15:36.0139 16:36.0555 17:37.6198 18:39.1152 19:40.1123 20:41.1096 21:42.6058 22:44.1022 23:45.0999 24:46.0977 25:47.1328 26:46.2709 27:45.2769 28:43.9119 29:42.4264 30:41.4367 31:40.6079 32:39.1313 33:37.6563 34:36.8782 35:35.9026 36:34.8264 37:34.7851 38:34.176 39:35.4683 40:35.594 41:34.8855 42:34 43:33.6155 44:32.6033 45:31.6228 46:30.8058 47:30 48:29.4509 49:28.3196 50:27.5862 51:26.5213 52:26.2488 53:25.6125 54:25 55:24.9685 56:24.1868 57:23.7065 58:23.2594 59:22.6598 60:22.1359 61:21.8403 62:21.587 63:21.7906 64:22.0907 65:22.0227 66:23 67:23.0543 68:24.1868 69:24.3311 70:24.5153 71:24.8693 72:25.2982 73:25.632 74:26 75:26.6168 76:27.2947 77:27.7849 78:27.7385 79:28.6007 80:29.2062 81:29.8329 82:30.8122 83:31.1127 84:31.8277 85:32.5576 86:33.3616 87:34.2053 88:35 89:35.805 90:37.0315 91:38.2753 92:38.5876 93:39.4462 94:40.7469 95:41.5933 96:42.4853 97:42.9535 98:44.3203 99:45.31 100:45.8803 101:45.3814 102:44.9222 103:43.6807 104:43.4166 105:42.089 106:41.7732 107:41.5933 108:41.4367 109:40.7516 110:40.1123 111:40.05 112:40.0125 113:38.5066 114:38.0526 115:37.1214 116:37.2156 117:37.4098 118:37.6563 119:37.855 120:38.0789 121:36.8818 122:35.7351 123:35.1141 124:35.4683 125:34.6834 126:34 127:33.6155 128:32.8683 129:32.2025 130:31.4006 131:30.6105 132:30.4467 133:29.6985 134:29.7321 135:29.8329 136:28.9034 137:28.0179 138:28.3019 139:27.7849 140:27.0638 141:25.4951 142:25.0799 143:24.6982 144:24.1966 145:23.7697 146:23.5372 147:23.3452 148:23.1408 149:23.0217 150:23 151:23.0543 152:23.1948 153:23.3452 154:23.5372 155:23.9057 156:24.3516 157:23.7697 158:24.1661 159:24.8283 160:25.5539 161:26.0768 162:26.6271 163:27.1107 164:26.2488 165:25.4951 166:24.7588 167:25.127 168:26.2488 169:27.0185 170:27.8029 171:29.0058 172:30.2324 173:31.0644 174:31.9061 175:33.1861 176:34.4819 177:35.8469 178:37.1525 179:38.4708 180:39.3573 181:40.2492 182:41.5968 183:42.9535 184:43.8634 185:44.7772 186:45.7743 187:47.1699 188:48.1041 189:48.7032 190:49.969 191:50 192:48.7647 193:47.8017 194:46.4487 195:45.1221 196:45.8912 197:46.8722 198:48.169 199:49.6488 200:50.4876 
-1 -0.4819520533865411 -1 1 0.9763470483188488 0.2279604638027099 0.8894668835762868 1 1 0.3931365429998659 1 1 0.7815840807336538 1:69.0072 2:68.0074 3:66.549 4:65.123 5:64.7363 6:64.3817 7:64.5639 8:63.7887 9:62.3926 10:61 11:59.6225 12:58.2495 13:56.7826 14:55.3173 15:54.0857 16:52.6308 17:51.3116 18:50.2892 19:50.759 20:51.264 21:50.8868 22:50.5668 23:49.4262 24:48.3011 25:47.448 26:46.1411 27:45.3687 28:44.1022 29:43.1391 30:42.2019 31:41.0042 32:39.8246 33:39 34:38.2099 35:37.1264 36:36.0694 37:35.0484 38:34.0588 39:33.9029 40:33.0151 41:32.178 42:31.3847 43:31.5349 44:30.8707 45:30.2732 46:29.7321 47:30.2238 48:29.8329 49:30.504 50:30.2655 51:31.1046 52:31.5081 53:32.0156 54:32.1014 55:32.249 56:32.473 57:33.7343 58:33.1132 59:33.5261 60:34.0069 61:34.5398 62:35.1348 63:35.7771 64:36.4752 65:36.3593 66:37.1675 67:38.0132 68:38.1104 69:39.0512 70:39.661 71:40.3113 72:41.0244 73:41.7732 74:42.2534 75:43.4166 76:44.0038 77:45.2217 78:45.9056 79:47.1699 80:48.1972 81:49.2443 82:50.3285 83:50.9902 84:51.9354 85:53.7122 86:55.4914 87:56.8595 88:58.6369 89:60.0083 90:61.1958 91:62.3939 92:63.2686 93:64.195 94:64.2231 95:63.3246 96:62.4569 97:62.5859 98:63.7405 99:63.9531 100:63.7142 101:61.9572 102:60.2993 103:58.6746 104:57.0789 105:56.522 106:55 107:53.5093 108:52.0384 109:51.1224 110:50.2494 111:50.4232 112:49.6488 113:49.9148 114:49.2443 115:49.6033 116:50 117:50.4428 118:49.98 119:50.0492 120:50.1597 121:49.4262 122:48.7647 123:48.1972 124:47.7074 125:47.0248 126:46.4004 127:45.8405 128:45.3431 129:44.5758 130:43.8406 131:43.5245 132:43.2782 133:42.7199 134:42.2019 135:41.749 136:41.3401 137:40.564 138:39.8246 139:39.1337 140:38.4838 141:37.8875 142:37.3363 143:36.8439 144:36.4006 145:36.0206 146:35.6931 147:35.433 148:35.2278 149:35.0927 150:35.0143 151:34.5074 152:34.0954 153:34.2345 154:33.4588 155:33.7343 156:34.0806 157:33.5261 158:33.5397 159:32.6956 160:31.9836 161:31.3847 162:30.6484 163:29.4109 164:29.5195 165:30.4795 166:31.4862 167:32.5269 168:33.6061 169:34.0588 170:35.2186 171:36.4006 172:37.6077 173:38.833 174:40.079 175:41.3401 176:42.6183 177:43.909 178:45.214 179:46.5296 180:47.4057 181:48.7545 182:50.1128 183:51.0784 184:52.4622 185:53.4883 186:54.7258 187:55.9732 188:56.9464 189:57.9741 190:59.0666 191:60.208 192:60.4221 193:60.6712 194:62.0182 195:63.5059 196:64.8788 197:66.2722 198:67.6519 199:69.0652 200:69.0181 
-1 -1 -0.5849422077736859 1 1 1 0.9984336403679188 1 1 1 1 1 1 1:51.9711 2:51.1957 3:51.4198 4:50.6952 5:49.7293 6:49.0408 7:48.0833 8:47.4342 9:46.8188 10:47.1699 11:46.813 12:46.5188 13:45.618 14:44.7214 15:43.8292 16:42.9418 17:42.0595 18:41.1825 19:40.3113 20:39.0169 21:37.7359 22:36.8917 23:36.0555 24:35.2278 25:33.8378 26:33.0151 27:32.8024 28:32.6497 29:32.8996 30:33.9411 31:33.9706 32:34.0588 33:33.4216 34:32.8024 35:33.0151 36:32.45 37:31.9061 38:31.1358 39:30.4138 40:29.0689 41:28.6356 42:28.2312 43:27.8568 44:27.5136 45:26.2488 46:25.9615 47:25.6025 48:24.3311 49:24.1868 50:24.0832 51:24.0208 52:24 53:23.0217 54:23.0868 55:23.1948 56:23.4412 57:23.7697 58:23.0868 59:23.4094 60:23.7697 61:24.1661 62:24.5967 63:25.0599 64:25.5539 65:26.3519 66:27.2029 67:27.8029 68:28.4253 69:28.3196 70:29 71:29 72:29.7321 73:29.8329 74:30.7081 75:31.6228 76:31.9061 77:32.7567 78:33.121 79:34 80:34.4384 81:34.9285 82:35.4683 83:36.3717 84:37.3631 85:38.0789 86:38.833 87:38.6394 88:39.4588 89:40.3113 90:41.1947 91:41.1096 92:41.0305 93:41 94:41.0122 95:41.0488 96:40.1123 97:40.1995 98:39.3192 99:39.4588 100:38.6394 101:38.344 102:37.108 103:36.4006 104:35.7351 105:36.0555 106:36.4006 107:36.7696 108:37.1618 109:38.4838 110:38.9102 111:39.591 112:40.3113 113:39.9625 114:40.4969 115:41.0488 116:40.8044 117:41.4005 118:41.2311 119:41.1096 120:41.4049 121:41.0122 122:41.0366 123:41.1096 124:41.2311 125:41.4005 126:40.8044 127:41.0488 128:40.4969 129:39.7043 130:38.0789 131:37.5899 132:36.2353 133:35.7771 134:34.4384 135:34.0147 136:32.6956 137:32.311 138:31.7879 139:31.3209 140:31.0483 141:29.8329 142:28.6356 143:27.4591 144:27.2947 145:26.1725 146:25.0799 147:23.5104 148:22.0227 149:21.0238 150:20.025 151:19.0263 152:18.0278 153:17.1172 154:16.2788 155:16.4924 156:16.9255 157:17.4642 158:17.8885 159:17.4929 160:18.0278 161:18.6011 162:19.2094 163:19.8494 164:19.799 165:20.8893 166:22.0227 167:22.8035 168:23.0217 169:23.8537 170:24.6982 171:25.5539 172:25.9422 173:26.8328 174:28.1832 175:29.1548 176:30.0832 177:31.0161 178:31.6228 179:32.573 180:33.5261 181:34.2053 182:35.171 183:36.3904 184:37.855 185:38.6394 186:39.4588 187:40.3113 188:41.1947 189:42.107 190:42.0476 191:42.0119 192:42.006 193:42.0476 194:43.1045 195:44.1814 196:45.2769 197:46.2709 198:47.3814 199:48.5077 200:49.6488 
-0 -0 -0 0.7738128581651418 0 1 0 0 0 0.7817528840625683 0 0 0 1:64.0703 2:63.1269 3:62.1289 4:61.2046 5:59.7097 6:58.3095 7:57.4282 8:57.6324 9:56.8858 10:57.0701 11:55.7032 12:54.3415 13:53.3667 14:51.9063 15:50.448 16:49.4773 17:48.5077 18:47.1898 19:45.8803 20:44.9222 21:43.4888 22:42.0595 23:41.1096 24:39.6898 25:38.6264 26:38.0789 27:37.1254 28:36.2353 29:35.3553 30:34.4819 31:33.451 32:32.45 33:31.6228 34:30.4029 35:29.2062 36:28.4253 37:27.2829 38:26.1725 39:26.1725 40:25.1673 41:24.2074 42:23.6008 43:22.747 44:22.8254 45:22.3607 46:21.9317 47:21.8383 48:21.8403 49:21.587 50:21.2954 51:21.095 52:21.0238 53:22.0114 54:22.0907 55:22.2036 56:22.4609 57:23.7697 58:24.0416 59:24.3516 60:25.3491 61:26.4008 62:26.8328 63:27.9739 64:29.1548 65:29.6816 66:30.5191 67:31.4006 68:32.8024 69:33.7402 70:34.7131 71:35.3836 72:35.7124 73:36.7967 74:37.5366 75:38.2884 76:39.4379 77:40.6079 78:41.4005 79:42.6068 80:43.2666 81:44.1022 82:45.1107 83:46.1411 84:47.0106 85:47.8571 86:48.7545 87:49.2443 88:50.1597 89:50.9796 90:51.8652 91:52.811 92:53.7856 93:54.8179 94:55.5428 95:56.1915 96:55.9017 97:55.7315 98:55.5112 99:54.3323 100:54.231 101:52.6186 102:52.0384 103:51.0098 104:50 105:48.5259 106:48.0937 107:48.1664 108:48.3166 109:48.5077 110:47.676 111:47.4642 112:47.2969 113:46.5725 114:46.5069 115:45.2217 116:44.5982 117:44.0114 118:42.8127 119:42.0476 120:41.5933 121:40.5088 122:39.9625 123:39.1152 124:38.4231 125:37.8021 126:37.0135 127:35.8518 128:35.3836 129:34.6554 130:33.9411 131:33.2716 132:32.6497 133:32.0156 134:31.5042 135:30.2324 136:29.6816 137:28.9039 138:28.178 139:27.7308 140:28.044 141:27.5136 142:27.2029 143:27.2922 144:27.4591 145:27.2947 146:28.1603 147:28.5443 148:29 149:29.0172 150:29.1118 151:29.2746 152:29.4279 153:29.7235 154:29.1204 155:28.4605 156:27.5849 157:26.8328 158:26.4197 159:25.5539 160:24.5556 161:25 162:25.6125 163:26.578 164:27.5862 165:28.2843 166:28.6942 167:29.8329 168:30.6105 169:31.8016 170:33.0151 171:33.8378 172:35.0902 173:36.3593 174:37.2156 175:38.0789 176:39.3867 177:40.7063 178:41.1461 179:42.5005 180:43.8634 181:44.7772 182:45.7743 183:47.1699 184:47.7598 185:49.0194 186:50.2892 187:50.9608 188:51.6624 189:52.7717 190:53.9351 191:54.7449 192:55.0165 193:56.4358 194:57.4282 195:58.7605 196:60.1332 197:61.0737 198:62.5201 199:64 200:64.0078 
-0.01106052408046716 -0 -0.1386361289389408 1 0 1 0 0 0 0 0.1875253910771358 0.1298378291768018 0 1:69.1809 2:68.2642 3:67.3647 4:65.873 5:64.4981 6:63.7142 7:62.9682 8:62.7602 9:61.3922 10:60.0405 11:58.6941 12:57.2387 13:55.7853 14:54.8179 15:53.3692 16:51.923 17:50.4804 18:49.0408 19:47.7587 20:46.4866 21:45.2428 22:44.3847 23:43.208 24:42.0476 25:40.6977 26:39.3573 27:38.4708 28:37.1525 29:35.8469 30:34.5589 31:33.2866 32:32.0364 33:30.8058 34:29.9164 35:29.0689 36:27.9529 37:26.8701 38:25.8338 39:25.6125 40:25 41:24.1334 42:23.3238 43:22.5931 44:21.9317 45:22.3041 46:21.8403 47:21.4823 48:22.2036 49:22.0567 50:22 51:22.0567 52:22.2036 53:22.3607 54:23.6535 55:24.0416 56:24.5249 57:26 58:26.6168 59:27.2947 60:28.0434 61:28.8444 62:29.7054 63:30.6105 64:31.241 65:32.224 66:33.2415 67:34.2983 68:35.3836 69:36.5015 70:37.6431 71:38.8117 72:40 73:40.9266 74:41.8808 75:43.143 76:43.909 77:44.7772 78:45.858 79:46.9574 80:47.8779 81:48.8467 82:50.0492 83:51.264 84:52.3381 85:53.7587 86:54.8842 87:56.0446 88:57.1215 89:58.4637 90:59.6657 91:60.5196 92:62.0967 93:63.5474 94:64.7611 95:65.9003 96:67.082 97:67.3263 98:66.6108 99:65.9295 100:64.2806 101:62.7874 102:61.2944 103:60.407 104:59.117 105:57.5587 106:56.8744 107:56.2228 108:55.1135 109:54.037 110:53.5046 111:52.0096 112:50.5646 113:50.1597 114:49.2544 115:48.4406 116:48.6621 117:47.953 118:48.2701 119:47.6706 120:47.1275 121:46.1834 122:45.31 123:44.1241 124:42.9535 125:42.2724 126:41.1825 127:40.8167 128:39.8118 129:38.833 130:38.2013 131:37.6431 132:36.5015 133:35.3836 134:35.0054 135:33.9706 136:32.9757 137:32.0156 138:31.5117 139:31.0644 140:30.5287 141:29.7732 142:28.178 143:27.5219 144:26.9258 145:26.8868 146:26.9258 147:26.5799 148:26.3059 149:26.6232 150:27.0185 151:27.5089 152:28.0713 153:28.1603 154:28.3636 155:28.6356 156:28.9911 157:29.4109 158:29.9077 159:29.5466 160:28.861 161:28.3019 162:27.9104 163:27.0185 164:26.2488 165:26.5213 166:27.5862 167:28.3725 168:29.2062 169:30.4029 170:31.6228 171:32.3314 172:33.6155 173:34.9186 174:36.2353 175:37.5673 176:38.9102 177:39.8121 178:41.1739 179:42.5441 180:43.5463 181:44.9444 182:46.0139 183:47.4342 184:48.7123 185:50 186:51.1788 187:52.6308 188:53.7481 189:54.9181 190:55.7315 191:56.9984 192:58.3095 193:58.6753 194:60.1332 195:61.6018 196:63.0714 197:64.5195 198:66 199:67.5184 200:68.0661 
-0.4886043229088463 -0.1352723570159282 -0.9151850384180249 1 0.4509892247911702 1 0.6390415581601741 0.2733035779641679 1 1 1 1 1 1:49.366 2:48.3735 3:47.3814 4:46.2709 5:45.2769 6:44.1814 7:42.6878 8:41.1096 9:40.1123 10:39.1152 11:38.1182 12:37.0338 13:37 14:38.0132 15:39.0128 16:40.05 17:41.0488 18:42.547 19:44.0454 20:45.0444 21:46.0435 22:47.0956 23:45.6755 24:44.1814 25:43.1856 26:42.2966 27:41.3038 28:40.3113 29:38.9648 30:37.6563 31:37.855 32:37.108 33:36.4006 34:36.8439 35:36.4006 36:35.8469 37:35.3412 38:34.4384 39:33.331 40:32.249 41:31.3847 42:31.0644 43:30.2324 44:29.4109 45:28.2018 46:27.0185 47:26.2488 48:26.1725 49:25.4558 50:24.7992 51:24.2074 52:23.6008 53:23.8537 54:23.3238 55:22.8254 56:22.1462 57:22.4722 58:22.1359 59:21.8403 60:21.587 61:22.2821 62:22.0907 63:22.0227 64:22 65:22.0227 66:23.1408 67:23.3452 68:23.5372 69:22.8035 70:23.0868 71:23.4094 72:23.9679 73:24.5967 74:25.0599 75:25.5539 76:26.0768 77:26.915 78:27.8029 79:27.6586 80:28.3196 81:29 82:29.6985 83:30.7793 84:31.8904 85:32.6497 86:32.8024 87:33.6006 88:34.8186 89:36.0555 90:36.8917 91:37.7359 92:38.0789 93:39.3867 94:40.7063 95:41.5933 96:42.4853 97:43.382 98:44.2832 99:45.2359 100:46.2385 101:46.8188 102:46.4866 103:46.1736 104:45.7436 105:45.3542 106:44.1475 107:43.9318 108:42.7551 109:41.5933 110:40.874 111:40.1995 112:40.1123 113:41.0488 114:41.0122 115:41.0061 116:40.05 117:39.1152 118:38.2099 119:37.3363 120:36.5854 121:35.9026 122:36.1386 123:36.4006 124:35.7351 125:35.1141 126:34.0777 127:33.1059 128:32.6497 129:31.7648 130:31.3847 131:30.6484 132:30 133:29.2062 134:29.0689 135:28.3196 136:27.5862 137:26.5213 138:25.4951 139:24.8395 140:24.2074 141:23.6008 142:24.0202 143:24.5967 144:24.1661 145:23.7697 146:23.4094 147:22.9452 148:22.561 149:22.3607 150:22.2036 151:22.0907 152:22.0227 153:22.0114 154:22.0907 155:22.2036 156:22.3607 157:22.561 158:22.9452 159:23.4094 160:23.7697 161:24.1661 162:24.5967 163:25.0599 164:25.8153 165:26.6271 166:26.4008 167:27.0185 168:27.6586 169:27.2281 170:26.1725 171:26.2488 172:26.4008 173:27.2029 174:28.4311 175:29.6816 176:30.5287 177:31.3847 178:32.249 179:33.121 180:34.4428 181:35.7771 182:36.6742 183:37.5766 184:38.9102 185:40.2653 186:41.6293 187:42.5441 188:43.0813 189:44.0114 190:44.9444 191:46.3495 192:47.4342 193:48.3839 194:48.0833 195:47.8017 196:46.2236 197:45.3542 198:46.0977 199:46.8722 200:47.676 
-0 -0.3990614222326285 -0 0 0.1414509728075071 0.6648229791200312 0 0.2393500681531908 0.3045219837083128 0.5934048655851634 0.1804501902761418 0.1060893603992762 0.1635598816933816 1:64.7611 2:63.7887 3:63.0635 4:61.7485 5:60.7289 6:60.2451 7:59.808 8:58.7732 9:57.7754 10:56.4029 11:55.0364 12:53.2569 13:51.8941 14:50.9902 15:49.6417 16:48.3011 17:46.7391 18:45.1774 19:44.5978 20:44.1022 21:44.938 22:45.8039 23:44.9109 24:44.0454 25:43.2782 26:42.4853 27:41.7253 28:40.6617 29:38.8973 30:37.8733 31:36.8782 32:35.9222 33:35 34:34.1236 35:32.45 36:31.9061 37:31.1358 38:30.4138 39:28.8523 40:28.2312 41:27.6852 42:26.2488 43:25.8357 44:25.4951 45:24.7524 46:24.0832 47:24.0208 48:24.0104 49:24.0832 50:24.2589 51:24.5153 52:24.8693 53:25.2982 54:25.816 55:26.4008 56:26.6263 57:26.9258 58:26.6271 59:27.5029 60:27.6586 61:28.3019 62:29 63:29.7825 64:30.6105 65:31.5117 66:32.45 67:33.1861 68:34 69:34.4384 70:35.594 71:36.4006 72:37.4737 73:38.6005 74:39.7777 75:41 76:42.1763 77:43.4166 78:45.0473 79:46.6905 80:47.8539 81:49.2426 82:50.636 83:51.9736 84:53.4603 85:54.8891 86:56.2228 87:57.6089 88:59.0339 89:60.5042 90:62.0081 91:62.0322 92:60.6035 93:59.1354 94:57.765 95:56.4358 96:56.15 97:54.9181 98:53.6401 99:52.3927 100:50.7076 101:49.0306 102:48.0521 103:46.5861 104:45.1221 105:43.6608 106:42.2019 107:40.7463 108:39.0512 109:37.5934 110:36.4006 111:38.2702 112:39.8497 113:41.1096 114:43.0185 115:44.9444 116:45.9627 117:47.0106 118:48.0891 119:49.1935 120:49.4465 121:49.7393 122:49.6632 123:49.6488 124:49.4065 125:49.1222 126:48.9183 127:48.1352 128:47.3814 129:47.0359 130:46.7547 131:45.7755 132:45.607 133:44.7036 134:43.8292 135:43.2666 136:42.455 137:41.6773 138:40.5036 139:39.3573 140:38.697 141:37.1618 142:36.5851 143:36.0555 144:35.5876 145:34.2053 146:33.9559 147:33.6376 148:32.3883 149:30.7033 150:29.0689 151:27.5089 152:26.0192 153:24.5516 154:23.0868 155:21.7906 156:20.6155 157:19.9249 158:19.0508 159:19.2354 160:19.1422 161:20 162:20.9379 163:21.9317 164:22.3016 165:23.4307 166:24.6037 167:25.2389 168:26.0768 169:27.3554 170:28.178 171:29.5178 172:30.8707 173:31.8479 174:33.2415 175:34.3115 176:35.7351 177:36.8818 178:38.3275 179:39.0512 180:40.5125 181:41.7732 182:43.2465 183:44.5533 184:46.0354 185:47.3814 186:48.814 187:50.2494 188:51.6215 189:53.0377 190:54.0093 191:55.0045 192:55.0364 193:55.1135 194:56.2228 195:57.8122 196:59.4138 197:61.0957 198:62.8013 199:64.0429 200:64.3273 
-0 -0 -0 -0.1950069619648564 0 0.1632827755582461 0 0.5439982084194476 0.3202548223785161 1 0.3135770573735304 0 0 1:47.2652 2:46.3897 3:46.5296 4:45.7056 5:44.5293 6:43.4166 7:42.72 8:42.2194 9:43.6578 10:44.0114 11:44.1241 12:44.2832 13:43.8292 14:43.2315 15:42.19 16:41.8808 17:40.9266 18:40 19:39.2046 20:39.0512 21:37.9125 22:36.7967 23:36.7696 24:35.7265 25:34.7131 26:34.0588 27:33.5111 28:33.0151 29:32.45 30:31.6454 31:30.8869 32:30.4138 33:29.7566 34:29.1548 35:28.7924 36:28.3104 37:27.8927 38:27.6586 39:27.4591 40:27.2304 41:27.074 42:26.0192 43:26.0096 44:26.0768 45:26.1725 46:26.3911 47:26.6833 48:26.9258 49:27.3583 50:27.8568 51:28.2312 52:27.9544 53:28.6531 54:29.1548 55:29.957 56:30.8058 57:30.6105 58:31.241 59:32.224 60:33.2415 61:33.9411 62:35.0195 63:36.1248 64:36.8782 65:38.0309 66:39.2046 67:40 68:41.2109 69:42.4382 70:43.2666 71:43.9923 72:45.2769 73:45.6508 74:46.5296 75:47.6335 76:48.7545 77:49.6588 78:50.4275 79:51.6236 80:52.2015 81:52.1814 82:53.1601 83:53.8516 84:55.4313 85:56.7539 86:57.7235 87:59.0666 88:60.4152 89:61.3922 90:62.8591 91:63.1506 92:61.9839 93:61 94:59.4362 95:57.8705 96:56.8858 97:55.3233 98:53.7587 99:52.6118 100:51.9104 101:51.2445 102:51.1566 103:50.065 104:50.01 105:49 106:48.5259 107:47.0956 108:47.1699 109:45.8346 110:44.5533 111:43.7379 112:42.9535 113:41.8434 114:40.8044 115:40.1622 116:38.9219 117:37.6962 118:37.1618 119:36.0131 120:34.8855 121:34.4819 122:33.451 123:32.45 124:32.2025 125:31.3208 126:30.4795 127:30.4138 128:29.3492 129:29.0689 130:28.4253 131:27.8029 132:27.7385 133:27.7849 134:27.2947 135:26.6168 136:26.9258 137:26.5707 138:26.5873 139:26.6833 140:26.4764 141:27.2304 142:28.0713 143:28.0179 144:29.0086 145:29.0689 146:30.1496 147:30.2655 148:30.504 149:30.8058 150:31.0483 151:31.4718 152:31.9531 153:32.311 154:32.9007 155:33.541 156:34 157:34.7338 158:35.5106 159:36.0555 160:36.9109 161:37.8021 162:37.6431 163:38.6185 164:40.3609 165:41.0366 166:41.7253 167:42.7829 168:43.1856 169:43.9318 170:44.7548 171:45.607 172:46.4004 173:47.6061 174:48.8262 175:49.0918 176:48.7132 177:48.3735 178:47.8853 179:47.1853 180:45.618 181:44.2832 182:42.7488 183:43.0813 184:43.6578 185:44.5982 186:45.8574 187:47.1275 188:47.8017 189:47.4182 190:47.0744 191:46.8722 192:45.6234 193:44.4072 194:44.2832 195:43.643 196:43.0465 197:43.0116 198:44.5056 199:46.0435 200:46.0977 
-0.6859988694629107 -0.1302502534646939 -0.6009697959981197 -1 0.7220151725443749 0.8719540381081536 0.6875114470261475 0.7210258029941586 0.4167886078038572 0.6476006540023271 0.9292316698468791 0.8470402155531386 1 1:37.9473 2:36.6879 3:35.4401 4:34.2053 5:33.9559 6:32.7567 7:32.5576 8:31.5753 9:30.4138 10:30.2655 11:31.1448 12:31.0644 13:31.0081 14:31.0161 15:31.0644 16:32.1403 17:32.249 18:33.3766 19:33.541 20:32.7567 21:31.7805 22:30.8058 23:29.8329 24:28.8617 25:27.5478 26:27.5136 27:28.7924 28:30.0832 29:31.0161 30:31.9531 31:32.8938 32:33.2415 33:33.6155 34:33.1059 35:32.2025 36:31.7648 37:30.4518 38:29.6816 39:28.8444 40:28.0179 41:27.2029 42:26.4008 43:25.6125 44:24.8395 45:24.0832 46:23.3452 47:22.6274 48:21.9317 49:20.9379 50:20 51:19.4165 52:18.868 53:18.3576 54:17.8885 55:16.5529 56:16.1555 57:15.8114 58:15.5242 59:15.2971 60:15.083 61:15 62:14.0357 63:14.1421 64:14.3178 65:14.5602 66:14.8661 67:15.2315 68:15.6525 69:17 70:17.4929 71:18.0278 72:18.9052 73:20.6155 74:21.2603 75:21.9317 76:22.6274 77:23.3452 78:24.0832 79:24.8395 80:25.6125 81:27.0185 82:27.8029 83:28.6007 84:29.8217 85:31.0644 86:31.9061 87:32.7567 88:33.6155 89:34.4819 90:35.3553 91:36.2353 92:37.1214 93:38.0132 94:38.9102 95:40.2492 96:42.2675 97:44.2945 98:45.1774 99:46.0652 100:47.4131 101:48.3011 102:49.1935 103:50.0899 104:50.9902 105:51.8941 106:52.8015 107:54.1691 108:55.1543 109:54.7814 110:54.4243 111:54.0833 112:52.811 113:51.5461 114:51.2445 115:50 116:49.7293 117:48.5077 118:47.2969 119:45.7235 120:44.1475 121:42.9535 122:41.7732 123:40.7922 124:39.8121 125:38.833 126:37.6563 127:36.6742 128:35.6931 129:34.7131 130:33.541 131:32.3186 132:31.1448 133:30.0666 134:29.0172 135:28 136:27 137:26.0192 138:25.0799 139:25.1794 140:24.3311 141:24.5153 142:23.7697 143:22.7795 144:21.5407 145:21.0238 146:20.1246 147:19.7231 148:18.868 149:18.6011 150:17.8045 151:17.6918 152:16.9706 153:17.0294 154:16.5223 155:16.1245 156:15.6525 157:16.1555 158:15.8114 159:16.4924 160:16.2788 161:16.1245 162:17.0294 163:17 164:18.0278 165:18.1108 166:18.8324 167:19.6469 168:19.9249 169:21.1896 170:21.5407 171:21.9317 172:23.2594 173:23.7065 174:25.0599 175:25.5539 176:26.0768 177:27.4591 178:28.3093 179:29.2062 180:29.8329 181:30.4795 182:31.1448 183:31.8277 184:32.5269 185:33.2415 186:33.9706 187:34.7131 188:35.4683 189:36.2353 190:37.4078 191:38.6005 192:38.833 193:38.2753 194:38.5876 195:38.0789 196:38.4708 197:38.0132 198:37.5766 199:38.0789 200:37.6962 
-0.3024737930731544 -0.9453761498258284 -0.383930398294761 -0.3327365939590658 0.1091416886919252 0 0.5858353349665323 0.2264535523286587 1 1 0.633992003471901 0.7857458120822923 0.343661666876534 1:38.1182 2:37.2156 3:36.3456 4:35.5106 5:34.7131 6:33.9559 7:34.2053 8:34.4819 9:34.7851 10:35.1141 11:35.4683 12:34.9285 13:34.4384 14:34 15:33.121 16:32.7567 17:32.45 18:31.6228 19:31.4006 20:30.6105 21:29.8329 22:29.7321 23:29 24:28.2843 25:27.5862 26:27.6586 27:27.0185 28:26.4008 29:25.807 30:26.0768 31:25.5539 32:25.0599 33:24.5967 34:24.1661 35:22.8473 36:22.4722 37:22.1359 38:21.8403 39:21.587 40:21.3776 41:20.2237 42:20.0998 43:20.025 44:20 45:20.025 46:20.0998 47:21.2132 48:21.3776 49:21.587 50:20.8806 51:21.1896 52:21.5407 53:21.9317 54:22.3607 55:22.8254 56:23.3238 57:23.0217 58:23.6008 59:24.2074 60:24.8395 61:25.4951 62:26.1725 63:26.8701 64:27.5862 65:28.3196 66:29.0689 67:29.8329 68:30.6105 69:31.4006 70:32.2025 71:33.0151 72:33.8378 73:34.6699 74:35.5106 75:36.3593 76:37.2156 77:38.5876 78:39.4462 79:40.3113 80:41.1825 81:42.0595 82:42.9418 83:43.8292 84:44.2832 85:45.1885 86:46.0977 87:46.6154 88:47.5395 89:48.4665 90:49.3964 91:49.0408 92:48.7032 93:49.3356 94:49.0408 95:47.8017 96:46.5725 97:45.3542 98:44.1475 99:43.9318 100:43.7379 101:42.5029 102:41.3038 103:41.1947 104:40.1123 105:39.0512 106:38.0132 107:37 108:36.0139 109:35.0571 110:35.1283 111:34.2345 112:33.3766 113:33.541 114:32.7567 115:32.0156 116:31.0483 117:30.3645 118:29.7321 119:28.7924 120:28.2312 121:27.313 122:26.8328 123:25.9422 124:25.5539 125:25.2389 126:24.4131 127:24.2074 128:24.0832 129:23.3452 130:23.3452 131:22.6716 132:22.8035 133:22.2036 134:22.4722 135:21.9545 136:21.4709 137:21.9317 138:21.5407 139:22.1359 140:21.8403 141:21.587 142:22.3607 143:22.2036 144:22.0907 145:23.0217 146:24 147:24.0208 148:25.0799 149:25.1794 150:25.318 151:26.4764 152:26.6833 153:26.9258 154:27.2029 155:27.5136 156:27.8568 157:28.2312 158:28.6356 159:29.0689 160:29.5296 161:30.0167 162:30.5287 163:31.9061 164:32.45 165:33.0151 166:33.6006 167:34.2053 168:34.8281 169:35.4683 170:36.1248 171:36.7967 172:36.7696 173:37.4833 174:37.5366 175:36.8782 176:37.0135 177:36.4006 178:36.6197 179:36.8917 180:36.3593 181:35.8469 182:36.2353 183:35.7771 184:35.3412 185:35.8469 186:36.4006 187:36.0555 188:36.6879 189:36.4006 190:36.1386 191:35.9026 192:35.6931 193:34.5254 194:34.3657 195:34.2345 196:35.1283 197:35.0571 198:36.0139 199:37 200:37.0135 
-0 -0 -0 -1 0 1 0 0 0 0 0 0 0 1:49.0102 2:48.0416 3:48.0937 4:47.1699 5:45.7253 6:44.4072 7:44.5533 8:44.8162 9:46.0977 10:46.3249 11:46.7063 12:47.1275 13:47.4342 14:46.9944 15:46.6154 16:45.6946 17:44.7358 18:43.382 19:42.9418 20:42.3671 21:42.72 22:43.2666 23:44.1182 24:44.2041 25:44.8219 26:44.3098 27:43.8634 28:43.1393 29:42.4382 30:41.7732 31:41.1096 32:39.7556 33:38.4187 34:37.8021 35:36.9109 36:36.0555 37:36.3593 38:36.0411 39:35.7771 40:36.2491 41:35.6576 42:35.1141 43:34.7851 44:33.8617 45:32.9848 46:32.7567 47:32.473 48:32.249 49:32.1403 50:32.039 51:31 52:31.0161 53:31.1046 54:30.2655 55:30.4138 56:30.2135 57:30.0832 58:29.4109 59:29.9077 60:29.5466 61:29.9666 62:30.2152 63:30.5287 64:31.0644 65:31.5117 66:32.0156 67:32.6497 68:32.8996 69:33.2415 70:33.9706 71:35.0907 72:36.2353 73:37.0135 74:38.2013 75:39.4081 76:40.2244 77:41.4648 78:42.72 79:43.566 80:44.8477 81:46.6476 82:47.5079 83:48.8089 84:50.1199 85:51 86:52.1052 87:53.2259 88:54.1295 89:55.0844 90:56.0803 91:57.0088 92:57.887 93:58.8218 94:59.4811 95:60.5217 96:60.6383 97:60.4152 98:60.604 99:59.8415 100:59.6825 101:59.4769 102:58.3095 103:57.2189 104:56.1427 105:54.5594 106:53.0094 107:52.0096 108:50.505 109:49.0408 110:48.0937 111:46.6346 112:46.2709 113:45.3982 114:44.1456 115:43.9318 116:43.1741 117:42.1056 118:40.8044 119:40.1622 120:39.0932 121:38.0789 122:37.1618 123:36.4548 124:35.3553 125:34.9857 126:34.5396 127:35 128:34.8281 129:34.6843 130:34.6554 131:33.9706 132:34.132 133:34.4093 134:34.6699 135:34.307 136:34.8855 137:34.4384 138:34.7342 139:35.1141 140:35.7351 141:35.7894 142:36.8782 143:37.6563 144:37.4098 145:38.2099 146:38.1182 147:38.0329 148:38 149:38.0132 150:38.0854 151:38.2099 152:37.3363 153:37.0788 154:35.9026 155:36.1386 156:35.5876 157:35.1141 158:34.5398 159:34.6834 160:34 161:34.4819 162:34.8278 163:35.2278 164:35.805 165:36.707 166:37.6431 167:38.2884 168:39.286 169:41.0366 170:41.7253 171:42.7829 172:44.5533 173:45.2769 174:46.3828 175:46.8615 176:47.634 177:48.5076 178:49.4065 179:49.6488 180:50.352 181:51.1077 182:51.4781 183:52.1052 184:51.8941 185:52.3927 186:52.2774 187:52.2015 188:51.8652 189:50.9176 190:50 191:48.7647 192:46.9322 193:46.0977 194:46.8722 195:48.0919 196:48.3735 197:49.2544 198:49.1274 199:49.0408 200:49.0102 
