svm_type c_svc
kernel_type rbf
gamma 2.7778e-05
nr_class 11
total_sv 510
rho 0.126251 0.112836 -0.300255 -0.0315241 -0.169544 -0.411386 0.243359 0.0826931 0.166671 -0.447596 -0.20354 -0.468649 -0.158652 -0.857388 -0.552689 -0.210858 -0.0288249 -0.106287 -1.29458 -0.530872 -0.186494 -0.362671 -0.603828 -0.204753 -0.0407265 -0.0347633 -0.61698 0.55823 0.216184 -0.299138 0.385455 0.755471 0.649361 0.380251 -0.106873 -0.464397 0.0949258 0.370896 0.2835 -0.572072 -0.167159 0.174983 0.303636 0.302071 -0.609574 0.496782 0.6912 0.47814 0.237629 -0.375768 0.0134759 -0.537909 -0.12869 -0.607783 -1.11058
label 1 2 3 4 5 6 7 8 9 10 11
probA -4.13233 -4.17898 -4.19484 -4.18284 -4.21957 -4.06927 -4.29914 -4.33362 -4.17035 -4.1193 -3.56765 -3.98145 -4.14328 -4.24003 -3.94086 -4.2094 -4.15557 -4.19828 -3.90691 -4.20573 -4.10772 -3.96227 -3.88808 -4.28865 -4.18202 -4.17416 -4.08029 -4.53558 -4.05539 -4.18965 -4.21433 -4.14343 -4.00299 -3.95813 -3.93292 -3.90771 -4.2807 -4.37563 -3.73861 -3.95867 -3.96911 -4.23384 -4.18238 -4.29763 -3.98061 -4.09674 -4.05349 -3.82596 -3.87947 -3.98406 -4.01666 -4.24465 -4.293 -4.07347 -4.38733
probB 0.049855 0.206017 -0.0808994 -0.170659 -0.0554108 -0.173244 -0.603908 -0.343286 -0.0555103 -0.138463 -0.128791 -0.589464 -0.254973 -0.423963 -0.841635 0.214242 0.22644 0.337287 -0.95349 -0.102742 -0.36039 -0.458981 -0.391798 0.172642 -0.0711716 -0.293454 -0.603633 -0.685313 0.0403376 0.365413 0.117106 0.223639 0.256053 -0.377703 0.0127894 -0.102295 0.300448 0.21043 0.450097 -0.243074 -0.117052 0.00697706 0.268553 0.829894 0.0178416 0.261198 0.0799463 0.622162 -0.00831527 -0.355575 0.0664661 -0.562551 0.22518 -0.0730162 -0.744366
nr_sv 43 50 43 50 52 41 26 52 52 45 56
SV
0 0 0.1196068774810219 0.05333026345212789 0 0.04991922635185018 0 0.04112690149092265 0 0 1:76 2:74 3:72 4:69 5:66 6:63 7:60 8:57 9:54 10:51 11:49 12:46 13:42 14:39 15:36 16:33 17:30 18:27 19:25 20:23 21:26 22:29 23:32 24:36 25:39 26:43 27:47 28:50 29:53 30:56 31:59 32:62 33:65 34:68 35:73 36:75 37:75 38:73 39:70 40:67 41:64 42:61 43:59 44:56 45:53 46:50 47:48 48:45 49:42 50:39 51:36 52:33 53:30 54:29 55:31 56:34 57:37 58:41 59:45 60:49 61:53 62:57 63:60 64:64 65:68 66:72 67:74 68:73 69:71 70:69 71:66 72:62 73:58 74:55 75:52 76:49 77:46 78:43 79:41 80:39 81:38 82:38 83:39 84:39 85:41 86:41 87:43 88:44 89:45 90:46 91:48 92:49 93:51 94:52 95:54 96:56 97:56 98:57 99:60 100:61 101:62 102:61 103:60 104:57 105:56 106:55 107:54 108:54 109:54 110:55 111:54 112:54 113:54 114:53 115:53 116:53 117:53 118:53 119:53 120:53 121:54 122:56 123:57 124:58 125:59 126:60 127:62 128:64 129:65 130:63 131:59 132:56 133:53 134:50 135:47 136:45 137:42 138:40 139:38 140:36 141:33 142:31 143:27 144:25 145:23 146:23 147:23 148:23 149:23 150:25 151:27 152:29 153:32 154:35 155:37 156:40 157:43 158:46 159:49 160:51 161:54 162:57 163:60 164:61 165:64 166:66 167:67 168:67 169:64 170:61 171:58 172:55 173:52 174:49 175:46 176:43 177:39 178:35 179:32 180:29 181:25 182:22 183:21 184:24 185:27 186:30 187:33 188:36 189:39 190:42 191:46 192:49 193:52 194:55 195:58 196:61 197:64 198:67 199:70 200:73 
0 0.2628532011836129 0 0.2273255939243827 0 0.1001701647908416 0 0.1766476436793184 0 0 1:76 2:74 3:73 4:70 5:67 6:64 7:61 8:58 9:55 10:52 11:49 12:46 13:43 14:40 15:37 16:34 17:31 18:27 19:24 20:22 21:22 22:25 23:28 24:32 25:35 26:39 27:42 28:45 29:49 30:52 31:55 32:58 33:62 34:65 35:70 36:74 37:76 38:75 39:73 40:70 41:67 42:65 43:61 44:58 45:55 46:52 47:50 48:47 49:44 50:41 51:37 52:34 53:31 54:28 55:28 56:31 57:34 58:37 59:40 60:43 61:47 62:50 63:53 64:57 65:61 66:64 67:68 68:71 69:74 70:74 71:72 72:69 73:66 74:62 75:59 76:56 77:53 78:50 79:47 80:44 81:41 82:39 83:38 84:38 85:38 86:39 87:40 88:41 89:43 90:44 91:45 92:46 93:48 94:50 95:52 96:54 97:55 98:57 99:60 100:62 101:61 102:58 103:55 104:55 105:54 106:54 107:54 108:54 109:54 110:54 111:54 112:54 113:53 114:53 115:53 116:53 117:53 118:54 119:54 120:54 121:56 122:58 123:59 124:61 125:63 126:64 127:66 128:64 129:62 130:59 131:57 132:53 133:50 134:47 135:44 136:42 137:40 138:38 139:36 140:34 141:31 142:27 143:24 144:23 145:23 146:23 147:23 148:24 149:26 150:28 151:31 152:34 153:36 154:39 155:41 156:44 157:46 158:49 159:52 160:54 161:57 162:59 163:62 164:64 165:65 166:67 167:66 168:63 169:60 170:57 171:54 172:51 173:48 174:45 175:42 176:38 177:36 178:32 179:29 180:26 181:23 182:19 183:20 184:23 185:26 186:30 187:33 188:36 189:39 190:42 191:45 192:48 193:51 194:54 195:57 196:60 197:63 198:66 199:69 200:72 
0 0.01027968710075967 0 0 0.003433324477060381 0 0 0.09073825639653318 0 0 1:74 2:73 3:71 4:69 5:66 6:63 7:61 8:57 9:54 10:52 11:49 12:46 13:44 14:41 15:39 16:36 17:33 18:31 19:29 20:27 21:27 22:30 23:33 24:36 25:39 26:43 27:47 28:49 29:52 30:55 31:59 32:62 33:67 34:71 35:74 36:74 37:73 38:70 39:67 40:65 41:62 42:59 43:57 44:54 45:51 46:48 47:45 48:43 49:41 50:40 51:40 52:40 53:41 54:42 55:43 56:45 57:46 58:47 59:49 60:50 61:51 62:53 63:55 64:56 65:56 66:56 67:57 68:60 69:61 70:62 71:60 72:56 73:55 74:55 75:54 76:54 77:54 78:55 79:55 80:54 81:53 82:54 83:54 84:54 85:53 86:55 87:55 88:55 89:55 90:56 91:57 92:59 93:61 94:63 95:65 96:66 97:67 98:68 99:66 100:62 101:59 102:56 103:53 104:50 105:47 106:45 107:43 108:41 109:40 110:39 111:36 112:33 113:30 114:27 115:25 116:24 117:25 118:25 119:28 120:31 121:34 122:37 123:39 124:42 125:46 126:49 127:53 128:56 129:59 130:62 131:64 132:66 133:65 134:65 135:62 136:58 137:54 138:50 139:47 140:43 141:38 142:33 143:29 144:25 145:21 146:17 147:17 148:21 149:25 150:28 151:31 152:34 153:38 154:42 155:45 156:48 157:51 158:54 159:57 160:61 161:64 162:67 163:69 164:71 165:73 166:72 167:70 168:67 169:63 170:60 171:56 172:53 173:50 174:46 175:43 176:40 177:36 178:33 179:30 180:27 181:24 182:21 183:18 184:21 185:24 186:26 187:29 188:32 189:35 190:39 191:42 192:45 193:48 194:51 195:54 196:58 197:61 198:64 199:67 200:70 
0.1086057827389205 0.03921753926826704 0 0 0.01568944325315239 0.01394658863879485 0 0 0 0 1:73 2:71 3:69 4:66 5:63 6:60 7:58 8:55 9:52 10:49 11:47 12:44 13:42 14:39 15:37 16:34 17:32 18:29 19:28 20:30 21:33 22:36 23:39 24:42 25:45 26:48 27:51 28:54 29:57 30:60 31:63 32:67 33:71 34:72 35:70 36:67 37:65 38:62 39:59 40:57 41:54 42:52 43:50 44:47 45:45 46:42 47:40 48:38 49:38 50:37 51:38 52:39 53:40 54:41 55:42 56:43 57:45 58:46 59:47 60:48 61:50 62:52 63:53 64:55 65:55 66:55 67:58 68:60 69:61 70:62 71:63 72:61 73:59 74:56 75:55 76:54 77:53 78:53 79:53 80:54 81:53 82:53 83:52 84:52 85:52 86:52 87:52 88:52 89:53 90:53 91:53 92:54 93:55 94:57 95:58 96:59 97:61 98:62 99:64 100:66 101:64 102:60 103:57 104:54 105:51 106:48 107:46 108:44 109:42 110:40 111:38 112:37 113:35 114:33 115:30 116:28 117:25 118:23 119:23 120:23 121:24 122:27 123:30 124:33 125:35 126:39 127:42 128:45 129:49 130:52 131:55 132:58 133:61 134:64 135:65 136:66 137:65 138:64 139:61 140:57 141:54 142:50 143:47 144:42 145:38 146:34 147:30 148:26 149:22 150:20 151:24 152:28 153:31 154:34 155:37 156:41 157:44 158:47 159:50 160:53 161:56 162:60 163:63 164:66 165:68 166:70 167:71 168:71 169:68 170:65 171:62 172:59 173:55 174:52 175:49 176:46 177:42 178:39 179:36 180:33 181:30 182:27 183:24 184:23 185:26 186:30 187:33 188:36 189:39 190:42 191:45 192:48 193:51 194:54 195:57 196:60 197:63 198:66 199:69 200:71 
0 0 0.1261646867394602 0.2404683735060987 0.2543900012675724 0.07380788989407613 0 0.2230057606887887 0.1283566433932021 0.2295447892132401 1:70 2:68 3:66 4:64 5:61 6:58 7:55 8:53 9:50 10:48 11:46 12:43 13:40 14:37 15:35 16:33 17:31 18:29 19:29 20:32 21:36 22:39 23:41 24:44 25:47 26:50 27:53 28:56 29:60 30:63 31:66 32:69 33:68 34:66 35:63 36:61 37:58 38:56 39:54 40:51 41:48 42:46 43:43 44:41 45:39 46:37 47:36 48:35 49:36 50:36 51:37 52:37 53:38 54:39 55:40 56:41 57:42 58:43 59:45 60:46 61:48 62:50 63:52 64:53 65:53 66:54 67:57 68:58 69:59 70:60 71:60 72:60 73:59 74:57 75:53 76:52 77:51 78:51 79:51 80:51 81:51 82:50 83:50 84:50 85:49 86:49 87:50 88:50 89:50 90:50 91:50 92:51 93:52 94:53 95:54 96:55 97:57 98:59 99:59 100:61 101:63 102:63 103:60 104:56 105:53 106:50 107:48 108:45 109:43 110:41 111:39 112:37 113:35 114:34 115:31 116:29 117:26 118:24 119:23 120:22 121:22 122:24 123:25 124:27 125:29 126:32 127:35 128:38 129:41 130:43 131:46 132:49 133:52 134:55 135:58 136:60 137:63 138:64 139:65 140:64 141:62 142:58 143:55 144:52 145:49 146:45 147:41 148:37 149:34 150:30 151:26 152:23 153:23 154:27 155:30 156:33 157:36 158:39 159:41 160:44 161:47 162:50 163:53 164:56 165:59 166:61 167:64 168:66 169:68 170:67 171:64 172:61 173:58 174:55 175:52 176:49 177:46 178:43 179:40 180:37 181:35 182:32 183:29 184:26 185:25 186:28 187:30 188:33 189:36 190:39 191:42 192:45 193:48 194:50 195:53 196:56 197:59 198:62 199:65 200:68 
0 0 0 0.1139529294921003 0 0 0 0 0 0 1:69 2:67 3:65 4:62 5:59 6:56 7:53 8:51 9:48 10:45 11:42 12:39 13:37 14:34 15:31 16:28 17:26 18:26 19:29 20:32 21:35 22:38 23:41 24:43 25:47 26:50 27:53 28:55 29:58 30:61 31:64 32:68 33:71 34:71 35:69 36:66 37:63 38:60 39:58 40:55 41:53 42:50 43:47 44:45 45:43 46:40 47:37 48:35 49:32 50:30 51:30 52:32 53:35 54:38 55:41 56:45 57:49 58:52 59:54 60:57 61:61 62:65 63:69 64:71 65:70 66:68 67:66 68:63 69:60 70:57 71:55 72:52 73:49 74:46 75:43 76:41 77:38 78:36 79:35 80:35 81:35 82:36 83:35 84:36 85:37 86:38 87:39 88:40 89:41 90:42 91:43 92:45 93:46 94:49 95:50 96:51 97:52 98:54 99:56 100:58 101:59 102:59 103:59 104:57 105:55 106:53 107:52 108:51 109:49 110:49 111:49 112:50 113:49 114:49 115:49 116:48 117:48 118:48 119:48 120:48 121:49 122:49 123:51 124:52 125:54 126:55 127:57 128:58 129:58 130:60 131:62 132:60 133:57 134:55 135:52 136:49 137:46 138:43 139:41 140:38 141:36 142:34 143:31 144:29 145:26 146:24 147:22 148:21 149:21 150:22 151:22 152:24 153:26 154:28 155:30 156:33 157:36 158:38 159:40 160:43 161:45 162:48 163:51 164:54 165:56 166:59 167:61 168:62 169:64 170:64 171:63 172:60 173:56 174:53 175:50 176:48 177:45 178:42 179:38 180:35 181:33 182:29 183:26 184:23 185:25 186:27 187:30 188:33 189:36 190:39 191:41 192:44 193:47 194:50 195:53 196:55 197:58 198:61 199:64 200:67 
0 0.1063456750611503 1 1 0 0.9212638335143899 1 1 0.4285454409788897 0.3518590401232516 1:58 2:56 3:54 4:52 5:50 6:47 7:45 8:43 9:41 10:38 11:36 12:34 13:32 14:29 15:28 16:26 17:26 18:28 19:30 20:33 21:35 22:37 23:39 24:41 25:43 26:45 27:48 28:50 29:50 30:49 31:47 32:45 33:42 34:41 35:39 36:37 37:36 38:34 39:32 40:30 41:29 42:27 43:25 44:23 45:22 46:21 47:24 48:25 49:27 50:29 51:31 52:33 53:34 54:37 55:39 56:42 57:43 58:45 59:44 60:44 61:42 62:40 63:38 64:37 65:36 66:34 67:33 68:32 69:30 70:29 71:29 72:29 73:29 74:28 75:28 76:29 77:30 78:31 79:32 80:33 81:34 82:35 83:36 84:38 85:39 86:41 87:42 88:43 89:44 90:45 91:45 92:45 93:44 94:44 95:43 96:43 97:42 98:41 99:41 100:40 101:40 102:40 103:40 104:39 105:39 106:38 107:38 108:38 109:38 110:38 111:38 112:39 113:40 114:39 115:40 116:41 117:42 118:44 119:46 120:47 121:49 122:51 123:52 124:51 125:49 126:47 127:44 128:42 129:40 130:38 131:35 132:33 133:31 134:29 135:29 136:27 137:26 138:23 139:21 140:19 141:17 142:17 143:17 144:17 145:17 146:18 147:18 148:20 149:21 150:24 151:25 152:28 153:30 154:31 155:34 156:36 157:38 158:40 159:42 160:45 161:47 162:49 163:51 164:52 165:53 166:52 167:49 168:47 169:44 170:42 171:39 172:36 173:34 174:32 175:30 176:26 177:25 178:22 179:20 180:17 181:15 182:15 183:18 184:20 185:22 186:25 187:27 188:29 189:31 190:34 191:36 192:38 193:40 194:43 195:45 196:47 197:49 198:52 199:54 200:56 
0 0 0 0 0 0 1 1 0 0 1:58 2:57 3:56 4:54 5:52 6:50 7:47 8:45 9:42 10:40 11:38 12:35 13:34 14:31 15:29 16:26 17:24 18:22 19:20 20:18 21:16 22:16 23:19 24:22 25:24 26:27 27:29 28:31 29:34 30:36 31:38 32:41 33:44 34:46 35:49 36:51 37:51 38:50 39:48 40:46 41:44 42:42 43:40 44:38 45:36 46:33 47:32 48:30 49:28 50:27 51:24 52:23 53:22 54:22 55:24 56:26 57:29 58:31 59:32 60:34 61:37 62:39 63:43 64:44 65:45 66:44 67:43 68:41 69:40 70:38 71:36 72:34 73:32 74:31 75:30 76:29 77:30 78:30 79:31 80:31 81:32 82:34 83:35 84:36 85:37 86:38 87:39 88:41 89:42 90:41 91:41 92:43 93:42 94:41 95:41 96:41 97:40 98:39 99:39 100:39 101:39 102:39 103:39 104:39 105:39 106:39 107:39 108:40 109:41 110:41 111:41 112:41 113:43 114:44 115:46 116:48 117:50 118:53 119:54 120:56 121:55 122:53 123:51 124:49 125:47 126:44 127:42 128:40 129:37 130:36 131:34 132:32 133:31 134:29 135:26 136:24 137:21 138:19 139:18 140:18 141:18 142:18 143:19 144:19 145:20 146:22 147:24 148:25 149:27 150:29 151:31 152:33 153:35 154:37 155:39 156:41 157:43 158:46 159:47 160:49 161:52 162:53 163:55 164:53 165:52 166:49 167:47 168:45 169:42 170:40 171:38 172:35 173:33 174:31 175:28 176:26 177:24 178:21 179:19 180:17 181:14 182:13 183:15 184:17 185:19 186:22 187:24 188:26 189:29 190:31 191:33 192:36 193:38 194:40 195:43 196:45 197:47 198:50 199:53 200:55 
0 0 0 0 0 0 0.4092368873158019 0 0 0 1:61 2:59 3:57 4:55 5:52 6:50 7:47 8:45 9:42 10:40 11:38 12:36 13:33 14:31 15:28 16:26 17:23 18:21 19:19 20:22 21:24 22:27 23:29 24:32 25:34 26:37 27:39 28:42 29:44 30:47 31:49 32:52 33:55 34:56 35:56 36:55 37:53 38:50 39:48 40:46 41:44 42:41 43:39 44:37 45:35 46:33 47:31 48:30 49:27 50:26 51:27 52:30 53:32 54:34 55:37 56:39 57:41 58:43 59:46 60:49 61:50 62:50 63:49 64:47 65:45 66:43 67:41 68:39 69:38 70:36 71:34 72:33 73:32 74:31 75:30 76:30 77:30 78:31 79:31 80:31 81:33 82:34 83:35 84:36 85:38 86:39 87:41 88:42 89:43 90:45 91:47 92:47 93:48 94:48 95:47 96:47 97:46 98:45 99:44 100:44 101:44 102:44 103:43 104:43 105:43 106:42 107:42 108:42 109:41 110:41 111:41 112:41 113:42 114:42 115:42 116:43 117:43 118:44 119:46 120:48 121:50 122:52 123:54 124:56 125:54 126:52 127:50 128:47 129:45 130:42 131:40 132:37 133:35 134:32 135:31 136:30 137:28 138:25 139:23 140:21 141:19 142:19 143:19 144:19 145:19 146:19 147:21 148:22 149:24 150:26 151:29 152:30 153:33 154:35 155:37 156:40 157:42 158:44 159:47 160:49 161:51 162:53 163:55 164:56 165:56 166:54 167:51 168:49 169:47 170:44 171:42 172:39 173:37 174:34 175:31 176:29 177:26 178:23 179:21 180:18 181:16 182:16 183:19 184:21 185:24 186:26 187:29 188:31 189:34 190:36 191:39 192:41 193:44 194:46 195:49 196:51 197:54 198:56 199:59 200:60 
0 0 0 0 0 0 0.03902667778743729 0 0 0 1:75 2:73 3:70 4:67 5:64 6:61 7:58 8:55 9:52 10:49 11:46 12:43 13:40 14:37 15:34 16:30 17:27 18:24 19:21 20:18 21:20 22:23 23:27 24:30 25:33 26:37 27:40 28:43 29:46 30:49 31:53 32:56 33:59 34:62 35:65 36:69 37:72 38:74 39:72 40:70 41:67 42:64 43:61 44:57 45:55 46:52 47:49 48:46 49:43 50:41 51:38 52:35 53:32 54:30 55:27 56:24 57:24 58:26 59:30 60:34 61:38 62:41 63:45 64:49 65:52 66:56 67:59 68:63 69:67 70:70 71:72 72:70 73:67 74:64 75:61 76:57 77:54 78:51 79:48 80:45 81:42 82:39 83:36 84:35 85:35 86:35 87:36 88:37 89:38 90:40 91:41 92:43 93:44 94:46 95:47 96:49 97:51 98:52 99:53 100:55 101:57 102:58 103:56 104:54 105:52 106:52 107:51 108:50 109:50 110:50 111:50 112:50 113:50 114:51 115:50 116:50 117:50 118:51 119:51 120:52 121:53 122:55 123:56 124:59 125:61 126:62 127:64 128:66 129:65 130:62 131:59 132:56 133:53 134:50 135:47 136:45 137:43 138:41 139:39 140:36 141:33 142:29 143:26 144:23 145:22 146:23 147:24 148:24 149:26 150:28 151:31 152:33 153:36 154:39 155:42 156:45 157:48 158:50 159:54 160:57 161:60 162:62 163:65 164:67 165:68 166:66 167:63 168:60 169:57 170:54 171:51 172:48 173:44 174:40 175:37 176:33 177:30 178:27 179:23 180:20 181:18 182:19 183:22 184:25 185:28 186:31 187:34 188:38 189:41 190:44 191:47 192:49 193:52 194:55 195:58 196:61 197:64 198:67 199:70 200:73 
0 0 0 0 0 0 1 0.5293761898675637 0 0 1:73 2:72 3:70 4:68 5:65 6:62 7:59 8:56 9:54 10:50 11:47 12:45 13:42 14:40 15:37 16:35 17:32 18:29 19:26 20:24 21:23 22:25 23:29 24:32 25:35 26:39 27:43 28:46 29:49 30:52 31:55 32:58 33:61 34:65 35:69 36:72 37:70 38:68 39:66 40:63 41:60 42:57 43:54 44:51 45:49 46:46 47:43 48:41 49:39 50:37 51:36 52:36 53:37 54:37 55:39 56:40 57:41 58:42 59:44 60:46 61:47 62:49 63:50 64:52 65:53 66:53 67:53 68:55 69:57 70:55 71:52 72:51 73:51 74:50 75:50 76:50 77:51 78:51 79:50 80:50 81:50 82:50 83:50 84:50 85:51 86:52 87:52 88:52 89:53 90:54 91:56 92:58 93:60 94:62 95:64 96:66 97:67 98:65 99:61 100:58 101:55 102:52 103:50 104:48 105:46 106:44 107:43 108:41 109:39 110:35 111:31 112:28 113:25 114:23 115:22 116:23 117:24 118:26 119:30 120:33 121:36 122:39 123:42 124:45 125:49 126:52 127:56 128:60 129:63 130:65 131:67 132:67 133:66 134:62 135:58 136:53 137:50 138:46 139:42 140:38 141:34 142:30 143:25 144:21 145:18 146:17 147:18 148:21 149:24 150:28 151:31 152:35 153:39 154:42 155:45 156:48 157:51 158:54 159:58 160:61 161:65 162:68 163:71 164:72 165:74 166:73 167:70 168:66 169:62 170:59 171:56 172:53 173:50 174:46 175:43 176:39 177:35 178:32 179:29 180:26 181:23 182:20 183:17 184:18 185:21 186:25 187:28 188:31 189:34 190:37 191:40 192:43 193:46 194:50 195:53 196:56 197:59 198:62 199:65 200:68 
0 0 0 0 0 0 0.07603986059217852 0 0 0 1:73 2:71 3:68 4:65 5:62 6:60 7:57 8:54 9:51 10:48 11:46 12:43 13:40 14:38 15:35 16:32 17:29 18:27 19:25 20:26 21:29 22:33 23:36 24:39 25:42 26:45 27:48 28:51 29:54 30:57 31:60 32:63 33:67 34:69 35:68 36:66 37:64 38:61 39:58 40:56 41:53 42:50 43:48 44:45 45:43 46:40 47:38 48:35 49:34 50:33 51:33 52:34 53:35 54:36 55:37 56:38 57:39 58:41 59:42 60:43 61:45 62:47 63:48 64:50 65:52 66:53 67:53 68:55 69:57 70:58 71:59 72:57 73:54 74:51 75:50 76:49 77:49 78:49 79:49 80:50 81:49 82:48 83:48 84:48 85:48 86:48 87:49 88:49 89:49 90:50 91:50 92:51 93:52 94:54 95:56 96:57 97:59 98:60 99:62 100:64 101:62 102:59 103:56 104:53 105:50 106:48 107:46 108:44 109:42 110:41 111:39 112:37 113:34 114:30 115:27 116:25 117:23 118:21 119:21 120:21 121:24 122:26 123:29 124:32 125:36 126:38 127:42 128:46 129:49 130:52 131:56 132:59 133:62 134:65 135:67 136:68 137:66 138:63 139:59 140:55 141:52 142:48 143:44 144:40 145:36 146:32 147:28 148:24 149:21 150:21 151:23 152:26 153:30 154:33 155:37 156:40 157:43 158:46 159:49 160:52 161:56 162:59 163:62 164:65 165:68 166:71 167:72 168:72 169:69 170:65 171:62 172:59 173:55 174:52 175:49 176:45 177:42 178:39 179:36 180:32 181:29 182:26 183:23 184:22 185:25 186:28 187:31 188:34 189:37 190:40 191:43 192:46 193:49 194:52 195:55 196:58 197:61 198:64 199:67 200:70 
0 0 0 0 0 0 0.1274146816347979 0.1622565569381068 0 0 1:70 2:69 3:67 4:64 5:61 6:58 7:55 8:54 9:51 10:48 11:45 12:43 13:41 14:38 15:35 16:33 17:30 18:28 19:27 20:29 21:33 22:36 23:39 24:42 25:45 26:49 27:51 28:54 29:57 30:60 31:63 32:67 33:68 34:66 35:64 36:61 37:59 38:56 39:54 40:51 41:49 42:46 43:43 44:41 45:38 46:36 47:34 48:33 49:32 50:33 51:33 52:34 53:34 54:35 55:36 56:37 57:38 58:39 59:40 60:41 61:43 62:45 63:46 64:48 65:50 66:50 67:52 68:53 69:55 70:56 71:56 72:55 73:54 74:51 75:48 76:47 77:46 78:46 79:46 80:46 81:46 82:45 83:45 84:45 85:44 86:44 87:45 88:45 89:45 90:46 91:46 92:47 93:48 94:49 95:50 96:52 97:54 98:56 99:56 100:58 101:60 102:60 103:57 104:54 105:52 106:49 107:47 108:44 109:43 110:41 111:39 112:37 113:35 114:32 115:30 116:26 117:23 118:21 119:21 120:20 121:20 122:22 123:23 124:25 125:28 126:31 127:34 128:37 129:40 130:43 131:46 132:49 133:52 134:55 135:57 136:60 137:63 138:65 139:66 140:64 141:61 142:57 143:54 144:50 145:47 146:44 147:40 148:36 149:32 150:29 151:26 152:23 153:24 154:26 155:29 156:32 157:35 158:38 159:41 160:43 161:46 162:49 163:52 164:56 165:58 166:61 167:63 168:66 169:68 170:66 171:64 172:61 173:58 174:55 175:52 176:49 177:46 178:43 179:40 180:37 181:34 182:32 183:29 184:26 185:25 186:27 187:30 188:33 189:36 190:39 191:41 192:44 193:47 194:50 195:53 196:55 197:58 198:61 199:64 200:67 
0 0 0 0 0 0 0 0.1041590491572333 0 0 1:69 2:67 3:65 4:62 5:59 6:56 7:54 8:51 9:48 10:45 11:43 12:40 13:37 14:34 15:32 16:30 17:27 18:26 19:28 20:31 21:34 22:37 23:39 24:42 25:45 26:48 27:51 28:53 29:56 30:59 31:62 32:65 33:67 34:67 35:65 36:62 37:60 38:58 39:55 40:52 41:50 42:48 43:45 44:42 45:40 46:38 47:36 48:33 49:31 50:29 51:27 52:26 53:29 54:31 55:34 56:37 57:40 58:42 59:44 60:47 61:50 62:52 63:55 64:59 65:59 66:57 67:55 68:53 69:51 70:49 71:47 72:45 73:42 74:40 75:39 76:36 77:35 78:33 79:33 80:32 81:32 82:31 83:32 84:31 85:32 86:33 87:34 88:35 89:37 90:38 91:40 92:42 93:43 94:45 95:47 96:49 97:51 98:50 99:50 100:50 101:49 102:49 103:47 104:45 105:43 106:43 107:42 108:42 109:42 110:42 111:42 112:42 113:43 114:43 115:43 116:44 117:46 118:46 119:47 120:48 121:51 122:53 123:55 124:56 125:59 126:61 127:64 128:66 129:65 130:63 131:60 132:57 133:55 134:52 135:49 136:46 137:44 138:42 139:39 140:37 141:34 142:33 143:29 144:25 145:23 146:20 147:18 148:18 149:17 150:17 151:17 152:19 153:21 154:23 155:26 156:29 157:32 158:34 159:37 160:39 161:43 162:45 163:48 164:50 165:54 166:56 167:58 168:61 169:63 170:63 171:60 172:58 173:55 174:51 175:48 176:46 177:43 178:39 179:36 180:33 181:31 182:28 183:25 184:23 185:24 186:27 187:30 188:32 189:35 190:38 191:41 192:44 193:46 194:49 195:52 196:55 197:57 198:60 199:63 200:66 
0 0 0 0 0 0 0.4190055687772325 0 0 0 1:65 2:62 3:60 4:57 5:54 6:51 7:49 8:46 9:43 10:41 11:38 12:36 13:33 14:31 15:28 16:25 17:24 18:24 19:27 20:29 21:32 22:34 23:36 24:39 25:40 26:43 27:45 28:48 29:50 30:52 31:55 32:57 33:56 34:54 35:52 36:49 37:47 38:46 39:43 40:41 41:39 42:38 43:36 44:34 45:33 46:31 47:30 48:30 49:30 50:30 51:31 52:31 53:32 54:33 55:34 56:35 57:36 58:39 59:40 60:41 61:43 62:45 63:47 64:48 65:48 66:48 67:48 68:48 69:47 70:44 71:43 72:42 73:41 74:41 75:41 76:41 77:40 78:40 79:40 80:41 81:41 82:42 83:42 84:43 85:44 86:45 87:45 88:45 89:47 90:47 91:50 92:51 93:53 94:54 95:56 96:59 97:60 98:62 99:64 100:64 101:61 102:58 103:55 104:53 105:50 106:47 107:45 108:43 109:41 110:39 111:38 112:35 113:33 114:29 115:27 116:24 117:22 118:20 119:19 120:17 121:16 122:16 123:16 124:18 125:20 126:22 127:25 128:28 129:31 130:34 131:37 132:40 133:43 134:46 135:50 136:53 137:56 138:58 139:60 140:62 141:61 142:57 143:54 144:51 145:48 146:45 147:42 148:39 149:36 150:33 151:30 152:27 153:23 154:21 155:21 156:24 157:28 158:31 159:34 160:37 161:41 162:44 163:47 164:50 165:53 166:56 167:59 168:61 169:63 170:65 171:65 172:61 173:58 174:55 175:51 176:47 177:44 178:41 179:39 180:35 181:32 182:28 183:25 184:23 185:23 186:26 187:28 188:31 189:34 190:37 191:40 192:42 193:45 194:48 195:51 196:54 197:56 198:59 199:61 200:64 
0.5727344757427288 0.8911946415326727 0 0.3952056617617228 0.939466176124487 0 1 1 1 0.3859889428716727 1:61 2:60 3:58 4:56 5:54 6:51 7:49 8:46 9:43 10:41 11:39 12:36 13:34 14:32 15:29 16:26 17:26 18:26 19:29 20:32 21:35 22:38 23:41 24:43 25:46 26:49 27:52 28:55 29:57 30:59 31:61 32:61 33:59 34:58 35:55 36:52 37:49 38:46 39:43 40:41 41:38 42:35 43:33 44:30 45:27 46:27 47:28 48:31 49:34 50:37 51:39 52:42 53:45 54:47 55:51 56:54 57:55 58:59 59:61 60:63 61:62 62:59 63:57 64:55 65:52 66:49 67:47 68:44 69:40 70:39 71:36 72:33 73:31 74:29 75:27 76:27 77:28 78:31 79:33 80:35 81:38 82:40 83:42 84:44 85:47 86:49 87:51 88:52 89:50 90:48 91:46 92:43 93:41 94:39 95:37 96:35 97:33 98:31 99:30 100:30 101:29 102:29 103:29 104:29 105:28 106:29 107:29 108:30 109:31 110:33 111:36 112:37 113:39 114:40 115:42 116:45 117:45 118:49 119:51 120:51 121:51 122:51 123:50 124:49 125:48 126:47 127:45 128:42 129:40 130:39 131:39 132:38 133:38 134:37 135:37 136:36 137:37 138:36 139:36 140:37 141:38 142:38 143:39 144:39 145:38 146:38 147:39 148:39 149:40 150:42 151:43 152:45 153:46 154:47 155:49 156:51 157:53 158:55 159:57 160:56 161:54 162:50 163:48 164:45 165:43 166:41 167:39 168:37 169:35 170:34 171:32 172:30 173:29 174:27 175:25 176:22 177:20 178:18 179:16 180:16 181:15 182:16 183:17 184:18 185:21 186:23 187:25 188:28 189:30 190:32 191:35 192:37 193:40 194:42 195:45 196:47 197:49 198:52 199:55 200:57 
0 0 0 0 0 0 0.1225987199568316 0 0 0 1:57 2:55 3:53 4:51 5:48 6:46 7:44 8:41 9:39 10:37 11:34 12:32 13:30 14:27 15:25 16:24 17:21 18:19 19:18 20:21 21:24 22:26 23:28 24:30 25:33 26:34 27:37 28:39 29:41 30:44 31:47 32:49 33:52 34:54 35:56 36:55 37:53 38:51 39:49 40:46 41:45 42:42 43:40 44:38 45:36 46:34 47:32 48:30 49:28 50:26 51:24 52:22 53:21 54:21 55:23 56:25 57:27 58:30 59:32 60:35 61:37 62:39 63:42 64:44 65:46 66:49 67:51 68:51 69:49 70:47 71:46 72:44 73:41 74:40 75:38 76:36 77:34 78:33 79:31 80:29 81:28 82:27 83:27 84:26 85:26 86:26 87:27 88:28 89:28 90:29 91:30 92:31 93:33 94:35 95:36 96:38 97:39 98:41 99:41 100:41 101:40 102:39 103:37 104:37 105:36 106:36 107:36 108:35 109:35 110:36 111:36 112:36 113:36 114:36 115:37 116:38 117:38 118:38 119:38 120:38 121:40 122:41 123:43 124:44 125:47 126:49 127:49 128:48 129:45 130:43 131:41 132:38 133:36 134:34 135:32 136:31 137:29 138:27 139:25 140:22 141:20 142:17 143:15 144:14 145:14 146:13 147:13 148:13 149:15 150:16 151:18 152:20 153:22 154:25 155:27 156:30 157:32 158:34 159:37 160:39 161:41 162:44 163:46 164:48 165:51 166:52 167:54 168:55 169:53 170:51 171:49 172:46 173:43 174:40 175:38 176:36 177:33 178:31 179:29 180:26 181:24 182:21 183:18 184:17 185:19 186:21 187:24 188:26 189:28 190:31 191:33 192:35 193:38 194:40 195:42 196:45 197:47 198:49 199:52 200:54 
0.1540561967884176 0.3885941023263212 0.1784147706380018 0.5897386379452161 0 0.08320628376753735 0.7821665959970338 0.8144526783063135 0.5318301435005645 0.1251623062021038 1:65 2:63 3:61 4:58 5:55 6:53 7:50 8:47 9:45 10:42 11:39 12:36 13:34 14:32 15:29 16:28 17:26 18:25 19:27 20:30 21:33 22:35 23:37 24:40 25:42 26:44 27:46 28:49 29:51 30:54 31:56 32:59 33:57 34:55 35:53 36:51 37:49 38:47 39:45 40:44 41:41 42:40 43:38 44:36 45:34 46:33 47:32 48:32 49:32 50:32 51:32 52:33 53:34 54:35 55:35 56:36 57:37 58:39 59:41 60:42 61:44 62:46 63:48 64:49 65:51 66:51 67:51 68:51 69:51 70:50 71:48 72:47 73:45 74:44 75:43 76:43 77:42 78:43 79:43 80:43 81:43 82:43 83:42 84:42 85:43 86:44 87:44 88:44 89:45 90:46 91:46 92:47 93:49 94:51 95:52 96:54 97:56 98:57 99:60 100:61 101:61 102:60 103:57 104:55 105:52 106:49 107:47 108:45 109:42 110:40 111:39 112:37 113:36 114:34 115:31 116:28 117:25 118:23 119:20 120:18 121:17 122:15 123:15 124:15 125:16 126:18 127:20 128:23 129:27 130:29 131:33 132:36 133:40 134:43 135:47 136:51 137:54 138:57 139:60 140:62 141:64 142:64 143:61 144:58 145:55 146:51 147:47 148:44 149:40 150:36 151:33 152:30 153:26 154:23 155:21 156:22 157:25 158:28 159:32 160:35 161:38 162:41 163:45 164:48 165:50 166:54 167:57 168:59 169:62 170:64 171:66 172:64 173:60 174:57 175:54 176:50 177:47 178:43 179:41 180:37 181:34 182:31 183:28 184:25 185:23 186:25 187:28 188:30 189:33 190:36 191:38 192:41 193:44 194:47 195:49 196:52 197:55 198:58 199:61 200:64 
0.1207074430312446 0.1453567716849786 0.1073562078491804 0.2076514167100216 0 0 0 0 0 0.1912789660596242 1:72 2:71 3:68 4:65 5:62 6:59 7:56 8:53 9:49 10:46 11:43 12:40 13:37 14:35 15:32 16:28 17:25 18:22 19:19 20:17 21:16 22:19 23:22 24:26 25:30 26:33 27:36 28:39 29:43 30:47 31:50 32:54 33:57 34:60 35:63 36:67 37:71 38:73 39:74 40:72 41:70 42:67 43:64 44:60 45:57 46:54 47:51 48:48 49:45 50:42 51:39 52:36 53:33 54:30 55:28 56:28 57:31 58:34 59:37 60:41 61:44 62:47 63:50 64:53 65:56 66:60 67:65 68:68 69:71 70:74 71:76 72:76 73:74 74:70 75:67 76:64 77:61 78:58 79:55 80:51 81:48 82:45 83:43 84:41 85:40 86:41 87:42 88:43 89:44 90:45 91:46 92:47 93:48 94:50 95:52 96:53 97:54 98:56 99:57 100:55 101:53 102:52 103:52 104:51 105:51 106:51 107:51 108:51 109:51 110:52 111:52 112:52 113:53 114:53 115:53 116:54 117:55 118:56 119:56 120:58 121:59 122:62 123:64 124:66 125:68 126:71 127:72 128:72 129:70 130:66 131:63 132:60 133:57 134:54 135:51 136:48 137:45 138:43 139:41 140:39 141:36 142:33 143:30 144:26 145:25 146:25 147:25 148:25 149:27 150:29 151:32 152:34 153:37 154:39 155:42 156:45 157:47 158:50 159:52 160:55 161:58 162:60 163:61 164:62 165:62 166:61 167:58 168:54 169:51 170:48 171:45 172:42 173:38 174:35 175:31 176:28 177:25 178:21 179:18 180:13 181:14 182:17 183:19 184:22 185:25 186:28 187:31 188:35 189:38 190:41 191:44 192:47 193:50 194:53 195:57 196:60 197:63 198:66 199:69 200:71 
0.416754086575194 0.2231353902427904 0.2598002486231861 0.06886769214628186 0.4344464201519811 0.1776302664009348 0 0.1293820417043163 0.7218592268785129 0.07409008161574258 1:73 2:71 3:68 4:65 5:62 6:59 7:55 8:52 9:49 10:46 11:43 12:39 13:36 14:33 15:30 16:27 17:23 18:20 19:18 20:20 21:24 22:27 23:30 24:33 25:37 26:39 27:43 28:47 29:50 30:53 31:56 32:59 33:62 34:66 35:69 36:72 37:75 38:74 39:72 40:70 41:67 42:64 43:61 44:58 45:55 46:52 47:50 48:47 49:44 50:41 51:39 52:36 53:33 54:30 55:28 56:29 57:31 58:35 59:40 60:43 61:47 62:50 63:53 64:57 65:61 66:64 67:69 68:73 69:75 70:75 71:73 72:71 73:67 74:64 75:61 76:58 77:55 78:51 79:48 80:44 81:42 82:41 83:40 84:40 85:40 86:41 87:42 88:43 89:44 90:45 91:46 92:47 93:48 94:49 95:51 96:52 97:53 98:56 99:58 100:60 101:59 102:58 103:55 104:52 105:51 106:51 107:52 108:52 109:53 110:53 111:53 112:54 113:54 114:54 115:55 116:55 117:56 118:57 119:57 120:58 121:59 122:60 123:62 124:64 125:66 126:68 127:70 128:72 129:73 130:73 131:70 132:67 133:63 134:60 135:57 136:54 137:51 138:49 139:47 140:45 141:43 142:41 143:40 144:37 145:32 146:30 147:27 148:26 149:25 150:25 151:26 152:29 153:31 154:34 155:36 156:40 157:43 158:45 159:48 160:51 161:55 162:57 163:60 164:62 165:63 166:63 167:62 168:61 169:57 170:54 171:49 172:46 173:42 174:39 175:35 176:31 177:26 178:22 179:18 180:14 181:16 182:20 183:23 184:26 185:29 186:32 187:36 188:38 189:42 190:44 191:47 192:51 193:54 194:57 195:60 196:63 197:67 198:69 199:72 200:73 
0.399783064245376 0.3595911378623091 0.2819341193167805 0.4040340489037214 0.05297209744742011 0.1863996428626359 0 0.6605792870078639 0.3342143347762776 0.2514905038739282 1:75 2:74 3:72 4:70 5:67 6:63 7:60 8:58 9:55 10:52 11:49 12:46 13:43 14:41 15:39 16:35 17:32 18:30 19:28 20:29 21:31 22:35 23:38 24:41 25:45 26:48 27:52 28:55 29:57 30:61 31:65 32:70 33:72 34:73 35:72 36:69 37:66 38:64 39:61 40:58 41:55 42:52 43:49 44:46 45:44 46:41 47:39 48:39 49:39 50:40 51:40 52:41 53:42 54:43 55:45 56:45 57:47 58:47 59:49 60:51 61:52 62:53 63:53 64:56 65:59 66:60 67:61 68:61 69:59 70:57 71:54 72:52 73:51 74:51 75:52 76:53 77:54 78:54 79:54 80:53 81:54 82:54 83:55 84:55 85:56 86:56 87:57 88:57 89:59 90:60 91:62 92:64 93:66 94:68 95:70 96:72 97:72 98:71 99:67 100:62 101:59 102:56 103:54 104:51 105:48 106:46 107:44 108:43 109:41 110:39 111:36 112:33 113:31 114:27 115:25 116:25 117:25 118:25 119:27 120:31 121:33 122:36 123:39 124:43 125:46 126:49 127:52 128:55 129:59 130:61 131:64 132:64 133:64 134:63 135:61 136:58 137:54 138:50 139:46 140:42 141:38 142:34 143:30 144:25 145:21 146:17 147:15 148:18 149:22 150:25 151:28 152:31 153:35 154:38 155:41 156:44 157:47 158:50 159:54 160:57 161:60 162:64 163:67 164:69 165:71 166:73 167:72 168:69 169:66 170:63 171:60 172:56 173:53 174:50 175:47 176:44 177:40 178:37 179:34 180:31 181:28 182:24 183:21 184:19 185:22 186:25 187:28 188:32 189:35 190:38 191:41 192:44 193:48 194:50 195:53 196:56 197:59 198:63 199:66 200:70 
0 0 0 0.04062889522565537 0.09699377752411822 0 0 0 0.06466542402584409 0 1:73 2:72 3:69 4:66 5:63 6:60 7:58 8:54 9:51 10:49 11:46 12:44 13:42 14:39 15:36 16:33 17:30 18:29 19:29 20:32 21:35 22:38 23:42 24:44 25:48 26:50 27:53 28:56 29:59 30:64 31:68 32:70 33:71 34:69 35:67 36:64 37:61 38:58 39:56 40:54 41:51 42:48 43:45 44:43 45:40 46:39 47:38 48:39 49:39 50:40 51:41 52:41 53:43 54:44 55:45 56:46 57:47 58:48 59:50 60:52 61:53 62:54 63:55 64:57 65:60 66:62 67:62 68:62 69:62 70:59 71:56 72:53 73:52 74:52 75:52 76:53 77:54 78:54 79:53 80:53 81:53 82:53 83:53 84:53 85:54 86:55 87:55 88:55 89:55 90:56 91:58 92:60 93:61 94:63 95:65 96:66 97:68 98:69 99:67 100:64 101:60 102:57 103:54 104:52 105:48 106:46 107:44 108:42 109:41 110:39 111:38 112:35 113:32 114:29 115:27 116:25 117:24 118:24 119:24 120:26 121:29 122:31 123:34 124:36 125:40 126:44 127:47 128:50 129:53 130:56 131:59 132:62 133:64 134:66 135:65 136:65 137:63 138:59 139:54 140:50 141:46 142:42 143:39 144:34 145:30 146:26 147:21 148:18 149:20 150:23 151:26 152:29 153:32 154:36 155:39 156:42 157:45 158:49 159:51 160:55 161:59 162:62 163:64 164:67 165:69 166:71 167:72 168:71 169:68 170:64 171:61 172:58 173:55 174:51 175:48 176:45 177:42 178:39 179:36 180:33 181:29 182:26 183:23 184:22 185:25 186:28 187:31 188:34 189:38 190:41 191:44 192:47 193:50 194:53 195:56 196:60 197:63 198:66 199:69 200:71 
1 0.6935063799601613 1 1 1 0.9227048216156626 1 1 1 1 1:49 2:47 3:45 4:43 5:41 6:39 7:37 8:35 9:32 10:30 11:28 12:26 13:25 14:23 15:21 16:22 17:23 18:25 19:26 20:29 21:31 22:32 23:34 24:35 25:37 26:40 27:42 28:44 29:46 30:45 31:44 32:43 33:41 34:39 35:38 36:36 37:35 38:34 39:33 40:31 41:31 42:30 43:29 44:30 45:30 46:31 47:31 48:32 49:33 50:34 51:35 52:37 53:38 54:38 55:40 56:41 57:43 58:43 59:44 60:45 61:46 62:45 63:45 64:44 65:43 66:43 67:42 68:42 69:42 70:41 71:41 72:41 73:41 74:41 75:40 76:40 77:39 78:39 79:39 80:39 81:39 82:39 83:39 84:40 85:41 86:40 87:40 88:41 89:41 90:42 91:42 92:44 93:45 94:47 95:48 96:50 97:51 98:53 99:53 100:52 101:51 102:47 103:45 104:42 105:41 106:38 107:36 108:35 109:33 110:32 111:31 112:30 113:30 114:29 115:27 116:25 117:23 118:21 119:20 120:18 121:18 122:19 123:18 124:19 125:20 126:23 127:25 128:27 129:29 130:31 131:33 132:35 133:38 134:41 135:43 136:46 137:48 138:50 139:52 140:52 141:51 142:50 143:48 144:45 145:42 146:39 147:37 148:34 149:32 150:29 151:26 152:24 153:21 154:19 155:16 156:14 157:13 158:14 159:17 160:19 161:22 162:24 163:27 164:30 165:33 166:35 167:38 168:40 169:43 170:46 171:48 172:51 173:53 174:54 175:55 176:54 177:53 178:50 179:47 180:45 181:42 182:40 183:37 184:33 185:31 186:28 187:26 188:24 189:25 190:27 191:30 192:32 193:35 194:37 195:40 196:43 197:45 198:47 199:49 200:50 
0 0 0 0 0 0 0.4648719339914467 0 0 0 1:55 2:54 3:53 4:51 5:49 6:46 7:44 8:42 9:40 10:37 11:35 12:32 13:30 14:28 15:26 16:24 17:22 18:20 19:18 20:17 21:17 22:20 23:23 24:25 25:28 26:31 27:33 28:36 29:38 30:41 31:44 32:46 33:47 34:48 35:47 36:46 37:44 38:41 39:38 40:36 41:34 42:31 43:29 44:27 45:25 46:24 47:24 48:25 49:27 50:29 51:32 52:34 53:36 54:38 55:40 56:42 57:44 58:46 59:48 60:50 61:52 62:53 63:51 64:49 65:47 66:45 67:43 68:41 69:39 70:38 71:36 72:34 73:32 74:31 75:31 76:31 77:31 78:32 79:32 80:32 81:33 82:34 83:35 84:37 85:37 86:36 87:36 88:37 89:36 90:35 91:35 92:35 93:34 94:34 95:34 96:35 97:36 98:36 99:37 100:37 101:37 102:38 103:38 104:39 105:40 106:40 107:40 108:40 109:40 110:40 111:41 112:42 113:44 114:46 115:48 116:49 117:51 118:52 119:53 120:52 121:51 122:49 123:47 124:45 125:42 126:40 127:38 128:36 129:34 130:33 131:31 132:30 133:28 134:27 135:25 136:23 137:21 138:19 139:18 140:17 141:17 142:17 143:17 144:18 145:19 146:20 147:21 148:23 149:25 150:26 151:29 152:30 153:32 154:34 155:35 156:37 157:39 158:41 159:43 160:44 161:47 162:48 163:49 164:48 165:46 166:44 167:42 168:40 169:38 170:36 171:34 172:31 173:29 174:27 175:25 176:23 177:21 178:19 179:17 180:15 181:13 182:13 183:15 184:17 185:19 186:21 187:23 188:25 189:28 190:30 191:33 192:35 193:37 194:40 195:42 196:44 197:46 198:49 199:51 200:53 
0 0.1003251637722465 0 0 0 0 1 0.5572478781445068 0.786108890287091 0.2475886169720799 1:51 2:50 3:48 4:46 5:44 6:42 7:41 8:39 9:37 10:35 11:33 12:31 13:29 14:27 15:26 16:24 17:22 18:20 19:18 20:17 21:16 22:18 23:20 24:22 25:24 26:26 27:28 28:30 29:31 30:33 31:34 32:37 33:39 34:41 35:42 36:42 37:40 38:39 39:37 40:35 41:33 42:31 43:30 44:29 45:28 46:26 47:25 48:24 49:22 50:21 51:22 52:23 53:25 54:27 55:28 56:30 57:32 58:34 59:36 60:38 61:40 62:42 63:44 64:43 65:43 66:41 67:39 68:37 69:36 70:34 71:33 72:31 73:30 74:29 75:30 76:30 77:30 78:31 79:32 80:32 81:33 82:34 83:35 84:36 85:36 86:37 87:37 88:37 89:36 90:35 91:35 92:35 93:34 94:34 95:34 96:33 97:32 98:32 99:33 100:33 101:33 102:33 103:33 104:32 105:32 106:33 107:33 108:34 109:34 110:34 111:35 112:34 113:35 114:36 115:38 116:40 117:41 118:43 119:44 120:46 121:48 122:48 123:47 124:45 125:43 126:41 127:39 128:37 129:35 130:33 131:31 132:29 133:27 134:26 135:25 136:23 137:21 138:20 139:17 140:16 141:15 142:14 143:15 144:15 145:15 146:17 147:17 148:18 149:20 150:22 151:24 152:25 153:27 154:29 155:31 156:33 157:35 158:37 159:39 160:41 161:43 162:44 163:46 164:47 165:47 166:45 167:43 168:40 169:38 170:36 171:34 172:32 173:30 174:28 175:26 176:23 177:21 178:19 179:17 180:15 181:12 182:13 183:15 184:17 185:19 186:21 187:23 188:25 189:27 190:29 191:31 192:33 193:35 194:37 195:39 196:41 197:43 198:45 199:47 200:49 
0 0 0 0 0 0 1 0 0 0 1:57 2:56 3:54 4:52 5:49 6:47 7:44 8:42 9:39 10:37 11:34 12:32 13:30 14:27 15:25 16:22 17:20 18:18 19:16 20:15 21:18 22:20 23:22 24:25 25:27 26:30 27:32 28:35 29:38 30:40 31:42 32:45 33:47 34:50 35:53 36:54 37:53 38:51 39:49 40:47 41:44 42:42 43:40 44:38 45:35 46:33 47:31 48:29 49:27 50:25 51:23 52:21 53:20 54:22 55:25 56:26 57:29 58:31 59:34 60:37 61:39 62:41 63:44 64:47 65:50 66:52 67:52 68:50 69:49 70:46 71:44 72:43 73:40 74:39 75:36 76:34 77:33 78:31 79:30 80:29 81:29 82:30 83:29 84:30 85:31 86:32 87:33 88:33 89:35 90:36 91:38 92:39 93:40 94:41 95:41 96:40 97:39 98:39 99:39 100:38 101:38 102:39 103:39 104:40 105:40 106:41 107:42 108:42 109:42 110:42 111:43 112:43 113:43 114:43 115:43 116:43 117:45 118:47 119:48 120:50 121:52 122:54 123:55 124:54 125:53 126:51 127:48 128:46 129:43 130:41 131:38 132:36 133:35 134:33 135:31 136:31 137:28 138:25 139:23 140:21 141:19 142:18 143:18 144:19 145:19 146:19 147:20 148:22 149:23 150:25 151:27 152:29 153:31 154:33 155:36 156:37 157:40 158:42 159:44 160:46 161:48 162:50 163:51 164:52 165:52 166:50 167:47 168:45 169:42 170:40 171:37 172:35 173:33 174:30 175:28 176:25 177:22 178:20 179:17 180:15 181:12 182:13 183:15 184:18 185:20 186:23 187:25 188:28 189:30 190:33 191:35 192:37 193:40 194:42 195:45 196:47 197:50 198:52 199:55 200:57 
0.7199301228616627 1 0.4075623049611422 0.6931373539176567 0.2305427723467338 0.1542379498369964 1 1 1 0.3926705379669838 1:50 2:48 3:46 4:44 5:42 6:40 7:38 8:36 9:34 10:32 11:30 12:28 13:26 14:23 15:21 16:19 17:17 18:15 19:14 20:15 21:17 22:19 23:21 24:24 25:26 26:28 27:31 28:33 29:35 30:37 31:40 32:42 33:44 34:46 35:50 36:52 37:53 38:54 39:53 40:52 41:50 42:48 43:46 44:43 45:41 46:38 47:35 48:33 49:31 50:29 51:27 52:25 53:23 54:21 55:19 56:16 57:17 58:19 59:21 60:24 61:26 62:29 63:31 64:34 65:36 66:39 67:41 68:44 69:48 70:49 71:50 72:49 73:48 74:45 75:43 76:41 77:38 78:36 79:33 80:30 81:28 82:26 83:24 84:22 85:21 86:21 87:22 88:24 89:26 90:29 91:31 92:33 93:35 94:37 95:39 96:41 97:43 98:45 99:47 100:49 101:50 102:48 103:46 104:44 105:42 106:40 107:38 108:36 109:34 110:32 111:31 112:29 113:28 114:28 115:27 116:28 117:29 118:29 119:30 120:31 121:32 122:33 123:34 124:36 125:37 126:38 127:39 128:39 129:39 130:38 131:37 132:35 133:34 134:33 135:32 136:34 137:36 138:38 139:38 140:38 141:38 142:39 143:39 144:39 145:39 146:40 147:40 148:39 149:39 150:39 151:38 152:38 153:37 154:39 155:40 156:41 157:43 158:44 159:45 160:45 161:44 162:42 163:40 164:38 165:36 166:33 167:31 168:30 169:30 170:29 171:28 172:27 173:25 174:23 175:22 176:20 177:19 178:18 179:18 180:18 181:19 182:19 183:20 184:21 185:22 186:23 187:25 188:26 189:28 190:30 191:32 192:34 193:35 194:37 195:39 196:41 197:42 198:44 199:46 200:48 
0 0 0 0 0 0 1 0 0 0 1:56 2:55 3:53 4:51 5:49 6:46 7:43 8:41 9:39 10:37 11:35 12:32 13:30 14:28 15:25 16:23 17:21 18:19 19:17 20:15 21:16 22:19 23:21 24:23 25:26 26:29 27:32 28:34 29:37 30:40 31:42 32:44 33:47 34:49 35:51 36:50 37:49 38:48 39:45 40:43 41:40 42:38 43:36 44:33 45:31 46:29 47:27 48:25 49:23 50:21 51:20 52:20 53:23 54:25 55:27 56:29 57:32 58:34 59:36 60:39 61:41 62:44 63:47 64:49 65:50 66:51 67:49 68:46 69:44 70:42 71:40 72:37 73:35 74:33 75:31 76:30 77:28 78:28 79:28 80:28 81:29 82:30 83:31 84:32 85:33 86:34 87:35 88:37 89:38 90:39 91:40 92:40 93:40 94:40 95:38 96:37 97:36 98:36 99:37 100:38 101:39 102:39 103:39 104:40 105:41 106:41 107:41 108:41 109:41 110:41 111:41 112:40 113:39 114:39 115:40 116:41 117:42 118:43 119:45 120:46 121:47 122:47 123:46 124:44 125:42 126:40 127:38 128:35 129:34 130:32 131:31 132:30 133:29 134:29 135:27 136:25 137:23 138:21 139:20 140:19 141:18 142:18 143:18 144:19 145:19 146:21 147:22 148:23 149:24 150:27 151:28 152:30 153:31 154:33 155:36 156:37 157:39 158:41 159:43 160:45 161:47 162:49 163:50 164:50 165:48 166:46 167:44 168:42 169:40 170:37 171:35 172:33 173:31 174:29 175:26 176:24 177:22 178:20 179:17 180:15 181:13 182:13 183:15 184:17 185:19 186:21 187:23 188:26 189:28 190:30 191:32 192:35 193:38 194:40 195:42 196:44 197:47 198:49 199:52 200:54 
0 0 0 0 0 0 1 0 0 0 1:51 2:50 3:49 4:47 5:45 6:43 7:41 8:39 9:37 10:35 11:33 12:31 13:29 14:27 15:25 16:23 17:21 18:19 19:17 20:15 21:15 22:17 23:19 24:21 25:23 26:25 27:27 28:29 29:31 30:33 31:35 32:37 33:40 34:42 35:44 36:45 37:44 38:43 39:41 40:39 41:37 42:35 43:33 44:32 45:30 46:29 47:27 48:25 49:23 50:21 51:20 52:19 53:19 54:20 55:22 56:24 57:25 58:28 59:30 60:32 61:34 62:35 63:38 64:41 65:42 66:42 67:41 68:40 69:37 70:36 71:34 72:33 73:31 74:30 75:28 76:27 77:26 78:26 79:26 80:26 81:26 82:27 83:28 84:29 85:30 86:31 87:32 88:33 89:34 90:35 91:35 92:36 93:36 94:35 95:34 96:34 97:34 98:35 99:34 100:34 101:33 102:33 103:33 104:34 105:34 106:34 107:34 108:34 109:34 110:35 111:36 112:35 113:35 114:35 115:35 116:35 117:36 118:37 119:39 120:40 121:42 122:43 123:45 124:46 125:44 126:41 127:39 128:37 129:35 130:33 131:31 132:30 133:28 134:27 135:26 136:25 137:23 138:21 139:19 140:17 141:16 142:16 143:16 144:16 145:16 146:17 147:18 148:19 149:20 150:22 151:24 152:25 153:27 154:28 155:31 156:33 157:34 158:37 159:38 160:40 161:42 162:44 163:46 164:47 165:47 166:45 167:43 168:41 169:39 170:37 171:35 172:32 173:30 174:28 175:26 176:24 177:22 178:20 179:18 180:16 181:14 182:12 183:13 184:15 185:17 186:20 187:22 188:24 189:26 190:28 191:30 192:32 193:34 194:36 195:38 196:40 197:42 198:44 199:46 200:48 
0.2053427506013318 0.05087578455665571 0 0.5456651890762922 0 0 0.6289537130817467 0 0 0 1:50 2:48 3:46 4:44 5:42 6:40 7:38 8:36 9:34 10:32 11:30 12:28 13:26 14:24 15:22 16:20 17:18 18:16 19:15 20:14 21:16 22:18 23:21 24:23 25:25 26:27 27:29 28:31 29:33 30:35 31:38 32:39 33:42 34:44 35:45 36:45 37:43 38:42 39:40 40:38 41:36 42:34 43:32 44:30 45:28 46:27 47:25 48:24 49:22 50:20 51:18 52:18 53:19 54:21 55:23 56:25 57:27 58:30 59:32 60:34 61:35 62:38 63:40 64:42 65:44 66:43 67:41 68:39 69:36 70:34 71:33 72:31 73:29 74:28 75:26 76:25 77:25 78:25 79:25 80:25 81:25 82:26 83:27 84:28 85:29 86:31 87:32 88:33 89:34 90:36 91:37 92:37 93:37 94:37 95:37 96:36 97:35 98:34 99:33 100:32 101:32 102:33 103:34 104:34 105:34 106:35 107:35 108:35 109:35 110:35 111:36 112:35 113:35 114:35 115:34 116:34 117:34 118:35 119:36 120:37 121:38 122:39 123:40 124:41 125:41 126:39 127:37 128:35 129:32 130:30 131:29 132:29 133:28 134:27 135:25 136:24 137:22 138:20 139:18 140:17 141:16 142:16 143:16 144:16 145:16 146:17 147:17 148:19 149:20 150:22 151:23 152:25 153:26 154:28 155:30 156:32 157:34 158:35 159:37 160:39 161:41 162:43 163:44 164:45 165:45 166:43 167:41 168:39 169:37 170:35 171:33 172:31 173:29 174:27 175:25 176:23 177:21 178:19 179:17 180:15 181:13 182:13 183:14 184:16 185:18 186:20 187:22 188:24 189:26 190:28 191:30 192:32 193:34 194:36 195:38 196:40 197:42 198:44 199:47 200:49 
0 0 0 0 0 0 0.9153517983161824 0 0 0 1:53 2:51 3:49 4:47 5:45 6:43 7:41 8:39 9:36 10:34 11:32 12:30 13:28 14:25 15:23 16:21 17:19 18:17 19:15 20:13 21:14 22:16 23:19 24:21 25:23 26:25 27:28 28:31 29:33 30:35 31:37 32:40 33:41 34:45 35:48 36:49 37:49 38:48 39:46 40:43 41:41 42:38 43:36 44:34 45:32 46:30 47:28 48:26 49:24 50:22 51:20 52:19 53:18 54:19 55:21 56:23 57:25 58:27 59:30 60:33 61:36 62:38 63:41 64:43 65:46 66:48 67:49 68:48 69:46 70:44 71:42 72:40 73:37 74:35 75:33 76:31 77:29 78:27 79:26 80:26 81:26 82:26 83:26 84:27 85:28 86:29 87:30 88:31 89:33 90:34 91:35 92:37 93:38 94:38 95:39 96:39 97:38 98:36 99:36 100:34 101:33 102:33 103:35 104:37 105:39 106:41 107:41 108:41 109:40 110:40 111:41 112:42 113:42 114:41 115:40 116:40 117:39 118:39 119:40 120:41 121:42 122:43 123:44 124:45 125:44 126:42 127:40 128:38 129:36 130:34 131:32 132:30 133:30 134:30 135:29 136:28 137:25 138:23 139:22 140:20 141:19 142:19 143:19 144:19 145:19 146:19 147:20 148:21 149:22 150:23 151:25 152:26 153:28 154:30 155:31 156:33 157:35 158:37 159:38 160:40 161:42 162:43 163:45 164:46 165:44 166:42 167:40 168:38 169:36 170:33 171:32 172:30 173:28 174:26 175:24 176:22 177:19 178:17 179:15 180:13 181:11 182:13 183:15 184:17 185:19 186:21 187:23 188:25 189:28 190:30 191:32 192:34 193:36 194:38 195:41 196:43 197:45 198:47 199:49 200:52 
1 1 0.8465742208348523 1 1 0.5457808415656492 1 1 1 1 1:49 2:49 3:47 4:46 5:43 6:41 7:39 8:38 9:35 10:33 11:31 12:29 13:27 14:26 15:24 16:22 17:20 18:18 19:16 20:16 21:17 22:18 23:21 24:23 25:25 26:28 27:30 28:32 29:35 30:37 31:40 32:42 33:44 34:43 35:42 36:40 37:38 38:35 39:33 40:31 41:29 42:27 43:26 44:23 45:21 46:20 47:20 48:21 49:23 50:25 51:27 52:29 53:31 54:32 55:34 56:36 57:38 58:40 59:42 60:44 61:44 62:44 63:42 64:40 65:38 66:37 67:35 68:33 69:31 70:29 71:27 72:26 73:26 74:26 75:25 76:25 77:25 78:26 79:26 80:26 81:27 82:28 83:29 84:30 85:31 86:32 87:32 88:33 89:33 90:32 91:31 92:31 93:30 94:29 95:29 96:30 97:31 98:32 99:33 100:33 101:33 102:34 103:34 104:35 105:36 106:36 107:37 108:36 109:35 110:35 111:35 112:34 113:36 114:37 115:38 116:39 117:41 118:42 119:43 120:43 121:41 122:39 123:37 124:36 125:34 126:32 127:30 128:29 129:28 130:27 131:26 132:25 133:23 134:21 135:19 136:18 137:18 138:17 139:16 140:16 141:16 142:17 143:17 144:18 145:19 146:20 147:21 148:23 149:25 150:26 151:27 152:29 153:30 154:32 155:34 156:35 157:36 158:38 159:40 160:41 161:43 162:44 163:45 164:44 165:42 166:40 167:38 168:36 169:35 170:33 171:31 172:29 173:27 174:25 175:23 176:22 177:20 178:18 179:16 180:14 181:13 182:13 183:14 184:16 185:18 186:20 187:22 188:24 189:26 190:27 191:29 192:31 193:33 194:36 195:38 196:39 197:41 198:43 199:46 200:48 
0 0 0 0 0 0 1 0.1708793141760032 0 0 1:74 2:72 3:69 4:67 5:63 6:60 7:57 8:54 9:51 10:48 11:45 12:42 13:39 14:36 15:33 16:30 17:27 18:24 19:20 20:18 21:16 22:17 23:20 24:25 25:29 26:32 27:36 28:39 29:43 30:47 31:51 32:54 33:57 34:61 35:64 36:69 37:71 38:72 39:71 40:68 41:65 42:62 43:59 44:56 45:52 46:49 47:46 48:43 49:40 50:37 51:34 52:30 53:27 54:24 55:23 56:25 57:28 58:31 59:34 60:37 61:40 62:43 63:46 64:49 65:52 66:55 67:58 68:62 69:65 70:68 71:71 72:71 73:69 74:67 75:64 76:61 77:58 78:55 79:52 80:49 81:46 82:43 83:41 84:38 85:36 86:35 87:36 88:36 89:37 90:38 91:40 92:42 93:43 94:45 95:47 96:49 97:51 98:51 99:52 100:51 101:50 102:49 103:48 104:49 105:48 106:48 107:48 108:49 109:49 110:48 111:49 112:49 113:49 114:50 115:50 116:52 117:52 118:53 119:54 120:56 121:58 122:61 123:63 124:66 125:67 126:67 127:65 128:62 129:59 130:56 131:53 132:50 133:48 134:46 135:44 136:41 137:39 138:36 139:33 140:29 141:26 142:23 143:23 144:23 145:23 146:24 147:25 148:28 149:31 150:34 151:36 152:39 153:41 154:44 155:47 156:49 157:52 158:54 159:57 160:60 161:62 162:64 163:66 164:66 165:63 166:60 167:57 168:54 169:51 170:48 171:45 172:42 173:39 174:36 175:33 176:30 177:27 178:24 179:21 180:17 181:16 182:18 183:21 184:24 185:27 186:30 187:33 188:36 189:39 190:42 191:45 192:48 193:51 194:54 195:57 196:60 197:63 198:66 199:69 200:72 
0 0 0 0.1480042181465407 0.1342044500127562 0.06117174162599377 1 1 0.1358079068664834 0 1:72 2:70 3:67 4:64 5:61 6:58 7:55 8:52 9:49 10:46 11:43 12:40 13:37 14:34 15:31 16:28 17:25 18:23 19:19 20:17 21:14 22:15 23:18 24:22 25:26 26:29 27:32 28:36 29:39 30:43 31:46 32:50 33:53 34:56 35:59 36:62 37:66 38:70 39:71 40:70 41:68 42:65 43:62 44:59 45:56 46:53 47:50 48:47 49:44 50:41 51:38 52:35 53:32 54:29 55:26 56:24 57:24 58:27 59:30 60:33 61:36 62:40 63:43 64:46 65:49 66:52 67:56 68:59 69:63 70:66 71:70 72:72 73:72 74:71 75:68 76:65 77:62 78:59 79:56 80:53 81:49 82:46 83:43 84:40 85:38 86:37 87:37 88:37 89:38 90:39 91:41 92:42 93:43 94:44 95:46 96:47 97:49 98:50 99:50 100:49 101:48 102:48 103:47 104:47 105:47 106:47 107:47 108:47 109:48 110:49 111:49 112:50 113:50 114:50 115:51 116:53 117:53 118:54 119:56 120:58 121:60 122:63 123:65 124:67 125:70 126:71 127:71 128:69 129:66 130:63 131:60 132:57 133:54 134:51 135:49 136:47 137:45 138:42 139:40 140:37 141:33 142:29 143:26 144:24 145:24 146:25 147:25 148:26 149:28 150:31 151:34 152:36 153:38 154:41 155:44 156:47 157:50 158:52 159:55 160:57 161:60 162:63 163:64 164:64 165:62 166:58 167:55 168:52 169:50 170:47 171:44 172:40 173:37 174:34 175:30 176:27 177:24 178:20 179:17 180:14 181:14 182:17 183:20 184:23 185:26 186:29 187:32 188:35 189:38 190:41 191:44 192:47 193:50 194:53 195:56 196:59 197:62 198:65 199:68 200:71 
0 0 0 0 0 0 0.7839024421503853 0 0 0 1:67 2:65 3:63 4:60 5:58 6:55 7:52 8:50 9:47 10:44 11:42 12:39 13:36 14:34 15:31 16:28 17:26 18:23 19:21 20:22 21:26 22:28 23:31 24:34 25:37 26:39 27:43 28:45 29:48 30:50 31:53 32:56 33:58 34:61 35:64 36:65 37:63 38:61 39:58 40:56 41:53 42:50 43:48 44:45 45:43 46:41 47:38 48:36 49:33 50:30 51:28 52:25 53:23 54:23 55:25 56:29 57:32 58:34 59:38 60:40 61:44 62:46 63:49 64:53 65:56 66:59 67:62 68:61 69:59 70:56 71:54 72:51 73:48 74:46 75:43 76:41 77:38 78:36 79:33 80:31 81:30 82:30 83:30 84:30 85:31 86:31 87:31 88:33 89:34 90:35 91:36 92:37 93:38 94:40 95:42 96:44 97:45 98:46 99:47 100:49 101:51 102:52 103:51 104:49 105:47 106:46 107:45 108:44 109:44 110:45 111:44 112:44 113:44 114:44 115:44 116:44 117:43 118:43 119:44 120:43 121:43 122:44 123:45 124:45 125:46 126:46 127:47 128:48 129:49 130:50 131:49 132:46 133:44 134:41 135:40 136:38 137:36 138:36 139:34 140:32 141:30 142:28 143:25 144:23 145:22 146:21 147:21 148:21 149:21 150:22 151:23 152:25 153:27 154:29 155:32 156:34 157:36 158:38 159:41 160:44 161:46 162:48 163:51 164:53 165:56 166:58 167:60 168:60 169:59 170:56 171:54 172:51 173:48 174:46 175:43 176:40 177:37 178:34 179:32 180:29 181:26 182:22 183:20 184:21 185:23 186:26 187:28 188:31 189:34 190:36 191:39 192:42 193:44 194:47 195:50 196:52 197:55 198:58 199:60 200:63 
1 0.9557937584959538 1 1 1 1 1 1 1 1 1:53 2:52 3:50 4:48 5:46 6:45 7:43 8:41 9:39 10:37 11:36 12:34 13:32 14:30 15:28 16:27 17:25 18:23 19:21 20:19 21:18 22:17 23:19 24:21 25:23 26:25 27:27 28:29 29:31 30:33 31:34 32:36 33:39 34:41 35:43 36:44 37:46 38:48 39:51 40:51 41:49 42:47 43:45 44:44 45:42 46:40 47:38 48:36 49:35 50:33 51:31 52:30 53:28 54:26 55:25 56:22 57:21 58:19 59:18 60:17 61:18 62:19 63:21 64:22 65:25 66:28 67:30 68:32 69:33 70:36 71:38 72:41 73:42 74:44 75:47 76:47 77:45 78:44 79:42 80:40 81:38 82:37 83:35 84:33 85:31 86:29 87:27 88:25 89:23 90:22 91:22 92:22 93:21 94:21 95:21 96:21 97:21 98:21 99:22 100:23 101:24 102:25 103:25 104:26 105:27 106:28 107:29 108:30 109:31 110:32 111:32 112:31 113:31 114:31 115:31 116:31 117:31 118:31 119:31 120:31 121:31 122:31 123:31 124:30 125:31 126:31 127:31 128:32 129:32 130:32 131:33 132:33 133:34 134:34 135:34 136:35 137:34 138:32 139:30 140:30 141:29 142:27 143:26 144:25 145:23 146:20 147:18 148:17 149:17 150:16 151:16 152:16 153:17 154:18 155:18 156:19 157:21 158:22 159:24 160:24 161:26 162:29 163:30 164:31 165:33 166:35 167:37 168:38 169:38 170:38 171:36 172:34 173:32 174:30 175:28 176:26 177:24 178:23 179:20 180:18 181:17 182:18 183:19 184:21 185:23 186:25 187:27 188:28 189:30 190:32 191:34 192:36 193:37 194:39 195:41 196:43 197:45 198:46 199:48 200:50 
0 0.2155672865977548 0 0 0 0 1 1 0 0 1:53 2:52 3:50 4:48 5:46 6:44 7:42 8:40 9:38 10:36 11:34 12:32 13:30 14:29 15:27 16:25 17:23 18:21 19:19 20:17 21:16 22:17 23:18 24:21 25:23 26:26 27:28 28:29 29:31 30:33 31:35 32:38 33:40 34:42 35:44 36:46 37:49 38:51 39:51 40:50 41:48 42:46 43:44 44:42 45:40 46:38 47:36 48:34 49:32 50:30 51:28 52:27 53:25 54:23 55:21 56:19 57:18 58:17 59:18 60:20 61:22 62:24 63:27 64:29 65:30 66:33 67:36 68:38 69:41 70:44 71:46 72:46 73:44 74:42 75:40 76:38 77:37 78:35 79:32 80:30 81:27 82:25 83:23 84:23 85:22 86:22 87:21 88:22 89:23 90:22 91:23 92:24 93:25 94:26 95:27 96:28 97:29 98:30 99:31 100:32 101:33 102:33 103:33 104:33 105:33 106:33 107:33 108:33 109:33 110:32 111:32 112:32 113:33 114:33 115:32 116:32 117:32 118:33 119:33 120:33 121:33 122:34 123:34 124:34 125:34 126:35 127:35 128:36 129:34 130:32 131:31 132:30 133:28 134:27 135:26 136:24 137:21 138:18 139:17 140:17 141:16 142:16 143:16 144:16 145:17 146:18 147:19 148:20 149:22 150:24 151:26 152:27 153:29 154:30 155:32 156:34 157:36 158:37 159:39 160:41 161:43 162:45 163:46 164:47 165:48 166:47 167:45 168:43 169:41 170:39 171:37 172:35 173:33 174:31 175:29 176:27 177:25 178:24 179:21 180:19 181:17 182:16 183:17 184:19 185:21 186:23 187:25 188:27 189:29 190:30 191:32 192:34 193:36 194:38 195:40 196:42 197:44 198:46 199:48 200:50 
0 0 0 0 0 0 0.2955092863721894 0 0 0 1:55 2:54 3:51 4:49 5:47 6:45 7:43 8:41 9:39 10:37 11:34 12:32 13:30 14:28 15:26 16:23 17:20 18:18 19:16 20:16 21:16 22:18 23:21 24:23 25:26 26:28 27:31 28:34 29:37 30:39 31:43 32:46 33:48 34:51 35:53 36:53 37:52 38:49 39:47 40:45 41:42 42:40 43:38 44:35 45:32 46:30 47:28 48:25 49:22 50:20 51:18 52:18 53:19 54:21 55:23 56:25 57:27 58:29 59:32 60:34 61:36 62:38 63:40 64:42 65:44 66:46 67:48 68:50 69:49 70:47 71:45 72:43 73:41 74:38 75:36 76:34 77:32 78:30 79:28 80:26 81:25 82:24 83:23 84:23 85:24 86:24 87:24 88:26 89:27 90:28 91:29 92:30 93:32 94:34 95:36 96:36 97:36 98:35 99:34 100:35 101:35 102:35 103:35 104:35 105:35 106:34 107:34 108:35 109:35 110:35 111:34 112:34 113:34 114:33 115:34 116:34 117:35 118:36 119:36 120:36 121:36 122:37 123:37 124:38 125:39 126:39 127:38 128:37 129:36 130:34 131:33 132:33 133:31 134:31 135:30 136:30 137:28 138:26 139:24 140:22 141:20 142:18 143:16 144:15 145:15 146:16 147:17 148:18 149:19 150:20 151:22 152:24 153:26 154:28 155:29 156:31 157:33 158:35 159:37 160:39 161:41 162:43 163:45 164:47 165:48 166:50 167:49 168:47 169:45 170:43 171:41 172:39 173:37 174:34 175:32 176:30 177:28 178:26 179:24 180:22 181:20 182:18 183:16 184:16 185:17 186:19 187:22 188:24 189:26 190:28 191:31 192:33 193:35 194:37 195:40 196:42 197:44 198:46 199:49 200:51 
0 0 0 0 0 0 1 0 0 0 1:54 2:53 3:51 4:49 5:48 6:45 7:43 8:41 9:39 10:36 11:34 12:32 13:30 14:28 15:26 16:24 17:21 18:18 19:16 20:14 21:13 22:12 23:13 24:15 25:18 26:21 27:24 28:26 29:29 30:31 31:34 32:37 33:40 34:43 35:45 36:48 37:51 38:53 39:55 40:53 41:52 42:49 43:46 44:44 45:42 46:39 47:37 48:35 49:32 50:29 51:26 52:24 53:21 54:18 55:18 56:18 57:20 58:22 59:24 60:26 61:28 62:30 63:32 64:34 65:37 66:39 67:41 68:43 69:45 70:47 71:49 72:51 73:54 74:53 75:51 76:49 77:47 78:45 79:43 80:41 81:39 82:36 83:34 84:32 85:30 86:28 87:27 88:26 89:25 90:25 91:26 92:26 93:27 94:28 95:29 96:30 97:31 98:32 99:32 100:33 101:34 102:33 103:33 104:32 105:31 106:32 107:31 108:31 109:31 110:31 111:32 112:33 113:34 114:35 115:36 116:36 117:36 118:37 119:38 120:38 121:38 122:39 123:39 124:41 125:42 126:43 127:45 128:46 129:47 130:45 131:43 132:41 133:40 134:39 135:37 136:36 137:34 138:31 139:29 140:27 141:25 142:23 143:21 144:19 145:17 146:17 147:17 148:17 149:17 150:19 151:21 152:23 153:25 154:27 155:29 156:31 157:33 158:34 159:36 160:38 161:40 162:42 163:44 164:45 165:45 166:43 167:41 168:39 169:37 170:34 171:33 172:30 173:29 174:26 175:25 176:23 177:20 178:17 179:15 180:12 181:11 182:11 183:13 184:15 185:18 186:20 187:22 188:24 189:26 190:28 191:30 192:32 193:35 194:37 195:39 196:41 197:43 198:45 199:48 200:50 
0.6724562308242401 1 0.1699611229736637 0.3770278760325431 0.4611096891108964 0.04011859906431543 1 1 0.8708695444960528 0.5281500723376114 1:56 2:54 3:52 4:50 5:48 6:46 7:44 8:42 9:40 10:38 11:36 12:33 13:31 14:29 15:27 16:25 17:23 18:21 19:19 20:17 21:15 22:13 23:13 24:15 25:17 26:20 27:22 28:24 29:26 30:29 31:31 32:34 33:36 34:38 35:40 36:42 37:44 38:46 39:48 40:51 41:54 42:55 43:54 44:52 45:50 46:48 47:46 48:44 49:42 50:39 51:37 52:35 53:33 54:31 55:29 56:27 57:25 58:23 59:20 60:18 61:17 62:17 63:19 64:21 65:23 66:25 67:28 68:31 69:34 70:37 71:39 72:42 73:44 74:47 75:49 76:52 77:53 78:52 79:50 80:48 81:46 82:44 83:41 84:39 85:36 86:34 87:31 88:28 89:26 90:25 91:25 92:24 93:24 94:24 95:24 96:25 97:26 98:27 99:27 100:29 101:29 102:30 103:31 104:32 105:33 106:34 107:35 108:34 109:34 110:34 111:34 112:34 113:33 114:32 115:32 116:34 117:35 118:36 119:36 120:37 121:38 122:38 123:39 124:39 125:40 126:41 127:42 128:42 129:42 130:42 131:42 132:41 133:38 134:36 135:34 136:32 137:31 138:28 139:26 140:24 141:22 142:20 143:18 144:18 145:18 146:19 147:19 148:20 149:21 150:23 151:25 152:26 153:29 154:31 155:33 156:35 157:37 158:39 159:41 160:42 161:44 162:45 163:45 164:42 165:40 166:38 167:36 168:34 169:32 170:30 171:28 172:26 173:23 174:21 175:18 176:16 177:14 178:12 179:12 180:12 181:14 182:16 183:18 184:20 185:22 186:24 187:26 188:28 189:30 190:32 191:34 192:37 193:39 194:41 195:43 196:45 197:47 198:49 199:51 200:53 
0 0 0 0 0 0 1 1 0 0 1:57 2:55 3:53 4:51 5:49 6:47 7:45 8:43 9:40 10:38 11:36 12:34 13:32 14:30 15:27 16:25 17:23 18:21 19:19 20:17 21:15 22:16 23:17 24:20 25:22 26:25 27:27 28:29 29:31 30:33 31:35 32:37 33:40 34:42 35:44 36:46 37:48 38:50 39:54 40:55 41:54 42:52 43:50 44:48 45:46 46:43 47:41 48:39 49:38 50:35 51:33 52:31 53:29 54:27 55:25 56:23 57:21 58:19 59:18 60:19 61:20 62:22 63:25 64:29 65:31 66:34 67:36 68:39 69:41 70:44 71:47 72:49 73:52 74:52 75:50 76:48 77:46 78:44 79:41 80:39 81:37 82:35 83:33 84:29 85:28 86:26 87:24 88:24 89:24 90:23 91:23 92:24 93:24 94:25 95:25 96:26 97:27 98:27 99:29 100:29 101:31 102:32 103:33 104:34 105:36 106:37 107:39 108:41 109:43 110:42 111:41 112:39 113:37 114:34 115:34 116:34 117:33 118:32 119:32 120:33 121:35 122:36 123:35 124:36 125:37 126:38 127:38 128:38 129:40 130:41 131:41 132:41 133:42 134:42 135:41 136:38 137:36 138:35 139:33 140:30 141:28 142:25 143:23 144:21 145:19 146:18 147:17 148:18 149:19 150:19 151:19 152:22 153:24 154:26 155:28 156:29 157:31 158:34 159:37 160:39 161:40 162:42 163:44 164:46 165:46 166:45 167:43 168:41 169:38 170:36 171:33 172:31 173:29 174:27 175:25 176:22 177:19 178:16 179:14 180:14 181:14 182:16 183:18 184:20 185:22 186:25 187:26 188:28 189:31 190:33 191:35 192:37 193:39 194:41 195:44 196:46 197:48 198:50 199:52 200:54 
0 0 0 0 0 0 1 0.7325632820994675 0 0 1:57 2:55 3:53 4:50 5:49 6:47 7:44 8:42 9:40 10:38 11:36 12:33 13:31 14:29 15:27 16:25 17:23 18:21 19:19 20:18 21:19 22:21 23:23 24:25 25:27 26:29 27:31 28:33 29:36 30:38 31:40 32:42 33:44 34:46 35:48 36:50 37:52 38:55 39:53 40:51 41:49 42:47 43:45 44:43 45:41 46:39 47:37 48:35 49:33 50:31 51:29 52:27 53:25 54:23 55:21 56:20 57:19 58:20 59:23 60:25 61:28 62:30 63:33 64:35 65:38 66:40 67:42 68:45 69:47 70:50 71:51 72:50 73:48 74:46 75:44 76:42 77:40 78:38 79:36 80:34 81:32 82:30 83:28 84:25 85:24 86:24 87:23 88:23 89:24 90:24 91:24 92:24 93:25 94:26 95:26 96:27 97:28 98:28 99:29 100:31 101:32 102:34 103:35 104:36 105:38 106:39 107:41 108:42 109:43 110:43 111:41 112:38 113:36 114:34 115:33 116:33 117:32 118:32 119:32 120:33 121:34 122:33 123:34 124:34 125:35 126:35 127:35 128:36 129:37 130:38 131:38 132:39 133:40 134:40 135:41 136:38 137:36 138:33 139:32 140:30 141:28 142:26 143:23 144:21 145:19 146:18 147:17 148:17 149:17 150:18 151:19 152:20 153:21 154:23 155:26 156:29 157:31 158:33 159:35 160:37 161:39 162:41 163:43 164:45 165:48 166:49 167:49 168:47 169:45 170:42 171:40 172:38 173:36 174:32 175:30 176:27 177:24 178:22 179:19 180:17 181:16 182:17 183:19 184:21 185:23 186:25 187:27 188:29 189:31 190:33 191:35 192:38 193:41 194:43 195:44 196:46 197:48 198:50 199:52 200:54 
0 0.03202630917892909 0 0 0.2407585288842152 0 0.1919680278096066 0.06457086808406776 0 0.01582891296918604 1:64 2:62 3:60 4:57 5:55 6:52 7:50 8:47 9:45 10:42 11:40 12:37 13:35 14:32 15:30 16:27 17:25 18:23 19:24 20:26 21:29 22:31 23:34 24:37 25:40 26:42 27:45 28:47 29:50 30:52 31:55 32:58 33:61 34:63 35:63 36:60 37:58 38:56 39:53 40:51 41:49 42:46 43:43 44:41 45:39 46:36 47:34 48:31 49:29 50:26 51:24 52:24 53:27 54:29 55:32 56:35 57:38 58:41 59:43 60:46 61:49 62:52 63:55 64:58 65:61 66:63 67:63 68:60 69:58 70:55 71:53 72:51 73:49 74:46 75:44 76:41 77:39 78:37 79:34 80:32 81:30 82:27 83:25 84:25 85:26 86:28 87:31 88:34 89:37 90:40 91:43 92:46 93:48 94:52 95:54 96:54 97:52 98:50 99:48 100:46 101:44 102:40 103:38 104:36 105:34 106:32 107:30 108:29 109:29 110:29 111:29 112:29 113:30 114:31 115:31 116:32 117:33 118:34 119:36 120:38 121:40 122:42 123:44 124:46 125:47 126:47 127:49 128:51 129:51 130:49 131:48 132:46 133:43 134:41 135:41 136:40 137:40 138:40 139:40 140:40 141:39 142:39 143:40 144:41 145:41 146:41 147:42 148:42 149:42 150:43 151:45 152:47 153:48 154:50 155:51 156:53 157:55 158:57 159:58 160:57 161:54 162:52 163:49 164:46 165:43 166:41 167:38 168:37 169:35 170:33 171:31 172:29 173:26 174:24 175:21 176:19 177:16 178:15 179:15 180:16 181:17 182:18 183:20 184:22 185:24 186:27 187:29 188:32 189:34 190:36 191:38 192:41 193:43 194:46 195:48 196:51 197:53 198:56 199:58 200:61 
-0 0 0 0 1 0 0 0 0 0 1:65 2:65 3:63 4:61 5:60 6:58 7:56 8:54 9:53 10:51 11:49 12:48 13:46 14:44 15:42 16:41 17:39 18:37 19:36 20:34 21:32 22:30 23:29 24:27 25:25 26:24 27:22 28:21 29:20 30:21 31:21 32:21 33:21 34:20 35:19 36:18 37:17 38:17 39:17 40:19 41:20 42:22 43:23 44:23 45:24 46:24 47:25 48:25 49:27 50:29 51:30 52:32 53:33 54:34 55:35 56:37 57:37 58:38 59:39 60:40 61:41 62:42 63:43 64:44 65:45 66:45 67:46 68:47 69:48 70:49 71:48 72:49 73:48 74:49 75:49 76:47 77:45 78:43 79:42 80:41 81:42 82:43 83:43 84:44 85:45 86:46 87:44 88:42 89:41 90:39 91:39 92:39 93:40 94:38 95:37 96:36 97:34 98:33 99:31 100:30 101:29 102:28 103:28 104:26 105:25 106:24 107:23 108:21 109:21 110:21 111:20 112:20 113:21 114:21 115:21 116:22 117:22 118:23 119:25 120:26 121:27 122:28 123:29 124:31 125:31 126:33 127:35 128:37 129:37 130:39 131:41 132:42 133:43 134:45 135:47 136:48 137:50 138:51 139:52 140:53 141:55 142:56 143:56 144:57 145:58 146:57 147:54 148:52 149:51 150:49 151:47 152:46 153:44 154:42 155:40 156:39 157:37 158:35 159:34 160:32 161:29 162:27 163:26 164:24 165:22 166:21 167:19 168:16 169:14 170:13 171:14 172:16 173:18 174:19 175:21 176:23 177:25 178:26 179:28 180:30 181:31 182:33 183:35 184:37 185:38 186:40 187:42 188:43 189:45 190:47 191:49 192:50 193:52 194:54 195:55 196:57 197:59 198:61 199:62 200:65 
-0 0 0 0 0.5538441970959588 0 0 0 0 0 1:66 2:66 3:64 4:62 5:61 6:59 7:57 8:56 9:54 10:52 11:50 12:49 13:47 14:45 15:44 16:42 17:40 18:39 19:37 20:35 21:33 22:32 23:30 24:28 25:27 26:25 27:23 28:21 29:20 30:20 31:21 32:20 33:20 34:19 35:19 36:18 37:17 38:16 39:17 40:18 41:20 42:21 43:21 44:23 45:23 46:23 47:25 48:27 49:29 50:29 51:31 52:32 53:33 54:35 55:36 56:37 57:38 58:39 59:40 60:41 61:42 62:43 63:44 64:44 65:45 66:46 67:46 68:47 69:49 70:48 71:49 72:48 73:48 74:48 75:47 76:47 77:45 78:44 79:43 80:42 81:42 82:43 83:43 84:44 85:44 86:44 87:43 88:41 89:39 90:39 91:39 92:39 93:39 94:38 95:36 96:35 97:34 98:32 99:29 100:27 101:26 102:25 103:25 104:23 105:22 106:21 107:20 108:19 109:18 110:18 111:19 112:19 113:20 114:20 115:20 116:20 117:22 118:22 119:24 120:25 121:26 122:28 123:29 124:30 125:32 126:33 127:35 128:36 129:38 130:40 131:41 132:42 133:44 134:46 135:47 136:49 137:50 138:51 139:52 140:54 141:55 142:56 143:57 144:58 145:57 146:56 147:55 148:53 149:51 150:49 151:48 152:46 153:44 154:43 155:41 156:39 157:38 158:36 159:34 160:31 161:30 162:28 163:26 164:25 165:23 166:21 167:19 168:17 169:15 170:14 171:15 172:16 173:18 174:20 175:21 176:23 177:25 178:27 179:28 180:30 181:32 182:33 183:35 184:37 185:39 186:40 187:42 188:44 189:45 190:47 191:49 192:50 193:52 194:54 195:56 196:57 197:60 198:62 199:63 200:65 
-0 0 0 0 1 0 0 0 0 0 1:64 2:63 3:61 4:60 5:58 6:56 7:55 8:53 9:51 10:50 11:48 12:46 13:45 14:43 15:41 16:40 17:38 18:36 19:35 20:33 21:31 22:30 23:28 24:26 25:25 26:24 27:22 28:22 29:23 30:24 31:23 32:23 33:23 34:21 35:21 36:20 37:19 38:19 39:20 40:21 41:23 42:24 43:25 44:25 45:26 46:26 47:26 48:28 49:29 50:31 51:32 52:32 53:34 54:35 55:36 56:38 57:38 58:39 59:41 60:41 61:42 62:43 63:43 64:43 65:44 66:45 67:46 68:47 69:47 70:48 71:48 72:48 73:48 74:48 75:47 76:48 77:48 78:46 79:43 80:42 81:41 82:40 83:41 84:42 85:44 86:45 87:45 88:45 89:44 90:42 91:41 92:39 93:37 94:36 95:36 96:35 97:34 98:33 99:31 100:30 101:28 102:27 103:27 104:27 105:27 106:26 107:24 108:23 109:22 110:21 111:20 112:20 113:20 114:19 115:20 116:20 117:21 118:22 119:23 120:24 121:25 122:27 123:28 124:29 125:31 126:33 127:33 128:36 129:38 130:38 131:40 132:42 133:43 134:45 135:47 136:48 137:50 138:52 139:52 140:53 141:55 142:55 143:56 144:56 145:56 146:57 147:55 148:53 149:52 150:50 151:47 152:46 153:44 154:42 155:41 156:38 157:36 158:34 159:33 160:30 161:29 162:26 163:24 164:22 165:20 166:17 167:15 168:14 169:14 170:16 171:17 172:19 173:21 174:22 175:24 176:25 177:26 178:28 179:29 180:31 181:33 182:34 183:36 184:38 185:39 186:41 187:43 188:44 189:46 190:48 191:49 192:51 193:53 194:54 195:56 196:58 197:59 198:61 199:63 200:64 
-0 0 0 0 1 0 0 0 0.5664053013463662 0 1:64 2:63 3:61 4:60 5:58 6:57 7:55 8:53 9:52 10:50 11:49 12:47 13:45 14:44 15:42 16:41 17:39 18:38 19:36 20:34 21:33 22:32 23:30 24:29 25:27 26:28 27:27 28:26 29:25 30:24 31:22 32:21 33:21 34:22 35:23 36:22 37:21 38:21 39:21 40:21 41:22 42:24 43:24 44:25 45:26 46:26 47:27 48:27 49:29 50:30 51:31 52:32 53:32 54:33 55:34 56:35 57:36 58:37 59:37 60:38 61:38 62:40 63:40 64:42 65:42 66:43 67:45 68:45 69:46 70:46 71:47 72:47 73:47 74:47 75:46 76:47 77:47 78:47 79:47 80:47 81:46 82:44 83:43 84:43 85:42 86:43 87:43 88:42 89:42 90:42 91:42 92:40 93:39 94:38 95:38 96:36 97:35 98:34 99:33 100:32 101:30 102:28 103:27 104:26 105:25 106:24 107:23 108:23 109:21 110:20 111:19 112:20 113:19 114:20 115:20 116:20 117:21 118:21 119:22 120:22 121:24 122:25 123:26 124:28 125:29 126:30 127:32 128:33 129:34 130:35 131:37 132:39 133:40 134:42 135:43 136:44 137:45 138:47 139:48 140:50 141:51 142:52 143:54 144:55 145:55 146:56 147:57 148:57 149:56 150:55 151:54 152:52 153:51 154:49 155:47 156:45 157:43 158:42 159:40 160:38 161:37 162:34 163:33 164:31 165:30 166:28 167:25 168:24 169:22 170:20 171:19 172:20 173:21 174:22 175:24 176:25 177:27 178:28 179:30 180:32 181:33 182:35 183:36 184:38 185:40 186:41 187:43 188:44 189:46 190:47 191:49 192:51 193:52 194:54 195:55 196:57 197:59 198:60 199:62 200:63 
-0 0 0 0 1 0 0 0 0 0 1:47 2:46 3:45 4:44 5:42 6:41 7:40 8:38 9:37 10:36 11:34 12:32 13:31 14:30 15:28 16:27 17:26 18:24 19:23 20:22 21:21 22:19 23:18 24:17 25:15 26:14 27:13 28:12 29:10 30:9 31:8 32:8 33:8 34:10 35:11 36:13 37:15 38:16 39:18 40:20 41:22 42:23 43:25 44:26 45:28 46:30 47:31 48:33 49:35 50:37 51:38 52:40 53:42 54:43 55:44 56:45 57:48 58:48 59:49 60:51 61:51 62:50 63:50 64:48 65:47 66:45 67:44 68:43 69:40 70:39 71:37 72:36 73:34 74:32 75:31 76:29 77:27 78:25 79:23 80:21 81:20 82:19 83:17 84:15 85:14 86:12 87:11 88:11 89:10 90:10 91:12 92:13 93:14 94:16 95:17 96:18 97:20 98:20 99:20 100:20 101:20 102:20 103:19 104:19 105:19 106:19 107:19 108:21 109:23 110:24 111:25 112:26 113:27 114:28 115:29 116:29 117:29 118:30 119:31 120:31 121:33 122:33 123:33 124:33 125:34 126:34 127:32 128:32 129:33 130:33 131:34 132:33 133:34 134:33 135:34 136:34 137:35 138:36 139:37 140:37 141:37 142:37 143:36 144:36 145:36 146:35 147:34 148:33 149:32 150:31 151:29 152:27 153:27 154:26 155:26 156:25 157:25 158:23 159:23 160:22 161:21 162:20 163:20 164:18 165:18 166:17 167:17 168:17 169:17 170:17 171:17 172:17 173:17 174:18 175:19 176:19 177:20 178:21 179:22 180:23 181:24 182:25 183:26 184:27 185:28 186:30 187:31 188:32 189:34 190:35 191:36 192:38 193:39 194:40 195:41 196:43 197:44 198:45 199:46 200:46 
-0.2558728518150063 0 0 0 1 0 0 0 0.8965817181512475 0.1710213550211098 1:47 2:46 3:47 4:46 5:44 6:44 7:42 8:40 9:39 10:38 11:36 12:34 13:33 14:31 15:30 16:28 17:26 18:25 19:24 20:22 21:21 22:20 23:18 24:17 25:16 26:14 27:13 28:12 29:10 30:9 31:9 32:9 33:10 34:12 35:13 36:15 37:17 38:18 39:20 40:21 41:23 42:25 43:26 44:28 45:29 46:31 47:32 48:33 49:36 50:37 51:38 52:41 53:41 54:43 55:45 56:46 57:47 58:49 59:50 60:51 61:52 62:52 63:52 64:51 65:50 66:49 67:47 68:46 69:44 70:42 71:41 72:39 73:38 74:37 75:35 76:33 77:32 78:29 79:28 80:27 81:25 82:23 83:22 84:21 85:19 86:17 87:16 88:14 89:13 90:12 91:11 92:10 93:10 94:12 95:13 96:14 97:16 98:18 99:19 100:20 101:21 102:21 103:22 104:22 105:22 106:21 107:22 108:21 109:21 110:22 111:23 112:24 113:26 114:27 115:28 116:29 117:30 118:30 119:31 120:31 121:32 122:33 123:33 124:33 125:34 126:34 127:34 128:33 129:33 130:32 131:33 132:33 133:34 134:33 135:33 136:34 137:34 138:35 139:36 140:35 141:37 142:37 143:37 144:37 145:36 146:36 147:35 148:35 149:34 150:34 151:34 152:34 153:34 154:33 155:31 156:30 157:29 158:27 159:26 160:25 161:24 162:24 163:24 164:23 165:22 166:21 167:20 168:19 169:18 170:18 171:17 172:17 173:18 174:17 175:17 176:18 177:18 178:19 179:20 180:21 181:22 182:23 183:24 184:25 185:26 186:27 187:29 188:30 189:31 190:33 191:34 192:35 193:37 194:38 195:39 196:41 197:42 198:43 199:44 200:46 
-0 0 0 0 1 0 0 0 0 0 1:46 2:45 3:44 4:42 5:41 6:40 7:38 8:37 9:36 10:34 11:33 12:32 13:30 14:29 15:28 16:26 17:25 18:24 19:22 20:21 21:20 22:18 23:17 24:16 25:14 26:13 27:12 28:10 29:9 30:8 31:9 32:9 33:10 34:12 35:13 36:15 37:17 38:18 39:19 40:21 41:22 42:24 43:26 44:27 45:28 46:30 47:32 48:33 49:35 50:37 51:38 52:40 53:41 54:43 55:45 56:47 57:47 58:49 59:49 60:50 61:50 62:48 63:47 64:46 65:44 66:43 67:41 68:40 69:38 70:37 71:35 72:33 73:32 74:30 75:29 76:28 77:26 78:24 79:23 80:21 81:20 82:19 83:17 84:16 85:15 86:13 87:12 88:11 89:11 90:11 91:11 92:13 93:14 94:15 95:17 96:18 97:19 98:20 99:21 100:21 101:21 102:21 103:21 104:20 105:20 106:21 107:22 108:23 109:25 110:26 111:27 112:28 113:29 114:29 115:30 116:31 117:31 118:31 119:32 120:32 121:33 122:33 123:33 124:33 125:33 126:33 127:33 128:33 129:33 130:33 131:32 132:32 133:34 134:34 135:35 136:36 137:36 138:37 139:37 140:37 141:36 142:36 143:35 144:34 145:33 146:31 147:30 148:29 149:28 150:27 151:26 152:25 153:25 154:24 155:23 156:22 157:22 158:20 159:20 160:19 161:18 162:18 163:18 164:17 165:17 166:17 167:16 168:16 169:17 170:16 171:17 172:18 173:18 174:19 175:20 176:21 177:22 178:23 179:24 180:25 181:26 182:27 183:28 184:29 185:31 186:32 187:33 188:34 189:35 190:36 191:38 192:39 193:40 194:41 195:42 196:43 197:45 198:45 199:46 200:46 
-0 1 0 0 0.2897110129938996 0 0 0 0 0 1:53 2:53 3:51 4:50 5:48 6:47 7:45 8:44 9:42 10:41 11:39 12:38 13:36 14:35 15:33 16:31 17:30 18:28 19:27 20:25 21:24 22:22 23:20 24:18 25:18 26:15 27:14 28:13 29:13 30:13 31:15 32:16 33:17 34:16 35:15 36:15 37:14 38:13 39:13 40:13 41:13 42:14 43:15 44:17 45:19 46:20 47:20 48:20 49:20 50:20 51:20 52:20 53:20 54:20 55:22 56:24 57:25 58:26 59:27 60:28 61:29 62:30 63:31 64:33 65:34 66:35 67:36 68:37 69:38 70:39 71:38 72:39 73:40 74:39 75:39 76:40 77:39 78:37 79:36 80:34 81:33 82:31 83:30 84:28 85:27 86:25 87:23 88:22 89:20 90:19 91:19 92:20 93:21 94:23 95:24 96:26 97:27 98:29 99:30 100:29 101:28 102:27 103:27 104:27 105:27 106:26 107:25 108:24 109:23 110:22 111:21 112:21 113:20 114:20 115:20 116:18 117:17 118:15 119:14 120:13 121:12 122:11 123:11 124:13 125:13 126:14 127:15 128:16 129:17 130:19 131:20 132:21 133:23 134:24 135:26 136:27 137:29 138:30 139:31 140:33 141:34 142:35 143:38 144:38 145:40 146:42 147:43 148:45 149:46 150:48 151:49 152:51 153:52 154:53 155:51 156:50 157:48 158:47 159:44 160:42 161:41 162:39 163:38 164:36 165:35 166:33 167:32 168:30 169:29 170:27 171:26 172:24 173:22 174:20 175:18 176:18 177:17 178:18 179:19 180:21 181:22 182:24 183:25 184:27 185:28 186:30 187:31 188:33 189:35 190:36 191:38 192:39 193:41 194:42 195:44 196:45 197:47 198:48 199:50 200:51 
-0 1 0.004277323948929213 0 0 0.1261922974160566 0 0 0 0 1:72 2:71 3:69 4:67 5:65 6:63 7:61 8:59 9:57 10:55 11:53 12:50 13:48 14:46 15:44 16:42 17:40 18:38 19:36 20:34 21:31 22:29 23:27 24:25 25:23 26:21 27:19 28:17 29:15 30:14 31:15 32:16 33:18 34:20 35:21 36:23 37:24 38:25 39:24 40:24 41:23 42:23 43:23 44:25 45:27 46:29 47:31 48:33 49:34 50:34 51:33 52:34 53:34 54:34 55:34 56:35 57:36 58:37 59:38 60:39 61:40 62:41 63:43 64:44 65:46 66:48 67:50 68:51 69:53 70:54 71:55 72:55 73:56 74:56 75:54 76:52 77:50 78:48 79:46 80:44 81:42 82:40 83:38 84:35 85:34 86:34 87:36 88:38 89:40 90:42 91:44 92:45 93:45 94:45 95:48 96:49 97:50 98:49 99:47 100:45 101:43 102:41 103:40 104:38 105:36 106:35 107:34 108:32 109:31 110:31 111:29 112:27 113:26 114:25 115:24 116:22 117:21 118:21 119:20 120:20 121:20 122:20 123:20 124:21 125:22 126:23 127:24 128:26 129:28 130:30 131:31 132:33 133:35 134:37 135:39 136:40 137:42 138:45 139:47 140:48 141:51 142:52 143:54 144:56 145:58 146:60 147:63 148:65 149:67 150:68 151:70 152:69 153:67 154:65 155:62 156:60 157:57 158:55 159:53 160:51 161:49 162:47 163:45 164:43 165:41 166:38 167:36 168:33 169:31 170:29 171:27 172:25 173:23 174:20 175:18 176:18 177:20 178:22 179:24 180:26 181:28 182:30 183:33 184:35 185:37 186:39 187:41 188:43 189:45 190:47 191:49 192:52 193:54 194:56 195:58 196:60 197:62 198:65 199:67 200:69 
-0 1 0 0 0 0 0 0.1550809222123717 0 0 1:44 2:43 3:42 4:41 5:39 6:38 7:37 8:35 9:34 10:33 11:31 12:30 13:29 14:27 15:26 16:25 17:23 18:22 19:21 20:19 21:18 22:17 23:15 24:14 25:13 26:13 27:13 28:14 29:16 30:18 31:19 32:21 33:22 34:24 35:25 36:27 37:29 38:30 39:32 40:34 41:35 42:38 43:39 44:40 45:41 46:41 47:41 48:39 49:37 50:36 51:34 52:32 53:31 54:29 55:28 56:26 57:25 58:24 59:22 60:20 61:18 62:17 63:14 64:13 65:12 66:11 67:9 68:8 69:7 70:8 71:9 72:10 73:12 74:13 75:14 76:16 77:17 78:18 79:18 80:18 81:16 82:15 83:15 84:15 85:15 86:14 87:14 88:13 89:13 90:14 91:14 92:16 93:16 94:17 95:19 96:20 97:20 98:20 99:19 100:19 101:19 102:20 103:19 104:20 105:19 106:20 107:21 108:22 109:22 110:23 111:23 112:23 113:23 114:22 115:22 116:22 117:22 118:22 119:22 120:23 121:23 122:23 123:23 124:22 125:20 126:19 127:19 128:18 129:18 130:18 131:19 132:21 133:22 134:24 135:26 136:27 137:28 138:30 139:31 140:31 141:33 142:33 143:34 144:35 145:34 146:33 147:33 148:31 149:30 150:29 151:27 152:26 153:25 154:24 155:22 156:21 157:20 158:19 159:19 160:18 161:16 162:16 163:15 164:14 165:12 166:11 167:10 168:8 169:7 170:6 171:7 172:9 173:10 174:10 175:11 176:12 177:12 178:14 179:14 180:15 181:17 182:18 183:19 184:21 185:22 186:23 187:25 188:26 189:27 190:29 191:30 192:31 193:33 194:34 195:35 196:37 197:38 198:39 199:41 200:42 
-1 1 0.1734754366354631 0.7942895882335369 1 0 1 0.8555256858788659 0.4218276274777535 0 1:63 2:62 3:60 4:58 5:56 6:54 7:52 8:50 9:48 10:46 11:44 12:42 13:40 14:38 15:37 16:35 17:33 18:31 19:30 20:27 21:25 22:23 23:21 24:19 25:17 26:16 27:16 28:16 29:18 30:20 31:22 32:23 33:24 34:23 35:23 36:22 37:21 38:21 39:20 40:20 41:22 42:24 43:25 44:27 45:29 46:29 47:30 48:29 49:29 50:29 51:29 52:29 53:29 54:30 55:31 56:32 57:34 58:36 59:37 60:39 61:40 62:42 63:43 64:45 65:46 66:47 67:48 68:49 69:50 70:50 71:51 72:52 73:53 74:53 75:51 76:49 77:47 78:45 79:43 80:41 81:39 82:38 83:36 84:34 85:32 86:31 87:29 88:27 89:27 90:29 91:31 92:33 93:35 94:37 95:39 96:40 97:41 98:42 99:43 100:44 101:43 102:42 103:40 104:39 105:37 106:35 107:34 108:33 109:31 110:30 111:29 112:28 113:26 114:25 115:25 116:23 117:21 118:21 119:19 120:18 121:18 122:18 123:18 124:18 125:18 126:18 127:20 128:21 129:21 130:23 131:24 132:25 133:27 134:29 135:31 136:31 137:33 138:35 139:37 140:39 141:41 142:43 143:44 144:47 145:48 146:50 147:52 148:54 149:55 150:57 151:59 152:61 153:63 154:64 155:66 156:65 157:63 158:61 159:58 160:56 161:54 162:53 163:51 164:49 165:46 166:44 167:42 168:40 169:38 170:36 171:34 172:32 173:30 174:27 175:26 176:24 177:22 178:20 179:20 180:22 181:24 182:26 183:28 184:30 185:32 186:34 187:36 188:38 189:39 190:41 191:43 192:45 193:47 194:49 195:51 196:53 197:55 198:57 199:59 200:61 
-0 0 0.8805103192452497 0 0.5058028914786256 0.3026676560898019 0 0 0.7742987330284726 0.2899115371611708 1:60 2:59 3:58 4:57 5:55 6:53 7:52 8:50 9:49 10:47 11:45 12:44 13:42 14:41 15:39 16:37 17:36 18:34 19:33 20:31 21:29 22:28 23:26 24:25 25:24 26:22 27:21 28:19 29:17 30:16 31:15 32:14 33:14 34:15 35:17 36:18 37:19 38:20 39:21 40:21 41:21 42:22 43:22 44:22 45:23 46:24 47:26 48:28 49:29 50:31 51:31 52:31 53:32 54:33 55:33 56:33 57:35 58:36 59:37 60:38 61:39 62:40 63:41 64:41 65:42 66:43 67:43 68:43 69:44 70:44 71:44 72:44 73:44 74:44 75:44 76:43 77:41 78:40 79:39 80:38 81:37 82:38 83:40 84:41 85:42 86:43 87:44 88:45 89:45 90:44 91:43 92:41 93:39 94:38 95:36 96:35 97:34 98:34 99:34 100:32 101:31 102:30 103:29 104:28 105:26 106:25 107:24 108:22 109:22 110:21 111:20 112:20 113:20 114:21 115:20 116:21 117:23 118:24 119:26 120:27 121:28 122:30 123:30 124:32 125:34 126:36 127:37 128:38 129:40 130:42 131:43 132:45 133:45 134:47 135:49 136:50 137:51 138:51 139:52 140:52 141:51 142:50 143:50 144:48 145:47 146:45 147:42 148:41 149:39 150:38 151:36 152:33 153:32 154:30 155:28 156:26 157:23 158:21 159:19 160:17 161:14 162:12 163:10 164:9 165:8 166:9 167:10 168:11 169:12 170:14 171:16 172:17 173:19 174:20 175:22 176:24 177:25 178:27 179:28 180:30 181:32 182:33 183:35 184:37 185:38 186:40 187:41 188:43 189:45 190:46 191:48 192:49 193:51 194:53 195:54 196:56 197:57 198:59 199:60 200:60 
-0 0 0 0 0 0 0 0 0 1 1:62 2:61 3:60 4:58 5:57 6:55 7:53 8:52 9:50 10:48 11:47 12:45 13:43 14:41 15:40 16:38 17:36 18:35 19:33 20:31 21:31 22:29 23:27 24:26 25:24 26:22 27:20 28:19 29:17 30:15 31:15 32:14 33:15 34:17 35:19 36:21 37:22 38:23 39:24 40:23 41:24 42:23 43:23 44:23 45:23 46:25 47:27 48:28 49:30 50:30 51:31 52:31 53:31 54:31 55:32 56:32 57:33 58:33 59:34 60:36 61:38 62:38 63:39 64:40 65:41 66:41 67:42 68:43 69:44 70:44 71:45 72:45 73:46 74:46 75:46 76:46 77:47 78:46 79:43 80:43 81:41 82:39 83:38 84:39 85:40 86:41 87:43 88:42 89:42 90:42 91:41 92:39 93:38 94:39 95:41 96:41 97:40 98:38 99:35 100:34 101:34 102:32 103:32 104:32 105:31 106:30 107:29 108:27 109:25 110:24 111:23 112:21 113:22 114:21 115:21 116:21 117:20 118:20 119:22 120:24 121:25 122:26 123:28 124:28 125:29 126:31 127:32 128:34 129:35 130:36 131:38 132:40 133:42 134:42 135:44 136:46 137:47 138:48 139:50 140:50 141:51 142:52 143:52 144:52 145:51 146:51 147:49 148:46 149:45 150:43 151:41 152:39 153:38 154:36 155:33 156:32 157:30 158:28 159:26 160:24 161:21 162:20 163:18 164:15 165:13 166:11 167:9 168:9 169:10 170:11 171:13 172:15 173:16 174:18 175:20 176:21 177:23 178:25 179:27 180:28 181:30 182:32 183:33 184:35 185:37 186:38 187:40 188:42 189:43 190:45 191:47 192:49 193:50 194:52 195:54 196:55 197:57 198:59 199:60 200:61 
-0 1 0 0 0 0 0 0 1 0 1:62 2:61 3:59 4:57 5:56 6:54 7:52 8:50 9:49 10:47 11:45 12:43 13:42 14:41 15:39 16:37 17:36 18:34 19:32 20:30 21:29 22:27 23:25 24:23 25:22 26:23 27:25 28:26 29:28 30:27 31:26 32:25 33:24 34:22 35:22 36:22 37:24 38:25 39:25 40:26 41:26 42:26 43:25 44:25 45:27 46:28 47:28 48:30 49:30 50:31 51:31 52:33 53:34 54:34 55:35 56:36 57:37 58:37 59:38 60:39 61:40 62:41 63:42 64:43 65:43 66:45 67:46 68:47 69:47 70:48 71:50 72:51 73:52 74:53 75:54 76:52 77:51 78:49 79:48 80:47 81:46 82:44 83:42 84:41 85:39 86:37 87:37 88:39 89:40 90:42 91:43 92:44 93:44 94:44 95:43 96:42 97:40 98:39 99:38 100:37 101:35 102:33 103:32 104:30 105:27 106:25 107:24 108:24 109:24 110:25 111:26 112:26 113:24 114:23 115:23 116:21 117:21 118:20 119:20 120:20 121:21 122:22 123:22 124:22 125:23 126:24 127:26 128:27 129:29 130:30 131:32 132:33 133:35 134:36 135:38 136:39 137:41 138:43 139:44 140:45 141:47 142:49 143:50 144:52 145:53 146:55 147:56 148:57 149:58 150:58 151:59 152:58 153:56 154:55 155:53 156:50 157:48 158:47 159:45 160:43 161:41 162:39 163:38 164:35 165:33 166:31 167:30 168:27 169:25 170:23 171:21 172:18 173:17 174:18 175:18 176:20 177:22 178:24 179:25 180:27 181:29 182:31 183:32 184:34 185:36 186:38 187:39 188:41 189:43 190:45 191:46 192:48 193:50 194:52 195:53 196:55 197:57 198:59 199:60 200:62 
-0.4110106497347413 0 0 0.3640406695196328 0 0 0.3811977482317199 0.5834870017268948 1 1 1:62 2:61 3:59 4:58 5:56 6:55 7:53 8:52 9:50 10:48 11:47 12:45 13:44 14:42 15:41 16:39 17:37 18:36 19:34 20:33 21:31 22:30 23:29 24:29 25:30 26:29 27:29 28:27 29:27 30:25 31:24 32:24 33:24 34:25 35:24 36:24 37:23 38:23 39:23 40:23 41:24 42:25 43:26 44:26 45:26 46:26 47:26 48:28 49:28 50:29 51:29 52:30 53:31 54:31 55:33 56:32 57:34 58:33 59:35 60:36 61:36 62:37 63:38 64:39 65:40 66:41 67:42 68:43 69:44 70:45 71:46 72:47 73:48 74:50 75:50 76:52 77:52 78:51 79:50 80:48 81:47 82:45 83:44 84:42 85:41 86:41 87:41 88:41 89:41 90:41 91:41 92:41 93:40 94:39 95:38 96:37 97:36 98:35 99:34 100:33 101:32 102:31 103:30 104:29 105:27 106:26 107:24 108:22 109:21 110:19 111:18 112:19 113:20 114:19 115:19 116:20 117:20 118:20 119:20 120:21 121:21 122:22 123:23 124:24 125:25 126:27 127:28 128:29 129:31 130:32 131:33 132:35 133:36 134:38 135:38 136:41 137:41 138:43 139:45 140:46 141:47 142:48 143:50 144:51 145:53 146:54 147:55 148:56 149:56 150:57 151:58 152:57 153:55 154:53 155:52 156:50 157:49 158:47 159:45 160:44 161:42 162:40 163:38 164:37 165:35 166:33 167:32 168:30 169:29 170:26 171:25 172:23 173:21 174:20 175:21 176:23 177:24 178:26 179:27 180:29 181:31 182:32 183:34 184:35 185:37 186:38 187:40 188:42 189:43 190:45 191:46 192:48 193:49 194:51 195:53 196:54 197:56 198:57 199:59 200:60 
-0 1 0 0 0 0 0 0 0 0 1:58 2:57 3:56 4:55 5:53 6:52 7:50 8:48 9:46 10:44 11:43 12:41 13:40 14:37 15:36 16:34 17:32 18:32 19:30 20:28 21:27 22:25 23:24 24:22 25:21 26:20 27:18 28:17 29:15 30:14 31:14 32:14 33:15 34:16 35:16 36:17 37:18 38:18 39:19 40:21 41:22 42:24 43:25 44:26 45:26 46:26 47:26 48:28 49:30 50:32 51:34 52:35 53:36 54:38 55:38 56:40 57:40 58:42 59:43 60:43 61:43 62:44 63:43 64:42 65:43 66:44 67:44 68:44 69:43 70:42 71:40 72:38 73:37 74:35 75:34 76:34 77:35 78:36 79:37 80:38 81:39 82:39 83:40 84:39 85:40 86:40 87:39 88:39 89:40 90:41 91:43 92:44 93:44 94:43 95:42 96:40 97:39 98:37 99:34 100:33 101:31 102:29 103:28 104:26 105:24 106:23 107:21 108:20 109:19 110:17 111:16 112:15 113:14 114:14 115:14 116:15 117:15 118:15 119:16 120:17 121:19 122:21 123:22 124:24 125:25 126:26 127:28 128:30 129:31 130:33 131:34 132:36 133:38 134:39 135:41 136:43 137:43 138:46 139:46 140:48 141:49 142:50 143:51 144:52 145:52 146:52 147:52 148:49 149:48 150:46 151:44 152:43 153:41 154:39 155:38 156:36 157:33 158:32 159:30 160:28 161:26 162:24 163:23 164:21 165:18 166:17 167:15 168:13 169:11 170:9 171:9 172:9 173:10 174:12 175:13 176:15 177:17 178:18 179:20 180:22 181:23 182:25 183:26 184:29 185:31 186:32 187:34 188:36 189:37 190:39 191:41 192:43 193:44 194:46 195:48 196:50 197:52 198:55 199:56 200:56 
-0.3822704214626249 0 0.3609587405036491 0.1334945288125292 1 0 0.09635925527779395 0.8176044435420065 1 1 1:56 2:56 3:55 4:53 5:52 6:50 7:49 8:47 9:46 10:44 11:43 12:41 13:40 14:39 15:37 16:36 17:34 18:34 19:32 20:31 21:29 22:28 23:26 24:26 25:24 26:23 27:22 28:21 29:19 30:18 31:17 32:16 33:15 34:14 35:15 36:15 37:17 38:18 39:20 40:21 41:22 42:22 43:23 44:23 45:23 46:24 47:24 48:26 49:27 50:30 51:31 52:32 53:32 54:33 55:34 56:34 57:35 58:35 59:35 60:36 61:36 62:36 63:37 64:38 65:38 66:38 67:39 68:40 69:39 70:41 71:40 72:41 73:40 74:40 75:41 76:41 77:41 78:42 79:44 80:45 81:45 82:45 83:44 84:42 85:41 86:39 87:38 88:36 89:35 90:34 91:32 92:32 93:31 94:30 95:28 96:27 97:25 98:24 99:22 100:21 101:20 102:19 103:18 104:17 105:17 106:16 107:16 108:16 109:16 110:17 111:18 112:19 113:21 114:22 115:23 116:24 117:25 118:27 119:28 120:30 121:31 122:33 123:35 124:36 125:38 126:40 127:40 128:42 129:43 130:45 131:46 132:47 133:49 134:49 135:49 136:49 137:49 138:48 139:48 140:47 141:45 142:43 143:41 144:40 145:37 146:36 147:34 148:32 149:30 150:28 151:26 152:24 153:23 154:21 155:19 156:17 157:15 158:13 159:11 160:9 161:8 162:6 163:5 164:5 165:6 166:8 167:9 168:11 169:12 170:14 171:15 172:17 173:18 174:20 175:21 176:23 177:24 178:25 179:27 180:28 181:30 182:31 183:33 184:34 185:36 186:37 187:39 188:40 189:42 190:43 191:44 192:46 193:47 194:49 195:50 196:52 197:53 198:55 199:55 200:56 
-0.2271988535122283 1 0.2571496901178699 0 0 0 1 0.9203859975201426 1 1 1:57 2:56 3:55 4:53 5:52 6:50 7:49 8:48 9:46 10:45 11:43 12:41 13:40 14:39 15:38 16:36 17:35 18:33 19:32 20:31 21:29 22:27 23:25 24:25 25:26 26:27 27:28 28:27 29:27 30:25 31:24 32:22 33:21 34:21 35:22 36:22 37:22 38:22 39:22 40:21 41:21 42:21 43:22 44:22 45:22 46:23 47:23 48:23 49:23 50:24 51:24 52:24 53:25 54:25 55:26 56:25 57:26 58:26 59:27 60:28 61:28 62:29 63:29 64:30 65:31 66:31 67:33 68:33 69:34 70:35 71:36 72:37 73:38 74:39 75:40 76:42 77:42 78:43 79:44 80:45 81:46 82:46 83:45 84:44 85:42 86:41 87:39 88:38 89:37 90:37 91:36 92:35 93:34 94:32 95:31 96:32 97:31 98:31 99:31 100:31 101:31 102:30 103:30 104:28 105:28 106:27 107:27 108:26 109:25 110:25 111:23 112:22 113:20 114:20 115:18 116:17 117:16 118:16 119:15 120:15 121:14 122:14 123:15 124:16 125:17 126:18 127:19 128:20 129:22 130:23 131:25 132:26 133:28 134:29 135:29 136:31 137:32 138:34 139:35 140:36 141:38 142:39 143:41 144:42 145:44 146:45 147:45 148:47 149:48 150:49 151:50 152:51 153:51 154:50 155:49 156:47 157:46 158:45 159:43 160:42 161:39 162:38 163:36 164:35 165:34 166:32 167:30 168:28 169:27 170:26 171:24 172:22 173:20 174:19 175:19 176:21 177:22 178:23 179:25 180:26 181:28 182:29 183:31 184:32 185:33 186:35 187:36 188:38 189:39 190:40 191:42 192:43 193:45 194:46 195:48 196:49 197:50 198:52 199:53 200:55 
-0 0 1 1 1 1 0 0.9055624316348005 1 1 1:52 2:51 3:50 4:49 5:48 6:47 7:45 8:44 9:44 10:42 11:41 12:40 13:39 14:38 15:37 16:36 17:35 18:33 19:31 20:30 21:29 22:28 23:27 24:25 25:24 26:23 27:23 28:23 29:22 30:23 31:24 32:25 33:26 34:27 35:27 36:28 37:28 38:29 39:29 40:29 41:28 42:27 43:26 44:25 45:24 46:24 47:24 48:25 49:25 50:26 51:25 52:24 53:24 54:24 55:24 56:24 57:23 58:23 59:23 60:23 61:23 62:22 63:22 64:23 65:22 66:22 67:22 68:22 69:22 70:22 71:22 72:22 73:22 74:22 75:22 76:22 77:23 78:23 79:23 80:24 81:23 82:24 83:24 84:25 85:25 86:25 87:26 88:26 89:26 90:27 91:27 92:28 93:29 94:30 95:31 96:31 97:32 98:32 99:33 100:34 101:34 102:36 103:36 104:37 105:38 106:38 107:39 108:40 109:41 110:41 111:42 112:41 113:40 114:39 115:38 116:37 117:36 118:34 119:33 120:33 121:34 122:33 123:32 124:31 125:30 126:29 127:29 128:28 129:27 130:26 131:26 132:26 133:26 134:26 135:26 136:26 137:25 138:25 139:24 140:24 141:24 142:23 143:23 144:24 145:23 146:23 147:23 148:22 149:22 150:21 151:20 152:20 153:19 154:19 155:19 156:18 157:18 158:17 159:17 160:17 161:17 162:17 163:17 164:17 165:18 166:17 167:19 168:20 169:21 170:23 171:24 172:25 173:26 174:27 175:29 176:29 177:30 178:31 179:32 180:33 181:34 182:35 183:36 184:37 185:38 186:40 187:41 188:41 189:43 190:44 191:44 192:45 193:46 194:47 195:48 196:49 197:49 198:50 199:50 200:51 
-0.5142730459224054 1 1 1 1 1 0.91449772679639 1 0.9020344606550804 1 1:49 2:48 3:46 4:45 5:44 6:43 7:42 8:41 9:40 10:39 11:38 12:37 13:36 14:35 15:34 16:33 17:32 18:31 19:29 20:28 21:27 22:26 23:25 24:24 25:23 26:22 27:23 28:23 29:24 30:25 31:26 32:27 33:28 34:29 35:29 36:29 37:30 38:29 39:28 40:27 41:26 42:26 43:26 44:26 45:27 46:27 47:27 48:26 49:26 50:26 51:26 52:25 53:25 54:24 55:24 56:24 57:23 58:23 59:22 60:23 61:22 62:22 63:22 64:21 65:21 66:21 67:21 68:22 69:21 70:21 71:21 72:21 73:21 74:21 75:21 76:22 77:22 78:21 79:22 80:22 81:22 82:23 83:22 84:23 85:23 86:24 87:24 88:24 89:25 90:26 91:27 92:27 93:28 94:29 95:29 96:30 97:30 98:31 99:31 100:32 101:33 102:34 103:34 104:35 105:36 106:37 107:38 108:39 109:39 110:39 111:38 112:38 113:37 114:36 115:35 116:34 117:33 118:32 119:32 120:32 121:32 122:32 123:32 124:31 125:30 126:29 127:28 128:27 129:26 130:26 131:25 132:25 133:24 134:24 135:24 136:24 137:24 138:24 139:23 140:23 141:23 142:22 143:21 144:22 145:21 146:22 147:22 148:22 149:22 150:22 151:22 152:22 153:21 154:21 155:21 156:20 157:20 158:20 159:19 160:19 161:19 162:19 163:19 164:19 165:20 166:20 167:20 168:20 169:20 170:20 171:22 172:23 173:24 174:25 175:26 176:27 177:28 178:29 179:30 180:31 181:32 182:33 183:34 184:34 185:35 186:36 187:38 188:38 189:39 190:40 191:42 192:42 193:43 194:44 195:45 196:46 197:47 198:47 199:48 200:48 
-1 1 1 1 1 1 1 1 1 1 1:47 2:46 3:45 4:44 5:43 6:42 7:41 8:40 9:39 10:38 11:37 12:36 13:35 14:33 15:32 16:31 17:30 18:29 19:28 20:27 21:26 22:25 23:24 24:23 25:22 26:22 27:23 28:23 29:24 30:25 31:26 32:27 33:28 34:29 35:29 36:30 37:29 38:28 39:27 40:26 41:25 42:26 43:26 44:26 45:27 46:26 47:27 48:27 49:26 50:26 51:26 52:25 53:25 54:24 55:24 56:24 57:23 58:23 59:23 60:23 61:22 62:22 63:22 64:21 65:22 66:22 67:22 68:22 69:22 70:22 71:22 72:22 73:21 74:21 75:21 76:21 77:22 78:22 79:22 80:22 81:22 82:23 83:23 84:23 85:23 86:24 87:24 88:24 89:25 90:25 91:26 92:27 93:27 94:28 95:29 96:30 97:30 98:30 99:31 100:32 101:32 102:33 103:34 104:34 105:35 106:36 107:37 108:38 109:39 110:39 111:39 112:39 113:38 114:37 115:36 116:35 117:34 118:33 119:32 120:32 121:32 122:32 123:32 124:32 125:31 126:30 127:29 128:28 129:27 130:26 131:26 132:25 133:25 134:24 135:24 136:25 137:24 138:24 139:24 140:24 141:23 142:23 143:23 144:22 145:21 146:22 147:21 148:22 149:22 150:22 151:22 152:22 153:22 154:22 155:21 156:21 157:21 158:20 159:20 160:19 161:19 162:19 163:19 164:19 165:19 166:19 167:20 168:20 169:20 170:20 171:20 172:20 173:21 174:22 175:23 176:25 177:25 178:27 179:28 180:28 181:29 182:30 183:31 184:32 185:33 186:34 187:35 188:36 189:37 190:38 191:38 192:40 193:41 194:42 195:42 196:43 197:44 198:45 199:45 200:46 
-0 0 0 0 0 0 0 0 0 1 1:58 2:58 3:57 4:55 5:53 6:52 7:51 8:49 9:48 10:46 11:45 12:44 13:42 14:41 15:39 16:38 17:37 18:35 19:34 20:33 21:30 22:30 23:30 24:28 25:27 26:25 27:24 28:23 29:22 30:22 31:21 32:21 33:21 34:21 35:20 36:20 37:21 38:20 39:21 40:21 41:21 42:21 43:21 44:21 45:21 46:21 47:22 48:22 49:22 50:23 51:23 52:24 53:25 54:25 55:26 56:26 57:26 58:27 59:28 60:28 61:30 62:30 63:31 64:32 65:33 66:35 67:35 68:36 69:37 70:38 71:39 72:41 73:42 74:43 75:44 76:43 77:42 78:41 79:39 80:38 81:37 82:36 83:36 84:35 85:34 86:34 87:34 88:34 89:33 90:32 91:31 92:30 93:30 94:30 95:30 96:29 97:29 98:29 99:28 100:27 101:27 102:26 103:26 104:25 105:25 106:25 107:23 108:23 109:22 110:21 111:21 112:20 113:20 114:20 115:19 116:18 117:17 118:16 119:16 120:15 121:15 122:16 123:18 124:19 125:21 126:22 127:24 128:25 129:25 130:27 131:28 132:29 133:30 134:32 135:33 136:34 137:35 138:36 139:38 140:39 141:41 142:42 143:43 144:44 145:45 146:46 147:48 148:49 149:49 150:51 151:50 152:49 153:48 154:45 155:44 156:43 157:41 158:40 159:39 160:37 161:36 162:35 163:33 164:32 165:30 166:29 167:28 168:26 169:25 170:24 171:22 172:21 173:21 174:20 175:21 176:22 177:23 178:25 179:25 180:27 181:28 182:29 183:31 184:32 185:33 186:35 187:37 188:38 189:40 190:41 191:43 192:44 193:45 194:47 195:49 196:50 197:52 198:53 199:54 200:57 
-0 0.5269270193725573 0 0 0 0 0 0 0 0 1:50 2:50 3:49 4:47 5:46 6:44 7:43 8:41 9:40 10:38 11:37 12:36 13:34 14:33 15:31 16:30 17:28 18:27 19:26 20:25 21:23 22:21 23:21 24:19 25:17 26:16 27:15 28:15 29:16 30:16 31:17 32:16 33:16 34:16 35:15 36:15 37:15 38:14 39:14 40:16 41:18 42:19 43:21 44:21 45:22 46:22 47:23 48:24 49:26 50:27 51:29 52:29 53:30 54:31 55:32 56:33 57:34 58:35 59:35 60:36 61:37 62:38 63:38 64:39 65:40 66:40 67:41 68:40 69:40 70:38 71:37 72:36 73:34 74:33 75:31 76:30 77:29 78:28 79:26 80:26 81:26 82:27 83:28 84:29 85:31 86:32 87:33 88:34 89:35 90:35 91:35 92:35 93:34 94:34 95:33 96:32 97:31 98:31 99:30 100:29 101:27 102:26 103:25 104:23 105:21 106:19 107:18 108:17 109:16 110:16 111:17 112:16 113:15 114:15 115:15 116:16 117:16 118:16 119:16 120:16 121:17 122:17 123:18 124:18 125:20 126:21 127:22 128:24 129:25 130:26 131:28 132:29 133:29 134:31 135:32 136:34 137:35 138:37 139:38 140:39 141:41 142:42 143:43 144:44 145:46 146:46 147:48 148:48 149:49 150:47 151:46 152:44 153:43 154:42 155:40 156:38 157:37 158:36 159:34 160:32 161:31 162:30 163:28 164:26 165:25 166:23 167:22 168:20 169:19 170:17 171:16 172:14 173:13 174:14 175:15 176:17 177:18 178:20 179:21 180:23 181:24 182:26 183:27 184:28 185:30 186:31 187:33 188:34 189:36 190:37 191:39 192:40 193:41 194:43 195:44 196:46 197:47 198:49 199:50 200:50 
-0.7109318486831036 1 0.4701811286716098 1 0 0 1 0.6810065187206644 0.1391722036681592 0.4377428477989587 1:45 2:44 3:42 4:41 5:39 6:38 7:36 8:34 9:33 10:31 11:30 12:28 13:26 14:25 15:23 16:22 17:20 18:18 19:17 20:15 21:14 22:12 23:11 24:10 25:10 26:11 27:12 28:14 29:15 30:17 31:19 32:21 33:23 34:24 35:26 36:28 37:30 38:31 39:33 40:35 41:37 42:38 43:40 44:42 45:44 46:46 47:47 48:48 49:48 50:47 51:45 52:44 53:42 54:40 55:39 56:37 57:35 58:33 59:32 60:30 61:29 62:27 63:26 64:23 65:22 66:20 67:19 68:17 69:15 70:14 71:13 72:12 73:13 74:14 75:16 76:17 77:17 78:17 79:17 80:16 81:16 82:16 83:16 84:17 85:19 86:21 87:22 88:23 89:24 90:25 91:26 92:26 93:27 94:29 95:30 96:32 97:33 98:33 99:34 100:35 101:37 102:38 103:38 104:39 105:40 106:42 107:42 108:40 109:39 110:37 111:36 112:35 113:34 114:33 115:32 116:31 117:31 118:29 119:28 120:28 121:30 122:30 123:30 124:30 125:28 126:27 127:25 128:24 129:24 130:24 131:27 132:27 133:29 134:31 135:33 136:35 137:36 138:37 139:37 140:37 141:37 142:36 143:35 144:33 145:32 146:31 147:29 148:29 149:27 150:26 151:27 152:28 153:30 154:31 155:32 156:32 157:31 158:30 159:28 160:26 161:24 162:22 163:20 164:20 165:20 166:20 167:19 168:18 169:17 170:17 171:16 172:16 173:16 174:15 175:15 176:16 177:17 178:16 179:17 180:19 181:19 182:21 183:22 184:23 185:23 186:25 187:27 188:28 189:29 190:30 191:32 192:34 193:35 194:37 195:37 196:39 197:41 198:42 199:43 200:44 
-0 0 0 0 0 0 0 0 0 0.9418280539158238 1:46 2:45 3:44 4:43 5:42 6:40 7:39 8:38 9:37 10:35 11:34 12:33 13:32 14:30 15:29 16:28 17:27 18:25 19:24 20:23 21:22 22:20 23:19 24:18 25:18 26:16 27:16 28:15 29:16 30:17 31:16 32:17 33:17 34:16 35:15 36:15 37:14 38:14 39:13 40:13 41:14 42:15 43:16 44:17 45:18 46:18 47:18 48:19 49:20 50:19 51:20 52:21 53:22 54:23 55:24 56:25 57:27 58:28 59:29 60:29 61:30 62:31 63:31 64:32 65:33 66:34 67:34 68:34 69:34 70:35 71:35 72:35 73:34 74:34 75:34 76:32 77:30 78:29 79:28 80:27 81:26 82:28 83:29 84:30 85:30 86:31 87:31 88:31 89:30 90:29 91:28 92:27 93:25 94:24 95:24 96:24 97:24 98:25 99:25 100:25 101:24 102:23 103:22 104:22 105:21 106:18 107:17 108:16 109:15 110:15 111:15 112:14 113:14 114:13 115:13 116:13 117:14 118:14 119:14 120:15 121:15 122:15 123:16 124:17 125:18 126:19 127:20 128:22 129:22 130:23 131:24 132:26 133:26 134:28 135:29 136:31 137:32 138:33 139:34 140:36 141:37 142:38 143:39 144:41 145:42 146:42 147:43 148:43 149:42 150:42 151:39 152:38 153:37 154:36 155:35 156:33 157:32 158:30 159:30 160:27 161:26 162:25 163:24 164:21 165:20 166:19 167:18 168:16 169:14 170:13 171:12 172:13 173:15 174:16 175:17 176:18 177:20 178:21 179:22 180:23 181:24 182:26 183:27 184:28 185:29 186:31 187:32 188:33 189:34 190:36 191:37 192:38 193:39 194:41 195:42 196:43 197:44 198:46 199:46 200:46 
-0 0 0 0 1 0 0 0 0 1 1:47 2:46 3:45 4:44 5:42 6:41 7:40 8:39 9:37 10:36 11:35 12:33 13:32 14:31 15:30 16:28 17:27 18:26 19:25 20:23 21:22 22:21 23:19 24:18 25:17 26:16 27:14 28:13 29:12 30:11 31:9 32:8 33:8 34:7 35:8 36:8 37:8 38:10 39:12 40:13 41:15 42:17 43:18 44:20 45:21 46:23 47:25 48:26 49:28 50:30 51:32 52:33 53:35 54:37 55:38 56:40 57:42 58:44 59:44 60:46 61:47 62:48 63:48 64:48 65:48 66:46 67:45 68:43 69:42 70:41 71:38 72:36 73:35 74:33 75:31 76:30 77:29 78:26 79:25 80:24 81:22 82:21 83:19 84:18 85:16 86:14 87:13 88:11 89:10 90:10 91:10 92:10 93:12 94:13 95:14 96:15 97:17 98:18 99:17 100:18 101:18 102:18 103:18 104:18 105:18 106:19 107:20 108:22 109:23 110:25 111:25 112:27 113:27 114:28 115:29 116:30 117:31 118:32 119:33 120:33 121:34 122:34 123:34 124:35 125:34 126:33 127:32 128:31 129:31 130:31 131:31 132:32 133:33 134:33 135:34 136:35 137:35 138:36 139:35 140:35 141:34 142:33 143:32 144:31 145:29 146:29 147:26 148:26 149:25 150:24 151:24 152:23 153:23 154:22 155:21 156:20 157:20 158:19 159:18 160:18 161:17 162:17 163:17 164:16 165:16 166:16 167:16 168:16 169:16 170:17 171:17 172:18 173:19 174:20 175:21 176:22 177:23 178:23 179:24 180:25 181:27 182:28 183:28 184:30 185:31 186:32 187:33 188:34 189:35 190:36 191:37 192:39 193:40 194:41 195:42 196:43 197:44 198:45 199:47 200:47 
-0 0 0 0 0.2979671968440483 0 0 0 0 1 1:47 2:46 3:45 4:44 5:42 6:41 7:41 8:40 9:38 10:36 11:35 12:34 13:32 14:32 15:31 16:30 17:28 18:27 19:26 20:25 21:23 22:22 23:21 24:21 25:19 26:18 27:17 28:16 29:15 30:14 31:13 32:12 33:12 34:12 35:13 36:14 37:15 38:17 39:17 40:18 41:18 42:18 43:18 44:18 45:18 46:18 47:18 48:19 49:20 50:22 51:24 52:25 53:26 54:27 55:28 56:28 57:29 58:29 59:30 60:31 61:31 62:32 63:32 64:33 65:33 66:34 67:34 68:35 69:35 70:35 71:35 72:34 73:32 74:32 75:32 76:31 77:32 78:34 79:34 80:35 81:35 82:35 83:35 84:35 85:33 86:32 87:31 88:30 89:28 90:27 91:26 92:25 93:23 94:22 95:21 96:20 97:19 98:18 99:17 100:17 101:16 102:15 103:15 104:15 105:15 106:15 107:15 108:14 109:15 110:16 111:17 112:18 113:19 114:21 115:22 116:22 117:23 118:25 119:26 120:26 121:28 122:29 123:31 124:31 125:33 126:34 127:36 128:36 129:38 130:39 131:40 132:41 133:42 134:43 135:43 136:44 137:44 138:43 139:43 140:42 141:40 142:38 143:37 144:36 145:34 146:33 147:31 148:31 149:28 150:26 151:26 152:24 153:22 154:20 155:19 156:17 157:16 158:14 159:12 160:11 161:9 162:7 163:6 164:5 165:5 166:6 167:7 168:8 169:9 170:11 171:12 172:13 173:14 174:16 175:17 176:18 177:19 178:21 179:22 180:23 181:24 182:26 183:27 184:28 185:29 186:31 187:32 188:33 189:34 190:36 191:37 192:38 193:39 194:41 195:42 196:43 197:44 198:46 199:47 200:47 
-0 0 0 0 0 0 0 0 0.2655529474218373 0 1:43 2:42 3:41 4:40 5:39 6:38 7:36 8:35 9:34 10:33 11:32 12:31 13:29 14:28 15:27 16:26 17:25 18:23 19:22 20:21 21:20 22:19 23:18 24:17 25:16 26:15 27:14 28:13 29:12 30:12 31:12 32:12 33:13 34:13 35:14 36:16 37:17 38:16 39:17 40:18 41:18 42:18 43:18 44:18 45:19 46:19 47:20 48:22 49:23 50:24 51:25 52:27 53:27 54:28 55:28 56:29 57:28 58:30 59:29 60:30 61:31 62:31 63:31 64:32 65:32 66:33 67:33 68:33 69:34 70:34 71:32 72:31 73:31 74:29 75:30 76:29 77:30 78:31 79:32 80:33 81:34 82:34 83:34 84:33 85:32 86:31 87:30 88:29 89:28 90:26 91:25 92:24 93:23 94:22 95:21 96:19 97:18 98:18 99:17 100:16 101:15 102:14 103:14 104:13 105:13 106:12 107:13 108:13 109:13 110:13 111:14 112:14 113:15 114:17 115:18 116:19 117:19 118:21 119:22 120:23 121:25 122:25 123:26 124:28 125:30 126:31 127:32 128:33 129:35 130:36 131:38 132:38 133:40 134:40 135:41 136:42 137:43 138:43 139:43 140:43 141:42 142:41 143:39 144:38 145:37 146:35 147:33 148:32 149:31 150:29 151:27 152:25 153:24 154:22 155:21 156:19 157:18 158:16 159:14 160:13 161:12 162:11 163:9 164:7 165:7 166:6 167:6 168:7 169:9 170:10 171:11 172:12 173:13 174:14 175:16 176:17 177:18 178:19 179:20 180:22 181:23 182:24 183:25 184:26 185:27 186:29 187:30 188:31 189:32 190:33 191:35 192:36 193:38 194:39 195:40 196:40 197:42 198:43 199:43 200:43 
-0 0 0 0 1 0 0 0 0 0 1:42 2:41 3:41 4:40 5:39 6:37 7:36 8:35 9:34 10:33 11:31 12:30 13:29 14:28 15:27 16:25 17:24 18:23 19:22 20:21 21:19 22:18 23:17 24:16 25:15 26:13 27:12 28:11 29:10 30:9 31:9 32:9 33:10 34:10 35:12 36:13 37:15 38:17 39:18 40:19 41:20 42:23 43:24 44:26 45:27 46:29 47:31 48:33 49:34 50:35 51:37 52:39 53:40 54:42 55:42 56:44 57:45 58:46 59:46 60:46 61:45 62:45 63:43 64:43 65:41 66:39 67:37 68:36 69:34 70:33 71:31 72:29 73:28 74:26 75:26 76:23 77:22 78:21 79:20 80:19 81:17 82:15 83:13 84:13 85:12 86:10 87:10 88:10 89:10 90:11 91:12 92:14 93:15 94:16 95:17 96:18 97:19 98:19 99:20 100:19 101:18 102:18 103:18 104:18 105:17 106:17 107:18 108:19 109:21 110:22 111:23 112:26 113:26 114:27 115:27 116:27 117:28 118:29 119:29 120:30 121:30 122:31 123:32 124:32 125:32 126:32 127:32 128:31 129:30 130:29 131:29 132:29 133:29 134:28 135:29 136:30 137:31 138:31 139:32 140:32 141:32 142:33 143:33 144:33 145:32 146:31 147:30 148:29 149:28 150:26 151:24 152:24 153:24 154:24 155:25 156:24 157:23 158:23 159:23 160:22 161:21 162:20 163:20 164:19 165:19 166:18 167:17 168:17 169:16 170:17 171:16 172:16 173:17 174:17 175:17 176:17 177:18 178:19 179:20 180:20 181:21 182:22 183:23 184:24 185:25 186:26 187:27 188:28 189:29 190:30 191:31 192:33 193:34 194:35 195:36 196:37 197:39 198:40 199:41 200:41 
